encog,BasicNetwork,java,3.4.0,1,1532881452826
[BASIC]
[BASIC:PARAMS]
[BASIC:NETWORK]
beginTraining=0
connectionLimit=0
contextTargetOffset=0,0,0,0
contextTargetSize=0,0,0,0
endTraining=3
hasContext=f
inputCount=16
layerCounts=4,26,101,17
layerFeedCounts=4,25,100,16
layerContextCount=0,0,0,0
layerIndex=0,4,30,131
output=0.0000010219,0.9999200074,0,0.0000789707,0,0,0,0,27.4398376635,0,0,0,30.4965511548,24.3727630892,0,0,26.3594855965,0,0,0,6.071976306,0,3.0458114524,16.1294437955,45.9569628844,0,38.447953234,33.8678005113,24.3494671246,1,8.5906715456,13.6490426984,0,0,0,0,3.8337964403,7.0069105993,5.4170220992,2.9289906492,3.4163757218,3.3652031266,0,11.1315727818,10.9701319933,0,6.4095693059,0,0,0,0,0,3.638340032,0,1.5575172583,5.1603171961,0,11.5314402765,5.873925784,0,0,0,2.1528148962,2.2008439348,0,0,7.0381030257,5.8026775984,2.3968781918,0,0,2.6621855388,19.8902520704,3.6869813391,0.8800695952,0,0,6.9355445481,4.306160677,12.9133161914,0,0,0,0,0,7.7411775636,0,0,14.2367272855,6.7192651729,9.7625228688,0,2.5470852109,1.9530087205,0.3701581746,5.4728646342,0,0,0,0,2.2932046704,0,0,0,3.3088680454,5.9722759935,0,3.0583688935,0,10.4833684386,0,0,0,4.8722609474,0,7.0449323454,2.0911457522,0,0.3045297332,0,5.1347187124,0,6.2590987129,4.0196871244,0,0,0,6.1063333411,11.0754587308,10.8811521657,1,0,0,0,4,0,0,0,8,0,0,0,4,0,2,8,2,1
outputCount=4
weightIndex=0,104,2629,4329
weights=##0
##double#4329
   -0.9255981782,0.4684904779,0.0856344272,0.9538693423,-0.294052697,-0.6463891361,-0.6462247297,-0.5071682856,-0.3303528884,-0.6729207055,-0.0982373176,-0.704710705,0.1032667467,-0.9565923871,-0.9232806162,-0.1244822335,0.7382806842,-0.0882679878,0.3725721846,0.8497752453,0.8502942335,-0.0959954909,-0.0908394943,0.3770311599,-0.187299262,0.963235377,0.0231301119,0.7571209114,-0.2783359388,-0.8907545335,0.672239431,0.6622752876,-0.0731116255,-0.3971641636,0.1402868619,0.8442470053,0.4439465197,-0.6891246592,0.5940049525,-0.592482061,-0.4687213924,0.9248311448,-0.8316966041,-0.4525122383,0.3987832487,0.8975581889,0.0350173291,0.8771115178,0.9078664591,-0.3148459953,0.7851082577,-0.3554058436,0.6556267882,0.7962452869,0.151204947,-0.9242923356,-0.9236794692,0.9499138331,0.4673474616,-0.0792956422,0.530695547,-0.3416962302,-0.3059375782,-0.6525771107,-0.2614466957,-0.7308663068,-0.2880866321,-0.99829859,-0.5998429471,-0.3589340166,0.5867857314,0.9408375003,0.2097499319,-0.144134897,0.1554241349,0.0852514896,-0.8056784523,0.8535958975,-0.8984842623,0.0696244391,0.2662011699,-0.2770439297,0.9095489103,0.7166500237,-0.0626025202,-0.8000919148,-0.2002542931,0.2722438094,0.8424710005,0.9895766333,-0.9491044873,0.3818374977,-0.269689906,0.8777347313,0.0835331062,0.0153569043,0.798585609,0.2158725774,0.6661832874,0.9736198088,-0.4176478565,0.1799347973,0.3604989104,0.2856469703,-0.8643428271,-0.4834265006,-0.6698904236,0.6839183282,-0.0499257775,-0.4653790542,-0.0310844848,0.9095125634,0.4554035175,0.1957976136,-0.0105980302,0.4047451927,0.2017113952,-0.2943150559,-0.1909012928,0.3038189712,0.0267442097,-0.4635553618,0.6724508602,0.0030417575,-0.1908905643,-0.821637733,-0.0795365635,-0.6285615777,0.2851286541,0.0733576416,0.6544796295,-0.8008694166,-0.88918625,0.1824300967,0.8129139979,0.9536309629,0.9218950888,-0.5183391225,-0.505194511,0.9246186031,0.9662531549,-0.3749428175,0.6905659595,0.5078929953,-0.9693748485,0.0512779288,-0.9837422307,0.2490151908,0.608226249,-0.7181568511,0.0732618483,-0.203851117,-0.5881517557,-0.1460322505,-0.954002671,0.579649207,-0.6293695,0.2764846257,0.0811898928,0.0295556816,0.7359692806,-0.2136190535,-0.6957645246,0.525873733,-0.1266818382,-0.1041146929,0.1713230612,0.0529833611,0.6272058981,0.2399245425,-0.689165942,0.8125728886,0.1983065931,0.0617453288,0.6796836044,-0.7233332996,0.9842442192,0.0831516889,-0.7690611372,0.2540157024,0.9487402428,-0.996770861,0.9461011539,0.1921498113,0.0047155857,0.3470157259,0.667852707,0.3315060787,0.4181780279,-0.6334837036,-0.0425581832,-0.1422334241,-0.63331159,0.8725258778,-0.3219343296,0.7974406503,0.5956110057,0.503134829,0.0022924776,0.9794132578,-0.4033506754,0.0786136558,0.1783664872,-0.3656318298,0.1682492633,-0.7283715137,0.6223145159,-0.5284098982,0.1228562882,-0.3963279698,-0.665990363,-0.716052615,-0.2510624831,-0.3753148934,0.8218262948,0.5412559939,-0.6363060537,0.3252356909,-0.3367265733,0.0383701091,0.5227899304,-0.2272012967,0.9389077164,-0.7401438284,-0.238643836,-0.3367245584,-0.1942523448,-0.9372415369,-0.166040249,-0.3167323377,-0.8534007136,0.4884443733,0.7000964871,0.025205406,0.8870146521,0.9130666918,-0.6168474005,0.4423959182,0.1686282076,0.3587217649,0.0033364697,0.2566592502,0.8090990823,0.0015145065,0.562908287,-0.6454635887,-0.0963568703,-0.9718761535,0.5472878171,-0.4201935273,0.5842747949,-0.7528164819,0.0027788849,-0.6451870352,-0.2626313734,-0.1527425618,-0.3227844317,-0.7812726688,-0.8178670421,-0.6138797539,-0.40462673,-0.8405314039,-0.8574205414,-0.065918066,0.4512906576,0.3066169345,0.431856515,-0.4651511276,0.4181042559,-0.5180759248,-0.50207787,0.1369819087,-0.8311028776,0.5016164303,-0.3345314699,0.5908233822,-0.6188795024,-0.1376427975,-0.8548274988,0.2462273628,0.5773702825,0.5431888363,0.1748959654,-0.7331753909,0.9495799498,-0.6252529881,0.1298361045,-0.6643582911,0.2322700866,0.2020470577,0.4866511108,-0.9480326451,-0.7334271171,0.5410331092,-0.2316028814,-0.528162093,-0.0092874069,0.1757030245,0.797992227,-0.092785535,0.2818208742,-0.4914981242,-0.4614644068,-0.3459508729,0.9148346749,0.8076007739,-0.1216382292,-0.2542280839,-0.9106425288,0.9408319929,-0.2569706501,-0.239173975,-0.4119849757,0.7839546721,-0.6776342315,-0.1943674715,0.6283866468,-0.4953494781,0.5676636727,-0.7924176857,-0.478265825,0.9986818993,-0.3121897322,0.5885370271,-0.4035972888,0.2415621674,-0.6341830903,-0.1707029582,0.2270623201,0.9253302463,-0.4331062917,-0.2195097676,0.9025004465,-0.9733785722,-0.6387366541,-0.972387942,0.5491181477,0.8991352861,-0.6253382028,0.5045339284,0.3022178417,0.6426603529,-0.3814595878,0.4731031369,-0.3209124775,0.0440877561,0.133852978,0.9329689978,-0.8285349335,0.6064124659,-0.1759165565,-0.522604877,0.7945475472,0.5267995024,-0.8400513579,-0.8109322547,0.7692056313,0.9317909877,0.0053487073,0.831626227,-0.755200613,-0.2442678133,-0.0316135528,-0.7149525266,0.5365248069,-0.8405168305,0.8770562327,-0.0452818753,-0.5171947691,0.1895662925,0.11236081,0.8360040366,-0.2625007757,-0.328864345,-0.7667438313,-0.6109764236,-0.8904410346,0.4635647269,0.8031424804,-0.406581298,0.0900521742,-0.8375134587,-0.4358830189,0.3115065809,-0.4214313084,0.9966157796,0.4213181788,0.7602448323,-0.173480441,0.5101562492,0.5110601751,-0.3073585288,0.6891796825,0.8683486241,-0.573374422,-0.4431181508,0.8369283877,0.4352665781,-0.9261290593,-0.8127349243,-0.2451526191,0.6024917401,0.8845737161,0.6275739811,0.5780356139,0.7558365165,-0.206438224,-0.2897023248,-0.5612225547,0.9569585524,0.5077271571,0.9113682019,-0.947378295,-0.1486736886,-0.3299067205,0.5583824703,0.2575599392,0.9353748593,-0.3856005996,0.1030524586,-0.0772352895,0.7055755466,-0.9866656958,-0.6931477251,0.4060956404,-0.704383954,0.7742617933,-0.7218527732,0.0892230227,0.6391487036,-0.6074570305,0.5165783444,0.2969889011,-0.8691137314,0.4489320993,0.4761521288,0.2341402519,0.1933919926,0.6577313284,-0.4165702119,-0.8326283241,-0.8026118645,-0.9858841954,-0.7524474308,0.5141380958,0.3403675952,-0.4404128525,-0.3415342745,-0.440994076,0.032081423,0.883246167,-0.7137842607,0.0450671993,-0.2097859843,-0.5865303034,0.3725710237,-0.7688414114,0.7006624732,-0.6977372961,-0.764773014,0.6137766256,-0.3352201139,-0.4567606936,0.4082112405,0.5888292817,0.8965957963,-0.8332552639,-0.8241746139,-0.1819987107,0.5949812091,-0.255182385,-0.1749974435,-0.5630195695,-0.670760121,-0.3791719022,0.354803359,-0.6806641837,-0.1107982324,-0.8568969593,0.5367331678,-0.5210663172,0.7397611711,0.4617233752,0.1372881452,-0.6531328995,0.6560716951,-0.0993678254,-0.6179515532,0.4642574118,0.4445762378,-0.84898863,-0.5593411412,-0.6991287134,0.8886247956,0.0126097225,0.4884601297,-0.8761748083,0.1888152081,0.8078084671,-0.553495379,-0.6502118188,0.0528450539,0.7634077136,0.8659621284,-0.3297428402,-0.2191072296,0.6174755061,-0.5436297388,0.0043391532,0.8943872143,-0.0161528759,-0.9694149706,0.8248065313,0.5763898949,0.1961181242,0.9661853461,0.9261077759,0.3977441782,-0.0891538043,-0.3842887018,0.3248000146,-0.1451746798,0.1551562242,-0.8009827925,0.7452568671,0.6888676037,-0.1235076736,-0.2415753569,0.2400015876,0.2497078386,-0.1294752804,-0.3001268736,0.6793479708,-0.767954412,0.1201217254,-0.0283663761,-0.9351495189,0.3492195564,-0.0351987977,0.8233528783,0.1819287758,-0.1898146531,0.5355805846,0.8407797861,0.2040526767,-0.933673852,0.8583003776,-0.0519444233,0.7629142278,-0.5625721839,0.9827760491,0.1822809899,0.4698954826,-0.6308536782,-0.942723637,0.2108452727,-0.4065434927,0.7897081796,-0.3681673044,0.9349952208,0.5245939149,0.4268100176,-0.1651555943,-0.3862705672,-0.4756992018,-0.8188899399,-0.6577971478,-0.8406998209,-0.6426984145,-0.8596922444,0.8149437494,0.8104290407,0.4576791247,0.1881624021,0.6866113671,0.460258811,0.8656557364,0.5066304546,0.4552586909,-0.2621624913,0.0133448554,0.8996488702,-0.0918072598,-0.8952791937,0.0976536355,-0.9634680321,-0.3585972357,0.3244079283,-0.8374368904,0.6094949814,-0.1000129764,-0.2347409232,0.1347130047,-0.1818686361,0.742434022,-0.4371226874,-0.9498628197,-0.6786942336,0.2532107487,0.6799286205,0.2252019317,0.6953956794,0.5376932646,0.0487759454,0.4994765499,0.1406529891,-0.4534845223,0.2860400902,0.6087644958,0.6262583087,0.2770868203,0.6234213631,0.2795359197,0.6254424941,0.7527502653,0.0657776399,-0.2130569077,0.9378629349,-0.0430551801,0.475002118,0.8553651312,-0.1634927369,-0.2508505781,-0.0855807002,-0.2887362211,-0.5625525471,-0.454926731,0.9239416252,-0.3295587923,0.4711274888,-0.5070792724,0.9189811591,-0.1577032542,-0.5589721158,0.8319608939,0.636515886,0.6363846874,0.1706868583,0.6185565562,-0.511455708,0.8410474018,-0.2192792513,0.4892617718,-0.5940430475,0.7238920792,0.5703237315,0.0144677746,-0.8298335244,0.5451793129,-0.9160385124,-0.1062533496,-0.8044212617,-0.8904894276,0.9720704179,-0.2111954459,-0.3690061291,-0.6611931607,-0.4114349632,-0.3660695346,-0.8610528859,-0.9682095065,0.7096547674,-0.5989066936,0.3495580089,-0.3496163888,0.127207962,-0.4653121032,-0.8723633518,-0.9898223117,-0.8007211433,0.269195882,0.8095808721,-0.4880929423,-0.9244489749,-0.9976635956,-0.2859862509,-0.1040795939,0.8256349762,0.9956032663,-0.5741376131,-0.7176837391,-0.4004726062,-0.8160983593,-0.290474429,0.6701327324,-0.7248974047,-0.9555981105,-0.3033218219,-0.4234004662,0.606143391,0.2298285034,0.168141615,0.6750761387,-0.6283259049,-0.3003009428,-0.6446346068,0.480704377,-0.6175668584,0.7253096108,0.8446264796,-0.4872945179,0.5474956749,-0.9983596887,0.7658561753,0.5345780486,-0.9035755447,-0.5804328806,0.6594494332,-0.4509580598,0.1885471057,-0.0161026581,-0.6744310756,0.6544536827,-0.8284639374,-0.2590919889,-0.14813813,0.3131217787,-0.6206278887,-0.3394448548,0.5432840248,0.6487262586,0.6897034503,-0.3536008757,-0.3107679642,-0.9134808803,0.8780165372,0.3587732678,0.2201849333,0.7935178708,-0.518068633,0.2428170283,-0.3106585715,0.5079738667,0.1329527134,-0.5666653648,-0.0187565738,-0.7436734913,0.5913135981,0.7265968043,0.7106518472,-0.8205876912,0.9967452454,-0.7152187372,-0.0747277416,-0.6826377762,0.5759072726,-0.5092307824,0.5187272771,0.2634072268,-0.7187788252,0.7383536788,-0.6684266219,0.3686278976,0.7786386391,-0.1544548569,0.4013257529,-0.2246825672,0.2334782755,-0.2267258174,-0.9014375934,0.5075231292,-0.2886608073,0.6837239419,-0.5561849853,-0.3453295715,0.0143928786,-0.2477129881,-0.5200843665,0.6274879477,0.8209160303,-0.8384205102,0.6908758351,-0.4379831364,0.6171630322,0.9958181604,0.1525297159,0.8830481534,0.53889857,-0.044272402,0.1247516469,-0.6263601085,-0.9336845983,-0.2114657979,-0.0666791389,0.1767582417,-0.956491831,0.0591152374,0.9921236326,0.7426350403,-0.920657713,0.6106047506,-0.8714921449,0.7955385837,-0.4314045177,0.7127235977,0.1424957188,-0.9059675804,0.7501013995,-0.5937997792,-0.4749639985,0.5856162533,-0.5167849831,-0.0099822449,0.4574267491,-0.9627185181,-0.2354634862,0.5706588563,0.250797677,-0.9124455586,-0.788293998,0.2323357851,0.5144308712,-0.9803475045,-0.402005214,-0.9287003113,-0.4315630454,-0.9095336651,0.3050215724,-0.7352915757,0.5766311484,-0.0976929512,-0.5999173947,-0.6795885543,0.9532539182,-0.4307011142,-0.6008735301,-0.5410871002,0.7587647115,-0.1938334695,-0.3827308524,0.8101058361,-0.2693158533,0.2297738865,-0.8206169617,0.6659304103,0.0328046999,0.0823977841,0.6259703186,-0.4429620375,0.3507075522,0.1740159426,-0.6233290648,-0.785219266,-0.7399325063,0.9431384865,-0.0657727488,-0.952271552,-0.0760370038,0.1429001939,-0.1394348556,-0.0824729903,-0.9466357601,-0.2115522222,0.6827793372,0.742155515,-0.1239967255,-0.2767445512,-0.6410433583,0.1951887725,-0.3078087006,-0.2730020246,0.415598404,0.2716161131,0.3569231918,0.4784433676,-0.3813962141,0.2998666379,0.5992028419,-0.1722767667,0.1409042449,-0.7843048833,-0.9739751464,0.999015679,0.5615890334,-0.6758235739,0.1930800423,0.9252924215,0.8833225498,0.2302727329,0.1526347826,0.7434743859,0.9634973527,-0.2184806736,0.6261315918,0.0171142009,-0.5307146459,0.8039047708,0.2362416644,0.9626911273,-0.1343777752,-0.7933861405,0.950471762,-0.9332516646,0.979530913,-0.0119236256,0.4916544,0.4758766857,-0.2916428715,-0.0848191162,-0.7191095942,0.5216708564,-0.1801824284,0.6950871912,-0.6185725507,-0.3205212786,-0.5430551167,0.893142261,0.9218322954,-0.1063104206,0.9400796378,0.4962845063,0.6835168103,0.4180933534,-0.0986386667,-0.0626951263,-0.9491288382,-0.8364603938,-0.0611281963,0.949028373,0.9851142921,0.3541515124,0.6544049328,0.7511145273,-0.3677205477,-0.2332026757,0.8325981561,-0.0290128676,-0.2541029743,0.0338615137,-0.9842842471,-0.7817862804,-0.9567470609,0.486126394,0.2681168412,-0.6536826882,-0.169583739,-0.8055837399,0.2090842766,-0.8263433118,0.7800243267,0.5091947626,0.3072592706,-0.4467111817,-0.3327331979,-0.1664940557,0.5771943563,-0.1312468067,-0.2958749682,-0.0535920307,0.7874664634,0.1582940789,0.8007668463,-0.6735056744,0.0842343597,0.0945482637,0.1922175028,-0.3316145336,0.9764077834,-0.3261481309,-0.7195252169,0.8077435781,0.0819328041,-0.5064540629,-0.9293453324,-0.0329054585,0.6230093099,0.19588734,-0.6904283471,-0.7950416183,-0.0592507756,0.1885717389,0.4529501965,-0.0145586768,0.4672282686,-0.1603964348,-0.387011717,-0.5439211411,-0.6820879049,-0.0741728365,-0.6364589964,0.0206596772,0.588826971,-0.4326928731,-0.2746619236,-0.5807328123,0.8406241857,0.0023738829,0.1714265581,0.9697525511,-0.2129478893,-0.7161512489,-0.7999045263,0.7208669996,-0.0776936377,-0.0775908788,-0.1683091822,-0.4253265046,0.1586916627,0.8311036479,0.6564895339,0.438884633,0.3046786466,0.1625633923,0.2456355254,-0.4776418,0.1031823596,-0.5228137191,0.2249448204,0.5180836202,0.6143994349,-0.919325021,0.4940758864,0.8762283747,-0.4433366447,-0.7192558606,-0.9502542264,0.627455438,-0.2283628351,-0.5693824665,0.0948427678,-0.327024024,0.2427650288,-0.114036214,0.5607721418,-0.0501256611,0.3216920724,0.1751116761,-0.2151581097,-0.5815270954,0.3859678695,-0.7635536202,0.6517437011,-0.9331886451,-0.0934081242,-0.9590190682,0.7298431263,0.2306825297,0.5296464615,-0.5712789323,-0.0290602346,0.6689126519,-0.7088570188,0.8025532307,0.3301229909,0.9574909169,-0.4422954247,0.6069481316,0.5174276094,-0.5712496053,0.9230501841,0.6401441898,0.3226092861,0.3823354628,-0.6609296626,-0.5322857023,-0.8812110674,-0.4281631852,0.7410655045,0.2677826326,-0.3723346492,0.0871603709,0.8616230664,0.9290098466,0.9278068526,0.0391430301,0.5647812169,-0.6655172219,0.0493253027,-0.1689091663,-0.3420005056,0.3959502328,0.7810214812,-0.8644001997,0.9457731307,-0.4692827942,0.8994062405,0.2389385324,0.611340692,0.8826551924,0.9692020257,0.6039455064,0.6559696011,0.5435501424,0.2415990319,-0.702151887,-0.744117007,-0.439322013,0.5724183486,-0.4606799626,-0.2603192988,0.2925635365,0.4261519272,-0.4518922633,0.1427586389,-0.59329428,-0.2399055361,-0.1547278172,-0.1284991865,-0.2490117251,0.755925561,-0.9875707258,0.5151720563,0.356270107,0.5880640758,0.1284794205,-0.5196026539,0.3793425933,-0.199252875,0.2194681577,0.2078666804,0.892325577,0.7270637091,-0.7144236903,0.0902443882,0.8287916438,-0.7981262953,-0.1094258346,0.5345554299,0.594319351,-0.29475455,0.6237332041,-0.9197247632,-0.6279067988,0.8130187592,0.5411718032,-0.4533086092,-0.8405604037,-0.5402877209,-0.6629683801,-0.0169523624,0.8754822084,-0.5439005183,0.2732725722,0.0910905734,0.61869165,-0.8756987083,-0.9292463187,-0.1886559685,-0.2337177123,0.7211042926,-0.3633628811,-0.4234889089,0.2308648071,-0.386559024,-0.4791245849,-0.1072452249,-0.7367503336,0.8123995598,0.7548594928,-0.2763964801,-0.3103496551,-0.7535162209,0.3025789065,0.3423291001,-0.5289633271,-0.7909416821,0.2045230464,0.3681915839,-0.3733005488,-0.1420377123,-0.329625872,0.0116021186,-0.7302761977,0.4713807659,-0.5163921201,-0.8275949523,-0.1436441978,-0.2680002505,-0.9247603786,-0.9149453688,0.4027736352,0.8885514785,0.7513481355,-0.1181507601,0.281101934,-0.5154067268,-0.0032975964,0.5021418465,-0.0142642329,0.9005584558,0.5991214967,0.4132480233,0.4370920068,-0.4454936018,0.5101375412,0.4888188835,-0.7893093514,0.9510328894,0.4611772987,0.8930429035,0.5322865523,-0.919919004,0.3060618217,0.4231624193,-0.834624736,-0.8908148509,0.1361938298,-0.330565234,0.4580633446,-0.9020910442,-0.2727997338,0.8103402753,-0.6420675087,-0.1001890842,-0.3920497772,0.9803298365,-0.2796013845,-0.6710206681,-0.7428308153,-0.7413221233,0.4471996357,-0.9564506904,0.2498490821,0.2187495993,-0.2802925705,-0.4837804997,-0.4040178466,0.4659644689,-0.0938949258,0.9971394892,-0.2205292916,0.3035962271,-0.0039333244,-0.4890316211,0.0569397789,-0.7520223728,0.2970486123,-0.6996095418,-0.0494943632,0.5482177935,0.5404171679,0.5306628903,0.7444323921,0.4278365117,0.838114829,0.7986192492,-0.2942630948,0.4666844569,0.4358832202,0.8909544951,0.1019459819,-0.1436807503,0.4657054982,0.1448087066,0.6697989902,-0.5435225305,0.9442677491,-0.6423608224,-0.2128344175,0.0847541413,0.6323770888,-0.6559281799,-0.05733829,-0.9699054445,0.7346383941,-0.2663484075,-0.6314874107,0.2045463985,0.6043537906,-0.3467718849,0.2606948116,0.2577902039,-0.5303349998,-0.0471842555,0.5626113574,0.5428814453,0.700590693,-0.1823336637,0.4928584254,0.6787191829,0.6864730549,-0.9137887831,0.5280734328,-0.6789344024,-0.8275033338,0.9701170374,-0.3483532047,-0.5475981155,-0.0537070832,0.4649490657,-0.030742771,0.8496635269,-0.2520270261,-0.3679754486,0.465392215,-0.9717438157,0.8735096452,-0.4736178076,-0.196971119,-0.571997046,-0.3356174757,-0.8152595321,-0.361869528,0.0229904961,-0.5642155866,-0.9218793407,-0.0298067838,-0.2901421263,0.6604987915,-0.1173584377,-0.9920880571,-0.6725764473,0.4636616042,-0.5222217423,-0.1556509031,-0.6109863114,0.9259931187,-0.2448842653,-0.9698626918,0.4095651604,-0.8740431791,-0.1375708697,0.318265275,-0.9574014402,-0.1495353577,-0.6519647348,-0.4778648747,-0.2130742472,0.1079120379,-0.6470451599,0.7111753839,0.1492466496,-0.088137015,0.7196796539,-0.0311643432,0.2131185789,0.8538171478,0.2097168983,0.4193248693,0.1886934782,-0.9068041329,0.3787078479,-0.7871355059,0.3294138129,-0.6518689429,-0.5525596868,0.1883645258,-0.0832131852,0.2230199795,-0.9777913296,-0.7391293413,-0.4312238383,0.8905586455,0.0085939299,0.5367852386,0.1909779695,-0.7974224625,-0.8620988677,0.5498620355,0.8262145942,-0.8046373108,-0.2912925213,0.7177168699,0.5794214918,-0.9662432553,-0.3568644808,-0.1506395868,-0.2573724808,-0.8193777849,0.1852759021,0.8538618234,0.9646446521,0.583387977,-0.872031323,0.9451935011,0.764862553,0.4590732742,0.4683729026,-0.9189340541,-0.7914383133,0.8887703093,0.6269790737,0.2964334928,0.4299127632,0.5161928068,0.2096659267,-0.280451714,-0.46550816,0.6634581307,-0.3835565541,-0.4333821799,-0.1138412915,-0.8376418444,-0.2994106375,0.1607643724,-0.1236554813,0.2014917541,0.891162682,0.170125538,-0.2188500251,-0.0320946584,0.7828639895,0.3837721194,0.8506165336,0.1716425805,-0.7089197252,-0.2561703849,0.0014355178,0.9662933438,0.899410337,-0.071900655,0.5875905833,-0.7627302626,-0.3889295065,0.7579544276,0.6853433369,-0.9327069264,0.6954396699,0.3134475802,-0.4535855361,-0.169079312,0.3641313535,-0.3307690872,0.9479723502,0.8360680298,0.572105044,0.3325986189,0.2758183448,-0.7756877753,0.597682725,-0.2680927394,-0.3500973305,0.1361922022,-0.0775851515,-0.3940638857,-0.0052971025,0.2496015366,0.5973199266,-0.8736063386,0.1754360512,0.4128054991,-0.8888153385,-0.5912222608,-0.30155136,0.2850796831,0.4668394143,0.7576245373,0.4226621038,0.0671335677,-0.966199672,-0.2899828636,0.0991638329,-0.8048075182,0.8224812178,-0.9977330155,0.638425688,-0.9028987203,0.2837183111,-0.8049784684,0.7547604634,-0.6953579524,-0.9961717185,0.2813783625,-0.532933582,0.1358341617,-0.1423393226,0.2930513309,-0.3811181013,0.5778364758,-0.2927131448,0.4475626506,0.9045451542,-0.7730480454,-0.3470516226,0.7920067448,0.8659255387,0.5861743253,-0.2820845267,0.4125320179,0.6871457394,0.2675913358,0.2853416497,0.5112558203,-0.1342654127,0.8714757961,0.243111597,-0.6841483763,-0.3166870739,-0.2096187466,-0.5772814565,-0.7459352226,-0.5586134639,-0.2250404987,0.034069858,0.4990727286,-0.4076508072,0.0332862239,-0.1563734591,-0.2951488441,0.1256038082,-0.7690644234,0.4100646551,-0.4721709994,-0.5863255538,-0.7244760453,0.7816178461,-0.6478908381,-0.6198380771,-0.5232264408,0.010204703,0.2001658458,-0.8010718481,-0.6278380779,-0.804413522,0.9445743564,0.3500777557,0.3467234708,-0.0339019889,0.1527588886,-0.080987177,-0.7637318823,0.8118980666,0.3150996809,-0.3451771863,0.2643045698,-0.9155547159,0.3860638382,0.2975228763,-0.3912727993,-0.5992904359,0.1192499817,0.2243540345,0.232835881,0.9745928206,-0.4301661869,-0.6922269105,-0.4743184842,0.1295039065,0.108366236,-0.9772672018,0.8488785579,0.4304583761,0.6440214873,0.3394277198,-0.0907316028,0.3424643846,0.5793428378,0.0862747936,0.5927182492,-0.6392225139,-0.0808089766,0.4239279237,-0.6617596821,0.5635299036,-0.4135349142,-0.733063021,-0.3794727298,0.500819609,0.3300582927,-0.5891891937,-0.7207025443,-0.5566161192,0.7511452922,0.8798424105,0.7137106512,-0.7954761042,-0.9642351389,-0.9354901688,0.6387752417,-0.631186347,0.7629271049,-0.0794473063,0.4643020179,0.0113713216,-0.5793634364,-0.9431688546,-0.95042201,-0.008845169,-0.6235064628,-0.0903104673,0.1940804704,-0.2739850423,0.1019697907,-0.8971982111,0.6875050747,-0.6471349207,-0.2731959294,0.7007001753,0.0837708521,-0.2203974859,-0.285555503,0.141938453,0.292326664,0.5818936218,-0.0138962347,-0.1070254861,-0.3736162879,0.4535589636,-0.3105446322,0.340462902,-0.263253969,0.4994189196,0.5102942383,-0.7813729285,0.801189395,-0.0093727127,-0.7806778104,0.8510138249,0.8718526087,0.6958546163,-0.462680544,-0.6787578443,-0.4483347934,0.3572455811,0.141915933,-0.4491127925,-0.0419130919,-0.5112049536,-0.853001129,-0.4051689267,0.2953953536,-0.7261789072,0.4902987374,0.9728128315,0.9806804049,0.4393140442,0.5317611942,0.590116812,0.0254388544,-0.8590147748,-0.4018431296,-0.8075691094,-0.3556039806,0.2138103789,0.8177944992,0.0449059128,0.8911403661,-0.2109476525,-0.3868371387,-0.8907775686,0.4231378413,0.1695583288,0.0172122646,-0.1199828563,0.1910654787,-0.218213264,-0.1170107187,0.4588107828,0.8808676726,0.5746489675,0.1739060053,0.4299306423,-0.6191674293,-0.9134253212,-0.7932966819,-0.073909001,-0.7075684668,0.4859179429,-0.1956850235,-0.9032757082,0.7339516993,0.4091957776,-0.1059582232,0.0888062183,0.0620198952,0.4964752645,0.7811752055,-0.4110617173,0.9544628693,-0.9510201326,0.1534734258,-0.5138426299,-0.1806523419,0.7931064515,-0.2813003167,0.3384417586,-0.3235153444,0.1229597393,-0.2204220133,0.3083497794,-0.0457632904,-0.9515471755,-0.3251446397,0.497680837,-0.5803260661,0.3500370909,-0.7537055432,0.6908119282,-0.2653468095,-0.7036908111,-0.5753598299,0.7099361838,-0.0896617471,0.9689782934,-0.3565875049,0.6288099178,-0.284154126,-0.6152730683,-0.8158882107,-0.6607547787,-0.6070549318,-0.3882133707,-0.0704769353,0.7220782371,0.9771210839,-0.2585402297,-0.3096930409,0.2501497492,-0.6893974873,0.1565974175,0.4074791915,0.8427822666,0.5055783889,-0.5267497089,0.5594707611,-0.2255103306,0.5132869994,0.7186634437,0.759016474,0.5589275403,-0.7897117658,0.4455769263,-0.0343983881,-0.5702448467,0.3511140894,-0.1764544914,-0.2738233048,0.5355953502,0.1957200084,0.689559848,-0.0687975735,-0.1927488685,0.7639367835,0.2265103433,0.8758067503,-0.0571119936,-0.4314101994,0.8788718897,-0.6252457966,-0.1019485129,-0.8316959126,0.939278337,0.6474614366,-0.0132859021,-0.9662145309,0.6271213075,0.5455721336,-0.0999534913,-0.809294954,-0.6216531812,0.9135358775,-0.8924297873,0.2777441254,-0.9323041711,0.0567611001,-0.9164315656,-0.8079094063,0.3788093981,0.2214290824,0.4502522548,0.1565871911,0.4564215781,0.9892032492,-0.6569755665,0.2613154679,0.701623825,0.7918533532,-0.4561092255,0.6465073254,-0.8643615886,0.4250115973,-0.8657317525,0.8313378114,0.039719688,-0.0107204687,0.7685700693,-0.387735237,0.06600744,-0.2710596347,0.272109403,-0.3654046535,0.28635009,0.6920250835,0.7397083836,0.0253170855,-0.2174252145,0.6377186498,-0.5673386863,-0.0834712457,0.1361966203,-0.1651872162,0.8170853548,-0.1496404441,-0.5479379601,-0.3847826054,-0.2490957327,0.0672337847,-0.0164586159,-0.9280154542,-0.1604686004,-0.2038215573,0.9140999638,-0.9223007635,0.0611885797,-0.0545916737,-0.5113333758,-0.0235879296,0.0611992771,-0.9602969905,0.0695532808,0.2909328119,0.7723067996,-0.9796771849,-0.7533429027,-0.8249781745,0.3257780245,0.8447965934,-0.1541491332,0.2139035074,-0.7929823008,0.9673084658,0.7920602361,0.8453631506,0.5420574275,-0.136504195,0.5239076845,-0.4448187326,-0.294364345,-0.9084875556,-0.0221562838,-0.4457974377,0.4962468544,-0.7177259878,-0.7077393293,0.9187028766,0.2136822086,0.9703785029,-0.0228148357,-0.1099083015,-0.7852197789,0.2313432465,0.6773685343,-0.1141095011,0.6789461121,0.5115370639,-0.3259950363,0.1222359499,-0.185647921,-0.6117951216,0.6992880551,-0.3319119879,0.3564282493,-0.4216577649,0.6460110175,0.6669071248,-0.7870843146,0.8316095964,-0.7914285875,-0.4298756155,-0.2908701291,-0.7377738141,-0.7855364612,0.8154173564,0.9527427259,0.7359126029,-0.458353753,0.6888520652,-0.9787253965,0.584940876,0.5590356428,-0.9570402046,-0.5045272383,-0.3507070313,-0.2015148553,-0.3760135252,-0.8052173357,-0.5432963486,-0.5276207769,-0.5833834826,-0.2080644704,0.6257862599,-0.056153621,0.7061275209,-0.4274015959,-0.2570156292,0.5883130023,-0.7535080859,0.7684962808,-0.96659202,0.1856856872,0.249099492,-0.8401443255,-0.8190659618,-0.586773989,0.221763081,-0.798440214,-0.0292510186,0.9177149008,0.3553328825,0.5635957756,0.302792325,0.3075291285,0.5816700471,-0.0194782874,-0.1069199112,0.1304219257,0.2939992622,0.4344499034,-0.9414414644,0.271002702,-0.1263838379,-0.0660160156,0.9070461212,-0.1464835264,0.7332141181,-0.7011424777,0.6003933074,0.8355470031,0.3322095012,0.2234115084,0.2763807535,-0.6185233314,0.8315458703,0.1328942422,-0.351068803,-0.2234881578,0.4182225678,0.7696719225,0.4211811357,-0.4751241158,0.9598562013,0.7075689313,-0.8723828433,-0.3537288095,-0.4308605667,-0.6850882443,-0.0652007367,-0.1081097847,0.7881929138,-0.8938315105,0.0022106963,-0.3856637912,0.3521115835,-0.2223550554,0.5745285222,0.909316377,-0.2079897817,-0.5724083845,-0.765486762,0.6911311288,-0.0884664435,0.1710699469,0.0383423586,-0.0003738735,-0.1149124455,0.146602527,0.8115690948,-0.2336254393,-0.3722090299,0.4567063357,0.12535828,0.6731919169,-0.5679830753,-0.4606005411,0.8560957809,-0.1143311272,-0.6566597532,0.9597843489,-0.3005426049,0.3486683703,-0.1987193108,-0.1266604783,0.1626758488,-0.2327527123,-0.8428637075,-0.2894970855,0.6930188475,0.1726670934,-0.9184706787,0.5930701261,0.4539669218,0.4003465378,-0.066758275,0.116997752,-0.0285565094,-0.8589911484,-0.2582512919,0.7691444598,-0.4033910639,0.554889455,-0.647238969,0.1431548833,0.734772221,0.1431241617,-0.6842181709,-0.9450702102,-0.4667969018,0.0630290246,-0.2957178186,-0.4943769249,-0.6261739697,0.2619378642,0.7162104962,-0.1496804508,0.3213945884,-0.9098345707,-0.2766786681,-0.7731126597,-0.1915006628,-0.0329037077,-0.1025229734,-0.3092081334,-0.8751255606,0.2600738201,-0.592325164,0.9943560516,0.6424274654,0.5019878075,0.918453777,-0.0161600601,-0.8033086017,-0.4712810493,-0.7280484326,-0.7599444902,0.8837678521,-0.8131423424,-0.6576546295,-0.6765021118,-0.5639439987,-0.5930370143,0.5966757021,0.981393194,-0.1974797218,-0.5614812191,0.5810416973,-0.4177383601,-0.6544308915,-0.9341357289,0.2289585547,-0.6533720924,0.864090769,0.8592276825,0.9180633275,0.6670478084,0.465354189,-0.6148226764,0.836875594,-0.2778142169,0.0069516958,0.8216133225,0.710332529,0.800529757,0.9248758324,-0.0795500367,-0.6638699229,0.9937895963,0.2780926078,0.9878225058
   -0.2179339748,-0.6667269943,-0.4198201788,-0.1141185212,-0.9776003584,0.0505467558,-0.1410260059,-0.1563509153,0.8842628213,0.9379979724,-0.3303202214,0.7803550646,0.0022325553,0.4354243822,0.3168943343,0.6919781123,-0.2140587102,-0.5890784367,-0.02357382,0.6993470612,-0.6765185143,0.4656318454,0.9691912419,0.4556416719,-0.5748202412,0.542949665,-0.7901081284,0.7581256655,-0.2183514953,-0.9037220647,-0.914392845,0.0157301712,0.5605588261,0.0801379105,0.2270412737,0.1901087774,-0.1525458964,-0.4482311259,-0.888072454,0.6154480795,0.1479137376,0.4369808203,0.6267666019,0.723465914,-0.310526711,0.2009058315,0.422829542,-0.2740938878,-0.828453092,-0.3664109791,0.0778957091,-0.3156053054,-0.2266472149,0.3242656864,-0.2174490365,-0.6210746382,0.0333068817,0.156914195,0.8930488036,-0.3250202815,0.3732983643,0.4559635386,-0.8580936332,0.9225662085,-0.5460690166,0.9946756487,0.3173019904,0.2386365674,-0.893932739,0.371055493,-0.7532241398,0.8106159427,-0.3808241725,-0.7758061799,-0.125484712,-0.7153207207,0.9240207698,-0.5475205833,-0.2102323665,0.7261947277,0.9627081829,0.7139912497,0.4003885152,0.0742129525,0.697587952,0.5292195206,0.1706021692,0.3937190883,0.1477972063,-0.512691987,0.8667606721,-0.516891548,0.6787827771,0.0859986818,-0.3497837246,0.6087526341,0.6025986041,0.8784888178,-0.0365961163,-0.6652786672,-0.0086429435,-0.1636172548,-0.0891345974,-0.7699925719,0.8759794062,0.0348454528,0.1765354371,-0.0839928136,0.3532372496,0.1048218636,-0.1371569943,-0.1686712483,0.786763367,0.9795602155,-0.3052799999,0.2211223729,0.9684066976,0.2736600012,0.9747915014,0.8722889096,0.9555640262,-0.8830133744,0.8942131451,-0.7090911969,-0.6743882485,-0.3598452183,0.8089467044,0.7973704209,0.0204829993,0.7323768376,-0.7158600349,0.0490094272,0.1909980344,0.4555509327,0.2798180396,0.1708964381,0.0336533655,0.5917545817,-0.4872548945,-0.2902746895,0.8173049309,0.6532051479,-0.8445374025,-0.4615319464,0.5343901594,-0.7593619636,0.4951743729,-0.6387157635,-0.0349618622,-0.8926770194,-0.2690683713,-0.844364218,0.8424407586,0.4657871261,-0.9401190812,-0.2940878763,-0.6753808621,-0.6611759723,-0.8427912447,-0.0875039191,-0.426006885,-0.0737069864,-0.6449891538,0.9263137134,0.8955799676,-0.2984697575,0.8382645455,0.6890014333,-0.8337758252,0.217515461,-0.7668871922,0.098006789,-0.9539059078,0.1342842775,0.3084755124,0.48488914,0.6821212354,-0.5202025041,0.1285165747,-0.7985076941,0.2996886932,0.3715429301,0.9401654722,0.6172883255,0.2433789645,-0.1786097758,0.8588951979,0.7627910037,0.6014090137,-0.5714755949,-0.9986751533,-0.9401617281,0.7519750145,0.2806254539,-0.9415555614,0.3888340795,-0.7249232941,0.3921095751,-0.286120805,0.5659794446,0.5765513061,-0.0934779246,0.1900070359,0.5212544391,0.0784574803,0.6504602584,0.3659190623,-0.1508720191,0.110660561,0.6945667507,0.4204491067,0.164872364,-0.7780461187,0.1946049928,-0.3042352705,-0.1675303543,0.4065897145,0.9030715079,-0.5059099469,0.1920767356,0.1064417102,-0.1291459233,-0.5784409337,0.7537018088,-0.9471554329,0.6239184749,0.2586671168,0.1613834645,0.9529724736,-0.4774467977,-0.8091752658,-0.2358345968,-0.2644351317,0.4039358865,-0.7501941506,-0.7228388346,-0.2828495266,-0.498028602,-0.0937594168,0.0316762469,-0.3899668656,-0.2638763745,-0.691786975,-0.694346303,0.3247105218,-0.7205142497,-0.3906352452,-0.9362404378,-0.9790200175,-0.3955044647,-0.3433780418,-0.7476136941,0.1463426208,-0.5151294592,-0.3467828161,0.8187273978,-0.003949513,-0.6054173029,-0.1863641297,0.5115831997,0.8704783117,0.888963017,-0.4643496135,0.2651608868,0.6931755146,0.5515603809,-0.5068510274,0.8896233265,0.4571936734,0.1365113975,0.414210328,0.0129221551,-0.6371103593,-0.3068364491,-0.9340085997,0.7134038176,0.6409645894,-0.606000202,-0.1506810785,0.3688862708,0.6022860185,-0.1100890856,0.4729570727,0.3798973488,-0.7112342902,0.9488324145,-0.4390247179,-0.4053223905,0.3045090318,-0.0361299454,-0.6092442281,0.2881212184,-0.0346812824,0.3917100552,0.1415505325,0.6190938851,0.4259718455,-0.904038363,0.1525354498,-0.3981401767,0.0952803188,0.0480349257,-0.3725968139,-0.4523960431,0.9344042104,-0.6004483956,-0.0903433562,0.4246584081,0.8798252303,-0.2396689122,-0.0125587327,-0.184238551,0.0560203957,-0.8438329709,0.5761710987,0.1112910486,-0.8645432442,0.1600767094,-0.5709869241,0.6341009401,0.4379757378,0.9741505065,0.4956414197,0.4012934477,-0.3037026181,0.5131439669,-0.259351067,-0.0065431463,-0.6005072173,-0.3881713072,0.2107483533,-0.4315501451,-0.3430846953,0.6280974551,-0.6106433369,-0.9317220269,0.3746685387,0.5482023024,-0.2950460021,0.3585420382,0.2906533611,-0.7139314109,0.4848109025,0.7771676027,-0.7282905615,-0.2346464726,0.8566901615,-0.6595601733,-0.8157883852,0.3540488681,-0.7894476352,-0.1646833615,0.2553931859,0.966931275,-0.3943441405,0.1351268629,-0.1645505446,0.7409962162,-0.7741140426,-0.6126252853,0.2581246373,-0.0718588581,-0.4845388146,-0.6913642908,-0.8713979034,-0.5660197804,-0.6427772436,-0.1251834414,0.3290901882,0.4788565041,0.9936675808,0.0195800424,0.8116785206,0.1927766262,0.547876843,-0.2427276732,-0.0590723695,-0.5912658441,0.8521743415,0.9745889534,0.0360727879,0.1915551441,0.0553629573,-0.6142158253,0.4330407643,-0.1945418375,0.0690736256,0.8638767458,0.217845149,0.0984643565,-0.8542918622,0.9138236583,0.0375565527,0.9104295012,-0.6482876055,0.7444390713,0.5726013155,0.6737312636,0.4961792151,-0.2133019154,-0.0550979272,-0.1059237295,0.9001026692,0.7744667495,0.9201542451,-0.1602909168,-0.3745940689,-0.3423269438,-0.2790669594,0.8770460287,-0.9525657736,-0.3299593225,0.3949711587,-0.8597496546,-0.2669715019,0.284701348,0.6022717968,-0.9071284267,0.6587749986,0.9505755006,0.8373062429,0.475942071,-0.6561318524,0.2342432454,-0.5123969188,-0.353160464,0.9733785604,-0.6590782486,0.1523264733,-0.0411778688,-0.1390125728,-0.7224777911,0.7176963136,-0.896765003,0.7641139289,-0.7604832497,0.2355052666,-0.2972091802,-0.9953934734,-0.8535417891,-0.4988056448,-0.5637539116,-0.665761274,-0.2584651778,-0.0503813838,-0.7894179403,0.7847097422,0.7140864252,-0.5516344584,0.5467907254,-0.2740001624,-0.6204658177,0.5428163276,0.684202186,0.173368379,0.2986189917,-0.41387677,-0.6361013529,0.430586154,-0.1750893322,-0.1227365871,-0.4623511259,-0.7930128148,0.4651092391,-0.0660061133,-0.7448797067,0.4822542419,-0.4690205192,0.4575728444,0.5679938017,0.2174244287,-0.8417880392,0.8469079572,-0.2318232414,-0.1479863369,-0.9098973057,0.8797614378,-0.9547422902,0.8270701537,-0.952699442,0.3103760158,0.2200736087,-0.694266423,-0.7124829425,0.114475865,0.2301961894,0.2637137416,0.3447087525,-0.3555802738,0.481520368,0.1004827616,0.5121128646,0.0584193016,0.1098938778,0.5558208408,0.8391437504,0.1460277731,0.0536246904,0.2194743981,-0.055490499,0.5651178409,0.6450613758,0.9245425426,-0.8466431506,-0.0124012841,-0.8575218839,-0.222964085,0.2808518498,-0.9514513074,0.4170134109,-0.1626004605,0.0130021622,-0.1603709492,-0.6031351502,-0.9321968945,0.9110387259,0.6041345042,0.4311143964,0.6640625304,-0.5738877485,-0.1818028032,0.8546789077,0.1807135407,-0.7534625625,-0.310954891,-0.533252843,-0.9979880806,-0.4647018573,-0.5631446276,-0.3247882691,-0.5321076482,0.4421611116,0.0634059968,-0.6327616199,-0.6379498688,0.767587832,-0.4612516969,0.1424629434,-0.7495757618,0.9171389991,0.2103468265,0.8582198902,-0.2560313229,0.1069305527,0.7878606641,-0.3019964909,0.6389943518,-0.4838061013,0.5143615305,0.2531917347,-0.5693095682,-0.0860621078,0.5679876675,-0.6048374363,0.0804874371,-0.3096063365,-0.4826083521,0.9742961809,-0.9785173444,0.5386396213,-0.7498394785,-0.7152495912,-0.6295062104,0.1972982668,-0.1741552505,0.6741236768,-0.3158146008,0.6688215944,0.4564317516,-0.6470987861,-0.0408036505,-0.3280884051,-0.6408696212,-0.6513758583,0.0811851403,-0.978456076,0.0245606145,-0.3205480832,-0.1160733678,0.5989567359,0.1828726047,0.2566377504,0.4838713974,-0.242348867,-0.4126764093,0.9354428719,0.7923060138,0.8730044276,0.5554241081,0.5259643853,-0.4294430847,0.4331738108,0.8474319359,-0.8201293038,-0.2208482648,0.2354546333,0.0272218994,0.9118722396,0.8746221133,0.0294106854,0.8661836683,0.5767772449,0.6974030442,0.3044933213,0.6589699098,-0.2753977689,-0.2347842703,-0.4903683752,0.8413842695,0.8023524769,-0.5686421131,0.8459735708,0.9223279783,0.9588948852,-0.6526547762,0.9460204512,-0.5548363708,0.531688829,-0.9257733855,-0.826149453,-0.6112540603,-0.032147332,-0.7382742776,-0.4018526568,0.1750543344,-0.5261574494,0.8995510423,-0.1834330776,-0.1229139474,-0.6106893825,0.6063755717,-0.038327783,0.6277650304,-0.2964041693,-0.772702283,-0.9184205019,0.4777944068,0.2334229576,0.1918073076,0.5581429309,-0.7577413936,0.7536336788,0.4519860505,-0.6623708642,-0.7864084342,-0.9378210634,-0.7598503793,0.31062861,-0.0412526246,0.0522995605,-0.0183198977,-0.5053162241,-0.4808042636,-0.3247116165,-0.3578194975,-0.4063578904,-0.8510814891,0.1118853573,-0.3525502181,0.0259300272,0.7368472092,0.7883719671,-0.9734193971,-0.2114830726,0.8584536452,0.7150710365,0.8621770717,0.0840656716,-0.9658186706,0.118526261,-0.2928166625,0.4855199268,-0.8172142067,-0.7108492928,-0.070270694,-0.5897499709,0.8652492645,0.218932667,0.7459590149,-0.134036579,-0.0079181395,0.9225397672,0.2062036046,0.7016773082,-0.6849916554,-0.5932594285,0.6444131345,-0.6651385661,-0.4657007674,0.2008944735,0.3106613116,0.2323412673,-0.2390310326,0.6911026257,0.403403714,0.466688256,-0.4897563399,-0.3600922042,0.2928493349,0.4317901969,0.6289804649,-0.3944819227,-0.6533724078,-0.2452584919,0.5573225186,0.6540135115,-0.166149986,0.4339752359,0.9156695583,0.9537621576,-0.3563972896,0.1051295661,0.4934105196,-0.553281898,0.5779951132,0.6392054316,-0.7001835576,-0.0177987763,0.7936289953,0.497263403,0.6189534696,-0.3950076478,-0.1537865439,0.5394365461,0.4627067673,0.1162458724,-0.1087731699,-0.1914266512,0.2500253018,0.0963551183,-0.9313935722,0.1080172673,-0.7715282278,0.7811583369,-0.728579544,0.3187480517,-0.8487337745,0.0578399056,0.561321118,0.1531489417,0.0898835897,0.237300257,-0.5295197376,0.7694398851,0.8585311816,-0.1759991684,-0.633966794,-0.6291528025,0.3976477321,-0.1042658493,-0.2111189079,-0.1162111536,0.110173413,-0.3408692145,0.7519825687,0.4072989851,0.4950798324,0.8576435637,0.2959174468,0.733957181,0.5502875852,0.2491521608,0.8449352062,0.808308268,-0.0311743076,-0.9543652439,0.9722976415,0.4140403308,-0.2329608294,0.9667808346,-0.6235210226,-0.0723703552,0.0594962562,0.9334045113,-0.6613186769,0.3593101077,0.3282968426,0.2174965597,0.6977507256,0.0111435522,-0.7161869829,-0.8527257356,0.0664293751,0.5793412988,0.75096335,-0.54655015,0.392639722,0.6992477874,0.4377788256,-0.1455404934,-0.6483018381,0.5918487535,0.0775901204,0.3116267043,-0.2520794205,0.2362224927,0.1081019726,-0.5488709249,-0.2014945518,-0.3292046585,-0.9763645779,-0.5453482711,-0.6796619524,-0.2202903004,-0.5852023406,0.4297303636,-0.9780968398,0.8386854081,0.7062816254,0.4060847028,0.9920967537,-0.2668715909,0.9313178756,-0.1271499393,0.22272057,-0.0956335792,0.9607192862,-0.3937220792,-0.0344695107,-0.4042773563,-0.059034274,0.8927097859,0.7863920106,0.7220372518,-0.515534235,-0.7367285896,0.5464736969,-0.5485932531,0.5140747697,0.2414695254,0.0605594813,0.8765768847,0.1572500975,0.3245662092,0.2497043629,-0.1999021441,-0.0807192913,0.7636103477,-0.6941553305,-0.9539424625,0.5931549336,-0.8511195184,0.6630524587,0.6445065391,0.2987080787,0.6127361987,-0.0999480544,-0.697630153,-0.6232715579,-0.7997641198,-0.9798480722,-0.9429174881,0.6472366279,0.5669500868,-0.7997294075,0.3130847905,-0.6729729403,-0.9703637498,0.7406060562,-0.3672417043,0.5671894394,-0.6312899941,-0.4688975754,-0.4900697391,-0.4506224022,0.27642376,0.0741861901,0.8073443714,-0.3408726876,0.4410531848,0.2739361576,-0.3646942896,0.733072784,0.6998061394,0.1693630893,0.0609178331,-0.1342270256,-0.7920986785,0.7959640765,-0.079812579,0.9859117993,-0.7508186094,-0.9038100499,-0.6743476179,-0.1244505881,0.3290774647,0.2090670724,-0.515041123,0.3715365488,0.9583145146,-0.4402157565,-0.4766307467,-0.3414891076,0.5030597808,0.2887038584,-0.4999638212,-0.2545890269,0.0425677926,-0.8233791179,0.9620082303,-0.700880008,0.3142190081,-0.4385785315,-0.1927491726,-0.7484328671,0.2477661724,0.8500749725,-0.7320909777,0.2952730328,-0.491535763,0.1990384526,0.1277511174,-0.0883309031,0.51623924,0.9700232215,-0.131232311,-0.5652443178,-0.7615318949,0.4418345403,-0.3674274859,-0.0822952018,0.6444180829,-0.923501397,0.3577876609,-0.5891244126,0.4429723295,0.0148773663,0.8393360501,0.7562917129,-0.343553298,-0.2726981999,0.3810839334,-0.2183802399,-0.0195693008,0.3029330781,-0.7837190187,0.2557723989,-0.5415263089,0.2168592425,0.5881525333,-0.7452255625,0.9334913324,-0.765441573,-0.0047009009,-0.3140434764,-0.1108182198,0.4595020859,-0.0375436819,-0.5276430398,-0.6679349484,-0.7102370895,-0.602146966,-0.95308572,-0.9095961393,0.5291700583,0.6094048678,-0.8663934554,0.0692126472,-0.387193203,0.1976022235,-0.8041147239,0.9783161669,0.2594860977,-0.6971126492,0.3630286201,-0.4907853274,0.1307861692,0.1948074903,0.1691072032,0.2537745413,0.2253273486,-0.2309860483,-0.3281961766,0.8736220233,0.1994085861,-0.7696768428,0.8847920642,0.5427656711,-0.4936145851,0.4478315333,-0.618469275,0.0734446292,-0.1914710874,-0.7591916243,-0.6125524273,-0.8819095371,-0.7390720689,-0.0243449566,0.8088810599,-0.802780614,0.4221574546,-0.8336158759,0.9060158869,0.7188283326,0.5462213211,-0.6139833941,-0.5740630478,0.2549174645,-0.4915600987,0.1851698402,0.466799875,-0.1465988524,-0.7755939918,0.2013429472,-0.084508251,0.7682195008,0.988247177,-0.2755618226,0.9392808022,0.2235955656,-0.3025918148,0.1920392666,-0.946739559,0.7803244434,0.4644394616,-0.0522958626,0.9486586178,-0.2388452045,0.9150627486,0.0761322869,-0.2281439725,0.6586342481,-0.6656610858,0.4338286761,0.1867613522,-0.9772808761,-0.4319658968,-0.8440978783,-0.8419218902,0.8612534015,-0.0502251758,0.1334820717,0.9555331421,0.3745876135,-0.6093124822,0.6294804714,0.833919078,-0.6909108852,-0.5357550068,0.4921569471,0.7323714303,0.1874591101,0.7587354335,0.5853126365,0.9854324929,0.9781601354,-0.2508684089,0.8451219814,0.7811788384,-0.6010571537,-0.5882921553,0.1326599979,0.7870406169,-0.0463716179,0.3071268125,-0.5854454412,0.7051935063,0.8499422089,-0.8576058405,0.424835147,0.5293429618,-0.6161347229,-0.4650042726,0.5836766925,-0.0565816581,0.8808499196,-0.854334376,0.1955831191,0.4403309722,-0.6348063464,0.1485523556,0.2144628745,0.3259367023,-0.2167977984,0.827992574,0.8078245486,-0.4191810835,-0.8667603124,0.6759995595,-0.3168158981,0.4055826496,0.3535800301,0.1230454861,0.2309757145,-0.8597726959,-0.7323257697,0.3865839543,-0.4313130651,-0.8844657954,0.4623377563,-0.2665104914,-0.1330739089,-0.6116156486,-0.2727412621,-0.38062441,-0.0074511574,-0.6414716686,0.661744594,-0.698681712,-0.9657115855,0.9989291821,-0.7314589123,-0.8498736452,-0.7474697536,-0.4613787388,-0.9047899843,0.8632570969,-0.357245013,0.751540248,0.6065277736,0.3668750529,0.8020286515,0.3116698427,-0.5568738116,0.3596366744,0.4135051998,-0.8684084192,-0.6332723057,-0.0401725347,-0.8716414624,-0.7474197871,0.177413497,-0.9044968471,0.394514765,0.1992721439,-0.1290574602,-0.2847704969,-0.2100293063,0.169816122,-0.362494651,-0.727677511,-0.708732104,0.7736245233,0.1228638475,-0.4212658215,0.1525940738,-0.5847447835,-0.4204860402,-0.8892697095,0.1734677578,-0.8243639032,-0.3369414812,0.3122588934,0.522551699,0.7622638017,-0.1851263721,0.0227744679,-0.6959541367,-0.7632288375,0.2941303399,-0.1138122407,-0.3606522622,0.4776092101,-0.717029867,-0.8138513478,0.4256457758,0.4053181513,-0.2341366439,-0.169137302,0.3286928585,-0.2638234945,-0.1853589887,0.0929131102,-0.989259821,0.2078530585,-0.7647782836,0.047338525,-0.0755751288,-0.7556525938,-0.2724341727,-0.3451420486,0.0611988392,0.2548461076,-0.1293619918,-0.4236917364,-0.6740676359,-0.6725310488,-0.9225879381,0.4446471344,-0.2444998939,-0.1543324794,0.4961072789,-0.3369873446,-0.3253124699,0.0877984203,-0.9776149312,0.9402861068,-0.074724004,0.490267341,0.1138010557,-0.7653916424,-0.1744246624,0.1880851197,0.4650960619,0.0424646922,0.7616451478,0.8564475679,-0.5767196136,0.3548099658,-0.2320146719,0.0108210226,-0.8027973862,-0.6450212005,0.3512079556,-0.1652927689,-0.9504949005,-0.1464548044,0.4612083143,0.4928819542,-0.1956051649,-0.4695896504,0.4574393013,0.1594949544,0.7334658019,-0.5570008393,0.8254230326,0.5780479578,0.8921265986,-0.8897869563,0.5262863282,0.8445270233,0.1579657601,0.6953058232,0.0467599388,-0.5040082591,-0.1532747731,-0.6549656973,0.1703047633,-0.2053518716,0.1690215613,-0.0354207161,0.3353064094,0.9714676411,0.1448810696,-0.4114142563,-0.9975101749,0.9055340786,0.5553465825,0.4608163788,0.5583749189,0.0011416726,0.5000769934,-0.3911160062,0.7659423115,0.8602110216,0.116316067,0.8365023632,0.7804251931,-0.3886625414,0.9775583507,0.0156469679,-0.360415919,-0.0443462594,-0.4928957799,-0.9643702835,-0.3745238928,0.2930782482,-0.2864733948,-0.7443088957,0.7857240142,-0.2002914203,0.9720748959,-0.2444163809,0.1204215385,-0.4728413102,0.3721540163,0.3065722946,0.1649352137,-0.3958565242,-0.6905735612,0.0309756908,-0.7312070984,0.5430025588,-0.0117271637,0.6246067112,-0.7551601202,0.1107199944,0.0161139457,-0.2793432454,-0.2454460984,-0.4019858791,-0.5846049083,0.6966667301,-0.9823793796,-0.1201081022,0.4221084564,-0.8414622261,0.6659472718,-0.6470156136,0.3639369186,0.1016910543,-0.3714570099,-0.1275839147,0.5226134244,0.8863483348,-0.5246537583,0.0439921966,-0.5159890272,0.5751935389,-0.978687088,-0.1485155933,0.9889163534,0.7582945057,-0.7116687033,-0.5643849218,-0.3335099568,0.927304546,-0.7335666616,-0.3439934639,0.8475943052,0.6657322791,0.3896716128,0.0178320475,-0.8042944104,-0.7403590211,0.5385592672,-0.9047635184,-0.6776958778,-0.9780704419,-0.9394874077,-0.7676140955,0.5766453514,0.5211141022,-0.341924592,-0.9207929445,0.9211728934,0.7656272673,0.9179955396,0.6129868958,-0.8204908383,-0.431068255,-0.9441930314,-0.375773439,-0.4921312254,-0.8427957301,0.1830133611,-0.1138091552,-0.8113970505,0.894112663,-0.1438500248,-0.575683566,-0.3842110816,0.560927987,0.6416596402,-0.501034218,0.3433061969,-0.476373332,0.2802971656,0.4760414732,-0.6981271987,-0.9055492223,-0.448237657,-0.9139108756,-0.7640954403,0.163558406,0.4687722505,0.6732057844,-0.0574247405,-0.214815324,-0.8022187134,0.946185272,0.445427671,-0.81302477,-0.1728821706,0.5348691108,0.1335386967,0.750867539,-0.2065174383,0.0857600305,-0.9520712233,-0.4908760651,0.6160210223,0.7092948784,0.8502060043,-0.6027047963,0.238394248,-0.1242752944,-0.848993018,-0.484643544,-0.7223032215,0.3439121064,0.6141691837,0.5121109607,-0.2417066508,-0.3580750125,-0.4228580905,-0.2669318862,0.0104629272,0.947580756,0.3856023871,-0.0993477748,0.952793496,0.8105359633,0.2646389667,0.4048001067,0.1601772788,-0.0805395948,-0.5584247552,0.2832259012,0.8902238241,-0.9187910377,0.1468208633,-0.1994453634,-0.1990909519,0.9286665453,-0.8826024028,-0.4408703648,-0.5672629358,0.4656624694,-0.5650056387,0.3309105188,-0.3601212426,0.6464659425,-0.3844403936,0.4756115812,0.2634483359,-0.3041719548,0.8101915391,0.256644242,-0.3287301229,-0.7651122548,0.8366571124,-0.0875909295,-0.3673666821,-0.194827794,-0.5235979482,0.9964034668,0.0815461041,0.6994858466,-0.069576863,-0.5461403266,-0.5419589206,0.5611062271,0.1564477649,-0.7843185694,0.8083522744,0.4750122154,0.6001902105,-0.2122384409,-0.2457006685,-0.3727022356,-0.0809443022,-0.9508183053,0.8323490435,-0.0919422043,-0.4999820016,-0.6522401085,0.273979433,-0.0500403763,0.4517738069,0.9882040563,0.3403637167,-0.3792363989,-0.0749037129,-0.7381801836,-0.5983410111,0.2072427529,-0.3659247217,-0.2003523494,-0.875536275,0.9494710082,-0.2620293063,-0.9923991551,0.5284086164,0.3768045654,0.79705617,-0.9127629676,0.6671827504,0.1048175499,-0.2407807177,-0.5205874665,-0.4459267012,-0.8627813069,-0.6786673436,0.1312187266,0.6034105979,-0.6530410276,0.98110186,-0.1841498335,0.0700061145,-0.0866734613,0.3396432032,-0.5215684902,-0.0576201131,-0.0500979156,0.0708697444,-0.0721371415,0.6391334243,0.5322767801,0.2862207619,0.2370189268,0.7407953225,-0.0942697063,-0.7391265935,-0.9653547995,0.6134797441,-0.9512539324,0.6747632735,0.5121501341,-0.8797730675,-0.3606735601,0.3632482792,0.5046356942,0.7913808302,-0.641599598,-0.5962196645,-0.7728243268,-0.3191774649,0.3359015692,0.5021618756,0.0741263947,-0.0586551623,0.5856519158,0.3768923251,-0.6124113491,0.0465093746,0.0780353863,-0.4146850372,-0.5029224329,-0.0892515512,0.844909004,-0.7046819953,0.7080092702,0.2712299453,0.8595766646,-0.9486131224,-0.8014400923,-0.4992607631,0.6455930245,0.495538078,0.8631764107,-0.0052993852,0.0394985878,0.9837168057,-0.4208091839,-0.6092584791,0.0696186558,0.5481675967,0.3802941555,0.1539362978,-0.9351662818,0.1551548645,0.53150643,-0.2904019924,0.5260840282,0.347029425,-0.4168042328,-0.9016160497,0.7632849706,-0.8649801176,0.1559038245,0.8354043233,0.1340493838,0.7867135797,0.4578834323,0.2781407718,0.9239506454,-0.4912864525,0.2972492021,-0.5513637774,0.3841267563,-0.3640902619,0.7712412342,0.6145138936,-0.2310220571,0.4107992324,0.6443413307,-0.8886272238,-0.6974568352,-0.2273585657,0.9625554806,0.1294874576,0.1669723608,0.8174942314,0.7195746992,0.6614622597,0.2866435105,0.6882396614,-0.8034690128,0.7834749004,0.5239160627,0.8856598254,0.3476966775,-0.9847202634,-0.7496863662,0.2004478537,-0.0400081287,-0.5544815736,-0.8638793783,-0.7696858879,0.8810188903,0.690736028,-0.1275181711,-0.3733024965,-0.1314856179,0.2624546816,0.3136788971,-0.0277955765,0.3797773372,-0.1210390046,-0.3790650187,0.2565331288,0.8662225777,0.2792515251,-0.7197208601,0.7642252117,-0.9171807327,-0.4170706046,0.2221540478,0.4100995999,0.4193223924,-0.0686384817,0.7118250229,-0.9334811251,-0.0955876917,0.9215110991,0.798708527,-0.7614566285,-0.3433248951,0.1630469593,0.0633669024,0.1582685897,0.9012546506,-0.3162442062,-0.4961141439,-0.0585230885,-0.7273668859,-0.4091250712,-0.9287320138,0.6176879195,0.9613973143,0.6917948159,-0.6962929607,0.1911220133,-0.805969413,-0.3533118085,-0.6010202947,-0.2311287037,0.5131259891,-0.9548010066,-0.4607615208,-0.2808668743,-0.2445284189,0.8660827335,0.7530661219,-0.6817134837,-0.2540359626,0.5440970691,0.1536220961,0.7153623425,-0.9967260073,-0.569738461,-0.4474976887,0.0356318336,0.7790563772,0.8967387971,-0.0393371037,-0.4830889594,0.3765294233,0.031381393,0.1226366042,-0.992870725,0.110669969,-0.5578227118,0.9390818118,-0.2446790426,0.3774357357,-0.8275550101,-0.5287245446,-0.7683857329,0.4418030884,-0.8193974625,-0.6737466092,0.6675333722,-0.8583291211,-0.3930525572,0.1300342546,0.6701205458,0.676959002,-0.8010714593,0.7789851035,0.9990980133,0.865129824,-0.5011807557,0.2937470308,0.6006224971,0.6321685996,-0.0195604974,0.4530666155,0.5932560441,-0.3597743962,-0.0267717447,-0.4882748103,-0.3032198379,-0.6421038227,-0.6615841254,-0.6875118908,0.6162345484,-0.7115316078,0.2275587932,0.2195072157,0.0724029287,0.7046797983,-0.7512515535,-0.582819733,0.1870077041,-0.0105899989,-0.6559549221,0.7219483105,-0.667822364,-0.2455167611,-0.688922024,0.1618187035,0.8108395807,-0.079299481,0.2826707577,-0.3700354006,-0.8898357833,-0.5207678146,-0.0239833913,-0.286702843,-0.6925020495,0.0543043714,-0.3231404,-0.7966158083,-0.1562352981,0.8285660419,-0.8903341636,0.5834637285,-0.3142277579,-0.2269238918,0.7014274556,0.5642800479,0.975867775,-0.2264183695,-0.475732877,0.0843314866,-0.340447277,-0.2604711318,0.1517526954,0.0370999496,0.7258889034,0.7312490771,-0.8979867393,0.2537684089,0.8565013893,-0.416850076,0.5530453032,-0.5726504403,0.9100363488,0.5315760696,-0.1571933137,-0.3591004405,0.9435748536,-0.3930240286,0.97621867,-0.6072994429,-0.064839434,0.6114074765,0.659680312,-0.2717866435,-0.5529373544,0.1283558734,0.3863180145,0.1137400561,-0.5631056345,-0.2379335109,0.4424684215,-0.8785301441,-0.7199465674,0.9599645902,-0.4844903737,0.6326556419,-0.0676813544,-0.1528457341,-0.7212369379,0.5774847993,-0.1323866491,0.9766511892,-0.3247307598,0.3955146507,0.535538235,-0.2451929266,-0.9167743534,-0.7509490515,-0.2911540064,0.0310194749,-0.1587589961,-0.7849230216,-0.8961051243,0.6010775748,0.958218177,0.8300552581,0.0916232433,0.1753557021,0.0432133689,-0.6018785064,-0.3969207705,0.7613394098,-0.7988337374,0.2801356412,-0.7588605775,-0.0002962683,-0.4520274818,0.7733622567,-0.1895664989,0.7073922275,-0.044038623,-0.6633124676,0.8650560636,0.5753567153,-0.8711593292,-0.4621572898,-0.2003609924,-0.4454384093,-0.837321165,0.6983924352,-0.6602449928,-0.6216909636,-0.7946609572,0.7846147494,-0.8439232464,-0.4216733162,0.9835818125,-0.0277045777,0.0869543832,-0.8044052351,-0.029992029,0.72167798,-0.5481641188,0.9862963852,0.3879423143,0.03200584,0.609320601,0.1378208958,0.597190491,-0.9279738959,-0.516376355,0.7735038155,-0.0443541385,0.1323890426,-0.5482868727,0.3810413309,0.5707239631,0.0024779281,0.0774602083,0.3121188964,0.8301016686,-0.1053348847,-0.8803951609,-0.6497982908,0.4263811169,-0.4698979859,0.352588313,0.2298626484,-0.4536911154,0.7781924237,-0.5189711816,-0.7719139071,-0.6519775487,0.5895001826,-0.4217143532,0.7851248762,0.1794671329,-0.0302893215,0.391309672,0.5110202341,0.3388278073,-0.6237322617,-0.0800484121,0.7482084573,-0.2301391086,0.4238452789,-0.2300954993,-0.9254763229,-0.5650759623,-0.470533532,-0.078950476,-0.8126284199,0.9488359756,-0.3005725716,-0.4018693302,0.0549039495,0.089270058,-0.7563486831,-0.2280847179,0.0584237891,-0.8565094615,-0.777354616,-0.7075950285,-0.3621960766,0.1430742229,0.9432692307,-0.6317720575,-0.9645572918,-0.7936779076,-0.3489357106,0.9649726412,0.8411632918,-0.5192123949,-0.5714406065,-0.0713568509,-0.0979290578,0.3736413273,-0.6076711607,0.9134515748,0.438286879,0.4940267014,-0.3762503378,0.7409445915,-0.1091970787,-0.8368261993,0.9614695721,0.6004424603,-0.442033985,-0.635540955,-0.6133780654,0.7853245561,0.3984357845,-0.6473915648,0.9112216508,-0.1506798404,-0.257860761,-0.2900232979,0.033744613,-0.0116194306,-0.5525160499,-0.4433947308,0.6601454384,0.7083503356,-0.2877654912,0.4980131622,-0.4397225875,-0.8568835644,0.6305019047,0.4531798567,-0.8037808476,-0.9147814641,0.7510671944,0.9485386403,0.3840707296,0.3628506838,0.5744766296,0.3027541847,-0.7123606792,0.761345396,0.737892348,-0.8717404286,-0.7131343509,-0.424241529,-0.055433371,-0.4255082755,-0.5850195752,-0.7335745854,-0.3679127875,-0.255416638,-0.3182277493,0.0607723962,-0.8970156755,-0.2141506468,0.233212461,-0.3060229455,-0.7150701775,-0.1995462562,0.2578941202,-0.0120181967,0.169916454,0.9854496207,-0.7224823444,0.4290319794,-0.849628548,0.3191420523,0.0127990201,-0.5902178855,-0.099681145,-0.9334290511,0.6901089267,-0.7947779426,-0.7000259951,-0.4092902907,0.3447477913,-0.855366364,-0.6021073803,0.0374333689,-0.6504364449,-0.6222800295,-0.0311295697,-0.231995349,0.5614793074,0.2613399162,0.7967757961,0.7584786185,0.273785672,0.4956883619,-0.7204019228,-0.3771508573,0.3871459645,-0.2495135759,0.9363736155,0.8197465664,-0.6081471878,0.4299862267,0.1752344268,0.0965500048,-0.3261023151,0.6986264019,-0.0720212369,-0.4053835926,-0.5736238976,0.4013383047,-0.0944012428,0.7149780173,-0.0509801439,0.7193800436,0.5128398629,0.6387287317,-0.6480403507,0.640948332,-0.4315178409,-0.5415291078,0.6678171067,-0.5198841909,0.1513174451,0.337660195,-0.3834563163,-0.1407211554,0.8576679868,-0.8914690183,0.3804521187,0.2666223924,-0.6390948222,0.3214893991,0.4711207032,0.6988274943,0.8916392662,-0.1142153243,0.8800692829,0.9147422264,0.815315282,0.4667530591,-0.7918486842,0.6490700709,0.8319971291,-0.9957520932,0.4879100317,-0.6319893596,-0.0717100595,0.0209267614
   -0.482103951,0.2501605322,-0.724509744,0.0416604633,-0.3425625953,-0.2226447663,0.4362073884,0.6904250616,-0.37590273,0.8784445562,-0.1970866988,0.5476567969,-0.3769550456,0.6057511754,0.3006049885,-0.9974339397,-0.0024685073,0.7859158886,0.8055115491,-0.6963569302,0.6982169903,0.7313382187,0.92651617,0.4279514401,-0.7335186103,0.2089675648,0.0734831696,0.2709681483,0.7345523857,-0.2594992282,0.9843161654,0.0779113633,0.0492327705,-0.4762606454,-0.7909627634,-0.9727087645,-0.4553221391,0.3388431647,-0.3740474886,-0.542409809,0.0512019379,-0.8552152107,-0.5197585274,0.5061463466,0.3639113342,-0.192108374,-0.6199983129,0.4017554122,0.2925728982,-0.8810881075,0.2454697972,-0.2993585743,0.4638454991,-0.9276547138,0.1017264798,-0.9112947891,0.8646758742,0.0878863428,-0.1518801315,0.7946307207,-0.7045187733,0.8916054075,0.5611212242,0.8681547711,-0.8784991757,-0.3054732559,0.9820364639,-0.7265830909,-0.7298819755,0.5771406436,0.7934822485,-0.3526396807,0.9862611333,0.243075582,-0.4923321182,-0.7363026804,0.3877208058,-0.6602998235,0.5215751396,0.2918500389,0.6589036342,0.6797736206,0.3836257277,-0.4064875022,0.5937640105,-0.0930066291,0.8215176983,-0.0098671396,0.9684129241,-0.8881160556,0.8716879515,-0.5924813849,-0.9203099302,0.4519370911,-0.0917690766,-0.340567229,-0.3426103317,-0.6177435598,-0.8828068188,-0.858179058,0.1843420027,-0.6954550849,0.0320526082,-0.1186480518,0.4591638195,-0.3062771241,-0.7132170136,-0.0613106711,-0.4704380183,-0.6954643532,-0.1790327355,0.4008207054,0.3325517395,0.2165685684,-0.0648883441,-0.1028143696,-0.5433023889,-0.6067024607,-0.9989759507,0.048314473,-0.5512864111,0.3062498926,0.5277078571,0.8115668853,-0.0287135972,0.4484159592,0.0851129618,-0.3579820985,0.3269691341,0.111536199,0.0799727165,0.8392781778,-0.1097525168,-0.3352161087,0.8475096402,-0.3170394,-0.6388144642,-0.1630778291,-0.9453925368,0.1453902013,0.3658395511,0.2511664823,0.7126544965,-0.8615524111,-0.2807780781,-0.856756955,0.4396522289,-0.4426481674,0.5303674516,0.9721896687,0.05886403,-0.5056667093,0.8971624224,0.3688717373,0.0538688347,0.555960439,-0.1332797716,0.8937689974,0.2998604812,0.1403460365,-0.2390379626,-0.9148742167,-0.8436851845,0.5354321761,0.4415531953,0.0589139896,0.1105828846,0.6407359154,0.6779225599,-0.6275367393,0.479171026,-0.267440224,-0.5169870668,-0.4305247493,0.3987091632,-0.3689034203,-0.1494316668,0.129606373,-0.3526356192,0.1833846099,-0.753021642,-0.5753430661,-0.8364416609,-0.9569233023,0.7921288462,0.9456145191,0.5325944083,0.1509527919,-0.8024711581,-0.4159411947,-0.8820494648,-0.0541095194,-0.9393863223,-0.5608740327,0.3820287605,0.8668698451,0.9123423246,-0.3936852641,-0.3502068058,-0.1556179272,0.5963516058,-0.1231621008,0.8280356516,-0.2665694077,0.3641368392,0.6414230599,0.5554680769,0.4668778752,-0.4398705558,0.1193594477,0.1634759029,0.0335746456,-0.2520481216,0.5577133542,-0.1753158831,-0.9413109266,0.70555223,0.0297677098,-0.9062962959,-0.9291757709,-0.7437926145,0.8779273837,-0.7644237514,0.6502657465,-0.8781675036,0.9474732188,0.1015553845,0.7703039957,-0.6158855507,-0.9467648661,0.9209600687,0.6664080432,-0.4924536097
##end
biasActivation=0,1,1,1
[BASIC:ACTIVATION]
"org.encog.engine.network.activation.ActivationSoftMax"
"org.encog.engine.network.activation.ActivationReLU",0,0
"org.encog.engine.network.activation.ActivationReLU",0,0
"org.encog.engine.network.activation.ActivationLinear"
