encog,BasicNetwork,java,3.4.0,1,1532880933657
[BASIC]
[BASIC:PARAMS]
[BASIC:NETWORK]
beginTraining=0
connectionLimit=0
contextTargetOffset=0,0,0,0
contextTargetSize=0,0,0,0
endTraining=3
hasContext=f
inputCount=16
layerCounts=4,26,101,17
layerFeedCounts=4,25,100,16
layerContextCount=0,0,0,0
layerIndex=0,4,30,131
output=0,0.9999998239,0.0000001761,0,0,127.7607631636,0,37.7995736519,0,0,0,0,0,10.6606121088,0,0,126.1924240211,0,150.0672696116,0,0,0,0,0,0,0,0,114.6212489095,0,1,36.7897525442,0,0,24.7245660865,0,31.8201173073,15.6354324964,0,0,39.2902211416,23.268076812,6.785935762,0,0,9.4788446703,4.6961664228,10.5767686665,0,0,0,0,0,0,0,5.9214396701,20.6297342489,0.2612839431,15.1204181621,31.9982172314,0,8.5786540264,0,30.2645253346,17.7276783675,1.3482901652,0,0,17.3285434829,6.168786971,0,12.2253499398,8.9678862709,0,0,16.7403611078,0,0,7.5890094203,0,0,0,32.6794616676,0,7.2967826196,41.6945085897,39.7892694552,33.7438772226,3.5454848052,14.2639952814,19.512832866,0,0,0,0.0129576474,4.1943313875,26.5039209482,0,19.0517947595,0,30.603920219,13.2146965426,0,28.4667017052,23.4869330031,1.8332707762,5.0055318402,0,24.3602596335,31.2851050853,0,14.1969918765,30.9005159281,7.0535054529,33.6745609653,0,0,0,0,21.6380299339,0,12.4819947847,0,11.2271917341,0,19.8184106919,0,0,3.3208571161,0,0,1,4,2,32,4,0,4,16,2,0,0,2,8,0,0,2,4,1
outputCount=4
weightIndex=0,104,2629,4329
weights=##0
##double#4329
   -0.5344623865,0.6719784831,-0.8224283513,-0.8351513511,-0.2999687984,0.764160047,-0.8092974809,0.3202409959,-0.8728456862,-0.5010582012,-0.838621993,0.1401726247,-0.1785983267,0.7939567372,-0.5574711904,-0.2392557694,0.3207527791,0.5228422799,0.9952737295,-0.6872509673,-0.0515359889,-0.4317910589,0.124978092,0.2500531829,-0.5755728206,0.5803391074,0.6153932798,0.0078836033,0.6874502647,0.8735930618,0.9788910839,0.6326205938,0.0142040266,-0.3781787444,0.6601032209,-0.7070846372,-0.2584414224,-0.9234795956,0.6167585743,0.9269467633,-0.8644510281,-0.9046476174,-0.3812670509,-0.9358897821,0.6317342926,0.63477562,0.4121312578,-0.8668618555,-0.1594633157,0.5700389957,-0.3279167739,-0.1531778524,0.2311874101,0.4046405661,-0.8585798536,-0.5835676777,-0.9003693855,-0.8550860081,-0.1222066345,0.0258356758,-0.7373114516,-0.4135586863,0.3443760683,-0.7165978747,-0.1925415756,0.1847125788,-0.3703090098,0.221806738,-0.683450634,0.6280761385,0.4023674957,0.4470092078,0.4276517553,-0.2605100739,-0.5215079251,0.6901552112,0.5221680148,-0.2392316159,-0.8093949034,-0.7511263824,0.2592562966,-0.4721629683,-0.9808909153,0.8925318306,-0.50839741,0.1001962405,0.8376400277,-0.7705451191,-0.7554014669,-0.2154621055,-0.3406960899,-0.3954965155,0.5531392505,0.1825226303,0.4067027765,0.7805053316,-0.6885195973,0.7705114997,-0.0311901911,-0.2959818603,0.3180116557,-0.7136840048,-0.9734393679,-0.0268062632,-0.6802112619,0.5180594957,0.0969944704,-0.4237485857,-0.6711177315,0.4579830178,-0.5232247379,0.4374962225,0.5159852291,0.0875625088,-0.7114962692,0.6870822477,-0.2827509572,-0.7593429354,0.162728471,0.8743493675,0.3947346364,-0.8425439533,-0.6840857934,0.5828066826,0.1585568163,0.7424741943,0.9865012353,0.422857751,-0.2706164896,-0.0390593136,0.9303493464,0.056274455,-0.8629249908,-0.000417743,-0.4723153375,-0.1597430907,0.5251205484,0.8488594321,0.1259428566,-0.8170283353,0.7425474996,-0.6912870302,0.3662474434,0.2420913346,-0.5077275298,-0.4535217952,-0.2174634186,0.361119671,-0.5678343997,0.6328114304,-0.576587522,-0.1718126048,0.9283503585,-0.4430239869,0.5288328749,0.5109157794,-0.2670196224,0.386541918,-0.8525483034,-0.8968986379,-0.4818101835,0.561698377,0.8145520853,0.3958265109,-0.1355125802,0.6908223027,-0.0613984671,-0.2880454795,-0.2994030391,-0.5263282562,-0.6149218551,0.2495073862,0.4160031323,-0.4340894904,0.5241071623,0.9158214375,-0.0942919677,-0.5712028963,-0.3296183575,-0.3151727202,-0.4962024537,0.0544770516,-0.8420845081,0.9463938341,0.1059735098,-0.7232499073,-0.9619355809,0.2290067068,0.533505374,-0.4869930957,-0.0498581012,-0.3549326947,-0.7868861136,0.6716782233,-0.0649658086,-0.3331540687,-0.9584749528,-0.0093779713,0.2289427716,-0.4890134068,0.8878366002,0.7553095568,-0.9601903566,-0.4208294479,-0.2247646986,0.4596939981,0.5442240392,-0.9331488003,0.6145839367,0.4146314361,0.8787022662,0.7149260949,-0.7177254788,-0.1274422966,-0.7725096904,-0.2557183781,0.5755026951,0.587967903,-0.544128075,0.9073121495,0.2960894827,-0.8820504883,0.0852113077,0.0252467611,-0.8260888942,0.908737969,0.7338397106,0.2133025439,-0.9328056481,-0.2368155556,0.7623748476,0.476417471,-0.9216377209,0.6081606866,0.682533223,0.8379952385,0.9106401257,0.2864840827,0.2627181183,0.8583293655,-0.3507065649,0.3203963534,0.1496014852,-0.4213225554,-0.7021209756,-0.0976080782,-0.1614698531,-0.2526761599,-0.9197729429,0.4153896671,-0.6224842244,-0.0440258415,0.3171067707,-0.0120928957,0.6474132886,-0.7239215616,-0.6033142229,0.8626535247,0.1683394994,0.4837839318,-0.2592527411,0.9460847531,0.7427791338,-0.6431413183,-0.5642267872,0.6281663768,-0.9746861156,0.2554615503,0.3904937648,-0.4067990101,-0.1492368354,-0.9457762277,-0.2827623966,-0.3371165315,0.6951582663,0.350821146,0.1379747685,-0.7346202685,-0.7851162147,0.7693835885,-0.3800326941,-0.0952361179,0.8003916718,0.9366426983,0.3473523209,0.307851988,-0.8139651825,0.5538788627,0.0550764308,-0.6060002296,-0.7093050809,0.9136288716,0.7368377371,0.2693928189,0.5466844576,0.0911337551,0.9468540194,0.611084003,-0.3472671302,0.5646441788,0.3780059828,-0.015643003,0.23874095,-0.4399325255,0.4114358155,-0.4672504993,-0.5959515247,-0.3662958066,-0.1834536677,0.886960482,-0.4010118709,0.3135253806,-0.3980844842,-0.719074087,-0.3733257835,-0.586197636,-0.8591262222,-0.8920846675,0.2445276163,0.9125930861,0.3807387457,0.9679286557,-0.2667779091,0.1248652964,-0.439533549,-0.3686551625,0.707948636,-0.815727801,0.6229086385,0.2640868704,0.5494990081,0.4090231749,0.7328206568,-0.0017799785,0.6226116408,-0.4292078971,-0.1383698009,0.1599508,-0.4573229535,-0.9266665382,-0.4678759078,0.3406351143,0.7112527629,-0.61601742,-0.3259144399,0.2552032217,-0.8316467736,-0.6337847091,0.2838391161,0.7743907126,-0.0082467582,-0.2452111445,-0.5565554428,0.9188116911,0.5739897203,-0.8199277049,0.380459362,0.2752261444,0.1446528195,0.0661879286,-0.3375138975,-0.3305632056,0.1430319774,-0.0770228886,-0.1257141079,0.2691968143,0.2347716349,-0.170619698,-0.3628874226,0.5997672403,0.3804275761,-0.0963440421,-0.1473079395,0.2452534097,0.217732834,0.0970988396,0.1268341542,-0.2815025263,-0.9052423145,0.2678935926,-0.5946014303,0.0110007828,-0.4168876664,0.7922618074,0.1349659494,-0.2834907237,-0.5857088683,-0.704981298,0.3840135185,0.0623211468,0.5234830365,0.2214011052,-0.2578942239,-0.891848017,-0.9119861198,-0.2349139439,-0.0087111496,0.2671773718,-0.0773019066,-0.9095582172,0.5906309446,-0.564622945,0.8714951429,0.7127503948,0.9656182304,-0.5834976104,0.7393273999,-0.6777200991,0.8659442075,-0.98340239,0.6550440023,-0.1913175684,-0.3522885005,-0.8000512492,-0.9823774093,-0.4813240066,0.6951506662,-0.7812516672,-0.2430672195,0.7643918718,0.4498930103,-0.6637483595,-0.7744136771,-0.7208468583,0.4916856086,-0.4210319956,-0.3353105225,-0.3708661758,0.3314738347,-0.564258136,-0.2169600594,0.4795283174,-0.2705093586,-0.0052679336,-0.2413345172,0.2477636162,0.8528731296,-0.6253475129,0.9936416532,0.4900256323,0.9755799271,0.6251664852,0.2141882499,-0.8180809991,0.6660638166,0.0933736871,0.7182015925,0.9943235822,-0.7420881361,-0.3044826141,0.8802763545,-0.2588637463,-0.3803906573,-0.9542265253,-0.2845437766,0.0996739608,-0.3157956254,-0.9475072036,0.9688913735,-0.5990926471,-0.5771121899,-0.910415084,0.9925909024,-0.7365381596,-0.7122121388,-0.5915358855,-0.8164210626,-0.8829265178,-0.6288171791,0.4130288097,-0.1309441881,0.1765012929,0.9407034552,-0.1921375977,0.1025470133,0.6337884656,0.4815729639,-0.0254229082,-0.4603360572,0.3545768021,0.6464873085,0.6550264201,-0.8640610842,-0.2936649968,0.587022326,-0.0597325295,-0.9218803154,0.1471153051,-0.3502338348,0.5754626353,-0.5306214751,-0.7023946161,0.3054582534,0.5862176915,0.277221824,0.0598583713,-0.0706312244,0.3920591696,-0.7973541052,-0.4322831583,-0.9699505114,0.2482050359,-0.9899890869,0.1043412926,0.5251938692,0.0684325669,-0.3545611983,0.7510678074,-0.6611099419,-0.0961040994,-0.7656134487,-0.8393552602,0.2831199085,0.5480194765,0.145621529,0.368250779,-0.6826058519,-0.2590782048,0.7968878621,0.166853376,-0.8514771981,0.6320668727,-0.8515667827,0.8293271698,0.7458135969,-0.9997020015,0.6039473981,0.0021743888,-0.9834833906,-0.1847889039,-0.3790386861,0.5176583172,-0.5925787116,-0.9240547091,-0.7084509066,-0.3369958518,-0.5722262136,0.3277117297,0.1692384362,0.2512176558,-0.0096723692,0.3347156597,-0.9718250908,0.7561037795,-0.0220774481,0.4909834831,-0.4246915941,-0.6531306444,-0.679387639,0.9959501863,-0.9401123138,0.1658728339,0.2267495868,-0.3533893871,-0.0691555763,-0.7643915809,-0.6177919857,0.4147712562,-0.8941352371,0.6417904915,0.8116160202,-0.655671954,-0.1793446859,0.3980299585,-0.8475569407,-0.269759835,0.8840662293,-0.8210525478,-0.7352780428,-0.5453006433,0.2719906056,-0.9088009836,0.6595350561,0.8751540315,0.2488072728,0.8176086248,0.6157934825,-0.3775502296,0.8394170524,0.1276694317,-0.2159617331,-0.6603812464,-0.9816510599,-0.7581149178,-0.7004928657,0.657345681,-0.0606420709,0.0251395045,0.0926587951,0.2885604635,-0.1798043683,0.6130483185,-0.5458859427,0.2158169379,0.5964004554,0.3326914746,0.2935602368,-0.6035261764,-0.6543253308,-0.7121640779,-0.8397897834,0.1910186996,-0.5151925663,0.5713634933,-0.7582163703,0.2994200721,-0.9843317908,0.3809085725,-0.8005623337,0.1318982875,0.3421271364,-0.8877198055,0.6799777926,0.7100717324,0.3017965402,0.0860737823,0.054085112,-0.0947702276,-0.6581066811,-0.6978777754,0.7717031413,-0.9019850291,0.4470259404,-0.3951815036,0.8236287519,0.6764198876,-0.7207481537,-0.4463089552,-0.5589773034,0.2283643272,0.8364435176,-0.9193626309,0.8139377863,0.8857804691,0.9921477293,0.1761795484,-0.874559649,-0.7519680989,-0.1641290489,0.8035621982,0.9927821769,0.7660311902,0.3834909169,0.743501672,-0.9587900552,-0.8125762001,0.3461075658,0.4416692234,0.3158848753,-0.205304736,0.6070304965,-0.4094255413,0.4293486815,0.8810696141,0.795869908,0.5478741624,-0.4749595323,-0.0185288354,-0.3474973848,-0.1387133686,0.5946397935,-0.4522466658,0.6122416689,-0.0006572927,-0.6732708257,-0.5232985168,0.2122124108,-0.209583908,-0.7114408364,0.2786764447,-0.4731932274,0.4896096948,0.5482412025,-0.5750040312,-0.9155703043,-0.456481956,0.4237919971,0.447592013,0.7285399577,-0.6310442393,-0.8636878855,-0.3158627196,0.0212900523,-0.8413071964,0.5631939805,-0.5242830003,-0.7892943301,-0.1578700379,0.0710183243,-0.7787830205,-0.9617023823,0.7058697748,0.0002490141,0.3297555839,0.7437574339,0.8738838472,-0.448373338,0.3707389601,-0.3247096018,-0.3248338371,-0.7421246913,-0.7070277702,0.5240376834,0.3540431949,-0.2465693072,-0.308777479,0.353418653,-0.8612230995,-0.4810313798,0.429314954,-0.4976525512,-0.6440889373,-0.2787170097,-0.3653070438,-0.2900784574,-0.5793151835,0.1168028403,-0.0318737013,0.8704032704,-0.8207627014,-0.7374487291,0.5659360197,0.6153770504,-0.8367194341,-0.2932344972,0.6771491825,0.8569438097,-0.066245753,-0.4620609968,0.4943326167,-0.0242278436,0.7328453911,0.9563084735,-0.4351530052,0.7563833701,0.2312402135,-0.7276642654,0.8839701187,0.7002773459,-0.8326328627,-0.2982761902,0.404105006,-0.9325497715,0.5846780382,-0.2260385616,0.9904603602,-0.9308744224,-0.6427264785,-0.6062986874,0.311290887,0.699010652,-0.2776446171,-0.9176309344,-0.1486785792,0.1819709659,-0.6138467292,-0.2271180743,-0.4887644635,0.3780336849,-0.1445104833,-0.6545072626,0.0764618871,0.5704087681,0.3435878199,0.0023632116,0.6581921084,-0.2126468628,-0.77788339,0.2409902478,-0.115359137,-0.2389646398,0.5465124334,0.0354470394,0.9714453776,-0.2062044284,0.1849624168,0.8495783237,-0.7299370408,0.5909965066,0.3426638211,-0.7209939605,-0.4901132163,-0.3925058145,-0.3507830062,0.4387744916,0.5871973331,-0.0520996824,-0.2775455901,-0.449011668,-0.7323274636,-0.4678440405,-0.4133184509,0.7689249479,-0.3619613879,-0.4789898909,0.8634115978,0.781495123,0.1944467152,-0.1003881316,-0.0119524932,0.9849646459,0.3296453891,-0.0815269537,0.9767323454,0.9483126782,0.4598442682,0.6878224086,0.2859950922,0.1477898175,0.8654005929,0.5971042844,-0.7009524731,-0.6816671599,0.1448329523,-0.7162652171,0.683769296,-0.2842621575,-0.9084560648,-0.2331110588,-0.9315785499,0.392369061,0.2239581334,0.2142827587,0.9691680089,0.0623964935,-0.0920023183,0.1798767896,0.659176332,0.9494806448,-0.7643441113,0.69149155,-0.3564533422,0.3431446747,-0.5498748465,0.2059726354,-0.2138255423,0.0412235998,-0.0513273318,-0.0678885691,0.2357154284,0.57250604,-0.3525061918,-0.468886502,-0.7198302593,0.8631671061,0.6073985547,0.5721982687,0.6094758139,0.776005093,0.3608442545,0.1911990826,0.6423627085,-0.2898951081,-0.1857707426,-0.0775270669,-0.0040602735,0.02588735,-0.8508701678,-0.3316737325,-0.1121174777,0.5113838871,-0.1197430741,0.5151672603,0.5656009209,0.8093778559,-0.9661321815,-0.0707834642,-0.6362427773,-0.5164627455,-0.3070706451,-0.2283328257,0.5868226072,0.8255796378,0.739518169,0.5174465655,0.2669162736,-0.3172421027,0.1996528074,-0.1421660237,-0.3464248379,-0.3827184973,0.1583335219,-0.6921896237,-0.3598392711,0.055460127,-0.7718494437,-0.5666550567,-0.28361229,-0.2308731986,0.0423705545,0.9351387356,0.8698033804,0.8475844754,0.3114644058,0.3073840644,-0.694717977,0.5553696265,0.1546844019,0.0526769914,0.46277313,-0.0130406427,0.8419544021,0.5464991887,-0.4395744312,0.1632109303,-0.968869789,0.8382556779,-0.7921827852,0.3268123796,-0.5552335878,0.094156248,-0.4307472875,0.7672251638,-0.171763807,0.8661825136,-0.5118557269,-0.0077974704,0.6112329236,-0.8383035253,-0.9851895048,0.0746945147,0.3786255846,-0.8202411752,-0.2199037056,0.6279592478,0.4906150987,-0.2859639109,0.9557981251,-0.3658907607,0.2635238246,-0.9489085198,0.3940345599,0.8913327431,0.8273104515,-0.4302555284,-0.3336420182,-0.6979143605,0.2788138775,0.4290578992,0.157853626,-0.5859547381,-0.2203116686,-0.5901108533,-0.6677196865,-0.8686949361,0.9499711325,0.6827908913,0.2203839377,-0.9743796551,0.3755893536,0.8473261636,-0.132046391,0.0300757136,0.0126034468,-0.2921129954,0.173158679,-0.3979454672,-0.5920654076,0.2780599398,-0.6418797262,0.901593318,0.9722259694,0.8880882276,-0.8116486722,0.497619163,0.4904092228,0.003971163,0.089986957,0.8420412424,0.5112718623,-0.6393110617,-0.4296525128,-0.3694151305,-0.1500939025,0.0615888567,-0.3480479089,0.6771100643,0.5318829606,-0.2350239059,-0.8996256078,-0.3372018641,-0.9274022213,-0.0943812632,-0.7232821717,-0.5249841957,-0.1701948157,-0.4078691898,0.4005244536,-0.3230257052,0.1645696341,-0.9366430483,0.3464460099,-0.7820613076,0.8616861968,-0.9860149328,0.4825362835,-0.8622450478,-0.0783758793,-0.156139568,-0.9495565222,-0.703987722,-0.4452828566,0.8922474784,-0.2679200217,0.9503630862,-0.3043754512,0.3661648326,-0.6314642663,0.8185424662,0.3573492225,-0.6903355609,-0.8882788304,-0.4201643878,-0.2160551888,0.9536187138,-0.3904573165,0.5581701468,-0.6286945656,-0.4487979495,0.4194370035,0.0445018398,0.3695660881,-0.1146507128,-0.8793021418,-0.4666349934,-0.9671278664,-0.6775585119,-0.9025345558,0.4697574306,0.0203455233,0.6984966847,-0.2267683223,0.8151927716,0.4002380883,-0.6704185634,0.8678957872,-0.6619717827,-0.680876017,0.7353286042,-0.6435569341,-0.6351579208,0.2537535937,-0.584625551,0.1542200936,-0.1279859972,0.5465152377,-0.4184581867,0.5475059949,-0.0154053746,0.646954827,0.9644823166,-0.8470882318,-0.0520156883,0.9033163372,-0.7096627206,-0.2381009925,-0.3497452537,0.5372848066,0.9553791669,-0.1711843701,0.9443133096,0.4728517747,-0.6719467292,0.1367526343,-0.2468451935,-0.8892194634,0.9035663115,-0.6077608123,-0.8451511501,0.6757618634,-0.4575199433,-0.8639950705,0.8728959409,-0.6624984209,-0.5287361086,-0.113581144,0.1090812455,-0.3299075042,-0.6554433139,-0.6874771008,0.1516081892,0.9931879727,-0.4945380511,0.3355010235,-0.9915797178,0.4393828961,0.609111893,-0.9963684334,0.5318341494,-0.2997795562,0.7047406287,0.0421846236,0.7582398033,-0.6178477566,0.6038363746,0.0405000052,-0.6793758876,-0.3586025129,-0.6806991744,0.1371369611,-0.2961892135,0.5925755005,-0.3113174178,0.1026490672,0.3619324345,-0.0232097303,-0.9315007122,0.1932728874,0.1967960658,0.6400395384,0.9662211931,-0.8767191356,-0.1341417152,0.6056070763,-0.2732142686,-0.3398021531,0.9963547891,-0.7900612385,0.3941124816,0.7834617583,0.4876612289,-0.2076756189,-0.2836448335,-0.3322762722,-0.7744119325,0.59296353,-0.0326220778,0.7141154986,0.9703955079,0.7490408586,-0.5240685253,-0.403931291,0.3148103603,0.7890804495,-0.8930368114,-0.1168070978,0.265745727,0.5455630207,0.1103242266,-0.429850707,0.0135763935,0.1849017096,-0.9157498577,0.6843368773,-0.0732535333,0.0149068124,0.1675781466,-0.6731939949,0.9192202258,-0.7615000454,-0.8931195808,0.124804139,-0.5436169367,-0.4109476218,-0.9499108956,0.7583383391,0.1488635594,-0.0142325651,0.3346694413,0.3926895492,-0.7166325208,-0.913618339,-0.3854237437,0.3560584663,0.6594676794,0.5142811503,-0.4890609627,-0.0594778992,0.8033352141,-0.8985637791,0.0746204327,-0.8776586814,0.7925998064,0.7570408957,-0.5311515005,-0.2995502518,0.3058072862,-0.1958832797,0.8383311502,-0.4348105437,-0.1824837276,0.8637285096,-0.1730148341,0.5045089541,-0.9581231127,-0.4224783153,0.4525476174,-0.5101980943,0.9498685646,-0.7467198504,0.0268649656,-0.9424441729,0.0549971431,-0.6414995637,-0.5683353663,0.3823978344,-0.7596759629,-0.2194022646,-0.1499501092,0.735299762,0.486875941,0.4120289647,-0.2777106108,-0.580395495,0.460691656,0.2818026181,0.9098505747,0.0472053524,-0.2838478053,0.1588070221,-0.4551928425,0.4012885658,0.4259003122,-0.1624315367,0.0997773761,0.3375367622,0.4922542818,0.8566119243,-0.8927373116,-0.9398658136,-0.1519064556,-0.5584243544,-0.3655568739,-0.5477351593,-0.7951907222,-0.5540155256,0.3144078332,0.9259305889,-0.7984814074,0.663201228,0.7025280194,-0.2111077833,-0.9267468994,0.1682625132,-0.3972042693,-0.3455677017,-0.4107218392,0.3440539757,-0.9338069248,-0.7320250297,-0.7549456267,0.6353064704,-0.2717091725,-0.7023232072,-0.1970070333,0.31474827,-0.7865542712,-0.7723148873,0.6275762706,0.5305053421,0.744513003,-0.55805856,0.4787091144,-0.3042841805,-0.5331109914,0.2736678338,0.7222036091,0.3178665841,-0.1290997138,-0.6020816013,-0.6308685035,0.4423208961,-0.8409842956,-0.532627993,0.3233784248,0.573771485,0.8600440296,-0.3863996455,-0.3643738012,0.7352218512,0.2728962771,0.6882666534,-0.3772653888,0.7250772717,0.1092178174,-0.59530705,-0.5634614829,0.3657318038,0.7534742571,0.0460675435,-0.9199527774,-0.6951680382,-0.4163453318,0.7727732397,-0.8524925586,0.9914884133,-0.289073348,-0.7624463085,0.8648673971,-0.0149430154,0.5812659798,-0.1602817828,0.0037898365,-0.1165585832,-0.7618197578,-0.2995401947,0.4654929043,0.3265488847,-0.7877555272,0.2458627333,0.4944479408,0.9130184241,0.1490694195,0.847928821,-0.869793258,0.8021050185,0.4333247143,0.8137532665,0.3941643038,-0.3393056996,0.1310414468,0.5716093869,0.1904833042,-0.139478402,-0.7678549556,0.1020732856,-0.1080423344,-0.514594599,0.0759531976,-0.8688657221,0.0243737036,0.1696906756,-0.0011705328,-0.9289780837,-0.5371214435,-0.6111791824,-0.253826166,-0.0442618477,0.8077535312,0.367512618,-0.3509462956,-0.8408501439,-0.1569909073,0.7456120818,-0.5362750277,0.6169159951,-0.7911493016,-0.3023129995,-0.2622614761,0.1910121122,-0.9066050686,0.4387927559,-0.8609237494,0.6317878882,0.554201747,-0.9083919275,-0.5572722213,-0.9448003073,-0.7369142318,0.5831825301,0.2574116175,-0.2804433893,-0.5914147452,0.5605101882,-0.4433053482,0.4682005958,-0.4303398466,-0.4432573815,-0.2179136137,0.3073123325,0.8595972715,-0.1894717307,-0.3540146529,0.9459805779,-0.7193033589,0.9430380739,0.9422916301,0.228110139,-0.1565535805,0.0314035136,0.9681651324,0.8975285489,-0.2057067835,-0.4556115745,-0.836426326,0.9876642141,-0.5668601527,0.389656377,0.4958740391,0.6733615457,-0.6682824197,0.2952909346,-0.8362178972,-0.3150002485,0.7869340335,0.9678156973,0.9568201858,-0.413150505,-0.4000776189,0.1059446381,0.4939154813,-0.202656819,0.9914755369,0.0248533229,0.3277951195,-0.8493168033,-0.8532407534,-0.4983140835,0.5330958411,0.3110222452,0.3907487113,0.6943987665,0.671950705,0.6566707795,0.9700005413,-0.7335775698,-0.7203787859,-0.9148939937,0.7495407948,-0.3889307944,0.8416127885,0.7544689598,-0.527865915,0.4962830056,-0.6645078451,0.9531471233,0.6107783119,-0.1478276204,-0.4178599166,0.8644694848,0.9158666446,0.9330155771,-0.2515654193,0.0759169411,-0.3353568159,0.2562044628,-0.3197705872,-0.6873618809,-0.9593265843,-0.7570267637,0.4462712248,-0.449630797,-0.4065112079,-0.733946101,-0.3341891224,-0.06104736,0.9059788653,0.0614291504,0.5302753227,-0.8440973447,-0.8662064394,-0.9239296408,0.0185806159,-0.2726218159,0.7187119326,-0.0382174052,0.2975995536,-0.3250359756,0.5781650688,0.3907834047,0.8677681828,-0.41189086,0.1046591962,0.3239050669,0.5317791001,0.1729842559,-0.1415537143,-0.5874214578,0.2266911842,0.5986542469,0.1817613437,-0.4708234275,-0.191242631,-0.5742124052,-0.1761341631,-0.9684382394,-0.3493141293,0.0733059552,0.0105271269,0.2283809488,0.0471479494,-0.8497341612,-0.7851433779,-0.9959254824,-0.600591107,0.1457124784,0.3502328728,0.2026854985,0.3452680012,-0.5022037615,-0.7308076671,0.1065747713,0.7609140147,0.9094209249,-0.7638757621,0.5448084549,-0.7295334333,-0.855794194,0.9545852208,0.9867979984,0.2137466153,-0.2373535078,0.1335994304,0.7494512915,0.5127505526,0.5452737283,-0.3518442183,0.1034967131,-0.3618981771,0.7350490506,-0.2806329114,-0.5844872693,-0.5030448746,0.7125175582,-0.6439799117,0.1906172623,0.6576400834,0.9598700759,-0.6661584469,-0.60270744,0.346006978,0.7966839833,-0.3570185956,0.8847844108,0.9256909642,-0.1851167966,-0.4093142387,-0.0144664692,0.1178460871,-0.5835006593,-0.8473975458,0.4033919135,-0.3852929009,0.8124291311,-0.6555411892,-0.1452481036,0.9468368061,0.7852879998,-0.6679292857,-0.3135785959,-0.8173473005,0.813106296,-0.8638688214,-0.6416922999,-0.0727137953,0.421463986,-0.5507704061,0.6814294455,-0.9010646591,0.057715984,-0.2201181972,0.8023474654,-0.9119460874,0.967894741,0.1537202348,0.8948848689,0.705920848,0.3131644098,0.225793449,-0.6810417927,0.9678334553,0.2037417062,-0.5495752994,-0.3786401898,-0.8049827862,-0.0119740736,0.0046193406,0.0546759835,-0.0168224824,0.5013666509,0.8248653805,-0.2126221557,-0.3384547424,0.8055402482,0.1665873262,0.316563751,0.5200972458,-0.8163378146,-0.6953377283,0.1219303264,0.1098533093,0.7990236311,-0.6998910557,0.3004032546,0.5277420315,0.757211743,0.0401348358,-0.3458178177,-0.7677788353,-0.6199441296,0.1721484879,0.0322308887,-0.7353548213,0.3774036823,0.6372935721,0.1660020886,-0.683413648,-0.3131202113,0.854467895,-0.2641589301,0.8933893158,0.8624237068,0.9490124066,0.1929620964,-0.1384513747,-0.5473840588,-0.2805958077,0.4551982042,0.8134629488,0.3463900339,-0.5201051106,-0.7777087589,-0.8684227834,0.077776768,-0.8483300308,0.0643521127,0.79453312,0.4701418274,-0.0532705811,0.1466154623,-0.6120875505,0.7706803957,-0.720239195,0.2326186584,-0.7968492939,0.0252349868,0.9905360146,0.2627082123,0.4347970127,-0.6315864053,0.839042238,-0.943763691,-0.0958812921,0.4715243749,-0.5783540872,-0.4067717535,-0.3698324972,-0.3412601004,-0.6176631542,0.183973925,0.6413266726,-0.4352800047,0.1473090468,-0.9191205271,-0.9888669624,-0.4473779045,0.0754710955,0.1813955509,-0.4702308435,0.0688614488,-0.6757806074,-0.117305923,0.915792268,0.7211032383,-0.1239106884,0.7311662423,0.7066053986,0.2364996462,-0.1690315931,0.8675786748,0.8749637458,0.9053654777,0.3858110914,-0.3283811383,0.7417186324,-0.2290676979,-0.6253711464,-0.7454320473,-0.0453811418,-0.9424261866,0.0469445659,-0.2000560728,-0.6827386165,0.33008053,0.8149979661,0.3298129141,-0.4647941347,0.0809347698,-0.2413915189,-0.7132113256,-0.6739448729,0.7331417942,0.2312211667,0.6021649268,-0.4252154842,0.8744497504,-0.2872741534,0.5295341692,-0.6463831934,0.0312523844,-0.151290517,0.4202336705,0.8265050674,0.3519109117,-0.7615216464,-0.2029148814,-0.9480610799,0.8632266819,0.7425790126,0.3631074719,-0.5514591613,-0.8188568561,-0.5174865449,0.4806925291,0.4076593613,0.8308548207,0.9143585819,0.9804399718,0.3854771401,-0.9874933935,-0.1987036853,0.2947460317,-0.919340927,-0.3963093576,0.1687689569,0.1891502365,0.1917486519,-0.8996129755,-0.9549171135,0.4739953983,-0.9845071594,-0.7089893,-0.4618253361,0.0453660972,-0.8833335138,-0.0870937646,0.4667989479,-0.5323072407,0.7965872928,0.1822507773,-0.7724507818,-0.2336635133,-0.9970452292,-0.5144985427,0.1018127463,-0.9585254914,-0.3898519125,0.1337723526,0.1724255782,0.6835227403,-0.8985137926,0.4660417223,0.159751596,-0.0158772846,0.2177163655,-0.8743124277,-0.4181949096,-0.5323169101,0.3198837585,-0.1316532508,0.345493615,-0.7166239614,-0.1517250327,0.722723481,0.4225323351,-0.2267409249,0.6719807093,-0.6083374293,0.4650264288,-0.3743347472,-0.1387555522,-0.144370092,0.9893044563,-0.7011261143,0.8316567081,0.2509865306,-0.6855672248,-0.7004678038,-0.2578691339,0.4120385596,-0.8986326118,0.0683341233,-0.2514950922,-0.7126066623,0.6837380782,-0.2648343748,-0.2034203694,0.5344670124,0.1372111755,-0.0499568481,-0.8353094996,0.5723207638,-0.0123524513,-0.7165983143,-0.7312216228,-0.1795859078,0.4581512688,0.4125203972,-0.7107113191,-0.2509747799,0.9772182039,-0.3250311024,0.1039177478,0.8768674527,-0.6023058727,0.8572109648,-0.1058537218,0.3184983272,0.1396215178,-0.1056167461,-0.2578202171,-0.1860104102,-0.0957202436,-0.4126420173,-0.866045836,-0.3470172539,-0.9312436932,-0.0032582253,0.4207433141,-0.3603774304,0.5411352671,0.5687481908,0.6406411655,0.1215424214,0.6093691164,-0.2212567783,0.7048292916,-0.1411066238,-0.7452343001,0.7294404153,-0.777249923,0.4873630823,0.0342117992,-0.5056242724,0.4882207105,0.8195124439,0.1223279531,0.2717790873,0.2316297369,-0.7419279224,0.0949738485,-0.785821041,-0.1259490738,-0.2078217711,-0.7229470641,-0.1830591097,-0.2802185244,-0.7684739943,-0.1123128064,-0.5974575319,0.0879149896,0.9157130431,0.5189096518,0.5352385999,-0.9988927377,-0.7564390348,0.9496418039,0.7931680895,0.1049052875,-0.6284073587,-0.6853811527,-0.7441951971,-0.0936932598,0.1244140056,-0.8108233382,0.9866312304,0.6892259453,0.2429023076,0.2885461319,-0.5288617395,0.4899753205,0.0210781597,-0.5583888599,0.0891325089,-0.073734711,-0.4898793681,0.1490045209,-0.6196177445,0.3306398963,0.645794487,0.6590569326,-0.0532608169,-0.1470838515,0.6150412051,0.8880821768,0.9829919453,0.549398523,0.6199260642,-0.767059779,-0.1758748263,-0.200520001,0.5991475925,0.8243287714,-0.9544892977,0.5088593943,-0.238177473,0.449528152,0.0337097525,-0.9609373836,-0.5124623788,-0.4006259902,-0.1980551352,0.2804126869,-0.7436498417,0.1865626898,0.8630270875,-0.1666346568,-0.4587554849,-0.7844540175,-0.9187121361,0.7723868969,0.7188579827,0.6170301738,0.8912311,0.9266219128,0.2764971813,0.3662998949,-0.7273767559,-0.6849197769,-0.741754813,0.0690940581,-0.6977086879,-0.7752019502,-0.1283180886,-0.5849461456,0.0596271281,0.970650193,0.1054250303,-0.5399714423,-0.4299624477,-0.7329181386,-0.6488624112,-0.6017812794,-0.7293105769,0.5714482831,-0.0752945399,0.360493303,-0.8862068411,-0.9871419848,0.8326953912,-0.6389179136,0.7919827425,-0.9577129389,0.3183136683,-0.8033853553,0.2429381102,0.4589241408,0.5107874188,-0.4746576207,-0.4474437542,0.2229600882,0.2373619102,0.2611075833,0.33746338,-0.7110871283,0.0286573739,0.9202527325,-0.4489197014,0.915084135,-0.3263799813,0.9909741245,0.219643357,-0.8820034416,-0.2777391055,0.8167119641,-0.9311253657,0.4032490948,0.337034926,-0.5141804601,0.1842451319,0.7531137451,-0.8523232427,0.6484245266,-0.2107868745,-0.9139463471,-0.2783818337,0.4838037578,-0.4255523729,0.4652432412,0.386251395,-0.3236803702,-0.4187377283,0.4695909118,-0.3338835801,-0.7441797541,-0.7884560406,-0.739641289,-0.6238695383,-0.4396761918,-0.0681271912,0.1692640096,0.3006529635,0.8778523424,-0.8937353906,0.5806936799,-0.4714523789,-0.8041265985,-0.6391231588,0.7769545644,-0.0428126755,0.0422107478,0.7891061158,0.0373111359,-0.3582954217,-0.9152689347,0.1788170857,0.8969722996,-0.9529704303,-0.3985942313,0.1866934787,-0.5177204693,-0.9549757872,-0.2784610296,0.9333489857,-0.4524453141,-0.6210168643,0.7959516996,0.0053501935,-0.9341036123,-0.3539006457,0.1832703092,0.585619558,0.9250061149,0.1981520487,0.5283115292,0.7164837821,-0.949779174,0.5034455762,-0.3143121004,0.6442222274,0.2785454608,0.9641304496,-0.9344479967,0.2441745981,0.8946994876,-0.4111498868,0.7554506646,-0.2191571649,-0.5482411469,0.709796034,0.4942009863,-0.1189848519,0.0000657041,-0.2948887654,-0.8936001171,0.0724143375,-0.7416245018,0.3426373222,-0.3890945286,-0.3581003306,-0.5538050854,0.0578791822,-0.5080885712,-0.6248456414,0.7730064254,0.4816070622,0.2836503086,0.7311352193,0.725538327,-0.8667452292,0.9932148954,0.9138590583,0.1995244809,-0.1649614739,-0.1958506205,-0.4243678335,0.1248698792,-0.8287635841
   -0.3320127868,0.1432355736,-0.5758055697,-0.2871426146,-0.4203396017,0.3074757581,-0.7795927885,0.5122200194,-0.3978711933,-0.5664072472,0.0317204485,0.7717256127,-0.2025140618,-0.0606306182,-0.8434765949,0.7733769064,-0.688276381,0.8374237548,-0.6551234129,-0.6929190646,-0.0604140229,0.2397392187,0.9654340473,-0.457894878,-0.0532828099,0.3039673824,0.5495136901,0.0617231022,0.465256491,0.8787279819,-0.3921515652,0.9378449714,0.4744075837,-0.3151142524,-0.5228396367,0.9071798157,0.183908567,0.1667031069,-0.6041590397,-0.9535780879,-0.2255219049,0.9960388501,-0.443825881,-0.0172393753,-0.5388639284,-0.639204571,-0.5111491701,-0.1042061338,0.271180746,0.0214477548,-0.2435008353,-0.9502312276,-0.6781237862,0.2591380423,0.3665684337,-0.7772963334,0.4313534325,0.6368594577,-0.0258656698,0.6030948179,-0.2509242411,-0.5704989888,-0.9768850726,-0.4860309516,-0.3612187643,-0.943795672,-0.7279356695,0.9186969155,-0.5891850856,0.1950715532,0.9625611952,-0.0670979612,0.0939119698,0.1294696931,-0.3239490211,0.4912905457,0.6798471569,-0.7799207047,-0.7579460085,0.0762315454,-0.8471432563,-0.6470663345,0.0832695456,0.9864423089,-0.8958028244,0.1326998476,-0.4561198042,0.5212390755,0.6412804039,0.4028427091,0.8044347663,-0.4392913088,0.4721414075,0.7102190609,-0.0874249258,-0.0761887029,0.2056660908,-0.8554952425,0.81962211,-0.1642211287,0.0285983167,0.3165168312,0.9212419998,-0.164954951,0.237594019,-0.6526982637,0.6989483955,-0.5359481697,0.0211359102,0.1983673725,0.7977317839,0.6716412639,0.7423516067,-0.0000581262,0.8691790201,0.7874432041,-0.932017884,-0.922974644,-0.7201340924,0.5609855443,0.0662550116,0.3079762595,-0.5400659741,-0.3883320922,-0.7002612603,-0.3367329991,0.8626657559,-0.4720729529,0.0543920167,0.3653490464,0.3583740813,-0.2247808749,-0.4731322791,-0.5665501761,-0.1781004246,-0.4677057942,0.5368349288,0.0060182208,0.9510146004,-0.4005445203,0.5243804398,-0.9516956201,0.80902587,-0.6923669418,0.4144109496,-0.2729757262,0.7715043668,-0.5088921268,-0.0928635757,0.3435660923,-0.743823441,0.2130615496,-0.1695611939,-0.4369363691,-0.9172985863,-0.2427606155,-0.8814763852,0.1423767846,0.1671485871,0.2426339644,-0.2638352923,0.9942641929,0.2165301453,-0.5900327873,0.0173648235,0.1083865203,0.0876971773,0.304980834,0.7918874369,-0.4695462002,-0.5833687272,0.4180349185,-0.6596830623,0.5415113406,-0.0326747587,0.4182127839,-0.8912816342,-0.171629828,0.4287265442,0.5350043866,-0.9156588205,-0.434964869,0.7201332801,-0.4895249855,0.4340628811,0.1961995408,0.9778954663,-0.8023761554,0.9099204493,0.4319906271,-0.1237349747,-0.4714473244,0.8167422854,0.2296131592,-0.2944157795,0.8217971474,-0.6980213714,0.3044363829,-0.7937488672,0.446310874,0.7580824294,-0.0124063005,0.9740935326,-0.1028533094,-0.47136833,-0.3417921036,0.0916117962,0.571757127,0.6989616138,0.0020730136,-0.6657410202,0.1078253297,-0.370711339,0.2739259675,-0.7034110947,-0.8929898838,-0.4793246797,-0.1466090027,-0.2893540223,-0.9314211041,-0.2164456917,0.9534905572,0.0229784372,0.6070410055,-0.7046479752,-0.7203955184,0.7702638469,0.4321538002,0.4505680801,-0.5407226622,0.5173125509,-0.9102758795,0.1216997715,-0.6940914606,-0.904587605,-0.5610564618,0.1232010373,0.9568849106,-0.7011931824,0.6313517873,0.4907750401,0.8132954879,-0.3041507465,-0.7549953934,-0.6202170445,-0.1228351143,0.4784484612,-0.3369214814,-0.7087583839,0.126790821,-0.2925491804,-0.0033391571,-0.2721886344,-0.8980398449,0.4402144776,0.9188819677,0.9854416066,-0.5096935051,-0.9312764716,-0.0672643698,0.3448504546,-0.6855690153,0.539506194,-0.090245028,0.9258667634,-0.9826738555,0.816732955,0.7848676528,-0.0236718806,0.2701975787,-0.0527624492,0.3153131665,0.3612121766,-0.8139278874,-0.9248366272,-0.8326656728,-0.5855021399,-0.0747222593,-0.5544144516,-0.6241326705,0.5590852534,-0.2406271988,-0.3327926804,0.6025680462,-0.1899660011,-0.2046538853,0.2194478895,0.3588287934,0.493983541,0.957834847,-0.1246186818,0.6379890319,-0.1240266832,0.2030133465,0.9709401462,0.4565713426,-0.6154876656,-0.7455838766,-0.7843759427,0.084813292,0.9007497503,0.5637092107,0.8368208546,-0.5140805944,-0.8505996328,-0.998608608,-0.6313717419,-0.6976790292,-0.3766995148,0.275566836,-0.8002496527,0.6449449456,0.7676396707,0.272761591,-0.9808326156,-0.6025512403,0.5357238057,-0.4272403374,0.1862817039,0.9437134701,-0.3064582052,-0.8545191785,0.1153607517,-0.9652193135,0.2268224752,0.5389728079,-0.0153152935,-0.7829625346,-0.049836804,-0.9099936209,-0.7380794513,-0.5079390977,-0.7434841681,-0.4563336783,-0.6573951213,-0.3989333383,-0.8482198847,0.1147758759,-0.8186783422,-0.0470781253,-0.1175822625,0.3622553404,0.5901283226,-0.670461599,-0.0393576996,-0.9483242275,-0.8613633684,-0.5368675457,0.9884057575,0.7315336027,-0.5096458072,-0.0705930576,-0.029793704,0.8524974201,0.804266337,0.2802141225,0.3225113327,0.7161319427,0.8662163668,0.7299393412,-0.493306552,-0.1878771334,0.5565869672,-0.1523516612,-0.064526664,0.6276280351,0.6519895389,-0.0668043643,0.2434937623,0.5233657382,-0.3657247001,-0.3084041713,0.8113710512,0.3500460595,0.3632266215,-0.774197415,0.4447023012,0.1642820425,0.870422905,0.3203702829,0.6700960601,-0.4793102152,-0.9578505378,-0.0830857296,0.3268943321,-0.8599694762,0.1223768805,-0.1735535189,-0.5975060383,0.7420398901,0.4320053135,0.1483214899,0.8504974832,0.567643537,0.0266299447,0.4561502657,-0.6074140225,-0.9127871201,-0.3388460354,0.0134714131,0.3585160909,0.8948180914,-0.5800782357,0.4211041417,0.3211886891,0.7023648145,-0.2960938763,0.4035888237,-0.2143192425,-0.1273542182,0.8350156757,-0.3306712513,-0.7088620188,-0.1647261019,0.46208832,-0.5675130187,0.8195704742,0.7000664639,0.6779296589,-0.1199689003,0.088567829,-0.147102866,-0.381694045,-0.203182569,0.4166386148,0.8310841305,0.9472026582,-0.3903673267,0.7579433822,-0.3405401722,0.157145774,-0.9674520015,0.2266753845,-0.72326,0.9711402218,0.3125692955,-0.9258877583,-0.4773883661,-0.129114704,0.955767313,0.9907250225,-0.1493965418,0.2972027131,-0.0039307733,-0.9806439544,0.8267356148,0.60488702,0.7168751713,0.7346794362,0.1807353189,0.2758660099,0.1684472787,0.5860357936,-0.6924574485,0.2115000082,-0.3856660062,0.0463970298,0.5390131419,-0.552059357,0.0074120909,-0.6200333769,0.734521294,0.8412379131,-0.850670655,0.2734657373,0.9733594207,0.2320986449,0.3472543162,0.8405137456,0.761698062,0.7264480719,0.8210241905,0.9590536778,0.3370224712,0.8657229626,-0.9022405903,-0.0982507457,-0.9042612299,0.8269116456,0.0310525456,0.1804835281,0.3578787993,0.0592798527,-0.3583781461,-0.8658734718,-0.163858413,-0.9683555456,-0.878677751,0.0272764969,0.0815232449,-0.2642765337,-0.9718141672,-0.0200338592,0.8267611683,0.9446117799,0.5040329942,0.845862275,-0.5240025206,0.5089083626,-0.6180975952,0.074383871,0.6052528847,-0.3770081693,-0.230217531,0.3376724039,0.0705589002,0.9317838786,-0.5252867933,-0.0763596789,0.134613177,0.6837524789,0.9718965296,0.0205922166,-0.7937432616,-0.5702016558,-0.2414560187,0.0055092989,-0.9728372924,-0.1689374907,-0.8838414105,-0.6191900399,-0.381535349,-0.0829181258,-0.3670071491,-0.3040087337,0.6175403403,-0.872481427,0.3185791328,-0.665077774,0.5826604445,-0.8493621033,-0.4513564892,-0.1917884268,-0.253738448,0.377500055,0.2135652287,0.1023087328,0.6666559761,-0.2677628471,0.5461982381,0.173521334,-0.8909415035,0.1567613934,-0.3500512561,0.6943550131,0.9171827128,-0.5929876765,-0.4184421016,-0.2338223928,-0.0875361142,-0.6878170723,0.34474333,-0.7207955395,-0.6412359888,-0.1817100685,-0.7228046977,-0.1081609467,-0.8743896292,0.4114587275,-0.5151653114,-0.5059265469,-0.4642885095,-0.5914872947,-0.2291667965,-0.3848808193,-0.4253152869,0.2865593724,0.9667510141,0.8893577509,-0.4546067489,-0.3536625033,0.3194346148,-0.7587208172,0.7081014251,-0.3655470518,-0.7704739715,0.4664652503,0.581252838,0.9460233974,-0.1812595661,-0.3456624592,0.1084303106,0.3091764809,0.4754212502,0.7188548247,-0.3353548554,-0.6260771929,0.7028914579,-0.6061460298,-0.0777286344,0.7727487921,-0.7510145412,0.9726801203,0.4525430315,-0.4484329802,0.5115675191,0.8820218384,-0.7115177325,0.6205413796,0.1276140638,-0.7225446575,-0.9288189564,-0.4150473554,0.7801550466,-0.0299523288,0.9461763516,0.2392864744,0.136183609,0.2730644823,0.4445105467,0.9893216648,-0.4964210008,-0.3908019417,0.7993469031,-0.6712156529,0.3883339031,-0.7520318036,-0.5551107733,0.6710346948,-0.4449850526,-0.0390414406,-0.9157668761,-0.1457028939,0.8925779049,-0.9216005623,-0.1388875338,0.8677711809,0.3214874127,0.5659908671,0.9849719023,-0.5523141866,-0.5739680844,0.4103186855,-0.0221389854,0.753644504,-0.0161069581,0.3632873202,-0.5252576905,0.1276616044,0.1171961249,-0.8725193046,-0.4550141142,-0.1191182744,-0.0882244373,-0.1450261679,0.9215499495,0.6694535496,-0.3056363917,-0.2729036246,0.0655048912,0.7916777635,-0.6762610683,-0.3356885855,-0.9431968149,-0.3962731383,0.0111933936,0.7951428892,-0.0551213051,-0.3336459718,-0.1779661331,0.9118485589,0.9211780688,0.131490825,-0.8847766141,0.7009306958,0.0410150449,0.1398981983,-0.3092115157,0.9244468239,-0.5038880467,0.8246834217,0.7049374742,0.5440336557,0.1540924017,0.1226085039,0.5431868908,0.0849980032,-0.6666944683,0.1595627475,-0.8384834649,0.7941794873,-0.7680354908,-0.8729290973,-0.5677309017,0.1982941466,0.279679192,-0.1917918069,0.5166328065,-0.3472318925,0.7720325586,0.8963156515,0.3169681375,0.4714538253,-0.7008737769,0.1195988338,0.0057790007,-0.2423663762,-0.0375269805,-0.5933441346,-0.5356363933,-0.7720246823,-0.8897522454,-0.7668979549,-0.3187146479,0.7809224251,-0.9648244026,0.691444928,0.1407566958,0.0697304304,0.1678007098,0.3273024767,-0.4901633876,0.175299244,0.1629124492,-0.4480099011,-0.0116968581,0.3872462905,0.6200245346,-0.1744740794,-0.9304579078,-0.4144506264,0.8518266874,-0.2511610164,0.3527180838,-0.264809106,0.9639397419,0.1341192145,0.8074725592,-0.0136874401,0.6751519931,-0.7739549947,-0.6018334245,-0.5827005909,0.3290129994,0.9814863163,0.774843798,0.5955615383,0.6451814581,-0.8624593928,0.6294757186,0.3923579884,-0.6442921667,-0.9298132557,0.1625281458,-0.419497437,0.0583704475,-0.3420902705,0.8648247148,0.646653984,0.6921210992,0.9790857966,-0.6308288343,0.510186269,0.4405377698,0.570124897,-0.3194911172,0.5511145778,-0.1331768982,0.2499099632,-0.540113217,0.3475244309,0.4790137725,0.8822126117,0.2553785707,0.294728311,0.2713352583,-0.4175183727,0.9315380592,0.0231106868,-0.8496905845,0.1189332976,-0.7385370594,-0.6058067385,0.0756762442,0.2373116605,-0.8999417611,-0.2828766343,-0.3809154432,0.5665828056,0.9720685237,-0.2012389564,-0.6087394209,-0.5345166447,-0.667136789,0.0692155193,0.6789190981,0.9595398595,-0.4530821748,-0.8094349575,0.7919241975,0.7538025299,-0.6827431851,0.2144223867,0.4017325029,0.1976788718,0.0044587033,0.1225717315,0.1737315831,-0.0760076873,0.5368767022,-0.6360468211,-0.3823474131,0.0477005474,-0.8524209167,-0.623965603,0.7211401357,0.5149144885,-0.8854120233,-0.4317946718,0.3715343003,-0.6162045141,-0.1800420602,-0.7427557597,0.3072768785,-0.3075173733,-0.4434870254,0.7332637973,0.23741042,-0.1209916592,-0.6068590467,0.2586828417,-0.2190392885,0.3446286448,-0.0000112114,0.6510319427,0.5955920583,0.7223387733,-0.7187480962,-0.8939732643,0.0380287467,0.520953697,0.623990848,0.0409650195,0.3375048681,-0.1628058523,-0.826093818,-0.4452472134,0.9308877782,-0.2345736281,0.8920420662,-0.009642643,-0.4504352291,0.8556522043,0.9593630812,0.5608339732,0.3217311477,-0.3410917663,-0.0416559815,-0.3018812957,-0.4328808174,-0.4422400516,-0.8396417115,0.0046253734,0.7790215978,-0.82552739,0.0978795668,0.2985310724,-0.8317652839,0.3796818502,0.9344220665,-0.5104114914,-0.9178069263,0.2403570088,-0.7607481755,-0.8645007493,-0.4878979473,-0.274222931,-0.6417081219,-0.1104587778,-0.5004371529,-0.7738472852,0.4542228068,-0.7419485205,0.1339783853,-0.3218649627,0.0197166194,0.601175533,-0.4684737092,0.7404765176,0.633697887,0.0549555052,0.0043016443,-0.4198610854,0.5528827313,0.6020011088,0.2278562389,-0.3065238555,0.4158193844,-0.8076884116,-0.4301062779,0.9230972248,-0.8908351611,-0.3060638838,-0.9234307218,-0.8443848897,-0.31957919,0.212488873,0.5857767586,-0.2853833239,0.524117187,-0.5466052646,-0.7037652487,-0.5127966075,0.2572928346,0.8157327348,-0.2371605901,-0.1561305349,-0.7678686037,0.6957229335,-0.4553586818,-0.4322689963,-0.535741992,-0.5354409896,-0.0249269311,-0.3341839068,-0.9582223724,0.5660498547,0.310351443,-0.1017745853,-0.9673424793,0.3055756066,0.7308413698,-0.1676553072,-0.844140403,0.3240947919,0.111282746,0.1169350307,-0.3354018573,0.4039454012,0.7914800898,0.2940413522,-0.7072269604,-0.6554796176,-0.2415986252,0.2242102367,0.8002728261,-0.7452740306,-0.7842472651,-0.2732061773,0.3983793412,-0.1963544758,0.2523133073,-0.6040939993,-0.9663515091,-0.0144972133,-0.8275328152,0.170394513,0.3403791104,-0.8088117264,-0.6207171979,-0.6123666647,-0.2979261887,0.890405166,-0.6832375912,0.8914699784,0.4837870776,0.7470457951,-0.5508649463,-0.5846871913,-0.8724675762,-0.8101785201,0.6714050069,-0.3332346557,0.5821997913,0.3963206613,-0.5597985238,-0.7775656663,-0.9003762723,0.1371933388,-0.3771972919,-0.4408977155,-0.3154800519,0.509606403,-0.5930169372,0.0309144822,-0.4268088741,0.9655157253,-0.3231716449,-0.9165361498,0.9327493143,0.2065185745,-0.3921696945,-0.9503494643,0.9495504636,0.3508214198,-0.8848784162,-0.0972632779,0.0631984468,0.0747595014,0.8152003939,0.2902804855,-0.5767052581,-0.8619603418,0.3777537531,0.6675894212,0.8461272775,-0.5857139945,0.3235223484,0.0483063502,0.753299162,0.6939017273,-0.1996938867,-0.6196876051,0.7554242827,0.0403645585,0.2154016719,-0.0294694604,0.3783239817,0.0641867366,0.1635880191,-0.2779676967,0.3953093423,0.3716969609,-0.7218275604,-0.5771374165,-0.3707152933,0.5967866381,0.8212190879,0.7915677985,0.9643622373,0.9749697827,0.5408307747,-0.6786857855,-0.2082655323,0.6956791193,0.1115059207,0.5601369832,0.1792860723,0.925307392,-0.274952749,-0.4948132969,0.8755627367,-0.946257137,0.7924630982,-0.4310137491,0.1024996751,-0.4259649693,-0.7763399152,-0.2372384832,-0.053290993,0.3439387757,-0.480110167,0.4325305475,0.6697396718,-0.5836069793,-0.5584398406,-0.151221941,-0.5270817423,-0.1243215377,-0.8591065459,-0.7058133175,0.9850646279,0.8602147316,0.3280521289,-0.4647065274,-0.2978070699,-0.455827965,-0.4445083344,-0.7648107844,0.9691899043,-0.6512972462,0.0171019794,-0.4483206984,0.5588028205,-0.8420471983,-0.8170974993,0.3025709775,-0.6014846975,0.9221550129,-0.6046879381,-0.8281900282,-0.4208754011,-0.893209249,-0.3261666628,0.439771378,0.0088668337,0.7497306435,-0.9981022908,-0.0991735924,0.2772367942,-0.853832399,0.4436004187,0.9242155964,-0.2357246769,-0.8655312238,-0.8777768955,-0.3647374696,0.212955567,-0.5381233509,-0.7258156161,0.4943596197,-0.9249877316,0.7150420163,0.496086299,0.8916559022,-0.6736557564,-0.6755769587,-0.7820814749,0.2625078967,0.7518685747,-0.275201894,-0.4957934657,0.8357189284,0.8481622579,-0.8412300321,-0.8969812583,0.6192476997,-0.2794613933,-0.0206802163,-0.4063374829,-0.0567997427,0.0876484943,0.9275247996,-0.5210030193,0.010904803,0.9781334057,-0.2922873436,-0.0450438415,-0.0494039278,-0.4811936841,0.2462965199,0.3467658795,-0.4415642406,0.1956049489,0.1431376494,-0.0843575351,-0.1081015203,0.9935502953,-0.6599158455,0.3946690349,-0.1578450292,0.0825418296,-0.7985972995,-0.536474237,-0.3092152397,0.6771471226,0.2715026614,-0.594583597,-0.3209991928,0.9288751566,-0.7157779409,0.0511638058,0.0691985837,-0.4217767183,0.8098098886,-0.0977941174,0.2121648057,0.5879319194,-0.516350371,-0.9006471073,-0.556788219,-0.9127121221,-0.9045589174,-0.1228983147,-0.5830905596,-0.8016896664,-0.416114311,0.7817299366,0.9804832052,-0.4091711307,0.3288134618,0.3861733276,0.1080606691,0.6110327707,-0.0133943822,-0.3371532292,0.0306572975,0.1451497482,0.5008459565,-0.4656006744,-0.1561289273,-0.2612314736,-0.8729887956,-0.1503101556,-0.7031275564,0.2176365091,0.2482111083,0.8128203857,-0.5589174777,0.5490505798,-0.4681304173,-0.7886205005,0.8556999898,0.1202042285,-0.3856366338,0.9555896403,0.1710089384,-0.6176568253,0.7872612358,0.6312112202,0.8733396539,0.8796862048,-0.736555224,-0.751671936,-0.1105556385,-0.919535817,0.9548281963,0.9050081624,0.7480628704,-0.4652132837,-0.5455568928,-0.4887817339,-0.5115117003,0.5738663146,-0.6455326509,0.5504125324,0.5568533595,0.7166139949,-0.1421315431,-0.1425336863,-0.3081395343,0.2521187736,0.7453519795,0.2701218807,-0.0639983543,-0.0316132054,-0.0739990634,-0.5795600628,-0.2819382667,0.5133186573,-0.127603072,-0.2215401865,-0.7017751041,0.7349616375,0.0048967875,-0.4353073543,-0.6463653526,0.2299440267,-0.6523006588,-0.0942220413,-0.4432189476,0.0188936833,0.6037771714,0.8081994517,-0.2543568867,0.7106092686,0.9279198342,0.7343013605,-0.3028140389,0.4558287598,0.9568082361,0.4226508184,-0.7978878109,-0.1958336485,-0.7461398025,0.1262249682,-0.9659220515,0.4869188063,0.7922626304,0.5472332797,-0.2930572113,-0.3914680294,0.9664590983,0.4283663248,0.3910394376,-0.7698603041,0.8149883221,0.7797944361,-0.1995328102,0.6883470066,0.7492982275,0.8782573242,-0.8085599545,0.2527227522,-0.6584666703,-0.538692783,0.044448457,0.4530275487,-0.8956223421,0.3123303227,0.1406146964,-0.3965991301,-0.0606707541,0.5352663329,0.7870669362,-0.0919287026,0.0113197884,0.6583317822,-0.1353401527,0.7856199028,0.4066136552,0.5818008371,0.1792685632,-0.8703988271,0.1037351354,-0.5132043818,-0.8338426786,-0.162690413,-0.5274250834,-0.1634633866,-0.1924281264,-0.6748154656,0.6341235995,-0.9952839618,0.5228545765,-0.921043875,-0.3179528755,-0.4196858593,-0.9831958994,-0.2115901375,-0.2983870134,-0.5293079443,-0.8266869444,-0.0669094558,0.1578363237,-0.2263912235,-0.7278078048,-0.2935144757,0.5051836796,0.1659449737,0.9756304715,-0.5450288881,-0.1518202029,0.3150975137,0.0127561769,-0.810508551,0.9931362502,0.0670865826,-0.4655696726,-0.2677678954,0.1395389188,-0.8327592808,0.8168271258,0.9118403275,-0.7196520629,0.9878233645,-0.7481060587,0.6729952987,0.1580819136,0.0082977186,0.2636096945,0.3271118144,0.873446941,0.2221915497,-0.9258323365,0.4634835789,-0.1973052326,-0.424764007,-0.7471334958,-0.6238754864,0.0436154283,0.5496194488,-0.9511081988,-0.8370758872,0.1288734091,0.9582732525,-0.2489318873,0.8585780022,-0.2973057447,-0.6026022556,0.4035588726,-0.281896938,0.5037650889,0.7351466879,0.3356152923,0.4875713551,-0.3380056129,0.073160734,0.1149003716,-0.3772740026,-0.2432294762,0.6342407167,0.5744815984,0.4891091229,-0.2032808369,0.4363691168,0.5145575748,-0.9814032346,0.3007308314,-0.9857197357,0.5786351857,-0.1597314485,0.7614714155,-0.8992643738,-0.4486266325,-0.2792656184,0.5963526864,0.2853090452,-0.7231012022,0.7287936209,0.3107127536,-0.4357261543,0.1961480176,0.0340892898,-0.8408412865,-0.9113224212,-0.0703375376,0.6747854972,0.0651885511,0.1307819001,0.228934098,0.4723060566,0.6069579707,0.524086721,-0.4412656132,0.2107177563,0.0289798357,0.5588107814,-0.2196646673,-0.3825887613,-0.1278728084,0.4934808799,-0.679040423,-0.540592442,-0.6815579084,-0.130822789,0.5366827939,-0.4035758231,-0.0705339646,-0.0637913821,0.7538448606,-0.7069488021,-0.8838411555,-0.7606194824,-0.5520225047,-0.9454649192,-0.2571280781,-0.4096086003,0.2837606894,0.0828181882,-0.481412766,-0.2644332353,0.5566246611,-0.2249765815,-0.3412438495,-0.3406961278,-0.9287462395,0.972492548,0.7163550172,0.9056350718,-0.8393266808,0.3045933363,0.1848605736,0.1400995609,-0.9797887266,0.5842590238,-0.7940606148,-0.7305832803,-0.6340945874,-0.2902693909,-0.0263830256,0.4015785601,-0.5619677842,-0.5974163182,0.4586687992,-0.5530446345,0.3619334741,0.9787737226,0.1856796963,-0.3660112278,0.6099000889,0.0604010645,-0.7206314757,0.9196224506,-0.0525425466,-0.4826790226,-0.5569590313,-0.4243599127,0.0436744894,0.8481742696,0.3747023412,0.0023868808,0.2317974641,0.9316130557,-0.0248830614,-0.2838064367,-0.2658737157,0.1432527048,0.409251909,0.8934810762,-0.0268297672,-0.6882675789,-0.9709277561,-0.461656898,0.1406174627,0.5637580776,0.3216937663,0.621314588,0.8685263879,-0.5166595196,0.0656606631,0.0554765682,-0.6835756716,-0.9304872157,-0.0744744879,-0.9819776571,-0.6721938469,0.9292182531,0.3634898884,0.1724774968,-0.534432414,-0.7682533579,-0.6141741942,0.8775177444,0.3926258937,0.2151138055,0.9903625335,-0.0481434344,0.7455428623,0.5857178142,0.4941015503,0.8687235741,0.5859450047,0.0629981469,-0.8695243184,0.3922996609,0.1925039269,-0.7854007475,-0.5300215966,0.461435266,0.6852909678,0.0731696795,0.3371617674,0.2312021132,-0.4109125277,-0.1871577035,0.4957490108,0.1833258963,0.5062382921,-0.271346804,0.8182355244,0.5880219986,0.956901827,-0.6583141418,0.6816010834,0.0352133526,-0.8764823255,0.5450314144,-0.3397401272,-0.5567662655,0.6801155875,0.6802981045,-0.7092157116,-0.4898668124,0.3086087869,0.9867063413,0.6411845665,-0.8464223277,-0.9906912294,0.3581824068,0.4709530619,-0.3887191178,-0.5973932664,0.1477884431,-0.3147715864,-0.4501947291,0.243472294,0.627333904,-0.4247404156,0.9036156564,0.5273738624,-0.2224615342,-0.2457562608,0.9003690953,0.118359419,-0.2048136763,0.2045220891,0.925292172,0.1762383606,0.6269049647,-0.3490186514,0.1239015036,-0.2261493394,-0.637044486,-0.6455703577,0.5762339595,0.5329834753,0.3815219465,0.9643619564,0.2063170653,-0.5381350635,-0.2925844979,0.190694466,0.0639321683,0.7184653561,0.513573448,-0.2222424231,-0.8270913941,0.6021024535,-0.4085763376,-0.210928863,-0.8624308375,0.3995662627,0.1009142634,-0.8981272703,-0.928269773,0.5872130498,0.5944511724,-0.6650482833,0.5380421749,0.4745806717,0.3247328255,0.2272212475,0.8463310564,0.4719286357,-0.7818186061,0.9036905243,0.866585878,0.4382058798,-0.3272702798,-0.8583049486,0.4339404232,-0.9271532171,-0.8681957515,0.2978992608,-0.8321787652,0.7668825849,0.32065664,-0.3276693394,0.0639031296,-0.1560877246,0.4806726629,0.8939289206,-0.628601253,-0.0458713161,0.8166487096,-0.3438826908,0.6589216603,-0.3594393874,0.201416923,-0.5148037623,-0.4415797641,-0.8453533144,-0.1476960853,0.264691722,0.9605294331,0.667060205,-0.3355087985,0.109651288,0.9944389083,0.1323884028,-0.3331324805,0.5996861921,-0.3767253425,-0.7072725187,-0.5220083376,-0.8738087357,-0.5917622678,-0.7285201281,-0.849140123,-0.5892202163,0.2599304894,-0.9736740786,-0.170811421,-0.2532834135,-0.6001344117,0.1040783722,0.9511193225,-0.1305450304,0.0220519099,-0.2593736641,0.3481646088,0.7238001309,0.5110842773,-0.1407627545,0.1681626381,0.5428447858,-0.6422201295,0.3241792422,-0.2720908156,-0.2657421855,-0.2167465517,0.8931640045,-0.3895705912,-0.0084790262,0.76394089,0.5060471105,-0.6100722235,0.6119718275,-0.567994688,-0.110720684,0.442773733,-0.536768851,0.2572913668,-0.2004213984,0.1793220112,-0.9244363488,0.4353993575,-0.5821254783,0.5152690648,-0.8507555782,-0.7645674321,0.4915693311,0.22918432,-0.2819912478,0.8925764161,-0.1986548974,0.1276588261,0.8983451281,0.1669970988,0.6331993022,0.32104403,0.3464225273,-0.5842592532,-0.6879317242,-0.6088929882,0.589233762,-0.9420127783,-0.2373866711,-0.8299574821,0.372089806,-0.6759744232,0.2871251242,-0.5650816477,-0.6181466874,-0.2803963673,-0.2765375758,0.8615149489,0.8853469907,-0.7918480457,-0.7568095751,-0.6439288589,0.9345329654,0.1452453633,-0.8530037058,-0.8570729894,0.7805005806,0.9410957493,0.8252736784,0.3799817271,-0.8419323123,0.8488195926,0.4256387111,0.9986859264,-0.9455636059,-0.2867619869,-0.1627281997,0.1301984828,0.9091233508,-0.1568616445,0.317447603,0.8441736178,-0.2643004531,-0.0270064967,-0.8534575723,0.0897286467,0.5567209498,0.2155123731,0.7654878646,-0.9478012401,-0.9171671648,-0.4688202061,-0.490253814,0.0480309312,0.4308886289,0.8071673546,0.8276403213,-0.2446131064,0.1440479889,-0.2038632329,-0.5776384313,-0.8691397381,0.0815174142,-0.1053595252,-0.5059736067,-0.9521283663,0.8696573943,0.3350610601,-0.1082279113,0.0555806522,0.6548507467,-0.6781433152,-0.6432306924,0.5371522503,-0.2815084181,-0.490177279,-0.5819270263,-0.3243696755,0.7980577803,-0.1725749198,-0.4022382186,0.8521632882,0.9705104419,0.0579351922,0.8474646229,0.2291324294,-0.4982118579,-0.4719569398,0.9498398177,-0.3554163039,-0.2165344736,0.6136984794,0.5828760035,0.8708608772,-0.8045775292,0.5365381836,0.8531852582,-0.110505688,0.6629410986,0.3065704725,0.0286602143,0.4476186962,0.0434081251,0.8240399538,-0.1811464412,-0.0800996233,-0.2242700288,-0.3760675459,0.2202882666,-0.8491323945,-0.5260806785,0.2503587508,-0.9675962728,0.1732913759,0.2434292121,0.3053570832,0.5217137405,0.2474229463,-0.3318660142,-0.2822719621,0.8120881697,0.8353216701,-0.8216148737,0.7778859379,-0.4529773623,0.6736186133,0.2762606445,-0.1353262925,0.8199422578,0.9675537463,-0.0891852709,-0.4941827774,0.2561524773,0.1280265677,0.8505590379,-0.648735967,-0.8313102139,-0.5604814584,-0.0175678567,-0.3129018033,0.108626333,-0.6101654185,-0.5438075121,0.1743843466,0.8130959374,-0.5926883604,-0.5103976132,0.4601977953,-0.3953159443,0.735021267,-0.6368094825,0.0706630168,-0.9238932383,-0.5457479591,-0.1795390338,-0.1306757596,0.9869165695,0.1844650067,-0.4110284731,0.9640845139,-0.1562791448,0.9599343184,0.7571254078,-0.8430825582,0.7357920102,0.5013574462,-0.9131781856,0.4419003417,-0.1496867671,0.7023605563,-0.5860026125,0.666382976,-0.0360242503,0.0159140982,0.637456358,0.7871352229,0.1721926531,0.6634417098,-0.4668019407,0.5134267848,-0.961167275,0.8115042668,0.6584046236,-0.0639510397,-0.944896422,-0.4397334829,0.9611342784,0.4410547019,0.2669360352,-0.6485351399,0.3300293058,-0.3884281517,0.5813229733,0.8257175546,0.3425211214,0.6912782191,0.2950371053,0.418649599,0.3926807238,0.0388623967,-0.0081266078,0.808019358,0.8375088032,-0.0111069991,0.2350096392,-0.5291628371,-0.3846244617,0.500630026,0.0069916614,0.2320413663,-0.4277604157,0.9646458206,0.9884265556,-0.723403904,-0.9340473389,-0.4256353642,-0.000753272,0.3702830729,-0.8382218564,0.9025032954,0.9461739465,-0.3655237128,0.5926240839,0.1608160347,0.6725768916,0.4750809908,0.2197909103,-0.6192407344,-0.9844575802,-0.6838695636,0.1212456986,0.5886020926,0.2118868288,-0.3837007979,-0.1082357713,0.8413274967,-0.492167066,-0.9643387354,-0.127095787,-0.0526746019,0.2172337531,0.5249900924,-0.2586940524,-0.7403361089,-0.3780858085,-0.8873245859,-0.7417616937,0.6040661797,-0.7100667602,0.4212990836,-0.8270421869,-0.0423057394,-0.0095423762,0.0389492267,-0.4048510793,-0.9669196843,0.7291195448,0.8088179258,0.268740275,0.9287803031,-0.8880900494,0.1061193862,-0.4508617841,-0.6505789653,-0.9480711742,0.9438900409,-0.1452891613,0.451315172,-0.3452292405,-0.0031578132,0.7990314901,0.2681484932,-0.2252863533,0.1931086722,0.4159837487,0.1537886771,-0.0656374348,-0.7174346,0.8356389332,-0.8242891932,-0.8697102579,0.6944034862,-0.5363665804,0.8667433924,0.4391901081,0.0564781077,0.7120591943,-0.0908937613,-0.4233598095,0.1672133225,-0.2164262983,0.9911724093,-0.0319763392,0.5854716824,-0.5284071629,0.1517117481,-0.1978506958,-0.9023464669,0.1723766561,-0.6072427329,-0.806599168,0.7966777622,0.8307500168,-0.2240333423,0.9566772527,0.9591812229,-0.8826410251,-0.3908868093,-0.0746400172,-0.0584257321,0.7321127737,-0.9693607543,0.4782644055,0.1490465766,0.8285650306,-0.8742852294,0.3599353664,-0.9683783156,0.2286106889,0.7542832141,-0.7393803817,-0.6597934878,-0.5291629394,0.1043696569,0.4560324334,0.8194608704,0.5510416939,-0.1283690082,0.9073776391,0.7281183317,0.3589904681,-0.819233596,-0.2160773314,0.2017586295,-0.0935720012,0.1279605539,-0.7887661661,0.3497291855,-0.6944727926,-0.5217446664,0.2501976644,-0.3636461508,0.8109134809,-0.3234308498,-0.2979647316,0.8056519094,-0.2868903207,-0.735411994,-0.4589969659,-0.9715524228,-0.9196792131,-0.5925413099,0.4423633504,-0.1765635704,-0.9932469227,-0.8876202323,0.1145990221,-0.1886853472
   -0.5014616954,-0.9987046885,0.7101091885,0.156122297,-0.1789793272,0.9442874842,0.1655326683,-0.4870238724,0.8422310032,0.518658053,0.0000061878,0.389226802,-0.6421950081,0.7123610568,-0.5688271562,-0.2377378868,-0.9565361496,0.8778677196,-0.6839672905,-0.8214221244,-0.315029862,-0.8817855349,0.89382462,-0.0214926925,-0.533202551,-0.731104853,-0.0382111124,-0.2933038637,0.7247973388,0.8325788007,-0.0835830919,0.4463849743,-0.1942657112,-0.2090735567,-0.0470501308,0.4759527121,0.2458687973,0.1346514375,0.9309885173,-0.4721768384,-0.2885982326,0.0160869138,0.4171803466,0.1594353009,0.0787882199,-0.3320398259,-0.3469112653,-0.6744607025,-0.6753482286,0.1012849091,0.0649509887,-0.895108814,-0.5794633358,0.0722117774,-0.2292059339,-0.2041563611,-0.117757284,-0.7938343684,0.642999963,-0.1772412668,-0.4128092149,0.2627594887,0.0624474975,-0.4186531136,-0.2787787032,0.5516098269,0.4918941043,-0.4180176166,0.8946764937,-0.0143387716,-0.5393468894,-0.6484139585,0.9413294049,-0.076132445,-0.6484454537,-0.2321717141,-0.2182296755,0.6761565145,-0.6598890935,-0.5484462181,-0.6107465007,0.7651789826,-0.332113569,-0.8129095615,-0.9384605766,-0.0835390908,0.4966839177,0.173013846,0.6415882362,-0.368230216,-0.3704842883,-0.1376810388,-0.9990368132,-0.9558336026,0.3096164951,0.0003182387,-0.4120290062,0.199683985,0.0119444436,0.2311919081,-0.5429964371,-0.8464146117,-0.8707984457,0.7286986264,0.953896828,0.5280516089,-0.6079484992,0.2969697176,-0.8172884037,-0.8215896204,0.5503138749,0.2785500819,0.1238729266,-0.0135903766,0.9846372976,0.2067873439,-0.8548539772,0.611307623,-0.615604571,-0.1196990597,0.8780569914,-0.1253480701,0.8587726587,0.6921768846,0.6129556618,0.1166979482,-0.9042007041,0.9530614535,0.3563583172,0.2739519684,0.4093762856,0.5509543151,0.3735610615,0.2176606945,-0.3835142298,-0.5589276842,0.4872696925,0.569760446,-0.7183833648,0.4506684668,-0.7858860227,0.6812032178,-0.2952883518,0.3345060846,0.6573779116,-0.6099945442,0.7594279673,0.9900844249,0.5296001896,-0.6374390453,-0.4239091558,-0.3911782996,-0.6418578964,-0.8392696342,0.1061606674,0.3323598707,0.9438733432,-0.7784506642,-0.4377262513,-0.8587247265,0.4882594564,-0.5281278352,0.069812339,-0.1206628821,0.7602208368,0.834465606,-0.8867683404,-0.4951831374,0.8341994549,0.1104673121,0.0266523779,-0.513513549,0.8095405788,-0.0275628618,-0.3166622266,0.2149461547,-0.3656913201,0.0629260962,-0.5759225177,-0.7668872914,-0.3217830338,-0.2544705453,0.6716060118,-0.9089087957,0.0401666564,-0.2178528094,-0.6625606681,-0.1080046056,0.2175520295,0.3426108604,0.5103385304,0.0342848813,0.0037882941,-0.7374125441,0.5050178227,-0.7016120595,0.9773305155,0.7829576796,-0.8904748634,-0.6755401526,-0.3167186214,-0.668980097,0.151891521,0.8922673531,-0.3244152606,0.4452226459,0.3063122889,0.8014563718,0.2518645268,-0.1503476568,-0.2530806082,0.2063325258,-0.3622843897,-0.0280187242,0.1802712089,-0.9201335409,-0.112595924,0.1425111339,-0.6214597575,-0.5304026334,0.6531130156,0.9832201335,-0.7190301485,-0.6362682465,-0.5067668695,0.5985782624,-0.4230129325,-0.8663870736,-0.3385729374,0.9761439786,0.5288740619,0.0599127728,-0.4848433012
##end
biasActivation=0,1,1,1
[BASIC:ACTIVATION]
"org.encog.engine.network.activation.ActivationSoftMax"
"org.encog.engine.network.activation.ActivationReLU",0,0
"org.encog.engine.network.activation.ActivationReLU",0,0
"org.encog.engine.network.activation.ActivationLinear"
