encog,BasicNetwork,java,3.4.0,1,1532883119287
[BASIC]
[BASIC:PARAMS]
[BASIC:NETWORK]
beginTraining=0
connectionLimit=0
contextTargetOffset=0,0,0,0
contextTargetSize=0,0,0,0
endTraining=3
hasContext=f
inputCount=16
layerCounts=4,26,101,17
layerFeedCounts=4,25,100,16
layerContextCount=0,0,0,0
layerIndex=0,4,30,131
output=0,0.0000416903,0.4999791548,0.4999791548,78.5142480549,0,9.0884737208,53.5924203073,76.0143689613,0,0,0,0,130.5076552967,102.1351750641,0,48.9536004405,73.8740721186,85.712093737,25.9235003029,145.3711590701,120.6395136738,0,0,0,8.8613671748,42.3450483998,0,0,1,0,0,0,31.9832892039,0,0,0,53.568631302,0,0,5.1429405131,0,0,11.8120894749,18.0484703517,13.3014103492,24.8953307914,7.0766920095,9.0759939083,46.4752399896,0,0,0,0,29.2358766558,8.6604467618,0,0,16.7273524372,0,30.0999824391,18.810368647,13.5319662913,0,18.4994238883,30.7972800593,0,0,0,0,41.2206007396,15.0241468957,7.8924965164,0,22.1732353038,14.309045833,36.8642264921,0,12.0911963766,0,2.3411092128,0,0,0,0,21.1728837285,0,0,0,0,0,0,5.2790212248,10.6652131666,6.7414654595,12.4189944864,0,55.2531633391,0,0,0,0,29.9381306785,3.2134361935,38.0625817548,0,0,13.1540845518,0,0,0,51.3752768857,6.9741243886,46.5092954857,0,11.8576091229,0,0,13.1708345775,0,3.0360644761,0,0,11.5795380402,23.8145892167,0,13.016674872,0,21.9040266321,6.8823943515,1,2,4,2,8,4,8,16,4,16,4,32,2,4,2,2,4,1
outputCount=4
weightIndex=0,104,2629,4329
weights=##0
##double#4329
   0.8969149894,-0.5884037489,-0.0448528315,0.9100413179,0.4082910791,0.3211163209,0.0381141272,0.1445766311,0.8734467467,0.0934612409,-0.9857009909,-0.6600591221,0.2017238618,-0.6002018155,0.0631772866,-0.6150423915,-0.0902800382,-0.7929635795,-0.4869264598,-0.3378028853,0.5065992959,0.1093433494,0.1217875346,0.4507629382,0.8929594189,-0.9026373278,-0.9683556184,-0.5282089991,-0.7605663129,0.0500749864,-0.641828184,0.1162468894,-0.9459023779,0.0560900178,-0.0528584531,-0.3414240051,0.3182663235,0.6234440064,0.2515854814,0.622299487,-0.5401810592,-0.6594727597,0.8767244038,0.1261682115,-0.1348890923,-0.3819923759,0.0601917423,-0.1255359862,0.9566776104,-0.7328486704,-0.0240253895,0.7971591278,0.5866354646,0.6030836062,-0.0737002525,0.4755794069,-0.8145907424,0.4148240441,0.5624649354,-0.8959779193,0.001553872,0.4055305899,-0.9471442148,-0.0541120135,0.0612013935,-0.6112128115,0.5345501578,0.1854566596,0.0317915705,0.8352415155,-0.3105469531,-0.4393339436,-0.0670260656,-0.3687756375,-0.1626043125,-0.0290294144,-0.3240266291,-0.3696210346,0.9271548797,0.6218382723,-0.7502095188,-0.6153924205,0.2295485341,-0.3669875127,0.7613086196,-0.4588271723,-0.1808371555,0.5120210775,0.6557218999,-0.6710811348,-0.3336633224,0.7316580679,-0.7771613674,-0.7185109949,0.5813466319,-0.8751033233,-0.0140128961,-0.2134839218,0.5402254999,0.2287085382,0.7532723499,-0.321467724,0.4032116267,0.8634241457,-0.870759055,0.3882135403,-0.5404926127,0.1246674491,-0.3424931318,-0.8456258945,-0.5487150277,0.3617011417,-0.7492039352,-0.7185504412,-0.2609890592,0.6024267587,0.8236298094,-0.6740007556,-0.3062694275,-0.4340844312,-0.1695132747,0.4227489005,-0.7312601572,0.4034146655,0.2637778259,-0.7779805115,0.6829942477,0.0895056594,0.6973107614,0.4050876961,-0.8641773084,-0.2438376269,0.4846881266,-0.1199029293,-0.8537769948,0.5587167406,-0.5654988666,0.448170165,-0.3710413617,-0.9565531497,0.2270979116,0.231052623,0.3595727675,0.9435723042,-0.8344310412,0.0559744407,0.3901076456,-0.833385542,-0.8091328046,0.7811416811,0.9315448553,0.7556653251,-0.7169148535,0.0660640066,-0.4529216494,-0.1509985739,-0.8328554131,0.8443370404,0.2588515992,0.7697465134,-0.1169132453,0.0245673639,-0.7945405395,-0.8985710579,0.2123263455,0.2213031711,0.4662134897,-0.3213356367,0.7575089424,-0.7464564701,0.6601857965,0.9872333927,-0.4863033592,0.9919853911,0.2881829679,0.8743959217,0.2641633074,0.9326145301,0.9535397276,-0.9220265435,-0.1089822154,0.3592726277,0.6150551116,-0.7827103834,0.8834939774,-0.0168359758,-0.3159015966,-0.7273679199,-0.2849416946,0.1379795975,-0.2186759774,-0.974445104,-0.3233895003,-0.8397032774,-0.2110326968,0.9737666048,0.7406514396,-0.0093146718,0.1497094882,-0.5282055779,0.3166893265,0.210612419,0.6024001186,0.8915398481,0.2720372309,0.9915130336,0.2325364335,-0.3220937743,-0.8979346008,0.1936205323,0.1328868937,0.8572918036,0.7191243407,-0.5076027494,0.0060655783,-0.1083040003,0.1010991169,-0.8811768734,0.4729893192,-0.1945151231,0.7345467998,-0.5041710002,-0.0651450471,0.2696048076,-0.1030277346,0.9686422468,0.835661163,0.4197591769,0.722453961,-0.3159383309,-0.3413618227,0.5673071836,0.139815951,-0.1517186366,-0.5516892357,0.1784580561,-0.3691111193,0.1728527622,-0.5651222906,-0.5564222834,-0.1803599088,0.1310837851,0.8208129248,0.2313194924,-0.5066852308,-0.5494699242,0.5784843923,0.153941096,-0.0846744268,-0.7304927133,-0.9332380394,-0.5693319983,-0.1472008613,0.7246348011,0.5258053287,-0.5746431354,0.9560962143,-0.7410855733,0.2326451724,0.3828049949,-0.4167893118,-0.3278102653,-0.1287897265,-0.9159087323,-0.9074978649,-0.3594243151,0.9482155519,0.4081788255,0.5867881831,-0.0524153251,0.5539928572,-1.343626861,0.0536166321,-0.1272486232,0.3749064685,0.0029473294,0.2364069132,-1.2064791176,0.0459924562,-0.9651810719,0.3835867497,1.4976162747,-0.1144013975,0.2369350321,-0.1778653276,-0.0659026284,-0.9176387204,1.7360963927,-0.3605956806,0.5325749871,0.2259023786,0.124289874,-0.3041759535,0.1577461936,0.4841844313,1.1733661412,0.5786632898,0.3017588395,-0.652526595,-0.4005986267,-0.570904572,-0.1252777449,-0.1877205928,0.2191382223,0.0035430142,0.6998970668,-0.1198907369,0.9878173922,0.8912985564,-0.0792571753,-1.1641211576,0.988020617,-0.4752449635,0.2340449273,0.0644921888,-0.3031168313,-0.9677511352,-0.8774413811,1.2067200931,-0.2209238829,0.0960803612,-0.5747229032,0.0830170799,-1.0305715055,0.1027077751,-0.7763082973,-0.1296270587,1.3482104483,0.4160440149,0.1401311673,-0.5064365011,-1.7916770438,-0.3730553274,0.0554816475,-0.0106106307,-0.6899810002,1.6486056578,-0.1766880357,0.2383245345,-0.8094200381,-0.1401641119,0.5675811575,1.1577406778,0.1351432068,0.9104056321,0.0675149928,0.2681522068,-1.8078930565,-0.001557385,-0.0459119895,0.505014281,-0.2336346741,0.028963893,0.2436133629,0.2630833001,0.1296468025,-0.2262889246,0.3710578155,0.0027905039,0.6460493897,0.7960728409,0.9774652948,-1.2216917293,-0.7576495114,0.2390184384,1.4372264731,1.6230502965,0.1183749339,-0.5324023413,1.0006203237,0.7636110521,-0.3072311513,-1.2263033889,1.0671265585,-0.2717992491,0.1562544086,-0.8336178781,0.679150831,-0.8622229276,-0.2342840329,-1.1620382076,-0.0960942012,1.8713709236,1.3752029336,-0.1147315674,0.2650483963,0.1185143894,-0.0304815855,1.4170743633,-0.5156633351,0.0500055497,-0.038135403,0.0128309525,0.7966816766,-0.2868441357,-0.1234868067,1.8669843644,-0.0953852328,-0.0514794915,-0.3075561055,0.0117856724,0.7595019831,-0.57412963,-0.9559640756,0.7015292211,-0.4678157912,0.2833390823,-0.5256805101,0.0622489585,-0.0263228662,0.157576575,-1.4108232803,0.7086353951,-0.0279393432,-0.0059710718,0.4940208367,-0.0404793187,0.3498166205,-0.7954401476,0.2668595823,-0.1682297067,-0.636797743,-1.2414420891,0.6579068407,-0.7106502805,0.1418393305,0.0759879851,-0.3922781422,0.7266611017,-0.7260340562,-1.1004689914,0.6438527156,0.2767637064,1.0941461219,-0.5208510785,0.393240003,-0.2923965387,-0.2329996502,-0.8616441153,0.0026957643,-0.5281650063,0.0044054915,-0.2894147047,0.3532341989,-0.6272049388,-0.2803077257,0.4030859706,-0.2430683437,-0.5362403333,0.0805703225,-0.6298451372,-0.2723426445,-0.0059787223,0.2871944039,0.6101172473,-0.5579041086,0.8242111046,0.7545370865,-0.3243940511,0.1026510252,-0.9290219716,0.6924865352,-0.4758304348,-0.8440520849,-0.153024808,0.0318290929,0.2708917556,0.1684794793,-1.2576998107,-0.4262983945,-0.9185396878,-0.6566432813,-0.5820600309,0.164939902,-0.2810835896,0.426322292,0.1881592119,-0.3681589525,-1.3645503825,0.94311941,-0.7568116843,0.7490279064,-0.0118184125,-1.7357222983,0.063666664,-0.4583006915,-0.1352607176,0.1264891323,0.4720785736,-0.7135234811,0.7890342348,-0.7140974815,-0.0765533202,0.8239979701,-0.0679468494,-0.3567322908,-0.9923367724,0.7626457631,-0.4455002507,-0.3819870922,0.1118704229,0.5883982091,-0.3784501492,0.0416143414,-0.6951090165,0.3711793773,0.1391166843,-0.391556152,-0.1594336448,-0.5080146837,0.2031092078,0.7179749393,0.458047135,0.2056010521,0.9780222184,-0.0279940689,-0.5578321593,0.9310948643,-0.7566528972,-0.7454992756,0.2951565711,0.2147072273,-0.8590912874,-0.8245937895,0.576997696,0.8119686378,0.6507289357,0.9881811653,-0.5244540508,0.0984140574,-0.3579149431,-0.3330441276,-0.764359198,0.2976986286,-0.1040893608,0.3447837192,0.1815575837,0.5473329992,0.2662565963,-0.2939770867,0.6061842078,-0.0616400178,0.1489874984,0.1783226353,0.7995810218,-0.0326892165,0.3670678623,-0.7721355021,-0.4039775858,-0.2616243214,0.3391172544,0.2251981723,-0.0144394092,0.8596927923,-0.1120240607,0.0132307516,-0.0581502804,0.6876069269,-0.5675059198,-0.0869571939,0.1675522975,-0.3212066916,0.0235926912,0.6085364011,-0.9038193379,0.062701529,-0.3878245423,0.1840604286,-0.9500987122,0.3512587734,0.1588587948,-0.1791543594,0.4194971974,0.0501222274,-0.0718089418,0.6324044732,0.3000655777,0.5373961496,-0.7487508993,-0.0285669102,-0.955931479,-0.9807422974,0.7826780795,-0.8456064337,0.1956477831,0.0243295473,0.6537890358,-0.1322850721,0.4843071764,-0.5323603601,-0.5072476109,0.4877456352,-0.4978557007,-0.7218888401,-0.0212589948,-0.5111218838,-0.1277080263,-0.5643297687,0.0778770816,0.4893204628,-0.7520744541,0.3645801849,-0.9963563031,0.5985081742,-0.6777770134,0.4418656603,0.9582310179,-0.4616299231,0.4991537597,0.8708212578,0.0095641442,-0.4031439835,0.7907017058,-0.0287244943,0.5630580056,0.8229817651,-0.4284459935,-0.2217973979,0.1399413577,-0.6591293488,-0.5452906652,-0.8203067699,0.9497785116,0.4431719259,-0.0385497847,-0.917070613,-0.3312444668,0.4279050016,0.6002707673,-0.1642543426,0.5971171822,0.8605608379,0.3391770956,0.4074736413,-0.675926139,-0.2416878449,0.5286883115,-0.7923598405,-0.1414237114,-0.7352629878,-0.21032996,0.7615160319,0.3386447899,0.6160648925,0.9583392115,0.8727020495,-0.1366366109,0.8193564398,-0.4925256766,0.9439478345,-0.3296202611,0.250493129,-0.9263560415,-0.9170811163,0.0297505069,0.0486189503,-0.9145869814,-0.9114566613,0.656267677,0.6535942459,-0.3503525229,-0.6327982578,0.3937512647,0.5092406849,-0.3148083571,-0.6347011549,-0.7372009115,0.2598659269,0.0714541808,0.5152008603,-0.3770185427,-0.5202916321,0.6759070391,0.7270521153,0.6898076662,0.1730756212,-0.2853020692,-0.1578402236,0.9695171395,0.1507308884,0.1682957152,-0.6565384195,-0.5186729989,0.0095542119,0.2378691238,0.4878918427,-0.1238792714,-0.9073855124,0.9995904538,0.2644447877,0.0683385445,-0.2850273606,-0.8784549414,-0.2091484836,0.777946414,-0.96981396,0.0054175854,-0.0850042234,-0.6772039041,-0.1867378618,0.2256239254,0.8458177532,-0.8987946087,0.5543813548,0.6500700355,0.7732476955,-0.5058613879,-0.6343000361,-0.133570146,0.6280330759,-0.4589980626,-0.3151413357,0.4994367697,-0.7755041279,-0.5011100648,0.7583254701,0.4069306375,0.7188509359,-0.0718802514,0.7034489203,-0.3639896866,0.0357827141,-0.8098922421,0.5166788716,0.8046237538,0.4503426539,0.1495977392,0.5485258184,0.2798244466,-0.5336299185,-0.6439051468,-0.8722429439,-0.741116208,-0.5550949914,0.5813347897,0.3453448658,0.0413191571,-0.2000465775,0.4604375862,0.2893778847,0.2511291036,-0.8625645131,-0.2409360211,0.8407809044,0.1731317559,0.3107472212,-0.8308396917,0.0586677581,-0.7693749127,-0.800001338,0.0864568728,-0.9638730299,0.7984265885,-0.129868369,-0.4966170095,-0.9007278975,0.9206201083,0.5318907814,-0.4709430465,0.9770598484,0.453977147,0.4984123863,0.9353934797,-0.3750856685,-0.6077731841,-0.921068768,-0.4233739043,0.2211195325,0.7451021908,0.856003591,-0.866085197,-0.7138254943,-0.8183937351,0.3445780753,0.2928501433,-0.162589351,-0.0229900861,-0.682833806,-0.3769250685,0.2286682824,0.809017335,-0.9110965432,-0.6581778175,-0.7400788246,-0.8074311008,-0.2359582466,-0.3314148511,-0.7864845396,0.8270561713,-0.3645120912,0.5034516676,0.346062615,0.1151069326,0.5831992293,-0.4946334396,0.3328906897,0.1208218099,-0.395791082,0.4643006968,0.7408034455,-0.2665055276,0.3627583055,-0.4380976279,0.2860868561,-0.4374105007,0.2105451172,0.1536698126,0.1404052082,-0.3284183255,0.6192469413,-0.835687396,-0.9008444381,-0.969387494,-0.8370418145,0.0753004282,0.8526272984,0.4569723556,-0.000074573,0.5023835831,0.659859897,0.9969183262,0.004577361,-0.5308107831,-0.1739625845,0.2622761065,-0.3221038356,0.1128103548,-0.6960870084,-0.6518424631,-0.0421844042,0.7242832869,-0.0223624964,-0.0637240678,0.5982012336,-0.5350515065,-0.4489280465,-0.7837822891,0.1943382079,-0.7758341334,-0.6234740517,0.2160737159,-0.5765018451,0.3811275323,0.106242079,-0.1583238489,-0.6546379766,0.3269518687,0.4767837687,0.5851576788,0.3886401221,0.6647338653,-0.96475084,0.6047908891,0.2844074398,-0.3863769311,0.4305778582,0.864251275,-0.3185419803,-0.1954263081,0.3904235112,0.3848968944,-0.934460267,0.6276830591,0.2208987957,-0.512250927,-0.2200441639,-0.8800687777,-0.0356775949,-0.8346194472,-0.1633531286,0.1812508661,0.3965892202,0.0114112766,-0.9006832275,-0.6866197836,-0.1344033181,0.1090867028,0.9454812596,-0.7108823078,-0.0985135173,0.7849153367,0.319513776,-0.900052352,0.4224924537,0.0170368887,-0.5072869499,0.8490485788,0.6906545454,-0.5527122202,0.8917317165,0.6626546645,-0.3075223044,-0.0693028181,-0.047080212,0.3235992101,0.2812766142,0.7331470879,0.626635446,-0.5008931447,-0.165308487,-0.928143639,0.1960538036,-0.338089679,0.6831663831,0.3206595787,0.2570294001,0.5487155054,-0.3910476006,-0.2916576081,0.6947109885,0.0523544343,0.5481103711,-0.179058775,-0.6011022605,-0.9626505769,-0.7372108632,-0.3420107897,0.4348656057,-0.3037317439,0.2707563533,0.5051750107,-0.4607158371,-0.7383482626,0.5185516751,0.634145387,-0.1153028583,-0.9054637212,0.4016935486,0.4877789905,0.8387869285,-0.0008092154,-0.1143404555,-0.6965121149,-0.8460682667,-0.3361327869,-0.2618573888,0.0999905556,-0.6354615031,0.1026214149,-0.3026897838,-0.2626433673,0.8366510932,-0.0438895372,0.7073481381,-0.1160013836,0.6586184643,0.4724627332,-0.5772490264,0.0375309157,-0.3978951582,-0.4855244999,0.0444625788,-0.8782554202,-0.1936276596,0.6870353836,0.4458486575,-0.7800319786,0.0662629935,0.7066035309,-0.3749643252,0.1184548344,0.9396536341,0.120075246,-0.9216764764,0.8178950614,-0.982963993,0.5198975467,-0.6404196613,-0.3782252038,-0.8618829602,-0.7176731313,0.7020167987,-0.0976741127,0.6939658028,0.1288247429,0.3480951319,-0.4652010235,0.4765935771,-0.5495082928,0.8094925123,0.3579979119,-0.5249974428,0.5633996949,0.5263852743,-0.1969657261,-0.6323289308,0.2246291985,-0.1536242959,-0.0765207355,0.3655508045,0.0203770951,-0.5753898934,0.6094703874,-0.7419508244,0.52422599,-0.9029148195,-0.1330237868,0.4809486867,0.3977792907,-0.4777100146,-0.7844960705,0.8231167847,0.6448487528,-0.0478351292,0.5082229777,-0.460324677,0.652465984,0.2003246614,-0.6774400112,-0.9647671164,-0.8802303888,0.6698430417,0.5625536069,0.3011392109,-0.6063697845,-0.2686846707,0.2491181794,0.5483607427,0.2713979377,-0.3062617563,0.8818881327,-0.5798262146,0.6320198719,0.4684748097,0.3022007833,-0.5526442951,-0.8117335148,-0.9289028405,-0.0931830762,0.4855497974,-0.4806316033,0.5920369248,0.8993728214,-0.5388078159,0.5499428604,0.690557409,0.2337989358,-0.2777840466,-0.6400566253,-0.3734075148,-0.6326288531,-0.9570614042,-0.9406871606,0.3537672189,0.999395534,0.882550713,-0.9955127043,-0.1708652533,-0.9303937107,0.2396008458,-0.6383884056,-0.8286057731,-0.7561764984,-0.3215454966,0.3111689056,-0.4083362475,-0.9308020394,0.7362543438,0.0916782902,0.8705572847,-0.4982731195,0.1089263828,-0.3392240528,0.9241096244,0.8822611606,0.9893835641,0.4259028765,0.0896693253,-0.6546152283,-0.0022307409,-0.911517116,0.0274605856,0.327213639,0.3289416272,-0.1397992993,-0.5432552509,-0.9980713606,-0.0463632469,-0.9875140491,0.6556412375,0.1197291601,0.6197080405,-0.7362757109,-0.92614427,-0.6651860362,0.5453994219,0.9083680477,0.4199580044,-0.1736691433,0.3950481526,-0.5112353479,-0.1142162498,-0.6989868624,-0.0665615433,0.1598580366,-0.00188552,0.0831351376,-0.9376820733,0.5697264218,-0.101415526,0.2434167099,0.6206734477,0.5768234528,0.2228966735,-0.8307558725,0.0158816589,0.5979137072,0.5411756895,-0.7108986397,0.3998999527,0.5611559332,-0.8558641985,-0.8727670012,0.2039231409,0.2750074922,-0.4098633286,0.2144494323,0.8790879169,-0.9507743419,-0.8167891989,0.9499851414,0.6443411552,0.2570121405,0.5670025601,0.8150874354,-0.9039396596,-0.6424689024,0.3291813083,0.4422060927,-0.1560151445,-0.6821681406,0.9945493821,-0.5378469602,0.7924172298,0.2035139661,0.3245702934,-0.95637063,0.868308579,-0.491480575,0.4823738815,0.2907466784,-0.7098508264,-0.1510538631,0.9544086822,0.1886051559,0.5507495263,0.0550289017,-0.7175976336,-0.5889844857,0.0351401816,0.5290612143,-0.0960377616,0.0006503075,-0.9203029001,-0.7745782694,0.5462858179,-0.5395541622,-0.0644914017,-0.1350907996,0.1550613883,-0.4327966107,-0.6180289504,-0.3464143476,-0.2567683714,0.2583375013,-0.8652359233,0.9083022788,0.2160905485,0.8367615065,0.8693366471,-0.2877830131,0.9117535785,-0.6220595135,0.6513945873,0.3812186338,-0.9246564731,-0.5272999569,0.4901101454,0.4573601877,-0.1715727053,-0.6535445709,0.4212542009,0.7735413425,-0.9756612883,0.4326167014,0.3360998116,0.9847213667,0.7296547951,-0.4028932446,-0.973783445,0.443289891,-0.1475257822,-0.6124110489,-0.8951490884,0.2645961625,-0.2998677654,0.2275121344,0.8620979342,-0.5191885624,0.9391784542,0.3186921016,-0.0393159691,-0.8586672167,0.6800737045,-0.178100045,-0.2542908219,0.2873854804,-0.9041120519,-0.403353526,-0.6087880923,-0.969820491,-0.2744229771,0.386631151,-0.5292700278,0.2417320549,0.0204804964,0.3742371796,-0.0575660099,-0.7121645176,-0.7920366757,-0.8986223109,0.8795371944,-0.260193367,0.8821441638,-0.782886294,-0.7727704703,0.4117297958,-0.498684242,-0.9415538439,-0.0105997181,-0.1790186033,0.8358038426,-0.3638128527,0.1017643981,-0.9417078349,-0.0592240848,-0.3562813949,0.2138672875,0.3190225962,0.9394067139,-0.6063029799,0.1810446449,0.7119871709,0.9436426112,-0.41405318,0.8316433177,-0.7238228367,-0.6974014065,-0.853780439,-0.399169889,0.840287069,-0.5403989342,-0.0136916373,0.719963729,-0.9585333143,-0.3670006672,0.6321782296,-0.7833786387,0.4381027647,0.0153460268,-0.5966689841,-0.8017465423,0.6672692404,-0.5421098203,0.6517302942,0.5836503021,0.7995707543,-0.5361722488,-0.6544218109,0.2853606851,0.2196343042,0.5003438619,0.9267317322,0.3430473625,-0.1158316447,-0.1553884887,-0.1843045107,-0.2002107906,0.1844936772,0.9050749697,0.8280775203,-0.7457876141,0.9070093683,-0.5458180096,0.7701527576,0.0853266819,0.3677547648,0.0696443509,0.3807176027,-0.066633866,-0.3360961886,0.3390966631,0.5376581667,0.2883951637,0.8301994953,-0.2572024468,0.3562563043,0.1296042295,-0.4770414482,0.4939460898,-0.0210237953,0.549030299,-0.7949392328,-0.3233690587,0.5395128718,0.1152384072,-0.8059783462,-0.927236893,-0.2776605118,-0.4154807962,0.6892413284,-0.3806920207,-0.9040091502,-0.9300074647,-0.2447852414,0.5636581448,0.9387415102,0.4696042329,-0.5624477819,0.5234716445,0.19751867,-0.3649486319,-0.9092882678,-0.7520496699,0.9560064528,-0.7885659963,-0.8046425288,0.1300410161,-0.377597153,0.3689767517,0.753486594,0.4028106908,-0.9868652256,0.8766268972,-0.0666943549,-0.1102008009,0.9722417291,0.691693258,-0.0305005652,0.9790873063,0.4777164595,0.0194977685,-0.4786999256,-0.6117934372,-0.9189557883,0.1490287254,0.0990576407,0.5856769968,-0.316157618,0.0671332884,0.5287856497,0.216137775,0.8000319234,-0.4994535202,0.982449276,0.5331314638,0.5435310173,0.4261788725,-0.5579081762,-0.1044586953,-0.904319085,-0.9355057405,0.2008671958,0.566864475,0.3252844486,-0.3448240886,0.056909714,-0.101243245,0.8538176639,0.6267125243,-0.1144711977,0.5191869213,-0.216993664,-0.5452584059,0.5274721914,0.3129039138,0.1128914247,0.3033015945,0.2907914187,-0.7543986404,0.1437625413,-0.049228157,0.3893111727,0.1508672822,-0.6100276192,0.5920091361,-0.1688678903,0.0681037152,-0.7888941747,0.384980147,-0.0438367931,-0.6712995887,-0.0619873878,0.9444069044,-0.9438285037,0.12740124,-0.3092817637,0.7746353278,0.3398762093,-0.2023336366,0.9288386306,0.3613163846,-0.0006879116,-0.1926618352,0.4457519332,-0.6135744534,0.6369145854,0.4765901653,0.0453198778,-0.6213052987,0.0379818416,-0.3106001202,-0.7087401167,-0.983179487,0.7074759448,0.4520604743,0.5641303119,-0.1838137273,-0.2496061897,0.6503780253,-0.9048790145,0.5726372132,-0.4261163257,0.0713038421,-0.3152858215,0.2704164815,0.398386944,0.1861648033,-0.1045549392,0.9409217217,-0.4982922113,0.8963398304,-0.599819801,-0.0804416677,-0.6668763589,0.2717762559,0.6167219741,0.9837134449,0.121047457,-0.1598730348,-0.4898754698,0.8272230376,-0.2133193134,0.9269499729,0.0500638239,-0.3245459324,-0.4601591002,0.4727205679,0.9912661597,0.8463658492,-0.8577155556,-0.0343127432,0.6626932993,0.3270147038,0.5231491701,-0.2644273547,0.7286558042,0.1609180659,0.4727662337,0.0387508243,-0.043897114,0.019360931,-0.1701019715,-0.8561500349,0.9092206004,0.5233645744,0.6481723181,0.3028176134,-0.8570117016,0.8498500479,-0.3412294269,0.8517833876,-0.7637828718,-0.7675845919,-0.1030700511,0.458383577,-0.5302272264,-0.9652343796,-0.1263218825,-0.3156788193,-0.6599095303,-0.5832688217,0.5098898305,-0.5527014295,0.3811176715,0.2655991087,0.292046307,-0.969978478,0.0938186245,0.4399027173,-0.3864461182,-0.0488026778,-0.1425336534,-0.2772843359,0.8295457606,-0.2932199196,0.150078916,0.4874034467,-0.8665506747,-0.364527922,0.9550123663,-0.936116612,0.910706436,-0.1164162764,0.1767517477,-0.1893298156,0.9729102406,0.3494724196,-0.166509584,0.7267502204,0.1353416693,-0.8918453403,0.4905748946,0.7818208409,0.9694685876,0.3557914876,-0.2712711145,0.7857856016,0.1118954988,-0.3563568599,-0.2634846262,0.5329188736,-0.8587738435,-0.2942654548,-0.2335528596,0.9110365727,-0.2140380201,0.7124692804,0.5459425055,0.5883801671,0.6451102302,0.2119043183,-0.9515912956,0.6415783847,0.5919685044,0.1247521624,-0.1787212573,-0.2120902435,0.7112705878,-0.0553961269,0.6076491777,-0.7277827619,0.9055294646,-0.3907910211,-0.0830279523,0.0846105077,0.9720149698,-0.4218875916,0.4090702341,0.9096646894,-0.4118034566,-0.1691304263,0.0115759228,-0.6111900789,-0.6947761457,0.074760232,0.3245535492,-0.0384664604,-0.6803578096,0.5434784652,-0.4307980347,0.0840231312,0.4989554493,0.6169184054,0.8259327372,-0.1679849906,-0.6223133874,0.1924942606,-0.3796108455,0.1746263866,0.8400565021,-0.4360069796,0.965517939,-0.8116082058,0.9706463041,-0.9245903279,-0.9937676533,-0.5035601906,-0.3902291548,0.3175981998,0.7445692407,0.0754808976,0.6013332198,0.5341168568,0.3109089919,-0.7917844829,-0.2966635354,0.7775536677,-0.6325307308,0.1240499648,0.8133004343,0.3112376571,-0.4547529385,0.0351762684,0.3587333617,0.4440297522,-0.2179775846,0.1844532866,-0.6023344286,-0.7245886002,-0.8941211963,-0.0280894672,-0.4114518357,0.9237736885,0.5767434167,0.0049364515,0.3669589507,-0.6225390586,-0.4147281268,-0.7196783099,0.0099019127,0.6859292301,-0.2202885609,-0.3886735561,-0.2772474918,0.2716442834,0.6355396098,0.8168452209,-0.9442974992,-0.2485631898,0.1198062676,-1.0228391973,0.8149089598,-0.322297104,-0.6054632067,-1.6323831631,0.1537928758,-0.6817315541,0.9555630835,-0.0088038663,0.531243953,0.5438271837,1.1289142118,0.59256763,-0.0575368246,0.4476348985,-0.100925762,0.1905651975,0.5974673754,0.110673358,-0.5030104105,-0.1711265517,0.864662096,-0.1044877849,-0.0341140126,0.6027032308,0.1166465464,-0.000586966,-1.4080549942,-0.4174472966,-0.1944486501,0.1290818726,-0.0978696171,-0.7097614177,0.0045848542,-0.2865454232,1.0817301785,0.6234277989,-0.1683585892,0.3566647769,0.5241137525,-0.0978762771,-1.9161073149,-0.4309434456,0.8934614105,-0.1799725565,0.7098712029,-0.0692962959,0.493024805,0.09403551,0.0737515752,0.4891136403,-0.3674463773,-0.1197780719,-0.0445093842,0.3764703072,-0.443498319,0.4376707339,0.1746767957,-0.4236580564,0.3582996464,-0.1484504697,-1.0594465252,0.7864556271,0.3874204263,0.0008717042,0.2494474123,-0.4390352249,-0.1154169688,1.5916662228,-0.0031108843,0.1734650171,-0.0508841739,-1.4547127635,-0.6889606429,-0.6294686847,-0.5711158724,-0.0625133447,-0.0301734479,-0.2349961793,0.4212721432,1.1480859204,-0.0478958454,0.6753136522,-1.528776417,-0.207069752,-0.4073901693,0.9980410514,-0.3939929546,-0.4057261986,-0.0134061133,-0.2697869681,-0.3295977,-1.6289844514,0.3954167624,0.5533381803,-0.0803286368,-0.1199667687,0.7015324835,0.5014339513,-0.2591593846,0.1673706145,1.2930594102,1.7039105161,0.6470758694,-0.0602569063,-0.1633101474,0.0072679474,0.0176671449,0.2350424042,0.364121516,0.2977150432,1.0920684169,0.4321986681,-0.5187931396,0.3119272775,-0.023268855,0.4560374791,0.2116238148,-0.0461238751,0.6377616073,-0.4625499109,-0.0478623616,-0.6089537094,0.1639794287,-0.5120275412,0.1374955791,-1.3926485276,0.8946287863,-0.4474613046,-0.1673993978,0.7854057337,-0.3825089163,-0.1220722651,-1.6017168581,0.4553033672,-0.356526829,-0.0748532077,0.1729743968,0.9800913354,-0.292122925,-0.148952833,-0.5392580042,-1.2735877189,0.7193677391,1.0686217372,-0.0712785351,-0.3768958381,0.0029296752,-0.0676393407,-0.9645060735,0.3255003077,-0.1963393319,-0.0055987095,-0.0312003559,-0.9169459973,0.1599480542,-0.4807433395,1.5051966509,-0.8554813594,-0.0072721676,-0.2066918055,-0.9652948808,-0.6273101081,0.7223356045,0.0773105489,0.012608856,0.3390447365,0.3806151446,-0.4101352031,0.5050967594,0.0417234068,0.0308690685,0.9372840283,-0.6338313257,-0.5838686505,0.264194048,0.6538854968,0.0376028546,1.403444068,-0.0219848014,1.0908549788,1.1743764963,0.7712959068,-0.1149150102,0.5918166207,-0.2774414833,1.7386206701,0.0223433696,-0.0966813519,-0.2209060989,0.3357610667,-0.757918148,-0.3951833813,0.0869901178,-1.2327814833,-0.1803848458,-0.6786274326,-0.1397206739,-0.9989779089,0.4329420925,-0.0653738559,0.4925156056,0.1115912676,0.7153748598,0.1585775331,-0.1288584621,-0.7652365337,-0.6033825332,-0.4169444026,-0.6646794574,0.0011049116,-1.3080524565,0.2622200659,0.0376373057,0.9502377322,0.6349727807,-1.3382674966,1.4929393336,-0.1309178925,0.9022813205,0.0373371486,1.4463724575,-0.0740812139,-0.0651427539,1.7487265629,-1.2113579532,0.0373524638,0.1109648391,0.2326791439,-0.4596803094,-0.132644445,-0.263307493,-1.0237132736,-0.0805864655,0.3600805118,1.0137736424,0.6986008327,-0.0145731659,-0.0404475351,-0.8381341386,1.0864140703,0.0486748903,0.1713965797,1.3012472168,-0.1059628756,-0.1092583476,1.0343460139,0.1265802588,-0.1137919154,0.0428133449,-0.0043850618,-0.8975411931,-1.5283876062,-1.2107443864,0.1407612205,-0.8357155106,0.2480875733,-0.1677244136,-0.2246893937,-0.3807102304,-0.1049164169,-0.1346114174,0.5431487192,-0.1572356674,-1.1567140252,0.7694168681,-0.1364280506,-0.794604683,0.9087132474,-0.9573364335,-0.0759470592,-0.2474248095,0.15855008,-0.2546320141,0.3679255057,0.3491554717,-0.5191206641,-0.1086773739,0.8853490949,-1.3223816162,0.4477802927,0.5132143173,0.8221886301,-1.4237491393,0.9208655571,-0.6416085757,0.0777966389,0.1028663855,1.4529823831,0.2646045091,0.5338217559,-0.0834113574,0.3140405099,-0.0516567351,0.3051009531,0.2218715441,0.302971022,0.0320065584,0.011008811,-0.175106361,0.200031221,0.1405615658,-0.2177269104,0.1657757798,-0.8337904947,-0.5580035885,0.7084299789,0.0053982337,-1.1309938915,-0.0799297817,0.2763397115,-0.3770463171,1.1834213763,-1.285586719,-0.2071677131,1.2411238456,-0.1526215219,-0.1880949598,-0.7444449666,0.4124040598,0.0198557176,0.204573019,0.855978873,0.7299781015,-0.4872375318,0.9324352672,-0.929851445,0.0282183157,-0.0015019575,-0.0799087287,-0.3418993875,1.7633819191,0.2376022665,-1.2746672727,0.7592082586,-0.0790806021,-1.1583411296,0.1082736295,0.143259569,-1.2912461963,-1.4342818837,0.0257522811,-0.5713388341,0.0910952055,1.2315700526,0.493551284,-0.0303397971,-0.0337991985,-0.0853780543,0.4412574551,0.312430824,0.0861339741,-1.0895521627,0.7337621635,0.5632355306,0.0448838593,0.5472120471,1.3744835691,0.1989355518,0.1378024787,-0.3966265069,0.2850750044,0.0797177803,0.3623654691,-0.3426664338,0.0616948327,-0.0800735633,0.0719343131,-1.1667255885,-0.1723918804,-0.1869312143,-0.3581965662,-1.0401018697,-0.4521604649,-0.2213862553,-0.0335411847,0.1736506045,0.5819718749,1.0443874671,0.6113044335,-0.430027909,1.2458115157,-0.2111298023,-1.0688794035,-0.0143284957,0.0454766837,-0.9493387481,-0.5838612015,-1.4252670109,0.6971103393,-0.0692082426,-0.6932694712,0.1276178099,-0.1942807734,0.2559610397,-0.4483798622,0.1445621897,-0.3704918473,-1.7129541272,1.0550446875,-0.0752969271,1.2206607943,1.0754302005,-0.1101060856,1.1087164813,0.3256125915,1.2556676739,-0.3943054789,0.1600139678,-0.0229023093,0.7227826364,-0.6787966146,0.1163942724,1.1797839286,0.1526757,1.1787677736,-0.9925615054,0.1083419796,0.6971961053,-1.3571029249,0.623939825,-1.1518468645,1.0699317439,1.5308060791,-0.1126451069,0.2942074207,0.6128214994
   0.1375340139,-0.0168356399,0.7909386928,0.3896839713,-0.2007010733,0.0047637887,-1.6427021728,-0.0488465595,1.0226112155,0.1757220551,0.4793618185,0.6213093555,-0.3496776717,-1.2471693225,-0.0764502984,-0.4870960018,0.0173736908,0.0267131386,-0.1672643374,0.3941155946,-0.0549788746,-0.0304417745,0.4210001192,-0.7521338153,-1.1513564349,0.5290858525,0.1106349967,0.4777105315,0.3993056359,0.0065581331,-0.0349525045,0.1737531765,-0.7144620903,0.1785674423,-0.1897628546,0.3112472776,-0.0004481184,-0.8924695327,1.0911862912,0.0127200942,-0.6204795609,-0.2871640216,1.3054017368,0.9556405172,0.8541843407,0.6573788929,-0.0480925767,-0.7950284323,-0.0256154653,0.2121754337,0.118093392,0.2276634362,0.050272305,0.0373282903,0.6806290466,0.6509575123,-0.1751572655,-1.8217359222,0.3327933318,-0.1637916111,-0.0133442148,0.3935206009,-1.4364329195,-0.3316115967,1.1704720217,-0.0619883189,-1.1885993209,0.0124770572,-0.0870153054,-0.5565567175,0.6586309511,-1.3769659855,0.0029081083,-0.5641388214,-0.0690340175,-0.9478231655,0.5386916387,0.0270271236,-0.7345171546,1.6870551373,0.0018968477,1.4937157964,0.1042846848,0.0110447302,0.1621095711,-0.8015984781,-0.6553982201,0.0295097213,0.7700592367,-0.3127123314,-0.7995693359,-0.411802831,0.0449560411,-0.3970782569,-0.2285557257,-0.2724282346,-0.713965762,0.0126385713,0.0315916915,-1.2235564224,-1.4399346509,-1.5971965253,0.4776202592,-0.7562419566,0.0875638766,0.3453655413,0.2370393487,-0.5640684554,0.6322328767,-1.3289493044,-0.4090897122,0.3964514235,-0.2965137039,-0.0019039209,0.587589759,0.6973073721,0.0730801095,0.1641907747,-1.1463510095,-0.0123626823,-0.9081896865,-0.008793973,0.1226783024,0.107540631,0.0072340092,-0.084666579,0.1359056107,0.0005595236,-0.0197749254,-0.686343315,0.8082172149,-1.4300193847,0.2659535917,-1.3538948332,-1.4169577738,0.4834218865,-0.4936810135,0.3161545961,0.4584651256,0.7665712211,-0.3505491935,-0.1147647313,1.0163470426,-1.2985674419,0.1035928034,-1.3625829528,-0.2427542988,0.2311667314,0.2485761551,0.0997003056,-0.1619244534,-1.0603262831,1.394506973,0.0143702005,-0.6838183367,-0.3581428931,0.7355130743,-0.6047258909,0.4617027105,0.2634430697,-1.5684256296,-0.1437003321,0.6160951717,-1.0327764855,-0.9706587109,0.3420389427,-0.4032965814,0.2883594895,-0.4338795988,0.1120667615,-1.4820328853,0.0581944011,0.9950627965,-0.3623903678,-0.4268419008,0.0134384898,-0.2316871304,0.6390277466,-0.3093452756,-0.5860823376,-0.2323352837,0.3745750143,0.3323181227,0.0448459207,0.055515218,-0.3345589793,-0.5570901008,1.2543939575,1.2263974093,-0.1357609126,1.1382275158,0.7850737681,0.0029018299,1.4865476206,-1.2814020956,-0.0484339669,-0.0288017766,0.5314321635,-0.6151398341,-0.2548620532,0.0874711717,0.05591022,0.0178504247,-1.1734601418,1.3729735284,-0.8539111,1.0420205118,0.1887564235,-0.8985195217,-0.1558237252,0.4888021736,-0.2613133577,0.1748637828,-1.4602867675,0.0316151053,0.2765269091,-0.0579467317,-0.1565462912,-0.3077126503,1.7622509258,-0.3668290104,-0.1829123391,-0.5864454733,-0.8099178083,0.3202794383,-0.8736554291,-0.47897018,-0.9178595077,-1.6182372708,0.1227528195,1.8453791545,0.0197199815,-0.2158683015,-0.0881243249,0.1451387361,0.8113774063,-0.1150081507,-0.8458033428,-0.1377979862,-0.3581340825,0.553017227,-0.8984078001,0.1290700972,0.2882386773,-0.4455808335,-0.5591662375,-0.301681838,-0.6906085782,-0.2004779276,0.123588411,-0.361045899,0.2319758344,0.0869530325,1.2851390942,0.5212055683,0.646756635,0.8430756384,-1.0983793061,0.6798446612,0.909702924,-0.0494769802,-0.4378192561,1.4386872488,0.3380946488,-0.2150696418,-1.4267234791,-0.1122707478,0.5146044065,-1.666950672,-0.3865350061,0.4835299773,0.3421539785,-0.1739577669,-1.2636375482,-0.1151538258,0.416354785,-0.3247349794,-1.0654943092,-0.2024765831,0.67888232,0.9636032082,-0.4742149891,0.5316023747,1.0546120146,0.4481983822,0.0323567941,-0.1081380679,0.8051591013,0.1032089502,0.1446253424,0.0355417536,0.0217626218,-0.1662308727,0.7558906012,0.9963716846,-0.1921461908,0.6126556756,-0.1593449241,0.6046972294,-0.7550013774,-0.3268634493,0.0056727751,-0.3234986534,-0.0078744196,0.8624094467,0.0985220448,-1.1253096204,0.4586320252,0.7602145567,0.811528564,-0.0496718107,-0.0224649177,0.0282017384,-0.3520992172,-0.0387778525,-0.1547427252,0.9001749692,-0.0273262889,1.7680788958,-0.0987363203,0.4436696367,0.274732106,0.2032126777,-0.4448828229,0.1237132086,-0.3861734276,0.02750165,-0.5708663148,-0.1149952697,-0.0693591431,0.1841674121,-1.1400653527,1.2460600768,-0.0126243504,0.0960757959,-1.255886648,-1.0066692625,0.0179321187,-0.2326354715,0.9639825328,-0.081249329,-0.0079405138,0.7546320678,-0.7068772564,-1.3069919887,0.3657192068,-1.4120995776,0.1171128961,-0.1292598437,0.031971186,0.1114570318,-0.2063326497,-0.2457753903,0.1074231598,-0.2174380585,-0.919098765,-0.2077990078,0.9864646167,-0.1887513069,-0.1906267313,0.1419052054,-0.5076931979,1.5664160083,0.7804172528,0.1571977524,-0.4465423543,-0.0501785331,1.286719895,0.0548690093,0.0056669818,1.1048225644,-0.4564732196,-0.2584866771,0.948963501,-0.8151339035,-0.7692027698,0.3791836823,-1.4082964915,0.0004978931,-0.3191198951,1.301836655,-1.1210359655,0.3135549556,0.7291477742,1.1605717983,-0.8168040569,0.2756291403,0.8726174089,0.3923308674,0.2434522393,-0.6004439239,-0.67756294,-1.4431844099,-0.8890881905,-1.1350136017,0.025979233,-0.642826341,0.2822513621,0.0289912672,-0.0682556764,0.5719682999,-0.7266234326,-0.2827849937,-0.9197725264,0.9612505482,-0.1460205074,-0.3076762264,0.2479531669,0.3437948349,0.4100500482,-0.3410520062,0.9718747693,-0.0965257222,-0.0658547591,-0.8598053229,1.6680939801,0.4071303662,-1.375766083,-1.5386201905,0.448021481,-0.2176918968,0.0686769029,1.0515598077,-0.4242288023,0.161369774,-1.320472577,-0.2882894326,0.2027714457,0.5521982306,-1.4437171574,-0.8415595188,0.304162979,0.5964444728,1.552398043,0.0315675145,-0.282664148,-0.9116105746,-0.1629522594,0.2691497818,-0.0652355403,-0.5906261531,0.3145902025,-0.0732585972,-0.035855113,-0.5795295847,-0.4858288683,0.8423294923,-0.0604901488,0.1157164899,-0.0376119279,-1.0494638131,-0.7369438702,-0.0252528874,0.3473723218,-0.5098580703,-0.2091807013,0.0424314235,1.7734553294,-1.3762602355,-0.5692345302,-0.096493371,0.3645813172,-0.2654672487,-0.6264152133,0.0871555474,0.2501015659,-0.3866352556,0.5437601321,-0.2068754289,-0.8218397354,0.8114861316,-0.5247499344,1.2193286161,-0.0741152502,-0.4345875548,-0.034353725,0.6587968744,-0.4114773353,0.2345146524,0.4238975944,0.6946648307,-1.2529889376,1.2018328232,0.0607204481,-1.375960276,0.431417847,-0.2552564562,1.1540343534,-0.791140034,-0.6511146182,-0.0180879755,-0.2346500443,0.7101761064,-1.1152639819,-0.1023968239,-0.1165888917,-1.2192727976,-0.7333015019,-0.1928666314,-0.6660609148,0.0221379045,0.2651393006,-0.5474320586,-0.0309476648,0.1894452847,0.1508171103,0.0048360025,-1.3615599915,-0.1616675411,0.0462723275,0.0815443873,-0.447526752,0.4853616847,-1.5302428676,-0.3724086457,-0.6989884709,1.4122488453,0.0836119487,-0.9166932554,0.3323291745,0.33743513,-0.1435741424,-0.0161324645,0.5867327905,-1.3906699058,0.9765702351,0.1262116481,0.5008257572,-0.4358377784,0.5027382969,0.0607904321,-1.384342779,-1.930902899,-1.0616860089,0.7218245091,0.8738303878,0.9547738632,1.3139007872,0.2910694248,1.0727165654,0.1121760991,-0.9721734886,-1.1855173521,0.0090731601,0.1332145649,-1.69824251,-0.7427746294,-1.0796034102,-0.1153828026,-0.269299488,-1.2536048777,-0.1902740975,-0.1340591037,0.1034296981,0.2977355626,-0.2294571692,0.5282659353,0.0586311384,-0.0004331185,-0.0527131977,0.0175815396,-0.161843497,-0.1558958465,-0.0100894388,-0.2317985146,1.6952139316,0.0849331909,-0.0688798494,0.5676257625,-0.6033112427,-0.4813461912,-0.6339189575,-0.5843678212,-0.6137671039,0.6361021367,0.2565968698,-1.0857189135,-0.0077045767,-0.3160277335,-0.9788437115,-0.4164207343,0.6872347059,0.0773315489,-0.0210234696,-0.604259608,0.0286721864,0.2614767069,-1.2932827075,0.8948511963,0.9094380872,1.0412236549,-0.2305421715,0.4035338127,0.3309308824,0.4722340546,-0.2152893348,-0.4777679213,0.1300760941,-0.3652902719,-1.0576323132,-0.2229233598,-0.0029693269,0.4536738189,-0.2211036448,0.107597894,-0.0901380476,0.841342304,0.4556748925,-1.0599956249,1.1676702862,0.0222967474,0.3876573985,1.1008376036,0.6165696282,0.0508974376,0.791950576,-0.0319891785,0.091063259,-1.0094185848,0.0103909924,0.1702124613,-0.3426566679,-0.039791228,-0.5308875682,-0.0308607745,-0.2118108551,-0.0007040368,-0.2433059913,-0.2720993018,0.4063919175,-0.2501700107,0.4010293432,0.218334332,-0.0717397754,0.1951569577,-0.251047445,-0.077066576,-0.9175818742,0.6830211635,-1.2404961889,0.3126158244,0.4010476636,0.8501651389,-0.6681118805,0.3574838823,-0.001631127,-1.178994009,1.0814157371,-0.7352400107,-0.9458950234,-0.0344717526,0.0879050396,-1.6017290862,1.2499530847,-0.2477488975,-0.9656879281,-0.263461889,-0.0594832112,-0.211365028,-0.5859902067,0.2074780233,-0.6508281789,0.2445793902,-0.9500029892,0.3563761106,0.1627291921,0.1805394042,0.1733291791,0.1154067572,-0.3431124679,0.658395499,0.0000811811,-0.2265441856,0.0865970088,-0.3334394543,0.0198230167,-0.50534429,0.8292261682,-0.5750681775,0.4132449775,0.2708510328,-0.0331958084,0.3958287507,-0.0047173246,0.0276786666,-0.1978673465,-0.5762246905,0.5643882889,-0.3339666127,0.5849647125,-0.365398151,-0.1057274168,-0.1754974014,-0.1978126189,0.7797652891,-1.2564101596,-0.6648130734,-1.5066486952,-0.3531441066,-0.9922146063,1.6637401134,0.0014337052,0.1330476471,1.0351625001,-0.4772927145,-0.0901263479,0.0873888185,-0.8289753979,-0.0808554127,0.4338328029,1.0431810164,0.5314044558,1.1873900941,0.3015352047,0.1668665619,1.4957796359,-0.3198454023,0.1858937451,0.1157065636,0.1329485249,-0.2443008139,0.5925600635,0.1816366621,0.1019162424,-0.1904532352,-0.0427338544,1.2220055523,-0.2931109546,-0.2992720857,-0.4793125667,0.0025330882,-1.6724471521,0.289593813,-0.8600400448,-1.315979403,0.4218552887,0.0655426106,0.7490493471,1.2505380904,-0.3257264286,-1.180339659,0.6793679035,-0.2540358612,-1.2093383108,-0.5368522622,1.0556787829,0.1560092286,-0.7800680543,0.5464413902,0.0010009126,-0.2533145649,-0.0676985872,-0.5736431707,-0.0659440153,0.2617265491,-1.1766888417,0.6282172573,0.5225436225,0.2023918104,-1.2500500562,-0.4099222052,0.6762151772,0.2407849713,-0.8667857922,1.1258790008,0.7596765522,-1.1176198037,-0.1917164998,-0.3057787469,-0.7489236309,0.2761834824,-1.0180117038,0.1559447006,-0.6538779018,-0.9181792999,0.011186013,-0.4996727061,-1.1746818856,0.686011375,0.1074195853,0.8931938861,0.0924668011,0.6254040694,0.8551625124,0.1298240785,-1.117302973,0.309491013,-1.1634459829,-1.0294143539,-0.8943219589,0.3777090349,-0.1760356785,-0.0071751055,-0.1752236998,-0.3314996206,0.3695601811,0.4524176987,0.1642506956,0.5965786474,-0.2214011262,0.0027107767,-0.1134962782,-0.8381272361,0.0181149209,1.0233209561,0.2670814201,0.0911616022,1.2278321897,0.3341767508,1.2047493512,-0.6092627473,0.4237434158,-0.2209032696,-0.1395231775,0.7779601518,0.2091018738,-0.119380005,0.2446559226,0.0107348884,0.6611593337,0.4083314947,0.1650691989,-0.2577249192,0.5229148502,-0.0959517974,-0.1700297665,0.1908054251,-0.0589413187,-0.3732548556,0.4924259218,0.246639094,0.6632291534,1.4495742193,-0.3170105317,-0.3242115878,0.0216714018,0.3065147496,0.2771852955,-0.2878239995,1.2765756099,-0.7861504677,-0.3973876621,-0.0515978704,0.1221582168,0.131962243,-0.0801919956,0.1494984636,-0.1048099017,0.0521292363,0.9745971913,-0.0778360911,0.0260336399,0.1321863743,-0.6858203294,-1.2375351157,-0.3512481164,0.5713033437,1.0161139161,-0.2884370809,-1.5679151866,0.3378292291,1.5461979544,-0.1842427602,0.8250559467,0.7949129148,-0.1791528749,0.0040112705,-0.7748700109,-0.1185351238,0.0662055692,0.0779551663,0.5042756962,0.1425480055,-1.0851558224,1.7801913128,-1.4951990491,0.7120938422,-0.2086367005,-0.0714802461,-0.0343155057,0.1658463156,-0.9620014556,0.8567644508,0.0535799198,0.5796554453,0.3453153335,-0.5952211658,-0.3832418014,-0.0495146637,0.3698045921,0.7569395971,-0.2334907356,-0.9834069154,-0.3686931339,0.5328732121,-0.7121608513,-0.3603127297,0.8601654764,0.1519849834,0.1343630541,0.1653009077,0.0023289947,-0.1600414653,0.5882389334,0.0427097278,-0.1770572419,0.0421411014,0.0376941103,0.7034638425,0.5144195459,-0.4645841835,1.1450656623,0.2713097018,0.1417143321,1.1085463641,0.3792718424,-0.005800369,-0.3450186166,-0.1286312182,0.9348655898,-1.2727141412,0.176570693,1.5561217117,0.5946872544,0.5946621663,-0.782944902,-0.4595818997,-1.2206754528,-0.9405513665,0.013494774,0.5239323784,-1.452330604,0.7191615318,0.9923659187,0.1477797441,-0.231303659,-0.2374127713,-0.7114995825,-1.496164194,0.0626709681,-0.8246308744,-0.2456016833,-0.1336994915,-0.1377989957,-0.418754516,-0.077181145,-0.2640015656,-0.7707356925,-0.1270538032,0.8707325916,-0.2081286507,1.2595081681,1.1481451943,-0.6166777585,-0.1122334044,0.000153058,-1.1793689672,0.000512989,-1.1438555312,1.4624193183,-0.1118914353,-0.1999656262,-0.0346551887,0.0420078256,1.7158331281,-0.4972038807,0.9898175915,0.8363205493,-0.0862694874,-0.3176836622,0.4371792328,-0.0157952625,-1.0028602635,1.1322935265,-0.8532176578,-0.1513743344,0.5371106843,-0.0460089602,-0.8319559599,1.0051161586,0.5145622382,-0.1790223154,-0.50665066,-0.3422317875,0.5031969551,0.6325654666,-0.9381914115,-0.3646928909,0.241441093,0.4776558048,0.4214286181,0.9283511224,-0.3286380239,0.3657140699,-0.0983208631,-0.1906305561,0.9076283754,0.3645431504,0.0226828223,0.4170505744,-0.0838514625,0.8822212979,0.7258649475,1.0485444159,-0.0169220159,-0.0008144628,1.2812925005,0.9382255218,0.7227994445,-0.8329386331,-0.04800457,0.2195975257,1.2543829547,-0.1313958644,0.7679268367,-0.4780462877,-0.7564231417,-0.4343019645,0.394705032,0.0312812139,0.2702144617,-0.2756718014,0.0739400603,-0.1305453162,-0.1313784788,-0.0296829566,0.1463782194,-1.932872881,0.6778371157,-0.6566399678,-0.8401663898,1.0807213075,-1.3428910243,-1.2073038164,-1.6008560889,0.7213715281,-0.6118677272,-0.4628536619,0.7960198584,0.0978078615,0.8693897519,-0.1831888376,0.4396991859,0.0135089918,0.1519896935,0.6363734602,-0.6250471162,0.0012066807,-0.3291238782,-0.3166177626,-0.3639442435,0.0729404577,-0.5294719218,0.2448272553,0.5761087883,0.1268296168,-0.3343472903,-0.5600361331,-0.6147267084,0.2529338214,-0.0138410681,0.0299947249,0.0246816479,0.9877827705,-0.5093531866,-0.0284514262,0.4544587737,-0.1188291074,0.061440113,0.8674235245,0.3005241833,-0.3974066188,1.3702218141,-0.6131287731,-1.1370814028,-0.2298867462,0.1678144342,-0.5465339792,-0.0339289527,0.6077189338,-0.3683503273,1.0964723231,-1.1763039016,-0.1813458489,-0.6450227379,0.6867541214,-0.2905796207,-0.1285704849,-0.020771784,-0.2764533664,1.5772240783,-0.8411790812,0.0289939093,0.0966834648,-0.1612421534,1.3268519522,0.1595696575,0.0611108947,1.3299412844,1.2904209974,0.4571432184,-0.2364020131,0.3404499803,0.4325238681,0.3702424191,0.2552790545,0.0659609326,1.0451042158,-0.1269338659,-0.8879871706,-1.4439491252,0.1527751157,0.2018327454,-0.9080058916,0.3403158462,-0.3134907822,0.2711945573,-0.2428141962,0.5134875614,0.9216660646,0.6550329803,0.6724131483,0.6411390207,-0.2131097458,0.509920623,-0.7963826663,-0.9960688707,-0.7387614868,0.2212601995,-0.8499141435,-0.4108394299,-0.6408897988,-0.6725380972,0.9862594865,0.3527829934,0.7136884722,0.6432062262,-0.3203250936,0.5903507573,-0.2052646548,-0.7328490451,0.5740066951,-0.7031113446,0.864230024,0.4625174793,-0.5475851489,-0.1574431983,-0.6908559252,-0.000695959,0.4164232147,-0.7578738471,-0.2245195324,-0.73618518,0.9492685425,-0.6017273493,0.6706448454,-0.9979523369,-0.9729992952,0.8497936251,-0.3927763624,-0.6424940123,0.7442082412,0.6862766513,-0.1292008726,-0.694911829,0.4146593005,0.5280695172,0.2135670195,0.2806043815,0.2440956917,0.5258044592,-0.6324703597,-0.7305398976,0.9912917256,0.193875426,0.0363094036,0.3266280317,0.1430513894,-0.1198537256,0.9783201902,-0.4470331061,0.4763059428,0.5787035067,-0.3545689593,0.9287977586,-0.7004837878,0.0317079782,-0.6986077218,0.2100217591,0.9618991262,-0.5917143011,-0.2577477115,-0.1040657051,-0.6345248059,0.2174435453,-0.8846456716,0.7533309568,-0.0808217688,0.3214659139,-0.7854603148,0.2223671983,-0.8154771807,0.7941519755,0.4492951647,-0.6487782651,-0.5896792878,-0.3371148424,0.0420602793,0.3329306021,0.1754716015,0.1603750678,0.8043189144,0.4901717534,-0.1397081048,0.5622342809,-0.0531769305,-0.1016914728,-0.8322289602,-0.0295263385,0.1923559156,-0.9538470879,-0.0669002356,0.3397218981,-0.7919119471,0.0565852314,0.8836205366,-0.2733524004,0.7480878869,0.1322272912,-0.314026248,-0.5351094547,-0.7745408863,0.949481486,-0.4399298264,-0.4258644658,0.1705351837,0.2954906346,0.1060381331,-0.7015144909,-0.0924998972,-0.996283167,-0.8306628934,-0.5016652676,-0.2345427094,0.6312898202,-0.1461425563,-0.8001535814,0.4635177517,0.5285247548,-0.0842910014,0.0863505013,-0.3282017831,-0.8698743201,-0.3943120225,-0.6808777413,-0.4811214209,0.9766809246,-0.7100329401,-0.8119975299,-0.6992724724,-0.3435124098,0.8279894017,-0.2681932589,-0.8268789373,-0.651942728,0.8559390372,0.4074439472,-0.6263289344,-0.5732937608,0.7823382754,0.2492027123,0.9504506135,0.7975638721,0.7909051727,0.7329509011,0.9026169975,0.2845116229,0.0412513258,-0.6742865799,0.284678914,0.2701362873,0.0797197757,-0.9282218975,-0.5672696152,0.2415529792,-0.3858829891,-0.0257243495,-0.2079901438,0.5267378207,0.0770570023,0.0499608816,-0.1157421817,1.3031355359,0.3567366987,0.2179512902,-1.1300896429,0.2736687437,0.3939778656,-1.2196778522,-0.1305005667,-0.7231686215,1.3066219007,-0.0829337329,-0.2416365229,-0.5353764925,0.3115882235,0.6953116296,-1.3532770445,-0.3862921698,0.0341303161,0.9904786788,0.5623647675,0.2460033844,1.2577932687,-0.0404674906,-0.343643244,0.1553946123,-0.2827683972,-0.2460625693,-0.74645335,0.5320426707,-0.0152696173,-0.0251022548,-0.6790403072,-0.010048397,-0.3277432569,-1.6496996193,-1.0097666047,-0.1100172637,0.431240848,-0.5833518574,0.0530438174,0.5855493559,0.4335390681,-0.1478355271,-0.7687435613,0.9491233789,0.1815740819,-0.4341597116,0.7777552455,-1.3138347676,0.5762455561,0.3254531632,0.6650371295,-0.2079971435,-0.077409055,0.0240977975,1.2889764198,-0.3709045809,-0.0261513721,0.0431864618,-0.0116462776,-0.0426462058,0.0468570669,-0.4247125674,0.208309126,0.4473655801,0.2260821982,-0.2369916317,1.1750541237,0.2517909418,-0.0651421628,0.0204467572,-0.4735999642,-0.6282484713,-0.7889648382,-0.5204587934,-0.152016291,0.0756613759,0.0729065913,0.5201690162,-0.2911968185,-0.5357193526,1.2539088861,-0.5424186077,1.0086228343,1.0425090933,1.3284032734,0.4068411903,0.1797114955,0.8164426212,0.2275926578,0.005257076,0.2923333732,0.0489677564,-0.6899726784,0.1709016021,-0.7690394104,-0.9385543953,-1.1534764652,-0.4608080133,-0.7286696951,-0.1119448313,0.1096873695,0.0173680124,1.060937609,0.5114692381,-1.1445616215,-0.8827774668,0.0078733474,-0.3215104274,0.9042859251,-0.6447602643,-0.6064578095,0.4212879032,-0.5858382592,-0.2469596143,1.3674516903,-0.0000066111,-0.1526801567,0.8590821672,-0.5503220202,-0.6569172538,-0.7494429519,0.6050312433,0.9153152869,0.2930336751,0.8468998647,-0.2094991563,-0.5892329247,-0.08325827,0.1230800439,-0.0350280859,-0.2000568264,-0.3185821921,0.7749641084,0.2680175383,-0.6897245685,0.801439412,-0.1505877958,0.2223673655,-0.5710566257,-0.6667168324,-0.6153413862,-0.7689637848,0.5240207557,-0.2356366677,0.3390531963,-0.7678002612,-0.4867592579,0.7902362263,0.4721450325,0.2856370547,-0.3722005124,-0.0249624592,0.7178339226,-0.1701487007,0.6987850642,0.2781804417,-0.1275262241,-0.4706042938,-0.5661524401,-0.9549255555,-0.9379481477,-0.2533605517,0.9937735117,-0.768958536,-0.0639368583,0.6629479564,0.1899134744,-0.7305865282,-0.3798292306,-0.4598755158,-0.2610650504,-0.8892620586,0.2985090895,-0.5152588049,0.2753693986,-0.3767240833,-0.7705966785,0.8939442477,-0.8606115567,0.777978515,0.141080016,-0.3588157125,-0.7922055915,-0.4858088891,0.5449003432,-0.2500850011,0.1489535539,-0.4719809501,-0.9063357201,-0.9916854264,-0.8379185367,0.4218415712,0.3520439522,-0.3371522106,0.0973111738,-0.8701434669,-0.5287266001,-0.5518236346,-0.8713727179,-0.8392879164,-0.0417892176,-0.6879710862,0.2271010279,0.3419647847,-0.7949914959,0.4802984427,0.5915064289,0.9646009202,-0.7968646686,-0.4767918606,-0.487660734,-0.2311784044,-0.9321861811,-0.0119840075,-0.3642188827,0.4874020949,-0.1373640331,-0.0767583608,-0.0068807594,0.9148344568,-0.6709702195,0.8731106893,-0.7750024084,-0.3346364091,0.8118465105,0.4083915706,0.4745498616,-0.4392661258,0.8251257056,-0.0651348336,0.6497788568,0.1751072494,-0.1753084128,0.193020395,-0.6679762485,0.2111489662,-0.7067312712,-0.2948883126,0.4725052905,-0.0918711021,-0.9235952652,-0.7869895862,-0.7243951648,0.1451882973,0.6631122013,-0.2421676834,-0.0905911344,0.3548238899,0.4470922082,-0.9877150331,-0.2688509607,-0.561442081,-0.3797686514,0.7733838044,0.7961234748,0.5104431946,0.2422049318,-0.2055272854,-0.446140239,-0.6289074381,-0.3340914978,-0.0243714984,-0.6814863616,-0.2510319377,-0.9545981862,0.315612336,-0.4525684121,-0.0879680375,0.6971671528,-0.3066446377,0.144438643,-0.0840565344,0.7037693654,-0.4875232669,-0.3841498355,0.1944508973,0.3222594345,0.3405410823,-0.0597993243,0.6378493672,0.9126940741,0.1090166397,-0.9164833943,-0.4930985773,-0.1717611197,-0.5179994816,-0.4058909195,-0.7430307513,-0.5733096786,-0.8390688179,0.6243457993,0.9095370352,0.787122452,0.587548685,-0.1859696171,0.2187368586,0.3135756598,0.0070061036,-0.3244774124,-0.400592906,0.4404262866,-0.8971744271,0.7782678442,0.722537692,-0.3901990281,0.4948959485,-0.7653925719,0.7404958786,-0.1414454696,-0.080501276,0.8863790813,-0.4122946968,-0.8347444316,0.4468588274,0.7163919924,-0.2897192849,-0.0367777509,-0.5650444131,-0.7771412071,0.1766370392,-0.7326093,0.3070028429,-0.7347818708,0.4411482069,0.9100183341,0.1861620545,0.6680343492,0.5201548717,-0.0947466413,-0.0682754989,0.973775476,-0.3219474046,0.1216321143,-0.7916226846,0.1256609685,-0.5379438586,0.5289972541,-0.5007740792,-0.3127487355,-0.8067402442,-0.4270893845,-0.6959153687,-0.0752592921,0.5766511459,-0.24372983,0.1376662052,-0.2772809444,-0.3683462405,0.1273221999,0.3543702412,-0.1147094255,0.0906258221,0.3941112755,-0.6628588681,-0.9099199161,-0.3498690872,0.5899928891,-0.7759293165,-0.439523448,0.4622291149,0.0757753282,-0.1829455742,0.6916587973,-0.0404874659,-0.7595819434,0.0249982556,0.4586250544,-0.3789199067,-0.635428873,0.6974685621,0.1549958269,-0.6773755324,0.023361935,-0.3891447543,-0.8081491699,0.9235203051,0.466993531,-0.3569785968,0.108724508,0.6513237018,0.4030303465,-0.9199065277,-0.0278860614,-0.9149201068,-0.4559754324,0.6211593546,0.5367284962,-0.9742003303,0.5493483074,0.3073277893,0.7638159924,-0.8700776539,0.3850305056,0.0816425074,-0.2934371527,-0.6940714701,0.0859930518,-0.5497709639,-0.5392817625,-0.6390170295,-0.4796528733,0.0863956584,0.6744355372,0.7915311523,-0.1485441722,0.1955695868,-0.4850142034,0.9245407434,0.4655110593,0.1505216503,0.9550639693,-0.2365053353,0.4320281239,0.090999177,0.4884037373,0.5425112511,-0.7535967933,0.6383859598,0.4237693844,-0.8682571762,-0.1965319376,-0.0636943628,-0.9001815938,0.7298792539,0.9173493531,0.8436809235,-0.7669977028,-0.9443625788,-0.6061258475,0.005467411,0.3208873528,0.5339549406,0.3873355244,0.670735091,0.5155154681,0.3766384035,0.7711014053,0.9422193209,0.769604602,-0.9046282402,-0.8307779206,0.1293742556,0.7141789094,0.3237880593,0.1735516363,0.3612723002,0.6735420166,-0.9948190967,0.6368123989,-0.5909675165,0.5384411037,-0.363911196,0.0332354213,-0.3587327842,-0.8455009565,0.1762347313,-0.8476448155,0.3900683538,0.321557324,-0.6286613818,0.895015187,0.4963344953,0.8163807633,-0.1462940604,-0.9267323581,0.8555307268,-0.8628951957,0.2919994295,0.6631324993,-0.9738372578,0.2252274329,0.4706645047,0.8576428139,-0.4328119066,0.0043508696,0.6656458814,-0.8364090232,0.8114552526,-0.4156342019,-0.2394729317,0.9980932032,-0.5253366508,0.7630394314,0.0286307132,-0.5467433057,0.3877906256,0.6796259652,0.2590783267,-0.8440794559,0.4621639844,0.8762827343,0.9986045135,-0.1721655251,-0.8671778008,0.3691020976,-0.2714973569,-0.9388938891,0.8482636624,0.0950209813,-0.66383174,0.3944103022,-0.8167820317,0.8430672611,-0.115575766,0.0427556275,-0.9629130877,0.1511896459,0.5259402056,-0.4641119925,0.2613614337,-0.6611917946,0.7071452025,0.792617134,0.2365778255,0.5280069676,-0.5989239744,0.9747912392,-0.2524655036,0.058783949,0.4702802355,-0.5198591842,0.8848517324,0.8581531121,-0.2528386898,0.6982236803,0.5792854335,-0.7670676071,0.5173824409,-0.2228844125,-0.6514048893,-0.9804276285,0.35586454,-0.7815316053,-0.948853865,-0.2098542993,-0.847717793,-0.0897184521,-0.5660498398,0.8276779675,0.9858091236,-0.968880109,0.8313752926,0.5353708452,0.9960660435,0.6885549835,0.3704475465,-0.0179389444,0.1720417847,0.0742962577,0.6182259696,0.1640886439,-0.5970266573,-0.6187477739,-0.4007044826,0.9487705533,0.6979471494,0.9964049488,0.9582400964,0.2812765983,-0.2881295971,-0.6015558285,-0.6449596656,-0.6009196573,-0.347612765,0.5004713136,-0.4122385097,0.0454530841,0.1036155059,-0.5690239381,-0.7162484855,0.0728478218,-0.504826718,-0.3644401636,-0.0281549965,-0.3316537708,0.0441785084,-0.0007188143,0.1885741974,0.1130434857,-0.3036168177,0.7468142338,-0.6902716284,0.6369284115,0.092045633,-0.4479478701,-0.3818968916,-0.5449846576,0.1383556412,0.5453676176,-0.5751247941,-0.7465223352,0.4931414978,-0.3055913259,-0.4589223679,-0.6173257422,-0.0075399414,-0.595973347,-0.5839753772,-0.4829765705,-0.6288880258,0.1324007132,-0.6137747455,0.6389595367,0.9022858215,-0.9143694432,-0.5704043701,0.3071085293,0.3177759833,0.9984235014,0.1000051914,-0.035684646,0.9561635919,-0.8919428716,0.0759894148,0.9373657055,0.3601147218,0.3139879673,0.9404580736,-0.6938422014,0.3195749378,0.6167894163,-0.3346336213,0.452470566,0.0095893488,-0.7532768444,-0.5905585217,-0.2438056977,0.0929936335,0.0203747929,-0.7106138293,0.7420907421,0.5574078614,-0.45549405,0.4821331467,-0.4071976527,0.895488937,-0.289062215,0.4794344835,0.8956056753,-0.4102941874,0.335231917,-0.4850260249,0.7418908782,-0.3616951291,-0.6596298804,-0.5305888945,0.2873821946,-0.3635863396,0.6119147831,0.2783504725,0.2162471813,-0.9100220873,-0.0268928799,0.1192250905,-0.111201906,0.3153341939,-0.9841597004,0.6131003732,-0.2889380571,-0.5227701656,0.1126871528,-0.6898719163,0.5848780437,-0.7118277518,-0.9517015844,0.3254707002,-0.5546635749,0.3559394658,-0.9493268093,0.0282103764,0.7818078876,0.6737341109,0.1749323817,0.9102660625,0.8084592161,0.9022715543,0.7110364127,-0.9125200049,0.0492456831,-0.6516274503,-0.3913364289,0.3062782621,-0.9416886566,0.1201913179,0.6781331537,0.0332552209,-0.1871719187,-0.3134106845,0.628629924,-0.5065212379,-0.5606752315,-0.0775508099,0.3639690646,0.9319646017,0.5334509058,-0.1979178702,0.2044038048,-0.9874289025,-0.4485845342,0.0189479357,0.8597784491,0.1103373001,0.520368176,0.8149367132,0.8173657342,0.5987870105,0.5153216548,0.7128995481,-0.8656368955,0.3511145429,0.2079016934,-0.0266453485,0.2121738662,-0.9452426389,-0.1352499972,-0.2734807238,-0.309150095,-0.971216756,0.7644531027,0.4397861504,0.5605294305,0.2500152666,0.0695891504,0.0565392644,-0.7096862941,-0.8585292133,-0.6824350064,-0.316660261,-0.8182266805,-0.7816681494,0.0237873916,-0.9539532303,-0.1854266438,1.7758732781,-0.2946593208,0.0146232339,-1.4697195825,0.1824022874,0.8931641171,-0.7747645575,0.5462630748,-0.231290949,0.0000308186,0.6858030903,0.2255746978,1.3946598303,-1.1089517682,0.1555768236,0.3093646661,-0.0563958962,-0.39108467,-0.9514261301,-0.2114278897,-0.3062324956,0.5844949947
   0.1715046013,0.5317817025,1.4703504275,-0.3088712195,0.6130095824,-1.5557959533,-0.1808067144,0.3331574944,1.0187449849,-0.3071729864,-0.3584030132,1.4467983346,0.1326318037,0.0415984041,-0.1857303158,-0.6354024191,-0.142052499,0.5387288954,0.5574320802,0.0225422577,-0.1532042886,-0.3240721835,-0.4847595592,-0.1215486771,-0.0597224425,0.8694255574,-0.3519056304,0.122709433,1.4872859728,0.0005389562,-0.7458891575,-0.9655455458,-0.0961697511,-0.0419382226,-0.0167473333,-1.3259031035,1.0861051784,1.0669837623,0.2899876099,0.49896919,0.1113083695,-0.0150236614,-0.2025692356,0.7524727553,0.3833415893,-0.9688773121,-0.1728134195,-0.2048522079,0.1474131962,-0.711082141,0.8830421957,0.6785670756,0.6073643578,0.1585819605,-0.9069732076,0.5521392292,-0.1939394341,0.0372218438,-0.0038887301,0.5369850945,-0.1719299161,-0.9108167582,-0.809080745,0.5669834282,0.0954578529,0.4462743732,-0.1048245088,-0.074540955,0.9572014128,0.8976185632,-0.5838738235,-0.4061483655,-0.9506777268,-0.4762577019,0.4260303379,0.8902548735,0.1746796771,0.3800518714,0.5839093229,-0.2363850101,-0.6142625259,0.9745663931,0.3001240083,-0.4733680847,0.4491007471,0.3609650284,0.6241458355,0.9469815421,-0.7051979912,-0.2995731518,-0.9697249386,0.0761182147,0.7199980374,0.1988639263,0.0745552679,0.6000551318,0.3118823995,0.3132096804,-0.483892795,-0.1478541554,-0.4227407676,-0.6479152844,0.6367552192,-0.426211881,0.6205047653,-0.4028327386,-0.7119586965,-0.3432592605,0.9988871981,0.3453039414,-0.0527716546,-0.2752420684,-0.3098757278,0.4132920244,-0.7523540986,-0.6142479362,-0.4026832859,-0.1068438828,-0.0032920279,0.9578856193,0.5388634595,-0.7927144575,-0.0652241303,-0.1965069217,0.2185741037,0.6485564385,-0.3418386905,-0.2427025818,-0.7018134125,0.0124257841,0.845294442,0.3850268209,0.8913113565,-0.0960148092,-0.5285806201,-0.7690663582,0.1832805859,0.6282497779,-0.9530104546,0.1649125614,-0.8587294391,0.6133930447,0.4382049581,0.9594208212,-0.098536984,-0.8131332417,-0.6318731498,0.0745100408,0.0905385924,0.8895490095,0.1951121095,0.2347307212,-0.6355630623,-0.9438095896,0.2510659808,-0.3070826375,-0.0399841254,0.5084052954,-0.6579077462,-0.3087356459,-0.17835219,-0.9369829889,0.2813052271,0.9699302296,0.7809911101,-0.8134763649,0.4882239358,-0.552970142,0.1247090525,0.1368365604,-0.3227520405,0.3146821989,-0.9158773464,-0.5528500547,0.7127053046,0.6480216622,-0.1756995008,0.9493513105,-0.8445075264,-0.6405186759,-0.6814823903,0.9703262014,0.510763778,0.4346627712,0.6558301807,0.5517121531,-0.5695400607,-0.806824584,0.6867003736,-0.2777250389,0.0391655711,0.1815435421,-0.3872378737,-0.2359765609,0.7329253633,-0.8510543124,0.6305696425,-0.3547056352,-0.605730975,0.9567883957,0.1256513391,-0.0362284032,0.8364438709,0.6926704274,0.9476729929,-0.947724452,0.7669568372,0.5418724598,0.68805578,0.0674887669,0.9928107769,-0.4576066304,-0.7762275542,-0.7768036296,0.8171804187,0.7127711967,-0.209178335,-0.0008789103,0.1403345228,-0.0409884556,-0.2791483408,-0.5989645586,-0.278458512,-0.2340883108,-0.5887359014,0.6135553646,0.6922464608,0.7730664567,-0.9707426993,0.6760657836,0.5965763008,0.8771165063,-0.251741562
##end
biasActivation=0,1,1,1
[BASIC:ACTIVATION]
"org.encog.engine.network.activation.ActivationSoftMax"
"org.encog.engine.network.activation.ActivationReLU",0,0
"org.encog.engine.network.activation.ActivationReLU",0,0
"org.encog.engine.network.activation.ActivationLinear"
