encog,BasicNetwork,java,3.4.0,1,1532931409972
[BASIC]
[BASIC:PARAMS]
[BASIC:NETWORK]
beginTraining=0
connectionLimit=0
contextTargetOffset=0,0,0,0
contextTargetSize=0,0,0,0
endTraining=3
hasContext=f
inputCount=16
layerCounts=4,26,101,17
layerFeedCounts=4,25,100,16
layerContextCount=0,0,0,0
layerIndex=0,4,30,131
output=0.3333333333,0.3333333333,0.3333333333,0,1159.9602378385,439.8483815724,0,0,0,0,408.3847988247,0,0,620.7724041153,578.3204465794,58.50201345,0,460.1825963498,107.355686487,143.3630275985,0,534.5794582647,0,282.1032147598,0,236.0903975442,439.1431224729,787.3270394968,86.8343035174,1,7.0842147713,90.8281012584,131.6251259548,82.0905956302,88.7914321875,0,23.6775153148,0,75.1492709891,19.506749348,0,151.2991762529,0,0,0,101.561034036,0,0,26.7989219094,4.6570706652,0,159.1321698287,0,0,3.8551099285,0,57.4554704012,96.5843722233,108.360726892,0,0,28.1231134239,0,58.8198662869,93.5095345753,95.3700657036,66.339147354,5.2835623731,0,38.580445007,0,32.8752875775,0,34.7323905954,58.4709085514,0,97.2260103398,122.5949274735,37.3073075815,110.660887638,0,0,0,0,111.4839606542,0,131.5076923002,0,0,92.2099025103,63.1429231605,15.1278004583,0,0,51.1110534673,48.5320441477,0,0,0,132.6301365611,0,0,0,28.5305670518,0,157.7683120581,50.9878558889,11.9347571029,48.0697836642,68.1180696355,0,27.5052619607,0,0,41.6798686739,0,0,115.085680045,28.2381461202,0,0,0,168.8079211108,0,0,0,5.1795547086,19.6338494094,0,458.2499821203,1,8,128,16,8,16,32,8,4,8,16,4,2,4,8,4,0,1
outputCount=4
weightIndex=0,104,2629,4329
weights=##0
##double#4329
   0.0421069596,0.1531878425,-0.0294087187,2.1226423215,-0.1062441919,0.7331860922,1.2496058086,0.6091798635,-0.137533885,0.012814784,-0.0643680664,-0.3213382989,-0.0678333618,4.620582579,0.2919435092,0.8467808788,-0.3516084514,-0.4780224338,-0.0098782972,0.2306902122,-0.0613203957,0.1451023239,-0.0002763171,0.0811815632,0.4197454755,0.1417765644,0.0202700559,-0.2380015329,0.172177844,0.0067502188,2.9926878527,-0.0454180253,0.1476053441,-0.8665609191,-1.4967031051,0.3194864301,0.17782935,0.7935318359,-0.2693415868,-1.0127798496,0.0056887751,0.2825885968,0.2064136325,1.5353267868,-0.1421911423,1.5064638364,2.5404027323,-0.159665191,0.7780288814,-0.4326895173,-0.0137710969,-0.079436396,1.2286953161,0.0364159732,-0.2483020345,1.4676346992,-1.5744674633,-0.0001948193,-2.1904163881,0.9433514862,-0.0496249831,-0.0002875442,2.6961548648,-0.5311880202,-0.0903305646,0.2427390851,-0.6945707362,1.2570651587,-0.2518445508,0.5705495271,-0.1111683426,0.6709421905,-0.0151705212,0.0012484426,0.1938290411,-0.2887305751,-0.3460120371,-1.5837588449,-0.3804158705,0.0944354186,-0.5741734106,-0.7465662426,-0.7532449131,-0.5087049794,1.2847422739,0.0049098446,-4.9866624532,-0.103659757,-0.0153303995,0.0026393296,2.6191457272,-0.0400164101,-0.0097621329,0.0258306624,-0.7619679476,-1.3848637105,0.1453233876,-1.5259925433,0.46919822,-1.7123536549,-0.0050165891,-0.0027105588,-0.46859062,1.0135058685,0.182074377,0.2200666124,1.1837857369,0.3516704241,-0.4144053157,0.5877336876,1.7691875889,0.599248539,0.0021750715,-0.1706615711,0.3213607495,0.3345984408,-0.0436465024,-0.1444505244,0.3086144136,-0.2726880148,-0.4222376821,-0.6695291525,2.9792633984,2.7093590523,1.0725631875,-1.716271827,-0.0275531907,0.0380230227,0.0437039198,-0.016948688,-0.0139005942,-1.702876449,0.139809394,0.0355529785,0.8533794699,-0.2807399858,0.0195018809,-0.0056303585,-0.3820445901,-0.4768966873,0.4065757899,-1.8306246322,-0.4537574398,0.1483464081,-1.2033778167,0.014853533,2.9900576818,-0.2448925758,3.2322955582,0.3465651542,0.0291139184,0.0003893785,0.3385765774,-0.0347814017,0.2130443052,0.0019260779,-1.2670953289,-0.9176158923,0.2650818694,-0.768742291,0.1047699152,-4.4949372449,-0.8178645089,0.5351114839,0.0028468886,-0.26179562,-1.0150013713,-0.0927871641,1.1368409572,-0.1092825951,-1.1123743001,-0.0886825862,-0.9880098328,-0.0880619184,0.4543819647,-1.9507210501,-1.3792290693,-0.0004330514,1.2051841234,0.1723763763,-1.7251534196,-0.2864780731,-0.793617404,0.0964647633,0.0165336322,-0.0308700349,0.0544925194,-0.0739720351,-2.2530926822,-0.1014785401,0.1096561286,0.0085978062,0.0098352626,0.023889973,-0.0410799473,-0.9302039132,1.6525800732,-0.0034163856,0.0280120794,2.0848865003,-0.3550676799,-0.1142985279,-0.2202003686,2.0053390263,-1.0629584775,-0.180304056,0.1471217296,0.0455270166,-0.3425629389,0.6831975763,0.3004742756,1.4075619911,0.5738036083,0.4747375031,-0.1903502851,0.0583058687,0.1583753213,-0.1044420518,-1.7030263152,-0.1972282339,2.0811592709,1.4186866407,-0.3864755688,-0.2586059084,-0.0171107192,3.2380050291,0.2360213395,0.2979039795,-0.6548665071,0.0660463726,0.0344687798,-0.0118016337,0.5899974354,0.2846880072,-0.2904094257,-0.0942742499,0.3720576182,1.1387962767,-0.2530323438,0.3207668414,-0.0009001522,-0.0179149855,-0.3938625518,-0.1865871674,-0.057650034,0.0393209961,-3.3158842616,0.8567038088,0.3115882869,0.0114556675,-0.1232439566,0.7059949118,0.2021592496,-0.1298164645,-0.0152489614,-0.5094086804,-2.3862603258,-0.6863041367,0.0096374257,-0.024703123,0.9204225122,-2.8447539975,-0.8719829962,-3.3286458076,-0.0345200956,-0.6546663297,0.3206040394,-0.0700802635,0.0597643481,-1.809630016,-0.1972206108,-1.9957452642,1.2819789083,-0.6888798141,-0.0599045585,-0.2354922044,0.713693614,-0.0113052086,1.6400324309,-2.6963816564,-0.0067656466,-0.0223088392,-0.1064189404,-0.062265561,0.0642773286,-0.4508982147,-0.1163779863,0.0115658771,0.3880909453,-0.2013801402,1.7278968864,-0.0537156617,-0.4698011638,-0.0058333985,-0.0152241206,3.5184813801,0.4025031201,2.7781493699,0.1646919568,0.019017573,0.2706016023,0.4224448849,0.1388205116,-0.2158624265,0.0769649169,-0.2083086534,1.2000235834,-0.0504683799,1.2003972945,0.6262284887,0.4102362527,0.9506305114,0.0029898032,-0.0670253443,0.227961078,-1.6322215859,0.7749336483,0.0790408246,-0.6446610875,0.0643119914,-0.4076945873,0.7057107496,0.0406842553,0.6610325682,1.0681732781,0.1507347336,0.4131714985,-0.535278508,-0.4928463316,0.090798999,-0.8996869895,-1.8597882402,-0.7699357619,0.7179986456,-1.0454823871,1.0399979023,-0.6521151554,0.3855593401,-0.1408041182,0.4461038738,0.6437640693,0.0326896062,-0.6780167782,-0.0418829934,0.1616154797,-0.0446450479,1.0545976146,0.1834024978,1.2209564519,0.1124687162,-0.1278607461,-1.3002720219,0.2615414738,-0.2494515064,-0.4397577442,0.5844514323,-0.381207966,-0.3028707185,-0.4382221085,-0.6233902744,-0.7331387996,-1.2675534746,-0.210299021,-1.4904741487,-1.5559654613,-0.6536289387,-0.1265195162,-0.4320756881,0.521120272,0.5827271887,0.078220052,1.0396820051,-0.1745892082,1.3529220003,0.0613412029,-0.5198618388,-0.9450162515,-0.118104348,-0.3717995778,0.0044136095,1.6521511266,-1.1152240807,0.4126930929,0.0111125059,-1.7347591694,-0.7443435714,-0.4560394184,0.1737516785,1.0278450888,0.0190372383,0.4152312624,0.7394853207,0.0374740742,-0.2196210222,1.0806029075,-0.3749421656,-0.0817596689,0.7899099892,-0.0819099757,-0.0224994326,-0.3608386808,-0.9216574108,1.3564201933,-1.836170011,0.9647649988,-1.5327532886,-0.6162594085,0.3108231768,-1.2232114211,0.6858652124,0.5582610859,0.174703543,-0.116278623,0.4417439311,1.2234885567,-0.7374043137,0.1641925873,-0.0959781322,0.0724823676,0.1565937649,0.3604047351,1.6715634402,0.0089265295,-1.272826016,1.8477631456,-1.4558770135,-0.0624606903,-0.2097700191,-1.4772845185,-0.7473059128,-0.715554739,0.505728627,0.6279451562,-0.3847342793,-0.5477781566,-0.0516488513,-0.0749261815,0.8409489421,-0.6910857202,0.1398189421,0.1144425165,-0.4755657478,-0.0639872256,0.0811585674,0.1552427466,0.4219275546,0.1871570841,0.2458306912,-1.1976730797,0.8784054969,1.7042709362,0.5677354765,1.344780825,-0.162985198,0.9779237388,-0.1534335418,0.4098885499,0.1051196951,0.1514631755,-0.5107624812,0.0064746462,-0.6247109969,-0.3550262056,-1.2842564233,-0.102170412,0.4892697121,0.5953581362,-0.6450490194,-0.011855343,-0.145923513,0.2262168936,-0.1144116393,0.2032215298,-0.0089619186,-0.38389069,0.1329979076,-0.3723902424,0.0118721585,0.0975566503,0.1622171008,0.1334316461,0.2524039914,0.0183174871,-0.3560186071,-0.5976443611,0.2771781711,-0.2514013026,0.1554248633,-1.5971126323,-0.0054811672,-0.1209482127,1.5758974928,-0.688399822,0.0987605446,-0.1983925099,-0.0198264649,-0.0966422983,0.7336357561,-0.0956395092,0.0143764851,0.2139940083,-1.0095050485,0.2597279914,-0.223027393,-0.2140044096,-0.6435567312,-0.1689339441,-0.7304647281,-0.0212765534,0.4130218444,0.8927161269,0.3841832657,0.2111599296,-0.6162164356,-0.0413008543,0.8825029437,0.187593837,-0.4449171831,0.2626201911,0.8422108818,-0.6580471126,-0.3304351776,-0.5908850202,0.1990028496,0.0397230369,-0.6596479389,1.0115557713,-0.011620597,-0.1600597297,-0.3180678212,0.1329671001,-0.2345494675,0.2038146108,0.1666919645,-1.4879183706,-0.276346194,0.4304854886,-0.9687646616,-0.6004423845,0.0724025482,-0.4266826294,-0.3054184548,0.3140602587,-1.5233541528,0.076124005,0.4407847741,-1.437670296,0.3078931052,-1.0962981538,-0.3226969604,0.061224768,0.2743346302,0.8899876631,-0.4063714223,0.1518671,0.5472105174,-0.8802025552,-0.0407390292,1.2950967366,-0.6617303358,0.7337837776,-0.1374020945,-0.7100219088,0.0321847817,-0.3186507622,-1.3180771294,-0.0566873224,-0.3006887498,0.2008816602,0.1213548201,0.1892951254,-1.4606873754,0.1187094153,-0.0202148518,0.9503042401,-0.2377880758,-0.1785932585,-0.0647307799,0.6550267174,-0.7272940527,0.3261449601,0.3544327851,0.1404281711,0.2197318131,0.0473707958,1.0886730221,0.0937682502,0.0004099641,0.9050425376,-0.0215220158,0.0273608229,0.146936841,0.4036224338,0.1703155304,-0.0085457905,-0.6628134721,1.0904856883,1.5955326243,0.8581723323,0.9993471456,-0.1591935005,-0.0454240514,-1.1221817714,-0.6903262,-0.5427136184,-0.0620650011,-1.5879149499,-0.9465623976,0.7033910309,-0.1832499479,-0.6855852352,-1.4955670943,0.994803062,0.5695504615,0.9544424002,0.9259906318,0.4399009339,0.3155739642,0.2426393631,1.1244447571,0.5484652183,0.8811516201,-1.0030670774,0.6811319052,-0.1740368239,-0.1016812715,0.410782736,-0.0768152844,0.0879179833,-0.40695141,0.224858498,0.166071314,-0.0505855862,-0.9141955118,1.8041996653,-0.0622247356,-0.2263327794,0.1659294951,0.3333060441,-0.2795627481,0.2162089364,-1.5138103382,0.6659036189,-0.1813845002,0.2829201833,0.2687512957,1.3288875739,0.3983543482,0.0519224156,1.0369566975,-1.6200970177,0.1618275013,1.5310517927,1.7083687932,-0.14315012,0.1608178194,-0.2160485308,-0.7894909913,-0.5573958875,-0.1346440117,0.2686334155,0.7723859211,-0.1785979021,-0.0494737237,1.134413973,0.3000404847,0.3068481006,0.3788576203,0.0974542044,0.2044018155,0.5225888964,-0.1108201117,-1.7905207103,-0.2609475419,0.2721747602,-0.6646960557,0.1432831556,0.1731844729,-0.7982952541,0.1583617175,0.8462806839,-0.1664505138,-0.8282437708,1.1033150284,-0.8660879443,-1.0491629615,1.1340859905,-0.6292012455,-0.9719009733,-0.0679313381,-0.2285211567,-0.0024874883,-0.9835320841,0.0257544503,-0.2201125985,0.0384800564,-0.5115868296,-0.5358740948,0.1190140671,0.2384921277,-0.057674125,0.4909226298,-1.4663921028,-0.0892937116,-1.5682512748,0.0259470416,0.023226761,0.1421791031,-0.1821912857,0.4151963106,-0.0431276153,-1.1471743593,0.2600842915,-0.545625567,0.5294401066,1.0630490859,0.003667596,-0.1736226778,-0.021568886,0.0140177166,0.1116324931,0.1773081994,-0.1875689753,-0.0256497748,1.3010759023,1.1298779484,0.4990085821,0.2155185369,-0.819856057,1.3282377488,0.9531012695,0.4873138763,0.8162798635,0.4731970691,0.7229276695,1.0460658267,0.4843796801,-0.235597677,-0.8293855364,1.0464350721,-0.3815451992,-1.4138000551,0.156358869,-0.0089725215,0.0421737961,0.0993581762,0.1338278411,0.3611591564,0.5808345978,-0.0344482487,-0.9334859833,-1.1156367005,0.142187317,-0.5377802831,0.9070700963,0.385413853,0.1110022544,0.0282715435,-0.2731051137,-0.578370761,-0.2129387861,-0.4772271877,0.3374630089,1.0332328647,-0.0974844919,0.1626623696,-0.3601006918,-0.8137777546,-0.2316535605,0.2379691941,1.0586268103,-0.9759485979,0.3983644053,0.4722818991,0.61951224,-0.1656836474,0.3569145069,0.9255909522,1.5552181619,-0.1679236634,-0.2818829834,-0.3800118224,-0.0749291244,0.0850284591,0.7838707902,0.0354631756,-0.1219234296,-0.6484688392,0.2296732793,0.5713610573,-0.2927793356,-0.2512521852,-0.2490736951,0.0640609595,-1.1098456527,0.1254715275,-1.8170688399,-1.5011100548,0.0956203024,-0.2514022443,0.0413440459,0.046338484,0.108604998,0.2151890153,0.335077865,0.6385815144,0.0032165535,-0.688860121,0.0116271811,1.2944513208,0.0691477339,-0.4506591391,-0.7438936837,-0.6419093448,-0.117363039,0.590999284,-0.1764394806,1.8570376893,0.3083009756,0.1066828645,0.4728389806,-0.0572027212,-0.9225328832,-0.3839521126,-0.4665178377,0.1917398809,0.7609233995,1.0686465518,-0.1480628376,0.7410097091,-0.434846934,0.6268936947,-0.4793489951,1.1153730339,0.1056933484,-0.1093732104,-0.1838626146,-0.0525680992,-0.0765179025,-0.2505521577,-0.0643241831,0.0605599393,0.9130497467,0.4873501505,0.5606907441,0.0219887376,-0.739475521,0.0110381777,0.1320193632,0.9931115163,-0.5295948559,0.4383689504,-0.1347820413,0.0072036689,-0.0475224888,0.2809866575,-0.2035706869,-0.2526939457,0.2236634223,-0.491910573,0.948267938,-0.4428484587,-0.2235068496,0.0401905546,-0.1775228297,-0.4616001838,-0.5315724823,0.0049229099,0.7036254721,0.470323699,-0.5600344052,-0.3267006659,-0.6421842456,0.4139871097,-0.2288718123,0.0561820374,0.0651922428,0.1367390172,-0.152947595,0.5784421337,-0.2438236823,1.8358961891,-0.8712915532,0.1822123895,0.7199881166,-0.1790572191,0.8150342468,-0.3320144868,-0.8177242696,-0.0042444987,0.0727350159,-0.0020485441,0.176843437,-0.0434611585,0.1647303708,1.0911868495,-0.1844232918,0.0265800265,-0.9926876223,0.4618416747,0.5600313016,-0.0235080032,1.3224664733,0.0845425097,-0.5376202489,0.3613147273,0.0269167069,0.0297930435,0.3234886608,-1.4359754283,0.3051762868,0.2846924864,0.1932330964,-0.1276670399,-0.6125258183,-0.1421398271,0.9609599211,0.6189280342,0.1251602595,-0.4692874354,0.1366459229,-1.6025319381,-1.0062752873,-0.2064573116,0.0776894232,-0.2678278785,0.4917073549,-0.2322972063,0.1694319074,1.1940608385,0.0083137737,-0.1415154667,1.4448351743,-0.499037599,0.9798646132,0.2712439526,0.005222755,0.8425907126,0.8871941617,0.1667839505,0.0432975155,0.9767789374,0.0170031139,0.8104973142,-0.2489224053,0.7987736223,-1.8841813126,-0.0033268919,-0.2908394144,0.0809877824,0.8530800347,0.3522501094,-0.1538808115,-1.039219456,0.0100757582,-0.0156750695,-0.2243960787,0.9434696124,-0.1706502237,-0.1739530429,0.0734432607,0.328653637,0.2720914394,-0.616143411,-0.6726573241,-0.828906024,-0.716599756,-0.8755827736,-0.4147605479,0.0314667038,1.5413749947,0.4850231839,0.4277990768,0.2081408859,-1.3713688973,0.7649084567,0.4854562271,-0.6772896057,-1.3361901228,0.5648074002,1.1535254089,0.416019408,0.0823500765,0.1692873349,-0.1516561403,-0.0955322331,-0.1560956988,0.3444808028,-0.3292096543,-0.7327274344,-0.3185246716,0.2108666002,0.8131581049,1.4784966496,0.0707292141,-0.2427777648,0.884744114,1.2692389567,0.0859108544,-0.1699262173,-1.0795785981,0.2043963435,-0.6230957765,0.3720030733,0.8954069858,0.2829005353,-0.0024939879,-0.5906620527,0.3878874584,-0.1087891951,0.6100585894,-0.6005222827,0.6072494483,0.1921688344,-0.5881053616,-0.2114700078,0.3823144033,0.1965328533,-0.1430793414,-0.2627727792,-0.0903009647,0.0788908933,-0.4134398188,0.7533654609,-0.1379564913,0.1571838471,0.0017106941,-0.0790323766,-0.0546735382,-0.1445283628,-0.5059952945,-0.0504709288,-0.4196786288,0.0619263384,-0.3003926243,0.7564250957,-0.1670766198,0.1792364947,-0.0089491801,-0.2424914727,-0.7078411047,0.527297878,-0.5136455207,-0.0343100231,1.5550424961,-0.2307063599,0.0893109407,-0.041520741,0.0451386433,-0.4510815777,0.3416416607,0.2211992441,0.068261928,0.5270474269,0.9595569263,0.6399598441,0.153936743,-0.1863801586,-0.5238399729,0.4101043445,-0.5035537506,1.4581322683,0.2777482188,0.3584694969,0.0292226133,0.8681970036,-0.052512727,-0.9527745879,0.5378967745,0.3162278971,-0.5269068445,1.0590803179,-0.2946251759,0.6599505026,-0.2536444977,-0.861820286,0.2879235631,0.6938379692,0.8868051096,-1.2865408479,-0.0472713874,0.6667451617,0.2154294304,0.6529975213,0.8023889406,0.6261911086,1.7376562664,-1.231698764,0.6653338652,-0.0558617794,-0.0101634928,0.1116062282,-0.0405311528,1.0338999508,0.3452559939,0.1831773745,-0.4542449148,1.0054541142,-0.2573433129,0.9871973923,0.5101866472,-0.0409953745,-0.2941774341,-0.1190062564,0.0403241697,0.2078073153,-0.4087965071,-0.0992631486,-0.0575568592,-0.0393117061,1.290206443,-0.3106763623,0.592576947,0.993913724,0.3539652774,-0.265995574,0.1335623182,0.0556408677,0.2859092882,-0.5158464537,1.2557066499,0.8027369082,0.4793843212,0.0982462205,0.0478207724,0.5688240081,-0.075027017,0.2309514235,0.3547342851,0.2389192135,0.9998800167,-1.0005782964,1.6847615465,0.5262610055,-0.321929141,0.3294283206,-0.3020089609,-0.0156266261,0.1304874502,0.2288410997,-0.3567408675,-0.2018116171,0.0321619409,-0.1919306039,-1.1421516764,-0.1525542189,0.3272535598,-0.3728796494,-1.1896916175,0.729344413,-0.2714724644,1.4322304718,0.9795526947,-0.649495889,-0.0023637436,-0.0332983917,0.5645663219,0.096464327,0.4546937124,0.3452469527,0.9468002666,1.3504023521,-0.0033144227,0.8587586009,0.1274859451,1.0938683408,-0.2785777281,-1.5264817712,-0.002632685,-0.3666149544,1.2888518063,0.2028585518,0.7717349328,-0.4871821301,0.9649678604,0.1083945515,0.3913819286,-0.0971793806,0.9541775407,-0.0824376263,0.109199216,-0.628756886,-1.3717303931,0.0106799935,0.8714231955,0.3863397547,-0.2537698833,-0.2870601194,0.1558629861,-1.2048560425,1.0561168469,-0.0730191656,-0.0880873713,0.8731784991,-0.6775858485,-1.6694032665,-0.3138685397,0.5229363611,0.7626669488,0.1598892271,-0.5808154363,0.9032764695,-0.1455671162,-0.1337090526,0.0552979238,0.2592179915,0.5003691987,0.2133458442,1.7130478193,0.072465904,0.029544444,-0.5729591278,-0.2415865136,-0.5911485605,1.3043168844,0.778032756,-0.5282263576,0.1046208697,-0.5402532648,1.0841886254,-0.0358199589,-1.7706484487,0.2267754333,1.0938359819,0.0274438025,0.1569455276,-0.3792286793,0.062337772,-0.0072969115,-0.9294001372,-0.2246326246,0.1974411929,-0.3364670909,0.2467591502,-1.8578840017,-0.80850664,-0.942495345,0.0545822333,-0.0825326755,0.88047148,0.4777028402,0.9366771652,0.0509077311,-0.4407647285,-1.0520965452,-0.3083270724,-0.3780620606,0.9931186686,0.1962792094,0.6383816982,-0.0802568076,0.4167411786,1.0560853528,-0.4923830111,-0.6306476097,-0.9015259378,-0.0110460964,0.2297493674,-0.0160460835,-0.4640663294,0.949801326,-0.8670498736,0.4181586229,0.2348533637,0.4841795377,0.4967859597,-0.1397584013,-0.1188316655,0.4363871427,1.1350117868,0.065257182,-0.1379862311,-0.6350948058,-0.4795578496,0.7306069166,-0.1646135434,-1.4413146987,-1.3340961558,-0.5073482079,1.301101771,0.0366148873,0.55044768,0.0679929409,-1.8978163121,-1.1007897203,-0.0903477875,-0.0684478668,-0.3510268049,0.2108769044,1.1212677363,1.0282462241,-0.3785983202,0.0689452936,-1.0915160154,1.7781414104,0.4462629205,-0.2928565487,-0.1712713589,-1.468051921,-0.7412437347,-0.3087468024,0.2330606803,-0.0129050969,-1.1119179581,-0.7815650466,-0.5971880506,0.2509111251,-0.4552387925,0.2214707258,-0.4997441125,-0.4511417302,0.0547283728,0.784300974,1.4176984265,-0.0025983889,-0.8513922514,0.3005476225,-0.0727000414,0.1199598245,0.9446417433,-0.7317776967,0.4128482434,-0.2729462113,-1.2980493903,0.8382340303,-0.2134776775,0.1710075599,-0.1529253721,-0.3961371959,-0.0337103199,0.2606029759,-1.5638630747,-1.2432586576,-0.0067168716,-0.3808721983,0.749118218,-0.0424897823,-0.8733433646,-0.5441541277,-0.9439852522,0.6349606338,0.1563333509,-1.5650101295,0.2611737751,-0.3856982162,-0.0016143517,0.0438206712,-0.4522560747,0.4550352793,0.1820061538,-0.045292483,-0.8369091425,-0.621105286,0.1087363245,0.1038577966,0.5384141035,0.0369727734,-0.3546634411,0.0678872542,-0.8565897115,0.1897827271,-0.1066839065,-0.0057112629,0.3209884424,-0.6336676552,0.9255362327,0.3799147253,-0.4277885914,0.1416167965,0.0073982878,0.6344072199,-0.5083013929,0.0628718466,-1.3624233893,-0.6483239984,0.0430042185,0.1896490376,-0.7691547125,-0.7538341595,-0.2731207626,-1.0686099973,0.9174392754,0.458054125,0.5688212533,-0.0793132151,1.1002174241,-0.2442741414,-0.3229007747,-0.5960462357,-0.1699645295,0.5054295297,-0.3894243158,-1.3193052605,-0.0811975226,-0.2984592344,-0.4417320286,-0.123862083,-0.4813137486,0.2327106753,0.5130545216,-0.0140220321,0.481166807,-0.6122282219,-0.2435569161,0.4926517073,-0.7405406951,0.1986251346,-0.8640366102,-1.4917210429,-0.1118014574,0.0839906941,0.3793898045,-0.0075965625,0.1901054424,0.0300211006,-0.5720315721,0.0983226565,0.0010485362,1.7270232642,0.2859720697,0.4957194739,0.2685201056,0.2593971175,0.6044784475,-0.5241479715,0.9174164791,0.444872082,-0.0140998112,-0.0660255395,-0.6823192145,0.3806850329,0.6819421833,-0.6274880547,0.1423449653,-0.9869219281,-0.3573316527,0.9604890489,-0.2313435904,0.3836165108,-0.3810153945,-0.6007600212,-0.0533129601,-0.6494768405,0.4233317082,-0.8606179095,-0.5931906695,-0.3968540527,0.9759502854,0.8549836178,0.79758936,-0.7031258434,-0.1111624909,-0.8031611852,0.9282337626,-0.7422662788,-0.4351381915,0.0771337218,0.0269884638,-0.5561367871,-0.3030928575,-0.8096953096,0.3261026087,-0.9353744002,0.3397965898,0.1004919252,-0.7909222409,-0.6994331173,0.6015332751,-0.4812016858,0.4898210677,-0.8908773224,0.9188433062,-0.4476726428,0.8412431805,0.8634492108,0.5141724965,0.5243644121,-0.9793926067,0.5782645574,-0.9004469535,-0.0745882783,0.1935282989,-0.6201443566,-0.1379521543,0.8184773049,0.5131708025,0.4176360176,0.9989967798,-0.409881406,0.4337771194,0.6245807391,0.7746853763,0.237681744,-0.8867932819,0.1123428289,-0.2720421721,0.8904657781,-0.8806586286,0.2294489496,-0.7715456026,0.8430027614,0.776482629,-0.9182134932,0.3631357187,0.7651106453,-0.4353887197,0.8433018831,-0.1502663455,0.1962257311,0.469344136,-0.1061593071,0.3708952791,0.7136936154,-0.8015543585,0.2258087919,0.6895658436,-0.2488433448,0.377562979,0.5616769812,0.2458986025,0.4191266887,-0.1275118304,-0.6588757912,0.820946124,-0.2686601608,-0.0946342248,0.0376539818,-0.8113508928,-0.2647410575,0.304266054,-0.5599689219,0.2823600534,0.2432477049,-0.1932149521,0.2230133981,0.1022544036,-0.9185638731,0.5545922122,-0.5600819739,0.2216078277,-0.7913283131,0.4783993828,0.0809194795,-0.6331472863,-0.7837011378,0.1145786314,0.361448377,-0.1138556612,-0.3843045657,0.7453888732,0.6109909001,-0.2200754511,-0.2675402824,0.5293336408,-0.6541651204,-0.6616031216,0.9530364379,-0.6191945934,-0.9369366102,-0.7614692372,-0.9278648084,0.04999348,-0.7903497298,-0.0894413245,-0.2851330973,-0.6127755777,0.8044501884,0.7940208549,0.6980564963,0.89455563,0.6501161062,0.4958223466,-0.217358469,-0.0431525451,0.6938839724,0.9714729133,0.1394267503,0.0924453049,-0.9408185469,-0.3427399245,0.9786750816,-0.4489431434,-0.2277269497,-0.5906628382,-0.2801980363,-0.6578909355,0.2021056082,-0.6638720419,0.7941864565,0.4491484318,0.0157116312,0.0366388285,-0.6946838948,-0.0119583032,-0.7958206263,0.3120741225,0.460023128,2.1560027497,2.0495996176,0.1495410447,0.0550891316,-0.0065393961,2.1861575161,0.1891759505,-0.8552811284,0.2463068682,-0.0005937357,-0.0003670242,0.0158946363,-0.1449276481,0.192070962,0.025403227,0.0645692863,0.9162690319,0.0855417034,-0.2411946599,1.0374776393,-0.0091446405,-0.5644202289,-0.0399006813,0.6813836571,0.3484229326,-1.1656481956,-0.2737047422,-0.126534555,-0.0699077686,0.5288398286,0.3143357041,-2.7778637617,0.5502578714,0.4939381677,0.3481681203,-0.2384676831,0.009366458,-0.3275089502,-0.3577604894,-0.0198962135,-0.1874697447,0.6164534602,-0.1483751165,1.2644875052,0.1739660387,0.0654053173,-0.092908243,0.0003150051,0.2270383855,1.3599378761,-0.1482995501,-0.0044113246,0.1546449885,-0.1207893918,0.0165903957,-0.0528761082,2.2108777856,0.0088223271,-0.7421022624,-0.2551894872,0.3933987253,0.0007171625,-0.68116649,0.0338856905,-0.6553286854,0.0085694005,-2.5425805566,-0.1414660644,0.0051228017,-0.0515893328,-0.2030512315,0.2339872553,-0.0092444304,-0.0113285338,-1.1839517814,0.045730392,0.0460272619,-4.3566196121,-0.2113694298,1.2807888175,-0.156012949,-3.8935466738,0.1208033811,-0.0513282042,-0.0007587897,0.0404189662,-0.0527872507,0.0074912781,-2.4257819873,-0.0406849353,-0.001783663,0.8818579219,1.3281124703,0.0676745625,-0.0000866013,0.0012542248,0.159948023,0.1067640131,-0.3442608881,-0.2912686657,-0.0727186692,0.3123625096,-1.3735496314,1.8586138158,0.606029495,0.0002564562,-1.4254894094,-0.1956070684,0.2374253269,-0.3747852713,-2.5516251661,0.0336673858,-2.4880548334,0.8019909167,0.0278744049,-0.0039068258,-0.1480414482,0.0579098586,0.0817882782,0.096024366,-1.2988281615,0.3626809094,0.6907334062,-0.3022651608,0.2825125174,-0.4778448343,-1.1223533048,0.1596118572,1.3001458571,-0.3859386603,-0.0140651352,-2.4638668495,0.1100210183,0.0335434077,0.0206090319,0.3053644946,0.3851782987,-0.3012900719,0.6640311109,-0.7961891714,-0.1851377084,0.4636484409,-0.4723374779,-0.3162002612,1.0673028811,1.8801562704,-0.033663845,-0.3166656982,-0.341911286,-0.344709762,0.1871378624,-0.2467104276,0.8395504629,0.373597756,0.3817620225,-0.432281872,0.1220629052,-0.6745270148,-0.5285568223,-0.8888551685,0.2537221017,0.0619794258,-0.2097356665,0.2176769527,0.0052232333,0.4984539714,-0.6873682973,-0.931514279,-0.0674225295,-0.1697752464,0.7633762783,-0.3109895262,0.3572788787,-0.0011621779,-1.0970525775,0.3686701287,-0.2278095123,0.4206356397,-0.1869490404,-0.8292125051,-0.1428133294,0.2930187344,-1.0441525311,-0.2421997954,-0.6715418998,0.0915796338,0.9396394437,-0.4136950451,0.1837185483,-0.362356267,-0.4799971463,-0.1907384303,-0.1063409348,-0.1742795526,-0.0312355572,-0.5935679519,0.079025411,0.0631949443,-0.1071167859,0.0971103682,0.0453446251,0.2395205605,0.3976078652,-0.7731977551,0.0191603858,1.6349518814,0.0225909217,0.7473618561,0.0061815964,0.1050714456,0.2410337778,0.3333002941,0.0948906274,0.4620334647,-0.1222393336,0.0950168377,1.056587463,1.2655518016,-0.6175721374,-0.0279918449,-0.0933686374,-0.4901525416,0.2889872663,-0.1896154156,-0.0958631502,-0.866080408,-0.1905580103,-0.0593301808,-1.365536512,0.1709155945,-0.6339328224,-0.4206257277,-0.0578638466,1.0152375289,-0.6667843316,-0.1309023261,0.5573489457,0.6390882856,0.8299150881,0.1808374294,0.0789061914,-1.0414260967,0.0092760576,-0.6403024272,-0.0024727869,-1.328310453,-0.8683452746,0.8256667117,-0.0285871361,-0.4322672208,1.2069254458,0.511633658,-0.1988056754,0.0764421306,0.9116289382,0.8040981264,0.2448933415,0.5094103268,0.2280580166,0.4709120837,0.4850213529,0.7347040696,0.9393362906,-0.2193022353,0.0669510946,-0.1484295744,0.0099303418,0.5733388966,-0.5074464906,0.1779622931,-0.1018432168,0.4309063093,-0.7918622679,0.09457067,1.3086387646,0.4247208009,-0.1512002765,-0.8840184701,0.3706108303,-0.2597349336,0.99370712,0.0881863732,-0.3557436674,0.5091425952,0.2879278872,0.0910040795,-1.2421261752,0.3617103124,-0.0868429511,0.4448688336,-0.2796511505,1.2600777023,0.010896539,0.2182363439,-0.0406642907,0.9490670786,-0.0324599979,0.9614475265,0.4080249424,-0.347703826,0.0870650296,1.0110099865,0.3541144772,-0.0415164483,-1.2334392295,-0.772138859,0.6438893226,0.8067774549,0.8753774307,0.002609652,0.9117944007,-0.369823723,0.1959992645,0.0890159167,0.086468362,1.282561935,-1.0592043433,-0.3392566392,-0.0098327168,1.2728065089,1.3768753244,0.4706504224,-0.0004114602,1.3609502827,0.1793080384,0.1498662696,0.0899941938,0.130790231,0.0401019592,0.5131192872,0.0468395198,0.0960987336,-0.3750692412,0.473913855,1.1023758615,-0.7763991008,-0.4527727006,1.6455898066,0.2475922026,0.0257750108,-0.2361375348,-0.5336549411,0.5547288549,-0.0466886344,-0.2181223787,-0.7507001392,-1.2357252729,-0.142273961,-0.9461780329,-0.7185289405,-0.6274440204,-0.3731941306,0.0532541585,-0.3129087099,-0.038711936,-0.0790503447,0.4193743228,0.4001240942,-0.0450637401,-1.0359349522,0.7997138131,-0.3629158015,0.5872627055,-0.0855569559,-0.2722339454,-0.4174166872,-1.0784469311,-0.0065430388,0.2172666228,-0.265799644,-0.3406517542,0.1911163927,0.051335229,-0.0110734115,-1.2204608828,0.1490755351,0.2117876633,0.126821496,1.0313726914,-0.0059546503,0.1932298743,-0.0792335049,0.6643180758,-0.1296847808,-1.4005619182,-0.2152984048,-0.3921414891,0.0097929905,-0.5716965043,0.1446290602,-0.6351358934,0.0291892652,0.0006609219,0.311318689,-0.0921495413,-0.1506198399,0.3963467299,0.2561684899,1.387138781,0.1209902181,0.7525688915,-0.0686827349,-0.8236506677,0.0450558389,0.092607183,-0.4535721546,-0.5761246646,-0.3266044742,-0.7678722382,0.1098087183,-0.1662817019,0.4186399144,-1.5496211528,-0.0215441251,-1.2815438756,-1.0621877283,0.5806487986,1.6438829863,0.0253520306,0.1828351051,-0.2605182447,-0.0437858,-0.2791602128,-0.012027876,-0.0606255793,-0.5019976302,-0.8828984564,-0.085727988,-0.0407060589,0.9688051954,-0.2421674552,-0.0582528555,-0.5709254223,0.3651488811,1.4824050854,0.3125700909,-0.1727415844,0.1012608561,0.2186012176,0.0489564949,0.7358620851,0.7643875605,0.0171251762,-0.0000041439,-0.1888772162,-0.4736250839,-0.336743458,-0.3428546691,0.3332535666,-0.4799864494,-0.4059429545
   -0.0532814705,-0.0714175382,-0.1583535232,-0.0930759332,0.1127552547,-0.3373098951,0.2761438494,0.1199299589,0.4473570997,-0.0661169321,0.3722378791,0.0832750758,-0.0720168566,0.0020485315,-0.7415660167,-0.5633023657,0.0813611716,-0.3333880458,0.0429117297,-0.0092111664,-0.5661061611,0.0042241626,-0.1512198247,0.122511243,0.3144221536,1.1782476862,-0.1432068038,0.4841331404,-0.3378818029,-0.1642771805,0.1751027096,-0.32291427,-0.1544450718,0.0717310837,-0.1549744857,1.0353077185,0.9002148019,-0.1052236858,-0.3172689489,0.0131029613,-0.3933301808,1.4946457198,1.0917924648,0.1328807413,0.637479297,0.3164876767,0.0447173374,-0.1969573173,1.062732195,0.5149529851,0.0553647854,1.0697953251,0.5569448884,0.2919931435,1.7693441071,0.3070179921,1.0574125069,0.2813851964,0.72696115,1.7042519643,0.3456235527,1.282994012,0.1609514195,-0.3254062709,-0.1814437594,0.3609361649,-1.0494772216,-0.5220445623,-0.3938901719,0.0814584879,0.7983813933,0.0947616672,0.3624803267,0.0607068754,-0.566343186,0.3554856906,0.0536528469,0.2617305392,0.3396131587,-1.331673555,-1.0818745099,-0.2676128843,0.5021426782,-0.8285711097,-0.3287935488,-0.0750835561,-0.3991810918,0.0018303008,-0.4320294608,-0.0161883289,-0.0546920214,0.0423520706,-0.7033198895,1.4010099413,-0.2303402919,-0.7314160172,1.0610174836,0.700586496,-0.8763118497,-0.489060637,-0.2694262435,-0.1517380931,-0.1651942023,-0.190316396,-0.3867667502,-0.8039942132,0.5919255365,1.4703670201,-1.2331888051,0.1272484059,-1.1951891004,-0.9521644788,1.5742357233,0.4039986299,0.6595205498,-0.7279884648,0.42354487,0.0629139744,-0.6432513911,-0.001718805,0.031025144,-0.4005045799,0.0254615128,1.5378548117,0.5121073503,0.3601945758,-0.2249492662,0.2394743085,-0.0630885326,0.7721695195,-0.4377477762,1.7868816862,1.5976591014,0.0162528439,0.0394837347,-0.7124232811,-0.0009845763,0.8730940883,-0.0971789904,-0.1548392121,0.2555777214,0.1982746465,0.5099619119,0.1080089539,0.4445843827,-0.0097462249,0.0132647989,0.4609529858,-0.5713512939,-0.8064051637,0.5251850542,0.3859166515,-0.4915566069,-0.2233868357,-0.1845610127,0.0764715516,-0.4540878384,-0.0482084847,-0.4156366327,-0.2609312124,-0.1281913477,0.0315668863,-0.0496033312,0.6992104534,1.335222853,0.0422701228,0.977425986,0.5750107999,0.0615041079,-0.141848993,-0.0887226827,-0.3295078318,0.8045409257,0.0635812118,0.5640191536,-1.1270734018,-0.6625631098,-0.3676483895,-0.0674509063,0.1077328643,0.838009117,0.2245817829,0.0143279612,0.5168402584,0.2492167221,0.8554624584,0.6068296149,0.5149053032,0.2213000733,0.1832143568,0.1338508889,-0.875423243,-0.9361792672,0.4911714518,-0.6890402579,0.1413472999,-0.159529102,0.168576088,0.7684203314,-0.3662448368,-0.8680585847,-0.6197741655,-0.8039858551,0.5842366423,0.8751306628,0.1963474927,-0.3917303834,-0.2900742194,-0.7315322744,0.6991447861,0.5763646843,0.1500633306,-0.4322160927,-0.6036148819,-0.5365779095,-0.131911541,-0.0018887843,-0.7609535692,0.2079880657,-0.7173423244,0.4105432838,0.8616679781,-0.8771767498,-0.4594282923,0.3957346203,0.9104993916,0.2400944708,0.2972822292,0.529374175,0.8376916343,0.3164511923,0.4187043277,-0.5304373041,-0.5178298194,0.2272829365,0.7251063693,0.4384941227,-0.4895293236,0.0904832272,0.2849949285,0.6080274336,-0.855336834,0.2999234199,0.5634650437,0.1706758705,0.7689555302,-0.9745050892,0.6065497634,-0.5865666201,0.7960501429,-0.9744196458,-0.1651368286,0.5346684304,0.9858637336,-0.2353090315,0.8301733653,-0.539363464,-0.0866289008,-0.4013872209,-0.3041539438,0.4793373068,-0.3941908785,-0.6598324289,-0.9854468519,0.2126625294,-0.7827834999,0.9164775953,-0.1446471528,0.0224334563,-0.2833455064,0.8304415083,-0.56624614,-0.7328207471,-0.102440596,0.1124679047,0.1257079176,-0.2026270953,-0.3471994498,-0.4843069882,0.3512315498,0.5349271209,0.434490063,-0.2549837711,-0.7145634858,0.4005511529,0.1515390888,-0.6123152488,0.9986423163,0.9481551459,-0.7719237339,0.8897022096,-0.6572976984,0.8376068669,-0.0922823701,-0.0919855956,-0.2072605377,-0.2880920161,0.0281160547,0.4792571302,-0.8919290002,-0.4455122768,0.6764085345,0.0321348303,0.6397157431,0.7415488397,0.346113886,-0.1432399209,-0.9477023521,-0.9909285848,-0.0453163168,-0.3444427656,0.3676586977,0.0016392465,0.4710431541,-0.9384813337,0.5534296075,-0.5542740807,0.5662217234,-0.6840571567,-0.1718260984,-0.3578362065,-0.1266897035,0.7032583752,0.5120485537,0.1015311972,0.4678563146,0.4244189802,0.3241183734,0.7098192073,0.4248269325,0.5096323072,0.0342596175,0.2302487234,-0.7248535376,0.7266307795,0.3319265293,0.6788271068,0.5044772574,-0.2831438924,-0.9679179036,-0.143813163,-0.4191115027,-0.5504099681,0.4530415693,-0.1093650599,-0.7181041331,0.561591451,0.506613884,-0.2959302645,0.756483587,0.3947035435,0.0810215566,0.7000395943,-0.9485110703,0.2487384928,0.2946871862,0.4537848343,-0.5292089637,0.7714389037,-0.2703447293,0.8849193232,0.0716239293,-0.8963149363,-0.1630045656,0.2078831625,0.9242204163,0.1416249253,-0.9856194981,0.2767577856,-0.6484570011,-0.557567485,0.8668224292,-0.2606606943,0.1836630988,-0.2044611464,-0.024642128,-0.3800353741,0.7867908354,0.043558896,-0.1335438068,-0.4574830364,0.8018560621,0.2298148735,-0.0957102633,-0.7603525699,-0.3785586512,0.74606831,-0.4688219532,0.0603051232,0.871765654,0.081442528,0.4369245156,0.2315051638,-0.1696331674,0.0642780764,0.7912503729,0.284282125,-0.4452948262,0.9168809166,0.0387863802,-0.6373312678,-0.0339775877,0.8532643222,0.3736385596,0.7963064268,0.1295388725,0.8721026857,0.1951885275,-0.9817643437,-0.6084718083,-0.1431178937,-0.0250809026,-0.5661712866,-0.7078586371,0.285739729,0.7380111232,-0.5819727306,-0.6126095202,0.9440107414,-0.418256197,-0.0301238541,-0.0659484169,-0.3746857639,-0.7613527177,0.8714133234,0.7507427522,0.1183368256,0.8239050014,-0.2297341182,0.7364980622,0.4495381911,-0.241408664,0.7538819405,-0.9239390061,0.8719976989,0.6471139864,0.3149908842,-0.0749143229,0.7675120322,-0.6810482362,0.4205550504,0.7608907132,-0.0663704035,0.8042785104,0.3996575488,0.5979227176,-0.0380632333,-0.431034111,0.6062930566,-0.3665532988,-0.1841248273,0.6880621622,0.8593787049,-0.4281349463,0.7968944148,-0.3748443931,0.8197749487,0.7855126768,-0.6975236477,0.5757271026,0.1229140433,0.4108000345,-0.0136389516,-0.4344632946,0.2531816885,-0.3814691127,-0.406537502,-0.9894791891,-0.0368366744,0.9124425143,0.393920161,0.5698846743,-0.8862937901,-0.2702087049,0.26479579,-0.2698056928,-0.0092670258,0.7989220407,0.8693869396,0.7032898181,0.0331972326,-0.2649607182,0.954416748,-0.245209513,-0.6077465821,0.6814920096,0.3333095469,-0.3718799363,-0.8191663124,0.3324960507,-0.8228449877,0.052443262,0.897329846,0.9430408428,0.6716526286,-0.1247414119,-0.4695499589,0.5371916132,0.1959306506,-0.5343811588,-0.5710084707,0.8208372739,0.2148558343,0.4556518272,0.0741864056,-0.7277915674,-0.2972484981,-0.2695911022,0.2093240638,-0.6044118409,0.0167336319,-0.4302473881,-0.0590730575,-0.1297698392,-0.9511651336,-0.8604132379,0.3030322557,0.4981688972,-0.8934291364,0.6789370856,-0.9810550039,0.9061923223,0.0036810346,0.8240715589,0.8482731905,-0.9294928612,0.7978946588,0.6195836167,-0.6037158711,0.7877134104,-0.0475548725,-0.9623870851,-0.1080145909,-0.6479947763,-0.5302376484,-0.0118018175,-0.7973750372,0.0856539125,-0.6231072626,0.819881335,-0.5042961136,-0.2572080851,-0.248302075,-0.5022429817,0.0128980359,0.2726091913,0.994853326,0.9521059228,0.9835635373,-0.9587147732,-0.7887563382,0.3557324819,-0.4937656413,0.7420096608,-0.0927796745,-0.239298108,-0.7767909778,0.008577843,0.4992176499,-0.2923531805,0.6370463269,0.1572487847,-0.5615332257,0.9912519716,0.5459324775,-0.9002646432,-0.7777556151,1.2832790145,-0.5365871465,-0.6454931542,0.2223113116,0.8029712185,1.2170429133,0.0089740961,-0.0448125978,-0.5460385858,0.086510643,-0.4954198425,0.8361459368,-0.5517216245,-0.1536223575,0.6186032853,0.1052505811,-0.6764909573,0.3464586308,0.0426036256,-0.1798756805,0.235441055,0.4379657556,0.0687537272,0.1730703241,-0.0245970999,-0.0990238454,0.0383925236,-0.8333650059,0.2484766993,0.0285917551,0.651196924,0.3779090907,0.663533546,-0.2638058209,1.3466203928,0.2234455921,-0.5107068141,0.8837983708,-0.1917883808,0.0529232599,-0.0728059515,1.0065467659,-0.2554303073,0.9966268568,-0.351734481,-0.2910580234,-0.126272217,0.0025029815,-0.210798724,1.0610723918,0.0237509373,-0.7757599466,-0.1895619912,0.1917189081,-0.272177595,0.1379610861,-0.4066531368,-0.2164637165,-0.2552209213,1.3212887303,0.3162605288,0.6410785439,0.2315613724,0.132788103,-0.3810877791,0.8280752347,0.0455911944,-0.0175397509,-0.8351096464,0.6936873426,1.7882529095,0.3698336813,-0.5740753111,0.3471664409,0.149148321,-0.5553911323,-0.0479543686,0.2345983028,0.3864374017,0.2045137684,-0.18037119,-0.0878036309,0.648275786,0.5026579182,1.2923190687,-0.753532433,0.5647332332,-0.0232199375,-0.0041018365,-0.8587714677,-0.5749889156,0.0354162807,-0.3549193706,0.2554656824,0.0186501543,-0.0539332711,1.0429699979,-0.6929719312,0.9183560796,0.704593799,-0.277400939,0.095692404,-0.3329156004,0.6065690422,0.2224724287,0.0891286531,-0.2224108803,0.7064281111,0.2108318762,0.2296261136,-0.3068028026,-0.6871288169,0.6157554345,0.4028011372,-0.4059755937,-0.1844935042,-0.371713033,0.0343471286,-0.0100383463,-0.523659179,0.2693428356,0.1215937062,0.6580021787,1.4063614943,1.559984558,-0.9166757928,-0.0232377801,1.1102166789,-0.2414910495,1.1105872611,-0.0926430827,-0.0751821035,0.0260191358,0.3353568868,-0.9942400101,1.5905160425,0.8252520314,-0.1394495812,1.5905217048,0.0469737919,0.7740872506,-0.0714717437,0.0713517177,-0.0406920265,-0.3909356931,-0.1492287,-0.0003316311,-0.7902464512,-0.7926122897,-1.0161201578,-0.0900000523,0.8789107765,0.0091975949,-0.2691644683,-0.388332655,-0.6343357725,0.1228852429,-0.6645995082,0.0016715549,-0.2619653551,0.2560601025,-0.093724031,1.126340585,-0.8899973111,-0.120029917,-0.8587656821,-0.0017537575,0.1581774653,-0.1473543756,1.0329876971,0.0581711218,0.0883331994,0.1995114217,1.1630519777,0.3006682735,0.4727516148,-0.4957933391,-0.2349215525,1.0515288639,-0.1201383146,0.5915574173,-0.1518200149,-1.7715711713,1.1474149363,-0.2884897638,-0.2827514771,0.1819444857,-0.1571372944,-0.1493947151,-0.0146777983,0.6246099285,0.0268718135,-1.1919833562,-0.5728628497,0.985441814,1.326346529,-0.3181688135,-0.2985953607,-0.5220803519,-0.9958333965,-0.2804103808,-0.00735308,1.1646586674,-0.0246042391,0.5687461185,0.5968511758,-0.9909212857,-0.2216343529,-0.1493153339,0.0286615513,1.6239200017,0.0448344213,-0.1394608711,-0.6169024461,-0.113146913,-0.3120753048,-0.9231509171,1.1642467556,0.4279243778,-0.8048266815,0.0257172279,-0.4292445623,1.2726398093,0.197324202,-0.0627119235,-0.0786708083,-0.1804755733,1.2855456822,0.3322160901,-0.9000745965,-0.1242016145,0.0064619351,-0.4897571255,-0.0042996083,0.7130943632,-0.0784054993,-0.5369006601,0.4422950772,0.3116806947,0.329152749,0.2514392092,0.5011540008,0.0309258856,0.8379928763,-0.1818322497,-0.5333430787,0.2102157159,-1.0452263393,-0.3800204031,0.2388092189,-0.2319430421,0.335646629,0.2841430604,-0.1759921521,-1.54208073,-0.1263639915,0.1279342851,0.973661086,-1.2341978685,-0.9283276874,0.0041187752,-0.2790994018,-0.2383348306,1.0059915035,0.7155692162,-0.0320142371,0.057713844,-0.2709517711,-0.1288034313,-0.0942631079,1.1958950606,0.0463064921,0.0606132236,0.5247202141,-1.3425140392,-1.4938121249,-0.2597572078,0.0741297065,-0.0974423869,0.9309519516,0.5110231463,-1.1420775982,-0.7197199303,0.5700271659,-0.4985359097,-0.1646392474,1.1405671837,-1.2380260392,-0.0340957467,0.004500702,0.1282984193,0.3135295452,-0.0025919751,0.4895589364,-0.6669709756,0.1117996456,0.6566575016,-0.1032523979,-0.5669166011,-0.6456531452,0.8538552409,0.2273949632,0.0505087048,0.1762434044,-0.7789986255,0.0403331438,0.5263130846,-0.7630930056,-0.0750118688,0.65816121,-0.0942481818,0.0401129117,-0.9158874611,-0.3851524026,-0.7475225912,-0.8504350638,-0.1664191442,-0.0992679228,-0.0254865399,1.2465759656,0.2614021338,0.227314576,0.0292987659,-1.3433010014,1.0424103106,-0.372141096,1.0480760182,0.5418660576,-0.2139216638,-0.9693445465,-0.0010454492,-0.5361215525,-0.3206531602,1.3010527934,-0.0775594264,0.5912108736,0.0486835506,-0.0282041289,-0.1457486647,-0.5266644098,0.4874473828,0.8906583983,0.036974844,0.5965326847,0.3196752208,-0.3812450391,-0.1853211966,0.5267851648,0.3021366322,0.1278711585,0.9450305254,0.5102298718,0.9112674059,-0.2280702569,0.60331866,-0.909507661,0.5786566277,0.4585452543,-0.5620400662,0.9620364279,0.5658608681,-0.344854227,-0.3963671387,0.0536945433,-0.7879282336,-0.6067486626,-0.1616985191,0.8026369781,0.2706334364,-0.6899275959,-0.9338879848,0.1181086713,0.9318288848,0.8716700626,0.0771144299,-0.1135215034,0.3323144092,0.5754355644,-0.703653521,-0.8330660508,0.9846413573,-0.2867727301,0.6639003504,0.8804134666,0.1513785968,-0.0761711034,0.7791351105,0.0445379761,-0.6912889173,-0.7054279449,0.7241103318,0.1991572439,-0.102670597,0.6406434279,0.2168718597,-0.2399407774,0.4113292672,0.3625020278,-0.4127787317,0.3771187639,0.9957117977,0.7640021718,-0.168576806,-0.5545614391,0.5035122782,0.663419041,-0.3271881193,-0.8548707727,-0.2022482443,0.0068188077,-0.2168332314,0.9038786803,-0.1179449399,0.6598818898,0.8625882049,-0.3078113966,0.3314856241,-0.226657446,0.6055950553,0.9932002977,-0.796933788,0.415065574,-0.5752695815,0.1644369282,-0.2357589655,0.2764026655,-0.0546153444,-0.0178390551,0.2396228418,0.7706210113,0.4195893174,-0.6854721125,-0.2329018424,0.8134438124,0.1664299806,-0.9510372604,0.058110318,-0.6247665342,-0.9588137168,0.7024910194,-0.7855195574,0.2267872987,0.1788085103,-0.752975798,-0.8809213231,0.4496279921,-0.5571991334,-0.8575888301,-0.4397991667,-0.8719393148,-0.0879212181,0.7162929611,-0.0152386118,-0.5464332923,0.2418992796,0.7512334454,-0.1954737181,0.7778363396,-0.3574503672,0.5493750125,-0.9159188872,-0.9659501868,-0.3791034319,0.1101647627,-0.3268379776,0.5086775135,0.8948327402,-0.9200731001,0.3828997493,-0.3286995228,0.5298503115,0.6454326874,0.6529658177,0.0366823537,0.7996050504,0.023521813,-0.6404650461,0.3772218077,-0.6694793345,0.4523598588,0.9125938974,-0.1303156095,-0.260868819,-0.0756673922,0.3861990229,0.2398078841,0.9846429017,0.9106210044,0.203447197,-0.9247876407,0.0087202516,0.7011017265,-0.7032460659,-0.6705527819,0.4629019543,0.9452196915,0.7812934711,-0.7644092907,0.098210789,-0.2264745751,-0.2576624856,0.4356693315,-0.7082320534,-0.1636796966,0.152459193,-0.5028047809,0.8498783727,0.6474140658,-0.433511706,0.6943566266,-0.6218364892,-0.7933441603,-0.7708991521,-0.5009224138,0.6511262695,0.0533173839,0.8722314113,-0.964276472,0.9083403014,0.3974926968,0.0045093329,-0.9420331807,-0.3928485311,-0.9559500266,0.2453471355,-0.3791435045,0.568303034,-0.3354627003,0.938388618,0.4176342104,-0.7177674454,-0.3303326273,0.6193913911,0.8509475245,0.3973152165,-0.617077117,-0.9630733522,-0.7336690366,0.2870501255,-0.5906269588,-0.6908351594,0.5451570065,0.5253101419,-0.5612557821,-0.9573690149,-0.1838941827,-0.8755075375,-0.4332032432,0.3095077919,-0.5553320804,0.4918270726,-0.0909955202,-0.469805044,-0.9872660999,0.5803362756,0.6889638758,-0.1657653572,0.7748810888,0.8548813024,-0.7355181672,0.8419366218,-0.7773956298,0.5797776537,-0.6617972495,-0.0595373325,0.5852588982,-0.3151616712,-0.4047914811,-0.9976881305,-0.8718776068,-0.5413933876,0.1678481907,-0.3468276968,0.9460078112,-0.7143052184,-0.6591952203,0.6901647459,-0.8235494842,0.5451607028,0.326441678,-0.5924803459,-0.9107639413,0.3518408633,-0.2951897591,-0.0367674004,0.3516371238,0.3047317657,0.737405076,-0.0171891068,0.367675389,-0.6527738307,0.8338744493,-0.7313524737,0.7195381555,0.1240768817,0.5325828966,-0.6003432283,0.4385126705,-0.2304075956,0.0960381325,-0.3691996408,-0.3265718762,0.7721785424,-0.1097600415,0.0035800315,0.897959718,-0.7531765381,0.4784044452,-0.8299670414,-0.0851929868,0.674318266,-0.2722404875,0.5053621373,0.5589816943,0.0438943762,-0.4519779311,0.4009173539,-0.8341222719,0.1511410659,-0.3002799219,-0.8584845955,0.9616372796,0.5318063431,0.1086312034,-0.3320328392,0.3529344617,0.3381862362,0.7837263792,0.5737052201,-0.1045816128,-0.8283866691,-0.8994771706,0.4876612282,-0.8040860897,-0.7068879638,0.0564340715,0.2225770917,0.5511458422,-0.2439952901,0.2787946372,-0.3944809318,0.5626863311,-0.5903326882,0.4900337156,-0.0382224743,0.7545029921,-0.2788235934,0.4414060798,-0.7190655731,0.7123659803,0.4082386486,-0.7873349203,0.2158264294,0.54530024,-0.1921925318,0.8112769374,0.2322948369,0.1657937624,-0.9188446791,0.3120279614,-0.9387641267,-0.287701112,-0.9154507691,0.4295082677,0.363609195,-0.1624261896,-0.8205401709,-0.759369368,-0.1282061442,-0.1153552366,-0.2227763932,-0.9127194374,-0.2300378969,0.5254649814,0.4349044982,0.0321030533,-0.0965794728,0.2280912843,0.190561816,0.3766154002,-0.3861963382,0.2798256372,0.3496942988,-0.878521669,-0.6874145162,-0.4692004728,0.7612783164,0.1766607891,-0.5732213134,-0.2366737856,-0.2520401096,-0.3616185918,-0.2146842479,-0.039629173,-0.7619374582,-0.0663063228,0.9618236785,-0.3567007901,-0.3970377885,0.2451844293,-0.1357515749,0.7479635442,-0.0946577838,-0.4484363925,0.3410297015,-0.26518091,-0.4023733974,0.0398471703,-0.3710773868,0.612034542,0.543951858,0.3444208402,-0.0365683128,0.1475644302,0.631953786,-0.8620557685,0.8286274535,-0.0733674582,0.0330489689,-0.1226686831,0.7462779132,0.0470335793,0.2405643722,-0.5181105721,0.6193317638,-0.0377705841,-0.0635832873,0.7560716064,-0.8669860514,-0.3795135423,-0.2851646997,0.5140700847,-0.9548500688,0.5755098009,-0.924676043,-0.2437369427,0.1260659877,0.9902260367,-0.2062878048,0.8082049996,-0.8148166419,0.3790360426,-0.5893321933,-0.6630521813,0.5979891212,0.7991022953,0.0435402425,-0.5329353445,-0.3205055549,0.7832273521,0.9679673394,0.4931086744,0.4990783258,-0.8878090543,-0.5800200907,0.7143798613,-0.3442647229,-0.7735674899,0.5683792506,-0.7376313516,-0.0241285426,0.1212211951,0.3730871419,0.0478924916,0.204737442,0.361094077,-0.2555484003,0.9630118544,0.3626462699,0.0801802519,-0.9474617009,0.4470728114,-0.0738373272,0.1198341802,0.9364673143,0.8019708152,0.8204976515,0.5911217051,0.2805078937,0.4385341937,-0.1287493182,-0.9465270699,-0.4756930433,0.7014114343,0.4486323136,-0.9934039324,0.2557581177,0.5860221992,-0.445229617,0.9293541562,0.6091263974,0.9515474663,-0.7483780063,0.8739725819,-0.9884418859,0.4781171709,0.1326848637,0.6515819308,0.0748383375,0.7895812601,-0.1274434392,0.1620453759,0.6848128423,-0.8510953302,0.0826554284,-0.3582092678,0.7641794643,0.0729408848,-0.3006648333,0.4472785007,-0.17837011,0.3478934138,0.2329193889,-0.3410563979,0.8844445249,0.328136842,0.179145125,0.23824169,-0.2220872328,-0.7437928896,-0.0233404809,0.2582934583,0.7775493247,-0.1959821738,0.6260059274,0.5417759673,-0.4585953605,0.5375300047,0.833591232,-0.8539225796,0.4536733417,0.1156937007,-0.7454296809,0.825307189,0.3759897811,0.7666420411,-0.6918355036,0.8643962381,-0.0222508608,-0.2960548133,-0.6728280857,0.187279591,-0.6001432146,0.5757086187,0.2110399435,-0.683905647,-0.0953569969,-0.9150430528,0.8508845152,0.069512988,-0.240021514,0.1205022033,0.1541232733,0.7621201433,0.3293636882,-0.571630269,-0.4102895468,0.823223679,0.9030842011,0.2256336121,-0.1418090506,0.6789672582,0.0710763675,-0.8437367743,0.3540262312,-0.9001145861,-0.9877575324,-0.6830989858,0.1927380609,0.1990478465,-0.2474194847,0.2458565256,0.9575102859,0.9662963927,-0.0607442782,0.0897415869,-0.6898166937,0.6360085978,-0.1249079811,-0.4795943892,-0.4460922149,-0.6426064058,-0.6960719392,-0.5151874785,0.7514645048,0.0867290772,-0.3668284424,0.5555053452,0.8850460428,-0.0228473548,-0.1916326423,0.907633993,0.0974866419,-0.5558690042,-0.4489764429,-0.0731815902,-0.45938673,0.8122635375,-0.2683732564,-0.5551676231,-0.3888502389,-0.6639613365,-0.5468027616,0.2461074893,-0.1148090625,-0.4784291986,0.2612691668,0.9487734874,0.6136662229,0.6242554543,-0.6285639687,-0.1000615847,0.8391248788,-0.799302305,-0.741322245,-0.1147899939,-0.2031643531,-0.2959618332,-0.0939411304,-0.0854997906,-0.6037283247,0.2508363919,0.9395456366,0.2893900526,0.077760046,-0.6333347887,0.3375179755,-0.8835960755,0.9428973033,0.11893649,0.7316093907,-0.9558154024,-0.867212618,0.7817241459,-0.121236923,0.8071001444,0.4722978776,0.7845202802,-0.7008201475,-0.6935101245,-0.4268658009,-0.1827026536,-0.4447310267,0.7991160465,0.2314779302,-0.5086615733,-0.1665175749,-0.011742323,-0.1085407456,0.4393095677,-0.6101930397,0.0718071647,-0.2306131571,0.2067439412,-0.6993643494,-0.9311039483,-0.2508421194,-0.9942881497,-0.4146028745,0.4687028166,-0.6433668378,0.5450542749,0.3899993664,0.9233448318,-0.5801410535,-0.9667116895,0.1634367917,0.8618648858,0.64345386,0.2594082391,0.5695716704,0.3168656275,-0.5977325908,0.7677799955,-0.9623123347,-0.625525663,0.1260214608,-0.0864467377,0.5219921001,0.2474718392,0.9420859933,0.1466624574,-0.4915113171,-0.1916116748,-0.1613400716,0.5030074823,-0.2248788609,-0.3340804009,0.7438869744,-0.6938249695,-0.4513242358,-0.3221411455,-0.1224586532,0.0159711952,0.3404935541,0.4813665493,-0.4937215554,-0.3712125183,0.6146148607,-0.8320143344,0.5815168109,-0.3083709216,0.5893415279,-0.3284805275,-0.1808535775,0.2200176751,0.3275791238,-0.8626234956,0.5406406251,-0.0376055896,0.5927935357,-0.1613135084,-0.9302626422,0.998873438,-0.9451944208,0.1026930328,0.1461084789,0.8003409707,0.6418758903,0.4134864644,0.3590087795,0.5709747475,-0.4077995795,-0.3556607395,-0.4841563029,-0.9698926473,0.8838221068,0.0934575346,0.0566118694,0.2288230861,-0.3967150927,-0.2128933478,0.5015435118,-0.9039557918,-0.8112600119,0.4584026248,-0.1352877388,0.7241046484,0.2469910637,0.432774185,-0.9539204122,-0.7013563457,0.8978743404,-0.4305630246,-0.4779114788,0.0205971515,0.158930643,-0.1143407426,0.2393232043,0.3486634402,0.8635674947,0.1480375517,0.108994351,-0.5499209598,0.4581480142,0.1490292381,-0.13011429,0.5539063947,0.3535394246,-0.690943408,0.4704279891,-0.9271707833,0.8472337414,-0.6108120519,0.5525799086,-0.3513548639,-0.8947485326,0.5024984544,0.3212618314,-0.8276129657,0.8896498118,-0.811353991,-0.0123332297,-0.1374934828,-0.3540843745,-0.5920206359,-0.3874224975,-0.4169617266,-0.8442919583,0.7099429109,-0.0468809967,-0.7215948595,-0.322234919,-0.8589585816,-0.9372957248,-0.9354162347,-0.8512861436,-0.9181661845,0.5770337762,0.391662069,0.6845450931,-0.7394010221,0.7730584883,0.4309580798,-0.0767363305,0.6180155477,-0.3846481374,-0.3204372486,-0.4290007475,-0.2434677151,-0.4664497593,0.4135573651,-0.9378833043,0.2401198866,0.2196114687,0.8566925207,-0.4957578523,0.5878348076,-0.245315582,-0.4744537024,0.3401674165,0.2116716278,-0.6683417179,-0.734334231,0.8245934932,0.9357294731,-0.7144827049,0.1200417091,0.600873034,0.5586277736,0.4362022488,0.8407742106,-0.2465594691,-0.9936786185,-0.3486508397,0.5282698609,-0.1280037764,-0.2004885628,-0.5639501365,0.904382222,0.4234007691,0.2956147215,0.9210243363,-0.6750516491,0.6926684914,0.4030967579,0.0281209515,-0.5526420438,0.2352492549,0.2038881813,0.8869324629,0.6337507196,-0.0498653792,-0.5396327041,0.5002746631,0.0164436388,0.7738327255,0.9508137505,0.1063386798,0.6484108511,-0.6805974703,-0.7694670665,0.2334661201,0.4363778082,-0.4560473575,-0.4973073371,0.9169652984,0.1473763337,0.3668969818,0.2883965032,0.674537033,-0.094327836,0.2976690914,0.5208713865,0.258222753,0.2581666045,-0.9198443345,-0.310968195,-0.0915010031,-0.1879642683,0.7726795489,-0.9534239827,0.8531901261,-0.4718298872,-0.8678866616,0.8999584232,-0.000930677,-0.0504526847,0.2435693277,-0.7692001192,0.1556974088,-0.2552943071,-0.0441491856,-0.9431122031,0.7441580289,-0.9443554886,-0.7687954124,-0.3505115302,0.9707242908,0.1300121851,-0.8729904117,-0.5797920829,0.8607229754,-0.7923020837,-0.4228095483,0.3506555043,0.7004366178,0.4954987127,0.9469464295,-0.0987043769,-0.9484507895,-0.826507505,0.4989125567,-0.7512229019,-0.5180110432,-0.6621022378,-0.9169552872,0.3289328756,-0.9103586925,-0.4290000963,-0.6787498551,0.4616868978,0.4303802993,0.8114239345,0.4175050872,0.0795006822,-0.0060428522,0.2109959471,0.4291743336,0.4025650656,0.1282215922,0.002441122,-0.0007982007,0.207470704,-0.3217514095,-1.3951128733,-1.1977804796,-0.1096166778,-0.0063542265,0.3589488858,0.1699572574,0.0013233038,0.2043751819,0.2500500784,0.1173841162,-0.0038224862,-0.679055816,1.1669778866,0.2003555195,0.131018111,-0.1215848943,0.1285517263,-0.9234980867,0.1166930532,-3.3133705082,0.2866800249,-0.1664563652,-0.1254846435,-0.0211308463,0.1397685145,-0.0515152919,0.9690678467,0.6557351614,1.5768969138,-2.2174424138,0.0915147839,0.1324406077,0.1245905013,0.5649710552,-0.1663608749,0.0000558488,0.071012245,0.337982306,0.6871344164,0.0897435532,0.1466932801,-0.2790816266,-0.1437801349,-0.0054458787,-0.2648441038,3.2681568838,-0.2107238782,2.8240037277,-0.2699885207,0.1444366499,-1.7658253625,-0.930430109,-1.7090239794,0.3315912433,-0.1844763692,0.1635710961,0.0233237856,-0.002876437,0.0558875339,-1.3887824096,0.0374917987,-0.7477087537,0.0529398295,2.9681625444,-0.0293342583,1.2513961303,-0.2098584969,-0.4109660318,-0.011760368,-0.0359864844,-0.106483893,0.4535623643,0.8178388731,0.0241538628,0.217358597,0.1187076029,-0.1798260608,-0.0786366271,-0.6785333262,-0.0633156165,0.8736089088,1.5545885464,-0.0249089195,1.8977457606,-0.0294221085,0.0305033735,-0.0321807413,0.7685937115,-0.0283817686,0.8373648067,-0.0096092885,0.1009419167,0.3648151793,0.0163089321,0.0954416465,-0.5619881639,0.0193862155,-0.1419430753,0.1263454237,-0.0003758935,-1.732317122,-0.0207039004,1.4929986807,0.0874014361,-0.2985888918,1.4208336605,-0.0098173278,0.1449244771,0.0466412785,0.0273974195,0.3404862145,0.757209592,0.0578593591,0.012746615,-1.2573071082,-0.0586106302,0.0027461011,0.0113194487,-0.1533953718,0.1874972238,0.9767003331,0.0422769025,-0.5924278923,0.6286746932,-0.4006079098,0.9498595817,0.0247085241,0.0776386433,1.739733875,0.0674967643,-0.2433942437,0.0434106737,-0.7080323353,0.7524078641,-0.0112130319,0.0375770981,-0.2025089037,-0.5570261361,-0.1163117934,0.7486521697,0.0030708761,-0.3637564471,0.3367386122,-0.417830287,0.4907196133,-0.0522701539,0.0429131465,-1.1854702411,-0.0783496172,-0.2187122603,-0.0015466786,-0.5515733927,0.130858137,-0.213138418,0.0332070871,-0.1042826543,3.3510913508,-0.1734704643,0.006384117,1.1437629669,-0.6183660359,-0.1552648201,-0.9138782701,0.117407556,3.0427283116,2.8752230001,0.6628580526,0.0178146267,0.048218384,0.0440627457,0.0080389221,1.1010052321,0.1489286835,-0.702297561,0.44632655,-0.0636319842,0.0782814259,-0.1403937544,-3.1153998787,-0.619192326,-0.0321278704,0.0964398132,0.0139105617,0.6746476782,0.0309387829,0.0170721931,0.4087214262,0.4118864757,-0.5769130644,-0.0908756965,0.1342147165,1.0922484765,-0.4137782336,0.5259899001,0.0515734609,-1.2463794667,0.8067912802,-2.1965358976,-1.4165781491,-0.4599030733,-0.3502675962,-0.0024601711,0.4324329808,0.0099226114,-0.1845368531,-0.0092864862,-0.088703941,-0.1129904504,0.0058454613,-0.7388108508,-0.2725826577,-0.4296902366,0.106667527,0.3866190147,-3.4516262441,0.4931018399,0.0031257656,0.4853076803,0.0003028965,-0.424725828,3.2984331138,-0.0271906645,0.0379151252,2.3856455484,-0.2797797688,0.036472343,0.6293320052,-0.5035917517,0.5993374636,-0.0167564694,-0.8425253905,-0.9185929384,-0.1667141402,0.3587081334,1.0493136757,-0.1228801172,-0.5944030261,0.0451522428,0.1396891161,-0.1145870005,-0.0420644013,-0.1893804282,-1.2800157554,-0.2319901491,-0.0171886149,0.0007366429,0.2334455099,0.3362121445,0.0093125787,-0.0795617099,-0.7288405117,0.0638415793,0.043593391,1.3577071287,0.1415344166,0.1286462467
   -1.8412304174,0.1266986698,0.5049199398,-0.1088638416,-0.0701506935,-0.103694351,0.0614434631,-0.406171168,0.1689369922,-0.0893034242,0.6445326454,-0.1974859651,-0.1100417783,-0.3522587783,3.9211786061,-0.0046171001,5.2816350271,-0.2429025677,-0.042288224,0.0323987816,0.220022589,0.5945046433,-0.0718981988,-0.0022130923,-1.0696829635,1.8314292499,-0.0279933465,-0.0118893186,0.5876846135,-0.0680422723,0.3076120961,-0.5240738188,0.1930694097,0.2343901559,-0.0173916732,-0.1362745328,-0.1431069313,-1.0286427761,0.0702628863,-0.4249089014,-0.0236109762,-0.2999497067,-0.1695915878,1.5388758897,-3.6272580222,-0.0295015859,0.2942501478,-0.4562181333,-0.2511277614,-1.3964389043,0.0005867146,-0.1711313636,-0.485166113,0.0494535932,2.8108542951,0.0005235826,-0.7298530758,0.0328138212,-0.210124419,0.1226072544,-0.0950802083,-0.0020501312,0.0385585829,0.0521297777,-1.6150212444,-0.0405390849,0.898002329,0.811236914,-0.2391217761,1.0505690297,0.0588403126,-0.0064880934,-0.0213531501,0.7074959537,0.0312490663,0.1330511254,-0.3887911937,-0.0706046637,-0.3097512692,0.4143641686,-1.0877521336,-0.0082130807,-0.0346215946,-0.1026011345,0.3074647582,0.1454419395,0.0007050297,-0.0436624746,-0.042027764,0.033154128,0.4440299692,0.025610623,0.8877195579,-1.9030173112,0.00205402,-1.8745574495,-0.436096352,0.1658385791,1.4026801057,-2.1953062434,0.1170443401,-0.2010224097,0.2912951389,-0.0768041226,-0.0291975149,0.0002784695,0.9503703309,1.0067931708,-0.0398542821,-0.753684496,-0.0296824025,0.184116379,0.760260111,0.1129557862,-0.2983700851,0.1662578157,-0.0128166104,-0.2547171572,0.5189978691,0.008455104,-3.1869947066,0.6953029013,0.0980037349,0.0455236582,0.5747376578,0.1225504762,-0.0905787882,-2.1443823093,-0.0004696026,0.0837598581,-0.0451373343,0.0034918526,-0.2758043165,0.0327461685,0.6642605247,0.0312669018,-1.3713444541,-0.3493186398,-0.5789149541,1.9625364432,-0.624513917,0.056308507,0.1825044566,0.329202912,0.3137812963,0.0420983937,0.5830714956,0.0299169112,-0.1443874649,-0.2206165695,-0.3483826306,-0.103770572,0.1791741022,-0.8703101798,-0.0687165939,-0.3728230456,-0.0435268648,0.0008444808,-1.1855556582,0.0062732771,0.0226904533,0.1971464566,0.027834282,-0.4447199807,-1.249100063,-0.0829268407,0.436710485,-2.4788803405,-0.2335240593,-1.3737681513,0.0013791576,0.9220307717,0.2996369767,0.1804868089,-0.681037136,0.0474730887,-0.5113187666,1.584382434,1.1432587917,0.0544003604,0.5182661035,-0.5800880519,0.0911007979,0.119796339,0.0073670589,-0.0485566991,-0.5490083137,-0.296806519,0.6644055679,0.8292574696,0.2802801417,0.6329171618,-0.2180121394,1.387771975,-0.0503209954,-0.0239852782,-0.0761471398,0.1911439921,-0.0832968539,-0.1281763251,-0.1698172843,-0.8640948249,-0.003544251,0.038814327,-1.0898323812,0.3038665388,-0.0196404351,-0.0854017701,-0.021118162,-0.7743559874,0.1026971479,-3.6717341864,-0.3183111931,-0.1397309143,0.0057922338,1.1274247891,0.1200127654,3.5796915752,0.1221945953,0.066397391,-0.2001518772,0.5088016439,-1.0748895985,-0.7754078718,-0.2088785257,-1.2545296834,1.9950208651,0.1347641247,3.9188101814,-1.0356209971,0.3879679958,-2.9541377441,-0.2236618745
##end
biasActivation=0,1,1,1
[BASIC:ACTIVATION]
"org.encog.engine.network.activation.ActivationSoftMax"
"org.encog.engine.network.activation.ActivationReLU",0,0
"org.encog.engine.network.activation.ActivationReLU",0,0
"org.encog.engine.network.activation.ActivationLinear"
