encog,BasicNetwork,java,3.4.0,1,1532879518683
[BASIC]
[BASIC:PARAMS]
[BASIC:NETWORK]
beginTraining=0
connectionLimit=0
contextTargetOffset=0,0,0
contextTargetSize=0,0,0
endTraining=2
hasContext=f
inputCount=16
layerCounts=4,51,17
layerFeedCounts=4,50,16
layerContextCount=0,0,0
layerIndex=0,4,55
output=0.9999999997,0.9797161622,0.9999897116,-0.9875134232,-1,-0.9903035134,1,-1,1,-0.9999983534,0.9992424748,-1,0.9917140689,1,0.9999999501,-0.9999999594,1,-1,0.8878246219,-1,0.9999999985,-0.6080569076,-1,1,1,-1,0.9999999999,1,1,-0.9999989554,-0.9815856801,-0.9975578701,-1,-1,0.9999625525,1,-0.9283347821,-1,-0.9999999991,0.9980914232,1,0.9999999693,-0.999995755,-0.9999478319,1,0.9036850821,-1,-0.9803578157,0.9999759828,-0.9999976576,0.3816245324,-1,1,1,1,2,0,0,0,8,2,0,0,2,16,4,16,4,2,8,4,1
outputCount=4
weightIndex=0,204,1054
weights=-1.5461457744,0.1418409536,-0.1663689502,0.4880515529,-0.0982043719,-0.3317005197,0.339949243,0.2140584813,0.3632915321,0.6867402452,0.9663236815,-0.3090918421,-0.5198132261,0.492383534,0.2022192826,-1.0367353101,0.4446336397,-1.225530447,-0.5890110296,-0.1509648711,-0.0182589338,0.2194419628,1.5092006076,0.0168910103,1.4413101685,0.0937224008,0.1058135883,-0.0053420511,-0.2991348595,-0.5623150274,0.0635857953,-1.0001960086,0.5005426075,-0.8297315978,-1.3181002313,1.8209886624,-0.2755565906,0.8220854956,-0.1946891355,0.0710359381,-1.2782254605,-0.0641072488,-0.2404915306,0.9587197835,0.2431346793,-0.3411863148,0.0164175061,-0.2303444813,-0.4367660223,0.4414110791,0.5642707939,0.2996551458,-0.2358355678,0.1232507364,0.0825929659,0.6221965541,-0.419889329,-0.3211107264,0.0622352884,-0.0132773377,0.3918576527,-0.4754740936,-0.5543110075,-1.7658386242,0.2051102142,0.1937953864,0.17925506,-0.5691706756,0.4849269301,-0.6043075031,0.0974335056,-0.3984002367,-0.0010437844,-0.3118529692,0.2648794444,0.0049254151,-1.2874785598,-0.0171089981,-0.8630877999,-0.0293427631,-0.3485827817,-0.0197416269,0.2585980631,0.1615921683,1.2749208645,1.1425971281,0.5985342402,0.819769094,0.7593006925,0.3893149754,-0.7934045541,-0.0403555237,0.2818527775,-0.7805456361,0.7563853004,1.0449939229,0.2639972412,0.1731087842,0.2015192456,-0.2637102318,0.2072774871,0.1417594952,-0.1875621058,0.6089617467,-0.959505935,1.6388941401,1.2931021821,0.3257830533,-0.140830772,0.6864768718,1.0103930793,0.9440443721,-0.1331995864,-0.0988788774,0.674274825,0.0101541538,-0.1662479508,0.514450763,0.8857521207,-0.5892280777,-0.3537704205,0.5629858624,0.1992464773,-1.1972245982,-0.2717859538,-0.5666640231,-0.1464891681,0.3845298682,-0.785549522,0.3519106863,-0.4649940786,1.5985560108,-0.7503917865,0.0760832448,0.414901358,-0.5123892265,-0.4874668824,-0.180770776,0.8952337357,0.9743277225,0.9668925813,0.1487379735,0.6819930182,-0.4222267996,-1.3686654218,0.1752693402,-0.1547930142,0.0086314181,-0.6257760459,-1.3860714206,-0.1238517798,0.7695674268,1.933760596,-0.2861356737,-0.2282895906,0.1974902082,0.1437179552,-0.6626473047,0.465532894,0.0111434978,0.4539355146,-0.3025097504,0.625278697,0.3875128867,-0.6891283171,0.2589187566,-0.5802699588,-0.1040800691,0.0506032243,-0.9274964342,-0.725678104,0.0294952229,0.7124846343,-1.3912408143,-0.0862601372,-0.8563660535,-0.1043168345,-0.0771160919,0.4700828867,0.9893012393,-0.0614052783,-0.0374385503,-0.4546331266,-0.0069348475,-0.8510185544,0.4280289985,0.0046193922,-0.5390831897,0.090224081,0.5135901787,-0.0376010801,0.0937987656,-0.0042642782,-0.0776315139,-0.9579617863,0.0874828252,0.5918920809,1.1238475759,-0.1904837687,0.1270785994,-0.0177271554,0.3998663461,-0.2754172504,-0.2437850567,-0.0462511593,-0.6524749909,-0.3226114276,-0.6710853566,0.0670919438,0.2574183192,-0.6905764659,-0.5852762014,0.4771519333,-1.2391068573,0.0398725495,-0.0871305001,-0.3538414893,0.5345642803,-0.6828500341,0.216437928,-1.4683607147,0.7954027793,-0.601964543,0.3746219735,-0.2715393425,-0.8674760058,0.0404719029,-0.303105369,0.1887743664,-0.1843185815,-0.0596976971,-0.0084821144,0.0800287738,-0.1686676341,0.3959479318,0.6398326376,-0.2283707866,-1.6392156112,0.068019344,0.4130535251,-0.4734847823,1.3182697572,1.4886727773,0.1718605986,0.1870253618,0.4508825319,-0.6045833173,0.8294217901,-0.9084087698,0.0034382418,0.3742666837,0.1471734772,-0.0369928708,-0.1841574708,0.0451739257,-0.0791279185,0.1452929378,-0.4196042312,-0.2511050757,-0.2748926224,0.1350031478,1.0549461777,0.092586973,-0.6332703811,-1.6388628606,1.1562792,-0.0292405811,-0.1909197976,0.6473843306,-0.2970758935,0.1903653258,0.332713621,-0.4471596056,-0.6623996031,-0.5900971386,-0.9036429623,-0.3173291526,-0.5850999622,-0.0951157061,-1.2876887952,0.7795866909,1.1376311985,0.9051024338,-0.0465887629,-0.1410239139,0.367657925,0.1311446341,-0.2088426414,-0.3736554382,0.201972739,0.5440152216,-0.4554939885,-0.2981745617,1.1872175151,1.2971593622,1.0060648563,0.3436674223,-0.4265354321,-0.0086720302,0.1982805796,-1.4109172938,-0.6754272506,-0.1556926628,0.7799871361,-0.2826835431,1.1763414717,-0.0501039827,0.0080377466,1.4432132803,1.0032537185,1.1015877766,-0.6123705387,0.9506798769,0.344240095,-0.6118116358,0.0537671188,-0.5322599046,0.2599467585,-1.5327518262,-0.059274838,-0.200101785,0.7162399835,-0.2299899536,0.3489908481,-1.1171518566,0.496083493,0.638528485,0.2526627876,0.5345113159,0.1571873283,1.0269895728,-0.2735157785,-1.1933812123,-0.4120098172,-0.2845466458,-0.1239411839,0.0945496043,0.5792767684,0.0161520087,-0.6554656423,-0.0809594497,-0.6272828395,0.0799459803,-0.4389403939,-1.2960648003,-1.3075049443,-0.11145382,-1.3089711478,0.0482150502,0.1628585972,0.0627577467,0.2605856568,-0.1374171261,0.3987152515,1.1012989599,-0.0240003204,-0.1981784254,0.9233333799,0.1870917479,0.1849832849,1.012838522,-0.6549118444,-0.4516437762,-0.2862826907,0.0436374232,0.266937509,-0.4452812551,0.0885731989,1.7026342234,0.130039521,0.1002621927,-0.4683929807,1.8776634948,-0.2967562831,0.71241876,-0.4529582661,-0.7194645572,0.6860047205,0.5621357943,-0.3572193052,0.6840756991,-0.0452613222,0.8037497172,0.2038702238,0.7666084614,-0.2666480609,-0.0356061514,-0.7795562798,0.4002649052,-0.3156856664,-0.3618900574,0.964301692,-0.6201081669,0.9732048254,-0.7506447896,0.2170237621,-0.1915150333,-0.2007519718,0.858721309,-0.459531135,-0.3163640159,0.5269061309,-0.658728581,0.1408461736,-0.5707217673,0.2152867007,0.2531557549,0.1184911611,0.9273960952,0.0200775624,0.9376067271,0.3712287527,-0.2016651114,0.0447389804,-0.4435827386,-0.6928863758,-0.9938260262,0.9999053909,-0.8787610715,0.4144345299,-0.0965786909,-0.4675850839,0.4722497627,0.0436216464,0.086846413,0.6733439874,0.6296309694,-0.9048512666,0.7191280801,0.9502067215,0.2190684846,-0.5846158535,-0.7305210004,-0.9406490129,-0.7183593455,0.2146246082,-0.426460857,-0.4289601874,0.3618669892,-0.1804143926,-0.3381497368,0.7337135877,-0.937334571,0.9699029189,-0.482937253,-0.6955755467,0.2087938827,-0.6014360825,0.6019265275,0.7480374623,-0.4563521223,-0.2307256375,-0.6648231477,0.4259191839,0.361426495,0.3947917022,-0.0078815372,0.4676622046,-0.7752371021,-0.5900796344,0.0336533413,-0.3759614956,-0.0818170975,-0.0936177122,-0.466494966,-0.8696888831,-0.4856196885,0.9751515194,-0.8353435608,0.928971791,-0.8135517843,0.428295813,-0.409269025,-0.747075831,-0.7171793755,-0.3812057851,-0.5850421617,-0.1442123701,0.2198378365,-0.9806315577,-0.1180984276,0.6152530769,-0.2967117951,0.9052413507,0.4042668161,0.2761976093,-0.4893494175,0.1005835653,0.0042585049,0.4013835745,0.712015604,-0.0175168955,0.0642387068,0.4162446658,-0.8882577008,-0.6675857891,0.6875457332,0.1518890099,-0.0726332322,0.3757725971,-0.9517999417,0.4693953593,0.3584933028,-0.7344379535,-0.6881861626,0.1296645114,0.8603119455,-0.1633232871,0.7142788262,0.8760683689,-0.2491794772,-0.1546673107,-0.7795704248,0.2745976139,0.2187228296,-0.6913624357,0.5901217134,-0.6077005774,0.9473473498,0.4169680117,0.5411433314,-0.6090728061,-0.9548948573,-0.6535182585,-0.9093742882,-0.4312999431,-0.0224005194,0.8792118104,-0.6499944375,-0.2753482108,-0.3939491295,-0.1519200981,0.068064465,0.5175058388,0.1347959752,0.8254509321,0.209683703,0.5643303754,-0.0447766703,-0.0698450146,0.6092198589,0.3819644723,0.3269908137,0.1591259376,0.3975970077,-0.4459559221,-0.8002232714,-0.920944548,-0.6439489898,-0.4485677289,-0.1334096679,-0.7602475695,0.319961371,0.9181897819,0.246450936,0.6548204251,0.7111475417,0.8654595406,0.9180397996,0.7255729442,0.9361479918,0.1574139999,0.27826546,-0.5874277501,0.1903484928,-0.0977598208,-0.3790194815,-0.7849094626,0.4334723591,0.5595290738,-0.7164861271,-0.9498062311,0.5757912896,-0.8409025934,-0.7964626164,-0.8292490187,-0.9095843308,-0.6665406067,-0.6027221941,-0.3619432855,-0.0202109589,0.5947858339,-0.8571537116,0.8229381465,-0.1434706048,0.0234917589,-0.0582290013,-0.2189080057,0.6082495365,0.9166590164,-0.1152566498,-0.943681721,0.9136459194,0.2446908321,-0.8833236724,0.0435452658,0.8891884461,-0.7232672927,0.718283282,-0.1860523071,0.1964594077,-0.7645128881,0.843249478,0.8761617747,0.4668551557,0.0469701703,0.8843033209,0.0120636633,0.0170100985,-0.856696857,-0.0822164315,-0.1176443821,-0.008377665,0.5864649419,0.7481310234,0.5154922851,0.5061645336,-1.031124787,0.1881572883,0.1203319067,-0.7426012982,0.0724670259,0.2322282245,1.4201814105,1.1666949022,-0.7523167488,-0.6137209011,0.0852876349,-0.4243739948,-0.8084748532,-0.0729659719,1.4087870257,0.1708416916,-0.3927279873,0.2099308469,-0.4059712263,-0.4077822451,-0.3565865027,-0.9047280405,0.0964799493,0.7980907838,0.8000061034,0.4631107557,-0.9944853903,0.8738527354,-0.5259187016,-0.6729299795,0.958263897,0.6147582503,0.6335119835,-0.1547221641,0.7171630854,-0.348841608,0.0008590541,-0.2865008149,-0.711841644,0.2915432444,0.1603931136,0.8135637952,-0.337094659,0.6002916931,-0.119225806,0.1345580374,-0.0759776656,0.0155021933,-0.4878397837,-0.0419607774,0.1161528522,-0.8239588902,0.9143904823,0.7714122823,-0.9119759498,-0.1235749506,0.1921891353,-0.7080262889,-0.1892221996,0.9779506182,1.3222044737,-0.0218514336,0.1888179554,-0.3909654615,0.3932642984,-0.3684680425,0.3782897229,-0.1911729717,-1.1693762662,-0.4750572137,-0.2809836431,0.2251524852,-0.7053354899,0.2993866745,0.2572574152,-0.6221361518,-0.6833124144,0.0576723374,-0.1870827407,0.1304251804,0.523626943,-0.4294680444,-0.583620262,0.2418376965,0.1722155349,-0.9102738237,-1.6434648256,0.185501164,0.2532747305,-0.4801757525,0.1212576285,-1.6385208281,1.510988533,-0.5658526036,-0.6548493212,1.4450276131,-1.3241293895,-0.0279747132,-0.5612469841,-0.1280605137,0.5524105475,0.6769599258,0.1349136292,0.6233722207,-0.3059234668,0.8274942026,0.0666084885,0.0839197492,0.1754837415,0.1177654664,-0.9591653482,-0.4478518864,-0.3094873465,0.2171819149,0.1280434764,-0.7693808407,0.1622321513,-0.6323152276,1.1712662414,0.6492799776,0.1443868324,0.0407228115,0.6684580219,-0.9893114171,-0.4096993433,0.4767801169,0.5097169348,-0.4514524072,1.2585630403,1.2950832873,-1.7909457662,-0.0218695776,0.0267936985,-0.1585474355,0.8978073907,0.3567962449,0.17020707,0.73899215,-0.3379242999,0.0427582344,0.4877764437,-0.0660251888,-0.1843083563,0.2604968068,-0.2139756209,-1.1436358601,-0.0395963243,-0.7807171518,-0.1129864525,0.0837345838,0.7282767472,0.4519878931,-0.0068974437,0.4615885085,0.7433377911,-0.2157118195,-0.5097495194,0.4458468537,-0.2114462312,-0.9332548592,-0.7948318012,0.1945244905,-0.0878973171,-0.9698894085,-0.9549732663,-0.0042730039,0.6692128514,-0.1196294795,-0.0768246228,0.3067464265,0.71462306,-0.8549548685,-0.1099062237,-0.016494874,-0.7450420508,0.6660126828,-0.6166277456,-0.2893170604,0.7561041527,0.5613877002,0.0330022953,-0.476656297,-0.2066665796,-0.2042478774,-0.9845756049,-0.1063621455,0.1484027169,-0.2972674202,-0.962145885,0.2616799661,0.7791943272,-0.7942661234,0.0618879867,0.4598950908,0.8220200243,-0.8351539823,0.2498985893,0.7436949347,0.2496965438,-0.0425480745,0.4118846326,0.2280042753,-0.9866858154,-0.0962200341,-0.0656259643,0.6842600051,-0.581778386,-0.3970796794,0.2748979173,1.4918468274,-0.0025339273,1.0168070455,1.764215879,0.6554217804,-0.9841707386,-0.3162260094,0.7949277222,-0.7131716375,1.123553533,-0.1894202458,-1.0453479413,-0.4103605389,0.089489126,-1.6952849536,-0.4429139001,0.5163960306,0.967177967,-0.0642164997,-0.1515834144,0.0583200382,1.0343138559,-0.309430346,-0.1751301547,0.1622521453,-0.2212926775,1.4386552283,0.7455653355,-0.3358180261,0.5185896345,-0.6632019735,-0.0115931261,0.7443305384,-0.2880838333,0.834978372,-0.3093237647,-0.5320557284,-0.0409067528,0.1732294596,0.1209582998,-0.1362841397,-0.1718926842,-0.5154781072,-0.1331101881,0.5514978327,-0.1062783494,0.1691063703,0.0784454144,0.4688240568,-0.2932416524,-0.1424395533,-0.410051963,0.066875546,-0.3036969014,-0.8140055992,0.1894825254,0.032719149,0.2104966748,-0.340368189,-0.0583987267,-0.2326661106,0.7989973262,1.5967155601,0.0468418658,-1.1530293538,0.6229775553,1.0310557638,1.2381435937,-0.6140317777,-1.1331611645,0.5583848015,-0.276999018,-0.0268748528,0.0978427307,-0.2552654095,-1.029684784,0.5101592276,1.040089694,0.8174974267,1.2310032737,0.8080304263,-0.3928798446,-1.3836118275,0.0393715836,-0.2662547905,0.0970015756,-0.3125629231,0.2515643517,-0.0463448739,-0.0449650285,0.0811542098,0.0031139979,0.3517168121,-0.6441344712,0.7111985575,0.3782762107,0.0426433219,-0.2330324954,-0.5209730315,-0.1684091196,0.9083846548,-0.6736431802,-1.4461027766,-0.5710379067,0.3078233294,-0.7598479973,-1.0292383766,1.5736702557,-0.3124387464,-0.6785035621,-0.6320524485,-0.8349230659,0.4295490374,0.0002772337,0.3231514999,-0.044343339,-0.0943235716,0.0943553906,0.377504111,0.0589156062,0.1006665664,-0.0103318678,0.3887261556,-1.1275686108,-0.5802882518,0.9322826084,0.7928526287,0.4109660191,0.9197272845,-0.21613146,0.255066589,-0.2151739364,0.7609885561,0.1883857807,0.3512693435,0.153397664,0.0044121143,-0.595035872,1.426455573,-0.2525001834,-0.1770340012,1.0224373665,0.940771456,-0.4477140352,-0.9902794175,-0.7201499705,0.5444986025,-0.8072875722,0.8768885538,-0.2538841345,-0.4174314098,-0.3488992316,0.2610862726,0.3253622866,-0.7800785761,-0.3656362012,-0.4746711178,0.6569542568,0.9009004073,0.024096706,-0.7763515914,-0.6202569114,0.8814274337,-0.3583137579,0.0728949014,0.6122999826,-0.4933465286,0.0555825866,0.9497244185,0.7173642481,0.6798086416,-0.5111714524,-0.8509014666,0.1652489281,-0.9480034355,0.4917633811,0.91921757,0.7675774961,-0.6693969133,-0.5828498048,0.6522587605,-0.0532103155,0.2414749624,0.2712850204,0.8947120819,0.0703551761,0.0939485877,-0.2669080232,-0.4310026891,0.2867002637,0.642073137,-0.7449006006,-1.3804186316,1.272668113,0.6604624354,-0.2210943341,-1.1369356311,-0.0801018589,1.351670908,0.350357607,1.0849391591,-0.0064791569,0.1340503498,1.129732714,-0.0249791707,-0.176923913,0.7154553368,-0.0920126923,0.053063969,0.6275027506,-0.9971985633,0.6793863634,-0.5818445981,-0.1563139628,-0.1148862744,-0.2021014177,-0.0303943902,-0.0139612468,0.2646832751,0.1557276309,1.0592897403,0.2473359244,0.0677517338,0.1576259683,0.2380143939,1.4762035839,1.0359332546,0.0700482888
biasActivation=0,1,1
[BASIC:ACTIVATION]
"org.encog.engine.network.activation.ActivationTANH"
"org.encog.engine.network.activation.ActivationTANH"
"org.encog.engine.network.activation.ActivationLinear"
