encog,BasicNetwork,java,3.4.0,1,1532880718212
[BASIC]
[BASIC:PARAMS]
[BASIC:NETWORK]
beginTraining=0
connectionLimit=0
contextTargetOffset=0,0,0,0
contextTargetSize=0,0,0,0
endTraining=3
hasContext=f
inputCount=16
layerCounts=4,26,101,17
layerFeedCounts=4,25,100,16
layerContextCount=0,0,0,0
layerIndex=0,4,30,131
output=0,0,1,0,97.4159227,21.0862541749,17.9443047321,105.3557689766,0,0,105.9620749111,0,0,0,0,0,16.8953133595,0,144.3888119543,0,0,37.7875661986,81.1678787996,38.145963651,0,0,19.9351456448,0,178.068037861,1,0,0,12.4507110654,6.0491151298,0,0,33.1876329611,17.8329665536,5.3764849372,0.4291362201,0,0,46.3965329948,28.3080150231,0,23.1103799032,39.1612247502,9.8002781955,0,0,0,0,2.6674800144,0,4.8143782889,37.9818009503,0,0,0,0,0,0,0,28.5505667489,0,0,0,2.0538786012,4.1140849828,5.9260329197,0,1.3371039139,20.0355555911,0,0,14.5188949851,0,19.3791270647,12.0229714124,21.0727902678,0,0,0,0,2.2907408932,33.9732583213,0,3.7134418577,0,0,0,38.8529504495,0,0,3.0473426311,9.8607808795,0,7.5386299071,13.0500350826,1.6982910289,0,11.8159891012,4.7673218003,31.8056782529,0,8.5520031983,14.6975862086,30.24167071,0,11.9825486627,28.2614597065,0,9.0744230953,26.5697573096,0,5.5279212476,10.2354192939,20.9916186787,6.8574082415,19.8778746713,5.4786076162,0,21.2141963143,12.2455725724,25.7113699013,9.8318026153,0,0,11.4505823417,0,1,4,2,2,2,2,8,4,4,0,4,8,32,0,2,2,4,1
outputCount=4
weightIndex=0,104,2629,4329
weights=##0
##double#4329
   0.2444780985,-0.2261261142,0.4041698811,0.3411873129,0.9143405118,-0.6711425494,-0.2693389407,0.579471037,-0.4371978701,0.078443279,0.8271316803,-0.2099331351,-0.3357629095,0.7167491699,0.2235491018,-0.5327739991,-0.5535597054,0.7001664894,-0.3959652115,-0.999680281,0.7469056647,-0.8663642331,0.7197825589,0.480303908,-0.791773762,-0.6841532882,-0.3001666314,0.6714884153,0.1635513212,0.6707967991,-0.7132386349,0.5638602516,-0.6555568583,0.7414913922,0.255382428,0.1205651755,-0.2606652032,-0.4470229916,0.7309368202,-0.784167432,-0.6750696418,0.2527990509,-0.0915562974,0.4067870942,-0.6709489989,-0.5788688146,-0.9161865307,-0.1861681625,0.8600428944,0.5204463016,-0.0809629404,-0.256577885,0.7590663956,0.8016502701,-0.1565757242,0.0686132298,-0.6646877095,0.7263059729,-0.1145847242,-0.8405316032,0.7108392412,0.7823461303,-0.1394469961,0.2143940864,0.1753055716,-0.1651329158,0.699019917,-0.4190281831,-0.2869191978,-0.3947972483,-0.9117305263,-0.9719335658,-0.2784031447,0.7078423861,-0.7411685458,0.3556859561,-0.1110719725,0.4098681499,-0.6772325388,-0.626261527,0.6065625609,0.2198850193,0.4332503294,-0.8196494673,-0.3266173615,0.9544536874,-0.5747412783,0.883762922,-0.7231912563,0.567455423,-0.2030082282,0.617352818,-0.454675189,-0.3367308195,0.6297694119,-0.6865278541,0.6803669084,-0.268584146,0.1355638184,-0.081163657,0.2645635572,-0.6355344926,-0.61131465,0.6820745232,0.1700801412,0.6291662127,-0.9827094794,0.2767342759,-0.6554317695,0.2824538766,0.5591341527,-0.395632346,0.7842679032,0.6785807804,-0.1224286037,0.994971375,0.4982368279,-0.2806574982,-0.7323809056,0.4274686899,-0.3007169177,0.4045921196,0.4007568586,0.6130523403,0.9761927784,-0.953257143,-0.2502704254,-0.1038075415,0.3852437466,0.1612346323,0.3897355666,-0.5927720515,-0.6483731905,-0.7433699295,0.6979054739,0.8874452765,-0.4251601558,-0.8694785546,-0.0784655537,-0.6333873121,0.7133682778,0.1705431752,0.602874091,-0.3501844759,-0.6301435281,-0.6211183206,-0.7259301343,-0.1247111163,-0.8018508315,0.0596557255,-0.0986448489,0.8825363412,-0.4497081647,-0.429451424,0.5648587289,0.5151315665,-0.4277631292,0.8006193104,0.1011623929,-0.1817816082,0.4265871962,-0.1901677942,0.3908683237,0.7601204493,-0.6039408537,0.846838181,0.1865098048,0.6953461936,-0.4093636903,0.4021803452,0.9679292354,0.4555852859,0.8115396163,-0.0496856283,-0.948840837,-0.995017166,0.2867615212,0.5299411056,0.5235236367,0.1192446836,-0.7108443783,0.2957073177,0.0141973309,0.6196111423,0.0852090358,-0.3202413759,0.7514452364,0.5660996093,-0.0425571084,-0.1227996965,0.5280273424,-0.0168309272,0.8986556854,0.6738209629,0.2602093942,0.6793876841,-0.8207052175,-0.8633265506,0.5464498214,0.1786135266,-0.9582195799,0.5965889989,0.8430408186,0.6747763594,-0.0656314482,-0.8368912422,0.5244764311,-0.400710444,0.5365048185,-0.7059814489,0.8821877186,0.1118187955,-0.7630930664,0.1141552618,0.9486944872,0.0718237401,-0.6778248473,-0.7502601811,0.977596907,-0.2070543912,0.1784565127,0.6666519417,-0.7144982631,-0.7978289563,0.5510395312,0.2526987593,0.9387975824,-0.5631346212,-0.0458486395,0.9491101874,-0.8234369029,0.9279111866,0.9961340911,0.4023318183,0.3017972144,-0.194824781,-0.8435298192,0.6098889254,0.0709247991,0.9256678789,-0.1411684754,0.7246536855,0.0858999052,0.6732643385,-0.632985858,-0.8136878502,0.5137476374,0.607244654,0.0936364526,0.5821944946,0.4451884928,0.3816008019,0.0761351334,0.8146744535,-0.6897323755,0.6530196132,0.3470630876,-0.8457637581,0.6859639011,0.9992932413,-0.8428408601,0.4116197982,0.9320956103,-0.8577900849,0.2337432153,0.888376136,0.1300083753,-0.2921615816,-0.0479010733,-0.215808832,0.3598291868,-0.1457521621,0.3368695742,0.746670866,-0.7135933737,-0.2029589296,0.6371560791,-0.6151322958,0.5160292179,0.6267176864,-0.563741213,-0.3181444781,-0.9898789933,-0.9241520731,0.0205559654,0.775600183,0.4816924895,0.8200519293,-0.361313251,0.4091265219,-0.0394705129,-0.3268263399,0.4015121296,0.0371252446,-0.0357104472,0.9670828674,0.0024796276,-0.1142106517,0.5752224977,0.8173058343,-0.3340492988,0.4947218796,-0.3501282247,-0.3571606842,0.3408438293,0.8662776099,-0.0200761535,-0.2828678792,0.8312887096,0.6321035286,-0.7369310392,0.7301571427,-0.3473312019,0.3724456981,-0.2801822357,0.423811959,0.8602166275,-0.0487187192,-0.4425026975,0.7289964365,-0.0406677941,-0.3371959186,-0.9593541555,-0.9050370477,-0.2585521188,0.4107437303,-0.2006830389,0.8800012942,-0.3848689876,0.7605718753,0.6249885958,-0.8969352338,0.5898080581,0.9825482166,0.9309710174,-0.9335634188,0.6757579718,-0.1285395185,-0.3770352789,0.3529752062,-0.2409730019,0.1014480956,-0.184188832,-0.2109713996,0.2964480943,-0.5603899187,0.4680645849,-0.4904560549,0.6736477658,-0.5163236157,0.2852142559,0.0212918131,-0.8317657476,-0.9987572969,0.5555523899,0.5140663487,0.0862136931,0.9665511126,0.5076301165,-0.407041344,-0.7346831164,0.4594788274,0.2765636773,0.1019166215,-0.960413078,0.4231228383,0.2298460499,0.7642105973,-0.9942846795,-0.7843103247,-0.0112163189,-0.729958102,-0.2795297695,-0.7977720449,-0.7404698086,0.5461629731,-0.1331291354,0.7106913528,0.2100229492,0.4142183305,-0.0662932297,0.8845811621,-0.7141745335,0.0988982496,0.761445848,0.5081849097,0.1086861971,0.7893518783,-0.5781901081,0.9410964621,0.7174269638,0.2354070947,0.196989029,0.8679704099,-0.9419351966,-0.2628108343,0.4235899203,0.9714977182,-0.1845113162,0.6955261504,-0.8790903632,0.4860708308,0.5224059622,-0.2251400152,0.4104113175,0.9202925704,0.120268896,0.4117401573,0.6145727223,-0.5483274856,0.6811716395,-0.9481761958,-0.5407335571,-0.5723264662,-0.8450262213,-0.5828683773,0.1245379811,0.0124408817,-0.5352311381,-0.1306141972,0.9807406495,0.7527255693,-0.7925973986,0.1839250202,0.5892837311,0.7548106025,-0.0395075415,0.1370110434,-0.5026953007,-0.8826565038,0.2735655116,0.8179542026,0.537152421,0.200128844,-0.7711292234,-0.1696621885,-0.626039634,-0.3393970469,-0.3412521305,-0.6210749543,-0.9626661033,-0.7221950172,0.1030670728,0.9490446088,-0.9942101377,0.9464760744,-0.1303170151,0.9035916431,-0.5281243175,0.2849243865,-0.9167025246,0.645952768,0.9640012535,0.8387575204,-0.4162126459,0.6407846092,0.967005974,-0.7118189754,-0.0932440956,-0.6685077546,-0.7209592773,-0.2709158794,-0.8333351051,0.2647808477,0.6724867683,0.5122741806,-0.482582272,-0.6377246849,0.2990816172,-0.2140189816,0.6882724309,0.9252227339,0.8700507091,0.9200929489,-0.7333895404,-0.9665084624,-0.0660090479,0.2110274952,-0.5659750726,0.3194913647,0.776956885,0.647226572,-0.012018575,0.7120995825,0.6266366288,-0.5580887674,0.9945370123,0.6551307148,-0.3121479535,0.1973955611,0.1267285279,-0.7545067141,-0.5851732284,-0.0221531249,0.5466681469,-0.3213283994,0.5589748897,0.6935693748,0.239107031,-0.6399424173,0.2552663108,0.8718104555,0.6888452487,0.4826640204,-0.4918238284,-0.6127179661,-0.908174056,-0.9780447508,0.5732825351,-0.5912355157,0.4399730794,-0.1094960063,0.5038079503,0.0064088423,-0.9642824187,-0.4008437832,-0.6968940149,-0.1840894846,-0.016323547,0.4678218158,0.5348316947,-0.6162143669,0.9200023284,0.1810607899,-0.6034140368,0.7554602909,-0.5658438199,-0.7808543246,0.2954975485,0.1836941672,-0.0903178923,0.7521170742,0.7349818357,0.4438401458,0.2056181713,-0.2776849088,0.5272773944,0.009120643,0.6828983979,-0.866844803,-0.8796668791,-0.3748088222,0.4019535791,0.6522772961,-0.842868995,0.0910327322,-0.6536935835,-0.6006197485,-0.2790043699,-0.2594214401,0.8732395633,0.5921186903,0.6735810177,-0.46438332,-0.0386461092,-0.8695131244,-0.9567818458,-0.8193009539,-0.6164103972,0.6571579815,0.3283948037,-0.9061261271,-0.8565637121,0.0905451501,0.0139815467,0.2710105723,0.8693257492,0.3998216149,-0.9745067682,0.7909466175,-0.296398,-0.4271734039,-0.5402641078,-0.048658789,-0.4974911618,0.5171089163,0.3190706385,-0.4210503363,0.2753152285,-0.0767473692,0.7720661917,-0.5560235854,0.2737422363,-0.1148342698,-0.7450802824,-0.6208585173,0.7772441496,-0.2935728897,-0.6875902013,0.0246901319,0.4954959479,-0.8924368198,0.2407092731,-0.5750680735,0.5197164752,-0.104293619,-0.7340290172,0.0134749062,-0.9992449599,-0.2776219492,-0.7943848647,0.171132355,0.3782516952,0.9435379838,0.6329690399,-0.4642834615,-0.9638555989,0.0063330245,-0.9274070627,-0.436923786,0.2336257779,-0.8195414837,0.5217273812,-0.4156424281,-0.9436800432,-0.6463138088,-0.2816260261,0.4495556546,-0.0069663639,0.7777789995,-0.8467325014,-0.4124329219,0.6324151479,-0.9482481493,-0.0515746073,-0.6558823281,0.402699836,0.7452729566,-0.7692047185,-0.4671776713,-0.4350595663,-0.4645583984,0.122202957,-0.0591348843,-0.1213227591,0.1687273185,0.538449248,-0.1120646109,0.820901325,0.5684867569,-0.3665590182,0.9414760089,0.0820204421,0.6499783275,-0.5455901576,0.9299649941,0.3095191593,0.6767099636,0.984250186,0.3690279608,-0.2787057197,-0.2011742689,0.3890596061,0.883842136,0.5123675749,0.275967621,0.2640794436,0.9418522444,0.0307263263,0.4379050459,0.1332713968,0.2401204682,-0.0921121947,-0.2271533548,-0.2688023303,0.4032009208,-0.587261643,0.2589308839,0.2030587823,0.3440192194,0.4832859768,-0.9949944921,-0.8903396645,-0.4083110279,-0.7521193284,-0.7168994742,0.8661908493,0.1226507471,-0.9951135137,0.5704910969,0.5609684147,-0.0083903579,-0.9145603351,-0.5270942114,0.5022544528,-0.8093038651,-0.2999278054,-0.9486918934,-0.8165375894,0.1076470073,-0.6360092066,0.1846470963,-0.5065111999,-0.8611920148,-0.0730010589,0.3339769136,-0.9832950433,-0.3170950663,-0.8205103293,0.7680842543,-0.5874866525,-0.7600061555,-0.3398180231,-0.4359593936,-0.38845166,0.8557875329,0.6231737695,0.189930876,0.4275885471,0.6112218975,0.3566633685,-0.7219455491,-0.562983521,-0.5083173051,-0.9535531122,-0.9829657749,0.4628780351,-0.8614318824,-0.3218889021,0.9529202879,0.6007487071,0.2503647743,0.8022827574,0.3773506364,-0.372069737,0.1249718432,0.8846676144,0.7567927715,-0.0665836799,0.6248641763,0.3107452143,-0.8056734698,-0.9119315485,-0.0214489721,0.9850791259,-0.3652871379,-0.851836333,0.2498838311,0.7686510647,-0.5236007159,-0.621127962,-0.7739131878,-0.5781160858,-0.5307820095,-0.3685755628,-0.4851494189,0.2870778441,-0.9885484483,-0.060894563,0.3138602953,0.4119426805,0.7109518677,-0.1719200211,0.1825616818,-0.1556697831,0.634859538,-0.1697003934,0.3205441159,-0.8060882463,-0.7961027119,0.5009588318,-0.1063449509,-0.6146341367,0.3762019797,-0.5868754879,0.0372317821,0.6191102549,0.6137175993,-0.3692763305,-0.844431148,-0.6818029986,0.8138442656,-0.1254176865,-0.7561453269,-0.8728327379,0.7552765723,0.903827587,0.4618369056,-0.1101931876,0.8486614341,-0.7819317304,-0.0086341723,-0.4193248273,0.6404541501,0.0477865402,0.834708745,-0.6395419669,0.9449871089,-0.0278394123,-0.0871142063,-0.4814989781,-0.476595596,-0.7861038439,0.7306337712,0.4756606424,-0.2528553296,-0.4687403139,-0.2659025682,0.7486415448,-0.7831091786,0.2997612037,0.0853091544,0.6779719753,0.7300367857,-0.4937551304,-0.8129985127,0.3995587746,0.4577762396,-0.0337805169,0.1544346799,-0.8000716577,0.3732696154,0.6665769307,0.4401604475,-0.4223525635,-0.5252632691,0.9787705951,0.6599691943,-0.0050982372,0.5404506761,0.9672237011,-0.7176643888,-0.1202736878,0.3557072861,-0.4134546749,-0.9269585539,-0.3827374766,-0.2316242012,-0.3670452399,0.1089314787,0.1943459108,-0.8015529225,0.4608349711,0.2794835611,0.0524147292,-0.0054318881,-0.4589570785,-0.8627505237,0.6625873195,0.4764844395,-0.0659177376,0.903589478,0.0738463972,-0.3826328175,-0.0456617717,0.0491069615,0.2775935449,0.0767550833,0.1362285508,-0.3476207412,0.0686489906,-0.1952011263,-0.1339251114,-0.8273143965,-0.4677129694,-0.4913077204,-0.4116525477,-0.7357479728,0.5568321257,-0.2268337258,-0.5397706552,0.4020198948,0.2961025746,0.0706031382,0.3183666175,0.2504330761,-0.9177510484,-0.5340913272,0.2153101659,0.3738711573,0.9614868659,0.7604038183,-0.1837126664,0.6995065901,-0.987919355,-0.0961434868,0.0534929517,-0.1192442685,-0.9268847695,0.2198853239,-0.7976167609,-0.9600643406,0.6692498353,-0.0250651304,0.3115261298,-0.3338888586,0.2785515015,0.1864927098,-0.3174339914,0.1781306324,-0.9576307469,-0.5878499716,0.4156954608,-0.7619556256,-0.9204814142,-0.6122478127,-0.1473644099,-0.9645890622,-0.1244195216,-0.4626567316,-0.652557993,-0.8616993525,0.0949499238,-0.3676926092,-0.3290492897,0.209242034,-0.7704617711,-0.9892276681,0.0840688668,0.9835601011,-0.2871671916,0.6614993784,-0.5340581553,-0.5533651019,-0.235261807,0.325651355,-0.7130673571,0.719782911,-0.6557455761,-0.0119365366,-0.6469099975,0.6578647178,0.5197378107,-0.929758356,-0.0366207971,-0.0111384088,-0.6522292638,-0.6095610616,0.9850270259,0.9255773774,-0.0618829026,-0.1039776128,-0.0525484412,-0.2617109085,-0.6139852333,0.4843749926,0.8423846471,-0.1902229292,-0.3382153209,0.9203282366,0.9709697593,-0.2532719174,-0.7912416396,-0.8412448482,-0.1208078853,-0.2715858834,0.6099573228,-0.5020781979,-0.2543892972,-0.826986816,-0.7696390764,-0.8806261547,-0.3532147943,0.3737389901,-0.6697053872,0.4561167041,-0.3200982321,-0.2759936151,-0.7788541721,0.6106131991,0.2089880881,-0.9664875818,0.1512286341,-0.168326058,0.7890040389,-0.03682441,0.8742381445,0.3945545204,0.0526813374,0.1704317617,0.008314827,0.7372996709,-0.6994366431,0.9929767579,-0.6739130189,-0.8694284839,-0.5926474885,0.1312250869,-0.2634322404,-0.9536683428,0.4800032276,-0.3494545645,0.1002255885,-0.229043167,-0.5801377587,-0.9164333581,0.9193558734,-0.0977460615,-0.3058145055,-0.5118264338,-0.6401223595,0.9319374768,-0.9217780353,-0.6977027516,-0.5456802148,-0.9055455232,0.7559716857,-0.3120061398,-0.3821341427,0.7038697456,-0.8520093901,-0.9394406483,-0.8559789472,0.9296454135,-0.0692319342,-0.2029606759,0.5152239865,0.6866287866,0.8089726731,0.2694418298,0.3018941036,-0.0188765844,0.4479174566,-0.9501841261,0.464508896,0.127319986,-0.2459034449,-0.6016215915,-0.583890581,0.314237131,0.4759831208,-0.4749034287,0.9847847525,-0.9541310814,-0.624643558,0.6174523213,-0.6447158771,0.6404883178,0.3279581643,-0.9644280865,-0.1040146454,0.8423816208,-0.1823028477,-0.6090121375,0.2856529002,-0.0243421927,-0.2492281992,0.5455364095,-0.3149894705,-0.0402149343,-0.5751592817,-0.9842489026,0.3628035944,-0.3673080994,0.3656150153,-0.6629302272,0.0057377404,-0.2344119928,-0.1549364891,0.1931937211,-0.0899918213,0.4569338333,0.0324624854,0.3287930534,0.3515467888,-0.9358772286,0.744933866,-0.821096707,0.9298899216,0.4848696511,0.6050168091,0.654499298,-0.8108309958,-0.70315531,0.5048807947,-0.8837398973,-0.9421585568,-0.995944411,0.0764786644,0.5570773015,-0.3742132022,0.2965939307,0.1940450669,-0.6490572406,-0.2440748425,0.2175153023,0.1082731029,0.8161160356,-0.3092592245,0.5149816495,0.3972764886,0.3045736744,0.9982956875,0.1021561585,-0.5889273774,0.2501788309,-0.5811925494,-0.8638503635,-0.5175752897,-0.9818159629,-0.3094089518,0.3764356463,0.9784699058,0.7114231192,-0.6918865185,0.2755723177,0.1256592318,-0.9468372811,0.3476067148,-0.4152435426,-0.8265003441,-0.4393488669,-0.1512209606,0.6582807896,0.3552780916,0.7000367025,0.534750425,0.3667144992,0.6451842886,0.1556234196,0.0997773213,-0.8373121381,0.348023226,-0.909494446,-0.2193022979,-0.2648173072,-0.7765774505,-0.829609555,0.2976416431,-0.5976002642,0.3297004424,0.8454191113,-0.8423968194,0.8932661128,0.70559019,0.4433936084,-0.1761228143,0.163876138,-0.4348515039,-0.6930547789,0.4994812664,0.5966319673,-0.3685219168,-0.4013471284,0.8956826686,-0.4704464778,0.9580753112,0.0878268708,0.7892539707,-0.163151719,0.8706560278,-0.1027215535,-0.7883088304,-0.9371467098,0.252027837,-0.3247975112,-0.5021909489,0.4843573744,0.9174164797,0.3449842247,0.3264841755,0.7244446124,0.4483174989,-0.8883242966,0.1473693811,-0.4912551716,0.3327804931,-0.3421760105,0.1070431798,-0.0909782882,0.6409235113,0.4852773541,-0.4189921409,-0.4064245904,-0.3350552471,-0.825181395,-0.2964037588,0.7540452647,0.3999245311,-0.0646057706,-0.5846446634,0.9166504565,-0.509741813,-0.3557091805,-0.9014844913,-0.470648393,-0.3363904312,-0.9774857867,-0.289548668,-0.3679848195,-0.5510074666,0.2598768717,-0.4157377602,0.7573164919,0.2091481518,0.0199301223,-0.7291016728,-0.6889050704,-0.7171458082,0.2632017356,0.1551856332,0.1873603296,0.1545435545,-0.7588888374,-0.8714992524,0.266180025,0.2456551832,-0.6920633493,0.847266797,0.1612645227,0.1476082783,0.4361473544,0.454034009,-0.588114622,0.7814988299,0.990850867,-0.6817568855,-0.7597482282,0.87787285,0.9519497305,-0.1668351248,0.078762397,0.6390327432,0.8657971327,-0.7860930054,0.371076339,-0.1863238825,0.5641208088,-0.7624626385,0.9720427005,0.7258321324,0.5008166004,-0.2231766186,-0.7664721663,-0.8713679175,-0.7078591584,0.540386158,0.2706203835,-0.691950524,0.139239335,0.5575486933,-0.8253201663,0.0826822183,-0.8225101553,-0.6948607479,0.7527107991,0.6359549441,-0.0463774605,0.2496364175,-0.8091217345,-0.2338812383,-0.2908179399,-0.4433933094,0.8049397091,0.6987771835,0.0245786388,0.3622998896,-0.5988014817,0.8605634648,-0.2622003043,-0.8437780018,-0.6547014551,-0.7191743708,-0.5832545135,-0.1379546105,0.9346382385,-0.3795676111,-0.2362028388,0.2891363767,-0.2340857103,-0.3821337021,0.6916950242,0.2139336087,-0.476627941,0.4898680821,0.6536880224,0.7851979232,0.5917425435,0.5431944994,-0.2956219869,0.5871910131,0.9288012438,-0.3254522939,-0.3523991071,0.9785162569,0.5625851434,-0.3982282079,0.0564069378,-0.9826445581,-0.2560235227,-0.7136244852,-0.6293254511,-0.3269654662,0.6266970752,-0.8753164557,-0.4492232519,0.1364833055,-0.9975726115,0.4894574945,0.2642222459,0.9072052182,-0.8924974818,0.3094310668,0.1704084362,0.274926186,-0.4494028234,-0.6176271294,-0.2274269908,-0.931708387,0.407042058,0.7502581842,-0.3052445494,-0.6763072114,-0.8641806405,0.1382123068,0.8847426217,-0.6878872702,0.4236368459,0.454978722,-0.8794277365,-0.2312153429,-0.3452096567,0.5746417507,-0.9296375125,-0.919149671,-0.1177432294,-0.1971634709,0.5826268032,-0.7635063078,-0.6802599665,-0.5870030431,0.5931957201,0.4004651315,-0.1283537356,-0.3439827236,-0.1543007585,-0.3573427879,0.0914390703,0.0732550671,-0.1297775518,-0.7261322332,0.9203057889,-0.0365538886,-0.7049211724,-0.9381935258,-0.7197436664,0.8542024537,-0.2504899709,-0.520032798,-0.6424833374,0.4881897939,-0.2046982394,-0.9749855781,-0.2267335286,0.0886686639,0.1356409121,-0.6988771713,-0.9578455141,-0.5644301771,-0.455800652,0.1384578996,0.4968828164,-0.8900580196,0.1007422852,0.1804128151,-0.8921890569,-0.2726966377,-0.165417781,-0.2612892906,-0.5986001847,-0.2930942034,0.8976719322,0.9752983902,0.2606056744,0.451409824,-0.7390964016,0.9690491269,-0.4745717939,0.4693883569,-0.5868956132,-0.4309260408,0.635397035,-0.2739504478,0.315324576,-0.6700475571,0.2278278998,0.0324648357,0.5796696519,-0.4395187014,0.498712191,-0.2514492785,0.2356494632,-0.4738381926,-0.0301307488,0.1862325202,-0.1490315062,-0.7290427422,-0.9306486288,-0.8796988815,-0.6053732869,-0.4081229348,0.2133192272,-0.1704259514,0.0974009761,-0.4997134611,0.7618615506,-0.2337328911,-0.360867458,0.6517202411,0.5234190802,-0.8463442526,0.7486355286,0.3565851023,-0.8479772211,-0.653916929,0.7946645628,-0.0469587504,-0.4864400909,-0.208087969,0.9919465201,-0.1473539325,-0.144732413,0.1918449087,0.1364540635,-0.9297896983,0.4133623263,-0.4213206091,-0.5916776829,-0.8305674313,0.8696941524,-0.2450315622,0.9554251172,-0.9033810707,0.0892742247,0.763839883,-0.1125674711,-0.5967850546,-0.472102697,-0.4556544191,-0.3735223474,0.7123259506,0.7980732813,0.9526196703,-0.67298976,-0.744944034,0.1145376575,-0.2978120186,-0.5155904497,-0.0942765027,0.2163534395,-0.7558322302,-0.7241647911,-0.8759124386,-0.7908700333,0.8522408914,-0.8205261527,-0.3047469895,-0.4807542829,-0.9762232876,-0.0284533894,0.5106296929,0.0959410394,-0.6241034162,0.2924942684,-0.6822819769,-0.2340787402,0.1437430213,0.0507998079,0.8056711396,-0.3967898216,-0.4655085532,0.5053466708,-0.6577586452,-0.0759587228,0.5238999033,-0.7959615368,0.2976911194,-0.4553872357,-0.6281657557,0.4561537675,0.25797337,0.6454195834,0.0364877087,-0.4051518889,0.3972026661,-0.5186887018,-0.8228277358,0.4963106613,-0.5389768581,0.9016137491,0.0971723228,-0.1004961117,0.5775273752,0.1609898833,-0.1634506356,-0.2140440186,0.9140550945,0.4956903832,0.316711904,0.7493390416,0.616568586,-0.4724231103,-0.3652687036,-0.7278693058,0.6189810184,0.0722935597,-0.3204269862,0.0492451651,-0.5108134936,-0.6658172482,0.6895184095,0.9223961074,-0.3160807502,-0.5851894744,-0.8364055009,0.6682780736,-0.8998632514,0.2456806316,0.0131874511,0.9321836493,-0.9209236962,-0.6828483886,0.1639982621,-0.0646150119,-0.0286645754,0.3324084535,0.4228002822,0.8029511721,0.952122241,0.5484887268,-0.422661817,-0.3680246688,0.6494020919,-0.0832320739,-0.7586752563,-0.4957412567,0.808420394,0.5160205215,0.5759900084,0.9901592819,0.8692226779,0.813835486,-0.8297824747,0.9097234242,0.392982704,0.2494305173,0.6412940031,0.7014141631,-0.7215631986,0.7516958537,-0.7843618057,-0.180098305,0.8927998047,0.6683605566,0.6006562403,-0.9767198798,0.1105386666,-0.2107482488,0.3206380647,0.6557341236,0.821572767,0.8128355176,0.5370698066,0.790866997,0.6909086644,-0.1619609295,0.5591124841,0.2629075162,0.7512729114,-0.8375306795,0.1260870685,0.6252554938,-0.0760290813,0.02363701,-0.9252631977,0.3726389073,0.6924069219,-0.733748815,-0.6504053639,-0.2194532178,-0.1611254501,0.243615547,-0.7473797135,0.4944342657,-0.4249125955,-0.6226674218,0.0776405713,-0.5157140836,-0.5876631042,0.5730202913,0.423251763,-0.2364070939,-0.4963027147,0.9578254641,0.2888273987,-0.2444463014,0.1514885156,-0.013318313,-0.928574143,0.5477208304,-0.5772312174,-0.5249266349,0.5421994796,-0.2631843154,0.3777189548,-0.8582632925,0.9518273162,-0.5427871625,0.2709350085,-0.979476145,-0.3161863814,0.8201234384,-0.5009726096,0.7770293591,-0.2970238374,-0.6082336571,0.7370566846,-0.1634767453,0.2956454897,0.127005819,-0.3897106482,0.2168335646,-0.0462451585,0.78207972,-0.6180708471,0.7790011442,0.2031374622,0.6094444146,0.2949368267,-0.2791450183,0.3318975861,0.8204864694,-0.7182421447,-0.5510312356,-0.5309775229,0.1955039526,0.7105176289,0.0376668896,0.6524076206,0.1995284318,0.5056752421,0.4184685133,-0.931910115,0.0410893832,-0.9380473432,-0.1085943302,-0.2418607178,-0.9121569919,0.3611513973,0.2705282639,-0.5341869208,0.346847936,-0.888215465,-0.1921587365,0.1432307618,-0.9801179617,-0.6753797444,-0.3974883637,0.2532436588,0.9986327266,0.7346113809,0.2171262479,-0.2743718947,0.5321849386,0.847019187,0.9098871789,-0.8384196818,-0.1886278786,0.7910771314,0.4147959239,0.5722302848,-0.9320303454,-0.7919309643,0.5854015748,-0.1096260364,-0.7822801629,0.5763283929,0.7504900863,-0.8130166818,-0.1842067606,0.8206540864,0.8197109512,0.3634197028,-0.8658897542,-0.2228839454,-0.4190802484,-0.7652318065,-0.9770589433,0.0232313946,-0.700887481,-0.2930486298,-0.2053023332,-0.2187610913,-0.7487582063,-0.1294233481,-0.1558597257,0.9671512113,0.9372111711,0.0798205379,0.2262434074,-0.4027176002,0.63638279,0.6861183167,0.0813509363,0.4021148972,-0.9339261949,-0.4092966901,0.9546502039,-0.1304096674,-0.4585170315,-0.663153987,-0.7810142115,-0.4074317643,-0.8049027664,-0.5141861048,-0.6567547541,0.6889849615,0.3563511878,0.7823315305,-0.8228335579,-0.2491257674,-0.9644918983,-0.3966671829,0.2785993921,-0.9874264579,-0.2945945955,-0.9919917511,0.6101840734,-0.3119881081,0.8994806642,0.5888166949,0.9549102649,-0.1508963104,-0.9303338529,-0.9004768484,-0.4772115009,0.9122554527,0.5960557897,-0.6347149792,0.4132672566,-0.3540968445,-0.2914829384,-0.1252403763,0.6001008796,0.7351970728,0.6771890981,-0.8203303787,-0.914707349,0.4810034981,0.0904349217,0.1076029014,0.8847494588,0.3574477501,-0.8120311935,0.2749428712,0.1920925167,-0.0533288784,0.9333660044,0.3451266831,0.9759888881,0.2508645736,-0.6945962577,0.8737289261,0.1174960786,0.9713627226,0.6944911463,-0.487875578,-0.9919804443,-0.0458371095,-0.9334539529,0.7719250952,-0.6803853467,-0.5932229337,0.8438842372,0.2500285588,0.3770501377,0.2411837768,0.8792928628,-0.0627860377,-0.1868171706,-0.8659397631,0.1108502394,0.895279959,-0.1909403463,0.9134837238,-0.7177001339,0.9837157731,0.1658369282,0.7518970934,-0.9499393446,-0.3859641414,-0.459588129,-0.8082575208,-0.76295084,0.9712783774,-0.1780642417,0.731339877,-0.0433740196,0.4693584948,0.2473593965,-0.2698765786,0.7932612028,-0.8806653192,0.5652452526,-0.5884109234,-0.5166585245,0.1419254862,-0.5304663266,0.0799148754,-0.3957655428,-0.8883635339,-0.7986610345,0.4084967387,-0.0005414466,0.0163091523,0.7469354576,-0.7737456395,-0.5844064851,0.6911090154,0.3609828471,-0.1220103761,-0.8357972245,0.3014575933,-0.4906878938,-0.2344818014,0.2588342683,0.3767633603,-0.6129751233,0.9227104555,0.6861047697,0.5010156631,0.8590653138,0.7112197288,-0.2666950896,0.3996106852,0.8667983983,-0.456580304,-0.1787968184,0.5622308909,0.8319312198,0.2393494003,-0.3442220319,-0.2378128227,-0.1377111421,-0.5972452866,-0.1545580356,-0.0363566551,-0.3021816133,0.7567254797,-0.9051867162,-0.863560624,0.6257330959,0.792332997,-0.2047472724,-0.1236672046,0.6273769814,0.4676732505,0.3498080732,0.4439847299,0.8884195213,0.758673961,0.4058785968,0.5952175672,-0.6990296592,-0.6730122045,-0.947536152,-0.3818566776,-0.1143587229,-0.6922555365,0.5796523832,0.0762313999,0.6473287481,0.1393312428,0.9506685534,0.8186631951,0.4487387472,-0.0834716267,-0.3941036517,-0.6046017109,-0.683170879,0.6372990905,0.1091944129,0.0133997459,0.7857066745,-0.0182012978,0.9848998866,-0.0553407426,0.8575053918,0.0417670708,-0.2963697784,-0.7075372028,-0.9147330448,-0.1866691437,-0.1940878545,-0.1028828349,-0.4829066261,0.718389832,0.6099766298,-0.6389722095,-0.6039428991,0.1367775578,0.1774042134,-0.4248615172,-0.262942284,0.6515412131,-0.4608986659,0.8961321579,-0.9353474241,-0.8596316688,0.0410000588,0.3287327872,0.5199895774,-0.9831512406,0.1255498371,0.8644601067,0.5576378896,0.8562336596,0.9499373578,0.1696843996,0.4487117472,-0.3820395158,-0.3939379647,-0.1404058168,0.7131868496,-0.8091080885,0.4910573528,0.0005032147,0.0285204923,-0.8885934138,0.3245526198,0.1827141588,0.1715666115,-0.7721344347,0.6764512899,0.6246190128,0.0955969225,-0.0726830114,0.639862889,0.7727589799,-0.7684434308,0.3186365416,-0.9206472001,0.5040976316,-0.0053065602,-0.5235267394,-0.5307665482,0.2005964263,0.1583506489,0.1885716627,0.7103061699,-0.8121276673,0.3727207674,-0.0417076267,-0.1901882438,-0.5810477271,0.4835744442,0.0393993429,0.5477795757,0.6281809325,-0.5803495877,-0.3196120989,0.0849714449,0.2495747545,0.8413167855,0.0463203261,0.5093728333,0.5074009073,-0.4287286366,0.9662855814,-0.9398844812,-0.5561900723,-0.1615564524,0.1913178854,0.578652046,-0.4624118615,-0.2903427914,0.497186875,0.5309342763,0.5299125929,0.0742767901,0.8079401705,-0.9875949011,0.2836743016,-0.5448606482,0.0051537867,0.7923716535,-0.5424012636,0.598270867,0.6952367748,0.7829942546,0.9280274541,0.079951071,-0.6299735773,0.5779499726,0.3278397168,0.3441894053,0.0857250145,0.1949387009,-0.2803081613,-0.2442418004,0.1029124935,0.5989827204,0.0221403932,0.9513056773,0.0760175035,-0.0550598213,0.7095853998,0.107875493,-0.416218185,0.6409346973,-0.1627799574,-0.7834106009,-0.8457341065,0.3318258653,-0.6817615369,-0.4912426447,0.262914903,0.1580529002,0.8901206515,-0.1173865371,0.723846557,-0.8357210787,0.0866774173,-0.4165561095,0.8929616204,-0.2254135627,0.6200657827,0.4406823723,-0.6006395506,-0.4479441955,0.9697535976,-0.4712343591,-0.0796795152,0.886213985,0.3757748212,-0.2599563531,0.4815112658,0.841254,0.2962939317,-0.220200161,-0.6691217002,-0.879854826,-0.9521851482,-0.4243869284,-0.7556448941,-0.4057142262,0.5396507885,-0.0440300526,0.1053795123,0.0542717929,0.5786282448,-0.4019360356,0.7643850967,0.0150835142,-0.0253033295,-0.3752501957,-0.604284672,-0.3710896743
   0.5944240626,-0.6358224234,0.0213614997,0.1710572623,0.4874900738,-0.1207322482,-0.4888527812,-0.7933566521,0.6204899691,0.4267076568,0.1279987314,0.3797064316,0.9685781404,0.9629436378,-0.4446617171,0.0322112802,-0.1377884721,-0.8995046614,-0.8413741905,-0.9131631308,0.9162831041,0.8859254857,0.7967676516,0.0653957485,-0.544971563,0.2194348834,-0.2670016135,0.6538076538,0.836027239,0.6231853037,0.1117000085,-0.6121188129,-0.8744240698,0.1000153358,0.8519829644,0.0254787484,-0.4274222247,-0.7226793712,-0.8291999345,0.0724554583,-0.4830752506,0.0437127545,-0.6994617706,0.8136046362,0.7687559767,0.2379149336,-0.3206842272,0.886233013,0.8451275394,0.0619198421,-0.2885463775,-0.2385117352,-0.5636514605,0.4292579353,-0.5569840117,-0.5505440983,0.200846431,0.0890846779,0.8146539184,0.2434095427,-0.6473141327,-0.8167232014,0.7748852238,0.6106494296,0.2323911001,-0.573572234,-0.9933820038,0.1204998192,0.9073433928,-0.3792831531,-0.0748286791,0.9929031027,-0.7351159492,0.9346221038,-0.4656708842,-0.3631666851,0.5300152262,0.3556338769,0.4912575225,-0.20671171,-0.2880057342,0.4455110305,-0.5408213547,0.7707506225,-0.9186497792,-0.6249491954,0.368920962,-0.9810235579,-0.9718127121,-0.3999843092,0.9714830023,-0.0939250937,-0.2791918512,-0.2244195094,-0.9435867592,-0.927054026,-0.7202441144,0.3680497401,-0.7557251254,0.4400935516,0.3576847622,0.3095615364,0.1191813521,-0.6605994262,-0.9395728854,-0.3875083014,-0.3805024156,-0.9777024937,-0.9777868824,0.1433649884,0.6641593387,0.737423248,-0.7169961378,0.2477829207,0.9327924527,0.5186903972,-0.5510676614,-0.2263379617,0.1711334907,-0.5233771286,-0.1662103191,-0.7240140799,-0.7751103445,0.7180457383,-0.9819422622,-0.8790432499,0.8861148561,-0.2518638598,-0.8248481266,-0.3324201099,0.1639856099,0.3842523677,-0.6044046351,0.0689454035,-0.7031482549,-0.3732606974,-0.5516907575,0.6004274064,0.9947795757,0.9588008157,0.8863554625,0.8032021331,0.2834803547,-0.23902059,0.0048875387,-0.3656162105,-1.6092028162,-0.490944838,0.5014482648,-0.2093621399,-0.0994053644,0.1997357722,1.0879138837,-0.3833386989,0.5562141121,0.3755627742,0.0104733247,0.2072936975,-0.3435779656,0.1124469781,0.3193903283,0.0662647151,-1.3456965781,-0.3418329306,0.5955884093,-0.3880382764,1.2460161204,1.8431965764,0.1231492615,-0.1805916246,-0.3976318111,-0.1124885735,-0.3502086238,-0.6893475538,-0.6335154589,0.8213974176,0.321931956,0.1044986392,-1.9181704775,0.150440656,-1.5431366595,0.0052001728,0.9691160507,0.1660942523,-0.5822099739,1.2641180534,0.2887106709,-0.3767099916,0.2110964103,-0.0460812207,-1.1531595786,1.6822822993,0.1859889251,-1.3078607478,0.1399558071,0.7517366103,-0.3228442168,0.2754151546,0.7786159714,-0.1723664901,-0.1334054593,0.0052775097,0.7753944197,0.1321122001,0.1129692817,-0.2729900735,0.1563367623,-1.3067271623,-0.1008257565,-0.8699925273,-0.0757696498,0.5454501418,-0.633542361,-0.0822540271,-0.2160294462,-0.9761138941,-1.3846567074,-0.0547035552,-0.5525349087,-0.2947874043,0.2572004315,0.5823613834,0.6551117936,0.0845994306,0.1141741982,0.6829331246,0.8150324378,0.139826444,-0.2982655715,-0.7666056079,-0.4453714211,0.0645669908,-0.3285238669,0.4754069314,-0.3012370791,0.7985502897,-0.4985439701,0.6637966928,0.7320760061,-0.7689176576,0.2109754608,0.1230783162,0.6248094167,0.1751633025,0.9770856713,-0.7351452312,-0.8817784471,-0.1278614036,-0.7953260848,-0.6124514397,0.1403122336,0.9607203735,0.8242842481,0.7528073253,-0.6807414981,-0.6814958107,0.6220068015,0.1938193787,-0.0945625182,-0.3362140548,-0.4474314167,0.7986283089,-0.3050554898,-0.4644833647,0.9610875696,0.5451908558,0.5515075699,-0.4751287394,-0.1700177147,-0.2087706734,0.8379596745,-0.4217526921,-0.7678601857,0.6686670662,-0.7614569893,0.1851924646,-0.9553706372,0.8185006264,0.4384971185,0.9479327672,-0.6260894004,0.1433658644,-0.2526189078,-0.8370887466,-0.8539406041,-0.2457676546,-0.2325762115,0.7732169983,-0.6841501704,0.4653263624,0.1615466734,0.4962524941,-0.4649942811,0.437457537,0.6100264479,-0.3651578758,-0.3790829578,-0.5022809723,0.5333747187,-0.066434473,0.8352190297,-0.8798301666,0.2895835419,0.6405179403,-0.475453704,0.2699975985,-0.3714375283,-0.30132632,-0.6665805704,0.2428386938,-0.817845841,-0.7826072363,0.8329970019,0.9062985066,0.6586134573,-0.070164557,0.1236730308,0.5355458344,0.1353452787,0.6993341248,-0.2414150999,-0.4029986564,-0.1945706683,-0.9308548145,0.4302895444,0.1995123766,0.2220307428,-0.1950175182,-0.1478427288,0.6217296241,-0.8301834603,0.9030762749,0.0604137055,0.1730445232,0.9402893657,0.3758635308,0.4353378376,0.4725542107,-0.0228034837,0.1069988318,-0.5329372336,-0.0178941855,0.7728308787,-0.9515575246,0.2935846805,-0.6075308287,-0.6268461437,0.0685071296,-0.1336308501,-0.628425182,0.4018690625,0.8709840238,-0.6284459863,-0.6962513795,0.7991794087,0.2501795211,0.6407692138,-0.1637333427,-0.1689092785,0.1136251671,0.6190102991,0.5468784559,-0.4760335504,0.2006342783,-0.5187382432,-0.8250202236,-0.1727821546,-0.5574457061,0.6419710255,-0.7645260873,0.2588305421,-0.3286632998,-0.2564987478,0.2368802547,0.2636894777,0.2327446255,0.5965711483,0.7363995473,-0.237172037,-0.9266735083,0.7723211743,-0.8479739442,0.6649292682,0.2456562726,0.5793187005,-0.8542872103,0.2427612447,0.5522077457,0.203063239,0.8398539398,0.4450057198,0.1197527568,-0.5038069819,-0.761626624,-0.0988631031,-0.1722784816,-0.392117388,-0.1956127451,-0.9679050903,0.142663288,-0.5330498419,0.9341115394,0.9604372249,0.3878897001,-0.0537822077,-0.5356624432,0.7731911458,0.5918183331,0.1715487951,-0.3764731976,-0.1767706687,0.2042128447,-0.3711514852,-0.3198137194,-0.6902512549,-0.6990972928,0.4139479358,0.9419411181,-0.9841848943,0.0745268369,-0.0118018726,-0.101571178,-0.3778878084,0.0322980286,0.7577242682,-0.8802330506,-0.8238299704,-0.6872161993,-0.604282362,0.6374515294,0.5074468192,-0.3243569687,0.9227101396,-0.793235484,0.3954936396,-0.8738190771,0.5183204649,0.7852172573,-0.1848571533,0.7669472002,0.1049703161,-0.0159676149,-0.5140747298,-0.9783695981,0.9414970024,0.4310794704,-0.085036321,-0.7239732552,0.7644615168,-0.0293876725,-0.1771056338,0.4044139686,0.7607617933,-0.3453191015,-0.4548014265,-0.990948656,-0.9848540602,0.0942500602,0.8072483556,-0.1019840292,-0.4720475268,0.308936661,0.5169402709,0.4686742756,0.1211945043,0.2864548854,0.8126290872,-0.1195939765,-0.9294063212,0.2816409718,0.6199446781,0.1819097834,-0.0066250235,-0.779293631,0.4579586792,-0.4239681877,-0.8169968597,-0.8469186807,0.3713179057,-0.5679681184,0.9921535223,0.212961924,-0.9354378573,-0.1387858206,-0.5850913286,-0.8285829139,-0.8552347795,-0.6643653594,0.8938357169,0.666511165,-0.2681983525,-0.9784520987,0.7118332358,0.9037458156,-0.0694398865,0.6212800558,0.5558715947,0.8606503374,0.7958886388,-0.9241379515,-0.9650883273,-0.4555372123,0.1921767918,-0.8334876879,-0.6071772501,0.9056337322,0.9296002101,0.7965999748,0.9505330527,-0.5088583879,-0.1376530021,0.2319475254,0.705915601,0.930177916,-0.8638407811,-0.0998699783,-0.7055078001,0.3143736784,-0.2719136802,-0.1956611935,-0.406807155,0.9550611602,0.9774229163,0.8144134663,0.8755942692,-0.7710836906,-0.1855574028,0.3292395546,0.4928256038,0.2650902588,-0.6301559376,-0.9417998717,0.1226670954,0.9151540298,0.6216018123,0.506205474,0.7627647658,0.002926897,-0.045284216,-0.8402351269,0.5165335983,0.4473066919,0.9485820982,0.0026856673,0.7591536771,0.7977621345,0.1876332141,-0.8792131178,0.9092715591,-0.9144670789,-0.5846127261,-0.5609768404,-0.1841726645,0.3259870938,-0.9505400847,-0.9128947389,0.1455084366,-0.4244346409,0.7488049625,0.9213714366,0.3353888111,-0.5122777884,-0.2513296143,-0.1502409435,0.4031010375,-0.5642414295,0.3988281498,-0.0729228182,-0.8135300257,-0.1416121133,0.3275717525,-0.398815533,-0.1032845584,0.1867770181,-0.4575017722,0.1873157477,-0.3891318262,0.6799014646,0.51105057,-0.3787266837,0.7137604785,0.3210763301,-0.6417218055,-0.8051487962,0.477004101,-0.7504452976,0.8139966702,-0.2350750096,-0.9234256737,0.8170232397,-0.4319606904,0.5857057862,-0.9975985146,0.2994376971,-0.6361068139,-0.4735722708,-0.2135857421,0.1077437609,0.5024410431,0.4843743019,-0.5067120404,0.496280704,0.4285642783,0.9464890455,-0.6618502094,0.1989852915,0.7948943588,-0.3105879073,-0.2227877178,-0.2025965662,-0.8633461913,-0.4313096014,-0.3744888531,0.0364471515,0.030825214,0.211486179,0.6850401951,0.1907547453,0.0082476258,-0.4339918572,-0.1389320334,-0.09866704,-0.0205332382,0.9079998205,0.0266378587,-0.4359234204,0.4127236851,-0.3686567429,0.0858296008,-0.1454206368,0.8202681123,-0.6952900621,0.8222113784,0.8467181007,-0.4692586967,-0.9287034131,0.1649899506,-0.1252497345,0.1369366879,-0.3766080709,0.8503587052,0.6312701656,0.5697710303,-0.1290079631,-0.1423838934,0.139713646,0.1252470406,0.3506797139,0.6058268277,-0.188712203,0.0368386958,0.9082826574,0.303980908,0.3775477357,-0.4678578573,0.3945911894,0.8579941619,-0.2298889165,0.4799542131,0.9256451606,-0.6238982608,-0.242351713,0.5668082732,0.8291704299,0.6499670616,-0.7152733258,-0.1159797321,0.0909143337,-0.9633171594,0.6065638194,0.9009864136,-0.0416556659,-0.1608462861,-0.938430661,-0.7289418921,-0.5725104928,-0.041152409,-0.0412472706,0.064240544,-0.1271479007,0.0865076452,-0.8794713789,0.7251669964,-0.0050011832,0.0504610092,0.9244193466,-0.3441814945,0.277213037,-0.0343215639,0.5730594687,0.9517413149,0.9969679112,0.3057171678,-0.3018582723,0.6651314746,0.6104904621,0.0506022156,0.8518257696,0.9552085627,-0.1507166274,-0.7508573506,0.7144648005,-0.343775813,0.8186557195,-0.7952255667,-0.3498665598,-0.1619984803,0.2496841244,-0.7462730535,-0.8874762826,-0.4085905136,0.991647156,0.0826046088,0.2743723091,0.2594488094,-0.7797797009,-0.3662556099,-0.9416638863,0.145619876,0.3760190743,-0.3542304174,-0.6842123798,-0.1266502845,-0.6583631174,0.3152278968,0.889166566,-0.8370206207,0.1461565053,0.4430613208,0.9635245993,-0.9426997837,0.9246446151,-0.0541178555,0.8159412673,-0.045790282,-0.2710087728,-0.1540358414,0.4906463388,-0.3636499297,0.6837471705,-0.7885559353,-0.5857363523,-0.8797914976,-0.6210868749,0.7064169999,0.0252991877,0.4396708478,0.523130766,-0.9400629773,-0.6039727028,0.5087782701,0.0042811902,-0.9097215967,0.098452665,-0.0918414394,-0.7272069081,0.3217245553,-0.3309201831,-0.1880644652,0.8482906744,0.9128375952,0.9625144425,-0.8225163687,-0.9474763458,-0.7840311918,0.0580150174,0.1039425876,0.042390829,-0.0938646904,-0.9992819709,0.5134653506,-0.1964959135,-0.3626906671,-0.3045184243,0.364188425,-0.0384168438,-0.0380814427,-0.1580908029,-0.6673923234,-0.2325090755,0.9239136851,-0.0839247951,-0.8846492891,0.9165375474,-0.5959030394,-0.0420403565,0.3462863865,-0.2699080651,0.5553441866,0.9527669311,0.6646186126,-0.041051915,0.7047957629,-0.0985881796,-0.6815202939,0.6901248108,0.9828617278,-0.4905244142,0.6534427707,0.0479182456,-0.0057108425,-0.2025800133,0.9115376432,0.0853186923,-0.592728203,-0.9030156741,0.6174794155,-0.5305981967,0.5032775707,0.6970607496,-0.4797417932,0.0813513211,0.7325542692,0.7489262551,0.0432066253,-0.0928680701,0.1330328618,-0.9338245255,-0.8053228012,-0.7090298243,-0.4141917366,-0.8644271602,0.9988977043,-0.4622087146,-0.4906937745,0.0649179928,-0.621088717,-0.4594997853,-0.7523350387,-0.7792740934,0.1603701913,-0.0826457573,0.8575091065,-0.439952701,0.383311335,0.8308899793,-0.7606162632,0.1896828524,-0.9822333179,-0.2074748657,0.1584438895,0.1836055916,-0.6803114693,0.3234960683,-0.9783471211,-0.4584983129,0.1819585711,0.9996000093,0.3325460946,-0.173436797,-0.3483175315,-0.8780914167,0.7414234213,-0.5308243117,0.3723942661,-0.9579083429,-0.1836594898,0.8445569816,-0.5474287631,0.3306750593,0.7431880736,-0.6864043035,0.7135780012,0.9810691143,0.9004441733,0.6252178148,-0.373256197,0.9409828267,0.0898339318,0.2058652893,-0.2562970628,0.0104208157,-0.5372658305,-0.6577203693,0.481149534,-0.7397639893,-0.1767883377,-0.2401439905,0.0306609525,0.1523389173,0.6776655064,0.6442593216,-0.4961473804,-0.4415037617,-0.6815767351,-0.9117131808,-0.9358249203,-0.6707976228,-0.5823036909,0.4787783249,-0.8561119547,0.0741586139,0.3949879229,-0.65573324,-0.0893756507,-0.8557099289,0.0769366193,-0.9812790379,0.1804185496,-0.0068630055,0.5342514432,-0.6763898064,0.8066409956,0.3061434165,-0.9712112778,-0.9079412739,-0.7820206199,-0.8656672632,0.3120169816,-0.6004050775,-0.627743442,-0.4021578116,-0.2291306877,0.5577255543,0.28272655,-0.5074396627,0.0940448697,-0.0996171549,-0.3258517689,0.7005394082,-0.8816365011,0.2452267053,0.7801323695,-0.0967203393,-0.7668106982,-0.6933421813,-0.6172044698,-0.8721386328,-0.1460581605,-0.694768222,0.7661373085,-0.4179846491,0.1551975612,-0.015758354,0.8937900366,-0.4109087067,0.6409963009,-0.9967512067,-0.6381462602,-0.9163270527,-0.3800991843,-0.2178155313,0.1233182428,-0.1792461031,0.0789371952,-0.9976005714,0.4516829611,-0.7684354701,0.6303491931,-0.3408424314,-0.8496799871,0.7372331346,-0.373314658,-0.376197554,-0.2059303533,-0.1713143809,0.3673495128,0.3715728095,0.4284601599,0.7378691985,-0.4948325186,-0.7462788337,-0.7803051665,0.0548462441,0.0439485709,-0.2359485668,0.3867941598,0.3542914825,0.7631700028,-0.8862139599,-0.2728199148,0.2789790369,-0.618217033,0.3982767191,0.5924966749,0.5030537508,0.8722045357,-0.5353707707,-0.1949917777,-0.8882419807,0.6763924549,-0.2635144811,0.210162323,-0.7516974536,-0.9932260815,-0.4755858616,-0.3100297986,0.9333182258,-0.6861813488,0.0842654936,-0.9501598731,-0.1296461062,0.0999725184,-0.2011690709,-0.4411847621,0.6470339832,-0.9506102761,0.5750938681,0.2515328339,0.2642683001,0.1530304388,0.6528293213,-0.6175119156,0.4362332161,0.7562188672,0.9035347988,0.1099566294,0.8919581564,-0.6708335522,-0.8641022379,-0.2008045866,0.1218391311,0.6674849419,0.7967710754,0.7424986648,-0.1506432376,0.4410482696,0.8102041146,-0.6384986038,-0.5231250191,-0.0190653191,0.9364049289,0.8842178443,-0.4762505133,0.0070003027,0.6812059288,-0.6791820111,0.6634132909,-0.9523161243,-0.4272229303,-0.0719659672,-0.5573550438,0.0242038367,-0.8302841607,0.5546244776,0.4284133623,0.9349716547,-0.0148532984,-0.996247287,0.1731037702,0.9631391693,0.1044817621,0.5099876723,-0.7762742571,0.6423816261,-0.2982420576,-0.3433289533,0.1590416315,-0.0104743054,0.9631672536,-0.1507439146,-0.717394578,0.7859862809,-0.8041229663,0.7315085092,-0.1113449952,0.2512118699,0.4841587594,0.3781166006,-0.8874332421,-0.7172294522,0.0195927416,-0.4646667502,0.5428883105,0.0202230481,0.3299819185,0.7622895306,-0.2892527846,-0.3498397122,-0.7266555109,0.5537671465,-0.6039694508,-0.4514420738,0.8198145218,0.8001615731,-0.4869445085,-0.8054520217,0.6442613089,0.6300187272,-0.7687026758,-0.8130203865,0.3525068817,0.1046399581,0.3515625546,0.2014042432,-0.8431024532,-0.6471630882,0.5319902517,-0.5172454165,0.652235047,-0.9824035255,0.6338162108,-0.3471243373,-0.4362906613,-0.8586319861,0.1630997123,-0.7649922875,0.9053357298,0.4932816958,-0.359823613,0.396026645,0.3259052223,-0.5256907032,0.3809328994,0.8641907988,-0.5649615093,-0.5192933618,0.9960667418,0.4816508277,-0.0642384883,-0.6832469462,-0.6596780281,-0.1719338978,-0.6860213813,-0.150710465,0.7838274583,-0.3855885736,-0.9592851227,0.1628151365,0.1579100981,0.3423355696,-0.2253419038,-0.2290879009,-0.835829934,0.2322829098,-0.4299028211,-0.3570062578,0.8744746363,-0.774261289,0.0761085796,-0.6453182012,0.4513046009,0.9353708543,-0.4206492267,-0.7837567464,-0.87439104,-0.3046422383,0.4188690629,-0.4505629082,0.7603564097,0.6876698869,0.2662166604,0.3096300764,0.9111386795,-0.5955698645,0.533565312,0.2806912577,-0.5289604132,-0.6813962851,0.3831468168,0.7752885348,0.6698620919,0.1895557778,0.744634161,-0.4603719227,0.3794877944,-0.0617795043,0.5229577547,-0.2743584894,-0.2584771115,0.3013473775,-0.8050750805,-0.5757379763,-0.2511875432,0.1757949901,0.3120875779,0.1614506061,-0.4835600024,0.0520914345,0.7888722018,-0.8102447509,0.4147965577,-0.0319508421,-0.2349398216,-0.5207572258,-0.162336657,0.5467281246,0.9914112373,0.9074065474,0.6263507281,0.7222845186,-0.6770064249,-0.6823042394,-0.3013292172,-0.8964177317,-0.0975391647,-0.5140763311,0.0850818414,0.551875963,0.5000131449,0.2790247737,-0.169780009,0.8297255819,-0.360988331,-0.4411701494,0.7785655362,0.9208545111,-0.6695377538,-0.3396369639,-0.0028800053,-0.0094728343,-0.6913032746,0.5903456968,-0.6954830028,-0.1789227931,0.6616772161,-0.9424595546,-0.1192835125,0.1321654122,0.5834009089,-0.1649916913,0.0191115571,0.8936574796,-0.9648865313,0.248640036,-0.5744766407,0.709544467,0.7600732534,-0.2683224349,0.222849699,0.2941205458,-0.1080021597,0.1022852047,0.8644636485,-0.3851141019,0.2176641164,-0.5795070812,-0.5368066298,0.655348153,-0.9932317955,0.1155075128,0.9420924477,-0.0733272681,-0.6932456587,0.1800426714,-0.9584512913,0.0494960481,0.5824000388,-0.0016573824,-0.0046264812,0.6359225816,0.356184789,0.3077365815,-0.5580003725,-0.4679050938,-0.8054433721,0.4102417259,0.5550581547,-0.8956938167,-0.8337462473,-0.9076103007,-0.2062000687,-0.9930074221,0.3516364897,-0.8481928245,0.9123956954,0.2986681565,-0.3307399518,-0.4431374922,-0.3065431529,-0.6491987498,0.2319465026,-0.2104052684,0.7736418745,0.4898790189,-0.5163758843,0.9272630476,-0.9423129419,-0.5373426268,0.4629378166,0.1621249424,-0.1155219631,-0.8193597445,0.5309191529,-0.3885808612,-0.9962103395,0.755691106,0.4429552272,0.5723332164,-0.0049685061,-0.9285108811,0.6875374765,0.7657939425,0.1463074713,-0.5964102108,0.5838411373,-0.1077187168,0.9174788047,0.3307985879,-0.2906047437,-0.530232814,-0.3592094851,-0.1334438203,0.3726313654,-0.6342874655,0.544070998,0.2078198353,-0.394968907,-0.789186721,0.5379656501,-0.526089521,-0.1382086101,0.1120069775,-0.2729624044,0.169533051,-0.4983040742,0.9318340012,-0.0300665449,-0.0299529105,-0.9590003347,-0.5106817417,0.5597803894,-0.4108809429,-0.4802186104,0.0315887733,-0.5548276482,-0.20865331,-0.9187122598,-0.0190072786,-0.1217927691,-0.9740279827,-0.5731495202,-0.624603328,-0.7108032476,0.1423615211,-0.1370025924,0.8837514193,-0.9836482776,0.2429520662,-0.671394635,0.4284894499,-0.2361029454,0.2689160711,0.8775021306,-0.6704407085,-0.3973090231,-0.6475515717,0.8129840796,-0.949858501,0.7868908969,-0.7811768216,-0.0546814436,0.2973189311,-0.7113205769,-0.6341391196,-0.9416568984,0.949631962,-0.7823084385,-0.4564292113,-0.1202243176,-0.7999388704,-0.9487702411,0.9837615445,0.6461760315,0.2520198054,-0.3588224017,-0.3648516431,0.7098630689,0.9157242506,0.5694854838,-0.0927817531,-0.6827454139,-0.4753608234,-0.8612094241,0.1179840533,-0.8000101043,-0.9630408389,0.4823758449,0.7548831695,-0.4977749422,-0.6577871277,-0.1167059694,-0.8251250585,0.7829522843,-0.2240064794,0.4314482157,0.0973420306,-0.4766892581,0.0045017272,-0.2997220708,-0.4554768241,-0.2893018562,-0.9013851319,0.868912867,0.7231957873,-0.1628716173,-0.0104435292,0.1450704502,0.9353629846,-0.8758711301,0.9285112525,0.6389065013,-0.6075839032,-0.6460341934,0.6627024247,-0.8400109301,0.1197499974,-0.702361317,0.7469098406,-0.123448227,0.8830017244,-0.8277884351,0.9806213936,-0.6395731249,0.3461005297,-0.6044113691,0.2242187102,0.6421842546,-0.0022016271,-0.1142080918,0.2340368217,0.7926566747,-0.3687676047,0.2617727215,0.5261735204,0.8225788918,0.2516240436,0.2325294644,-0.6317961477,0.6130729414,-0.4396842634,-0.6088117761,-0.1915613097,0.7750837037,-0.2618346906,0.6178602795,0.7380724768,-0.6407348106,0.896342568,-0.8876509081,-0.8301738085,-0.0387366006,-0.8106524292,-0.3886604596,-0.8567051649,0.5067745667,-0.5390573411,-0.9431890539,-0.4929941834,-0.9252766508,-0.8340594674,-0.2474436169,-0.8922610886,-0.1431008961,0.223803437,-0.5681584346,-0.2775200693,-0.0676830173,0.2943008025,0.2866787093,-0.6417108948,-0.8875833162,-0.2782199415,0.8356151318,0.6343192199,0.0404321247,-0.9016990415,-0.7384748387,-0.2324277679,-0.8162202336,-0.8730320148,0.2737785643,0.2599930876,-0.5316594714,-0.5519952348,0.039568041,-0.0437630455,0.4550088606,0.9116553838,-0.1668902632,-0.256498166,0.8754917592,0.8934019067,0.4494696177,-0.3260819766,0.4920479891,-0.7079713146,0.8024294929,-0.3163400766,0.7079386155,-0.8626562542,-0.4957166426,-0.8015197684,-0.3316687476,0.8870600159,0.1379098372,0.9588730544,-0.2894873249,0.6010063823,-0.069295876,-0.7365429234,0.395064147,-0.2140067299,-0.1567806009,-0.4757631144,0.650576658,0.1749594847,0.0483101545,-0.4230724965,0.6932148412,-0.0872536432,0.5150898534,0.2560786781,-0.559916803,-0.9317565133,0.9739566267,-0.6685051584,0.7736990291,0.0122461415,-0.1873701997,0.2805557965,0.0629477454,0.5521967098,-0.8922922984,-0.2476594036,-0.3548480742,0.6544759462,-0.2065547574,0.9647651657,0.3061622681,-0.3094233996,0.8396767509,0.5869697271,0.3958983563,0.420629412,-0.5923696335,0.6185082608,0.6074322556,-0.8270093939,0.5317364617,-0.9550399374,-0.5387471963,0.1817456475,-0.7859409191,-0.1119880388,0.2180364303,0.3967954613,0.5301520963,-0.6283997321,0.7490737228,-0.0993621704,-0.5210328868,-0.7210142236,0.2987245571,-0.316723778,-0.5969901224,-0.2235299665,-0.3144203719,-0.419971435,-0.1531015481,-0.8744607647,-0.1394389745,0.4272887504,0.8219210679,0.2312480437,-0.4580534483,0.2332508327,-0.2497679556,0.8083030165,-0.4181208545,-0.3116572377,0.2249469375,-0.19018777,0.339482498,0.9511007901,0.5087070011,0.6111879574,0.5117479539,0.4661650381,-0.4943842028,-0.8736811425,-0.1678099869,-0.3198853651,0.0660401379,0.8616699535,-0.5504957077,-0.5954739001,-0.572371402,-0.2357741068,-0.7358346273,-0.5485002293,-0.3541134337,0.2226892191,0.5304442434,-0.6202218853,0.4926168858,0.1961047132,0.1292993438,0.3862575277,-0.7689786502,-0.8779767281,-0.9470213386,-0.7496873619,0.6308967116,-0.9720116309,-0.5677523036,-0.4134892657,0.5447118801,0.7394695492,0.0750499237,-0.4373821108,-0.9689269919,-0.7974638409,0.7458060558,0.8510220718,0.1511610468,0.8639480025,-0.6673015229,0.5739701398,0.5191209569,-0.3639862794,0.7625725971,-0.9046696545,0.2191657894,0.0298673207,0.0164874222,-0.492427642,0.9408727961,0.7863831902,0.7342135951,-0.7732884369,-0.7959574682,-0.1496014398,0.9478686886,-0.6965820416,0.2398569561,0.1337434222,-0.9308646309,0.1159686934,0.9217949311,-0.1300095292,-0.2847563371,0.683106727,0.8816301903,0.8956856619,-0.9590014436,0.8022303898,-0.7989475825,0.8869258568,0.1445453367,0.5188296733,-0.0737505276,0.0268554184,-0.7510337139,0.4934960167,0.0282586817,-0.2010276679,-0.8047722043,-0.6138828618,0.6929356409,-0.5635038943,-0.1205915764,-0.5125578816,-0.233273268,-0.3006539627,-0.9588753002,-0.4489647991,-0.5447018567,-0.0871348119,-0.5719446255,-0.6271722931,-0.8610431923,0.8047208667,0.190702554,-0.7457366442,0.9932570057,-0.9549791959,0.835372852,0.1386532758,0.4132513041,0.9881018343,0.796202288,0.8006777355,0.8706713779,0.5088119452,0.7126447883,0.9534898636,0.449705079,0.5957134127,-0.4113388003,-0.5206011625,-0.6025679275,-0.8001792383,0.4318486838,0.4967714309,0.0646661108,-0.6561324558,-0.9945448683,-0.1154402139,0.767577362,-0.0593306869,0.7384379276,-0.4686547094,-0.5526995266,0.6545577262,-0.4445999334,0.4650429035,0.1976160571,-0.5263117696,-0.7724076259,0.1986248399,0.9518875682,0.5410590166,-0.3294958267,0.3416461594,0.8090308936,-0.6096013658,-0.3587005615,0.1668113172,0.3643822372,-0.0166177042,0.4477627649,-0.9302814644,0.8312447535,-0.5358014763,0.8483890731,-0.1470569302,0.9672839299,-0.0584599468,-0.9258668592,-0.6262713269,0.4760668521,0.0156912261,0.9014935098,-0.7137736642,-0.4822196004,-0.1373367318,-0.3207400167,-0.3440313279,-0.3470612581,-0.5608199736,0.5676753067,-0.5232130012,0.4637889447,0.7642815484,-0.1755081797,0.3299099031,0.8297689655,-0.3301611711,0.3831552933,0.0892474411,0.4320553231,-0.0214328287,-0.7296686565,0.0662845264,0.294369868,0.6253771785,0.9240961202,-0.0113153226,0.6374496052,0.9136705727,-0.6797245802,0.133270935,0.8742015218,-0.1083027199,0.0891081153,0.676382855,-0.3482222231,0.5634768142,-0.0994050212,0.5852776486,-0.0251658688,-0.183382707,0.3338391241,-0.5962665992,0.1263226634,0.4707130279,-0.7141089501,-0.2056441245,0.0591242004,-0.2797357472,0.6621700986,-0.9332937077,0.8616528635,-0.2633049623,-0.6232267315,0.4576068874,0.0770439087,0.3391609102,-0.8520765836,0.6395803758,-0.7455684894,-0.2015592034,-0.0544723052,-0.5119476163,-0.9986133055,0.6089589856,-0.524844099,0.6839652419,0.4595723122,0.1983338161,-0.4885665365,-0.7612871227,-0.6173490533,-0.5578352467,0.5396408678,0.0727746882,0.2605436553,0.0123863176,0.5213233485,-0.3299283383,-0.1507066213,-0.9558984683,0.159319435,-0.9720867376,0.2509446896,0.6262804176,-0.3990761542,0.6602004757,-0.2973373125,-0.009296923,-0.6925215246,-0.3668945281,-0.6623331351,0.1783327558,0.1547424089,0.24537632,-0.1633309359,0.0374678412,-0.6956232627,-0.3574298018,-0.1618347014,0.5439479339,0.8289111003,0.3856502578,-0.0821331904,0.3074695619,0.2238473542,-0.2691869716,-0.9848867428,-0.338022258,0.4159693448,-0.2144993704,0.9003559638,0.1520399521,0.5275929526,-0.5073918117,0.3991607163,-0.4207113215,0.0758573605,-0.6619587567,-0.457015354,-0.8622647992,-0.4384275499,-0.9959534789,0.5578836424,0.7662898117,-0.3384970259,-0.6957820921,0.1920285365,-0.0411302111,-0.7018191408,0.9139199072,0.5412753257,-0.284465159,0.2921131044,0.0177185842,0.6944354845,-0.452363753,-0.0969622283,0.5190264458,0.2770445282,0.1181310025,-0.1411802794,-0.7334791706,0.0130636072,0.8474698311,-0.0523435935,0.452456098,-0.8644055438,-0.0321304441,0.3776233877,0.1542581861,-0.2137333075,-0.9763448933,0.4759137452,-0.2149572605,0.4590833106,0.6116886841,0.9769068673,-0.688550805,0.1089750419,0.6156892404,0.4390468767,0.2237936723,0.3700590422,0.2481167919,0.1903518428,-0.94041411,-0.2336144044,0.2193572611,-0.1640649155,0.9790503887,0.4474724413,-0.1832410792,-0.6283168904,-0.7320507718,0.3205313189,0.217452953,0.1677505032,0.2879050755,0.9877690635,0.4938866345,-0.5692808645,-0.1365001414,0.3529233709,-0.7045631919,0.8015135393,-0.7801306636,-0.2134255752,0.202259249,-0.4825515474,-0.2432403829,0.8852437183,0.7236611652,-0.1520234138,0.496931142,0.5469083445,-0.7611950795,0.507112714,-0.9991169796,0.3746466041,0.5138217034,0.062427087,-0.4341568858,-0.0495067805,0.2698758434,-0.4077368517,-0.9169558301,-0.8162973313,-0.500482866,-0.8176621723,0.7802515634,0.8081973712,-0.2658340502,0.817093474,-0.4061048271,0.4002893662,0.2933135529,-0.1799585868,-0.1896974959,0.3869562544,-0.9761017426,0.7556544485,0.2992735422,0.1336639313,-0.3131204747,-0.3226156814,-0.1536336549,0.2402086132,-0.1016038366,0.8130232141,0.6617977135,-0.5738029775,-0.1772959639,-0.254473113,0.8424726809,0.9169657043,0.3532940962,-0.3122541419,-0.9672316189,-0.4259154675,-0.333040148,-0.1317193986,0.7522112569,-0.7235036292,0.9024738075,0.5055574057,0.6997410884,-0.4109348587,0.312170869,-0.342779709,0.5594560729,-0.5834095927,-0.2905801115,-0.6495051431,0.4610106444,0.4709489945,-0.9195415882,0.1472568905,-0.9854695507,-0.6261424607,-0.4431171601,0.4914433539,-0.4971668058,0.4357783204,0.7165463085,-0.5901639653,0.4051663703,0.3939550381,-0.8189402289,0.764365561,-0.0977788699,0.6391412746,0.2343229291,0.3935410905,0.849959553,-0.9955657062,0.3935049182,0.7899613577,-0.5088222664,-0.9057647073,0.8977861404,0.7294803938,0.9659931819,0.3738157261,0.52300272,-0.6117631026,-0.2915837363,-0.2627380576,-0.1461987083,0.3791817702,-0.1546064724,-0.1427246644,0.9844969861,0.3074440768,-0.4544186379,0.2665424028,-0.1644418357,-0.5098644617,-0.3984630181,-0.4560297913,-0.3040178481,-0.2087394315,-0.1048739103,0.7064335749,0.1152841957,-0.8869259727,0.7863350041,-0.3271047485,-0.6931470552,-0.3357262692,-0.6456772086,0.8393119287,-0.5127420278,-0.3808100152,-0.4835010262,0.2763342945,0.8691255169,0.8626124053,0.3061974501,0.6224256204,0.9409699363,-0.3568536272,0.2161497026,-0.1336740882,-0.4879442614,-0.6412274
   -0.1720114398,-0.921444124,0.3230257639,0.863920908,-0.8932821772,-0.6634971177,0.787738944,0.7729050773,-0.5288844415,0.0522051615,0.5983389745,-0.2405470394,-0.3368497986,-0.0447693289,0.5108053898,0.1162869956,-0.0177627605,0.9290581515,-0.4635468254,-0.9553870754,0.0773768778,0.0745780243,-0.9245979485,0.7268196297,0.3660824638,0.893940419,-0.1265690726,0.6394668353,-0.7991990206,0.4700897059,0.0528439095,0.2183427727,0.2627181403,-0.8490110986,0.4165825264,-0.6477758558,0.4885753701,-0.4073629103,0.0353788699,0.2182641155,0.1275269031,0.7034839154,0.2723258449,-0.9095779995,-0.423428273,-0.0888682007,-0.3536820958,0.2968130532,0.9769362102,0.6110345586,-0.4826526103,-0.8383566927,0.2016874803,-0.158132513,0.1717076641,-0.1180913151,-0.1017330386,0.6506101171,-0.2043951145,0.993645899,0.5656374083,0.6115123141,-0.0769357443,-0.3810328393,0.7550566521,0.1400104545,-0.1903962924,-0.8248074731,0.2985232655,0.0937774026,0.748280223,0.4610339008,0.6471370024,0.1223035837,-0.055069613,0.5388171953,-0.4464141701,0.1410963334,0.2529074555,-0.7191475478,-0.8841145724,-0.1946021808,0.4532468617,-0.5063575841,-0.7121884412,-0.4818960858,-0.5249114803,-0.6950367559,-0.1298340541,0.0351486202,0.2685940374,-0.9576718369,-0.01245735,-0.808909128,-0.751015815,0.6032960343,0.6172305059,-0.7770354856,-0.8005437907,0.9517822344,-0.1802750805,-0.3124847208,0.8315420188,0.245101342,0.9453306767,0.5610283246,0.6548475469,0.2861945775,0.4153445665,-0.9128901481,-0.5011899965,0.2706549791,-0.8679387193,-0.6758312763,-0.6549700262,-0.9271450497,-0.8228002915,-0.5219509305,-0.8032697212,-0.0038523782,0.4101292771,-0.0408592437,0.9082604422,0.2709831196,0.3073751735,0.4596953444,-0.6037558139,-0.9527216177,0.4615423386,0.4477119536,0.5078494121,0.0538523924,-0.4119083163,-0.3387242884,-0.5555292374,0.0553558873,-0.6576675517,-0.9809635645,0.6936970585,0.5697716693,0.0801290975,0.160093428,0.9791148278,0.4477494229,0.2712857397,-0.2614298412,0.6107694174,-0.9877490914,0.5232475603,0.1391157078,0.2310612495,-0.3672960444,-0.2256661322,-0.4551552655,0.2631984912,-0.372083562,-0.6587255241,-0.1141218507,0.2815246777,0.3245705648,0.1510881585,-0.5614921576,-0.9044353566,0.953456825,-0.8027751451,0.8194877396,-0.4746030846,-0.4101216797,-0.4976027904,-0.8088295587,-0.647200622,-0.7139297513,0.6008669792,0.1289400682,0.3031880237,-0.4064975266,-0.6672179525,0.9889824194,0.6902174528,-0.9375520092,0.1991774717,0.1154574148,0.8785218984,0.3782184942,-0.9548160039,0.7429402324,0.1212186516,-0.9877663958,-0.8236041729,-0.6718277871,0.4510717682,0.5666231144,-0.5159573892,0.2326557391,0.2866801396,0.9356080172,-0.7733074643,0.0706501505,0.4074807337,0.7042834544,-0.2788167269,-0.9681557333,-0.5381685604,-0.5907807428,0.4372580551,-0.9214993372,-0.6095535392,-0.9898384974,0.832865006,-0.0679829207,0.3502030516,-0.7819714086,0.5266830483,0.541849818,-0.1837871889,0.615427831,-0.6621725906,-0.2082395954,-0.219330531,-0.9395933807,0.3189314288,0.3074950184,0.3315190336,-0.9447536573,-0.8231113043,0.169569222,-0.3537445278,-0.1538734576,0.8429132756,0.9203675593,0.9860674921,0.7055824328,-0.7184530927
##end
biasActivation=0,1,1,1
[BASIC:ACTIVATION]
"org.encog.engine.network.activation.ActivationSoftMax"
"org.encog.engine.network.activation.ActivationReLU",0,0
"org.encog.engine.network.activation.ActivationReLU",0,0
"org.encog.engine.network.activation.ActivationLinear"
