encog,BasicNetwork,java,3.4.0,1,1532921429663
[BASIC]
[BASIC:PARAMS]
[BASIC:NETWORK]
beginTraining=0
connectionLimit=0
contextTargetOffset=0,0,0,0
contextTargetSize=0,0,0,0
endTraining=3
hasContext=f
inputCount=16
layerCounts=4,26,101,17
layerFeedCounts=4,25,100,16
layerContextCount=0,0,0,0
layerIndex=0,4,30,131
output=0.3333333333,0.3333333333,0.3333333333,0,0,1009.1753433603,0,0,0,618.343416978,384.0148785014,579.6439613632,279.0358963465,0,801.2733340962,300.1526233804,0,469.5509232168,0,0,591.7815433055,0,147.6121976072,0,104.7110160372,0,397.2250714707,0,323.912517357,1,24.0554949089,0,0,48.3028835932,71.6799595199,76.9509483976,0,53.5947490988,214.1944959204,0,168.7574742382,88.8787267058,203.8374766087,0,48.3035627399,0,130.2577710948,36.9513323561,131.3844604485,132.6007465901,0,0,0,33.5317697503,51.4641838399,0,73.9809330311,0,0,0,93.915577646,82.1818643242,0,4.0906026229,0,0,101.9254409679,50.0934798101,0,191.7326819198,127.4475146538,167.8139193807,214.002772366,65.5076785912,49.9930677907,64.8295897006,51.9201531365,1.4421030289,13.1544886883,0,34.7141915067,155.3922303847,0.2254386644,0,128.7056018767,0,25.7032728249,0,5.6239125318,0,0,0,0,40.7602271895,0,71.1510664325,36.517077566,134.3187687512,0,0,0,7.7934328381,0,0,52.2505310435,0,0,88.393384727,9.8410530535,16.838880575,37.6284909906,43.1534051181,5.4022763979,0,0,0,65.2947521667,1.9772676239,195.9507692188,128.753428637,0,13.7925054779,69.4218570746,22.4224271787,0,0,0,0,120.0248749633,98.6094030427,1,64,128,16,8,2,64,32,4,8,16,4,2,0,0,0,0,1
outputCount=4
weightIndex=0,104,2629,4329
weights=##0
##double#4329
   0.5141029712,0.5213866168,0.9918248801,-0.3046134764,-0.8526092495,0.5257385421,-0.1899173015,-0.63045829,0.1000442453,0.1791908631,0.9401496442,0.8305768813,-0.3086426161,0.8741066425,-0.0842909564,0.3005719178,-0.2540172756,0.0952927264,0.9913015413,0.8076081653,0.4927316718,0.8729488296,-0.4041757129,-0.329159699,0.8397010251,-0.7223940089,0.093068538,0.9445558193,0.6673581623,0.3587161929,-0.5241838054,0.9101836616,0.1915747533,0.9639960922,0.1530497718,0.4984594928,0.1741194722,0.5448570453,-0.0683779026,0.4155137757,0.4207029541,-0.5875878985,-0.8134018152,0.683339426,0.9915239384,0.6065783583,-0.8056892565,0.6816386321,0.3385262621,0.0639327299,0.5739031225,0.4883019253,-0.8740498074,0.8303667224,-0.5022990935,-0.046880894,0.2007466465,0.4056784448,0.9546004581,-0.5839398962,0.8070578291,0.5631214826,0.6772157235,0.9321611154,-0.7610994701,0.2736364657,-0.1970446413,-0.0436939924,0.9343944641,-0.9462690741,-0.2549189939,0.4857365469,-0.4698553358,-0.546631473,0.7040926372,0.2094709005,-0.7975920165,0.6181279242,0.1324273408,-0.7438076574,-0.5140396239,-0.5186489824,0.2900179662,0.5367761237,-0.7832170685,-0.5486656634,-0.2092391427,0.8487127695,-0.6436303527,-0.800484346,-0.8556349845,-0.023912726,-0.8528221945,0.765668282,-0.5771221389,-0.8509331837,-0.359803574,0.95575762,0.8516789845,0.0699312473,-0.7595633331,0.0413889908,0.4079810923,0.5708458126,-0.5405331708,-0.9747774294,-0.668367985,-0.4638463409,0.9296633243,-0.0894115029,-0.187479782,-0.4378599515,0.4656226094,-0.6870932934,-0.8717706019,-0.5762185498,-0.6242594193,-0.7845865844,0.6438249944,0.4852777719,-0.3145368225,0.6849164281,-0.593839799,0.1937576355,0.520266249,0.2688163985,0.036164024,0.937639816,-0.8401675476,-0.6152489073,-0.6770590055,-0.8682960874,0.2242942151,0.6449620882,0.3522129562,-0.739801941,-0.4469611538,-0.7631201819,-0.3513222571,0.4994205641,-0.7749330108,-0.6437463473,-0.1730712123,0.9082477131,-0.7509150913,-0.6431111202,-0.582676453,-0.5676042971,-0.1116419404,-0.0781322764,0.072898518,0.8113455452,0.6709727613,-0.307602166,0.772153393,-0.6275387294,-0.0053100299,0.1677273056,-0.3907408242,-0.9631736074,0.4262223892,0.7049932475,-0.5124531533,-0.2177306801,0.1078243875,0.4449625706,-0.3833857428,-0.5317926793,0.1516708921,0.5998850634,-0.9330468726,-0.6637019335,-0.6409557669,-0.4795150987,0.4873532341,0.7814516238,-0.4913206356,0.8493621966,-0.7174855643,-0.093203231,0.019215181,-0.3319071271,-0.443460347,-0.3184480594,-0.9164283375,0.001858452,0.0680228488,0.0908627623,-0.2950574114,0.8004181014,0.9263901318,0.9163865602,-0.8800487028,-0.5948246636,0.1743122649,-0.1363171941,0.2588708346,-0.7639759928,0.6147498066,0.3343232426,-0.2152708037,0.6519283353,0.9475549627,-0.2151149122,0.0846507173,0.8209842031,-0.9111936511,0.8839244238,-0.2854108326,0.1762942635,0.7471424473,0.5821957104,0.3850359589,0.7238552666,-0.8229579087,0.8278878493,0.3905732139,0.4181041495,-0.2438859714,0.2400524564,0.7283979649,0.2290771852,-0.3897282373,-0.4432159426,0.3563280204,0.1275886198,-0.808147599,-0.7517559192,0.9629115657,0.5152238957,-0.3838520406,0.6482754753,0.3648331537,-0.2758802749,-0.6796203091,-0.5940753372,-0.3877739825,-0.884122767,0.4603738603,-0.662844064,-0.0901929202,0.2497869932,-0.8014368697,-0.8173648007,0.3404095472,0.2545489691,-0.0605748523,0.2769113708,-0.4711629003,0.1159292147,0.9235239898,0.428085087,-0.8516943077,0.0381525579,-0.605035644,-0.6873659594,0.0077614853,0.1778279846,-0.1151697476,0.6851842711,-0.5069390338,-0.3095939709,0.8727827885,0.4835580581,-0.0769727493,-0.2116113989,-0.3937676803,-0.3672718549,-0.1499723277,-0.0124296722,0.9470581552,0.0486419245,-0.6778989511,-0.9341889884,-0.6049945261,0.3879686595,0.213474168,-0.7037084685,0.7791955081,0.1388437213,-0.5261443604,0.9398220011,0.3493370783,-0.6466933935,0.5824020233,0.1589963401,0.0409824661,-0.9092341271,0.8291874293,-0.3547164518,-0.200892146,-0.9863663776,-0.4177460133,0.842890711,-0.1152065294,-0.1869874176,0.8331770451,0.5136578512,-0.1715538562,0.4869484457,0.6409985437,-0.7348603549,0.9049541928,0.844793465,-0.3560377758,-0.8063168518,0.9361064764,0.7526385711,0.125419026,-0.8094884636,0.4897297809,0.5481059533,-0.9446366796,-0.0857101285,-0.0800554099,-0.9104453285,-0.7764779697,-0.6779014702,0.347709914,-0.0265729507,-0.3977085118,0.8078888565,-0.0861666742,0.2422037074,-0.5153446306,0.0732269464,-0.088322485,-0.214196895,-0.3918524667,-0.8627488662,-0.3023496237,0.7393860529,-0.9125407029,0.1667280169,0.7747434661,-0.6477320568,0.7816231764,-0.5644982713,0.2149323599,-0.6671876058,-0.6453937509,-0.8382103786,0.0626258135,-0.552836308,-0.745759801,-0.4129255721,-0.6928230549,0.9817508754,0.6886762376,0.6614074898,0.28575721,0.764780704,-0.7301706288,0.7437388105,-0.9342455933,-0.3652992864,0.1368836584,-0.1271152113,0.9246500943,0.5932026233,0.5876494094,0.1074058332,0.0489203046,-0.9807850621,-0.5504061476,0.0289255804,0.6417822179,0.1651015794,0.8178194693,0.8580258451,-0.3580210805,0.2208822704,0.5065095277,-0.6600356271,-0.6401876842,-0.4946988384,0.8490342578,-0.1724219321,0.2233739357,-0.4435112321,-0.9104991395,-0.4386672639,0.197843125,0.4572754082,0.2000673691,0.6971908308,0.0542488983,0.1658161963,-0.7309034132,-0.8380270604,-0.6769612737,-0.4896526134,-0.828675576,0.9519035151,-0.9574717054,-0.0300828651,-0.0384068894,-0.0679880239,0.2164106999,0.6554431726,-0.8171300815,-0.9450323942,0.9970381444,0.3806504262,0.4990887743,-0.7401022162,0.4511183555,0.8484389324,0.3610911944,0.0037439319,0.2067976977,-0.4642398782,-0.5824000458,0.0210346721,0.1162754166,-0.0084197836,0.9189763218,-0.1200052852,-0.7978756373,-0.064145535,0.5633113713,0.6159170566,0.6985325554,-0.464291125,0.6301306591,-0.8981127906,-0.1705149365,0.9717295537,0.3856836566,-0.4683214119,-0.421298901,0.1000517597,-0.3243535289,0.9155456956,0.0324326532,0.8588167929,-0.8958158767,0.5013788474,-0.225844773,-0.6985945531,0.3611855448,0.4415679358,0.520277108,-0.4723758754,-0.9831251785,-0.1910561728,0.4847975847,-0.4864713695,0.7816898429,0.9764208441,-0.7501141076,0.8990813287,-0.8349940161,0.3287671378,-0.2484026779,-0.2293550212,-0.7125064297,-0.4896505803,0.8175015189,0.1141395932,0.2127385752,-0.5867180583,0.4653023487,0.595904594,-0.4524826276,0.7667336063,-0.6476583899,-0.0722975455,0.3114836601,-0.6674214433,-0.0515627384,-0.2631462608,0.2685392994,0.6077166469,0.0421922578,-0.702262945,0.5034380243,0.6858862456,0.0105603421,0.2310897781,-0.4415657098,-0.6212236277,-0.6254815931,0.2287923248,-0.0490385989,0.6875215434,0.0018803681,0.983169612,-0.6468139221,0.9649063976,0.6379812573,0.6236795377,-0.8225812775,-0.5489947083,-0.6138709824,0.0033321385,0.6031753063,0.1520018483,-0.6383603642,-0.1631234544,0.3892046846,-0.0767550667,0.8211176541,-0.1523949292,0.3444257134,-0.7513340699,-0.9435129062,0.1798257574,0.5741638319,0.2621953124,-0.1503377651,-0.4648245952,-0.4508322053,0.4005714152,0.3705704324,0.1648323511,0.2383202674,-0.4706923809,-0.6895172376,0.8142953491,0.9861025696,0.3693963775,-0.1941581382,-0.0794476809,0.5755580623,0.4186593175,0.1259325697,-0.0216671082,0.8361736369,0.7385535777,-0.6784394544,0.5995472058,0.606008759,0.5689124969,-0.2331107719,-0.3641900245,-0.3011386744,-0.470897228,-0.6073799213,0.2764573677,-0.7353679211,0.8176995553,0.3512056241,0.1956664668,-0.8215472938,-0.6446750826,0.6963042236,-0.5293157723,-0.1558091812,-0.8842346915,0.1245557862,0.3026799309,-0.4286650536,0.0501522079,-0.3859687273,0.0727844371,0.0585432045,-0.5058992794,-0.00610591,0.6135007355,-0.3619089692,-0.6418643669,-0.1013045745,-0.8043778222,-0.4776529679,0.2180839674,0.4065267284,-0.1449389767,-0.8645483441,-0.4129656468,-0.0294573678,0.1481730947,-0.5278501452,0.7791965829,-0.8464685961,0.8422409775,0.2460568678,-0.5936320215,-0.1821392653,-0.9305651928,0.970072891,-0.8920797715,-0.8960395041,-0.6410608853,-0.6350940149,-0.5851945457,0.1738487903,0.0746146636,0.5409457959,0.1837427274,0.0718787462,0.1584117269,0.5692782587,0.1618625107,0.5411818256,0.4892346377,-0.371298138,-0.502030364,-0.6786699121,0.9135383323,-0.4618007721,-0.6092104099,-0.9114441025,-0.4861973548,0.0900227184,0.4282315527,0.9589793859,-0.7337764954,0.3721470948,-0.5318487699,-0.098960113,-0.4298926351,-0.0328949338,0.2584296325,0.7876313999,0.5125033036,-0.2888492575,0.8922569307,-0.0613707535,0.0518602957,-0.3262486984,0.4643595983,0.3886866663,-0.4700016764,0.8791962558,-0.9720638562,-0.0173865396,0.4474477275,-0.785292992,0.2848837328,0.8798442773,-0.1873048855,0.6294392854,0.3906795063,-0.0435546768,0.6029596195,-0.5216188203,0.2251989388,-0.1451987922,0.2794115701,0.1979213432,0.9486829128,-0.8220110892,-0.1768006704,-0.3369430768,-0.2123543223,0.6783082474,-0.4626452052,-0.3544042666,-0.5332112078,0.3013543366,-0.7096883038,0.7765486203,-0.6588264057,0.719482091,-0.9399001231,0.8103122561,0.6585011638,-0.7236737533,-0.6073048911,0.995178119,0.8533893774,-0.6113226229,-0.1534561903,0.7107882422,-0.4053887387,0.0478177961,0.5993919643,0.7526393476,0.6865267938,0.0958712391,-0.2738596918,0.4372928159,-0.6012636547,-0.4905117656,0.453227481,0.9724289656,0.1553251348,-0.7578323829,-0.5268613392,0.2613551621,0.256463302,-0.3570049632,0.9225952222,-0.0821527879,-0.1500877883,0.900574734,0.8705944226,0.5975630386,-0.0881525333,0.8854529423,0.955388451,-0.9180621958,-0.6498363053,0.5058507323,-0.5479334984,0.9736675671,-0.7110460792,0.8990497476,-0.7233092872,0.266428459,0.9722143565,-0.2578110431,0.2216686966,0.0614037461,-0.1273683195,-0.7295868143,0.8757658442,0.3441083144,0.5776467877,-0.7487109532,0.2765223193,-0.5247484363,-0.4925013596,0.1143070194,-0.2346617606,0.1424873125,0.591659293,0.6633732957,-0.573159722,-0.5040642849,0.7241699641,-0.7667238059,-0.5068269178,-0.8887411169,-0.8079583519,0.8161522342,-0.2767503975,0.627623846,0.5322415803,-0.0568637015,-0.9716295961,0.1230613535,0.5006887293,-0.2213579642,0.9083330422,0.7141970596,0.5677900253,0.400263555,-0.9656313555,0.9567519399,-0.2375798469,-0.7735599163,-0.7202226254,0.1687802207,0.8552305786,0.2199654583,0.9737964582,0.8849855351,-0.6028816279,0.8843015781,0.8457449466,0.2348482377,-0.1193491496,0.0349259229,0.8196535167,0.6316007833,-0.6535277338,0.5573174799,-0.9498969074,0.8911135285,-0.2212738486,0.0547599309,-0.9055508779,-0.845669809,-0.3637386973,0.0376507266,-0.1890029943,0.1043306192,-0.547669299,-0.2141317294,0.367431123,0.2454157239,-0.6898553111,-0.0658583578,0.640381201,-0.1657256222,-0.638313001,-0.8187337879,0.4751025631,-0.2718550906,-0.2034317014,0.1048772272,-0.1794322122,-0.6718457362,-0.6024655703,0.0144406198,-0.7168192795,0.8461035788,-0.3798388939,-0.2497230401,0.1226915152,-0.4841058028,0.4343686305,-0.7532138969,0.4766854168,0.1679686634,-0.0488229632,-0.8199207116,0.9356623661,-0.1141084288,0.9637854883,-0.4965709016,-0.0332337595,0.8822501748,0.8222955356,0.8578752181,0.9483735862,0.8562775016,-0.0053916459,-0.7708959468,-0.4020353878,-0.6120149829,-0.6480128273,-0.737188532,-0.2770470965,0.8442736194,-0.7908828881,0.3231775302,0.8268840366,-0.5012752357,0.5332567684,0.4138746959,0.5913946247,-0.3031951682,0.6122326406,-0.6580344609,-0.480894929,-0.4025461828,-0.0134675039,0.7071659532,-0.8415674357,-0.0482579423,0.3539820794,-0.170399876,0.6935973115,-0.4789369443,-0.0636428948,-0.3298108082,0.9335685529,-0.7465566206,-0.2569487321,0.9216176309,-0.5178661921,0.5056216023,-0.3080542832,0.8197005666,-0.6068258735,-0.8078535966,0.4212628056,0.9446358889,0.6298307597,-0.8301206424,-0.391870535,-0.3561359538,0.3930229085,0.7462876358,-0.7129704358,-0.3882405354,0.7332178436,-0.7581555495,0.6690429243,-0.5147083316,-0.7433090738,-0.7935170219,0.7454825406,0.6487208482,0.9305151843,-0.9514089022,-0.5029809019,0.2229008892,0.6975947327,-0.4147858953,-0.326222972,0.5698586278,-0.6066212066,-0.3339675779,0.5177641961,-0.3178092095,0.9409931023,-0.1611070212,0.8467074323,0.6423084771,-0.1586352595,-0.5344168525,0.1634697552,-0.5011182985,0.2774889145,-0.4752582372,0.0661349042,0.5071856757,-0.7565412576,-0.6471755735,-0.129682777,0.7259840761,0.720608023,-0.6713152989,0.8326012624,-0.8896116876,0.6623638883,-0.5030078061,0.4626738828,0.6298688047,-0.117083073,0.0943773159,0.3464976145,-0.3957142007,-0.523508368,0.6253534464,-0.9343686819,0.9578543588,0.3326654148,0.7540857882,-0.4526979017,0.7071300744,-0.0057819846,0.7580177584,0.8178098562,-0.44707733,-0.8927929285,0.0723248798,-0.1389043878,-0.4717732341,0.9631992362,0.8211906887,-0.0133172446,-0.5788879028,0.8847338752,-0.4490934058,-0.3118983852,-0.1303604434,0.5581611716,0.004896079,-0.7017636878,-0.5698633791,0.813161227,-0.6301908607,0.8877062153,-0.4920335269,-0.1200878888,0.9353613433,0.6201828537,0.2524566082,0.8788756685,0.9931354832,0.0058846848,0.9920172974,0.6859495968,-0.7490918586,0.3349424867,-0.7306963023,-0.8524327214,-0.48368576,-0.356505198,0.7941501991,0.9482468103,0.2900383334,-0.1985569709,0.8397052523,0.7251040805,-0.4908872284,-0.7767097996,-0.2857550875,0.6919548794,-0.6175987941,0.8319679735,0.0907705423,0.3524036461,0.9711045184,-0.8555799735,0.0917799096,0.0707532221,-0.6013707383,0.5209360974,-0.1850329614,0.258277239,-0.013868383,-0.3521777653,0.1059066644,-0.593120289,0.0017727822,0.7638153102,-0.1621377673,0.83209137,0.6659133488,-0.8353807536,0.2369506082,0.0966973129,-0.7317968196,0.5098467683,-0.3203980288,0.9468086278,0.8574300266,0.4680360319,0.4836187022,0.6530684464,-0.8854086907,0.1494856726,-0.2693279263,0.7652305218,0.5705695837,-0.8678443905,-0.4129072686,-0.1822638483,-0.1748366101,-0.6352450871,-0.5122055334,-0.9574801375,0.6340731722,-0.9379671836,-0.2620021741,-0.3726371885,-0.8047317633,-0.8212809068,-0.8995330682,0.3418350938,0.4673585242,0.9087617221,0.7780780648,0.4004334633,-0.2157098068,-0.6144046951,0.8024920179,0.4600182846,0.7712917386,0.7815364761,0.9098520758,-0.8694320799,-0.9180123941,-0.9698309645,-0.2637827754,0.2643703101,-0.6129867303,0.6539981845,0.9315476419,0.7159554081,-0.37132284,-0.9141384331,-0.5949110895,-0.7803759101,-0.9664140708,-0.0649198986,0.4197689567,0.584108296,-0.2536191406,0.042547374,-0.3568894893,0.6287586542,-0.7969033466,-0.3486445997,-0.255468374,-0.4080622613,0.6805920646,-0.9127568986,-0.8655305252,-0.4131840426,-0.919388082,0.1692002844,-0.7049366683,-0.1259342307,0.9994024743,0.6591302829,0.2521886723,0.8445372443,-0.924641327,0.5860221221,-0.3782672563,-0.3014269157,-0.7447538066,-0.0018325649,-0.1872585476,-0.3239531235,0.6542721601,-0.8750170292,0.5037293431,0.2934775734,0.5969102545,0.9333881355,0.7286439195,-0.648895025,-0.2569089522,-0.2408711964,-0.9666051406,0.8488063742,-0.9927388798,0.2720225198,0.3565715175,0.1124903845,0.1338853278,0.2524942331,0.3240150564,-0.6314877327,0.0909651521,0.9250226051,-0.8209310973,0.9686592225,-0.5520931387,0.0827546161,0.4733735912,0.9148542159,0.3452284849,-0.6284523952,-0.7263714882,-0.623754238,-0.6479034109,-0.2631967891,0.4317055623,-0.2684259316,0.9199982209,-0.1514233387,-0.2330136698,0.5202130877,-0.9866409194,-0.5769184079,0.8181084738,0.446700653,0.0058602536,0.1370956062,-0.2514168555,0.605725816,-0.1299936378,0.6570787163,0.6971287911,-0.0730910021,-0.9507899436,0.9547775539,0.9559079592,0.2133623312,0.2264660026,-0.3398508808,0.656282809,-0.5181650117,0.2443016844,0.187478074,-0.7731465838,-0.5134661988,-0.8663410238,0.9165668822,0.4348156792,0.1758111259,0.9984245141,-0.3549652495,0.4635209723,0.8423074092,-0.1895877041,-0.5631373729,0.7326973167,0.1013731306,0.5912393764,0.4251626151,0.7799786998,0.3290046219,0.2491952719,0.1244521206,-0.7970636415,0.5422608739,0.7871450349,0.3237813623,0.9257580475,0.2838346123,-0.3095194426,0.8640487742,0.9335971753,-0.2707499124,-0.6772734141,-0.925735384,-0.8511239778,0.5143851123,-0.6956608285,0.3304332891,0.1190476939,-0.4898438763,0.7585835433,-0.3344878996,-0.7037004736,0.4165325892,-0.679113081,-0.7375185184,0.1694846261,-0.0219426492,-0.7604473738,-0.426414719,0.1596736027,0.5895630433,0.9212275123,0.8476630424,-0.1938834285,-0.8205952484,-0.7553633733,-0.9337981232,-0.8972034186,0.8580325491,0.2558483448,-0.3757850658,-0.101367853,-0.1310635278,0.7925605255,-0.0539266616,-0.1766082711,-0.5886581198,0.9508588942,-0.476591767,0.5375966166,0.9326864327,-0.0360798051,-0.2507836709,-0.6748478993,-0.5641998155,0.0992346688,0.5423051027,0.7399499131,0.2640594501,-0.8445901674,0.9533876684,0.1819559792,-0.9665191592,-0.9812043535,-0.8822031024,0.4704863058,0.7173897027,-0.6552916274,0.2713038396,0.8218007943,0.6257263065,-0.6846354799,0.2895163555,-0.6591388955,0.2154920984,0.1732794143,-0.9279566934,-0.2730553982,-0.3554629528,0.8050396702,0.2442476954,-0.5912561382,-0.7382710103,-0.7990924425,-0.1352599536,-0.7333023782,-0.2242006817,-0.6058367565,-0.5728642137,-0.7272231455,0.7247513872,-0.3630413618,-0.4774293572,-0.0240529022,-0.2183965918,-0.9851305109,-0.7879456871,0.1744390961,-0.5125048695,0.8429549215,-0.6466080798,-0.265892579,-0.6160775896,0.0182569903,0.9408221315,0.3628644005,0.621483502,-0.2851515148,0.6630853214,0.635369363,-0.6846591684,-0.0258940767,0.2296215357,0.684471666,-0.4828415488,-0.5583018922,-0.0907660242,0.2877337831,-0.922254935,0.9543875157,0.3687923156,0.9893670071,0.2095858981,0.5569422515,-0.9166553897,0.4491048792,0.3082401295,-0.3027172338,-0.3506232496,0.5296875374,0.6447208054,-0.6364806004,-0.0418667143,-0.3817687804,0.7817245951,0.7599584654,-0.3738452015,0.3937283788,0.3464209981,0.0464097068,0.4801968581,0.148024017,-0.8604795116,0.0048147704,-0.5578774274,-0.9596691107,-0.1352494154,0.1867682314,-0.4907711914,0.5102484115,0.8678273066,0.9854700722,0.0354686956,-0.5918437162,-0.3822203096,-0.5575065474,-0.7833817427,-0.5729770966,-0.5338247063,-0.308538943,-0.2670003669,-0.8115871414,0.5934666256,-0.0531327909,0.208273206,0.4925595702,-0.8827231766,-0.8780027019,0.4857740596,-0.8526015147,-0.3836390908,-0.5524441963,-0.4296433631,0.5004272884,0.49762504,-0.8081727919,-0.9847920864,0.6503689157,0.3132171125,0.7154125773,0.6443232799,-0.6164362587,-0.0689393201,-0.8007890486,0.3732051863,0.8499848592,0.7632776662,0.1013236934,-0.9925156969,-0.1770575312,0.2888162925,-0.9035274739,-0.8380273443,0.2191866516,-0.7914971056,0.6695785409,0.1082635782,0.0965070393,-0.0420614193,-0.6162440691,0.1524669993,-0.7315689289,0.087562712,-0.4820127793,-0.2162922436,-0.1644182583,-0.3314205194,0.6170227623,0.9821466499,0.1126002685,-0.9565616422,0.9772292084,-0.3965732881,0.9705192789,-0.0225655968,-0.4448179747,-0.5935309136,0.5894882623,-0.3981913006,-0.9085702302,-0.734894154,-0.7163463458,-0.8636244806,-0.8548778929,-0.5062836614,-0.9871131069,0.2022316234,-0.6860266059,-0.0798710721,-0.7199956752,0.3589244145,-0.81294728,-0.096665675,0.4516403635,-0.2125453792,-0.1791660235,-0.8314589942,0.2538379102,0.4419822978,0.0405332401,-0.8968796453,-0.0008802501,-0.1693118717,-0.6441164434,0.6704733039,-0.0133818601,-0.304752109,-0.196020923,0.5582737244,-0.7094468146,0.1020450521,0.4982728745,0.7269489585,-0.7181766739,0.7619431989,-0.6682578573,-0.2500313787,0.1161754202,0.2590571029,-0.4167260341,-0.8042779535,-0.7426090318,-0.4096746185,0.2284947285,-0.2895283194,-0.3583831426,0.9322889773,0.75261062,0.831974273,-0.0061612832,0.7363910767,-0.1747223072,0.2235269638,0.2125200408,0.4930451078,0.9441393881,-0.7772601442,0.8169246281,0.4265266685,-0.634404992,-0.9464344845,0.7424972583,-0.2160161903,0.250816897,0.0400382858,-0.4352644254,-0.8526709558,-0.239804817,-0.4888153796,-0.3255776009,0.8576555433,-0.7113626747,0.4699089084,-0.9128230588,0.5211424213,0.9764726129,-0.4098316042,0.1019226241,0.9683678633,-0.1954592503,-0.0279938652,0.9892821019,0.7506643788,0.4521164562,0.1081135814,0.1773000245,0.0840274869,0.8724998231,0.9440885951,0.5291203677,-0.3451874529,0.4738528582,-0.524281086,0.8587660935,-0.3716101811,0.0000595535,-0.5979236329,-0.3311309783,0.0139309809,0.7643003346,-0.9833705073,0.8518964371,0.8953453989,-0.836335413,0.4851285066,0.106973001,-0.6476945024,0.9972270629,-0.2468128379,0.0265197712,-0.7018368054,-0.4320478467,0.9008460084,-0.8219905199,0.8436808726,-0.0284247623,-0.4797554151,0.5238853537,0.6490068222,-0.3267794383,-0.7320503983,0.6580532375,0.426804976,-0.2050517835,-0.5382780023,0.0180031917,0.3368061115,-0.7791722581,0.5221189296,0.404618536,0.1515656004,0.8256374563,-0.4266381656,0.4653852618,0.8118006681,0.3265010555,0.2598167932,-0.2166486585,-0.1434009957,0.789921303,-0.355819015,0.067719175,-0.1699038463,-0.5332217241,-0.0222229517,0.3825223151,-0.2405745973,0.1752183841,0.3774494754,-0.4842754545,-0.8064253484,-0.6266345481,0.7493772481,-0.4363340404,-0.3744857904,-0.1451039787,0.0409382731,-0.8794313624,0.7897001357,-0.2015206751,-0.8912449909,0.5768087011,-0.9863602644,0.0652786179,-0.7564195569,-0.6512822668,-0.0170357056,-0.6949836695,0.4384779496,-0.9077728022,0.0082901375,-0.9055945126,-0.2106069481,-0.608986056,-0.1670977616,0.021749616,0.0812953456,0.2281581763,0.7070384957,-0.4660615124,0.6130495206,0.1909928514,0.8489882147,0.0028170613,0.461763084,-0.898212356,-0.0101671598,0.7601595888,0.960335353,-0.4425030369,0.2292941201,-0.4130844432,0.8007670062,-0.3998625503,0.2680755468,0.9097813883,-0.8200693029,0.30893635,-0.2444395694,0.6733855355,-0.8054728296,0.4833614707,-0.2870565611,-0.3386864863,0.5862216044,0.5636355847,-0.6359932821,0.1159624522,0.6675446246,-0.6905040802,0.8494986253,-0.0864440063,0.746510226,0.8922252791,-0.479350145,-0.8878192967,-0.3680163189,0.9082318524,0.8291986548,0.1461162694,0.3055589528,-0.2159896451,0.3929841899,0.6636923258,0.54689887,-0.1434965331,0.5077042685,-0.8292561382,0.594147373,0.991486393,0.5251207283,0.5290117158,-0.1113861253,0.0384486317,0.9842509649,-0.5869606968,-0.7033858415,-0.2066320887,0.7249151156,-0.6690207741,0.2928285217,-0.7012365966,0.1993718601,-0.9020195191,-0.9758908094,-0.1494815437,0.4069616877,-0.1486011248,-0.9727784755,0.0121058062,0.8711964996,0.3619941348,-0.6075257852,-0.646969387,0.3653883948,0.3814684427,-0.0176373906,0.8927787124,0.0743010294,-0.6709949575,-0.3124605993,0.2815933912,-0.6929466293,0.3933586036,-0.3773610644,0.9807656367,0.1877953256,-0.2711544243,-0.5289703922,-0.145300318,-0.0701631518,0.9967658097,-0.6437184431,0.7697145426,-0.452283571,-0.206309876,0.0012758155,-0.0078290659,0.3327974373,0.1961151759,-0.2873577584,0.9860806424,-0.5808329682,0.8119326588,0.7555025,-0.7062997623,0.1351079712,-0.6180588419,0.1207068707,0.3827976142,0.1785026892,-0.9154603818,-0.1520256322,-0.6245840093,0.4858461926,-0.790218585,-0.578851913,0.5164809678,-0.5879967659,0.2660423273,-0.1742789012,-0.541772625,-0.993081397,0.7040044995,-0.030751895,-0.141544473,0.2124136486,0.9707688516,-0.0892376703,0.6037264078,-0.5222037909,-0.0409144298,0.7658391013,0.0637249732,-0.8693972855,-0.583288216,0.7679687207,0.4856127701,-0.5587159475,0.2051492577,0.2094700305,0.0559966738,-0.4187164294,0.1030094604,0.3349954796,-0.5426345534,-0.249420528,0.967625921,-0.830233471,-0.3922574124,0.9930354222,0.830693182,0.0830309055,-0.8423969979,0.1605645275,0.981250681,-0.2278234314,-0.1718719189,-0.9082641078,-0.5194547745,-0.0129841055,0.2947012486,0.6416102287,0.8396510827,-0.9650513667,-0.7757201879,0.5472619779,-0.3821710938,0.3265881333,-0.0295897047,0.5011133476,0.6791921566,-0.1595963731,0.5663067333,0.2614465338,0.9613736024,-0.3963637318,-0.4557619342,0.2518097133,0.7644882801,0.5624948243,0.3951241355,-0.0800102154,-0.0502837045,-0.9863987982,-0.0573384883,-0.5006458828,0.8424782787,0.8549703545,-0.8797468451,-0.3970788598,0.2760983763,0.5789862867,0.5573619652,-0.0053639119,-0.1152236023,0.4550567896,-0.7806695057,0.2298292678,0.3443065007,0.5183678014,0.2513004847,-0.1696647259,-0.1694968121,0.1619317518,0.4657303627,0.1194529237,-0.3848461761,-0.467953377,0.9197156939,0.5475600581,-0.0565614713,0.1844669916,0.7253800234,-0.2468760526,0.3222190384,-0.0976729537,0.6333130384,0.8205556594,0.8628730184,0.8198003862,0.7848517432,0.906369589,-0.5511127962,-0.8306978848,-0.9311083522,0.9510446092,0.7373123556,-0.0761063351,-0.4594443105,0.5237300073,0.8490358709,-0.7831277132,0.1812387755,-0.8582786961,0.3065432906,0.896905362,-0.8097805295,0.521977978,-0.4759906913,0.1151215474,0.1440260108,0.0023776685,-0.5948928402,0.6319160683,-0.5967908072,-0.0601584049,-0.9946729161,-0.0807473795,0.937350808,0.878668255,-0.1569809673,-0.6215500763,0.4200749406,-0.4173379499,0.0563948485,-0.1789878963,0.9408135097,-0.3824112624,0.6318533938,-0.9276248316,-0.6488257025,-0.7574162554,-0.672443189,-0.1587213944,0.8613158088,-0.9290501238,0.4740270976,-0.1814770351,0.8929415319,-0.5872586856,-0.3641777812,-0.9541373226,0.8008621914,0.2952357361,-0.9520914981,-0.8309290609,0.7826424993,-0.6245715044,0.4709517788,0.8006638789,-0.433779497,-0.4964191926,-0.9026944326,-0.6843459778,-0.1014648975,-0.1840232494,-0.4163218742,0.9179133362,-0.2674845513,0.4013476833,0.1297706843,-0.3590375076,0.8832102416,0.1507563219,0.6354023583,0.2172313609,0.2692777193,0.1512192622,-0.0254009954,-0.6173472259,-0.5083674119,0.7836917022,0.5324908506,0.1228581254,0.0539078925,0.4294445306,0.5869507268,-0.0461450122,-0.1990068734,0.1862499294,0.5065887465,0.827274638,-0.274322099,0.779041086,-0.0178836156,-0.070276204,-0.6837072465,0.667105182,0.8837817438,-0.5857775441,-0.1979025913,0.3666368764,0.4562334723,0.9018054076,-0.2131095449,0.5154833052,0.1829518054,0.0765363976,0.2024269157,0.7606071024,0.1198633208,-0.715220206,-0.6894230546,-0.9932301026,0.1796013223,0.8665894056,-0.0985700364,0.4937184505,-0.3140447349,-0.7702264704,0.6226856653,0.4428087583,0.0896491643,0.8178232225,0.1116856476,0.4735025651,0.3811010903,0.7722621154,0.1808382851,0.7344498409,0.7439494481,-0.1478484597,-0.3259098428,0.8185729788,-0.4014215039,-0.9619078085,0.0349068654,0.9414636865,0.6797786138,-0.2861281041,0.4335579333,0.5492633025,0.3211645631,-0.0620788934,0.9936322489,-0.3639743277,-0.8843724497,-0.2635904075,0.701209605,-0.2744216902,-0.6204127456,0.12855408,0.5907105253,0.6262914768,-0.5672726671,0.7049525324,0.5036580148,0.8102415188,0.3100489451,0.0695911962,0.2382396956,0.7887852065,-0.2901343487,0.1499258205,0.8506679559,0.5393061663,-0.4883526183,-0.7560711532,0.2253599168,-0.8514266049,-0.5155736457,-0.6137491689,0.7323324744,0.8161655346,0.8908054362,-0.3640395571,-0.1934064806,-0.1275922635,0.0705660543,-0.2347948463,0.5028313416,0.8337365288,0.1841572821,0.1788628029,-0.1178929238,-0.3163098593,0.5134433989,0.2312136922,-0.4797278751,0.4522084268,0.0856408152,0.5141560968,-0.6393819553,-0.8624265941,0.2202266511,-0.681575343,0.7673318785,0.2702406533,0.1779736663,-0.9192344069,0.6444617699,0.7926285184,-0.1159689562,0.7218392438,0.2326791095,0.8116527802,-0.8261004755,0.2699451822,-0.9222281991,-0.0855890597,0.2112704966,-0.5637557293,-0.7654117256,-0.8965793864,0.6320470621,0.926328745,0.7979120987,0.1137863276,0.6026818506,-0.8864617439,-0.0232387922,-0.7105203144,-0.6526970689,-0.9846543122,-0.9092763097,0.4388384689,0.9526410399,-0.4598263764,0.3209673019,-0.277447412,0.8436074384,0.3748241953,0.0042201106,-0.2051143597,-0.2312051137,-0.5001414953,-0.4628785844,-0.2135495938,0.6118242967,0.740577224,-0.4229455187,0.3533295041,0.4742292238,0.0445370381,-0.9972511176,0.5501187404,0.0617723815,-0.3820618961,0.3879811822,-0.4667069846,-0.33985865,-0.524614784,0.3993061256,0.4596005717,-0.338770534,-0.0003367422,0.038506392,0.2743498819,-0.1717452815,-0.330331806,-0.6826376733,-0.2132162688,0.0959429632,-0.8461321229,-0.1442709977,0.0147971216,0.9388215891,0.631462952,-0.428346923,0.9679132623,-0.819871549,0.1775965788,-0.189283102,-0.3342596539
   0.7013715871,0.4194422628,0.1561297021,0.0666853832,-0.7665205249,0.9687120193,0.6564192728,-0.462045763,-0.7746459375,0.6999347359,0.619757038,-0.3538393687,-0.5471252068,-0.7456134084,-0.2947879671,-0.5627137214,0.5867664967,0.5899133705,0.6729152175,0.9875347056,0.4628130786,-0.3803501292,-0.9859578782,0.8451103914,-0.9372315821,0.6773634438,-0.0134934611,-0.1348966647,0.5414572452,0.0674663558,0.9225683245,-0.2111183099,0.531500025,-0.7058210589,-0.6871794829,-0.8800698065,0.9947040816,-0.5805057566,0.2834675062,0.4502505766,0.0564459162,-0.6678384116,0.2702590507,-0.9747643322,-0.7592335335,-0.1316771187,0.5840512455,0.7342284296,0.1858995435,-0.4896481619,0.3728961276,-0.523539183,0.1858484918,-0.0697689332,-0.6938124341,-0.6375411982,-0.2154921075,0.8364684161,-0.0219577064,0.1568686287,0.2134234526,-0.3502710221,-0.8351769362,-0.7196637052,-0.1795159512,-0.730628209,0.3111024308,0.4325993751,-0.1736020302,-0.1000036127,0.4824336511,-0.3476295152,-0.1843158817,-0.5347504716,-0.7454408163,0.2214145373,0.4666965367,0.2639879482,0.7819709548,0.4779675211,-0.105696842,-0.3740577965,-0.6748718511,-0.3839049238,0.5520887988,-0.1553805674,0.7988549694,-0.4646236679,0.2776587782,-0.3564445525,0.1148274446,-0.6572936089,-0.7484775952,0.3135741604,-0.2138272895,-0.9777629196,0.4248082702,-0.7940221648,0.0704150235,-0.5560898298,0.4351698367,-0.3653740347,0.3112175294,-0.2071624431,0.0464010731,-0.0628739734,-0.113034233,-0.2654168876,0.7045661797,0.879582703,0.0220426307,-0.6454834342,-0.3001849797,0.2698082071,-0.9424636497,0.4544532596,-0.1976928949,0.3358245736,0.56472136,-0.8620067972,0.1870545386,0.8258939186,0.0249504906,0.6383055854,0.9354953037,0.2160185232,-0.9083306715,0.6187372916,-0.3705057309,-0.2548439455,0.8733447226,0.6042498497,-0.8397548761,0.087444453,-0.283647329,0.4759149183,0.7342916538,-0.2029746968,0.7557885558,0.2025323884,0.7938737485,0.5683370915,0.1744781548,0.5266361085,-0.5983385008,0.2675691407,0.9230770272,-0.6568664949,0.1019455295,-0.8148260514,-0.7968241935,-0.9616955741,0.3095614005,0.2213157848,-0.3854419999,0.7206775039,0.1064082612,0.1201561094,-0.0624389512,-0.3820866679,-0.6820237469,-0.4566309869,-0.9816106615,0.4436470925,-0.9169293979,-0.9202141743,0.7890015673,0.8718192473,-0.000405738,0.7093973405,0.861295417,0.1155933725,0.5054852732,0.9733630599,0.1039445564,-0.9442971168,0.6624032725,-0.0118679878,-0.8934196807,0.4408301356,-0.9974633269,0.4989560983,0.4264037229,0.200949342,0.1141191002,-0.7760139293,0.8208177593,0.2272824312,-0.16880108,-0.3124258685,0.4071472166,-0.3265120721,-0.8415429413,0.3816105991,0.3430638741,0.0360404973,0.5329538929,-0.1951760936,-0.6860119781,0.9149980707,-0.4783934906,0.9057573097,-0.565084673,-0.035220898,0.5747401309,-0.1706600982,0.7948601296,-0.2170780451,-0.3905675492,0.9975218609,-0.6918468783,0.2925793695,0.9871895612,-0.8464260071,-0.9291982106,-0.1168969202,-0.5064622674,0.3811814814,-0.765369277,0.3357518366,-0.2921605041,0.51537137,-0.1210986093,-0.4922942862,0.7557716773,0.8594110017,0.2090615943,-0.9404114138,0.6944621904,-0.4874952629,0.250198383,-0.2804401237,0.2972120456,-0.9103835679,0.1030983926,0.6755276061,-0.7765841105,0.4459562502,0.8426173706,0.5302028476,-0.7752024662,-0.4363470087,0.6918371487,-0.2328600613,0.2788872526,0.6137903322,-0.5156676108,0.8976714903,0.8923128644,-0.4754737019,-0.2172529208,-0.5129477905,0.4750912333,-0.1486622702,-0.4916782422,-0.1595996076,-0.4701295139,0.627378828,-0.4914400077,-0.4502488599,-0.3159250607,0.8435772949,-0.0753534282,-0.2623888701,0.3997263801,0.8399052684,0.2948089696,0.5130939943,-0.9366768173,-0.7029139326,-0.9463988326,0.0080917787,0.4635593975,-0.7446948345,0.0616868222,-0.5081825818,0.7324272274,0.8147788898,0.6975822804,0.7645165665,0.1555529662,-0.0283467625,0.7197989965,0.7047105326,0.0341192425,-0.3663308092,-0.348119525,0.43167149,0.9955623642,0.785933984,-0.8357157347,0.1249121131,0.6520739147,0.6867791168,0.8856539174,0.8318945548,-0.132376854,-0.0084170932,-0.7872337794,0.3522375424,0.6322580038,-0.6528643704,-0.8435255832,-0.5276766342,0.0706906057,0.866143671,-0.2975831763,-0.8585331326,0.5710099947,0.9952228797,-0.2316448076,0.4374346263,-0.5670358297,-0.4520989303,0.8396260654,-0.9963827109,0.803418719,0.653175904,-0.0472755008,0.282580852,-0.3990912416,0.5588820684,0.9791489243,0.0109820798,-0.3884145432,-0.8633758968,0.6492282784,-0.6762084346,0.7094077816,-0.4686525743,0.6876079777,0.4106418575,-0.6345105073,0.999060139,0.0957850916,0.9666947057,0.056687111,0.9502109022,-0.2648878144,0.6121996899,-0.5347837726,-0.6120443414,-0.4091825231,-0.7215655408,-0.9602207281,0.5017877514,-0.6171869378,0.877664327,0.3074509767,0.4348149811,-0.4525866709,0.9385093171,-0.8362154128,0.2633160539,0.7120340047,0.8335352688,0.2235248199,-0.1686033952,0.8172186242,-0.9733753857,0.356797281,-0.5090285439,-0.6899628372,-0.1146535055,0.4394417628,-0.3503199865,0.0127841378,-0.3336123834,-0.7734569193,0.544570267,0.7726621253,0.4561733164,0.0497828711,-0.91761052,-0.704527538,0.3121298108,-0.6750387822,0.4687302623,-0.5003556152,0.1504180364,0.2787531113,-0.0865995002,-0.964941187,-0.4949489529,-0.1472617595,0.7436695233,-0.1508868952,-0.9045225832,-0.8686229023,0.322563389,-0.1787254194,-0.6917288296,0.7597883396,0.3008454225,-0.9002326226,0.7311533938,-0.2840592007,-0.84638726,0.9482834104,0.1274616379,0.4493824876,0.9635485167,-0.9113197045,-0.3657106797,0.2064534729,0.2369283192,-0.5677280477,-0.1371995318,-0.4447204289,-0.9552255283,-0.3342657264,0.7887600103,-0.7554251244,-0.5837881113,-0.6501263223,-0.8083832728,-0.5824817343,-0.8754892589,0.1524152603,0.6767125847,-0.5988469711,0.8720150731,-0.1557833145,-0.320036161,0.0036418124,-0.9151815286,0.1841687843,-0.2792358528,0.876500362,-0.8782971642,0.750466689,-0.3821712369,-0.3518046443,-0.9320424861,0.8008867597,0.9884579672,0.9747154528,-0.2296817136,0.2775948412,-0.0976086178,-0.3671508902,0.5867998864,-0.319876037,-0.0790306797,0.8284406641,-0.3530714586,-0.7753162695,0.1360063161,0.8483068552,-0.9673722038,-0.5007201033,-0.5841944668,-0.4534208706,-0.4787853202,-0.4391039937,0.2940206658,-0.5153926524,-0.7656560115,-0.3484286828,0.0077012902,0.7673689526,0.2450347695,0.4565763325,-0.290015728,0.844260936,0.7565658142,0.7392281882,-0.4200937819,0.6021913252,0.4874858014,0.8571194465,-0.1706043645,-0.2640195862,-0.3844814924,-0.4525536635,-0.2576855757,0.3536391503,-0.1782946259,0.0870159554,0.1289572676,-0.5769617362,0.5937060664,0.8060959233,-0.0519915927,-0.8423477589,0.3451395516,0.3911116414,-0.3427141417,-0.1434582241,-0.0201668074,0.8376369811,0.3276997592,-0.4321118532,0.6843050426,0.2009689398,-0.1905125957,-0.9767815032,0.1003251688,-0.4613322555,0.1500184466,-0.5385245983,0.9755452717,-0.6370523693,-0.8710881428,0.1945502654,-0.691609405,0.2108134945,0.9334272849,-0.8667261911,-0.9481751775,-0.9254842875,-0.4668881626,0.2887513761,-0.3646399922,0.9196055858,0.2036538122,-0.0544018408,-0.2841705565,-0.8613051655,-0.3647139305,0.3621574813,0.0722756712,0.2563136225,0.1674486122,0.8974349788,0.8540059636,-0.070811766,0.8223336601,-0.934715951,-0.822953994,0.9481964411,0.4878621308,-0.1044177956,-0.1531077935,0.8675470885,0.3639306011,-0.3934412675,-0.4363902376,-0.7786273826,0.6502151993,-0.1118296261,-0.8502044008,0.4509205733,0.2385447783,0.3936298437,-0.1612101295,0.3919357096,0.749343144,-0.9758471687,0.873323443,0.7351473407,-0.6602284152,-0.3744561937,0.3720907143,-0.5069903481,0.129811339,-0.9291342447,0.8778973787,0.09502705,0.6468712203,-0.975368305,-0.9159552208,0.2632404939,0.159440404,-0.2256318054,0.8450728662,0.3278344069,0.2452322529,0.8559761669,-0.4442050335,0.8369375338,0.1641628568,-0.074778595,0.0867156577,0.609535575,-0.2358184358,-0.6130557629,0.4924290142,0.4835952656,0.1520606541,-0.6614827484,0.5391968051,0.0070522033,-0.9337902244,0.9934096917,-0.1196345063,0.4444072674,-0.5955324417,0.0225479514,-0.9766825884,-0.4663461947,0.6960254269,-0.5157713077,0.936835446,-0.3092238718,-0.9153131835,0.4099090328,-0.075925624,-0.6670033893,-0.8585011488,-0.1415857569,0.4778827876,-0.2546908864,-0.8913006134,-0.8063551559,-0.12873034,-0.856084702,-0.5094479819,-0.2820841724,0.8356404654,-0.7425896037,0.9648441875,-0.9128035294,0.5024402844,-0.5904455081,0.0394924548,-0.8051572888,0.6847018085,-0.1567598799,0.7454462652,-0.154408913,0.9160993109,0.2012834963,0.1261518841,0.3599203488,-0.7574403044,0.1113369446,-0.5842832822,-0.0190925433,-0.3139658223,-0.1785745032,0.1794000522,0.9680229649,-0.2583246322,-0.9929853977,0.5417728854,-0.6107496072,0.3404117511,-0.0909570631,0.4023392793,-0.1366358706,0.7102197959,0.1415105581,0.6941707399,0.2023481471,-0.0954693379,-0.6017212217,-0.7744001326,-0.5198473962,-0.2949925969,0.5243080575,0.8337515393,-0.2820035792,0.9017780015,-0.1816167051,0.4857628648,-0.3665164523,-0.4977220613,0.6078487822,0.8364076132,-0.1188204454,-0.5322723107,0.6545816182,0.3722802418,-0.0502322354,-0.7461679708,-0.524904537,0.5807753391,0.2610280959,0.1331986224,0.6250455132,0.7123231783,-0.6378289448,0.8815322989,-0.6713706336,0.2573927589,0.2299009055,0.3004020389,0.0725821302,0.4523969349,-0.7585099235,0.6476638592,0.741452674,0.2048151081,-0.9517181333,-0.769878696,-0.3397329932,-0.4421996366,-0.705755713,-0.3178040824,0.4661954163,-0.6965314878,-0.1058920217,-0.6637230054,0.0155845329,-0.9479599441,0.9632294033,0.5131514904,0.1842846075,-0.9091222241,0.3488728313,-0.0449663356,0.8056975042,-0.0101141019,-0.4140131249,0.3821386658,0.2470925881,-0.0999421269,0.8153913408,-0.8681140886,0.0818537755,-0.0803436124,-0.5922791703,-0.7357976972,0.2682119031,0.5605027259,0.2762557449,0.7744050706,0.9592013379,0.9807528037,0.6699577217,-0.3076743391,0.0103413336,0.3884480371,0.4477909747,-0.5539822683,0.4631601739,0.6371696006,0.9879131849,-0.6091316451,0.1598822099,0.0437847025,0.0508105271,-0.9681136383,0.3461673658,-0.3648795616,0.2270579859,-0.3787488286,0.9135659884,-0.1126804568,-0.4329472811,-0.3178021274,-0.115972962,0.493486001,-0.8037440574,-0.2299822487,0.1828275183,-0.2393791432,-0.186410293,-0.2751826543,0.4088916716,0.808797753,0.8811926823,0.613913497,0.648600021,-0.9633346917,-0.0132309299,-0.4753311149,-0.854048143,-0.1580741204,0.6012516092,0.1336200159,0.5427309948,0.6896320148,-0.1906620318,0.9929110222,0.4545650236,0.6152009001,0.8221266321,0.0044543257,0.3047353525,0.0149188199,-0.2987504875,0.2334246218,0.2593476965,-0.4717714559,0.3728920213,0.1094135036,0.8126993776,0.6036414845,0.0728257473,-0.9001620825,0.4865308746,0.8825700068,0.7518043667,0.6246531727,0.9581127113,-0.1516793497,-0.3802351731,-0.4809041962,0.5305277582,0.0228106928,0.0860779939,0.5384748238,0.4578068582,-0.0228252921,0.5123861191,-0.3916696805,-0.8528899711,0.7188415081,0.7644188776,0.0575958272,0.3995651315,-0.7483696093,0.2289201514,0.9222286037,-0.6022283882,-0.1781638814,0.7777939199,-0.4103777709,-0.569995687,0.5490896325,0.8334179033,-0.0350212462,0.8238088613,0.514201275,0.1560564296,-0.7824002608,0.0707310802,0.6405411791,-0.2901034313,-0.3767192437,0.5384780609,-0.9376751702,0.2187186243,0.9868847504,0.3694106606,0.8577014436,-0.4111635456,-0.3207489692,0.7147436455,-0.1903484385,0.8515712053,-0.4297498974,0.2192488304,0.5517673981,-0.2133151201,-0.5137340946,-0.9018408242,0.5490306972,0.7086693264,0.7705694429,-0.6723997082,-0.2039921036,0.8587827539,0.4539497453,0.7609767553,0.0211359767,-0.9993881239,-0.9858527488,-0.8446580112,0.9802636197,-0.4579305273,-0.1303689871,0.9811732899,-0.6597519467,0.8548087773,0.8869961779,0.7873509024,-0.8067728891,0.4971522627,-0.1560896287,-0.8197269655,0.2842813768,0.9442965033,-0.7654055201,-0.1711031445,-0.1439312939,-0.9268804539,-0.2689306574,0.2773823212,0.7010501846,-0.2271895932,0.5708532464,0.1145485228,-0.6786596309,-0.4535938064,-0.9432474337,-0.6309199846,-0.1571010559,-0.6140228952,0.3122159711,-0.1655371243,-0.1162441681,0.0073682114,-0.5537400655,-0.5816050245,-0.1945395766,0.7614130669,0.7537658001,-0.8182090938,-0.6668265418,0.4301725994,0.7455691456,0.2223157314,-0.3384099834,-0.4789214589,0.0773837815,-0.0079312831,-0.9448206921,-0.1859766449,0.0594990296,0.4398144982,-0.0089774814,-0.6738643958,0.98967392,0.638536903,-0.0342146198,0.1448316235,0.4981433992,0.6816730009,0.1231607314,-0.9997103614,-0.110306583,-0.8243095851,-0.8153269958,-0.9557486673,0.6019250532,-0.5839648843,0.9809464595,-0.6796065267,0.7398372062,-0.8195892815,0.7754102987,-0.4611243697,0.7994579879,0.1291542831,-0.6257075352,0.3094675531,-0.9718785789,-0.8985812394,-0.2607468196,0.009005259,0.4563510555,0.5886347197,-0.2262405005,0.7659456169,-0.5331289368,-0.7370030178,-0.1075262753,-0.3563899479,-0.6390344463,0.9948709256,-0.9017407527,0.0542598001,-0.1642068228,0.8359125215,-0.4006850898,-0.1318867733,0.1375426232,0.4844754878,-0.9089236664,0.3360067532,0.354978977,-0.6587064947,0.6440956743,-0.2738197664,-0.0582596335,-0.3270447496,0.4434060726,-0.4139119978,0.6859824224,0.7146394154,-0.3710206094,-0.8867164834,0.2629724783,0.137376041,-0.0883917235,-0.9534007541,0.4124270019,-0.4774548118,-0.2164460694,0.4337509593,0.380600756,0.8038839143,0.5661148232,0.168081654,-0.8146758471,-0.4848977349,0.2476143676,0.5421517877,0.3296049233,-0.9349840744,-0.3776025621,0.1943117404,0.214020819,-0.1514396845,0.9475524683,0.8773596732,-0.5732139172,0.5307635788,-0.4604753629,-0.7907411561,-0.2466633796,0.7564299806,-0.3478772073,-0.3209452021,0.3780230126,-0.3805705334,0.8568526769,-0.7927860649,0.4488906993,-0.0154934459,-0.5954056525,0.5019293556,-0.3735632013,0.4422157349,-0.1793283408,0.4865888497,-0.1581744518,-0.0623043928,-0.3853843203,0.0848687771,-0.5367535673,0.2828198814,-0.4441112594,0.0601336145,-0.12798932,-0.9646167141,-0.3358558002,-0.1271660766,-0.9251887676,0.4555787522,-0.3542184252,0.4793965068,0.2918483848,-0.9365058718,0.2829931819,0.2106408004,0.3694115498,-0.7009453847,0.7252932269,0.2854447405,0.6968481456,0.6027789585,-0.1092093499,0.2908625588,-0.945251772,0.1388024968,0.68383438,0.8494936848,-0.7735792645,0.48504891,0.8555023699,0.5225117845,-0.3534542456,-0.1710379269,-0.2081524031,0.9601668864,0.0945002471,-0.2552233487,0.9944693077,0.860637192,0.8871441258,-0.8134636546,-0.2208129942,-0.2828959238,0.9671173668,-0.8356535512,0.870472236,0.4367726992,-0.3020901916,-0.3932257887,0.3602066924,0.7041556318,0.017766603,0.37331518,-0.007079609,-0.4447645105,-0.7659587454,0.008447838,0.198970509,0.788170333,-0.1973457474,0.262941187,-0.9015687155,-0.492832125,0.1706179147,0.7553598165,0.4025142573,0.1336906344,-0.6818236026,-0.3544466526,-0.9009025218,0.0177966576,-0.8804389877,-0.774101837,0.5917844691,-0.5102396527,-0.4310173348,0.6561468905,0.8611315722,0.519605485,0.0706467203,0.5343158211,-0.2176420409,-0.918008375,0.7362721335,0.537801342,-0.2991449824,-0.0363521029,0.257778962,0.917352665,-0.7034807297,-0.7208582236,0.7254525356,-0.836446843,0.4736596209,0.5375039173,0.4435728767,0.9618020706,0.0328623995,0.5733873308,0.1968965667,-0.79742545,-0.22739096,0.3910888799,-0.7432251242,-0.8543499953,0.0262156957,-0.8397387224,0.0377260886,0.2509683628,-0.2976983144,0.1594359188,-0.9307637351,0.1985701582,-0.6387414662,0.3314158538,-0.8098826678,0.6937644435,-0.6228347142,0.5044967183,0.896558662,-0.3784862361,-0.8301307357,-0.9048439654,-0.6873080448,-0.1932218817,0.2461271603,-0.132426553,0.809815733,0.6511832466,0.1846442538,-0.747267706,-0.8081230529,-0.1072270005,-0.3075365144,-0.3748074314,-0.1313061392,-0.5295881276,-0.3987069376,-0.015639943,-0.080196811,-0.5829928376,-0.0108045364,-0.8972887927,-0.8454052634,0.4565007817,0.0559552981,-0.5862457257,0.5753037375,0.563147922,-0.6420006121,-0.8040824656,0.9925228911,-0.229368027,-0.1483736848,-0.5123653415,-0.2339930217,0.1001498561,0.3046355417,-0.6387969551,-0.8218354581,0.1781488075,0.8908397867,-0.1500865002,-0.6628673748,0.4379618768,0.1167868782,0.072317439,-0.3263329743,-0.1807116554,0.908539734,-0.7269473202,0.9897085805,0.4373811464,0.4464470746,0.5330763725,-0.9889263183,-0.2632285256,-0.0190792395,0.8110056634,0.9624680982,0.6986391832,0.8313004196,-0.4736077245,0.2340056278,-0.5550372621,-0.9189815696,0.3154817997,-0.6424372921,0.8737717702,-0.6432674616,-0.6700204627,-0.0747789909,-0.9300058675,-0.1968183768,-0.2973770922,-0.338160356,0.5607428917,-0.3683402357,0.3132497279,0.4290524003,-0.3337454033,0.9180506344,-0.4966912573,-0.3696676821,0.6581675726,0.5340260379,-0.236311097,0.015994441,-0.4205565562,0.8240800236,0.8590516651,0.0454485506,-0.7023904517,-0.8547356094,-0.7944366467,-0.2366951415,-0.9630347397,-0.8384992561,0.5696178518,0.9574248686,0.6971921012,-0.1395446016,0.8904292949,-0.1438022332,0.3877275077,-0.9352118418,-0.7322249973,-0.2604584868,0.7185853536,0.8360926441,0.7453909705,0.8976312661,-0.7390440069,0.3999843477,-0.9879693926,0.4552709929,-0.2526620049,0.9908533852,-0.1952641091,0.7401082695,0.8013129296,0.6384389808,0.6268186502,-0.6251621466,0.5647706302,-0.0975643193,-0.0456961894,0.980936073,0.4636020609,0.1515585153,0.6242827992,0.6618702427,-0.4724316457,0.7147343446,-0.3820734717,0.267989421,0.0549571551,0.3132334197,0.9835453634,0.3835560728,0.4081049243,-0.0449005495,-0.2922758217,-0.767231007,0.8034882692,0.8179195218,-0.5258561035,-0.9686688009,-0.9191668411,0.684872337,-0.0612465423,-0.5715884003,0.5735239945,-0.6388614579,-0.7989092907,-0.1129110087,-0.857289938,-0.3988613205,0.5690211887,0.0290872194,-0.832182958,0.4542355572,0.8899106667,0.3115806171,0.3503315616,-0.9952316677,0.3869169465,0.8667796758,0.4204830664,0.5008221795,0.1811284467,0.6639974514,0.6432772319,0.0782135639,-0.8641368972,-0.4718167166,0.0056545466,0.196909023,0.9349163351,-0.1456632161,-0.3565467461,0.5967792594,0.7527489885,-0.1222838845,0.7515142772,0.8763270751,0.3928067406,-0.0983766597,0.6543531313,-0.3537586407,-0.3058046483,0.7986521574,-0.7517663295,-0.7203648453,0.5370215093,0.4484716926,0.0154027046,0.9042509935,0.1394195147,0.0677480988,0.4507685097,-0.8030212196,-0.380429182,-0.1496323678,0.014048138,0.9583182085,-0.399759461,0.6863837483,0.6422757155,-0.7954829295,0.5514884949,-0.0917889821,0.5189734245,0.5578619663,0.9481338941,-0.4376693062,0.1190461259,-0.7060652109,-0.0753289422,-0.0620921032,0.0899415387,-0.3670391748,0.0579370153,0.9710539954,0.070663789,-0.787407053,-0.9741045145,-0.2446781199,-0.8716147667,0.1230807945,0.3132127542,0.8472240426,0.7483096395,-0.1779437975,-0.0925037794,-0.8232858341,-0.2739005572,0.5599721734,0.7474061292,-0.0383429042,0.8415041445,0.3627273045,-0.0204859305,-0.0984011944,-0.989849544,0.1586542326,-0.8708655399,0.0276793267,0.6055036151,-0.1598022407,-0.4024735487,0.6631304981,-0.0662210285,-0.0763820316,0.7725049254,-0.1158346691,0.9451360224,-0.760629565,-0.8885240681,-0.6596770434,-0.3911641354,0.7254080127,-0.5718695571,-0.9217470649,0.1756042339,0.1699172293,-0.5797755994,0.0474025769,0.8430341165,0.5801374577,-0.795058722,-0.4964430643,-0.9386050971,0.3504144725,-0.0429627594,0.6851685747,0.5753970266,-0.7961034895,0.3554797599,-0.1711706433,0.2362495619,-0.8999389397,0.6798827642,0.4283462658,0.9585626269,0.2353454321,0.0105623796,-0.1251557172,0.9509761054,0.6012068954,0.460677981,0.8242830122,-0.6591019281,-0.002314776,0.593109305,-0.6794978076,0.0004085927,-0.5441432789,-0.0556630132,0.901151505,0.1752725552,0.7386798312,0.9624097424,0.0988014371,-0.7887742844,-0.1008573204,-0.0196915714,0.1293042922,-0.7719853444,-0.4246920538,-0.8409469941,-0.2677631721,-0.7821188894,-0.0858322805,-0.6683434583,0.9593854118,0.7665243482,0.0191963585,0.518596955,0.4387842178,0.997219082,0.8185379689,0.9448357883,-0.6880501698,0.2790111662,0.6836225157,-0.1707586139,0.2881965375,-0.1502295519,-0.1392812066,-0.3908010781,0.7547209468,-0.0930247478,0.2189191167,0.1863538945,-0.6956827751,-0.8780648679,0.6796755342,-0.2985904324,0.9610207258,-0.9051843804,0.7524667389,-0.6550913794,-0.0530015522,0.2376275697,-0.1651195685,-0.4914649065,0.9642905757,-0.189870753,-0.5298032504,-0.9519037828,0.2811407436,-0.4692164829,0.6883613839,-0.0468363655,-0.2092411177,0.3160690029,0.2164941971,0.839690484,0.4271203208,0.327765733,-0.1002388375,-0.0670499023,0.9907201635,-0.7846647756,0.7916538229,0.4658607765,-0.2604532771,-0.6163382025,0.6102915226,-0.1400268435,0.9402631385,0.5313721916,-0.3842625971,0.2419856303,0.6958278954,-0.6244277934,-0.8664415999,-0.8291819815,0.9166985632,-0.0894660502,0.7026363093,0.2164879384,-0.7565782637,0.4201016806,0.4904654933,-0.7416136071,0.8588362883,-0.5475489877,0.6099380183,-0.961421608,-0.277561643,0.5888483734,0.5484481653,0.5079260208,0.0771982182,0.2355960426,0.0176741506,0.1213859566,-0.042188374,0.2308617878,0.0317631565,-0.3298439872,0.5240253995,-0.1465436404,-0.1489993897,-0.6436590222,0.6208304856,0.799122965,-0.4340002334,0.5952392227,-0.2730835348,0.6980617572,-0.1602813877,0.6676853159,-0.5501687787,-0.8016295912,0.5309353975,-0.3561091194,-0.5231294788,0.3748134144,0.0415509378,-0.4188721716,-0.6208912415,-0.8538943306,-0.1869648598,-0.3422380984,-0.3091295656,-0.449023871,-0.9858308068,-0.2621305776,0.1676379197,0.10362222,0.4933347765,-0.3119071134,-0.8643698131,-0.475640249,0.9346652503,0.7625729208,-0.3919045545,-0.6726113574,0.3844224004,-0.3718630955,0.2777992495,-0.9742124228,-0.6528937052,0.9534234203,-0.7465058485,0.2061965702,-0.1213117273,-0.058527039,-0.0821541207,-0.8047387854,0.5939883242,-0.786381411,-0.7036808896,-0.3405595583,0.0181308378,-0.9687164432,0.4045488383,-0.7737810454,0.1754163277,-0.1543970202,0.279716628,-0.0236389143,-0.4017810746,-0.842653263,-0.5974739644,-0.2062017614,0.7533849204,-0.4755591299,0.6943266271,-0.4406530621,-0.1603157068,0.8886791871,0.9217145297,-0.8652307398,0.5005787385,-0.1912633995,-0.7376958189,0.1797258221,0.6036609777,0.8047936126,-0.0998459565,0.4296831873,-0.0016341151,-0.8914480508,0.8793780098,-0.1764265667,-0.6801829125,0.767071113,-0.7964229236,0.6947185094,-0.6748986104,0.0520387372,0.188390423,0.1084138799,0.136601427,0.8764437096,-0.9205906724,-0.0458969672,-0.1935157443,-0.3814978628,-0.8412532412,0.6723948086,0.7620724201,-0.6901957846,-0.1117275066,0.9963192085,0.2325441807,0.2581978784,0.3107528228,0.3660788867,-0.0735821826,-0.5891926947,-0.0708621394,0.237793124,0.2610938774,0.8671427132,0.3581165024,-0.6072755733,-0.3878062971,-0.394396637,-0.8566145395,0.0307973017,-0.408047212,0.2241750103,0.4163521239,0.3729544537,-0.4078850911,-0.4439840247,-0.5524030299,-0.1567993121,0.3464307408,-0.6292419112,0.116055632,-0.5370451403,-0.4722208107,-0.2034779212,0.5065317331,-0.696865156,0.2154982273,0.5346807308,-0.0096312985,0.8665952765,0.3007044734,0.4626492134,0.9646439081,-0.5981215399,0.6375461215,0.1396633853,-0.0813028717,0.0028701149,0.706381061,0.0021152151,-0.8138796999,0.8791541202,0.2879340224,-0.6517848444,-0.0145275671,0.382892524,-0.8439849464,-0.2238879247,-0.0362618658,-0.151895605,0.9252925918,0.4645227243,-0.8008612048,-0.8343685733,-0.5076257984,0.0747701007,-0.2107257497,-0.2338661346,0.912827097,0.6486852834,0.7183565114,-0.4381619231,0.1690213625,0.0806854307,-0.161151401,-0.8049282821,-0.028812676,0.4812947906,0.5021704953,-0.7856601576,-0.2878517856,0.6721502023,0.9152930099,-0.9898143363,-0.1308308177,0.9738279467,-0.7702995351,0.8920145396,0.2784209604,0.8526752589,0.1869767944,-0.2077514304,0.1192841979,0.7861935781,0.8155091505,0.5522379908,0.4057724802,-0.4999017493,-0.9600949847,-0.3651181355,0.3842970099,-0.6040870731,-0.3948981479,-0.8742934408,0.6884049884,0.3039843872,-0.0876460468,0.5192264407,-0.3292019124,-0.3213440565,0.3565239958,0.1864557984,-0.5644521415,-0.1829683197,0.8405529319,-0.1136723113,-0.6683136402,0.0826332447,-0.5440347886,-0.6740222709,-0.6826006161,0.6135436547,0.1432644674,-0.9570858205,0.1802677917,0.3966817229,-0.8362072525,-0.8911435951,-0.9819118409,-0.0288378399,-0.9999939134,-0.7312018289,-0.8603127737,-0.3437683821,0.8436935756,0.1181720816,0.5215896378,0.1472214569,-0.0920725697,0.8547222896,0.1795306478,-0.462906334,0.2873494604,0.9365566712,0.2841726059,0.5072621192,-0.4436494406,-0.2932731142,0.3087676449,0.2311456393,-0.0409022288,0.7799698549,0.365654583,-0.8466172477,-0.5095395117,0.1470779582,0.2522742913,0.2359704005,0.7715315575,-0.8801341466,0.3451124835,-0.4875050675,-0.8619048221,0.4857872069,0.4503784056,0.017057772,-0.401332845,-0.7151447501,0.2476255205,0.913661509,-0.8872988824,-0.2271218794,0.4911003291,-0.1123334612,0.474013107,-0.4615452936,-0.9182259751,0.8830430274,0.1342516492,-0.5741274643,0.5709879106,-0.3366886742,0.820225987,-0.3737478282,-0.2924680402,-0.7068923179,-0.0779145428,-0.2739016457,0.2573001165,-0.2645384185,0.9532070239,0.6292445613,-0.2046326049,0.2550809207,-0.8289519698,-0.961513068,0.9516956711,0.8493204514,-0.5541814023,-0.652678792,-0.6200585931,0.8927751411,0.5573987393,0.6579755063,0.563020926,-0.9259619173,0.4386737756,-0.5015845994,0.7858352579,0.517508167,-0.7085109048,-0.8479764092,0.5250044708,0.6517921204,0.5461497871,0.0118307643,-0.4556387938,0.4390590597,-0.8885772134,0.2963307034,0.4861662829,0.9366722288,-0.3454293491,0.227118258,0.1808982724,0.5320848633,0.2912902643,0.7027066428,0.20996236,0.1857001642,0.4516046765,0.9193174877,0.4609566137,0.8663040917,-0.6970498995,-0.5579079055,-0.1766805811,-0.7685434266,-0.1848821008,0.64673332,0.259572339,-0.7462729021,0.9749866002,-0.2820838551,-0.4791783951,0.2497101395,0.5726459847,0.1865306554,-0.397668912,-0.8715898291,0.5608189921,0.2161487314,0.7934044358,0.9720486865,-0.7546885342,-0.2568829284,-0.6898514314,-0.0875221235,0.274059543,-0.4090902455,0.7477841211,0.0339475762,0.5902982252,0.4825343379,-0.4352391688,0.9640743485,-0.2710339365,-0.1506560527,-0.5394749284,0.561372078,0.8150234755,0.9912835879,0.23571681,-0.7097103506,-0.4193141591,-0.0132100574,-0.8838327081,0.9604781837,0.5200204832,-0.2199479834,0.2814714271,0.8572226591,0.9149469832,0.0520222247,0.0249250726,0.7596335407,0.0705634263,-0.7834209189,-0.0822987103,0.4277709231,-0.1049428131,-0.8484895599,-0.1457631769,0.9475914348,0.1619211299,-0.7318410899,-0.608034337,0.1250272346,0.1883895667,0.2569974037,0.5663885757,-0.0491799255,0.4902417678,0.239851818,0.0066243269,-0.2208632856,0.7347374981,-0.4159138625,0.5831630653,-0.0256579756,-0.8665937849,-0.4250563323,-0.9857415071,0.3678709189,-0.7177970116,-0.1938352566,0.5043414863,0.8082246761,0.7442040099,-0.2905192184,0.5464261634,0.2458166329,0.9815699864,-0.6051909657,-0.6271418738,0.7422733462,0.3842841341,0.4113695311,-0.0952008194,-0.8060027936,-0.8409174596,-0.3991931706,-0.7446955857,0.6246163665,-0.6355989796,-0.7858586459,0.8070161561,-0.6498043473,-0.6901932993,0.30318634,-0.5791609528,0.6886850315,0.709156347,0.2201505292,-0.6111664446,-0.7622984783,-0.8915274139,0.1108303555,0.8732738746,0.8743021006,0.4342854819,-0.366208871,-0.5147682398,-0.7019339204,-0.30622755,0.6715674544,-0.2883146417,-0.104226011,0.7054944396,0.3210519533,0.2871990719,0.3629190539,-0.0089231088,-0.8896005983,0.7620155065,0.7150883083,-0.451186678,-0.6874226196,0.7870957592,-0.5049794623,-0.9195134492,-0.8090965512,-0.0138096398,0.652957332,0.485289702,0.9118147971,-0.9384737704,-0.7179243818,0.1021711212,0.3045088062,0.0385190508,0.3638085309,-0.9560864832,-0.2664266972,-0.5911904387,-0.5789780783,-0.9188456865,0.4484831318,0.1029339173,0.9916890217,0.8665867438,0.1284023555,-0.6339935433,-0.7371710497,0.8266128985,0.8374308022,-0.5674433762,-0.6927837912,-0.8125156738,-0.3561076648,0.1150495179,-0.2682117478,-0.9195617677,-0.5642354774,-0.6130294614,0.7614413332,0.5988030077,0.2421340555,-0.5762190724
   -0.0717543681,-0.3971471476,0.734788863,0.0327928682,0.8245181152,-0.4685541884,-0.6810995423,0.2395006612,0.385427376,0.6893238179,0.9334484982,0.8422805028,0.1133144523,-0.3094705298,0.216698918,-0.8918925045,-0.0895976379,0.0896748524,0.3424480774,0.2478967747,0.0772711011,0.9441087194,0.6142688348,0.722767069,0.2328045752,0.2136996504,-0.7346508144,-0.3184174217,0.8688891813,0.8552321934,0.5536684573,-0.1174325852,0.6760507439,-0.424076309,0.4358567415,0.9700465324,-0.4762403122,-0.4104348779,0.5766200494,0.9916359778,0.623830596,0.7706420697,0.827219674,-0.8581860739,-0.7768474073,-0.5229917745,0.3906414703,0.5259798224,0.2285890402,-0.8227604558,0.6190293636,0.888004754,-0.1461619953,0.4481461388,-0.4128250195,-0.6216512159,-0.2393997833,-0.8450337341,-0.8996112415,-0.4969909294,0.7798658133,-0.2568593689,0.0625387966,0.6463215219,-0.7692480784,0.4491815339,-0.0486403951,-0.859749324,0.0323965015,0.5344901381,0.7183892115,-0.5530803742,0.2824775819,0.6481224917,0.5944639271,0.4969065557,0.2117348772,0.4384309086,-0.5464727263,0.1695538835,0.8987126339,-0.2537647704,0.8141670101,0.2945225032,-0.7827090078,-0.2755075181,0.0886893876,-0.9833065704,-0.393889387,-0.176532363,0.1521328081,-0.104264594,0.8316403861,-0.235368785,0.7882351303,-0.0359715808,-0.7573687552,-0.0503347151,0.4693605717,-0.0765483634,-0.9989406702,-0.3934146688,0.0939677873,0.3661349618,-0.270231405,-0.3880174559,0.6193222151,-0.1996846681,0.0892259321,-0.4536920354,-0.2292632392,-0.0421156943,0.8030517004,-0.2658063573,-0.5070628229,0.3282427101,-0.9944486815,0.7283884238,0.3424254503,0.0065985878,0.2869790623,0.7235083515,-0.5927291238,0.91278961,0.0132568039,0.3123318943,0.953659839,-0.525261591,-0.7646827188,-0.8349266361,-0.7815632298,-0.3943860404,-0.4496811266,0.345041571,0.5763884087,-0.1498644925,0.1163351863,0.5838252056,-0.6117408544,-0.7858076834,0.0777283259,0.946856821,0.4040774337,-0.008178678,0.0969710101,-0.9846038371,0.5285819592,0.3520140466,-0.6528063486,0.0106981607,0.0232027773,-0.0118884425,0.9639360462,-0.4184363962,0.2845981611,0.3033647549,0.9279665629,-0.6059479089,0.6853213734,-0.4619877754,-0.5366167697,-0.0906450344,-0.5762556467,-0.5027241905,0.751122888,0.2484215403,-0.7635130307,0.530853414,0.9464998396,0.2482581704,-0.1547269665,-0.7996078108,0.655931148,0.8433005776,0.5743091224,0.6769816653,0.0789539016,-0.0775976668,0.1413907534,-0.5023152431,-0.0811929367,0.7624218804,-0.5633460075,-0.9183337218,-0.2021356521,0.9396150883,0.6708536068,0.0943996276,-0.8090901645,-0.7362277084,-0.8114496279,0.1034303871,0.5724474247,-0.2110446138,0.0138977073,0.5330741135,-0.3011640181,0.1691962161,0.4675452223,0.6938802786,0.3266027436,0.0119418693,-0.2092266423,0.3648875519,0.7577178821,-0.7910736292,0.4217340455,0.9885838446,0.3054640781,-0.5193169819,-0.991207601,-0.3553570771,0.2430901121,-0.0035558156,-0.8019482365,0.9614166998,-0.2467280218,0.4364530008,0.4323646868,0.2429024106,0.016395102,0.5239225501,0.4981489209,-0.8538545567,-0.400017612,0.6917614143,-0.4025523753,-0.8550328746,-0.5896142649,0.8545403783,-0.6457406047,-0.8017164433,-0.9639890672
##end
biasActivation=0,1,1,1
[BASIC:ACTIVATION]
"org.encog.engine.network.activation.ActivationSoftMax"
"org.encog.engine.network.activation.ActivationReLU",0,0
"org.encog.engine.network.activation.ActivationReLU",0,0
"org.encog.engine.network.activation.ActivationLinear"
