encog,BasicNetwork,java,3.4.0,1,1532933065885
[BASIC]
[BASIC:PARAMS]
[BASIC:NETWORK]
beginTraining=0
connectionLimit=0
contextTargetOffset=0,0,0,0
contextTargetSize=0,0,0,0
endTraining=3
hasContext=f
inputCount=16
layerCounts=4,26,101,17
layerFeedCounts=4,25,100,16
layerContextCount=0,0,0,0
layerIndex=0,4,30,131
output=0,0.5,0.5,0,327.7308074481,0,257.5394650478,123.1982601305,0,0,0,0,0,0,25.1977565212,0,805.1427313975,176.6197787468,29.5614110626,780.2316374757,226.2248745578,105.845116744,0,427.2050518095,229.7038952104,0,386.8262032623,263.3030006769,42.2739527791,1,137.5760902489,45.6517551556,57.9088117095,0,70.6324414939,66.6136125356,52.1640314499,0,28.3955178083,0,53.991112966,0,0,56.7210240057,0,75.0146814537,0,15.8256014255,0,0,67.2512938251,0,57.7763380117,0,0,60.1210670681,0,33.5961188183,46.2173311807,20.1350244214,0,3.1557641591,0,97.0901993384,46.8041327847,0,67.7632867317,55.2562067678,0,1.1308262055,141.1873386448,0,125.1938745247,0,89.5852123526,119.8307572546,112.8840311961,110.5475770078,129.5572952283,0,37.5702554972,121.9644317606,0,0,34.321709846,56.5734446325,47.7649415955,0,127.6768625855,0,0,28.2997127976,0,0,36.1599130931,46.4870016896,28.1944661515,0,0,26.2689210618,178.9635018043,0,76.9500821322,60.781215268,0,65.2448594599,0,0,0,0,52.1656111075,10.7884564784,39.2737492823,0,0,0,0,19.8399182453,0,74.4346319563,0,124.1601400644,0,79.8109907207,37.0047852834,84.2726156067,0,0,0,0,1,4,8,2,16,2,32,128,8,8,2,8,2,2,4,8,8,1
outputCount=4
weightIndex=0,104,2629,4329
weights=##0
##double#4329
   -0.5998128461,0.1169604605,0.7919206451,-0.2579618692,-0.7332774996,-0.2710265146,0.8479642254,0.9845560399,-0.0992684334,0.3249005842,-0.2490211553,-0.7078208095,-0.0546716724,-0.6905022871,-0.5292761965,0.1367660576,0.4918692323,-0.1074493136,-0.6231986342,-0.8653580775,-0.4755982121,0.9815637005,-0.9996907244,0.181169933,0.1848585489,-0.7026137421,0.592852091,0.5912697272,0.8180369816,0.7315150836,-0.1471507763,0.4275406644,-0.7442010387,-0.1137369132,0.0112550229,0.7866251948,-0.7881080481,-0.396786942,0.9053664623,-0.3588536442,-0.0074791851,0.0358147524,-0.6367151545,0.6224926335,-0.1962197412,0.542437616,0.9075268938,0.7953185689,0.3566272876,-0.6718174857,-0.483976494,-0.1519875598,-0.2285403481,0.3735891288,0.5554402941,0.8253078025,0.0986332204,-0.3280233798,-0.3173281006,0.7425330683,-0.8572586534,-0.0107393187,0.2584388948,-0.2576965528,0.5878574018,-0.1825031435,-0.0373356064,0.6672718142,0.4535174987,-0.5562516387,0.6889983665,-0.9834401133,-0.5126126936,0.1051238177,0.0559554719,-0.9586977048,0.4033790956,-0.1586382098,0.7807151747,0.1367923504,-0.427142898,-0.1883909823,0.0627556139,-0.1747858376,0.2495454449,-0.9831733243,0.0495560491,0.0621285899,-0.7051039345,0.6495538397,-0.0673512388,-0.5739181773,0.1752242492,-0.3250612113,-0.9899633623,0.6301786925,0.532326313,-0.5767469614,0.6352486782,0.6856758847,0.2200801754,-0.3357402261,0.5968112116,0.8290012628,0.4763830356,0.8718009004,-0.3472349837,0.3417422264,0.903589994,0.162957824,0.8689947203,0.9728789988,0.7836484121,0.1862504648,0.9159600291,0.3024712907,-0.9872763145,0.9761956982,-0.9177721665,-0.0445989359,0.0417372206,-0.0269691753,0.2600960436,0.1217867361,0.8662669056,0.5115674399,0.9463777439,0.1194140029,0.790669392,0.9591672615,-0.328804679,-0.1311219011,0.2358868285,0.0555650097,0.7018042042,-0.1420532016,0.7439823276,0.6513984338,0.719031484,0.8060055509,-0.846127224,-0.4521784377,-0.0925698171,-0.5153228207,-0.479917659,0.9593838065,0.212790209,0.8330035756,-0.6564372033,-0.2525022415,-0.7173401271,0.0907283985,0.1218374826,-0.8757367718,-0.4654310189,0.4285768422,-0.0817624051,0.1629814805,0.9457136198,0.4908868145,0.5318863322,0.5493542128,0.3650004021,0.4623183197,-0.7925485387,-0.2530271682,0.5105981656,0.2807289668,-0.0507172691,0.2735663543,-0.0279870538,-0.3238273034,-0.1390183151,-0.3189647227,0.7868758942,0.4482507721,0.2825123545,-0.8211622956,0.9597955227,-0.1798848291,0.6677569488,-0.6855772741,0.4062938718,0.8422620591,-0.1037694684,0.3084497123,-0.5770534983,-0.4013552793,-0.5149449348,-0.9743121126,-0.9556037891,0.3932885683,-0.6966049278,-0.4867229601,0.5516254073,-0.8157839945,-0.9754381765,-0.9349250708,-0.5218416582,-0.2538083484,0.7541906609,0.0529116149,-0.5028398427,-0.0217958062,0.0590446166,0.6289855988,0.9318380792,-0.063085918,0.818996695,-0.484368267,0.5542608365,-0.451631273,-0.2793954502,-0.1343425289,-0.2532346532,0.9390632146,-0.6729154358,0.255104231,0.3060307986,-0.369964999,0.3905642176,-0.1568266834,0.0065001671,0.7407390521,-0.5980315515,-0.844277866,-0.7666818943,0.669184522,-0.5801838251,0.3601996344,0.6512932876,-0.2203682015,-0.1050712932,0.0879954305,-0.8293133443,0.6709030379,-0.1495325892,-0.8469502476,0.7456016412,0.0719737395,0.9361781582,0.7865016877,-0.8197181737,-0.0684004772,-0.2717558926,-0.0986203003,-0.2607914896,0.3093420151,-0.1849532808,-0.2385000957,-0.1817736121,0.3059894897,-0.2835923175,-0.0613573626,0.0458427092,-0.3902588023,-0.8905936592,0.63163545,0.7567317184,-0.025338951,-0.9821855289,-0.6087636726,-0.3921686785,-0.555270238,-0.8396148727,-0.0177838301,-0.2242528531,0.1028380906,-0.0723193509,-0.1563352105,0.8694133698,-0.6005346117,0.3944083451,-0.8443638323,0.8673246616,-0.7303216196,0.2698760293,0.5195657131,-0.4668851753,0.7031673195,-0.8081980296,0.3711694872,-0.5686687026,-0.2947881442,0.909996244,0.9561034495,0.392203598,0.5159328396,-0.2141019727,0.0946115897,0.6966517604,-0.5760342537,0.1787701599,0.4432090795,-0.1022130429,0.2467511241,0.0350265702,-0.713166307,-0.8115430623,-0.4198362764,-0.5563458434,0.6986233368,-0.1883648626,-0.9897542587,0.8663496077,0.943764265,-0.5782819137,-0.0824797072,-0.1786189755,0.9444220726,0.1328834211,-0.1412077116,0.336215527,0.9631017974,0.9379742592,0.7801985714,-0.5185538311,0.3992304873,0.6798035949,0.7197296244,0.4430752729,-0.6442802679,-0.0008499442,-0.3971531839,-0.9242859434,0.3640788399,-0.9465712743,0.3472389052,0.9906958224,0.648235221,-0.8121713502,0.908243925,0.0593138372,0.983897116,0.7291210262,0.7789975259,-0.8427815581,-0.5412692396,-0.343021,0.2234930832,0.0505364391,-0.7989248779,-0.3006329782,0.4457346006,0.6414537377,-0.1404040115,-0.0254285079,-0.0988712206,-0.9470271374,-0.697971057,0.9418843598,-0.4382006344,-0.3005839136,0.501158342,-0.9372258127,0.1083000403,-0.138656194,0.5329401447,-0.5738013772,-0.1146432028,-0.3530929521,0.007026177,0.6672730089,-0.0851002381,0.9622943593,-0.8179984181,0.2970440174,0.852663286,-0.304794668,-0.3541711392,-0.4160844293,0.9834394767,0.9381695049,0.8475234054,-0.8866766975,0.5418102699,0.2996084019,0.9219246018,-0.2260421386,-0.1327694679,-0.0591204766,-0.5954745541,-0.9244007822,-0.4958037273,0.8188870061,-0.1744752175,0.7343359234,0.931686889,-0.4424859659,0.8039127836,-0.6777051604,0.2630112957,-0.0105386114,0.3144130843,0.1760399905,0.4560941171,-0.1117469164,-0.0625144245,0.0050125643,0.2077359696,0.0624425077,0.1427886063,-0.0239803406,-0.1075492203,0.8148368901,0.9340092716,0.0789744979,0.4589793205,-0.0049384588,0.5282909459,-0.7796745641,0.8591156315,0.0071226664,0.9666699574,0.1511421937,0.6981149553,0.8009719883,-0.6346673344,-0.1528986961,-0.6304457642,-0.306934182,0.2025135138,0.2365028962,-0.8094616867,0.3743135259,0.1321859633,0.8484411866,-0.2686903066,-0.4214406152,-0.1340472806,-0.2369667044,-0.2102032515,-0.490399274,-0.2791009488,-0.194916523,0.5938029131,0.151845641,-0.7667376324,-0.8079036387,-0.7221467731,-0.2040858875,-0.3085656703,0.7891455414,-0.5883581628,-0.3554275039,-0.1686891305,0.6863829814,0.503116005,-0.9959870539,-0.6211740828,0.0046918914,-0.2457659841,0.0387254462,-0.1920955057,-0.0003925836,0.8160513448,-0.9776057796,0.12127737,-0.9713035594,0.3897951642,0.010177846,0.6478357292,0.1285445134,-0.8128980769,0.0768208309,-0.4765127763,-0.9585235623,0.7126930895,0.993457979,0.2291977672,-0.1527922064,0.7629386086,0.0611941125,0.2245207426,0.053250759,0.3234765596,-0.3840385458,0.8711141274,0.9036238698,-0.8569873652,-0.9452516775,-0.3979618755,0.9433784934,0.7807032893,0.5396020003,0.1275959928,0.5955246809,-0.9352583652,-0.4480490627,0.1419295897,0.3647668611,0.3040236432,-0.92725714,0.9991366889,-0.3395420046,0.4092928313,-0.2988582189,-0.0134961527,0.3803014496,-0.0419078621,0.8081691613,-0.5818260679,0.1913387463,0.2307086862,-0.9187342665,-0.0112167482,0.1014268893,-0.7639718693,0.3597339253,-0.8167753653,0.1497930509,-0.9127279775,-0.9844467974,0.0901316407,0.3257114022,-0.4822141862,-0.5572781637,-0.8952880472,0.2479819542,-0.0413968991,-0.0981909884,0.6043275494,-0.0489037828,-0.27304201,0.3513308713,-0.3201109432,0.8853084714,0.9229579035,-0.5772009223,-0.9715715903,0.5862026484,-0.8744095229,-0.5143276546,0.5924666151,0.4568207941,-0.4618529722,0.4604854574,-0.096182414,0.5617635818,0.6547248625,-0.168940744,0.6539383201,-0.9650424841,-0.15507575,-0.5911640886,-0.6205393183,-0.5938015638,-0.2524826477,-0.4592556767,0.9136153384,-0.3143370446,0.1202613079,-0.497254481,-0.5944059575,0.3048043856,-0.6626131953,-0.8763563684,0.8417603353,-0.1474175399,0.8674582231,-0.8733561428,0.6749978171,0.661732081,0.4447288109,-0.9363599683,-0.6396202081,-0.3850357209,-0.0130367417,-0.6743075063,-0.0767593781,0.5822483,-0.0197005771,-0.403586588,-0.7609389466,-0.7365877466,0.9251122763,-0.9645172131,0.8804146166,0.2221695722,0.6626386021,0.7071501076,0.6312221617,0.260424088,-0.0974357684,0.2962865208,-0.4092616474,0.8992145918,0.2975479338,0.6231694122,-0.6185511357,0.0899299239,-0.3196128648,0.6570216774,-0.7594796692,0.4125462025,-0.9694185968,-0.1142985516,0.4702393448,-0.5533952504,0.8753274208,-0.1626512811,0.9124730418,0.6706748858,-0.6691209164,0.0180608058,-0.7602535252,0.2115909714,-0.7931514577,-0.4591450223,0.0076300068,-0.3761916553,-0.3242690253,0.6659408674,-0.8416766167,0.1306839855,-0.3165354533,0.5693596562,-0.2605399929,-0.4657533747,-0.8814412504,0.4175916078,0.3896831153,0.0759217782,0.9273482816,-0.3816036177,-0.0187893897,0.1309382347,0.2894295801,-0.6278166444,-0.1525384184,0.9225576906,0.3713204096,0.7488083205,0.251693878,0.9324424421,0.8396800734,0.1116749432,-0.6413418111,0.2354879436,0.3212606978,0.77616605,-0.7216117154,-0.5964758673,-0.1419983826,-0.6466453417,0.624514148,-0.5198582534,-0.0650750065,0.1347567201,0.6763996473,0.8276461582,0.1866933416,0.8724842169,-0.4703563825,-0.0491782297,-0.7057278482,0.4739216682,0.5661336293,-0.9489611135,-0.6547610818,-0.5640591472,0.9789076147,0.5623764763,-0.812917639,-0.0695122828,-0.4699375784,0.9824965292,-0.5624852038,0.9855891336,0.0221526894,-0.9260747301,-0.0116436913,-0.1752976817,-0.5152046399,-0.9980929714,0.2390724964,-0.3900026419,0.3364140861,0.7658608818,0.0400992752,-0.5303187756,-0.6455686278,0.5575284222,-0.4378330334,0.8776069704,-0.1016374005,-0.094045796,-0.7702584507,0.2254765764,-0.0920713282,-0.7167243039,0.4995862856,-0.0037744518,-0.0503496032,0.4528828647,0.4619260334,-0.1191229431,0.7576632466,0.3155485145,-0.4499436624,-0.1212049901,-0.8547858004,-0.579465632,0.3479146673,-0.0480303472,0.845425188,-0.4230013369,-0.2033060194,0.0871888213,-0.6343769005,0.4119862784,-0.509839778,0.035204405,-0.8836640372,-0.3961152766,-0.2869825689,0.3172925802,0.0288481165,0.5702458569,-0.7340944466,0.6562623337,-0.0566328252,0.2969152751,0.6570819222,0.146132373,-0.055971977,-0.2877065756,0.0893644394,-0.3768574653,-0.7483976218,0.7716500755,-0.2057685998,0.534477997,-0.5171626929,-0.9371757339,-0.8228999894,0.3165483147,0.2691506137,0.8270220865,-0.2279623088,-0.7545146226,-0.0466505981,-0.2717538331,-0.9242099817,-0.6808380837,0.4744582631,0.2472251687,-0.7942336249,-0.7973658447,0.0714203314,-0.4038924629,0.24436754,-0.5071546076,0.5634032011,-0.202651321,-0.5176081879,0.4836525009,-0.1626548617,-0.984291822,-0.9762435595,0.1852091626,-0.2895168523,0.754111262,-0.8827014451,0.1668408473,0.4291987623,0.2277336422,-0.8495473816,-0.4590310294,0.4049705869,-0.9366827486,-0.823796203,-0.3957256614,0.2468517371,-0.8957614102,0.355428152,0.7835131373,-0.0089577165,-0.7007507037,-0.6887322582,-0.7274953583,0.6353638542,0.5072396213,0.3777082767,-0.6054334295,-0.3221258118,0.1255520005,0.8628538329,0.528423526,-0.4367417999,0.4010798163,-0.1554898895,-0.8432974812,-0.7219932202,0.3566753026,0.7455660081,-0.0651753743,0.4514886695,-0.7852949269,-0.9180115091,-0.5983283764,0.6207575021,-0.2968254615,0.2443525543,0.8420916381,-0.9593199536,0.4232457057,0.5710807444,-0.6693267045,-0.2987835155,0.3025354099,-0.8775125595,-0.5137125854,0.3405438026,-0.1194022323,-0.2188097562,-0.1271959749,0.2910201179,-0.9290214867,-0.6727689042,-0.1953251904,0.7978634087,-0.4960502472,-0.1052497242,-0.7815502634,0.397035472,-0.0543882785,0.9046707094,0.1515440919,0.5305848917,0.6644660941,-0.533939719,0.5713380881,0.0702684234,-0.0723016371,-0.8749580698,-0.8482375491,-0.0293400035,-0.4924724354,-0.7321233216,0.5519837423,-0.1677414257,0.2844163889,0.8502990499,0.0162291604,-0.8741117913,0.7539370817,0.210421966,-0.709805756,0.3417570965,-0.7945820403,-0.4778653035,-0.2655717632,0.6400833404,-0.1882329383,0.6420773406,-0.0772082916,-0.8414989885,-0.8238495994,-0.5798405567,-0.3912651144,-0.1185435844,-0.9840974959,0.0435626318,0.905777518,0.311952387,0.9577693589,0.6034904306,0.6519933299,-0.2886559114,0.0040546046,0.2302655844,-0.9530327779,-0.1574840795,0.9499174601,-0.7841941603,-0.96688939,0.9985792881,0.8378517616,-0.1782098456,-0.9883220035,0.478990375,-0.3438559463,0.517317969,-0.7108928857,0.6420175658,-0.5284761949,0.542857695,-0.841916879,0.0677385517,0.497122146,0.0747969153,-0.2634565568,0.7421434345,-0.2774989624,0.9571413004,-0.9137029342,0.6360134393,0.5637812504,-0.9965229837,0.2343259028,-0.572212995,-0.3390100003,0.2493233323,-0.3152940311,-0.3072760887,-0.6682722907,-0.6461971609,-0.4201479668,-0.4728269491,-0.7738825114,-0.9991878202,0.9534606665,0.7998363587,0.1227257811,0.5312266371,0.7869994773,-0.9591430985,0.9484613472,-0.5376953291,0.1624102294,0.6496979173,0.1755017546,0.7370997193,0.4815102793,-0.4590778159,0.265496673,-0.4624996432,0.0404549208,0.5821965323,0.9500424975,-0.8237834733,-0.2091190111,-0.1564696743,-0.363916599,-0.1369572091,-0.3060285795,0.4244292085,-0.4656093909,0.1550283774,0.7621076386,0.4554800895,0.7360265486,-0.0327572464,-0.9089658134,-0.5426457327,0.1841149157,0.8618226525,-0.7646895282,0.2592120413,0.7720418169,0.1266090643,-0.5801189755,-0.0322124779,0.2428026556,0.8536531336,-0.443887006,0.5890415193,-0.3745169779,0.3374807112,0.0725085241,-0.6176090061,-0.3573461672,-0.8949339036,-0.4166874294,-0.1378239715,0.5999874191,0.0795219039,0.6065801586,0.6568624158,0.5025115762,0.0019624346,0.9809021121,0.9319868862,-0.4654073185,-0.5029495392,-0.7309472933,0.6150183223,0.0325437731,-0.5587159064,-0.0092819045,-0.9291145678,-0.7775327933,0.2899192762,0.5999482339,-0.5533159949,0.0594831889,-0.3139124351,-0.4560704886,0.0278964578,0.1713123293,0.487133541,-0.9367552821,-0.232601428,-0.7821427254,-0.9927212037,0.8728154835,-0.1931636377,0.6416181835,0.1185803113,-0.3895780094,0.2660682808,0.0808042487,0.2953708794,-0.2437025253,-0.2325475097,-0.0644308037,-0.0521528903,0.1205885505,-0.6124023396,-0.9221139128,-0.1983733497,-0.4876331041,-0.5687029304,0.1680896342,0.9213054253,0.3212360769,-0.6478351764,0.8618734768,0.6365010327,-0.6777111535,-0.700132499,-0.0209954956,-0.4399036079,-0.6116696374,0.6491104047,-0.1489687959,0.8294006474,-0.5146534687,-0.1420269633,0.3137796792,-0.0196122757,0.0760731624,-0.6797424913,0.6634885407,-0.4286292898,-0.9938766694,-0.7702574617,0.4204766302,-0.1908047621,-0.2798863492,-0.6918780706,0.0457279122,0.3062984749,-0.8001678339,-0.9623148391,0.0137081553,-0.9143788693,-0.3088727566,-0.1519430498,-0.681833448,-0.8947438322,0.7310154785,0.5319107555,-0.7411484802,0.7738180554,-0.1259936727,-0.0138877673,-0.7462944533,-0.804198274,-0.4598814818,0.2621913888,0.0474671579,0.8971572686,0.2880462834,-0.5348358923,-0.4073316162,-0.2197590993,0.9639542185,-0.4593202445,-0.0748057835,-0.1469297182,-0.4566049893,0.1310223862,0.1670879527,-0.8252899173,-0.6333972258,-0.2057814074,-0.3141610499,0.8616104857,-0.1677053022,0.7486425542,-0.1528105435,-0.9981377451,0.9113806222,0.2421109805,0.9431531982,-0.6067878685,0.8053880595,0.3747219916,-0.4448614216,-0.0496892633,-0.4777838623,-0.3535024981,-0.4601688312,0.411474444,-0.7380238615,-0.522809095,0.2727195408,-0.398966285,-0.2657458688,0.2755310887,0.1780116464,-0.5738075772,-0.0671482066,0.0091820227,0.8127548156,0.707028955,-0.3668407939,0.3846893777,-0.1970633371,-0.0501480008,-0.7841995904,0.261441333,0.3951790701,0.7853607942,0.6202103236,-0.1157903578,0.2382536061,0.1282344924,-0.6244927507,-0.3663136099,0.8948654543,-0.8871663881,0.9407357052,-0.8343948062,0.0243490664,0.775531141,0.9781977471,0.6217981796,0.4184482506,0.0289604581,-0.7077522956,0.6241512305,-0.4235300153,0.549553624,-0.7959656227,0.6547452656,0.3227786717,-0.2152014568,0.1066611342,0.4613731555,-0.0323116776,-0.1588553098,-0.087017862,-0.1591406537,0.2397883546,-0.5715163506,-0.360835932,0.2947232244,0.4379040063,-0.2830754544,0.9372591194,0.3605920488,-0.5284088131,0.0484680061,-0.8859523936,0.5330929488,0.3405364443,-0.2919065164,0.6869152661,0.261382752,0.2284197432,-0.7611486971,-0.3692738967,-0.2371855093,-0.4315338418,-0.4744575933,-0.0111694816,0.1415362918,-0.5177640061,0.8235161462,-0.8413707366,-0.7585460668,-0.353537035,0.8057212775,0.081921389,0.4620000737,0.0794693914,0.4482780687,0.4050962232,0.9939508069,-0.5826565412,-0.9442402373,-0.3125881855,-0.187474001,0.6162748219,0.60675325,-0.5900622301,0.9854872323,-0.1634250803,0.5142003386,-0.5673103919,-0.5552742897,0.8887967438,-0.45924907,-0.2798023216,0.3086305608,-0.2838217138,-0.9277449359,0.6129181493,-0.4076343674,0.2043669367,-0.23867038,-0.3657887416,0.0182490541,0.8355483588,0.4620922084,-0.9697340108,-0.4586048145,0.79461597,0.3647101879,0.1832914262,-0.1958706614,0.3386964581,-0.7160124778,0.8479127079,-0.1055181975,-0.2458004793,-0.3903689793,-0.3313005601,0.8854546379,-0.3856838803,0.6976900572,0.5028967418,0.2435887344,0.8881534065,0.9697215366,0.9350747259,-0.5555629023,-0.3639674814,-0.2348737071,0.2821654923,0.9367273689,0.5082866546,0.906138538,-0.2363240282,-0.8251773804,-0.0172050501,-0.9142202023,-0.5817869343,-0.549575365,0.7530964814,-0.5153090716,0.6612166969,-0.5758791447,0.0040844337,0.0141839238,-0.5312618871,-0.8323909115,-0.0129172522,0.1368246585,-0.3331716205,0.9765685363,-0.4959466911,0.3730355895,-0.8777192387,-0.3748559877,-0.5308846745,0.3835375527,-0.6207444093,0.8438390775,-0.8893493034,-0.4209256236,0.2227534738,-0.0661113014,-0.4641130514,0.4794181747,-0.9586026906,-0.6829946699,-0.6670529204,-0.0241324351,0.2239084625,0.3231616828,0.7118793412,0.2327559566,0.1461990697,0.8428632866,-0.7333450135,0.3849299084,-0.1621874746,-0.5645488778,-0.1764647164,0.1703437067,-0.2833020594,0.2770832648,0.3697487878,-0.9525316799,0.9887436954,-0.7475788939,-0.9874446967,0.6917943704,-0.9921867837,0.0608059629,-0.2055290564,0.7984319723,-0.102720742,-0.1218393453,-0.4611833811,-0.6021552671,-0.5846867959,0.11745514,-0.2046162852,0.5876742596,-0.2254288182,-0.8651547653,-0.2211843342,0.467997812,-0.2548241382,-0.9343180923,-0.1009385316,-0.5731160275,-0.457030507,0.1887319002,-0.3721374272,-0.9580374144,-0.5866565371,0.5487353625,0.4712435878,0.5018865193,0.1508715546,-0.1502624789,0.422971033,-0.7751778312,-0.7208118467,-0.3506519031,-0.0767613513,-0.9990784058,-0.5659893565,0.208916459,0.8013781044,-0.0486676212,0.12916204,0.4276848722,-0.2635340352,0.502075901,0.9166227231,0.2224167822,0.6939594891,-0.0005290765,-0.5726565654,0.5751179636,0.6649466736,0.0894916313,-0.3731857795,0.8342267769,-0.5765197132,0.7026694409,-0.339652638,-0.0446140504,0.8499289089,-0.6101263361,-0.7384623108,0.5907915504,0.167077566,0.7126001773,0.5739510994,0.0788150079,-0.6874979546,-0.8683211355,0.4283750427,0.8754743293,0.8768626081,0.8582638716,0.5880633072,-0.2114470877,-0.2142276527,0.5355574847,0.6880781839,0.1533557864,-0.2342999793,0.363504474,-0.7605403745,0.213536743,-0.2290615955,0.2238854486,0.7684386495,-0.1685656637,0.5450446091,-0.1642145503,-0.0584664822,0.2593486162,-0.9684579815,-0.9357858669,0.378780332,0.8767942401,0.5099805756,-0.3740516193,0.6188559056,0.4597877223,0.0418411012,-0.9182587356,-0.3904000877,-0.57118189,-0.679355726,-0.8856396054,0.9890189111,0.6749128826,-0.3998690165,-0.8254387051,0.750094245,0.2469097522,-0.182582657,-0.410578001,0.6420775617,0.6323239717,0.6877138648,0.5026642414,-0.1161398232,0.2872808324,0.5301598647,-0.5519342501,-0.1663509341,-0.6325818104,-0.1419466909,0.4484301623,-0.3788448589,-0.3744157319,0.1717894419,0.5307667375,0.900314706,0.6458120937,-0.8280866078,0.7616617989,0.925242745,-0.6626113264,-0.9511484691,0.9235282254,0.2578093177,0.5840926666,0.1275943138,-0.2151609198,-0.9781980964,0.0106708357,-0.3076808343,-0.0099642426,-0.5218963112,0.9764786665,0.3262569718,0.4563053609,-0.3043465552,0.5100457888,-0.9126371735,-0.1809500881,-0.9445392152,-0.2911105498,0.2660852596,0.1772770618,0.7603673935,-0.694707368,0.3545089789,-0.2164472542,-0.276667271,0.098075408,0.802197624,-0.0225675151,0.4806076723,-0.6287821863,-0.0197677285,-0.6987977703,-0.914914636,0.1144019389,0.4183984378,0.3631202023,0.1647890922,0.8979131725,-0.4854596103,0.0644020221,0.102342709,0.2118766086,-0.4025289131,-0.4192337594,0.7888536644,0.7707329932,0.1665435806,0.5150698637,-0.5623442714,-0.4359516588,0.8723646446,0.8290993774,-0.6078617305,-0.2926523328,-0.113503606,-0.00293531,-0.0138535416,-0.7347450058,-0.6147736228,-0.9525673316,0.5649911794,0.2208171591,0.3895379934,-0.1029112451,0.9992255797,0.7638015334,0.1405935563,-0.3977307784,-0.1572994573,-0.6461170565,0.8211429477,0.7844162696,-0.4709694334,-0.3006057895,0.9864144529,0.6153655379,0.5617929177,0.4048901652,-0.2843776044,-0.6217521397,-0.2738442179,0.9743282761,0.842897676,0.8470242468,-0.850582702,-0.545234882,0.8046317359,-0.3747924056,-0.3504439423,-0.4475268942,0.6962634253,-0.3339202123,-0.9341604459,0.6281007464,-0.9786644236,0.5349091656,-0.4188606471,-0.8200342365,-0.5474639642,-0.8125210482,-0.5680515203,-0.2577599951,-0.2810939863,0.3992921894,-0.608669208,-0.1145578618,-0.3309641551,0.2189718357,-0.2834871132,0.0607119438,-0.5447753744,-0.2777681629,-0.6801730021,0.5035491112,0.2318141481,0.5034745339,-0.2541993649,-0.5343257499,0.5485297035,0.9293466682,-0.6414420431,0.0555754087,0.0549549438,-0.2500067352,-0.9271473357,-0.6983116496,-0.8853429673,-0.4575177542,0.0042952601,-0.3656266218,0.8634351858,-0.2409568515,-0.3970298672,0.1671169959,0.204613689,0.7356050916,0.2845913549,0.2788856876,0.4088513397,0.0683479306,-0.7229700108,0.9617585194,0.0404079686,0.7623254243,-0.8513389444,0.2715853607,0.9916095417,0.4210749918,0.2223539869,-0.5756362306,0.5983185139,-0.825336902,0.0715266588,-0.1114340794,-0.7926417324,-0.3979614924,-0.4085846548,-0.8503720526,-0.1089082945,-0.7050331828,0.0822886152,0.0640424963,0.6790599904,0.2887656043,0.958625905,0.7212641629,-0.1429295066,-0.2598232408,-0.8336577891,0.2265335606,0.0100604219,-0.7378092753,-0.9438877317,-0.2875719526,0.3117767404,0.9192386921,0.4141027776,-0.3486828047,-0.6799773786,-0.5648509848,0.6400049349,-0.1141022085,0.2972009821,-0.9233832269,-0.1165916041,-0.3788802707,-0.2887291181,0.6107940502,0.6338552384,-0.9412777278,-0.2161606374,0.8389366883,0.3755396275,0.9659574658,-0.864805376,0.9138805714,0.7769816901,0.7673790968,-0.7782927603,-0.1074576228,0.7125160349,-0.0643967769,0.8800192247,0.4660660038,-0.981221081,0.9920933199,0.8373382712,-0.6802415812,0.2273682245,0.2384849168,0.4071211989,0.6171203101,-0.0673609074,0.7488330374,-0.4904244817,0.3127621826,-0.1517498056,0.0965035052,0.8583441883,-0.1261806307,-0.2623602465,-0.4839035176,0.4173731526,-0.6557389848,0.4796684259,0.7686748075,0.8153082936,-0.0432545593,-0.8249799736,-0.0363301453,-0.6644159757,0.5897335703,-0.0248775864,0.5229072381,0.307351873,0.4915608907,0.1229931772,0.4929040416,-0.1187316984,-0.0162872613,0.334527857,0.2228351076,0.4300911422,0.3361423956,0.0845581188,0.4717851157,0.8133690941,0.4462855747,0.4571432627,0.4165157226,-0.7524283701,0.0385039436,-0.68210771,-0.9249417248,-0.4887228042,0.7797229671,0.9118014298,0.2482834252,0.3144919891,0.8508245977,0.8734159256,-0.1457652398,0.1850388809,-0.0667393471,-0.4297536608,0.2338859879,-0.9054740301,0.7486294768,-0.7827610565,0.8043285821,-0.1842359569,-0.5769958463,-0.2391059808,0.5926065404,0.2984611356,-0.057438146,-0.008666169,-0.2602364877,-0.4491542239,0.2495800973,0.0510999513,-0.1842361552,-0.5961096339,-0.7249617126,0.69786622,-0.2559494237,-0.7694439983,0.4401321218,-0.6002431657,0.2199527427,0.8658826953,0.1066322505,0.943314421,-0.1150654808,0.7634482547,0.9169503481,0.5452195719,0.2569848872,-0.6334235378,-0.6780019765,0.4197901468,-0.4194705675,0.5190979534,0.9405225027,0.5545013804,0.8378919784,0.7039362392,0.7606816305,0.1382767915,0.5061913743,-0.6553751126,-0.3192389042,-0.8269709447,0.1182218051,0.7502881855,-0.5293180094,0.6417711689,0.9791677597,0.8317273936,-0.0550932624,-0.3679809514,-0.8305388639,-0.6516997274,-0.6454321749,0.2608191045,-0.8220893446,0.507835738,0.5078132018,-0.1705501594,0.7772454343,-0.5108065742,-0.3357477905,0.0771249708,0.0557503556,-0.3198192066,0.892166705,-0.0094310173,-0.8504450628,0.0922673256,0.2038625837,0.5524916474,0.8313401083,-0.7758026365,-0.3897003349,-0.6067341349,0.2940424214,-0.3648941081,-0.3003251619,0.711187121,-0.9271128007,0.5346861163,-0.4356875004,-0.8509064109,0.2689841682,-0.1044558097,-0.3494135449,0.1604294185,-0.9228587419,-0.1713116688,0.3894642676,0.833679928,0.091802257,-0.8767046063,-0.6721383865,0.8301243029,0.9073795989,0.673411748,-0.0232074165,-0.480430002,0.0462914844,0.7580711753,-0.2042168413,-0.5500584951,0.0174357651,0.5459331661,-0.1987648687,0.3058958082,-0.7422330854,0.9794693836,0.9140649869,-0.6140661512,0.6818390195,-0.8696027928,0.2267158384,0.9861273722,-0.3735146368,0.6610699274,-0.9863118356,0.6925844966,-0.2965472326,-0.6378027547,0.4582925212,-0.4791595208,-0.4544364455,0.3429785871,0.4132747482,-0.9698776202,0.483078552,-0.972299525,-0.1937555966,-0.4503732704,-0.7169856148,0.3125589653,-0.6979857953,-0.5749250435,0.906413377,-0.8358691751,-0.4517334984,-0.4756064643,0.7352725915,-0.6776817464,-0.3551409476,0.4672356945,-0.4021053421,0.4750987161,-0.9767361665,-0.1757946204,-0.6246753915,-0.8314266495,0.0676079424,-0.743517697,-0.2731021154,-0.3407417521,0.1266082759,0.2481009926,0.3096519228,0.8084291816,0.3239896437,0.516457247,0.6885644312,0.4285546823,-0.6402248032,-0.8124020671,0.8685069899,-0.0816079607,-0.8940893038,-0.6973132993,0.3472215976,-0.0908937453,-0.1909154655,-0.8217423619,-0.147130493,-0.9911028318,0.3841746111,-0.1831686983,0.8879833441,0.1630057897,0.7439943199,0.0505682278,-0.1314661167,0.2812919719,0.9666542946,0.2937127839,-0.5252317371,0.3048111581,-0.4708466392,-0.0167021304,0.1447846784,0.7446739315,0.839621014,-0.3633441871,-0.7526696085,-0.659130488,0.2881343704,0.4640177667,0.745030594,0.6542847587,0.9826045486,-0.6226060601,0.0666680255,0.6068119979,0.0032474118,0.4855604667,-0.9992052736,0.5915519423,-0.0691520469,0.2601812583,-0.0884538728,-0.7369149157,0.4514490741,-0.1104055636,-0.2362152933,0.6736878088,-0.8999525365,0.6446033834,-0.9635146533,0.5060837636,-0.0682743761,0.2052093725,-0.0305404395,0.4495835047,0.2050281613,0.506323383,0.8064164137,0.6918385455,-0.9861899441,-0.5645208831,-0.2755416876,-0.0560181817,0.1634671768,-0.8293699408,-0.612535967,0.6524278388,0.1164549774,-0.7900795295,0.6435118991,0.1291196378,-0.6964650007,-0.2483994503,-0.5639738278,0.7193003367,-0.4362354591,-0.9009177522,-0.472801721,-0.4589055388,-0.6960168094,-0.1415541631,-0.3629304315,-0.4215083824,-0.1375787855,0.9480870533,0.8456358985,0.2449150123,-0.7994851093,-0.4710745929,-0.4973900802,-0.9876029991,-0.2192201045,0.7808441678,-0.9434788399,-0.2025797182,-0.2499194488,-0.7610509876,0.997361949,0.2986394795,0.4487032041,-0.9081901133,-0.097739729,0.2844021886,0.7601374626,-0.5757305836,-0.9949764598,0.1840990089,0.9194836289,-0.8140296964,0.8251572668,-0.64423944,-0.5223230602,-0.3765566907,0.3135023332,-0.2577617649,-0.2189266812,0.5323988703,-0.7460960504,-0.3779450957,0.4388240443,-0.6902674806,-0.0045374729,0.0529646356,0.0395401151,0.4427847288,0.0349201887,0.4774326895,-0.4643419814,-0.8291194233,-0.9290985377,0.4515192932,-0.1252437733,0.4782806397,-0.2559284655,-0.8888290482,-0.886321637,0.4607317329,-0.7131376151,-0.6003118459,-0.976176597,0.1231881802,-0.5373297191,0.1013574472,0.0243654772,0.3975252081,-0.9974770001,-0.6340348132,0.7896365577,-0.3854752254,-0.1783619538,-0.7845938656,0.0915885053,0.7067773196,0.6096429286,-0.8081160023,0.4323307134,-0.853879654,-0.9227104647,0.0084146944,-0.6337188569,0.468430762,-0.2767882522,-0.676900167,0.4496008921,-0.8623130193,0.5464591623,-0.7974591877,-0.9244044086,0.1003643471,-0.970257368,-0.8760725119,-0.3801690828,-0.2800250112,0.3694712418,0.4744019799,0.6972549,-0.3725560929,-0.46066923,0.9696271751,0.2157523516,0.4289699259,-0.8195267938,-0.6813199604,0.3212908705
   0.1894141657,-0.4187905992,-0.9990429199,0.7319680994,0.1308322193,-0.6031303299,0.9361619639,-0.5644149285,0.1561978149,0.7968348922,-0.6941745754,0.402190084,-0.1871352017,-0.3779256691,0.0119978388,0.7323891726,-0.8995296167,0.5490000299,-0.4768481298,0.237538711,0.5508473889,0.7235991522,0.9006130325,0.7231464313,0.9130778957,0.2526427257,0.2868126463,0.4979478762,-0.6150261031,0.4031064842,-0.8790960332,-0.2089552608,-0.0656060687,0.9564895704,-0.1155722737,0.3460729868,-0.3486002714,0.6144429039,-0.9258447882,-0.128648898,-0.8550304966,-0.7828783272,0.0461799074,-0.1025616003,-0.8044704687,0.6751647739,0.0891429187,0.0273609967,0.3776440324,-0.4288294274,0.2958443714,-0.9157463611,-0.0308484895,0.9765657757,-0.9985294383,0.2176814698,0.3992988098,0.5230570506,-0.6657856689,0.8818557176,-0.0280948608,-0.6581745927,-0.2140498175,-0.6025403209,-0.9417522357,-0.2944174033,-0.7786359529,0.7293102763,-0.1415393059,-0.9159049757,-0.3098596551,0.3169674663,-0.2911642275,0.5013513277,-0.0857836606,0.574822485,-0.1013329021,-0.2955234968,0.8100521034,0.7636473343,0.0796894911,0.4342791897,0.9888199929,0.8122350352,0.7596317585,-0.4311642213,0.6660532944,0.9297479706,-0.4021456583,0.0989256667,-0.3368038285,0.693136723,0.3000472907,-0.5529532715,0.6798399304,0.2014605095,-0.764425201,0.589186905,-0.4570190625,-0.2890869744,0.847532854,-0.7040304219,-0.4104832954,-0.2236169083,-0.0797910301,-0.2863311555,0.3290681622,0.2902559366,-0.3230128207,-0.1353583435,-0.4680669134,-0.8575834513,0.4147109315,0.0718421099,-0.5854665261,0.9136317221,0.6854087618,-0.449124113,-0.3896563375,0.8165694013,-0.7106797044,0.1806075596,-0.729173548,-0.1699428942,0.501303377,-0.2220410108,0.4389199841,-0.8283544209,0.6262460185,-0.6352439517,0.3476674131,-0.0958737487,0.7878553004,0.1176082712,0.7053138668,-0.3310989594,0.5931958189,0.8827318093,0.0032690436,-0.228439432,-0.0160416343,0.530241667,0.6725655847,-0.8154444351,-0.4799610956,0.367095018,0.1986055678,-0.3705716116,-0.3302438086,0.3223221296,0.5422520263,-0.8803462125,0.4382602399,-0.359318332,0.2901683162,-0.381152456,-0.8072999304,0.6421844472,-0.4518346349,-0.0514412905,-0.9796657046,-0.2685840815,0.9517600069,0.255854036,0.3093914356,0.3035996624,-0.5426312061,0.862732195,0.5681545518,-0.4692485993,-0.0248498739,0.4978224418,0.7632351415,-0.3167284761,0.3069573607,0.0083659209,0.9866466747,0.2626546162,-0.6305378543,0.1568472905,-0.6451016168,0.892695242,-0.4960403617,0.6488927761,-0.840937989,-0.321834179,-0.0903664977,0.5678403089,-0.2974158928,-0.9957204965,-0.9942322473,-0.2978029676,0.1994973011,0.6708876789,0.5880320746,-0.7181879257,0.437475107,-0.4356781805,-0.8417281371,-0.4916670018,0.9955964307,-0.1320188298,-0.4572856197,-0.4903862814,-0.3166547832,-0.6537826042,-0.9389954422,-0.8891110583,-0.3621266435,0.8672652411,0.8159931175,0.8444307753,-0.6086522186,-0.3409948499,0.1348514262,0.2250472006,0.0796292283,0.8449400212,-0.3266419041,0.1388845211,0.6155578702,0.693229663,0.4963953445,-0.0983018094,0.5466683518,-0.6078520476,0.626822639,0.8938769475,-0.4103104148,-0.2291649999,0.5907216081,0.967275727,-0.7294609649,-0.1394506548,-0.9784059954,-0.1891238112,0.1217588396,-0.1780948263,-0.4513396747,0.6583359679,-0.181104454,0.0691646114,-0.9429045065,0.5424032527,-0.6114884158,-0.7418667727,-0.0255240799,-0.5524883855,0.2852081405,0.4419991391,0.8560466914,0.9575000196,-0.3653465902,-0.6181147991,-0.1475460667,0.1300817314,0.8400194859,-0.2298703661,-0.0549510565,-0.49611987,0.7308609135,0.2958324193,-0.4780639524,0.2726030216,-0.7149596412,-0.0957347275,-0.7586904124,-0.463305716,-0.2715875316,-0.9017292501,0.264333085,0.447834102,-0.4004825531,0.5481248728,-0.3238311207,-0.4088819985,0.5568697321,-0.8298128824,-0.7763141242,0.3064482497,0.8927602649,0.4927081937,-0.2584742609,-0.4585073774,-0.1674640305,0.1688472534,0.6533301944,-0.4613039142,0.4604654291,0.3027209593,-0.8343351985,0.8892551695,-0.4081898493,0.582160218,-0.1376083007,-0.6864458677,0.5696293675,0.4864688897,0.1187504215,0.0642432924,-0.4102257349,0.752823299,-0.7760479898,-0.3831971629,0.2042967143,-0.1738633731,0.2110532747,-0.1561070777,-0.6721094281,-0.6137264267,-0.4127154914,0.1902270041,-0.127914533,-0.6091533018,0.6213961708,0.928056159,-0.2474243279,0.8172150519,0.1777214829,-0.7802766265,0.8125618587,-0.9346908264,-0.960093023,0.6385194826,0.2959702833,0.071783203,0.4108629387,0.512833037,-0.1967388399,0.3121192375,-0.2770389912,0.4290459022,0.3907807403,-0.174623339,0.1739071959,-0.4834848857,0.3786304671,0.8696544179,0.6704186055,0.440276803,0.4054355089,0.1646094815,-0.1979052827,0.8840221632,-0.4241155069,0.0829112896,0.5107208764,-0.166819009,-0.9684273484,0.5074763837,-0.5228128264,-0.5899664972,-0.8282512358,0.5159569217,-0.8920619658,0.7886626761,0.0916892718,-0.9844368251,-0.1059520183,0.0494484561,0.741039912,-0.1780455318,0.4615076071,-0.0137973545,0.1933564693,0.511265331,0.1601329597,0.8220251311,0.8088055251,0.4287966601,0.5876436209,0.0600346974,0.9063378158,-0.1510140602,0.5654044996,0.3545169582,-0.0641981206,-0.1540689528,0.578733361,-0.6623341154,0.7200988506,0.8612469138,-0.8763988645,-0.4779562515,-0.3729454959,0.9619107102,-0.3197968471,-0.0436430799,-0.8171761727,-0.4509088356,0.2395978013,0.0199840212,-0.4486290245,-0.4822875648,0.6190636784,0.473153206,-0.6969368047,0.1431536508,-0.9499185791,-0.2656104942,-0.7126177045,0.5344713895,-0.5936620015,0.9787391506,-0.9544235463,0.1300318842,0.9189490778,-0.5796546415,0.283370575,-0.8440827498,0.4478285251,-0.3763553844,0.3871532931,-0.8280443406,0.2805764898,0.346604877,0.9984240165,-0.8196583181,0.7652698909,0.2320995675,0.5479769739,0.2060951878,-0.1953594095,0.4726038102,-0.1897493854,-0.5510741225,0.5728231265,0.0294544564,-0.6836683643,0.9856054909,0.3925496662,0.8662762701,0.2205774819,-0.0339186092,-0.2850009607,-0.9893583408,0.1504903165,-0.0545674964,-0.9030556476,0.4706041705,0.7638304244,0.7094036581,0.3107556468,-0.6300525085,-0.128720573,0.7942932086,-0.8026730152,0.8587756814,-0.0620669043,-0.0537649177,0.8518945355,-0.099091201,0.6355143715,0.4061755789,0.7706715586,0.6263474114,-0.8272410279,-0.5557036242,0.7926303847,-0.7628597586,0.6837396892,0.335710309,-0.7723739221,0.0407059484,-0.486406004,0.8879537422,-0.4865959869,0.2696950155,0.6524038791,0.048504307,-0.4430621226,-0.0758050753,0.2609273154,0.8406055491,0.6075271794,-0.0659393179,0.2129033885,0.9680249919,0.7809089267,0.9625471026,0.2844444655,0.5350164651,0.8880667717,0.5520199798,-0.6107501449,0.8714925681,-0.609363708,0.7137660831,-0.412743336,-0.819082362,-0.4123146105,0.2753072276,-0.7301971518,0.2778766704,-0.38536032,-0.4453781162,-0.2185594222,0.2039547448,0.2493080641,-0.7170871218,0.1957600239,-0.9942666662,0.1100031926,0.7077815671,0.0931327474,0.0046674501,0.3650867905,0.2013539749,-0.9461266324,-0.3385014557,0.7740641314,-0.2521859323,0.1689331394,0.3857718539,0.0643782945,0.2156679909,0.0832921592,-0.6771299492,0.7606547329,-0.4094311555,-0.6845312414,-0.1472208471,0.4170473098,-0.0465560926,-0.2023629429,0.9707065982,0.6102938189,-0.5411106626,0.3092895478,0.0952539923,-0.3355096325,0.3535475739,-0.1838167992,-0.4528700943,-0.7250493989,-0.8824178214,-0.3427208042,-0.6088511429,-0.1894249671,-0.2339837999,0.5840965369,0.3332519061,0.2563293962,0.8167681514,0.0730424064,-0.564965999,0.918799322,-0.4326085745,0.0187189419,0.9237861348,-0.5140393865,0.3062677914,-0.2702153506,-0.6494449116,-0.5062226983,0.996244028,-0.580828123,0.9058498787,0.2654373292,0.2963307078,-0.9396704248,-0.4737806951,0.3502758123,0.5829581782,-0.0021054398,0.9200860352,-0.1763698419,-0.085027048,0.2191707927,0.1515094237,-0.1017242371,0.8595774115,0.6026616691,-0.4229628998,0.547168626,-0.2387528156,-0.297076476,-0.5866153889,-0.016521384,-0.4500991341,0.0174900605,0.7256204512,0.1294812468,-0.6438905553,-0.4022659493,-0.0467728766,0.7543713775,0.8700333536,0.3541196852,0.6654142042,0.6246828679,0.0773729575,0.5397376711,-0.02837175,-0.4036255681,0.0214141653,-0.4762393051,0.1569382171,-0.2030638157,-0.8315450717,-0.0847011277,-0.4164181883,0.1956657031,-0.6295273164,0.5563624862,-0.5089711014,-0.0838728963,0.9644907144,0.4216839089,0.9403466176,-0.2951820195,0.9218272053,0.2865219548,0.0499744466,0.2582987913,0.3301545494,-0.3822403136,0.6865918404,0.3478309587,-0.5821881649,-0.8165204505,0.5833427055,-0.9870392903,0.1300853057,-0.156240586,0.4759534693,0.636110261,-0.7445234764,0.3505728612,0.1687935579,0.8761251815,-0.8515281951,-0.1255568837,-0.0385164827,0.1591218136,-0.8375871348,0.746632928,-0.1350761008,-0.2488988636,0.9764525515,0.3263086374,-0.6195655998,0.5345521912,0.3463959436,-0.1069424804,-0.1467504514,0.9425006807,0.9558351283,0.388795444,-0.8402810219,-0.9732248196,-0.6744947328,-0.9777617575,0.4588308923,0.7348191973,0.5444763156,0.5633276836,0.4039213386,-0.5338684343,-0.0265295884,-0.2385363053,-0.6752575129,0.1510673006,0.4390689246,-0.6101381133,0.7815505765,0.9298191586,0.1542452585,-0.5709446118,-0.0225118151,0.5583978454,0.5233640593,0.2080096223,0.9861538016,0.0823815547,-0.0767129224,-0.6513605867,0.6365178847,-0.0092465359,0.7659695714,0.3797015708,0.9631244481,0.4277734054,0.2776826304,-0.5362552152,-0.5065086053,-0.0470431618,-0.4442935456,0.5165784076,0.3497316194,0.7533496787,0.8329887212,-0.383204914,-0.8246430142,-0.4568488219,-0.5341231103,0.3967290282,-0.7360697221,-0.3636975893,0.567494196,-0.8502797289,-0.5524478269,-0.5056243111,-0.7873297946,0.5392369709,0.8860482848,-0.1723443646,-0.0958276385,0.8001195762,-0.8670752848,-0.0429024398,0.0994930078,0.638505044,0.523535713,0.242997623,0.2246158507,0.6222236477,0.6767926137,-0.2369548379,-0.4773102728,-0.5122787284,-0.9695195625,0.2788550697,0.2288675268,0.4198511324,-0.4145881843,-0.2624511238,-0.6590050953,0.8357956494,0.9907494392,-0.872591849,0.0098587761,0.6962585028,0.398878135,-0.516037711,-0.6470241391,-0.9929830961,-0.4728393685,-0.6115345481,-0.099736269,-0.3224287831,-0.5213332356,-0.0240712074,-0.0372083322,-0.1276650474,0.3428264277,-0.4395066456,0.7598905762,0.7926518784,-0.9421760791,-0.9331238574,0.6093288914,-0.5358829631,0.2331799792,-0.1071683671,-0.5910052168,-0.4634823261,0.3934358222,0.9382701475,0.9713911741,0.0506417833,0.8335599278,-0.0263522901,0.1291391682,0.6651659395,0.5913639239,-0.8639674708,0.0103919484,-0.4175505862,0.4763556861,0.1862521963,-0.6815110696,0.0813122041,-0.8871487628,-0.5736217061,0.7075530954,-0.7147771417,0.2865165339,-0.5128726064,-0.0858207728,0.917117797,-0.4328387997,-0.7646846359,-0.4554709284,-0.8992388262,0.5878475808,0.7112228427,0.085219058,-0.1947525804,0.5046314367,0.4377628394,-0.8386135282,-0.1827883605,-0.8937511544,-0.9352027768,0.8994350399,-0.1343766098,-0.3053634578,0.9397622795,-0.7075920163,-0.7205818155,0.5284799182,-0.2389681466,0.1248805955,-0.3922928962,0.8249558752,-0.9561849117,0.5532216646,0.2145585307,0.6110615413,-0.6759386627,-0.0193738823,-0.573097796,-0.61912434,0.8772819897,-0.6748325153,0.3232409506,0.7481226093,-0.2364183695,0.5455714333,-0.1157267203,0.4354965331,0.5096721003,0.0057068843,0.1967304723,-0.2567219601,-0.2892364281,0.8816509358,-0.6085433848,0.9556936222,-0.0572358164,-0.8343630881,-0.3071057524,0.0193480354,-0.3534369098,0.441711219,0.8018805916,-0.5239477771,0.8009882117,-0.7515165173,0.699761316,0.4757146352,0.4608069769,0.0757837637,0.611632789,-0.9541057946,0.4222029789,-0.8773534372,0.5084718318,-0.366483867,0.358037933,0.3317393342,0.5320810381,0.2634810677,-0.1247199149,0.1829118473,-0.5856283241,-0.6950246841,0.811851236,-0.3025544573,-0.1270968999,0.2575390241,0.3370171967,0.3230097647,-0.715909993,0.2713204071,0.2801554019,-0.3358586305,0.3016034195,0.0495000571,0.0681103267,0.3184914593,0.8810359786,-0.7121172033,0.9822754763,0.9204840609,-0.0534455393,0.4211443947,0.7472307019,0.5821706342,-0.569188547,0.7865465721,0.6476522961,0.9323280791,-0.9625871945,-0.8949710503,0.3629421043,-0.994959577,-0.5655853745,0.5661411539,0.7114231127,-0.2020715676,0.4332754904,-0.2321057885,-0.1496385516,-0.5053520457,-0.1622022075,-0.9862551321,-0.1426428052,0.1835148915,0.240160485,-0.9593779808,0.707842411,-0.166818627,0.453289672,-0.9489857492,-0.3087307638,-0.7171642959,-0.7055127842,-0.4318664559,-0.7205292687,0.2566348689,0.9662333613,0.5317228681,-0.245055099,0.4271094011,-0.1771768405,0.7458575685,-0.1302266241,0.0396391228,-0.061227752,-0.9298875869,0.2986638803,-0.5711570683,-0.9774958642,0.1672430172,0.6018095995,0.5250034786,0.3500778671,-0.3606389749,0.6061151139,-0.8855894832,-0.1072110241,-0.5570839343,-0.6310265336,0.6300229445,0.4779727553,-0.4833524368,0.3512292381,-0.4885939907,0.1707869272,0.7203987484,-0.2322468572,0.9302780925,-0.6734683327,-0.1135633949,-0.6910752952,0.3118469562,-0.3186269573,-0.4961508832,0.1292541876,-0.0123066679,0.7114349742,-0.364184401,-0.8294297213,0.3068453555,-0.4596893249,0.6621741181,-0.4103465223,-0.9682257118,-0.4242753525,0.6640570502,-0.7617796134,-0.4902291177,-0.1373141883,-0.6642355475,-0.4215322373,0.5328963343,-0.2669868193,0.6287270194,0.9041141898,0.1686996059,-0.2003933791,-0.6782751606,-0.1300618113,-0.0850663167,0.1996364543,-0.9093555895,-0.2971846609,-0.689401488,0.9775624854,-0.6666523436,-0.898041765,0.519093633,0.4120787706,0.0569776014,0.9323330925,0.083832008,0.9138681864,-0.4747986682,0.0575914787,-0.3434887074,-0.6960011317,-0.3082259599,-0.6551872065,0.3273877244,0.6370945527,-0.0654349703,-0.3248590322,-0.7008533511,-0.5861027962,-0.7789031811,0.3146137435,-0.0717961739,-0.9235026613,-0.1163190295,0.9094108746,-0.901804366,0.0934820225,-0.8097811166,0.0725759345,-0.2074357059,0.5740047818,0.8981788163,-0.2450896399,0.9212362641,0.6870198746,0.5042396124,0.5065232276,-0.1858150882,-0.6400581296,0.0868385327,0.0717174816,0.3760579736,-0.7924114759,0.6216539665,-0.2839813083,-0.6757571403,-0.8972891688,-0.3993261502,0.7237724154,-0.5556497299,-0.2615711743,-0.6831389175,-0.2889908082,-0.1280611212,0.2410788848,0.5061787305,0.1503152154,-0.85362869,0.9698330075,-0.2950507929,-0.2572437305,-0.7506193143,-0.7418566272,-0.9797717808,0.6422900463,0.0128461158,0.3683943978,0.3569920446,-0.859654476,0.1351280599,-0.9610251926,0.2093530215,-0.7724389074,0.6854425097,-0.1514450924,0.5318534226,-0.8697789325,-0.6783823494,0.7117864149,-0.1359816262,-0.6872405259,0.515711291,-0.7937423046,0.5346038898,-0.5507564696,0.1309169995,0.6237065812,0.7948520239,0.710445113,-0.3907270003,-0.4901638096,0.7644589271,0.1767760127,0.8385080774,0.5682340538,-0.2584173113,0.6392267999,0.9583647783,-0.1545560003,-0.2448438106,-0.5836578809,-0.8855973203,0.9890044849,-0.0889701875,0.3308495577,-0.0389911733,0.6883033673,-0.2991900614,0.6015779548,-0.1205625657,0.8530147614,0.8790706394,-0.0079932818,-0.2796248363,-0.8154467623,-0.755284075,0.3646445971,-0.3479177772,0.4229301728,0.7433643852,0.4733274881,-0.2762018254,0.5172677711,0.0852215962,0.0739846861,0.7592575339,-0.5509315093,0.7982477331,0.5732390587,0.4337127972,0.3801846791,0.1689028271,-0.0342534369,-0.010918064,-0.8392320881,0.0880323105,-0.0746563104,-0.0365717512,0.0885582752,-0.8543166229,-0.9881636183,0.8682672877,0.601656726,-0.5723025455,-0.482570946,-0.0122921126,0.6261359004,-0.769452248,-0.9938169302,0.2487292471,0.4734988846,-0.4321646099,0.7637079329,-0.4093913236,-0.1518658648,0.1056488535,-0.1709247635,-0.9049504708,0.0369625569,-0.4151830924,0.9705282095,-0.9508034951,-0.8505766524,-0.1678134758,0.36758219,0.378064346,0.9131718222,-0.8286435103,-0.7869457935,-0.4175433247,-0.2112854734,0.0923290174,0.124023129,0.470177597,-0.6053185318,-0.7440051972,-0.587273294,0.1688871164,0.7759431503,-0.3947752143,0.4074841827,0.8573870836,-0.9459052761,0.4743070417,-0.0468619591,0.0472005853,-0.8181788011,-0.5432768258,0.4488267278,0.602157501,0.9460214925,0.1585398761,0.1489657425,-0.3325002288,0.8321335118,-0.6864425492,0.8103422303,0.736727886,-0.5304675598,-0.2145441638,-0.4468943116,0.2820439525,-0.2129626395,-0.5088237372,-0.4039694936,0.1518108681,-0.9263405697,-0.5232115814,0.6848087571,0.4298794314,0.0483626207,-0.100362589,0.6302403286,-0.0713997757,0.6295986251,0.4347762976,-0.8743865096,0.7765661367,-0.1084820898,-0.7645596195,0.9998331726,-0.9275813733,-0.9443153809,-0.4188965472,-0.2564689701,0.3309459769,-0.7346131138,0.2893413662,-0.6687997462,-0.7332712881,-0.1443052745,0.9918916026,-0.7061595456,0.1355527402,0.1923926801,0.1153281965,0.8446057489,0.6399105389,0.0490299995,0.1454376713,-0.579092584,-0.4216399643,0.7993486256,0.8128322928,0.9691790144,0.3740468066,-0.3970787338,0.8014364725,0.8539686534,-0.0550887109,-0.3030982254,-0.9829168441,0.0270096968,-0.3238535862,-0.3619096433,-0.7446723298,-0.0025944848,-0.2249906838,0.7931953238,0.9948251359,-0.3520947441,-0.1277864583,0.8736634354,-0.4895731203,0.5222604742,-0.5746041366,-0.2251193756,-0.1496885169,0.2458174676,0.0578785864,-0.6059902576,0.3139197581,-0.1993101455,0.7797032411,0.1526727349,-0.7744788917,-0.6552780006,-0.5857363313,-0.0096486081,-0.1374439209,-0.4052577802,0.9702390653,0.7330665208,-0.1149677533,0.231994108,0.9060352457,0.3665588346,0.714906123,-0.659066172,0.925719167,-0.4055636784,0.9445690673,0.7538212738,-0.5403085209,-0.8087084873,0.1027462433,-0.6296761232,-0.7737872627,-0.3084251503,-0.9462448151,0.272300041,-0.3023229441,-0.1445898057,-0.9786375746,-0.3100492113,0.6581871783,0.9977547672,0.6094197678,0.0914252807,-0.0503277738,0.460688899,0.7503005743,0.3008593804,-0.6849707554,-0.859887427,0.1465980278,-0.3924609371,0.6955837896,0.3980176652,0.902323122,0.6336759983,0.0185015328,0.0475454917,0.3539409258,-0.7194582447,0.3384126075,0.3290626412,0.2979602521,-0.1018730534,0.9070478985,-0.1141749616,0.0136770412,0.5207307844,-0.8383602091,-0.2833174562,0.5527824009,-0.8653956705,-0.3959876132,0.1530140603,-0.3210531973,0.0228872727,-0.4971990566,-0.4368612652,0.9001087188,-0.4186772491,0.8096835902,0.1246380487,0.4056244152,0.8908939083,0.7531876778,0.7176391944,0.2753549,0.4866135914,0.3647529689,-0.4333289253,0.2307939072,0.86227955,-0.2347677821,0.1113724031,-0.2913340921,-0.5813570525,0.2792772435,0.8026862835,0.8397428905,0.6571440635,0.3827366023,-0.978150815,0.7930369389,0.1721893738,-0.4898613595,0.9769176528,0.3433044564,-0.4096501539,-0.2257133853,0.5926490687,0.6139871102,0.7501185501,0.3164610553,-0.9577805993,-0.679621348,-0.9601161688,-0.1407569506,0.527581978,-0.3423288072,-0.5439797307,0.4116031237,0.2018195536,0.8061997314,0.1757601709,0.3433052986,0.2401875208,0.5594855613,-0.0367729129,0.5300849535,0.8327804499,-0.4815448742,-0.0896612064,-0.717141633,0.623929255,0.2337396458,-0.2490829136,-0.4629785476,-0.70830264,0.8677674359,0.7693098158,-0.6880264463,0.3232255256,0.1314065342,-0.9867644445,0.7601081514,-0.8116790805,-0.3525242479,0.1552086869,-0.0605732135,0.570021239,-0.7924351738,0.2105308186,0.3268992847,0.2144901041,0.0062154958,-0.0378251297,0.863374614,0.3847291678,0.0356946393,0.3824324127,0.8581613732,-0.7775478633,0.1312973068,0.3069054589,0.3150678393,0.6445473326,-0.9624166635,-0.008997151,-0.4630040227,0.3323864632,0.1973201882,0.3591354516,0.4274952694,-0.3902554929,0.2650303578,0.4505982628,0.354542731,-0.6179282185,0.1387472583,-0.4887566886,0.7451530894,0.6658068405,-0.9105947172,-0.6377502277,-0.5524869413,-0.0873059621,-0.853027055,-0.3734732995,0.4701049914,0.0094501888,0.3788147109,-0.5680686422,-0.8058621651,0.582699997,0.0661031719,-0.8278235766,-0.3571128676,0.6060932681,0.0503732447,0.9852916177,-0.6132191462,-0.3077105791,0.0117096232,-0.3792554411,-0.3110306556,0.6055381794,0.2350562771,0.9732005468,-0.1629399461,0.1853210127,-0.6632510197,0.8512183479,-0.1007585181,0.8727423222,0.439628295,-0.944788108,-0.8201319181,0.6886373856,0.8668525896,-0.3002788781,0.8480353492,-0.8647167114,0.467627018,0.4034346077,-0.8182490299,0.1977649727,-0.9280178239,-0.0679350471,0.612503103,-0.7897481377,-0.1744392497,0.8156254999,0.3666679205,-0.3317489656,0.7315284085,0.5524025913,0.2709131122,-0.2679232817,-0.8513458231,0.2115212725,0.8442427974,-0.7120237057,-0.0107679809,-0.2143982829,-0.0505400314,-0.1239341778,-0.2739686269,-0.2512656486,-0.073199918,-0.2176931194,-0.0827176805,-0.3128708705,0.5876112683,-0.5935387999,-0.5690627213,0.1930008735,0.6958222852,0.781489276,0.0661306355,-0.7565794391,0.7023890191,-0.4141111016,0.535755732,-0.6109820938,0.2793077043,-0.711604791,-0.1159084548,0.267281525,-0.8198530159,0.4792995347,0.062905253,0.4428801395,-0.8124836293,-0.85937249,-0.9665689942,0.7966308103,0.1078097096,0.6402836034,0.9605198302,-0.9632044985,0.0044239232,0.6053420278,-0.6222710887,0.0596261531,-0.2690298271,-0.308176996,-0.0164002353,0.6570355198,-0.4857479119,-0.310597067,-0.5196212901,0.8938837419,0.2871472794,-0.0548631867,0.5475581481,0.9896590456,-0.5705787701,-0.6638441507,-0.642359313,-0.7072007542,-0.9857112543,-0.5963303642,0.9367136178,0.2874925424,0.5781699621,-0.5892894781,0.3355478711,0.2947262734,-0.9391252873,-0.4440173916,0.212491704,0.0816688234,-0.3618353362,0.7433225214,-0.122196939,-0.3668620368,-0.4579604596,-0.693487787,-0.4592259218,-0.6036914175,0.4197386106,-0.0204013148,-0.8297674317,0.1019598513,-0.7368734744,0.1702447153,0.98486551,-0.6467779238,-0.5570217138,-0.5771183955,0.5499267183,0.7229878135,-0.60413941,0.9828636534,-0.9649505297,0.7671684737,-0.0492481466,0.3322687658,0.4437007166,0.4362856382,0.8709916519,0.1072987496,0.3233228965,-0.8747988611,-0.6303349621,-0.5063506977,0.2402265222,0.1227280671,-0.5075537882,-0.1247074845,0.4796122865,0.1666616721,0.4474733835,-0.9642452307,0.1251998517,-0.1671108298,0.2322087552,-0.1931696084,-0.9112855438,-0.762761565,0.0968118258,-0.3388111103,0.4134052978,-0.4873096405,0.2951920055,-0.501390403,-0.9715339532,0.1593749057,-0.3264059757,0.652734526,0.0232425443,-0.5720838693,-0.7570892943,-0.3950611576,-0.7947504413,-0.4334087503,-0.059061981,0.4180730197,-0.8882696465,0.0724571562,0.7962641932,0.852837506,-0.1618343579,-0.6138730564,0.6561988733,-0.3639900068,-0.1872943133,0.8425117562,0.3372760646,0.2808607229,0.0966414537,-0.7169569076,-0.6776766275,0.3920202481,-0.3660177985,-0.1514678096,-0.4291516349,0.8122264585,-0.5915733792,0.3688936121,-0.1221604275,-0.435252163,-0.1825235084,-0.8329314505,0.3493828577,-0.1954350796,-0.1158655283,-0.326895111,0.6273476739,0.4737148485,-0.1237851758,-0.9045945548,0.2781059613,0.8932356069,0.9554092272,-0.6502037535,0.2610693724,0.6217203308,0.4582087122,0.3045746,-0.5818523564,0.0258371727,0.3967441772,0.9226764383,-0.3906797291,0.5554915599,0.2362622316,0.0350022074,0.1540182912,-0.1861945628,0.5565122141,-0.2724481771,0.762802992,-0.3040989443,-0.381531863,0.4264230828,-0.4507338612,-0.8946334752,-0.3134778161,0.356231672,-0.4759525123,-0.273013068,-0.7126791068,-0.6503904171,0.0893269332,0.4246942982,-0.0128979466,-0.5331615795,0.8456178913,0.3343169038,0.5417304608,0.1697710358,-0.9379409346,0.2837696251,0.6158713118,0.0343741839,0.9464200537,0.0969174904,0.2254297513,0.3052058225,0.4969117112,0.2757541131,0.174083753,-0.9763398576,-0.8050860808,0.8752591747,0.2374652205,-0.6315343345,-0.8126464916,0.5878026133,-0.9788276045,0.6810944087,-0.2811979172,0.2419070127,-0.6605956155,0.460666418,0.2060884286,-0.9919484032,-0.7189620737,-0.9681221998,0.3608878928,-0.6844259141,0.4244228598,0.1352386793,-0.8874940182,-0.355619192,0.718894235,0.6778967877,0.1005301209,-0.3085973731,0.009148885,-0.7142707139,0.5410125996,-0.0223378486,0.6153055915,-0.8673231358,-0.4719600642,-0.1109974144,-0.6418952919,0.751081424,-0.8365063136,-0.2683476359,0.1591283494,0.2184574834,0.1990170246,0.5946593787,0.8060522643,0.1800131764,0.746336185,0.0566349614,-0.6658526947,-0.7883416957,0.6142209085,0.1436788202,-0.5802699149,0.9981510713,0.2216404059,-0.7086278519,-0.6648304817,-0.5500135306,0.496753721,-0.3420138388,-0.1381797895,-0.1838076755,0.7709058756,0.3509756815,0.1773421995,0.601914543,0.9958146754,0.856687231,0.9440855734,-0.1487283451,0.2496424628,0.0149422307,0.8503922382,0.7445773807,0.0763170477,0.9605976693,0.1039680464,-0.247212465,0.8596221241,-0.3069101808,-0.2589820685,0.3529117657,0.8234516564,-0.7345459997,-0.7054065375,0.0283054403,-0.3964297381,-0.6020440184,0.218881916,-0.216052775,-0.3626866002,0.5615852673,-0.6321804525,-0.8491527028,-0.6615637347,-0.2773771204,0.4873255227,-0.3540439728,-0.5553031938,-0.3057746819,-0.4597616338,-0.5363845819,0.8321005957,-0.0394447653,-0.268855454,0.186592826,0.0175243155,0.9606314628,-0.8038606598,-0.6747057879,-0.7651639838,0.8582826213,-0.9955592118,0.0559664708,0.3846089164,0.3587522345,0.5257054675,0.7902805859,-0.5197666261,0.3814002637,-0.5301503566,0.8833857289,-0.1046068587,0.6315118253,0.1701142217,0.7562828129,0.2582327683,-0.3284573757,0.9135638019,-0.650917197,-0.83503858,-0.1736977156,-0.9150737732,0.5272732365,0.1123104306,-0.5321457133,-0.2201935833,0.787396172,0.7080932765,-0.1113220677,-0.9597304096,-0.2558576104,-0.5836450278,-0.1638967441,-0.5738724304,-0.8567567923,0.5167032628,-0.5763371289,0.4040061139,0.355388016,0.4460321202,0.249688124,0.954741735,0.3370965245,-0.4680010728,-0.5916233717,0.0891947858,-0.78520744,0.4410148961,0.4102883237,0.8078071826,-0.9937800661,0.0516589421,-0.5451984647,-0.4133700534,-0.3759970927,-0.1238385814,0.9305832083,-0.0676287139,-0.866230001,-0.5012734602,0.041203897,0.5504469293,0.8620253541,-0.7494573205,-0.1949275363,0.6850695405,0.2318095817,0.4919091982,0.8611927671,-0.6330417179,-0.2560132179,0.5496476195,-0.0588262431,0.5167689096,-0.4112992155,-0.687403196,-0.0162831999,-0.913261731,0.9258691961,-0.62393845,-0.7281503199,0.5553829426,0.8995730368,-0.3678680829,-0.4230707891,0.1032247898,0.432445058,-0.0841472159,-0.9694109808,0.4069874236,-0.2218027204,-0.8381900654,0.5089871137,-0.590542649,0.7638196092,-0.298670776,-0.0762591709,0.0911792414,-0.1711574661,-0.1735338849,0.4787394629,-0.4210202406,-0.1167280364,-0.7373950628,-0.0160419985,0.483150329,-0.6145470498,0.9168630535,0.4352866744,-0.3838855641,-0.3373744903,-0.83878554,0.0944714961,0.288432391,0.9148886725,-0.2081209073,-0.5662417478,-0.7816281456,-0.3665097728,-0.3105669782,-0.9673429731,-0.5038189691,-0.0062836558,0.1246605604,0.2846492842,-0.518719842,0.0098588145,0.3644138942,0.9746015674,-0.4298424255,0.9553712607,-0.8692047844,0.5755460685,-0.311844141,0.9711077768,0.8047559757,-0.7969079403,-0.2853709038,-0.0755725735,0.7288257112,0.8756401182,0.5692430195,-0.3975507672,-0.469244777,0.0801636788,-0.6802849793,-0.2361946531,-0.2713779765,-0.0923309036,0.8131602045,0.5943286913,-0.1162606196,0.9678172546,-0.2602751222,0.5539239126,0.7654885872,0.9446021373,-0.8705567397,-0.3996105649,0.1211328219,0.4209515703,0.1577783707,0.9795417578,0.7155138519,-0.101486726,-0.11530136,-0.4710137366,-0.7547040572,-0.4008389077,-0.0890119758,-0.6010739961,0.0219314559,-0.7766089184,-0.7413272529,-0.329090842,-0.3569000795,0.7564296731,0.8297681659,-0.6742970258,-0.4639377534,-0.7175266722,-0.9365182463,0.2082389902,0.953439214,0.5744901254,-0.0912078527,0.7502993432,-0.9224817813,-0.3829321782,0.4354935144,-0.4855982376,0.5474334837,0.2937597452,-0.2126388312,0.785391793,-0.4201241714,0.5274850492,0.3290771709,-0.9259882247,-0.1121324129,-0.6287347417,0.7931052658,0.777998717,0.392754777,0.51035684,-0.544116154,0.1744550759,0.2310877209,-0.9295602533,-0.9068826159,0.395822306,-0.8630581108,0.0122491973,-0.2334310626,-0.228040491,0.2425962424,0.3883311003,0.1876344466,0.4016858329,0.0730432139,-0.7280667068,0.3937988234,0.4403270985,0.6469048706,0.7497611189,0.68927081,-0.6778462008,-0.4901084544
   0.5148323538,-0.7402511997,-0.5740319328,0.4308514887,-0.5355496025,0.012815125,-0.4932583154,0.6023565644,-0.504340772,0.0804223577,-0.8070773764,0.4162876334,-0.3365350181,-0.6541397917,-0.4385792157,0.5651014101,-0.5391841121,0.4578044748,0.094196757,-0.8398501341,0.1888230587,-0.1728718082,0.3542190314,0.4059226137,0.2058154475,0.2209525777,-0.6670228746,-0.2709649279,0.7429766083,-0.2972645416,0.4045096149,0.0436556077,0.2093365357,-0.4076589922,0.9673050986,-0.4232059379,-0.7960650102,-0.2271354906,-0.7439027885,0.3164014877,0.3729241845,-0.6680864743,0.0263809029,-0.2780910699,-0.1188149251,-0.4155377872,0.1252523899,0.7857852085,0.6495960521,-0.4070562073,-0.6152422213,-0.1912087666,0.4946323381,-0.0790878868,0.6690404963,0.3607926378,0.7103051233,0.9067290319,-0.5392581994,0.7637685705,-0.3054739654,0.6245221918,-0.5687752624,0.5317409296,-0.7814495566,0.5301802151,-0.6284822423,-0.7222606669,-0.7075527538,0.0522854433,-0.8469347689,-0.6017093533,0.3373786285,-0.2482272323,-0.6022062535,-0.3894461631,-0.0852622209,-0.3964199759,0.183869234,0.7837638987,0.4684620707,0.479811994,-0.8872069863,0.0713078374,-0.1200391957,0.3593427322,0.8670627441,-0.3523265623,0.4275426639,-0.170132582,0.5086920255,0.1018581414,-0.0059116995,-0.3252267844,-0.6661924928,-0.1738312776,0.3365686809,0.8596054794,0.6558602687,-0.0309667354,-0.8682977168,0.1318305736,-0.6238897722,-0.7780239732,-0.7315359242,-0.5584263764,-0.1539289248,-0.8596681052,-0.7438388177,-0.0122111822,0.1238273704,0.6339499305,0.8399677591,0.1418604746,-0.5506440344,0.6218825262,0.5804447476,-0.8065746828,0.43349726,-0.5492010509,0.859849792,-0.5015188222,-0.0284041343,-0.2519791779,-0.4262994842,0.119539785,-0.3281080728,0.9980408916,-0.9896503954,0.9102245387,0.6435955532,-0.0868061348,0.120654768,0.6630189935,0.90397251,-0.7791972658,-0.502526717,0.3907203909,0.3603697469,-0.9666716184,-0.944440011,0.6882726718,-0.3938276685,-0.3829310559,0.6676969742,-0.7832256634,-0.6878553193,0.1087040051,0.8109064866,-0.8570897656,0.7832089911,0.2963436433,-0.5357416724,-0.9155181903,0.8560759064,-0.0782248295,-0.0815521428,0.2341214007,-0.4911493691,-0.2665585843,-0.3743249076,0.2369603669,-0.1490181146,0.9598372475,0.9546813063,0.8107647432,-0.2537973311,-0.4751826061,-0.7679039885,0.226261747,-0.9846520935,-0.9929686019,0.7925948871,0.5282791282,0.4156292219,0.0500975027,-0.6598168136,0.8175944989,-0.6239614391,-0.2636623655,0.5290263826,0.6257099853,-0.8216979544,-0.2098915541,-0.1319392032,-0.8632746369,-0.6607110381,0.4677297081,-0.2397695803,0.6083754313,0.1245793051,0.0787088407,-0.3569666006,-0.8732183821,-0.3254858343,-0.3958766267,0.5379145786,-0.5942001993,-0.5882607171,0.4837918192,-0.974017562,-0.0305100274,-0.9146916948,0.214878102,0.5546365129,-0.0061085111,-0.760010224,-0.2096051716,-0.440110774,-0.7119736971,-0.2196936618,-0.5381363823,-0.4711270186,0.6464751447,0.4467829524,-0.0371435704,-0.8147032365,0.8706178538,0.4881487015,0.2020912793,-0.153154672,0.7318851089,-0.7086506486,-0.3267341043,0.284183266,-0.5357516116,0.3489140038,-0.8819984995,0.2085175423,-0.1005600515,-0.2331531748,0.8040001645,-0.5061124146
##end
biasActivation=0,1,1,1
[BASIC:ACTIVATION]
"org.encog.engine.network.activation.ActivationSoftMax"
"org.encog.engine.network.activation.ActivationReLU",0,0
"org.encog.engine.network.activation.ActivationReLU",0,0
"org.encog.engine.network.activation.ActivationLinear"
