encog,BasicNetwork,java,3.4.0,1,1532882127905
[BASIC]
[BASIC:PARAMS]
[BASIC:NETWORK]
beginTraining=0
connectionLimit=0
contextTargetOffset=0,0,0,0
contextTargetSize=0,0,0,0
endTraining=3
hasContext=f
inputCount=16
layerCounts=4,26,101,17
layerFeedCounts=4,25,100,16
layerContextCount=0,0,0,0
layerIndex=0,4,30,131
output=1,0,0,0,33.5047633041,7.6444498698,0.6744524064,0,0,1.4772147596,3.0468724323,0,40.0133662622,0,56.8251641332,0,33.415717295,15.477898272,0,0,0,0,41.5557705113,0,0,0,22.6350000189,0,0,1,0,7.8483594669,5.9485959687,0,6.4373430181,1.2526674171,0,5.2542230016,0,0,5.8273761133,0.0377080841,1.4255754437,0,0,12.1003917423,0,0.0533734104,0,20.6797268301,0,0,1.655035821,0,0,0.03441072,0,2.3016291806,0,4.1204807479,0,0,0,1.0166391212,0.0349808535,0,0,11.2223621069,0,11.1097981326,14.2310377455,0,0,16.8112021519,4.2407635405,0,9.0794297946,6.1821801452,10.3663471567,9.344759304,4.0544678521,15.9353090626,2.8731182343,3.2694685507,6.495357093,0,0,0,3.2150470656,0,0,2.454773897,0,0.5057941995,0,0,0,0,0,0,0,0,0,0,13.7441203618,0,4.9928267894,3.6265210368,0,0,1.2688224554,0.332042756,0,16.7736054003,0,0,8.08118698,0,0,4.7686980381,0,5.6923537043,21.2545789144,0,0,5.2970789695,0,0,15.3494816976,0.4700746764,1,2,8,4,2,4,2,8,4,4,0,0,0,0,0,0,0,1
outputCount=4
weightIndex=0,104,2629,4329
weights=##0
##double#4329
   0.0194810159,0.3674367672,-0.9949339352,-0.6568795353,-0.3223261632,0.6562332922,-0.4477550658,0.3916666013,-0.8941532095,-0.8958763438,0.728006947,-0.5033152362,-0.004934651,-0.4704060418,-0.3696262926,0.0606299558,-0.9451219239,0.7200513087,0.0075814746,0.4134804051,0.7345036865,-0.749931068,-0.0565665644,0.7934975524,0.2621903311,0.0267365462,0.63466794,0.502142096,-0.4471365656,0.5783700739,0.5280465707,-0.7556133864,-0.8252318514,-0.799997223,-0.029877601,-0.8473849824,-0.9758536362,-0.0332377685,0.1174445922,-0.785457673,0.6773503626,-0.0690154703,-0.3177716439,-0.6269544764,0.0821483878,0.6867604468,-0.9222039157,0.0378483362,-0.3361869432,-0.6399805486,-0.4761232852,-0.8227825413,-0.216991764,-0.3601452074,0.3060736608,-0.5422602388,0.2565942405,-0.035357655,0.3697842858,0.3627243805,-0.7630827211,0.6794475984,0.0043905545,0.2424155927,-0.8289645669,0.4068365821,0.435492489,-0.0593633258,0.5393795112,-0.8085368498,-0.1887155002,-0.0728516344,0.7398860996,0.638423824,0.4406923812,0.7983539865,0.7327537169,-0.6090820135,-0.2670945665,0.2900893307,-0.8279585316,0.4963316323,0.5754566758,0.2543513542,0.0314045905,-0.5268677042,-0.8133795019,-0.270032122,-0.2728102124,-0.4369977179,0.6773870358,0.909141252,0.0764355288,-0.4121129134,-0.168026889,-0.3012656603,-0.7826935984,-0.8704034036,0.0716628736,0.4483856102,0.7811090883,-0.315061073,0.2921941188,-0.7527623927,-0.7030699289,-0.0416429245,0.934137795,-0.5758108934,-0.9253154992,0.9855731118,-0.297963663,0.5040567567,-0.5989569159,-0.2991119625,-0.7436081122,0.96410461,-0.8901530151,0.4213285255,-0.8575551925,0.5428990669,-0.5276233694,-0.708486396,0.7627306202,-0.3310748137,0.7031025286,-0.2183722148,0.4218836325,-0.4617278941,0.749633774,0.4016917773,-0.5641377336,0.1484320373,-0.5900933403,0.0708158969,-0.3125773229,-0.3838704741,-0.8190275477,-0.7808595705,0.1145444652,-0.1364707147,0.2289001956,0.5704609116,0.2415390457,0.7096164388,0.0751000773,0.3042170692,-0.6967321671,0.9829163342,-0.4922736904,0.5885317824,-0.4873037262,-0.0499992974,0.2703077353,0.6470547237,0.9806611817,0.2224538161,-0.8610158585,0.6192515577,0.5906402041,-0.1799630004,-0.8824615577,-0.2852860775,0.3907951009,-0.2282812476,-0.0807382794,0.6788805375,0.0735269143,0.1221961559,0.2678993635,-0.2549152784,0.1308855987,-0.2090922652,0.6300476147,0.1689276719,0.9067033451,-0.2954972753,0.3443857277,-0.7246100905,-0.5684748209,-0.9365938183,0.2536250644,-0.2032643463,-0.6208371475,-0.6985124555,-0.7440429217,0.3747105275,0.6119200809,0.8086430565,-0.7212891206,0.4881748906,-0.6364491851,0.2428268821,-0.7555737451,0.1919713141,0.2386554982,-0.3694188121,-0.8755284566,0.0721632776,-0.0845114603,-0.9153270639,0.9426382137,-0.8287990644,0.8380936105,0.0971737067,-0.7070789319,-0.4206172978,-0.5176095603,-0.0336937123,-0.9208192544,0.4203769781,0.9124524264,0.2664163189,-0.9353081211,-0.3593131979,-0.9470852183,-0.4350388098,-0.81984383,0.5528124941,-0.3617356192,0.7694213246,-0.2962796887,0.4065367254,-0.5409195028,-0.8037544081,0.7884238828,0.301833241,0.6408966611,-0.7713743392,-0.0441161261,0.9962876214,-0.8783985574,-0.6007802137,0.8935820965,0.3419128041,0.1870051483,0.2369363828,-0.7802849081,-0.3016300385,0.6758290577,-0.238513891,-0.9946127442,0.6473244486,-0.6255439362,-0.3067621418,0.8829788179,-0.8536326036,-0.093616529,0.7051026894,0.2032922764,-0.2309729622,-0.8609319468,0.5264272097,-0.1861286827,0.8770621038,-0.2206328669,-0.1273453545,-0.8857408436,-0.5331525044,0.1510747979,0.3141855395,-0.2221545485,0.1363137191,0.8744079588,0.7887832591,-0.1101608834,0.7844102452,0.7767864752,-0.1939317716,-0.7688794341,0.0717051038,0.0803011393,-0.8661328292,0.1907108863,0.7516902728,-0.1681355995,0.5860636438,0.2611747352,-0.7101398271,-0.4663537786,-0.1219438147,-0.3136051118,-0.8377312679,0.8338705708,-0.4815886387,0.0654942798,-0.366836898,0.4274319973,-0.4770567165,0.0194893668,0.4249321717,-0.218622548,0.1547258021,-0.1292813874,-0.9626408677,0.7892813875,-0.4010025671,0.2946442968,0.5329563081,-0.3713804051,-0.9715396355,0.2947710876,0.525087568,0.4790507102,-0.7796324882,0.5213945407,0.6686899156,-0.0759448034,0.2669548822,0.9518887998,0.0528289197,-0.1490719254,0.5552397856,0.7990670715,-0.3506942509,-0.4220139999,0.9905012766,0.234115738,0.8414751141,-0.1198977993,-0.2114546955,-0.5802534611,0.4137336988,0.109244588,0.762281595,-0.1211211898,0.503366107,0.6463499408,0.0413879474,-0.7307512725,0.2418686773,0.0048080631,0.5410401567,0.9907517731,0.7987188808,-0.4934036133,0.8937300909,0.9963493109,0.4429616627,-0.455350914,-0.7205598268,-0.0360941673,-0.6878603311,-0.9435546763,-0.4540332252,-0.4776614293,0.0446978672,-0.792175947,-0.9935153636,-0.4667114574,0.2123386135,0.2785179038,0.388823325,-0.8209407862,-0.2149270203,0.3835769117,-0.2106288967,-0.4515249726,-0.627659218,-0.7351731341,-0.9265763048,0.0479669957,-0.1445317947,-0.3801424394,0.0344138126,0.2857222348,-0.0933613747,-0.7959273229,0.3667154852,-0.9344611685,-0.5747394476,0.0828384325,0.2735876737,0.7466791391,-0.4827865166,0.7886037204,0.3865418766,0.5617151159,-0.5871341672,-0.851446032,0.6022906812,0.7594619803,-0.2449652805,-0.5374587055,0.4821373694,-0.0094675,0.5573204013,-0.7472106672,0.6913775476,-0.8351743582,-0.4681717299,-0.153588247,-0.1113652425,-0.3170357472,-0.0115450156,-0.4527360271,-0.2090020049,0.6463681829,-0.2640797076,0.2762592859,-0.7119877816,0.8447444025,0.4993614767,0.0256191136,0.4272693747,0.2439153845,-0.2490207242,-0.2375529864,-0.2541481424,-0.14914844,-0.824924529,0.6750397276,0.849137981,-0.5439589419,-0.5180304721,-0.4188534813,0.3638460759,0.1776055934,-0.8066337623,0.2078182302,0.4878633161,0.5884919422,0.9169010122,0.0723897703,-0.0408790022,0.7590368507,0.9218949962,0.4753827014,0.6609723244,0.09006977,0.5328717192,0.9924267028,0.7330788584,0.6988044683,0.8249353485,-0.5556146376,-0.8184131768,-0.6184727377,-0.9534902825,-0.9215322363,-0.7821470103,-0.3463554911,-0.7954478316,-0.7805989148,-0.5146990409,-0.2121993019,-0.991009379,0.7449036964,0.2675091144,0.7401346342,-0.2197129962,-0.4132229049,0.434572469,0.4731926709,0.5006966952,-0.1007821589,0.4131682933,0.7710592604,0.1718771324,-0.6964907835,0.3891165642,-0.1436849781,-0.4467949523,-0.2962256939,-0.9143817833,-0.1512919669,0.5976732523,0.2293457471,0.489137158,-0.0204656961,-0.6071930047,0.6266105779,0.6621728806,-0.3181272042,-0.8929331794,0.5756099914,0.1581115112,0.6407754694,-0.5552072917,-0.6013730156,-0.7402722428,0.8920366076,0.7924934746,0.0930375136,-0.6365335431,0.4260433506,0.8594656668,-0.5452253246,-0.1491885072,-0.799125865,0.0220783303,-0.9810768407,-0.9752452249,0.9862891352,0.1522686663,-0.5014470218,0.5967081479,-0.1240846313,0.8297946398,0.0114945794,0.1291014033,-0.6403403306,-0.8518936071,0.1821132835,0.9332304657,-0.6440002943,-0.391360292,-0.0336423668,-0.4551042634,-0.3285306873,-0.6165722451,0.7573960196,0.0533342072,-0.4295155223,0.4748320434,0.0643775813,0.7602359445,-0.8814713021,0.9386669323,-0.5138884429,0.5394151647,0.2777382654,0.8432849416,-0.7980770869,0.0746153396,-0.0117605683,0.7931232575,-0.8442632821,-0.6107602844,0.9917805771,0.9823922956,0.5984039332,0.7984842942,0.5165551845,0.10785188,0.1566987922,0.0339488543,0.5720340914,-0.408193906,-0.8569367079,0.5534340458,-0.0053394491,0.0205243082,0.9130647501,-0.2829640631,-0.7870948318,-0.4064278685,0.5808110931,0.6847731448,0.2639983422,-0.8397928472,0.9398156055,0.9026044265,-0.5918471615,-0.2625895795,-0.8792789577,-0.6901015324,0.0216710691,-0.6132190264,0.5559477541,-0.2387185481,-0.8411728226,-0.909471415,-0.2069996575,-0.8166166566,-0.3387138587,0.7471174737,-0.4968816028,-0.9026127361,-0.8822722908,0.4438124997,-0.0320944662,0.4543905069,-0.6679562505,0.2790722847,-0.4478769446,-0.1662307675,-0.1847451974,-0.5402460697,-0.3677188364,0.733708576,-0.4956455542,0.057845452,-0.6832655122,0.5043016005,0.1110746517,-0.3881842499,0.188151943,-0.2880317094,0.4050176529,0.6830961462,-0.7787546727,-0.0332890771,-0.8427564193,-0.8511822061,0.5316330621,-0.0545441636,0.1661439142,0.5944723538,-0.5280645319,0.3474096489,-0.8675646622,0.9303952763,-0.0243665997,-0.7847425679,0.0486600884,0.4962302226,0.8345801475,-0.3444904123,0.1869765755,-0.8740816791,-0.6836982037,0.3663648369,0.370179002,0.3925731362,-0.5312991835,0.1451370425,-0.5509045756,-0.6574151494,0.413260466,-0.7148236225,-0.8776135891,-0.318991921,0.0034078809,0.5285539604,-0.6697927375,0.4458816067,0.1456946001,0.9977652109,-0.6914811682,-0.5937482259,-0.3694435752,-0.0976851942,-0.497887411,-0.3218988997,-0.7659947467,-0.394921894,0.7600683166,0.5366897381,-0.7573536847,-0.9200070522,-0.0878379602,0.7768861653,0.3827977867,0.6353146676,-0.1543647644,-0.9098086917,0.334677052,0.3564047994,-0.5149996629,-0.0416492946,0.2829194998,-0.2607053882,0.9156969015,0.0862904514,0.4033665996,-0.4511107033,0.8185827859,-0.7185765747,-0.7915980353,0.7667641016,0.0872203765,-0.2136301944,0.8726529112,0.8919506079,0.4633174653,-0.2407219912,0.3141922073,-0.9623826985,-0.1555887565,-0.3575441461,0.4668030277,0.8552024065,-0.2824521811,0.9701005493,-0.1963931508,0.9119334206,-0.1087923038,0.9489551779,-0.711596396,0.5159789057,-0.1977523424,0.1713638341,0.3651661479,0.9894308214,0.0556839564,0.2236686028,0.9298832258,0.1262352126,-0.0951337067,-0.2818500949,-0.97140678,-0.4494157392,0.9729502969,0.5135598257,-0.8510522002,0.0401688741,-0.8998689397,0.6305524073,0.9158669214,-0.4619331127,-0.7887713394,-0.4260712461,0.3366159735,0.6624813002,-0.7068353581,-0.1536462972,-0.6164091388,0.2141034872,-0.7207337583,0.0570216674,-0.5571924288,0.3606414645,-0.2701105522,-0.8999127617,-0.9368705072,0.6171813971,0.0562077801,-0.3781577935,0.2675538533,-0.0050268356,0.4013463528,0.227159942,0.4355813864,0.6082624618,0.4533346006,0.2475978453,0.2664739903,-0.2142664186,0.4186328149,-0.9243212431,-0.3497378221,-0.4507839434,-0.539802143,0.8794726895,-0.4756171132,-0.6227934877,0.2779135301,0.1277710478,-0.9996168922,0.1972768386,-0.0424274008,0.9562441427,-0.2994074053,0.6051590034,-0.7032114823,0.4587960387,-0.6435046671,-0.2647169681,-0.5185658752,-0.1122380207,-0.5376973026,0.0455207737,0.3654303738,-0.2663013128,0.6348148333,-0.806277619,0.0576510481,-0.8051343563,0.5971121688,-0.1843164376,0.5489216261,-0.7244813282,-0.3346301994,-0.1172849951,-0.2292022066,-0.8189106938,0.1061835486,-0.2817139253,0.8279450084,-0.3186171714,-0.9741928765,0.2036343172,-0.7582420406,0.8175286042,-0.2446395073,0.9569096099,0.4595394684,-0.2761147207,-0.5485007944,0.6775837897,0.3558501811,0.0579812092,-0.1018138425,-0.7471834789,0.297229087,0.0566415294,-0.8355996753,0.4811974049,-0.3564822281,0.6546311456,0.8622620995,-0.9828862044,0.8269494794,-0.3912808895,-0.4066364331,0.8506206875,0.4519785963,0.6706310468,0.0228777962,0.7547192942,-0.5263106492,0.805351321,0.8705295668,-0.7486161502,0.7533787732,0.471146308,-0.8015751367,-0.1995113747,0.9407120902,-0.4489800668,0.7401785758,0.489108514,0.6379755392,0.2069814905,0.4376148724,0.0826419035,-0.7209170439,0.4392684522,-0.9747177544,0.2798489029,0.9782250489,-0.8216779318,-0.3475674126,-0.2165955592,0.4172341768,-0.2008974605,-0.9460328228,-0.8943975551,0.3439593196,0.684012617,-0.5147141301,-0.8062255387,-0.0183163904,-0.1536305147,0.5507337578,0.5689301885,-0.9116021761,-0.7453206994,0.0212129524,-0.4906295411,0.2275670765,-0.3156803761,-0.9212927272,-0.3677543076,-0.7906390334,0.7195883143,0.1976344625,-0.5108117849,-0.8769140772,0.5898437429,0.3606145883,0.4050417765,-0.254714821,0.6890220821,-0.8879749678,-0.9036812795,-0.0972871556,-0.7059446702,-0.613756908,-0.414967557,0.893139899,-0.756437393,0.107074291,-0.6979248929,0.7275777328,0.0223116752,0.3283989977,0.7546908703,-0.2034386641,-0.8510290839,0.5025241817,-0.4456255361,-0.8196705672,0.8458309639,-0.1288142738,-0.3265133105,-0.665849251,0.1976340891,0.6177669178,0.1384581365,0.6401090233,-0.5136045318,-0.956443147,-0.3000417246,0.0555053057,-0.7415827922,-0.5182058171,-0.4030363226,0.7297902695,0.673263828,-0.5155870355,0.4650360489,-0.9832725321,0.9338193491,0.6958046273,0.3656421542,0.9082192509,-0.8726144066,0.1573947773,-0.5265153583,-0.198261409,0.3380252491,-0.9595943578,-0.0553502551,-0.4726287879,-0.9132169365,-0.1903149448,-0.4709259857,0.8867147697,0.5226374808,-0.8468153441,-0.5758748916,-0.4294453882,-0.1830286746,0.4331402597,0.3394221993,-0.0439775758,0.5041816082,0.2994582167,0.0727363848,-0.1871471363,-0.7557978164,0.5320303162,-0.4855703605,-0.3499397131,-0.0335111828,0.6206147447,0.1220393344,0.2835030653,0.3233583271,0.6462331918,0.8889963831,-0.8623924939,0.0880745963,0.0376434926,0.9811186783,0.8480316237,0.1591518565,-0.0629597386,-0.7670011502,-0.4854029235,0.4474174313,0.5194550119,-0.3530808104,-0.2772266588,0.2488323364,0.372002848,0.2975494009,-0.5965312642,0.5468145714,0.8857887615,-0.202545369,-0.4775202065,-0.7166780933,0.3291219473,-0.0271833834,-0.0298425515,0.6950939616,-0.7255718904,0.7121122956,-0.8247414343,0.9472846782,-0.472894814,0.0919151064,-0.7933567338,0.891477732,0.1917191914,0.7552792276,0.8105696914,-0.433499253,0.1304152808,-0.476095319,0.8125138187,0.7604855742,0.4033983834,0.9927132052,0.7212788338,-0.1577701194,0.7844208853,-0.0137875722,0.6571167124,-0.8339304822,-0.1099157718,-0.9085014172,-0.2039853883,-0.2045671335,-0.5653830461,0.7028947064,0.8958412746,-0.7795297982,-0.365355711,0.2776704468,-0.2622518389,-0.2175083075,-0.6632024868,0.9808669395,0.0556214798,0.1305125445,-0.3895566164,-0.3480446878,-0.3097577277,0.378479222,0.5820029224,-0.4032612522,0.2541800195,0.3497895684,-0.5973116717,0.0624449892,0.4760617714,-0.0749392257,0.2354862604,0.3756970645,0.6202457673,0.1972677372,0.8689150248,-0.6284048817,0.6443533157,-0.6562730015,0.5311033839,-0.5819070953,-0.3109066104,0.4569487626,0.0563308265,-0.157855009,-0.8680483364,0.7122639864,-0.6054686969,0.2731345291,-0.0254312313,0.1635939989,0.4730387383,0.8606922117,0.1131889863,0.7530758205,0.6942522401,-0.7144300386,-0.0315050208,0.0577681712,0.1269930106,0.9456260898,-0.2207322948,-0.9592463379,0.2917242003,-0.5549297495,-0.2747030129,0.2729616395,0.0495674643,0.4999318524,-0.8889323119,-0.1653017701,0.7897229025,0.2613265954,0.0136851588,0.0467473481,-0.6119475808,-0.5550240126,0.9102958984,-0.5531168666,0.6742149773,0.3490899722,-0.353803443,0.0899773135,-0.811919462,-0.3828758583,-0.3758706402,-0.6835791798,-0.4816808634,-0.653096743,0.1729310799,-0.2663568437,-0.930420533,0.4462984382,0.4281288419,0.9052325306,0.1494073787,-0.3670966434,-0.502284626,-0.9449009343,-0.045964413,0.8635932757,0.5681602976,-0.0545552245,-0.1098017667,0.0123491604,-0.2392040297,0.6398858968,-0.2418913251,0.2363790474,-0.0072147995,0.5765958671,0.4820501867,0.8018823521,-0.8311331438,-0.8671647446,0.4115040268,-0.0484461521,-0.1402348996,-0.6816302508,0.5710080677,0.2309127856,-0.6624172529,0.6772746599,-0.0735467506,0.5964434261,0.6194718027,-0.9796981105,0.7143276079,0.2779615124,-0.3051593719,-0.3625703223,-0.0760672239,0.0698608293,0.3670824852,-0.6690377671,-0.8464015525,0.7465313549,0.4339986448,0.5313235127,0.5572539089,-0.0129300393,0.3858590064,0.0902326068,0.8961385604,0.1443418223,0.2102262534,-0.1351726292,-0.6049952346,0.973065959,0.4557265532,0.4293526044,-0.6179626327,-0.5078868377,-0.4662835787,-0.616561454,-0.0252063406,0.0720067912,0.2812455747,0.1034459662,-0.3045545306,-0.293086649,-0.901101009,-0.7228325979,-0.6895264112,0.6932724002,0.7239291801,0.117623356,0.1187751062,-0.9503389426,-0.2761314115,0.3390671274,-0.5316507845,-0.5506049968,-0.405937394,0.7464047914,0.846208905,-0.4505188718,0.0592360257,0.234996564,-0.8771420418,-0.830840669,-0.9592447332,0.4634066914,0.3625939399,0.2420646901,-0.4290658378,0.8298649893,-0.1296710637,-0.7924858598,0.3120536917,0.4659227402,0.7708341893,-0.0171546087,-0.5174427591,0.826461041,0.8250273184,0.7871732593,0.5940012442,0.7387393761,-0.576800891,-0.7366033177,-0.5604628574,0.8219057717,0.960981983,0.9538420649,-0.2181931557,-0.4888348337,0.2189592118,-0.4521483576,0.6942421433,-0.303567026,-0.6760303811,-0.5888996457,0.3563892979,-0.8187699013,0.7540771223,0.265947934,0.5873753162,0.0284409724,-0.9156131536,-0.3262990812,0.3429956387,0.316597338,-0.3187827936,0.5759127873,-0.704113212,0.5187995652,0.1365580464,0.1346693371,0.0824793303,0.3079945614,0.4728507577,0.1313881257,0.3720145293,0.1224759485,0.8122476472,0.4867057511,0.0932939154,-0.1824889029,0.3813023691,-0.3649451536,-0.627834334,-0.3313274771,-0.7610651302,-0.0589527753,-0.7738088519,-0.1003135314,0.4956425557,-0.9825690797,-0.4043553369,-0.2334227404,0.8951046458,-0.4800712194,-0.2045616641,0.5322237429,-0.5436676617,-0.7717036047,-0.8864681033,0.7849517372,-0.810073122,0.2614816129,-0.7489084077,-0.5040649983,-0.6760350522,-0.6893936653,-0.0894968694,-0.8586205542,0.6099513985,0.0553203264,0.001149426,0.8956130148,-0.0486847262,0.9306947281,0.2555556981,0.3925257133,0.3257732719,-0.6576180896,-0.880192371,-0.0190137674,0.0227387765,-0.8343585333,-0.3440733707,0.3879398513,0.7730088626,-0.5199622004,0.1188657239,0.2554877434,-0.6329856536,0.9878133969,0.5799011052,0.602767108,-0.6902584941,0.240128409,-0.4592358382,0.0517404427,0.524866097,-0.5368723345,0.7413040033,0.2110036318,0.5393969743,-0.4829838222,-0.4367558817,-0.5896377168,-0.7224720379,-0.941759882,0.494988963,-0.8968869479,0.8405100673,-0.9541506495,0.9824535833,-0.5700695292,-0.3772616756,0.4687060039,0.0336562932,0.2990664683,-0.8138045774,0.142932735,-0.4686394155,0.1594134374,-0.4025195319,0.4086844956,0.1329646958,0.9368330577,-0.8256135395,0.0547814219,0.878878969,-0.4956362001,-0.7057372367,0.8473859165,0.4941750363,-0.1110397582,-0.2892087901,-0.4280979638,0.1928217611,-0.4442973824,0.4073449056,-0.5636166341,0.1563521909,0.698978887,0.6813779034,-0.5121441752,-0.1857834967,0.0212666405,-0.4658436226,0.7342309329,0.1279455242,-0.9071609905,-0.9184160344,-0.8182476019,0.0446889643,-0.9482139623,-0.8036342743,-0.7900887361,-0.4752630354,0.8290593554,0.6217750282,0.4532325597,0.6909857119,-0.2709025583,0.0245026009,-0.7664329089,0.1508848786,0.190297305,0.9738460921,0.2441337357,0.580725299,0.7968022787,0.4064028617,-0.7222782658,-0.1802704833,-0.9586353476,-0.9174935348,-0.6586692345,0.5421924242,0.5891154514,-0.4575384504,0.1549049836,0.3213805662,-0.7867347458,-0.6960621547,0.8062234104,-0.0682365827,-0.8815476805,-0.3434159929,-0.5557289307,-0.4716549479,-0.2228176918,-0.5326660665,0.1536488742,-0.9522100504,0.7149659089,0.9667742214,-0.2986309164,-0.2900535141,-0.923020503,-0.9236663148,0.382687464,0.978920893,0.921506072,0.7372964239,-0.5788345231,0.8082128494,-0.2287637538,-0.9243119145,0.6291777978,0.1915963135,0.1207682289,0.4395606637,-0.8461327187,-0.0882322816,-0.578345437,0.9368624594,-0.8904840807,0.6963833875,-0.1878691562,0.1530584311,-0.8018096254,0.8377432892,0.3687099297,0.2060301082,0.9684947041,0.1647553757,0.7148744895,-0.9504570029,-0.7382541567,0.2786831425,-0.7501683936,-0.7139694881,-0.2076510902,-0.2770283403,-0.0731147402,0.5387573768,0.0325770391,0.670805999,-0.1354525367,-0.5637863128,-0.9382823454,0.0986424979,0.4300063009,-0.0347021294,-0.0021677071,-0.928628671,0.5723500692,0.9864835835,-0.433221972,0.4530279268,0.000319926,0.1416778629,0.000215804,0.9463146187,0.6585818055,0.1614567658,-0.2786522237,-0.8665291727,0.3878556707,0.7868649285,0.1989154051,-0.5769525763,-0.2126375543,0.9542501752,-0.3259792924,-0.9454425141,0.2655318794,-0.0474449704,0.2148625341,0.6921976037,-0.83374903,-0.1635728716,-0.6004255453,-0.0403467155,-0.8572550775,-0.2196618571,0.2428025468,0.5771435454,0.534370922,-0.4248295161,0.8779382186,-0.2590337488,0.4321179007,-0.6851027792,-0.2473571303,0.3283605311,0.4393485945,-0.5106546071,0.7208666062,0.4229795082,-0.6144328652,0.6194703712,0.4228159848,-0.4546851827,0.3233563168,0.8113636455,-0.9557363369,0.1298114151,0.2486177021,-0.3630986161,0.9862034115,-0.859078077,-0.5995994697,0.6400741158,-0.5198498962,0.7588814951,-0.1390669134,0.7051325746,0.4733257345,-0.2123371224,0.7228539199,-0.3726110334,-0.1852963892,0.0632177425,0.5908601577,0.9066488185,-0.3544651892,-0.8510981732,-0.1799700167,-0.6766291349,0.4193548801,-0.6815215171,0.9172175275,0.0281626783,0.4949392713,0.2107111564,-0.9971625723,-0.1324776874,0.59115282,0.1079826363,0.5820595715,-0.1241073714,0.4563232135,0.8609589937,0.9760069053,-0.0328048605,0.1529248517,-0.3153471004,-0.0106273057,-0.2436590261,-0.4366872395,0.6596552251,0.012070537,0.7205296684,-0.7324126562,0.492544171,-0.210710701,-0.3392664864,0.5616594434,-0.1960919036,0.357388216,0.4336482261,-0.1305933628,-0.6292082689,0.8000251558,-0.942768759,0.2189507576,0.69397493,-0.4385220652,-0.21503142,0.3938176109,-0.8109378578,-0.548016316,0.8264011846,-0.0035217432,-0.732208878,-0.0991976236,-0.2326238594,0.8681281442,-0.542538689,-0.5186448759,0.9564667014,0.0767393057,0.2126802789,0.2483005416,-0.5479543683,0.348216097,-0.7429167287,-0.061730219,0.0768290569,0.3550154512,0.8401884178,-0.2961022734,0.8020762421,-0.6763805647,0.3610397171,0.7310540678,-0.4423883626,0.4637209609,0.5539512987,0.6252311491,-0.5020240794,-0.2309211791,-0.8238083999,-0.5284195622,-0.2547117341,0.4661653091,-0.1965645616,0.0303488347,-0.7065454329,0.1572081041,0.0505136595,0.7335414664,0.7601242702,0.5202655279,-0.2513214524,0.9001467192,0.0484106956,-0.2047721422,-0.180450322,-0.2052566829,-0.6403740579,-0.9155381432,0.8862591445,-0.3498007242,0.1593027708,-0.5138930786,-0.5896459606,0.2758858497,-0.3049494595,0.4434594083,0.5983087942,0.2642798009,0.0544772216,0.2555819228,-0.217629652,0.8256239908,-0.7106698432,0.6438555073,-0.7354724623,-0.2658664037,0.6868588221,-0.0508573079,0.3716804106,-0.4561869152,0.5830904207,0.1507200272,0.6071729264,0.1436899014,-0.679174808,0.8166443485,0.017306967,0.7572964096,0.5835924499,-0.0038012502,-0.8228446713,0.2992022296,-0.0234094735,0.1871396377,0.776882766,0.9886743033,0.8017406589,0.2662608544,0.3189527233,0.0065577965,-0.6575833025,0.3591828623,0.0908134078,-0.6221010304,0.5740460067,0.4299853057,0.5987596512,-0.4811638863,0.0261241702,-0.7688475578,0.2615564052,0.595626608,0.9206860648,-0.1980308106,0.4240638376,-0.1722268281,0.610002868,0.7709082104,0.930076906,0.7125755097,-0.4584236791,0.5327904375,-0.9902405732,0.7052204497,-0.9213443693,-0.7836313115,-0.4505370017,-0.5098631092,0.8887005989,-0.6387478362,-0.1928916418,0.734441797,-0.6736411167,0.0998599013,0.2896893587,0.185662132,-0.7795511089,0.3090716779,-0.9224109453,0.1101838358,-0.6300648678,-0.9170421014,-0.87234226,0.1486161272,-0.6428509834,0.3065705444,0.1874365264,0.0988455816,-0.3613322658,-0.0399446347,0.2427690953,0.4861937095,0.2639312099,0.9015180351,0.8206751967,0.2628046061,-0.277712357,0.8479944202,0.9772645942,-0.0304110468,0.0845644004,0.9097676239,0.4627162509,0.0548322045,0.7562963413,0.6220495263,0.1306827157,0.0561222018,0.7605983761,0.3241191979,0.8461757091,-0.4368926548,-0.2999416156,-0.3195449647,0.2982426505,0.1789592952,-0.7025277455,0.771194076,-0.957343098,0.9027189104,0.1603229579,0.7394739435,-0.7367319466,-0.1887235117,-0.1004704021,-0.677304934,-0.6198787689,-0.5277050276,-0.5154675361,-0.0633611504,0.0792591573,0.1501596456,0.1513939061,-0.7422217795,0.0587047391,0.3173672249,-0.5038649945,0.5321267725,-0.9445367473,-0.2870505765,-0.130442983,-0.8856800211,-0.5398181727,0.8732734266,-0.2294671201,-0.461361115,-0.2263592617,-0.3585036078,0.4175487337,-0.384177922,-0.0425821571,0.6107138424,-0.8754317084,0.9786769404,-0.869107019,0.7561069997,-0.4302436772,-0.4884182564,0.6284422293,-0.1065677461,0.6804529805,0.3367357823,-0.9738526931,-0.5087265722,-0.132218648,0.1479477269,0.6684573333,-0.145927933,0.2431713829,-0.3214524085,-0.3559396384,0.7111571236,-0.5979189652,-0.951425066,0.8624828867,-0.2770801146,-0.9970849592,0.859252551,0.3607560319,-0.0316714458,-0.8954669123,-0.6130857685,0.1035702384,-0.9440991338,0.1514831434,-0.9307992188,0.2529390745,0.0495663743,-0.6261959851,0.2424335916,0.3006254585,-0.6051868973,-0.3294194861,0.4777332758,-0.2940352216,-0.854975859,-0.1183097136,-0.1612955984,0.0923252518,-0.931933096,-0.2066232625,-0.8919790615,0.7051860939,0.2059262939,0.0371524854,0.174966893,0.2704110124,-0.5230324449,0.9462577766,-0.4655970715,0.746825255,-0.5827694189,0.6840400999,-0.623145743,-0.4501100058,0.6729354048,0.5037906565,0.1807097724,0.035084182,0.1586414146,0.0249730181,0.9206148149,0.2204789261,-0.6680167057,0.4143341344,-0.6032648444,0.0716164764,0.0223681828,-0.4985068354,-0.8103902525,-0.6655232798,0.9966233442,0.2762893995,-0.8143253036,0.1356906361,-0.226904375,-0.5260388593,-0.6950370046,-0.1470426563,-0.878812478,0.8798247776,-0.2457949074,0.5340334307,-0.5611139132,-0.6868875186,0.0582666421,0.154448163,-0.7326520366,0.0192860505,0.1306603515,0.9932627864,0.7906566388,-0.4914401609,-0.8604943749,-0.3714603418,-0.5400823518,-0.3568513406,-0.110655829,-0.1179218949,-0.1228225654,-0.3194204881,-0.5997998229,-0.0484015036,0.4794812997,0.2455753074,0.2163198443,0.9309113504,0.8084423127,0.5659833286,-0.8083286714,0.5807758493,-0.1076032319,-0.2440342347,0.2452189675,-0.6573863532,-0.9353048862,0.2666607254,0.4780743117,-0.6818251548,-0.995074427,-0.4354516736,0.9086988007,0.4167743407,-0.1328143824,-0.6325512809,0.9230302571,0.1523798824,0.780646978,0.773203208,0.3282495118,0.1846469801,-0.9942089359,-0.8787099586,0.8103139,0.2933786833,-0.4292093835,-0.3192134243,0.7330703632,-0.6966097095,0.5901681837,0.191494911,0.1384764083,0.8182115512,0.641420426,-0.899991133,0.0518215579,-0.8844321481,-0.8857376317,-0.8601413947,0.929070297,-0.3606175612,0.505907121,0.778891947,-0.010674226,-0.7782940718,0.0839525592,-0.9448847032,-0.8812806805,0.1562562117,-0.4853785723,-0.2761948995,-0.842070479,-0.6690443276,0.7827721193,0.4093977086,0.1219396393,-0.3048956774,-0.2150930109,-0.7217411584,-0.2539241373,0.6737808005,0.1567625571,0.5917447799,0.9882999311,0.6226374682,0.0991674473,-0.8624953033,0.5785752291,-0.1046820444,0.1359405669,-0.597281462,-0.2322876452,0.4304612119,-0.3989964585,0.6729266048,0.2583557044,-0.7737992632,0.2478320972,-0.170151411,0.8155690795,-0.7504671615,-0.2464364501,0.0876199696,-0.4739153584,-0.3776609758,0.0949910768,0.4472364905,-0.8492644256,-0.4136706889,-0.750819149,0.50813278,0.3660789686,-0.9010386007,0.6801327981,0.5818054905,0.1587322633,-0.3788260891,-0.5096330957,-0.6781957185,0.7232104272,-0.4821586975,0.4598702126,0.6418405839,-0.813784254,0.5904113335,0.9925899194,-0.1162060232,-0.3017357136,0.6794162121,0.9373316256,0.0656426094,-0.8181570478,-0.3408880628,-0.0778123332,0.4250669735,-0.8326378095,0.751795895,-0.8718955248,-0.9463535769,-0.9194590519,-0.996317987,0.7128876056,-0.7771362592,0.4397986862,0.6502734785,-0.0766988896,0.513776735,0.114435669,0.3109020467,0.2612949793,0.8602449764,-0.2987077634,0.5606302698,-0.4502792966,-0.8768103729,0.3761982733,-0.319111004,-0.3591397216,0.4074732524,0.3604006268,0.3063428464,0.3287490808,0.316741098,0.1798073176,0.6287323737,-0.3370616373,0.8395511397,0.2296987398,-0.5425974837,-0.7811485153,0.5474649902,0.1821384485,-0.6730415258,-0.1791632134,-0.3319446871,0.3772332321,-0.8503521642,0.7735880549,-0.587709254,0.0748363427,0.3274413569,0.3838825031,-0.0898896605,-0.2441644301,-0.1868691736,-0.5260010688,0.183150869,0.5075954428,-0.4094849545,-0.6008229913,-0.6343911659,-0.2477846657,0.9978729517,-0.4114554569,-0.3316336123,-0.8890374437,-0.0894238443,-0.0007350079,-0.7149576387,0.6236386522,-0.2106890351,-0.2898212067,0.1986851304,-0.3678555687,-0.3352366966,-0.0014106109,-0.6234605402,-0.6288401419
   0.7986293731,0.6729190474,-0.3140248167,0.2175084045,0.5917207563,-0.8015982091,-0.8795655206,0.6354530028,-0.3274942849,0.1759220159,0.2847369625,0.9471228108,0.8052935654,-0.9854181934,-0.6631630086,-0.9653473752,-0.7382291376,0.23802704,0.2224214901,0.5759828431,-0.3598899098,0.6831949021,0.3251689644,-0.8512990135,-0.2817939619,0.0725336446,-0.6068249139,-0.958490451,-0.0036099814,0.2461323104,0.4034783834,0.3539409748,0.7864172667,0.7485604573,-0.5757957795,0.0342700068,0.5851933303,-0.1483481552,0.2605391663,-0.3282746682,0.3148096436,0.2049352107,-0.9986984918,0.8923842779,-0.0825799791,-0.7486774162,-0.995705778,0.3891370481,0.2699195998,0.3971697995,-0.0492126712,-0.0836203137,-0.221322063,-0.7691647147,0.2797838645,0.0262983261,0.5816846089,0.6077130456,0.1962195051,-0.556296002,-0.399482789,0.3755831457,0.6609215167,-0.2230055147,-0.3767134645,-0.324682538,-0.0917007984,-0.4511384603,-0.2295655006,-0.720538682,-0.3888326874,-0.6336675956,-0.359188027,0.4187201935,-0.9634136774,-0.9288235885,0.7751493074,-0.6229637965,0.4840626975,0.6604234803,-0.0607880509,0.9086454363,-0.9775810172,0.2894419721,0.4782120831,-0.0782771127,-0.2545942356,-0.5578840651,-0.6008037566,0.7382394586,-0.7668558092,-0.8053657136,0.5938531627,-0.3451006444,0.1320087827,-0.7398359152,-0.3351033641,0.8696646514,0.5548933981,0.2896384352,-0.2417150462,-0.3723532934,0.5270484018,-0.5970310192,0.2699869853,-0.3951796544,0.4497695768,-0.573971698,0.4041642919,-0.926391549,-0.4960195893,-0.1606436115,-0.2507198534,-0.6676468114,-0.7013633734,0.4085905224,-0.7386926418,0.3942680839,-0.5039681353,-0.8212182239,0.3041521815,0.2724339061,0.9928897097,0.4674328477,-0.4096666247,0.032472851,-0.3392737761,-0.9726670183,0.9922702965,-0.0263876881,0.8000087867,0.9446982805,0.7834282817,-0.3565542563,-0.2537837919,0.4896862255,0.6491118263,0.1656974504,0.075937938,-0.2636632322,0.7685504391,0.7938947125,-0.5404252249,-0.9645449441,-0.9342376557,0.2776168588,0.2842651374,0.0956359731,0.6021440619,0.4594001808,-0.0514366246,0.6918677478,0.0165920864,0.5878794988,-0.1146906179,-0.721313776,-0.637196843,-0.5763724445,-0.4840584276,0.6927248572,-0.6169547196,0.7508748623,-0.7593666313,0.9954717494,-0.3386283421,-0.039760295,-0.8923314602,0.501625185,0.1064824361,-0.9075282472,0.9860862856,-0.486100812,0.8680544509,-0.0393749797,-0.4056543335,-0.4377154454,0.3581318263,-0.0016811857,-0.7091805314,-0.7854842042,-0.2656751855,0.0726002387,-0.3137417414,-0.37486187,0.6886385291,0.3162617498,-0.4010192512,-0.8605654117,0.9220399149,-0.3811958461,0.0270405696,-0.8324027637,-0.6152876687,0.7670335332,-0.0879281785,0.9233516408,-0.1880904683,-0.527470636,0.222675833,-0.2219337247,-0.4698665581,-0.9158633305,0.3552199559,-0.6904548343,-0.9490505119,0.5091710295,-0.1444318862,-0.3184553698,-0.7320330139,-0.3241173908,0.3105704086,-0.3390781907,-0.1123878072,0.2118149032,-0.4070200963,0.1391078196,-0.060342382,0.6428293882,0.0051246924,-0.5166707552,-0.1982105295,0.4012118045,0.7913659597,-0.4907597131,-0.6709682806,-0.5515928048,-0.6948722663,0.0603611365,0.497307924,-0.4002041822,-0.9274585656,0.4382073747,-0.2293000695,0.2081729652,-0.191868029,-0.4885773827,0.9950226466,0.765494256,-0.7967504991,0.7802706595,-0.5880446407,0.6803543687,-0.2541146367,-0.8718115418,-0.2448445193,-0.9380323433,0.6680171076,-0.3507283305,0.366095403,0.3915243414,-0.7302624098,-0.2666444713,0.3670686925,-0.3739555709,0.5587216045,-0.3346389074,-0.5808927329,0.9371068362,-0.8521742675,-0.8942914435,0.9880372746,0.4195080561,0.3478919238,0.9739414856,0.4804381416,0.5583178521,-0.6326978214,-0.7075930104,-0.5325593751,-0.8044448556,-0.1124540465,-0.0117809052,-0.3397473173,-0.0881091406,0.1308485264,-0.7401319829,0.5674101506,0.4820974509,0.2043000566,0.3820478298,0.1617389892,0.8239178817,-0.6346883749,-0.4823441032,-0.7867456359,-0.4940120404,-0.7326173549,0.6286803274,0.3140987591,-0.7285937839,0.3839765679,0.9622611188,0.7247463342,0.448432455,0.2559302012,-0.0284286693,-0.3239944185,-0.1287663812,0.6595348937,-0.5041085841,-0.1019822747,0.3563318958,-0.6526480125,0.5289908919,0.4430668568,-0.5838185307,0.7024215572,0.155416808,-0.3783477946,0.817781147,0.6804257803,0.3792363169,-0.7027409323,-0.3432954546,-0.6616868753,-0.6667422835,-0.8384774201,-0.5710882267,0.9714451483,0.7080608064,0.5323058629,0.7411887685,0.4402454591,-0.5171601786,-0.3651919759,0.4085397132,-0.1129408903,0.6274139689,-0.3805881131,-0.9349811103,-0.0604958888,0.6547356774,0.3831040453,-0.7201872742,-0.7734670099,-0.761626171,-0.1194606088,-0.3110984859,0.9580362221,0.8109047301,-0.8792361274,-0.8727749064,0.6339968895,0.291708521,-0.5493850987,-0.0577909375,-0.3137243441,-0.0723625959,0.4945433433,0.250621314,0.8822282166,0.493162405,-0.2351994501,-0.7586579547,0.4379378442,-0.7928350899,-0.2492735095,0.1153033404,0.2436998993,0.5240171358,0.3590797413,-0.7785336214,0.240312396,0.3733582569,0.031493015,0.4551047649,-0.2016815491,0.3446318596,0.8540658099,-0.1855953385,0.6864651584,0.21811527,0.1124507761,0.7552058546,-0.4757468762,-0.2463412837,0.6694919276,0.3387952844,0.5647407204,-0.989545119,-0.0060384495,-0.6031542851,0.8292590596,-0.140925298,-0.9911533732,0.2480677959,0.868790966,0.2571449027,-0.2827051949,-0.1530005907,-0.8506247264,-0.6283690885,0.5727577028,0.588515412,-0.0627886652,-0.5104174708,-0.0719486699,0.2345495727,0.0436086705,0.6628376241,-0.1843900316,-0.0303770477,-0.1747649115,-0.4056644875,-0.0239942009,-0.5858265749,-0.2456666681,0.9560096992,-0.4679994073,0.4062253631,-0.2443525816,-0.5480063684,0.5695705819,-0.588266507,-0.909544322,-0.4015552906,0.6895919798,-0.3786505152,-0.5602454173,-0.2238614777,-0.3401758668,-0.375545183,0.063514342,0.5950231062,-0.2675179502,0.9643761262,0.6120473861,0.4543532527,-0.7246553252,-0.4159737876,-0.4852497963,0.7509161332,-0.455190834,0.2264463319,0.7919982157,0.2417791785,-0.0880015796,0.9576654296,-0.2313678071,0.859829836,0.4485191855,-0.0044413746,0.9280495454,0.0760221214,0.5566489008,-0.7115922282,0.3511022699,-0.2676055883,-0.9215669933,-0.0047901827,0.0874199813,-0.2590186845,-0.5038742335,-0.9877554402,-0.4082567302,-0.1516882826,-0.9402011076,-0.3482604821,-0.874971095,-0.4308916647,0.5347169617,0.2586138268,-0.9980629405,0.8565920792,0.9392518389,-0.3495019993,0.7243325356,-0.7847325595,0.215153002,0.7699029657,-0.1380386053,0.2629420008,0.8246578848,-0.44208735,-0.4018953962,0.5212349587,0.352128451,0.2419184097,-0.9346642633,-0.9378439094,0.2402191064,-0.5702958859,0.1163879243,-0.1476715688,-0.5438433974,-0.4042220991,-0.7414697333,0.2141588021,0.1024244364,0.9082238291,0.3676857826,-0.8764704303,-0.5239977765,-0.5943822798,0.501485904,0.2206596137,0.6622068239,0.8001276807,0.2296893784,-0.4710374362,-0.7535270497,0.7538437481,0.3663422832,-0.9445553837,0.4757990832,0.0212374886,0.1884987412,-0.6091096275,0.6952245097,-0.0261751918,0.9303675278,-0.9915517124,0.9111633918,0.8218858142,-0.3478955928,-0.331915864,-0.2075395888,0.6076307189,-0.4217369597,-0.033523948,-0.5053253454,0.1856459795,-0.1603903752,0.7139015667,-0.4818225308,0.1117714514,-0.5821446807,0.8111782604,-0.0122135245,0.3481577551,0.8446152937,-0.1193280636,-0.3742337154,-0.5343817801,-0.0533435948,0.6496414367,-0.6543584333,0.8906777535,0.4710703527,0.1577205022,-0.8679133277,-0.4705747163,-0.4575552203,-0.778817273,-0.3844841539,0.4304579097,0.18972291,0.1708568683,-0.0326334293,0.1995476204,-0.5343401335,-0.8901944514,-0.6363294317,0.6725412907,-0.0729595933,-0.9789452564,-0.003672928,0.0410087278,0.877956632,-0.3388651714,-0.4631946268,-0.2266220474,0.963343223,-0.8023545527,-0.8782430154,0.2570007338,-0.5080495931,-0.5312104094,0.7752359622,-0.386063576,0.7257094643,0.6585042574,0.8156705906,-0.6052473933,0.8293970681,0.2584987639,-0.1712274895,0.8937558086,-0.8973768268,0.3191896992,0.1811089844,-0.5611656786,0.7599805647,0.2002417302,-0.2887180795,0.4547134629,-0.4476027777,-0.6333566647,-0.1445386753,-0.7054932526,0.192681496,-0.8849815598,0.7808494341,0.4476984658,0.8162696143,-0.9189120412,0.7089027537,-0.5217903752,-0.1003905982,-0.259926687,0.3240349679,0.262217603,-0.630277942,-0.9313588181,0.7871501806,0.8773992816,0.8423294074,0.8968887965,0.7469302305,0.1691184823,0.7473300492,0.910989017,-0.5809673423,0.6192290701,-0.4843077155,-0.1434991869,0.1237261221,0.0629411821,-0.2722739236,0.9799945088,0.011231954,-0.5090911055,0.5011137143,0.9390173187,-0.1790023807,0.3612137007,-0.4969802994,-0.5119835978,0.6462559745,-0.0759411426,0.9025776445,-0.0916687472,0.3754899665,0.2193588802,-0.7874258878,0.3005334468,-0.68099769,0.1548461043,0.0369963066,-0.1796922057,-0.2179458045,0.6339246184,0.2908335815,0.3712526069,-0.7828484799,0.2800976114,-0.1716038913,-0.4484481463,0.8788265062,0.707784006,0.4560684305,0.4478314741,0.892273992,-0.0946857413,-0.7512675317,0.3718972633,-0.0220395024,-0.9194135209,-0.3001708185,0.6395060712,0.529454897,-0.5092686806,0.9885889307,0.9136114615,0.6241091637,0.4692656969,0.129379473,-0.8128929168,0.4182059959,-0.3473260354,0.381614905,-0.6202161584,0.6533224692,0.818559488,-0.6711369072,0.5054185041,0.3969957,0.1484003599,0.2070268144,-0.9974881917,-0.8159689136,0.5074740415,0.4165825122,0.2132669744,-0.3120728504,-0.49813476,-0.7720418316,0.5962321941,0.0405531088,0.3516639018,0.6187042158,-0.6112285078,-0.0792410639,0.558242968,0.9029413487,-0.2275022996,0.4422533423,-0.5616756413,0.6187767989,-0.803270904,-0.1156366668,0.2517692917,0.327674312,0.2402798988,0.4871270795,-0.703736265,0.2131092174,-0.1752372113,-0.1759864553,0.6011370422,-0.4448687257,0.4458117211,-0.6706943679,-0.7994024896,-0.7861955446,0.2477725909,0.8390700947,0.8696638559,0.60243593,-0.8472911358,-0.9595096751,-0.087740721,0.7944472669,-0.4620774042,-0.8448491171,-0.5859019662,-0.0799592322,0.8093645372,0.5073234953,-0.8222067614,-0.0442302616,0.9874960454,-0.4354413277,0.658017256,-0.4988403939,-0.873145848,-0.4991656997,0.8159701757,-0.9911502133,0.432778435,-0.2160971892,0.8610668185,-0.1166031849,0.8583182115,0.9616983592,0.3734271529,-0.8795730496,0.8093970281,0.3586353212,-0.1664880669,-0.6733570506,-0.4368737021,-0.3846885282,-0.1017889688,0.7935349813,-0.3590877787,0.622502951,0.5249286943,0.3095948013,0.7612607683,0.2084576095,-0.5166403604,0.67516764,-0.5360349795,0.0515971157,0.0075763224,0.606289792,0.307211036,-0.6837350592,0.0142059844,0.6852494721,-0.9028309701,0.5978250359,0.956904437,-0.2130122693,-0.5467530502,-0.0731031986,-0.3610319727,0.383612331,0.1775033573,-0.9132544417,-0.0857452058,0.699514797,0.0886259497,0.2346085111,-0.1194259998,0.3579879817,-0.6451596128,0.2738784519,-0.0639303826,-0.0998171816,0.4801428631,-0.7938071405,0.0515599802,0.3731378736,0.671022528,0.2435072245,0.3117410706,0.061066865,0.9256217127,-0.1044279856,0.4166067668,0.4829287611,-0.4422488114,-0.0539411423,-0.1571662246,-0.6693770458,-0.8751312402,0.2451241784,0.8519123715,0.2830806016,0.8620560637,-0.3601201107,-0.7829416306,-0.4749540418,-0.627300807,0.5973143686,-0.1840790041,0.04809427,0.1193071286,0.2245922112,0.6753692167,-0.4809189516,-0.7796696225,-0.6882706975,0.2997909111,0.3758756306,-0.9469641689,0.2582090091,0.0603560632,-0.7797419695,-0.4342385305,-0.1780842379,0.4455684712,-0.115309415,-0.4650525693,-0.0899751521,0.2039321704,0.5562821521,0.4354763143,-0.0356903742,0.0273506604,0.5953595852,-0.1231031364,0.9561154726,-0.76240208,0.2317886275,0.4558217325,-0.9190791563,0.9473032981,0.6036755276,0.2688198147,-0.4540624046,-0.7237917244,-0.5646885275,-0.093344814,-0.9736076797,0.1796402924,-0.4217043589,0.1666438741,-0.0236487709,0.5839312494,0.9944081043,0.0388690252,0.5897324196,0.8435575205,-0.5281320972,0.8746958887,-0.3328233474,0.5000465092,0.7822686223,-0.4295994218,0.2680049132,-0.1430502088,0.6232037886,0.3236043509,-0.833774798,0.2734000643,0.8554459196,-0.4738561585,-0.8492535845,0.2057026015,0.4560600629,-0.5484023149,0.8032689925,0.5402991104,0.1545028972,-0.6199579461,-0.4984572878,0.038060977,0.2966196396,0.4517165842,-0.958127265,-0.4364779875,0.3750992173,0.5099171751,-0.1596318599,-0.4979220212,0.6257210791,0.3453449287,-0.2872226443,0.7737616513,-0.39546742,-0.2981554856,0.875863807,0.6824943623,0.7884358957,0.8027214032,-0.0244513905,0.8877589364,0.7669169059,0.1454023774,0.0064106984,-0.5710724542,0.091122011,-0.3826356214,0.1441456499,0.347656264,-0.0691921963,0.838320363,0.2885580667,0.7280029239,-0.8954188971,0.700125688,0.4834498907,-0.1661818193,-0.4366585822,-0.3478480752,0.413143225,-0.8965578005,0.128519885,-0.9336826925,-0.7837418007,-0.4618436416,-0.7253677302,-0.9894194943,-0.5690460479,0.227448835,0.4294185408,-0.6610988048,0.839414086,-0.9794051612,-0.2722949319,0.1224456307,-0.0584624735,-0.1754882884,0.9916290084,-0.8678608264,-0.2341914834,0.4288682582,-0.5488038799,-0.471691563,-0.7914508977,-0.2686258788,0.4203769913,0.2289442448,0.7027049884,-0.0009332176,-0.856777937,-0.1245030223,-0.1389871724,-0.9746873139,0.974284689,0.6009322488,0.2261561797,-0.6500253703,0.3989305826,-0.123888108,-0.0714563757,-0.4973220675,-0.2381488435,-0.4345866368,-0.0327141231,-0.3546539464,-0.4222861117,0.7624959416,-0.3797494962,0.0741024166,-0.0295327203,-0.2618367283,-0.4731605286,0.7424791962,-0.5432426222,0.9502120765,-0.6302496643,-0.4335995625,0.860912071,0.4066421668,0.743983861,0.9476620024,0.5881422922,-0.1419467732,-0.7857127403,0.2821352741,-0.677742845,-0.8701455832,0.472448429,0.129830413,-0.9405429655,0.3760079935,0.2513164024,-0.9224831768,0.2479062253,-0.4939447906,0.5551793361,-0.2068362333,-0.3890951145,0.6230732149,0.6411628353,-0.1889166198,0.4932722658,-0.9394502966,-0.6235858602,-0.2279065066,-0.0013940867,0.4823808964,0.5359198574,0.8816310834,0.689700618,-0.6838431828,0.3473484392,0.1055025232,-0.5471020872,0.748243034,-0.9094367528,0.867160747,0.6481298576,-0.2587180716,0.1458500764,-0.655619818,-0.5802344973,0.1177625495,0.5126994608,0.6145109525,0.7177155534,0.2819397102,0.5500570363,0.0694631179,0.7819084269,-0.6165214531,0.7816583755,0.2105398001,-0.1782967921,0.5775513042,0.6667168387,-0.2073601685,0.2358950299,-0.9569543727,-0.4919913234,-0.4772897306,-0.1579651344,-0.7716204339,-0.7634131262,0.7791930628,0.2074496627,0.6475290793,0.2685541156,0.3277614767,-0.6910385743,-0.7450699419,-0.7969103219,0.479196127,-0.1660308486,-0.2587384632,-0.4084440272,-0.2880261633,-0.0066258983,0.3297420874,0.3471452951,0.6506923581,-0.2667960539,-0.9210938491,-0.9342775719,-0.8914271843,-0.1052403936,-0.3257474734,-0.1222259406,0.7113393333,-0.041114895,0.0817634629,0.6866645402,-0.8144661681,0.9849669335,0.9936685222,-0.5878819766,0.4141604671,0.2188044802,-0.6719950798,-0.3568465021,0.797297898,-0.171220311,-0.4497871226,-0.1726829511,-0.5469259686,-0.9116758255,0.2086728276,-0.3298931068,-0.0751975245,0.1352094059,-0.2864399799,-0.4287553056,-0.5179428795,0.2830440901,-0.2444329129,-0.0895309851,0.2696147322,-0.9166383443,-0.7626387153,-0.1878022437,0.4607245916,0.1170356374,0.5469773149,-0.0111692705,-0.7977529547,-0.6105549299,-0.0557851546,0.379187626,0.6490432358,0.2645934933,0.3873746601,-0.6444858,-0.3940213773,0.4483661967,0.6999751481,0.0293949938,0.0860961576,-0.535794386,0.7683334873,0.2233980912,-0.6280954496,-0.2630273844,0.5588626561,0.0498680063,-0.2014911796,0.2898463525,-0.6305728209,-0.0284098016,-0.6605418938,-0.7156435409,-0.9293481151,-0.104195632,-0.7686432071,-0.9470341469,0.8604644454,-0.9924454906,0.4129017261,-0.8886302254,-0.2263954586,0.5544161478,0.4459489953,-0.5836219581,0.7402658965,-0.4588118286,-0.7169255492,0.1791799149,0.1629680537,-0.0132820572,0.3268792978,-0.7063551496,0.4022451864,0.5021151374,-0.9264319378,0.1930719684,-0.2433791463,0.7052105625,-0.1603538832,0.0128624674,-0.3721102162,-0.9334425758,0.4567908395,-0.6040885957,0.6214213931,-0.0951050369,-0.4217336953,-0.4394289072,0.8160707175,0.4981610914,-0.6980630935,-0.6924657022,-0.507044804,-0.3119344337,0.5971982579,-0.0697240535,0.9496039109,0.6530333878,0.479998758,0.0343315175,-0.2714210366,-0.0504430768,0.6458266342,-0.557264778,-0.2855785362,-0.0660396065,-0.1215759728,-0.5262778038,0.9379029923,0.4159959188,0.2323956156,-0.2593012074,0.1063166683,0.7780431481,-0.8850626704,0.9035469964,0.0748025635,-0.9056162015,-0.8647041327,0.0926766981,-0.7229217821,0.9507463982,-0.9865678645,0.4405466754,0.2815520247,-0.1337670631,0.5349430596,0.6484472629,-0.6954509504,0.3662232009,0.5292144155,0.4853064875,0.0919697798,-0.8931554392,-0.9377470655,0.1407611426,-0.1621817456,0.0118984053,-0.43454317,-0.6367216775,-0.4322206738,-0.5766744183,-0.1710442666,0.1638046631,0.4914425499,-0.4369380256,0.2120442857,0.0842783649,-0.4118800369,-0.4958101044,-0.6206483156,0.349154127,-0.4883285393,-0.837914919,-0.2639153625,-0.0249963525,-0.3087588896,-0.02166035,0.2056695434,0.980234036,0.872883642,0.0791500346,-0.2016760573,0.3803472799,-0.8326619685,0.8588483182,-0.8358391862,0.6015665745,0.1023258382,-0.0188567327,-0.971821309,0.2463509317,-0.7686594894,0.7802873954,-0.9663485042,0.6717254734,0.3671115872,0.2244856389,-0.1586986295,-0.0905811369,0.7113180922,0.1559278191,0.702257738,-0.0665870276,-0.0463280222,0.054828331,-0.5708915372,-0.4758480203,0.3731176706,-0.031986335,0.5651831656,0.4731749844,-0.7812147536,-0.5322268214,-0.6672380208,0.575378179,-0.4047840256,0.4194139932,-0.2979195071,0.6057448663,-0.6826946334,0.2245869935,0.4936789247,0.6736978493,-0.3702579331,-0.1232308116,0.7625274381,0.1116753293,-0.2283557471,-0.8096940795,0.7524002771,0.8794287689,-0.5888227898,0.5401701979,-0.9539111455,0.5652849613,0.7392652386,-0.6883974844,-0.3540531895,0.0897282333,-0.700194618,-0.8228053242,0.1880317131,-0.2998470843,-0.8276546032,0.6998732892,0.772873298,0.4889996915,-0.3783099294,-0.3926430195,-0.4540799281,0.8430946031,0.9008583783,-0.1835605806,-0.8477235093,-0.953193804,0.8723703865,0.5341312054,0.9227908573,-0.6015501713,0.6671370423,0.8938742006,0.4238380311,-0.4883900418,-0.38038578,-0.0069875747,-0.2727393149,-0.1629243988,0.4413009936,0.8250481285,0.8990050318,0.543201898,-0.9885492557,0.2103259991,0.2973744884,0.7978020418,-0.2104754693,0.9122222428,-0.1740884509,0.1287644515,-0.2185492682,-0.344217035,-0.2842662504,0.097219502,0.4694168245,0.1372464891,-0.038241759,-0.4503196234,0.0622326841,-0.5355516316,-0.0775600846,-0.58253395,-0.0620853839,-0.9558321681,-0.5096841465,0.5302987687,-0.1889677187,0.7830335257,0.802344775,0.426170729,0.1734655437,-0.525535524,-0.1140481789,0.6251446877,-0.4776827076,0.7711944704,0.0243454322,-0.6435029241,-0.2353732779,0.8755500306,0.2628966706,-0.1792077711,-0.188877147,-0.5576242284,0.4378058928,0.8833792031,-0.5606331803,-0.143086408,0.2636814661,0.2713513871,-0.5597336498,0.4674847543,0.8408843744,-0.066333142,0.0481808744,-0.2087244689,-0.9406141822,0.9813542155,0.3489866886,-0.3741018064,-0.2105254027,0.7388709515,0.2738357415,0.2401826738,0.2642127157,0.8662788924,0.129981522,-0.2752045005,0.3199605765,0.2889355631,0.7805478887,0.6157877617,-0.9277750422,-0.0600760855,0.4023361582,0.2824397453,-0.7075630917,0.6589417301,0.2707752039,-0.635611823,-0.4065775554,0.0672019231,-0.8269547194,0.5805627053,0.5150104191,0.7451779854,-0.3038585296,-0.4561875708,-0.9037419653,0.3205638796,0.079767255,0.840890071,0.7570893736,0.916123102,0.4306093503,0.0100808761,-0.7873816122,-0.0869395895,0.1881254518,0.8531733277,0.8475850652,0.0390621048,-0.8491937219,0.0350452818,-0.6798314997,-0.1523495809,-0.2821206454,0.6354639472,0.2782668366,0.085841482,0.4370052546,0.2546077458,0.8949555877,-0.3961961065,0.9223558982,-0.2003077551,0.674484588,0.1004538775,0.8041697264,0.7022585597,-0.1322348321,-0.0785922552,0.5426078687,-0.3837281817,0.0370388733,-0.0739642772,-0.3152618005,0.6294391787,0.1270745975,-0.3351476596,-0.8637573682,-0.9821242565,0.7808876141,0.8160711324,0.0306707944,0.8477057971,0.5362892195,0.7181437885,-0.784846236,-0.7877748501,0.1505849707,0.8855114724,0.7894482401,-0.53417636,0.1823891585,0.7923992066,0.7984487084,-0.756296877,-0.6738716178,-0.8404954667,0.7864166794,0.7676049164,-0.9758510322,-0.1979634558,0.5992997813,-0.1799771469,-0.2150936542,0.3886321353,-0.9640999114,-0.2285232289,0.0452194949,0.0135783423,0.1017102216,-0.1086880931,-0.0229495671,0.4489288008,0.7328889967,0.0522101981,0.1712156535,-0.2445197977,0.8897138854,-0.1390005375,0.8934841849,0.2210231531,0.4965553219,0.4037722996,-0.6052813941,-0.6846172691,-0.6310959002,0.7004689285,-0.9730938681,-0.3800856225,0.5010925188,-0.231281713,-0.9840024678,-0.9323625719,-0.8776178805,-0.254515904,0.7325334173,-0.7492545677,-0.3549190501,0.6824364135,-0.0547174944,-0.4619864963,0.5656203443,0.6843777782,-0.2583330401,-0.5211597522,-0.916819762,-0.0201428926,-0.148147788,0.3274460845,0.0657097332,-0.0017121332,-0.9519822784,0.5802172769,0.1209326596,-0.7702298319,-0.5193241899,0.5860784798,0.4493561043,0.9166190937,0.5680950304,0.230483955,-0.9781741648,-0.2295604451,-0.6398706347,0.0207020619,0.3619184231,-0.7444161468,0.612224593,0.9646106527,-0.1281240829,-0.0382565156,0.9258220468,0.9316561538,-0.7311881758,-0.6006379995,0.666771676,0.270694256,0.9669728697,-0.5805943394,-0.7077912395,-0.3992030022,0.532802029,0.7532398941,0.7334358816,-0.9270990899,0.8184549401,0.8741108393,-0.1508818793,0.3026821043,0.6487682764,-0.0619726175,0.6426432025,-0.1201629039,0.4848286462,-0.7939627472,0.433107491,-0.2060785677,-0.3351818662,-0.0158723418,0.556277365,-0.5474565532,0.6399066627,-0.8340620772,0.6999971881,-0.7809410963,-0.4529229754,0.5571139025,-0.1513845332,0.9870402533,0.5676246364,0.8329904288,-0.2096517309,-0.5028265511,0.8752969477,0.193537792,-0.92897109,0.9258544872,-0.4479479173,0.1294043576,0.5802220122,0.5760737264,-0.3864769379,0.3028540121,-0.1696306296,-0.9103282007,-0.5728538587,0.4754329483,-0.6971042855,0.0027838003,-0.2660068131,-0.696004558,0.3182619998,0.7915106724,0.8826868686,0.2142909941,-0.6607782438,0.6210123167,0.1351981473,0.2941676655,0.6244776405,0.1050469433,0.0650840445,-0.9673833488,0.4811767721,0.2380743625,-0.5823266093,-0.6113228284,-0.1270305023,-0.6922085219,-0.9337072521,0.1142500129,0.5720455803,0.4857984428,-0.425147023,0.1707913997,0.7944957637,-0.6049716626,0.649073888,-0.241250398,-0.820628211,-0.9470255123,-0.8574929814,0.1297823395,0.176454412,0.4348040373,-0.7080312354,0.7958264827,0.4904923937,0.1325791432,-0.7377313722,-0.8737723249,0.3691089456,-0.7315469482,0.8211525882,0.6686378376,0.0842447975,-0.7257192734,0.6559638764,-0.2674685293,-0.204550528,-0.7867258985,0.1356679027,0.3667772464,0.4320349138,0.247006196,-0.3354962266,0.6755022228,-0.8533994044,0.0984886717,0.6172359105,-0.3044320345,-0.9198404999,0.2304698933,-0.4599938805,-0.9538090513,0.9217871619,-0.5395279449,-0.3370476515,-0.6899143283,-0.6885434317,0.0159477268,0.0723679872,-0.8351251492,0.7632598615,-0.1094760561,0.1935964608,0.0790066711,-0.6781357781,0.0408218222,0.0876567209,0.7031350601,-0.260697363,0.5572864543,-0.7420552767,-0.3373934087,0.5301363043,-0.4174735256,-0.3129214036,0.3237008641,0.4209960118,-0.7533462108,0.5478391802,-0.8474861323,-0.2382888065,-0.9955203035,-0.2245856899,-0.6148024316,-0.3634179946,0.6899728,-0.221505616,-0.8732070347,-0.1978465295,0.5582407194,-0.5932963111,-0.4253570896,-0.9847353265,-0.1667861118,-0.5541162303,-0.8741180396,-0.0192539013,-0.0002889309,-0.9544238939,0.5995365938,-0.5000581218,0.1733820803,0.4141740515,-0.3621025073,0.9076601845,-0.2569547653,-0.7083310816,-0.0151768534,0.0149324237,-0.2908438601,0.2445196012,-0.9122673997,0.1113531699,-0.5400810552,0.8274225754,0.3894691505,0.8558473137,-0.6676359905,-0.548747609,0.1597245757,0.8182103963,-0.8577755109,-0.485001681,-0.4376301448,0.4106966084,0.6665907946,0.5761684378,-0.212149949,0.2484915708,0.6215769827,0.5766415547,-0.0068104907,-0.6326897703,0.2937965692,0.3906508557,-0.1683105757,-0.212906489,0.5295516732,-0.9869586908,-0.6128171735,-0.8368234551,-0.2808482497,0.0714159845,-0.6598378155,-0.6473173922,-0.1267800219,-0.8098122262,-0.2172116312,-0.4270703587,-0.4391172077,-0.8079886169,-0.4822054367,-0.6869998382,0.7397553414,0.5637229556,0.1929982188,-0.7857963311,0.1077226064,-0.5832651196,0.1582329624,-0.1450516478,-0.074340606,0.7120404913,0.3382825293,-0.986311194,0.0248009351,0.9600358848,-0.168487855,-0.4194919291,-0.8640085291,0.2360094485,-0.5194132742,0.0932452816,0.1735552028,0.6164164388,0.4591509986,0.1263800555,-0.186138691,-0.964763942,-0.9282277917,-0.3385318122,0.5313961314,0.0467003122,0.8653612313,-0.8423482367,0.7192238797,-0.5207603187,0.6646786538,0.8221525935,0.2061371765,0.2145598534,0.750811976,0.5141019988,-0.7275175781,0.3354239458,-0.1660631742,-0.1997415279,-0.6999891562,0.4553041534,-0.1123877152,0.821256078,0.9565472157,0.7926323251,0.6896317952,0.5027466587,-0.3864596169,0.8009114085,-0.3424310672,0.9921518951,-0.4807262782,0.9856723391,0.5513918718,0.8346193914,0.3545653413,-0.3265125244,0.9029231957,0.7674744388,0.6669198102,-0.658231295,-0.1028069177,0.2215536573,-0.8393906958,0.0399515595,-0.1282733987,-0.8250842803,0.0411647018,-0.5367919564,-0.1730000451,0.2684423494,-0.3382511024,-0.9912874739,0.5375361479,0.7507590754,-0.4816728484,-0.6951619346,0.8059062904,0.9807290742,0.9439110669,-0.820657262,-0.7890256978,0.005937603,0.2299972151,0.4242377788,-0.9662490957,-0.6397874181,0.7929617674,0.1501239672,-0.1393161142,0.9983024438,0.7792785172,0.3015156456,-0.1570369157,-0.5343216048,0.553826367,-0.2009185513,0.2765266673,-0.28718998,-0.4761133544,0.7160619861,-0.1304311869,-0.2500046944,0.9175625671,-0.8750560624,0.3338878052,-0.1334822407,-0.9827668412,0.9784522459,0.9567163712,-0.3835595645,0.0924421228,0.2811819131,0.8718350898,0.9381221524,-0.2542582643,-0.6209065087,0.3270810697,-0.2549632134,-0.6030734641,0.8662438204,-0.2599546402,-0.2547567519,-0.6813260798,0.4859768631,0.3699692242,-0.5011245978,-0.3140421785,0.9532199152,-0.1451714975,-0.6362556536,-0.4296594418,0.6085399642,-0.9220938303,0.2901778934,0.9221930254,-0.5955983862,-0.4965919409,0.9603791714,0.11550422,-0.9631495835,-0.8593740805,0.3813016091,0.1257365816,0.5856030173,-0.2101986684,0.1030780842,-0.8179786596,0.5506383349,-0.8188878425,-0.3494060519,0.7122372497,-0.0964769389,-0.4174144291,0.5728091685,0.539583742,-0.3782151977,-0.3879043986,-0.2051327782,0.8028445654,0.1274124862,0.5665216235,0.6269107853,-0.5025374949,0.2388209448,-0.1711582279,-0.4820606939,-0.4558093931,0.6082827494,-0.9535292834,-0.3233395461,-0.6793241282,0.6908280819,0.2993065073,0.6045860644,-0.6852160982,0.275111765,-0.0641663202,0.4876645091,0.9355211153,-0.8788869232,-0.0081635609,-0.3480756689,0.1019041989,-0.3655882635,-0.4607259735,0.032911145,-0.4916470193,0.8539311993,-0.8381174161,0.2960778663,-0.3734457638,-0.9124796728,0.1617123434,-0.8671599282,-0.7907098691,-0.0050040322,0.0397692722,-0.0446947946,0.6002766762,-0.5623190353,0.0156202448,0.3494579754,0.1211916212,-0.4023572815,0.8388670236,0.0709802716,0.7767520275,0.7353171648,0.3591422003,0.9709160233,0.7591858542,0.497653617,0.4151484926,0.3625852339,-0.6223863011,-0.0753607009,0.1773668677,0.016228442,0.319365877,-0.4305965134,-0.4750802524,-0.5192164672,0.4057094449,-0.5681646512,-0.5557480431,-0.5453673437,0.0627551883,-0.8722946476,-0.9436873928,-0.1881233688,0.351928494,-0.5440547626,0.5913417817,0.8770665903,0.1357218184,-0.618247974,-0.3883697957,0.0169088792,-0.6315910659,0.4202651377,-0.3163097721,0.1579102247,0.0032329301,0.5046020412,0.2671269462,0.7545143147,-0.4058444564,-0.3967275028,0.0538852239,-0.145513542,-0.0928917386,0.8524692505,-0.9105607147,0.6970680472,0.3808138387,-0.1225751248
   -0.2771449501,0.8651170149,0.7464785062,0.533300343,-0.9942165131,0.0759423801,-0.3973238003,0.439671071,0.5909091965,0.5607238471,-0.927387998,-0.8846267864,0.0728346627,0.3313724852,-0.6120725597,-0.8107548024,0.5724386487,0.1491010156,-0.6944613292,-0.0731678628,0.6586890246,0.7447582045,-0.003298293,-0.8611281088,0.077210444,-0.9959646808,-0.5602654847,0.5255266282,-0.1817926988,-0.9136710715,0.1893913053,-0.7995196054,0.2703498972,0.3430466445,0.9497222167,0.335831757,-0.8814241518,-0.4391869551,0.0420312092,-0.5618798052,-0.8229960695,0.7339170404,-0.271733472,-0.7939233081,-0.4124909374,-0.714479445,-0.3534496586,0.9543434517,-0.7456093535,0.3448151855,0.3193808289,-0.6769561114,0.0820814962,-0.4773380997,0.3098263945,-0.1854078352,0.1245636911,-0.4182786405,0.3182912857,0.8092942091,-0.1725991535,-0.9475823942,0.2234405443,-0.6951301657,-0.3119177146,0.1231359024,0.9355126592,-0.5165925404,-0.3742518228,-0.3155753788,0.3356029774,0.465923261,-0.5927680565,-0.4516731668,-0.9852046348,0.4773293699,-0.9178918495,0.0533526855,-0.7982950366,-0.8881360328,-0.3742605229,0.43291231,0.3069454601,0.307738729,0.6437538464,-0.7438907732,0.1606965247,-0.5559661744,0.0253758017,0.342320165,-0.1251123143,0.4014586552,0.1088807952,0.2917810971,0.3469157616,0.901648981,0.8838724266,-0.3354622019,0.8553895844,0.9850053955,0.5413092661,0.1157069541,0.1565844272,0.8058860708,-0.1307535832,0.6452366323,-0.8986378457,0.5612531436,-0.557286199,0.1006534616,0.7047815893,0.3271487617,0.1902245851,0.7787290949,0.3793130882,-0.2513492127,-0.9920801625,0.8211782244,-0.4614029129,0.3257456002,0.3085815496,0.2300344342,-0.4005523078,-0.6948909842,-0.3953357311,0.1126521403,0.6227071537,-0.6248888859,0.2978641071,-0.1726157122,-0.5310390481,-0.4626190028,-0.6662352151,-0.7778273992,0.1295553823,-0.0973218329,-0.0544871775,-0.549317225,-0.1192737108,0.0476248889,0.9692044136,0.3024420049,-0.6959998568,0.1823800608,0.8520158479,0.414007276,0.3530526017,0.7858059319,0.6412441657,0.1053968181,-0.0015393142,-0.4069518606,0.0866280961,-0.8878841771,0.5771186031,-0.3233949636,0.532832952,-0.5986976787,-0.7197908726,-0.2886074518,0.5774478121,0.6278690447,0.8105403752,0.0269598744,-0.0339677377,-0.8106190421,-0.0172499673,0.8186365629,0.9704895215,0.3968595917,-0.5641485168,-0.281963567,-0.8609036488,-0.2824027633,-0.1845108534,-0.7688824342,-0.659614089,0.0936339598,-0.2617519965,-0.9785024099,-0.5553765477,0.6975770725,0.8001217337,-0.06018637,0.48726477,-0.3602789451,0.9911040558,-0.0337438656,-0.4617046601,-0.3634581024,-0.0876358976,-0.379842961,-0.2219244494,-0.5369669061,-0.0572450885,0.3547270478,-0.0567193416,0.6986239551,-0.8430536413,0.8747278998,0.6788730578,0.0278098677,0.0216886691,-0.8807057443,-0.6274836398,0.9405539425,0.6957842335,0.5726712571,-0.4704030666,0.5826648333,0.3134971135,-0.1321086008,0.4611727025,0.471930046,0.1940616494,0.1939613805,0.6318606527,-0.8839102011,0.3048542249,0.5478545008,0.2646929774,0.2018793512,0.4450309702,-0.0077552612,-0.4687938296,-0.6484004042,-0.4543915146,-0.7741365832,-0.786632404,0.5402761736,0.6481815086,-0.4655005867,0.8459270692
##end
biasActivation=0,1,1,1
[BASIC:ACTIVATION]
"org.encog.engine.network.activation.ActivationSoftMax"
"org.encog.engine.network.activation.ActivationReLU",0,0
"org.encog.engine.network.activation.ActivationReLU",0,0
"org.encog.engine.network.activation.ActivationLinear"
