encog,BasicNetwork,java,3.4.0,1,1532884237984
[BASIC]
[BASIC:PARAMS]
[BASIC:NETWORK]
beginTraining=0
connectionLimit=0
contextTargetOffset=0,0,0,0
contextTargetSize=0,0,0,0
endTraining=3
hasContext=f
inputCount=16
layerCounts=4,26,101,17
layerFeedCounts=4,25,100,16
layerContextCount=0,0,0,0
layerIndex=0,4,30,131
output=0.0002603394,0.9997396606,0,0,0,123.6852225993,14.0325161769,162.6177893741,37.9535330407,61.9171185236,0,25.7298608383,0,22.558047242,0,0,0,0,86.4548547174,0,0,55.8567556698,32.8167973657,81.8910162822,0,0,58.1825338915,0,0,1,0,21.3630900705,0.1955617428,19.2346454713,0,39.8752179617,0,42.7821079345,0,6.1630887391,13.3827273631,0,5.3426409362,0.9707628833,0,39.6344127841,0,2.663804415,0,0,0,0,25.3285038917,35.0110624592,0,0,13.7682230637,0,0,0,0,0,36.2153708472,41.8296892626,22.8534142221,0,0,0,0,18.3750088331,33.0242314007,0,0,0,0,17.3900509943,0,28.964248475,24.936290779,22.7398451153,0,17.9993159019,13.8146918948,0,11.2455387714,0,31.2070133881,20.2014082696,0,0,29.7270548424,19.4422935231,16.2867033391,0,6.092536666,0,0,9.5447962891,27.2427536539,0,0,32.5067939273,0,11.8744654872,0,20.1964172296,11.0213840159,18.3425636528,10.5878050724,0,0,0,8.209305051,5.9809805208,49.259929162,0,0,25.4302592657,24.4557845552,0,0,13.8043216171,41.8843729136,3.7789820838,25.5477227783,10.7872778654,51.7927350755,0,0,5.2582181458,1,0,2,8,2,0,2,4,8,2,32,2,16,16,2,8,4,1
outputCount=4
weightIndex=0,104,2629,4329
weights=##0
##double#4329
   -0.9633371302,-0.2893257743,0.0871997046,0.4473225979,-0.9163795614,0.1306773424,-0.5744984804,0.8000700901,-0.4723037383,-0.8667960917,-0.7874779707,0.7130321138,0.2750934259,0.9930608384,0.5510284313,0.863849684,0.8528951378,0.5476324808,-0.0699600243,-0.8617714897,-0.3367507048,-0.9953549727,0.3542491248,-0.2121823062,0.1015777364,-0.6982313894,0.9539459578,0.6334481272,0.4241005186,0.4916218828,-0.0755303671,0.0244726703,0.8842072491,0.1205144102,-0.0996916163,-0.0875248898,-0.2195411437,-0.6464353827,0.2297046692,0.1151627804,-0.2908490213,-0.4698153758,-0.6939613271,-0.7550281004,0.882123756,0.6330300145,-0.7661472926,0.0993305928,-0.8513436419,-0.4219228975,-0.2909704406,-0.7362681751,0.9434321454,0.4199394571,-0.0524414121,-0.5429693719,-0.4755721889,0.4369366403,0.4539845961,0.1451713396,0.6830515559,0.3144979035,0.0968421702,-0.059416502,0.0938093424,0.4952645876,-0.161941976,0.9134561896,0.1050960908,-0.2433770684,-0.4144792991,-0.1505699423,0.3454054659,0.6111783425,-0.4765962909,-0.7014635991,0.6435932054,-0.9464693829,-0.894457717,-0.4034445483,-0.8030944636,-0.0347005079,0.2423041712,0.2149088875,-0.2143133785,0.001843473,0.223612545,0.1000972667,-0.1761019453,0.6227688811,0.9363742534,0.6360096866,0.3904185689,-0.1798277595,-0.6395250597,0.1565651491,0.0336806556,0.5348953897,0.0616415904,-0.1502415318,-0.4616738964,0.3542482511,-0.9785858617,-0.6274102328,0.3560249278,0.8209892479,-0.8837161035,0.5863757211,0.5981737511,0.3618846575,-0.7922208529,-0.6339877819,-0.4375226458,0.2901267878,0.8712366136,0.4148799915,-0.7915587611,0.4517942694,0.2616936664,0.2377302827,-0.1196033274,-0.3411342872,0.0972378699,0.5637107295,0.5921580746,-0.078333962,0.3390245959,-0.7321519438,-0.4406165002,0.6021897458,-0.4903750411,0.4224114203,0.3985718353,0.5813118649,0.7357307437,0.322103653,-0.9042763303,0.2285211244,-0.4124695364,-0.0477192543,0.7476730003,0.6374524286,-0.0563349451,-0.5609622858,0.999110218,-0.2011335938,-0.2739585863,0.2720597105,-0.6257971354,-0.4320875882,0.6497480527,-0.0603702978,0.9574374757,0.0727912905,-0.5468255705,-0.4109953979,-0.1331052127,0.5196979972,-0.938041222,0.9535163949,0.5828209109,0.5936152063,-0.371564894,-0.8500601944,0.1913395924,0.190304051,-0.1949048133,0.9492074952,0.3869267612,0.3229069165,0.4578381887,0.3967213352,0.3985173886,0.0232697901,-0.3408831511,-0.5169114053,0.8602522809,0.8533615328,-0.9557943,0.1721892465,0.2098033833,-0.1206161289,0.0313074536,-0.1344403671,0.8258183029,-0.9364194597,-0.1293839926,0.2694616893,-0.1100415564,0.5994015942,-0.964344578,0.3262743521,-0.3724721984,-0.2685163079,0.8830713478,-0.6149457878,-0.2726298715,0.2389404782,-0.5717337389,-0.3534361878,-0.9896673663,0.2233688114,-0.316203085,-0.3047805667,0.1991390362,-0.7451703161,0.3932636362,-0.8769417058,0.9576817674,-0.9942641296,0.6348173602,0.3514178645,-0.682373577,-0.3387961224,-0.1555732261,-0.4894014281,-0.1775402473,-0.8170398593,-0.3557057555,-0.3035112508,0.5413158432,0.6953423493,-0.8730775855,0.0700210507,0.2959718434,-0.4660001051,0.6690735915,-0.732363811,0.7119904578,-0.1933538654,-0.0316293243,0.3399878252,-0.7786188371,-0.3041561382,0.0653811369,0.6567920959,-0.0501284706,0.5652618122,0.5740058684,0.9017920451,-0.1807357098,-0.5056243612,0.9920127947,0.7769795089,-0.0118459819,0.1976970104,0.6147061713,0.2780573539,-0.5563937499,0.5153001061,-0.8126308889,0.4043256181,-0.8435437525,-0.5183116775,-0.7992086224,-0.3517866349,-0.3091786112,-0.4272005074,0.8580813684,-0.9179772619,-0.9986092636,-0.4859925012,0.7832936676,0.6206467252,0.7541119986,0.349677933,0.0311707197,-0.5984941454,-0.1242870065,0.8621930453,0.3941984065,-0.9987805153,-0.5993285796,0.9600797687,0.2657294233,-0.1740885584,0.6578804159,-0.7696833635,0.0785228171,0.5493472786,0.5856546486,0.2791973559,0.8174590644,-0.8050609748,-0.932805202,0.9468595473,-0.1498450581,0.3747503984,0.6875885394,0.064495963,-0.3617956018,0.4234395583,-0.3071118345,-0.4931327857,0.1331002645,0.9312993841,0.575435001,-0.7278163272,-0.5148696583,0.3324416884,0.8753047534,0.9107530503,-0.1075243524,0.3607703267,0.2044274285,-0.4860195998,0.5358780997,0.1429210833,-0.7644482143,-0.2193253361,0.1118691478,-0.3507314593,0.4660305974,0.5950766827,-0.2430927033,-0.320180984,-0.699922731,0.1345779777,0.9175754113,-0.7129335983,0.326435484,-0.5228059264,-0.6732914105,-0.6640948993,-0.8148792243,-0.9516365159,-0.2975414072,-0.086198148,-0.154764061,0.0402271293,-0.6908752393,-0.0190723972,0.65718055,0.1317734321,0.1038723628,-0.6905495348,-0.5989505645,-0.5312734994,-0.2163028771,0.558874134,-0.4458786055,-0.1751470102,-0.0813157535,-0.0175145341,-0.9783440765,0.0235189209,0.38358311,-0.2706975063,0.2882359385,-0.2306436556,0.1657888994,-0.6764846065,0.9407510732,-0.8767440148,-0.6283946842,0.7384115065,-0.6046863055,-0.6260200816,-0.888046861,0.3746951398,-0.4416532472,0.2740895725,-0.6518218517,0.045076028,-0.7853708542,0.0961411418,0.3654377183,0.0884536244,0.633138745,-0.5300135362,0.033920957,-0.5203877103,0.6123255853,-0.2997336118,0.7408410473,-0.1522583233,-0.8613588999,-0.2727488115,0.0178475348,-0.2937952934,-0.5813935364,-0.5586531235,0.0553999071,0.6598375601,-0.0876444621,-0.3558310076,-0.8008839863,0.4698303798,0.7423401434,-0.8934768463,0.0371878588,-0.3041442345,-0.5264397072,0.5611027117,0.6319100179,0.1964265229,0.7692555957,0.5981245842,-0.6333141563,0.4429879314,-0.2163463531,0.9634730117,0.9095936453,0.719252725,-0.3570681266,-0.7750213917,0.2919071806,-0.0952426715,-0.437338857,-0.4125759519,0.6553369192,-0.5228789276,-0.1473924483,-0.2631888085,-0.3221907682,0.528255338,-0.920174796,0.8797858371,-0.0384799516,0.130711971,-0.8869362661,-0.6758434761,0.5242120343,0.4334788309,0.6968934706,-0.8696587139,-0.8875031673,-0.0027928442,-0.7943493336,0.6462864944,0.8103459949,-0.4498912889,-0.3331521243,0.1015400968,-0.9201573202,-0.5119959163,0.1183915425,-0.0001041029,0.1232937577,0.2583509521,-0.6298557129,0.5448332974,0.1649347247,0.0910178261,0.1414757619,0.8590619752,0.939555829,0.4342671501,0.425636626,-0.2692861498,0.2543566698,0.7826291645,0.9027543623,-0.3308936214,0.0038081917,0.4685014572,0.2377255829,-0.3206774272,0.1694001952,-0.9460182452,0.5770393958,0.5517944306,0.3688888189,0.8242492428,0.9998648806,-0.1744511732,-0.873751903,0.5636288707,0.0608329328,-0.0991351816,-0.4383373538,-0.0933599822,0.5938946675,-0.2434428589,0.6898944772,0.8254606151,0.1224148054,0.7235109287,0.7835237254,-0.9818918574,-0.3366269243,-0.108146839,-0.4658631849,0.7324740888,-0.4806274365,-0.5279139362,-0.2320694457,-0.5515138507,-0.5341981142,0.349536124,-0.0411730893,-0.7177507862,0.4349154646,-0.0359472671,-0.2706006439,0.7224402521,0.4149048977,0.8681087792,0.6650926113,-0.8069472601,-0.316094599,0.6417279675,-0.2016507865,-0.3669206565,-0.7749047878,0.0655207837,0.7103371585,0.5642928432,0.1997487177,-0.3642610164,-0.5622625557,0.1626326182,0.5261520709,-0.486360148,-0.2134457192,0.9795130566,-0.5195994022,-0.4838741445,0.8070926,0.2015087448,0.9114495137,0.7869876539,-0.1843870364,-0.6845541873,-0.1005892032,0.9189593928,-0.1708460763,-0.9027714177,0.8673081619,0.1891239522,-0.4143904802,0.6026802206,-0.8340386372,-0.5477635163,0.8218965892,0.9191626433,0.3003380447,0.7748645745,0.8878663623,0.8891628493,0.2626402692,0.6902404012,0.0904486287,0.2296202197,-0.8144578764,0.5177426183,0.4036962339,-0.3451473944,-0.6461862093,0.8020272718,-0.8654404479,-0.6926079179,-0.6280662608,-0.6363015089,0.6562531372,-0.9538719709,0.4660386965,0.7531806179,0.5592403395,0.8471800384,0.8842794313,-0.6378936491,-0.4937621328,0.0070663689,0.7613651824,0.4538123581,0.2944962887,0.1116104658,0.1603658983,-0.266341973,-0.0310551234,0.8029116214,0.8148141972,-0.9157234721,0.3200635807,-0.9582196537,-0.3597085671,-0.9264123867,-0.1663852723,-0.7286292065,0.465824855,0.9480960685,0.4545428004,0.8114919709,0.9939478889,-0.1810843944,0.854524546,-0.9515865058,-0.4309345047,-0.9649773718,0.6942582942,-0.9065970343,-0.9796343577,0.8213366224,0.2572426597,-0.6380490357,-0.8057015236,0.9359714631,0.9968816886,-0.4301324823,0.7974583858,-0.7259275946,-0.1774709373,-0.7627290322,0.4297053434,0.1244717298,-0.6800976833,-0.9526527231,0.8122365858,0.6356643403,0.8299914595,0.1698079417,-0.7738039853,0.6955926362,-0.2633556289,-0.1185518467,0.5248690492,0.4813035058,-0.5715336666,0.1360656849,-0.0328413771,-0.5587811238,0.5579240716,0.5499089436,0.8506834371,0.9387764034,-0.6456399766,-0.849834606,0.1148978818,-0.689559915,0.5502255456,0.2159206688,-0.2733499002,0.2398283982,0.7464329906,0.3094905654,-0.0802487802,0.4921135284,-0.6644663948,-0.9705764174,0.913370686,0.313328915,0.3516988149,0.7928495434,0.180758538,-0.8722173901,-0.8012392823,-0.3531518166,0.5927816453,0.3377919053,-0.5656285304,0.9840632252,0.8143135354,0.1573157215,0.7669906623,-0.2594321424,-0.4282707772,0.6702935397,-0.50954542,0.4182386265,-0.5906778161,-0.7994295126,-0.6154449628,-0.3567318057,0.5653874937,-0.7710627415,-0.2383690777,-0.1247879248,0.626067787,0.8687718109,0.2212268689,-0.784919343,-0.7719054007,-0.1795449258,-0.2792716134,-0.3796942755,-0.0256491907,-0.6005867813,-0.0137359382,0.0229148115,0.1561185635,-0.6779820908,0.4731580149,-0.9839086366,-0.6629749892,0.5794216554,-0.8946079734,-0.6762666145,0.1461610718,-0.5720887405,0.9108774728,0.850622361,-0.3247912856,0.0746966781,-0.4742198619,0.9468502436,-0.2462041448,-0.7709946461,-0.5366572899,0.9794482125,-0.2428462337,-0.1935928214,0.9311620892,0.0792190501,0.3212127863,0.8198778442,-0.6393700054,0.1503139373,-0.5134551575,0.6725861866,0.9946175991,-0.8044796845,0.7649143509,-0.3971524545,0.7828144269,-0.1544107526,0.8628310505,0.4640296914,-0.0281889865,0.3273266677,0.551589321,0.2288944686,0.4433005849,-0.6846630546,-0.2967894681,0.4724117485,0.756601357,-0.6176181677,0.3068536174,0.713851311,0.181549356,0.4071328615,-0.820061186,-0.5511472403,-0.7484277132,0.3014604986,0.6115149625,0.5342942598,-0.6991368321,-0.1321021513,0.8361586815,-0.8747406817,-0.8876977823,-0.9403368556,-0.8250352323,0.7400180045,0.8335530671,0.7928477625,0.9477003283,0.6268105222,0.3067042883,-0.319177573,-0.111483767,-0.3624003769,0.5943078937,-0.315688442,-0.6054649436,-0.4117711383,0.4683827552,-0.2615665354,0.6365502838,-0.6987765181,0.1853509781,-0.4437620173,-0.4078257991,-0.9359490493,-0.6170072407,0.8946100017,0.8967364955,0.37894174,0.6191419293,-0.5982955012,0.6527366118,-0.5750868342,-0.4342701317,0.2841956581,0.8207717984,0.5552054758,-0.5054370324,0.7923491428,0.6193527021,0.4540656019,-0.1219657626,0.4948656287,0.3628421538,0.0775295751,-0.1604565896,0.9282926207,0.8070654715,0.2526098476,-0.4990977202,-0.708216001,0.332085358,-0.8472785043,0.5974337973,0.4597210502,-0.9230226664,0.9856462259,-0.5926436186,-0.7593141975,0.6504152685,-0.4402988718,-0.4666942411,0.3102764402,0.4183202746,-0.1772467848,-0.4359384288,0.6356692052,-0.8278419952,0.3387549921,0.645306157,-0.9220898065,0.3608617813,-0.6523484773,-0.2452813237,0.2740068264,0.6617296213,0.3334709616,-0.2212401172,-0.7409745574,-0.4056741691,-0.7892664115,0.8224711016,-0.433551746,0.4485112429,0.7776077208,-0.5567172078,0.5706399748,-0.6529700721,0.809477477,-0.5181040419,-0.1956589798,-0.996378119,-0.667221014,-0.0320536427,-0.8844557946,-0.1234045262,-0.0784364772,-0.6842404537,0.8411582184,0.4516018409,0.2080029736,-0.3395526858,-0.6800858528,0.4238425408,-0.1548062965,0.0047624858,0.5468798828,-0.6705318231,-0.4755079148,0.8901055547,-0.3102978257,0.4829539374,-0.199916606,0.8086658347,0.3490484539,0.0368368479,0.388339568,0.7297827571,0.6092278111,0.8495019257,0.1477595761,0.0454542042,-0.6246991262,0.7726724632,-0.5520162157,-0.8704339016,0.01837937,0.7927812828,0.1999944712,0.6463744564,0.9491051716,-0.6562373333,-0.2930624834,-0.8165253576,-0.3537700462,0.0379107705,0.1565608737,-0.6705183701,0.2760066547,0.779760531,0.8280200423,0.1655607199,-0.111081296,-0.9638091465,-0.1594732601,0.2727396493,-0.5628225891,-0.6235146521,0.6980158476,-0.2302502718,-0.350402589,0.8467286785,-0.911595858,-0.506968746,-0.6286311898,-0.2035528529,-0.950820352,0.3328284842,0.037654063,-0.1113938389,0.0504118369,0.4519135445,-0.3235432255,-0.8221329191,0.219610569,0.7894891515,0.754467867,0.6519242791,-0.7098472641,-0.1542769099,0.5510119272,0.0388856151,0.449366986,-0.7259375082,-0.3900396926,-0.1002403126,0.7608706612,0.1468754285,0.277856123,-0.1272584365,0.7689619726,-0.9188462033,0.2432957209,0.7072970501,-0.6994656294,0.3677760674,-0.0083269088,-0.7277047834,0.4986658652,0.4227792777,-0.1823800341,-0.8729754772,-0.4029142456,-0.6625400959,-0.2358820621,0.0654271852,-0.7286819194,0.9903074261,0.0568758344,-0.728205763,0.2235376154,0.1198677586,0.5009735572,-0.689131605,0.2020242655,0.9856668904,0.975060036,0.3813113874,0.0487237648,0.2066590474,-0.7478122804,0.2507910985,0.3120190599,-0.773415303,0.5111031063,-0.8548593031,-0.8989763477,-0.2051253668,-0.7528855861,-0.567921251,0.4815836474,-0.1853091769,-0.5817026381,-0.9333603237,0.7989315698,-0.2177408036,0.0354082526,0.2380616885,0.8730335931,0.9731984397,0.870058251,-0.8469187652,-0.987693451,-0.3684450803,0.4655736506,0.4394397043,0.8267390299,0.6183890204,0.7267737024,0.027143432,-0.5265971176,-0.1459018331,-0.918266312,0.9523260622,0.6942141772,-0.4405191924,-0.1197950871,-0.6984244302,-0.2731547079,0.4151371503,0.8437541497,0.0837499324,0.9053988964,0.4367042168,0.2481685216,0.8754157226,-0.4804036926,-0.4028789632,0.3108421027,0.0147425268,-0.6660219797,-0.6793294608,-0.225648085,0.5396877181,0.5518323685,-0.1988276038,0.3882613426,-0.5903813603,0.3444114652,-0.4942327546,-0.5372219316,-0.9846358959,-0.477794872,0.8188935049,0.2255073743,-0.2461686648,-0.4962514253,0.6775860776,-0.1433503602,-0.735053628,0.1151826477,0.6452868738,-0.28812442,-0.6684926868,0.3103870823,-0.753956323,0.090992688,0.3011508944,0.718328854,-0.5089516025,0.3335281374,0.7957800108,0.2184193668,0.3217229687,0.9434014156,-0.6469243526,0.5243104304,0.4354078749,0.8127003433,-0.8845145673,-0.2880717637,0.1142553833,-0.7986786325,0.7361180572,0.9097151623,0.4484845975,-0.6226812919,0.0370000838,0.7070285566,0.9339818332,0.1947417686,-0.6485456867,-0.8536707235,0.9781811187,-0.0610339715,-0.2318025901,0.0434605179,-0.8603360701,-0.2664604155,0.0203122619,0.3198699747,0.997984473,-0.5088277463,0.3888537184,0.2459147791,0.0673051697,-0.8212520818,0.948437516,0.9100091086,-0.4361185499,-0.9303370992,-0.9334502369,-0.3611261176,-0.9637186268,-0.9201469206,-0.951460862,-0.1925631854,0.0659330199,-0.6400512417,-0.6880463532,0.3089986051,-0.7964149616,0.6797875632,0.6481626777,0.8901348608,0.327440733,-0.6856586954,0.5183526715,-0.7253179521,0.4792026669,-0.2943890078,0.0430220503,-0.3944630715,-0.517854001,0.7189803837,0.5073765712,-0.501821953,-0.9091152386,0.5458126254,-0.7487848184,0.4095788229,-0.6732888832,0.054857703,-0.7927008515,0.0831571968,0.6668388601,-0.4106947589,-0.2086575564,0.0924366637,-0.7809241349,-0.3352000896,0.8705834408,-0.4918479497,-0.8180377843,-0.8115577246,-0.7555154868,0.0910631215,-0.1083482152,-0.2345635167,0.4497067883,0.1622965963,0.3687208564,-0.8447807609,0.6211246024,0.121530785,-0.0478203696,-0.9308255196,0.3797238004,-0.7038883829,0.4950478375,-0.0627807371,-0.411056943,0.8152376025,-0.0021691368,-0.7906385689,-0.2748850471,0.3650165606,-0.0947209888,0.3194574773,-0.0766991263,0.5399688907,0.7388524473,0.767010654,-0.3753508728,0.9005107825,-0.9390632833,-0.0839836801,-0.5407837177,0.857800437,-0.807660013,-0.3374286668,-0.6315773097,-0.7704589362,0.58740574,-0.0039544714,0.4809857219,0.9549307479,-0.5619754752,0.6044417095,-0.3478978303,0.4782006605,0.9510184401,0.8330961751,0.4365749758,-0.9984088496,-0.9726109483,0.0049860879,-0.908680421,0.0484050823,-0.8885415202,0.182453793,-0.175416312,0.3031232709,-0.9992915318,0.579329744,-0.9656610884,-0.5693343294,0.3859592868,0.5481999328,-0.4511582092,0.4746861773,0.6297350803,0.6138093935,0.934482228,-0.0185666174,0.6807385699,-0.4480988134,-0.7950764744,-0.7290358555,-0.1669945131,0.1687468087,0.362644007,-0.0682876243,0.0208498219,-0.0861133056,-0.36352954,-0.4839909683,-0.3993098919,-0.5586622666,0.0838496102,0.0773180642,0.8969509789,-0.357571273,0.2830362516,-0.1815670451,-0.9654616225,-0.9183487028,-0.6468306662,0.9935470447,-0.9957819597,-0.5118447131,-0.6923719561,0.5484977438,-0.3664173038,0.5418719574,0.7358763846,-0.9855981218,-0.9024175081,0.7506935168,-0.3078878128,0.5535863477,0.2051435158,0.2424862188,0.2570183407,-0.8970294286,0.7890122288,0.4958743437,-0.4857056981,-0.3092292657,-0.1508835844,0.1647429088,-0.9458254218,0.0049570037,0.0752316514,-0.4486271366,0.177725886,-0.5522472117,0.6849701477,-0.7481434451,0.1309138765,-0.830337046,-0.4483098049,0.8708414744,0.8576734594,0.2218277414,0.1754032701,0.8635612719,-0.6088908324,-0.5532684957,-0.5870289064,0.7022171126,0.1606996388,0.7718625881,0.1089522847,0.9876028466,0.8731320024,0.5437403476,0.7845969204,-0.5648234602,0.8097271165,-0.4076643545,-0.9598276597,-0.4540793199,-0.4065616794,-0.7340359268,0.2529674082,-0.1201039444,1.5018619191,0.9534421643,-0.6004932869,0.1781904597,-1.1305662721,-0.4221003059,-0.3947451659,0.4894314757,0.225825243,0.172604269,1.2067450008,0.3621845861,-0.4373288459,-0.1121149952,0.1932709781,0.1377868646,-0.7264149405,1.0112544715,-0.9457630948,-0.4574285618,-1.3421660043,-0.4146801964,-0.7697192219,0.7187699077,-0.3772874512,0.0169625464,-0.07914779,0.741740753,0.5425921281,-0.3849401967,0.7040475926,0.2054162372,-0.7087116176,0.8264636348,-0.8297572366,-0.3904784086,0.1633354895,0.6362849059,0.3072506362,0.3360710365,-0.493853772,0.8557816142,-0.182177395,-0.6715933709,-0.5583736044,0.859831238,-0.2130385788,0.7129185165,-0.9981607675,-0.8481348599,-0.3028727084,0.8633206296,0.0415685814,-0.2030306204,-0.8811069366,0.6091618909,0.6323943962,0.1581789598,0.1865976875,0.6203646191,0.1008963265,-0.6433495466,-0.6302830699,0.9122482701,0.0478457099,0.2340832403,-0.6672382195,-0.2385148212,0.7346581068,-0.8260246364,-0.7734138536,-0.4229130343,-0.4917511344,-0.0669153047,0.0463634897,0.0740369695,0.3514384887,0.4878943365,0.0081094389,-0.4606067643,-0.2111787025,-0.8507663993,0.4905185956,0.9110703669,-0.3174534634,-0.2957526733,0.0779797347,-0.2852983099,0.7252980676,-0.3509696873,0.7987716106,-0.7414026087,0.9695154789,-0.9623259376,0.913879926,-0.8160688464,-0.4587360734,-0.3623960695,0.9543264032,-0.1508874948,0.7151305613,0.4576472783,0.0101421742,-0.389528422,-0.9177419316,0.2701074468,-0.631160831,0.750029017,-0.7288190606,-0.2027633424,-0.7329458556,-0.2272468105,-0.095802883,-0.0473591445,-0.616461015,-0.6291747127,0.7015347922,-0.9369719674,0.1125517267,0.0560869168,0.0591647735,0.5922631545,0.0756409854,-0.9397447609,-0.9509197862,-0.4351886358,-0.3633412363,-0.576108159,-0.4096096192,-0.1853016881,-0.5585337208,0.5487814923,-0.8752156497,0.3083529395,0.0204798129,-0.9681899269,-0.3649555611,-0.1272410574,0.0359292201,-0.6560246764,-0.4309541821,-0.3022305794,0.1834649673,0.0438061744,0.4673843602,-0.6685047314,0.4948377183,0.0926096354,-0.7123123006,0.0963690111,0.4661803872,-0.6395019243,-0.6884773834,-0.7182235012,-0.4189582915,0.2390290316,0.4311839458,-0.6681851237,-0.897718777,-0.4067907029,0.1546671267,0.5399810051,-0.7941185671,0.7649131015,-0.1915885049,0.2344164979,-0.3129672427,-0.8636213002,-0.9875676204,-0.3604930735,0.3631518319,0.6426485245,0.9920819945,-0.8660554826,-0.9025622697,-0.0686151106,0.4447809868,0.5438914515,0.4342212891,-0.554507352,-0.8999935995,-0.4977741168,0.7072691307,-0.7179501855,0.3035174407,-0.7083321044,0.1192200278,0.6996995546,0.1056800831,-0.1823702418,-0.4519936396,0.0521631627,-0.8334424095,0.0231825785,0.3785769052,-0.4635188208,-0.0625549784,-0.4576734547,-0.0471647744,0.3272980641,0.6816623266,-0.6856563252,-0.412899997,-0.6384025588,-0.041290428,-0.3628632575,0.482451912,0.6266176097,0.4743659212,-0.8889476479,0.7968052829,0.5817326684,-0.5158256811,-0.0809479167,-0.4785928294,0.192007615,0.2183968305,0.515047171,0.6586496883,-0.2279309031,-0.9483220219,-0.7640868988,-0.7097905867,0.6506622414,-0.6765242641,0.6065416199,-0.3163696407,-0.7116450024,-0.0975679928,-0.1964356697,-0.8330681951,0.1525385336,-0.2717814081,-0.6825026439,0.584728254,0.297584345,0.8041129008,0.6651243756,0.9415460581,0.8845864117,-0.2713412455,0.2092032205,-0.3151804645,0.9275789654,0.4522437397,-0.2180093003,-0.3377382737,-0.5889392641,0.4040511716,0.6394203081,0.9722321032,-0.19213318,0.3062956795,0.0172814788,0.0513718473,0.1228577598,0.4485062886,-0.2659711209,-0.1238434871,-0.6243189425,0.201897045,0.9299150307,-0.5355228443,0.4292289948,-0.9360780764,0.428381406,0.5960424707,-0.889362003,0.065898582,-0.3921501149,-0.2761664351,-0.0428263281,0.6272796907,0.559106529,0.5377949296,0.9428886232,0.3364715079,0.8280718643,0.432993783,-0.7905701747,0.1847346074,-0.3323647017,0.4424227513,0.6129428045,0.9828575783,0.3578928881,0.4530197183,-0.6463447962,0.9736543292,-0.8693408015,0.3607100618,-0.5527210389,0.4032693079,0.6811779603,-0.7913059032,-0.6861980952,0.1699773484,0.6211891975,-0.4607233454,-0.3366583961,0.5451499377,0.1729615925,0.5142656337,-0.7453084956,0.2669920951,-0.4058945687,0.6414010581,0.8790412776,-0.5077994276,-0.6370458647,-0.8712955499,0.0795815694,-0.2189979303,-0.6788175816,-0.9567414821,0.0300905642,0.1139844206,-0.4562053544,-0.8752814076,-0.4264466977,0.094235838,0.3888363159,0.744882998,-0.2173792665,-0.2033337972,-0.9442365931,-0.9929301927,0.7465532268,0.2351619826,0.8666440055,0.2721365295,0.8377394799,0.9208106057,-0.7954047969,-0.2893295006,0.8471041378,-0.3875365824,0.3147809026,-0.9974802215,-0.8211573278,-0.1187423307,0.4217544525,0.6473509685,-0.148517478,-0.421736912,-0.3091421224,0.5175244405,0.8548144665,-0.6075973814,-0.5739456802,-0.929844758,0.3005705281,-0.8123440046,0.2061260278,-0.7408094745,0.8518177347,0.2757251681,0.4140443197,-0.9703106029,0.1991209674,0.7222679605,-0.4248028292,-0.0920532155,0.699793539,-0.9331396128,-0.5380530417,0.9674654837,0.0172782622,0.418530411,0.7708616297,-0.4098124085,0.4287299483,0.6143263295,-0.1168572608,-0.4473545521,0.7603966902,0.8751613586,0.9906596401,0.1082164469,0.1138051244,0.9168147274,-0.0851822506,-0.8815682512,0.6634203886,-0.3644499936,-0.3304115413,-0.4358549727,-0.6563176393,-0.1892659637,0.0218415268,-0.8077632614,-0.2442284116,0.9993409551,0.9718306038,-0.8443651886,0.2440243522,0.4427846201,-0.2388957535,0.6242919453,0.3882659811,-0.5244189304,-0.5573733134,-0.3784209661,-0.4253087261,-0.9411179757,0.0437700555,0.598758785,-0.7916300376,-0.2441024293,-0.5920520977,-0.6025553084,-0.7531919274,-0.6847688841,0.4099328403,-0.1729956339,-0.8507019815,-0.8684627368,-0.1796211314,0.3770347025,0.1883918887,0.9841560356,0.5321410901,-0.1845644386,-0.5982390745,0.4965808731,0.4488647152,-0.0652551043,-0.637677439,-0.4192639878,-0.9329629095,0.392588538,0.0276486954,0.8985741758,0.8134551299,0.8467932484,-0.0209507608,-0.8524467391,0.8769534562,0.0430617293,-0.128451074,0.4643502722,-0.2898709594,-0.1219669874,1.1067114253,0.0050865805,0.2710135411,0.6664273714,0.538659934,0.0346192038,-0.9963247004,-0.6648191458,0.750601136,0.0541191844,-0.0226019627,0.2018802235,-1.2318812883,0.0926805412,0.0363124789,-0.7964741974,-0.8958640405,0.2506596706,0.0599646866,0.0304393304,-0.8186296791,0.0463111492,0.2823276796,-0.1703892495,0.7851789648,0.093129701,-0.41322339,-0.6758282366,0.9634098379,0.5148792904,-1.0943806287,-0.0133846979,0.8574179741,0.0208660192,-0.2842320217,0.497776841,0.3708843666,0.8802636087,-1.7245952507,1.7030652836,0.2607990849,0.8992509714,-0.5158645118,1.8149502493,0.1161773779,1.362124888,-0.8474383718,-0.1800643101,-0.7698400519,0.1294215219,-0.2031680902,-0.3243321499,0.3516773591,0.540105405,0.7681756436,-0.6429568327,-1.547453664,0.3883262424,-0.8361610654,0.1136597903,0.0234021017,0.9149472626,-0.0416686569,-0.0305218677,-0.1852037209,0.0163888588,-0.0391325975,-0.0499903099,0.3908070858,0.4428950168,0.2128701665,-0.7595772335,-0.5057878697,0.9514165926,0.5808836087,0.0762634361,-0.52405808,-0.1877245998,0.3177855874,-0.0743154436,-0.6764055761,0.7602895257,-0.6261640409,-0.281094076,0.990495238,-0.482731734,-0.8235056276,-0.2189101384,0.2393164962,-0.7243541155,0.9622919811,0.1831615163,-0.0102682645,0.9459133634,0.2721260083,-0.908947271,-0.7724639514,0.030251351,-0.8119220815,0.3362311328,-0.7195723069,0.0627971093,-0.9379228527,-0.5154250988,-0.4224123271,-0.1505294024,0.8554027898,-0.5534110562,0.8916836948,0.9401427893,-0.7872677457,0.9450528432,0.9046062202,-0.034615526,0.6769978137,0.824276049,0.8162781736,-0.8664133843,-0.4494275032,-0.849856295,0.556223391,-0.9881809325,0.8382351392,-0.2073675048,-0.2089355926,0.1925788241,0.7843491264,0.0041420448,0.4152107601,0.9990636868,-0.8203589415,-0.5581974663,-0.2649411803,0.141003023,0.3306007338,0.3516086871,0.7995337939,0.5682235767,-0.1497268616,0.5719252954,-0.7403265796,-0.8415579338,0.0938570415,-0.7443857347,-0.3220521926,-0.2631626637,-0.7810667795,0.6326955666,0.7761308941,0.8469335058,-0.0629851446,0.5083289784,-0.7436870937,0.5744673361,0.5033364819,-0.0922545627,-0.6049675515,0.2455574483,-0.1305559527,-0.1561673524,-0.7186107234,0.0181742398,-0.9461277511,-0.2808032846,-0.9528758481,-0.4845343743,0.1424985277,-0.6341387952,-0.7579733565,-0.2218651988,-0.3583097251,0.6985726548,0.7980835407,-0.1746243247,0.3452690993,0.28629807,0.3651230901,0.4760389774,0.5501744115,-0.5034472726,-0.5725873985,0.7183773051,0.855737099,0.4032766046,0.1687682928,0.2218755675,0.6475102118,-0.8809053572,-0.7036364947,-0.4616855396,0.568610669,0.4781082621,0.2476713156,0.0928536609,0.3275524489,-0.6474419114,-0.7927611159,0.2028184713,0.2549447165,-0.1600997312,-0.0367643286,0.6892351203,-0.7789298413,-0.3337610477,0.1598924731,-0.3279638548,0.1718081623,0.5508733078,0.8158516065,0.702111659,-0.8650187693,-0.9680183276,-0.9868943189,-0.7682485978,0.3283421261,-0.1425081002,0.3874128482,-0.6710888677,0.5745713463,0.2350888515,0.7515573777,-0.2025683766,0.4901973113,-0.6616121086,0.2299837419,0.0717538873,0.1974156177,0.5814320279,0.0675111619,0.8979576638,-0.6855218623,-0.3456667524,0.3568664399,0.4737412292,-0.1456283981,0.348661991,-0.3580784949,0.341698714,-0.0503970183,0.7018303032,0.9472606071,0.2666719077,-0.5260857969,-0.763248483,-0.9703846234,-0.2225412293,-0.5296909179,0.8015897078,0.7394284376,-0.2960881538,-0.2747086465,0.8253698463,0.2952716184,0.7970030155,-0.6271797626,-0.3961717627,0.9623002337,0.1861059048,-0.605474106,-0.0401095942,-0.3537323566,0.6386889801,-0.3496799938,0.7239519357,-0.5145267359,-0.4225278148,0.6263469028,0.1140456143,-0.9568409289,-0.8283818145,-0.4967245529,-0.3635761911,0.9574864571,-0.614992953,0.7861201455,-0.4324322163,0.1361354976,-0.1801085149,0.7626440315,0.4523704987,-0.2562750918,-0.0262617908,-0.5427873302,-0.4880687426,-0.0391182041,0.2216214979,-0.6727100291,0.8938224132,-0.3931778586,-0.8096256303,0.7423168485,0.9635511146,0.507852983,-0.4295919905,-0.7270690796,0.7905787078,-0.9763776637,-0.7230594325,0.3695679898,0.7920969019,0.6528227649,-0.5725172214,0.7239798717,-0.9716545025,0.7674193036,0.9001852891,-0.7221520899,0.8949735506,-0.5924161156,-0.5752639185,-0.687109756,0.1413964812,-0.0483579808,0.2673883833,0.3827586122,-0.8439227676,-0.1275677556,0.075440406,-0.6303596266,-0.4349805086,0.7164437804,-0.1289653548,0.206281348,-0.586369749,0.9103887916,0.8291159406,-0.5463502019,-0.0696104021,0.2431093275,0.5017164486,0.0887539915,0.7319644819,-0.8807656075,-0.508173326,0.9860298789,0.7739906091,0.7647912017
   -0.4766810909,0.6212076605,0.4338616893,-0.1347107977,0.3205926344,0.5456778086,-0.7939229671,-0.3192812191,-0.0151664871,0.451557819,0.126982465,-0.5077338018,0.2753155493,-0.7740493124,0.2021457205,0.4303426933,0.0309478803,0.6243754323,0.1611552157,-0.7981253349,-0.8002568588,-0.8160733424,0.327108777,-0.7385419192,0.4459661696,-0.3475365142,-0.6764803536,0.7816923038,0.1089572811,0.5479659729,-0.0664166297,0.4197726587,-0.8307975642,-0.3827258195,0.5863481649,-0.1194096588,0.1931984717,0.5806074434,0.596419163,-0.0448990318,0.4173403841,0.4362453959,0.8707064453,0.8166582725,0.4066001861,-0.9296787999,-0.9923868891,0.3238855052,0.5198270425,0.053802775,0.8250394224,-0.7721676739,-0.0603675075,0.2700945377,-0.0053700035,0.8275839678,0.0073174521,0.1632753539,-0.3478145276,-0.8720658574,-0.4875386888,0.4226808649,0.4050854121,0.5976473155,-0.4837025011,0.3734405083,-0.2232714314,0.1679075976,0.329332585,0.5228364846,-0.4551759073,0.3702455576,-0.3582501838,0.234075287,-0.1444620574,-0.3772015209,0.726069896,-0.8083216719,-0.8844434281,0.6093857033,-0.3525543991,-0.9327608316,0.2753321717,-0.1122392674,-0.0650292411,-0.4896354909,-0.0967943794,-0.6607267111,-0.8396100916,-0.9641821371,0.4733494092,-0.4281819838,0.3237586699,0.7475617573,0.2673022838,0.0552841733,-0.8528312713,-0.9730471641,-0.7210372536,-0.6853671857,0.9950717276,-0.7169421004,0.3551782012,-0.1059885565,-0.7433250158,0.0516948523,-0.7410550531,-0.4891672585,-0.0018595201,0.7314525659,-0.1837811683,0.0794467097,0.567510904,0.752248459,0.0952776217,0.4581155874,-0.8563157856,-0.9674026593,-0.2204979526,-0.70236991,-0.2176041119,-0.8740743315,-0.8130966758,0.1945477663,-0.7265871832,0.6407764648,0.6726620348,-0.9695854913,-0.1853032511,0.9941228122,-0.3463823172,-0.9615562629,-0.9981446581,-0.9820851699,-0.4371131928,-0.0690228123,0.566142572,0.7448082597,-0.7562768537,0.1685266367,0.5010682952,-0.2364076353,0.7175805937,-0.7183909061,-0.0414628218,0.2892861596,0.8376406257,-0.9467556063,0.1065366784,-0.2209705583,0.9384154245,0.1413215514,-0.3945469718,0.803300394,0.0679774066,0.2502227275,0.4207433306,-0.0866425468,0.7523476399,-0.654023668,0.4746427261,-0.7877437228,-0.9787467485,0.7802936466,-0.7748506498,-0.1897218491,-0.5395282371,0.5123017317,0.7691051885,0.338198711,0.7680638232,0.0610436597,-0.9748685202,-0.2419071975,0.9739920201,0.9903179605,-0.5984606963,-0.3739484883,0.9253647702,0.1693766564,-0.3674762769,-0.1963391915,0.6089239416,-0.8244593429,-0.7179622784,0.6254227193,0.2946645416,-0.7390447024,-0.4140267013,-0.0747544606,0.8857459663,-0.7882460308,-0.6209208102,-0.3954179312,-0.3246046512,-0.2823415605,-0.1960311485,0.8885729164,-0.6950350657,0.9552780101,-0.8595245561,0.5564990113,-0.026390882,-0.1655673521,-0.1371749025,0.2131950954,-0.1356516576,-0.7929174635,-0.6201155273,-0.9363387805,0.1503589112,0.4420557572,-0.0588499893,0.4315789077,0.6287171064,0.6988514875,0.3244850585,-0.8080168571,0.4904993792,-0.3340712773,0.483429439,-0.3227080723,-0.9216797304,0.2410083102,0.467469763,-0.2960630232,0.0117509951,-0.0673994711,-0.4507079414,-0.6263596357,0.5209083431,-0.5715812298,0.5016594647,0.2041391127,-0.2280563863,0.9482396066,-0.2977737771,0.7228697381,-0.8750367384,-0.7466229741,0.0941736983,-0.1995147005,0.3876660434,0.3049383182,-0.7111522622,0.9616994471,-0.8387251289,0.4953766681,-0.4599926466,-0.999533523,-0.2127742883,-0.8979496375,-0.1820150523,-0.6317788375,0.1368253241,-0.4041714626,-0.4776175184,0.5665309032,0.5294903429,0.9956330913,0.5227778916,0.3530336414,-0.9130633507,0.7788070982,0.9814087533,-0.6908092035,0.7573112738,-0.5477228227,-0.5186317183,0.0579779683,0.0616924742,0.1955731681,0.2852044494,0.1279431188,-0.2312504319,0.6074014885,0.2889981514,0.0640942187,0.474016008,0.4595126256,0.3949928883,-0.3518388263,0.7262459066,0.181154387,0.0310654552,0.0655280379,-0.8093546413,-0.4690404212,-0.2662506772,-0.121378478,0.5829256217,-0.7252128946,-0.6258006842,0.4981214328,-0.6886106075,0.1640589457,0.349037261,-0.1527659993,0.5734939041,0.3133209452,0.0952828722,-0.2377309567,-0.5136547685,0.4024744218,0.1668482222,-0.1537879947,0.2852345716,-0.6380066337,0.8620980369,-0.9098102198,-0.4503871192,-0.4902196428,0.6679985474,0.9770618224,0.3320340455,0.2535062545,0.1223055891,0.5538217086,0.9877023912,-0.9238960306,-0.08791048,-0.4656940736,0.3881187124,0.4486374421,-0.1499268677,0.1493178029,-0.9741599281,-0.4455761435,0.7774065038,0.9298761926,0.5689536121,0.2354314032,-0.6915457403,-0.8301236836,-0.4082212971,0.6931334938,-0.2390069854,0.0245489643,0.4218766633,-0.8031387252,0.1365902714,0.8090087775,-0.6485044198,-0.919912845,-0.9720701478,0.8992329353,-0.8927671794,-0.994839016,0.7042533656,-0.3787563156,0.7257549137,0.7720879539,0.7320978527,-0.1603890851,-0.2282754117,0.1975025202,0.5061830757,0.4831216461,-0.9139938169,0.3227834107,0.0742736116,-0.6905804675,-0.3389069645,-0.2053038395,0.5830824548,0.2177304965,0.2275285092,0.4051036158,-0.1113546162,0.484046772,-0.2932038991,0.4601211862,-0.0179985677,0.5729203955,0.8579692621,0.1756272206,-0.4800574044,-0.3880632791,0.7890227296,0.585012564,0.6841325567,0.8811905868,-0.5208914182,0.9805861476,-0.176416582,0.3526592965,0.5012638651,-0.3905512092,-0.728294188,0.2319264453,-0.0794074341,-0.1723890873,-0.6267892007,0.2302318296,0.2119140133,0.8945007805,0.4944122807,-0.2240212711,0.0833083395,-0.6175808029,-0.0978405863,-0.7443577534,-0.111316879,-0.3502920789,-0.5226746638,0.8790379524,-0.6081653898,0.2882312311,0.623295556,-0.1061016048,-0.9747804802,-0.8700149578,-0.6135409329,-0.7547889638,-0.9959093585,-0.0584838896,0.8466450268,0.9020489484,-0.3292127889,-0.377150189,0.8459086039,0.2746620925,-0.9585529703,-0.1745875219,-0.8966966765,0.4944136702,-0.8827925385,0.3557415935,-0.3993490632,0.4984658762,-0.7750598859,-0.7075104804,-0.0661104289,0.1911003976,0.3115162673,-0.8417746945,-0.2997202379,0.9552245297,-0.4631187105,-0.7389901065,0.1888895737,0.9497085404,-0.0707576269,0.8908596893,0.8925375579,0.5804565054,-0.5750809639,-0.7353664738,-0.3006102068,0.6502678334,0.7854638482,-0.8574040231,0.4167049639,-0.6398429815,0.4323586253,0.3513682356,-0.6695099164,0.4036794946,-0.8156182694,-0.0967738599,0.8999129661,-0.7074775091,-0.7010667141,0.6014940597,-0.1093514333,0.8739717185,0.1752853727,0.7603192218,-0.1608143703,-0.1055755721,-0.7545481436,-0.8125385447,0.6710767897,0.9067953744,0.3972902312,-0.7532432155,-0.1220745836,-0.1830670643,0.014422143,0.5631485648,0.1737051741,0.2151797768,0.9787531323,0.7344513565,-0.1839369574,-0.4537600279,0.6159592377,-0.1789411587,-0.0613790502,-0.0908806356,0.5085949285,-0.219566432,0.8714745529,-0.653694558,0.7944350175,-0.7500117114,0.4491201926,0.37476711,0.9948099152,0.1549740482,-0.0608917416,-0.3763275588,-0.3799948546,0.942927339,-0.8813665647,-0.274095133,0.8335206747,-0.4527534889,0.3939796151,0.3829938644,0.7141276444,-0.9831175313,-0.8585276225,-0.8625601722,-0.9966981567,0.9683915021,0.3708106542,0.2375147838,-0.7854528287,-0.4648457988,0.3943695663,0.1186681146,0.9768139865,-0.1167335352,0.8063042671,-0.6833282923,0.8012349488,-0.6787962424,0.2273153171,0.085812416,-0.2774838063,0.6496145386,0.8481998691,0.0804514724,-0.9971629069,-0.0538672225,-0.0905531738,-0.4867776591,0.4330839268,-0.9927867603,0.6513255845,-0.9386475507,0.4216814056,-0.1359113192,0.3346533489,-0.9425413536,0.1313698543,-0.4424385516,0.7572273131,-0.0765552042,0.119336241,-0.0006200468,-0.1176143383,0.6327434511,0.2105207299,0.4642739504,-0.9485481777,-0.8663585167,-0.6084117431,0.3497453464,-0.4455518689,-0.8688784343,0.5545843449,0.6110376324,-0.2210659005,-0.5968988436,0.0405430238,-0.0573488726,-0.9353709241,0.1834041113,0.8502834374,0.265984835,0.093295789,0.3556974987,-0.4514911087,-0.4855781046,0.2327992095,-0.3471449512,-0.4245792255,-0.891509721,-0.4125510547,-0.9421628876,-0.9837405256,0.1242868198,0.0768101179,-0.8878294343,-0.2931310254,0.9991613871,0.4986386152,0.3201055974,-0.9955763975,-0.9828770886,-0.4925479243,-0.9021205656,0.892994676,0.1897766005,-0.3252079143,-0.4507028782,-0.9156755926,0.2903660354,0.5274281237,-0.0703380445,0.590567831,0.5302890925,0.3582047399,0.3845078003,-0.7824135337,0.2370902111,0.4024731586,0.9141613401,-0.1745780824,0.9273484856,-0.7288089257,-0.8042888322,-0.3332588138,0.3006673334,-0.2148781295,0.9198446761,-0.2417283972,-0.7328525272,-0.0342368845,0.6639661017,-0.0265081724,-0.3718739525,-0.4995716253,-0.8881417932,0.931269178,-0.4152915079,-0.8306454604,0.186426714,0.3203314711,0.5139242321,-0.5823228118,-0.3413587576,-0.8514928602,-0.2204654434,0.6781635295,-0.8397754896,0.4693098446,-0.4703903365,0.9703500925,0.593170863,-0.3105411262,-0.1426106374,0.8334734863,-0.6351909441,-0.0266438854,0.1347393178,0.3253556155,0.2323388538,0.8078622971,-0.8407789459,0.6659632646,-0.9409944388,-0.6729560408,-0.0601109334,0.71932975,0.5042105675,-0.8408021972,-0.759130747,0.8986875139,-0.1789868357,0.6810699304,-0.556150964,0.7953678117,0.0575940602,0.8341340194,-0.684234203,0.9024936081,-0.9981389269,-0.7135151711,0.9697596867,-0.3255095645,0.8739346391,-0.5121039672,0.8659072839,-0.2518509555,0.6972664812,-0.2661453745,0.4011747096,-0.1946814092,-0.9051910056,-0.3121379416,0.6646861274,0.3687744646,-0.4201406924,0.3720007722,0.1635135539,-0.4467709208,0.9732180516,0.5807670991,0.9117176742,-0.4342613113,0.8715319581,-0.3336776067,0.3371622117,0.5288669792,-0.5436437733,0.7348043978,0.8058772073,-0.069400022,0.1928199551,0.7008988096,0.8362736474,0.5374514555,0.3113511951,0.0070743386,0.651426469,-0.6942125949,0.742550099,-0.2821911842,-0.1994877777,0.6825509539,-0.6665687687,0.5417113505,-0.6840392032,-0.5478841266,0.1641330393,0.9222560593,-0.4631387416,-0.8270710173,-0.6553443477,0.9168507652,-0.7475863838,0.7797876313,-0.6699336573,-0.7051961469,-0.3056383473,-0.2454529375,0.2844379439,-0.5098847006,0.7941572475,0.9450878984,0.4202065497,0.4696918789,-0.8004687598,-0.4236039345,-0.7400777334,0.4107387523,-0.3424584935,0.5302280727,0.7971533139,-0.3901873029,0.3522374603,0.5666601142,-0.1982848186,0.0714633714,0.8713151733,-0.4488049931,-0.6028054862,-0.5165782654,0.8492674268,-0.3952170073,-0.6111079397,0.879110968,0.8884435772,0.8772811628,0.073649382,-0.5308596101,0.5562278933,0.6896749542,0.428321491,-0.3304039058,0.5850351164,-0.7389339584,-0.954736324,-0.0763004704,0.8096837065,-0.9369354723,0.2559003132,-0.0983826962,-0.6494505256,0.4215229513,-0.8468479342,0.4862990733,0.6782733696,0.2709531879,-0.9953806268,0.5058972456,-0.4899201828,0.9614829104,-0.5237979542,-0.5172392881,0.233717605,-0.8332539472,0.9601221283,-0.7876932982,0.6983992325,0.6163990535,-0.1156366343,-0.9511496644,-0.9897110093,-0.5415611733,-0.4954076801,-0.0706170041,0.0340711708,0.5697000153,0.2839582606,0.7188094009,0.0883974175,-0.6150593037,0.1309921259,0.1884429015,0.4553361625,0.7796607256,0.4404744357,-0.287005204,-0.1529206489,0.8235675913,-0.6369407537,0.3140686323,-0.070983417,-0.0408030208,-0.175802738,-0.2415226641,-0.0650879613,0.602495355,-0.4703971215,0.6428989681,0.5158041258,-0.3490322859,-0.2311081666,-0.0955581296,-0.0180654554,-0.1255752284,0.2929949882,0.0572502961,-0.8197100464,-0.7789891349,-0.6400025036,0.6951058852,-0.4364227407,-0.0653924165,-0.7110514901,0.1468658348,-0.0656948305,-0.1805165907,-0.24268737,0.0869199898,-0.5477761253,0.2717330694,-0.0586244638,0.5823633071,-0.0382012537,-0.6389105327,0.7183665053,-0.3629472246,0.7374760173,0.2861290513,-0.5255545161,0.2607813447,0.0223150321,0.1272899797,0.6649818096,-0.0349180312,0.0044831828,-0.7655639166,0.5370472652,0.5061493591,0.831230013,0.6354761442,-0.6164073398,-0.7636474884,0.4438805876,-0.3449480403,-0.0766907761,-0.0313477174,0.1476849481,0.0945031514,-0.1227659564,0.4221710113,0.1155553382,0.1121391569,0.1861391535,0.8304107782,-0.9687404903,-0.3486433302,-0.1404614773,-0.976866161,0.1865631896,-0.1482803162,-0.3686670587,0.2263610903,-0.4868908749,0.7339858685,-0.4129554177,0.9299311501,0.3395161002,-0.2102783164,-0.776983367,-0.1900558067,0.2397853374,0.0087453607,0.3444488606,-0.9940002128,-0.3439518337,-0.7285532371,-0.9148851423,-0.8673354495,-0.9421062496,0.1707545542,-0.3688114594,-0.4571811987,-0.4938554359,0.5942693755,0.3686484999,0.713623316,-0.9749724716,0.7337866393,-0.9025321951,0.7521799188,-0.3815175108,0.2624597802,-0.992074894,0.0673304608,-0.8499011788,-0.4275822668,-0.1260974538,-0.9152556997,0.3464399879,-0.3719281534,-0.8182059478,0.0352922217,0.106994209,-0.8632695943,0.2966233778,-0.7603887237,-0.3394169403,0.8394488622,-0.1880744484,-0.6528612427,0.5747154125,-0.9696773342,-0.1682857478,-0.0434569978,0.2088377745,-0.2725213823,0.6259955116,0.0525727857,-0.946794155,0.1979682571,0.1590436924,0.9319945542,-0.5992104329,0.474016745,0.8137908213,-0.1810449941,0.0221299428,-0.8642435278,-0.2761357521,-0.6897305668,-0.1847768358,-0.5081584367,-0.9829680799,-0.8193244078,-0.1684006646,-0.888102289,-0.0544941388,0.7530134059,0.1162151449,0.5162822842,-0.4645947253,-0.7744244386,0.0487458264,0.3126018452,0.5649727073,0.2235384888,0.6090194297,0.0795216625,0.7214597826,0.6573769121,-0.0560074329,-0.6211932705,0.8932564361,0.5069199384,0.009664441,0.2910347664,-0.0446738848,0.7679898351,0.7658862878,0.153046314,0.8139641553,0.4929993703,0.490505504,-0.8692772089,0.5250973364,0.0125134058,-0.4005841402,-0.7864030942,0.4918403293,-0.7279445191,-0.0135656017,-0.1566695086,-0.8888869897,0.2211713904,0.977569032,-0.9561780392,-0.2362910516,-0.7338038824,0.5993945759,-0.5275084175,-0.0359586668,0.5237749831,-0.6800191981,0.7217704073,-0.3305203235,0.2273531814,-0.7780439183,-0.6089816934,0.641396049,-0.3594235951,-0.2247292392,-0.6845947931,-0.9515897984,0.9519639234,-0.0619504109,0.4323256759,-0.1938711272,0.3031414456,0.5620917489,0.7132363617,-0.1329128918,-0.382689523,0.9326237809,-0.3924349245,-0.3296880535,0.4159214263,0.8215207094,-0.3591171264,-0.6319573692,0.9445995175,-0.7200805789,0.4626144724,-0.8354817049,0.0192828154,-0.0854602976,0.2704541868,0.5222367691,-0.849355858,0.0929441503,-0.8299925102,-0.8169971519,0.937558302,0.1522678332,0.8540356364,-0.0157846993,0.9168163418,-0.8706160357,0.1493619336,0.1654726553,0.8130862264,-0.5178145153,-0.8057367039,0.5376959283,-0.8634109834,-0.5590362571,0.1629853023,0.8823435424,-0.5180643683,0.1928579093,-0.7470991903,0.6910253123,0.0245181734,0.7841573427,-0.343193266,-0.0951632727,-0.7948881162,-0.1193254658,-0.3983955988,-0.523530127,0.0495223445,0.4821473636,0.7212546021,0.7934752919,-0.8471058568,0.4641226671,0.5178234639,0.8141442291,-0.4536797834,0.9975360596,-0.9101272578,-0.8379091717,-0.9778099357,-0.2483977485,-0.8920763743,0.386984062,-0.9643441821,-0.8672244454,-0.1126278949,-0.0925699097,-0.9469332319,0.5104500676,0.3868175858,0.3589573935,0.2284011125,-0.4717757888,0.1847267359,0.2162991799,0.8221683518,-0.9251822108,-0.8912130748,-0.4813129324,-0.8405237967,-0.317786269,-0.2971932855,-0.8996605558,0.1429019941,0.5972672498,-0.5821862117,-0.7105984895,-0.4462399657,-0.0774568512,-0.9340404786,0.0711105038,0.113132301,0.2515680273,0.0717185778,-0.4617574523,0.0543468663,-0.158759012,0.3469681495,0.6154092181,-0.8933772299,-0.2131058347,-0.5039862531,0.2336756261,-0.5637538927,-0.1721383664,-0.4763815213,-0.2433887533,-0.6532026005,0.9760208623,0.5380126939,-0.1211107802,0.6191574642,0.1637990651,0.8524561458,0.0562990093,-0.5925391386,-0.585328302,0.8472564914,0.811149628,0.0301894591,-0.0497568797,0.1875331422,0.6705561519,0.9192347088,0.5814038732,0.2472363023,0.1424468346,-0.2664780351,0.9711351409,-0.3077932229,0.6338726707,-0.4765736534,0.6733966994,0.0194907904,0.3383705853,0.4957296153,-0.0547556477,-0.1462436502,0.7421970403,0.6867786352,0.1155053402,0.6655472082,0.4501016706,-0.3041925725,-0.1973447156,-0.2307533626,-0.0752327937,0.1763575515,0.8600717337,-0.9167397834,0.8201410604,0.5222167811,-0.3333145724,-0.869171744,0.429037108,0.5840745212,0.256432631,-0.3785679755,-0.4403758763,0.5612268835,0.3449376083,-0.6228634933,-0.6639872988,-0.0483406048,-0.2859154703,-0.3516762943,0.6399795078,-0.927222221,0.6983336358,-0.811033271,-0.488517671,0.1765632819,0.1043799116,-0.0248221126,0.5150162156,-0.1000515702,-0.0603774296,0.6462753944,0.4647886342,-0.3281251434,0.7083550484,-0.4828644904,0.1781076481,0.6406509622,-0.3446084071,-0.8394789082,-0.9324722548,0.5429465499,-0.5414922411,-0.0484890769,-0.9067913143,-0.5032004247,-0.8402145142,-0.6297982631,0.9909366763,-0.1380390754,-0.5109652396,0.9822463741,0.6400487047,-0.6261017028,0.1018176581,-0.6897287712,0.2705528641,-0.651337359,0.5265245765,0.0117530598,0.5560462537,0.8338341021,0.8168550849,0.1816384835,-0.09459821,-0.4075380545,0.893763435,-0.3442530741,0.4952782487,0.2124498437,-0.3771152095,0.8084229483,-0.8925250325,-0.1837870157,0.4352976366,-0.6600833046,0.9903903026,-0.8527726282,-0.4736574065,0.1398388193,-0.4862807096,0.1376854832,0.3294727701,0.5018129762,0.2565913153,-0.8778275246,0.482447244,0.5478745797,-0.4038460922,-0.2400007892,-0.0635924806,0.9877876412,0.3382777038,0.897198651,0.8257249274,-0.6766936715,0.9721407745,0.4818324962,0.5839436056,-0.9906540657,0.4523567761,-0.3189019944,0.4389573313,0.9664215125,0.9583195488,-0.1509905561,0.5457742855,0.9381111804,0.4129358664,0.1238207759,-0.4066845325,-0.3830340962,-0.3913223673,-0.5918399001,-0.191882336,-0.2345776989,-0.4338426949,0.4470338267,-0.3957889312,-0.5814065037,-0.489711618,0.4691998558,-0.4046944896,0.7191229491,0.8352702151,0.4414429415,0.9601627485,0.1853254495,-0.7110359286,-0.8680286936,-0.6797709966,-0.2878321561,-0.3318478597,-0.0595533884,0.4991354761,-0.9209760426,-0.9597009592,0.5257604244,-0.4651982892,0.0405833698,-0.4575777788,0.7882350601,0.1884039301,-0.9744842651,0.6388135387,-0.7689748215,-0.8660226852,-0.9538335058,-0.8094591741,-0.2182583376,0.148607763,-0.5357622148,0.2201263362,0.3180771724,-0.5803762499,-0.7803080605,0.4657450233,-0.7451200433,-0.5126943553,-0.0963390456,-0.7718724682,0.8303455038,-0.6372587217,-0.1727709776,0.2823785875,0.2173217993,-0.8846916658,0.9268791452,-0.494522528,-0.6125031526,0.3501358986,-0.8962564369,-0.9548867905,0.913917248,-0.9955216426,0.051815706,0.1093729207,-0.301481969,-0.4196152383,0.6871341118,0.019070063,-0.0831118814,-0.0922054525,-0.0044600945,0.7152521708,-0.8481215936,0.4591143736,-0.2463617431,0.6677348582,-0.5677086152,-0.7053268335,-0.2950421447,-0.7931681941,0.0148527997,-0.4367839237,-0.4342402598,0.5478183779,-0.4735066319,0.9779360173,0.1522308356,-0.0411636741,-0.4372693211,0.0818439212,-0.9341346316,0.4231713883,-0.0437170226,0.178590227,0.1308645447,0.6715012764,0.4848102383,0.0795490473,0.0813275697,0.4975385839,0.862814634,0.9555963073,-0.8263706991,-0.2432490982,0.9859836636,0.0245383254,-0.1323334699,0.162064735,0.2459465334,-0.406036062,0.8122605244,0.4939682007,0.7802486269,-0.7830285986,-0.508981508,0.6967997346,-0.6870395908,0.4806826091,-0.4337196881,0.6716179762,-0.1914196956,-0.037328244,-0.28156227,0.8116978702,0.6540609661,-0.7192674555,-0.4823224891,0.8104563764,-0.3024116156,0.3531777678,-0.8301399897,0.8520060959,0.4597490413,0.9362739807,-0.9404474208,-0.2044991498,-0.2655441394,-0.5443533754,0.3140790525,0.4737927567,-0.8505469693,0.3758360989,-0.5482153906,0.5438632036,0.6793533676,0.0417135462,-0.3500827852,-0.3345096021,0.0965013213,0.1145403244,0.247136063,0.5334397916,-0.969821995,-0.7547034132,-0.456314602,-0.7658645445,0.3312653486,0.7675483217,-0.7881299004,0.351434186,-0.5954753684,-0.387445196,-0.8363203592,-0.9237645667,0.7207543786,-0.4850501728,-0.3956234376,0.2816652302,-0.4176627081,0.026013933,0.0289447387,-0.7841629342,-0.9787564908,0.2166074799,0.4137204143,0.545068779,0.9338744065,0.2103828692,-0.4835338591,0.2592156584,0.8180228591,0.3629491024,0.1943659032,-0.067206003,0.3910702934,-0.3399638618,0.657057103,-0.3665804759,-0.0613614999,0.0417274961,0.192891569,0.8058778613,0.5158168733,-0.4172242219,-0.800650492,0.4244797214,0.2154478048,0.177934837,-0.0052762201,-0.2471558608,0.1379306322,-0.2677027631,-0.4089123339,0.2650564092,0.1935990092,0.2568406917,0.4098311198,-0.7461319323,-0.2219606037,0.4505831508,-0.5047570839,-0.3573444723,-0.6692848708,-0.1633986293,0.4664589379,0.9186637016,0.8187916114,-0.0356836373,0.1985496518,0.8098116337,0.7095858928,0.3575433253,-0.0484059947,-0.4110229253,-0.2227847616,0.6491089736,-0.1213514017,-0.8510393095,0.9105213525,-0.1389896896,0.5824343303,-0.4084238979,0.0464551423,0.3332572681,-0.4972623647,-0.5791275637,-0.2779078516,-0.7310197834,-0.2156131751,-0.0676188773,0.2980829858,0.2471419454,-0.4229815256,0.0174295092,-0.8779653109,-0.8229909821,-0.5557342742,0.7887672901,-0.5009480375,-0.796627001,-0.3997964976,0.3062048139,0.6005650406,0.9624757712,-0.649518559,0.8895124711,-0.5346355331,-0.8877862661,-0.8738479398,-0.3437884557,0.9343865141,0.516796649,0.9385723014,-0.2687073314,0.5278187109,-0.4877284233,-0.8505754584,0.5005813427,0.8553859733,0.0785464049,0.8247142298,-0.0950265243,-0.7313054085,-0.1434547626,-0.6858678995,-0.129861986,0.9128096114,0.6643790715,0.6603520279,-0.6822401475,0.8644435086,-0.0531006263,-0.9366430062,-0.6067888454,0.4107250215,0.0455251592,-0.8207322914,0.0074344169,0.4356543229,0.3343091016,-0.9114308633,-0.0493104531,-0.8342823347,-0.7213959881,-0.1341882845,-0.413575079,-0.2726046315,0.1163212797,-0.2921637612,0.6523476927,-0.4911921441,0.7980052809,0.6147790478,0.9473882492,0.9251835483,-0.2753938839,-0.1860404809,-0.6449601648,0.85454879,0.1520019878,-0.2452553231,-0.5817847624,-0.4311856344,-0.7904109794,0.5540903147,-0.3828735381,-0.647523133,-0.0955572812,-0.1844184241,0.8409383553,-0.866508734,0.9435842797,-0.5060600025,-0.6591059533,0.7668606065,0.3109875,-0.6929536565,-0.522567676,0.6203349597,0.6640748796,0.6184639785,0.0574721112,-0.0574769935,-0.713695922,0.6565319531,-0.0608408845,0.5733524658,0.5422362215,-0.0309685126,0.822230836,-0.0434784977,0.3266928774,-0.2444675172,0.438695166,0.7135339531,0.6444101492,0.6837740629,0.1745506686,-0.5634119672,-0.6540461729,-0.1735076747,-0.0595186242,-0.4837012953,0.9867310968,0.7899179817,0.6482203036,0.9566536274,0.666728548,0.4592734492,-0.754987763,-0.4394753981,-0.5614125127,0.6995144811,0.4478955673,-0.1192607723,-0.7664844377,0.73612025,0.204412221,0.3703282666,0.6506475519,0.2147367586,-0.6782910283,0.8080380524,0.1388854785,0.2468497106,-0.0568416578,0.1572245858,0.7439103007,-0.4692815332,-0.6380976006,0.5468289576,-0.8457015311,-0.7695044926,-0.5841380483,0.604607615,-0.745034161,0.9856187488,-0.5399476095,-0.1428852066,0.6997582955,0.2740714012,-0.229226177,-0.881678827,-0.4419485262,0.8500073113,0.7840053324,-0.9898403834,0.8636986759,0.3824710404,0.521262545,0.7069694217,0.7567301063,0.6562485505,0.7901641709,0.0646819146,-0.9212540163,-0.9821592085,0.36108918,-0.0678727348,0.3569136855,0.5013203446,-0.9848423778,-0.9943662153,-0.3383834748,-0.5087301108,-0.2569164144,-0.875498083,-0.5366870297,0.5989208969,0.5447814486,0.265364315,0.1186043617,0.9414602116,0.6669154526,-0.9873009371,-0.9369724855,-0.6999931111,-0.7411405255,-0.0178634395,0.3439775903,-0.4980977507,0.0911061407,0.2939412016,-0.2089688983,-0.5360244476,-0.532951912,-0.8103541924,-0.514599289,0.7590030592,-0.6318258244,-0.0677560883,0.7993374529,0.1587336056,0.58248819,-0.6813993694,-0.9537760559,0.3825224906,0.3749536924,0.9665415267,-0.422211712,0.5387213781,-0.2975847987,0.529889802,-0.4793441332,0.6552781471,0.6376944946,0.1236667895,-0.6615009766,0.3156040763,-0.1581491022,-0.5856966275,-0.8566970081,0.1617926516,0.0328668753,0.9153679278,-0.7966704079,0.9554097158,-0.1210921112,-0.8359929452,-0.8353364995,0.783058778,-0.9307457143,-0.8932762929,-0.2602418976,0.0656829513,-0.7104869202,0.5556800246,0.047696743,0.5818460834,0.6954986126,0.1092239519,-0.9286234136,0.1807900654,-0.2543653438,-0.453449863,0.8640486413,0.54865101,-0.9445498334,0.4376827358,0.7353638628,0.021245236,-0.112909144,0.7532963448,-0.9979899881,-0.7151334014,0.2224757123,0.506973292,0.734940294,0.4050728384,-0.7178681318,-0.4054055543,-0.9815409089,0.7295929837,-0.8905276836,0.6684459649,-0.9652517239,0.8461683014,-0.7678064998,0.7267367965,0.8334107638,0.7694762056,0.5047532485,0.9392498488,0.1697988355,0.0600138002,0.2745319399,-0.0764203865,-0.2448392341,0.665601724,-0.7220893532,0.5204317688,0.332410645,0.9034676855,0.2120126093,0.3529536127,-0.3387586159,0.0202750231,0.2385046941,-0.3611442392,-0.6061019515,-0.3622748776,-0.0123112681,-0.6361328062,-0.179582397,-0.3658718554,0.1999797373,0.7232703771,0.1049339324,0.0710883706,0.6035349659,0.2980696168,-0.0631700639,0.853358766,-0.222468788,0.1856631151,0.8218253947,-0.8713312994,-0.4864993657,0.6838437673,0.4867177551,0.4549329465,0.5573947755,-0.8211868169,-0.920399563,0.3058557509,-0.727495102,0.0246269942,0.0761394578,-0.1494861355,-0.9212251903,-0.474042441,-0.0176136023,0.360974892,0.0359275957,-0.3029835941,0.955741721,-0.3172033967,-0.8712774414,0.5967236417,0.1371747892,0.8373803272,-0.8599432262,-0.9006242416,-0.6778935326,0.1323560059,0.2896515544,0.8949914154,-0.6264949127,0.1506095678,0.8382967919,0.2764573506,-0.551018368,0.5856535743,-0.0236962169,0.7532978227,0.3916177583,0.5374963332,0.4902273621,-0.5710322263,0.7289338279,-0.7774849608,0.6984090927,0.6966494075,-0.1322640499,-0.0136928851,-0.9659001547,-0.9254239485,-0.5008391836,0.2884730587,-0.4948733196,-0.1787853688,-0.9713544196,0.5229328211,0.7220148376,0.8802101368,0.3108342982,-0.9910863885,0.7116791685,0.6208424551,0.0342615588,-0.8193901201,0.0118071629,-0.1083766692,-0.7810192952,-0.9348663933,0.2357410479,-0.0573020603,0.5514637229,-0.2728311504,0.5513234341,0.3978709986,0.2509579898,-0.4728876338,-0.2582898643,0.3617838651,-0.042030372,0.5510920232,0.4055059608,0.6994358249,0.6339850482,0.7576357905,0.50187173,-0.2910611014,-0.0083867537,0.0064998974,0.8088349238,-0.1532020419,0.1908897095,0.4463734978,-0.2338130459,0.4911926824,0.2495229027,0.1974665493,-0.1860868788,-0.4221731294,-0.95154906,0.3188081368,-0.4462982122,0.5738574045,-0.6822099338,0.9339777009,-0.4524711114,0.2827729811,0.3480608295,-0.8689503438,-0.4247076747,-0.8827272999,-0.9425255743,0.5215702864,0.499943895,-0.7372138967,0.0108874852,-0.1172276646,-0.3425878601,-0.5979051976,0.7447390353,-0.9092430328,0.0214846121,-0.065196315,-0.3110289162,0.1903838122,-0.5215656485,-0.2138993198,0.145197529,-0.4016181506,-0.3670255142,-0.9270674174,-0.005393386,0.6924269653,-0.5143266169,0.8582775957,0.3886505742,0.5105769734,0.8970937894,-0.4542868446,-0.8395247836,0.7988396719,-0.0732701932,0.8068335306,-0.9150432774,0.0309416821,-0.3940157816,0.3524254822,0.0345667595,0.8657142309,0.8803185876,-0.0034705609,-0.3052946687,0.6648828081,-0.2205173999,-0.357114537,-0.8806405222,0.1057118016,-0.3933178181,-0.7000593951,0.1659871613,0.6613666135,0.9398832123,0.3437283365,-0.6549282119,-0.0952243291,-0.7788131388,0.3802955848,0.1480567959,0.6033223568,-0.9236788871,0.1969344601,-0.2872825694,0.2956911057,-0.1590104216,0.1041282127,0.5651144002,-0.12765959,0.3839637291,0.2209459377,0.6468283036,-0.2753812635,0.6753013703,0.4156326199,-0.539983142,0.4432078124,-0.2032932304,0.3508322045,-0.1999517588,-0.0086139476,0.1795892485,0.8076616595,0.9268339912,0.9856973607,0.1917610928,-0.5111304029,0.3974012251,0.5800437198,0.6546889263,0.4956978244,-0.1608067627,-0.3376687032,-0.9524201144,0.7163143859,0.0729644903,0.7137583411,0.7624616549,-0.339734018,-0.30875176,-0.8238809839,-0.3027055938,0.0735593789,0.1477114852,-0.7707041141,-0.0412592163,-0.2996162603,0.7521558081,-0.4417358014,-0.9109330573,0.7800803684,-0.808726629
   0.2411852122,0.6499324794,0.1815785624,-0.9144044301,-0.7266515921,0.1864834902,-0.7392707222,0.750854329,0.1400965972,-0.7991047415,0.326461329,-0.1360419677,-0.7292952235,-0.750977471,0.89238784,0.2820223178,0.0256437539,0.1542146509,0.086630271,-0.8713697318,0.6758127646,0.6442368035,-0.5280626001,0.1016608445,0.2882128804,-0.0616852668,-0.1157906923,-0.1373544428,-0.004869477,-0.7730554203,0.2690851737,0.9930597018,0.323637832,-0.6516152181,0.6299592176,0.7141001978,0.1575176689,-0.4906467571,0.3374319591,0.0486489383,-0.1271067753,0.762915175,-0.5703847073,-0.5761425732,-0.9106902709,-0.7446900125,-0.5090228879,-0.5656886042,0.8721135011,-0.8289797386,-0.6864892303,0.9269441012,0.4658526936,0.4349377769,0.3870837076,-0.4786146177,0.354807764,-0.6378885525,0.2247771876,-0.3782276928,0.3208841586,0.1932726006,-0.941448703,0.6295300987,0.0836638377,-0.5934076868,0.2250052205,0.1011683079,-0.7543024392,-0.1754567066,0.802658453,0.9802646423,-0.4306052223,-0.7861626907,-0.9868636561,-0.4674939687,0.9423762825,0.5099133242,0.0371568924,-0.0336590256,0.9087415429,-0.7905849531,0.7933964037,0.4170047367,-0.9106552872,-0.4875544891,0.285536494,0.0810958713,0.7258361299,0.4258997948,0.3880536238,-0.7890620651,0.8798146048,-0.0958840863,-0.9079377176,-0.3692803823,-0.9877152806,-0.268070761,0.6224086439,0.8447636372,0.0583604458,-0.7559724124,0.9914921634,-0.5079980004,0.5506299286,-0.5246148122,0.8779717307,-0.7632371585,-0.6299994317,0.905881906,-0.4461510165,0.1125906367,-0.0766528831,-0.2266286753,-0.8483642419,0.2824391381,-0.4046372031,-0.8188453709,-0.1117911695,0.9324280239,-0.1827522065,0.2485660974,0.3053028366,0.1223251156,-0.2958161268,-0.3038132195,0.6174958861,0.3112407332,-0.6900964464,0.3346537682,-0.4261085789,0.8549357672,-0.5403942805,0.7869286866,-0.2890010948,0.048357939,0.7767266836,0.6546459504,-0.4955237849,0.4893486264,0.5234255784,-0.6361767325,-0.8149981073,0.8614270198,-0.9753548595,0.7257534526,-0.0355598952,-0.2086660704,0.7649724573,-0.8198275505,0.345621629,-0.8768934066,-0.391214177,-0.2923248094,-0.5668104393,-0.6395552358,-0.4553939173,0.9630814678,-0.3655281295,-0.9125461513,0.3452262636,0.5870867274,-0.3185960024,0.2094895649,-0.1789283595,-0.6543684511,0.0051529486,0.7297174131,-0.6041228514,0.7597374095,-0.1354491398,0.4796093588,0.122929886,0.8568823632,0.6369874242,-0.3173114565,0.6216060239,0.3969557343,-0.2118790303,0.8205398306,0.2043939816,-0.1959066965,0.3058164601,-0.7424529038,0.9345482067,-0.3755380765,0.2551951319,-0.5414254175,-0.7446936784,-0.8900555117,-0.6931841272,-0.509833378,-0.0647193437,0.372984966,0.1201198766,-0.0294095754,-0.2205203017,0.9807198791,-0.2158559476,0.6240341622,-0.3445803823,-0.6672844505,-0.148118488,-0.3172150124,0.191595142,-0.86942239,-0.8858203475,0.8036221005,0.0618574959,-0.6574211044,-0.152216726,0.6632786522,-0.9335454323,-0.2357212421,-0.717667494,0.9045799224,-0.0571205889,0.3054688415,-0.4362533121,0.3085612044,-0.2041380148,-0.6404051557,0.7493142974,-0.9939151587,-0.3883975246,0.4322435638,-0.5093360176,-0.7715280936,0.6447139666,0.3391128611,0.6292912106,-0.4032585345,-0.351763251
##end
biasActivation=0,1,1,1
[BASIC:ACTIVATION]
"org.encog.engine.network.activation.ActivationSoftMax"
"org.encog.engine.network.activation.ActivationReLU",0,0
"org.encog.engine.network.activation.ActivationReLU",0,0
"org.encog.engine.network.activation.ActivationLinear"
