encog,BasicNetwork,java,3.4.0,1,1532920185075
[BASIC]
[BASIC:PARAMS]
[BASIC:NETWORK]
beginTraining=0
connectionLimit=0
contextTargetOffset=0,0,0,0
contextTargetSize=0,0,0,0
endTraining=3
hasContext=f
inputCount=16
layerCounts=4,26,101,17
layerFeedCounts=4,25,100,16
layerContextCount=0,0,0,0
layerIndex=0,4,30,131
output=0,0.0011653383,0.9988346617,0,18.1799906412,12.9663535224,0,9.4366050721,7.333367403,0,0,11.3948661642,0,0,6.7273809795,8.5716954871,20.5096199253,14.2353280523,6.7682725981,0.0986240403,1.7678105193,0,6.144771299,1.7826768044,0,0,0,7.432304448,0,1,1.3882934608,0,0.4311984529,2.3638836314,0.0887833217,0,0,0,0,1.7618810623,0.9180991228,0,4.9893826573,0.6872018409,0,0,1.4105076195,0,0,0,0,0.4226211001,0,1.7000361677,0,0,0.0474023049,1.2996718046,0,0,0,1.7343037718,0.1962074933,0,1.8799020407,0,0.5717985137,3.5374058648,0,1.3858996257,0,0,0,0,0,2.785833564,3.3024329291,1.569564926,0.0689705065,2.7867574558,0,0,0.8705907252,0,0.2261175878,0,0.2016740034,0,1.2905723189,0,0.3103447554,1.4691814557,0,0.619919564,0,1.9570128548,0.0189998916,2.6883023183,0,0,3.1819189945,0.6852549395,1.2249526564,0,0.1340237696,0.8602746673,0,2.6891038607,0,0,0,0,0.7936897734,0.1030582367,0,0,0,0,0,0,1.0601250263,1.9626713908,0,0,2.493103326,2.2509365863,3.8412008692,0.0001276387,0.2581017678,0,1,2,2,0,0,0,0,0,0,0,0,0,0,0,0,0,0,1
outputCount=4
weightIndex=0,104,2629,4329
weights=##0
##double#4329
   0.8476365727,-0.4000262762,0.1880125239,-0.0333021299,-0.6226465263,-0.200887231,-0.5126701519,0.7211203658,0.5842281744,0.1354729196,-0.8149952379,-0.5899926185,-0.4416622122,-0.0126441992,0.1751652232,-0.1094146533,-0.0778393163,0.161995254,0.3432776365,0.0169417102,-0.0549828877,-0.0380460448,-0.7264721651,0.0752954345,0.1060158052,0.0102123209,0.6804539995,-0.0859971213,0.044576134,0.6608923299,0.0127575074,-2.1691096227,0.0506090865,0.4263489373,0.0555845995,1.4915113705,0.0879932105,0.6206089542,-0.1227967493,0.1560786788,-0.024936031,0.3363374601,0.0329598247,0.1870926143,0.7269614483,0.5794382573,0.6250721178,-0.4014719426,0.7480545127,0.7121474361,0.0947361913,0.5237465907,0.0217963515,-0.0397662222,0.0436066904,-0.2539453249,0.0001687826,-0.1812788506,-0.031251694,0.8766961427,-0.3151757164,0.3657073205,0.0004142506,-0.0099412684,0.4281415951,0.5966529708,0.533024996,0.231175131,0.1088358426,2.9546460927,-0.1573183819,2.4088659322,1.3624662596,-0.8326195818,0.1564659508,1.9983124682,0.5283755383,0.2247017699,0.9152517956,0.0055708297,0.93281677,-0.3520886395,0.6483779524,-0.0107980147,0.1009431854,-0.0539991161,0.3380668213,-0.7417980295,-0.1555304967,-1.9381759094,0.5123233676,0.4875267618,-0.1769819896,0.0017967411,1.3703830694,0.5316550015,-0.056932234,-0.2931177248,-0.0941238538,1.7742441861,2.1549398539,0.1231849937,-0.9335378976,-0.131614002,-0.1578623824,0.0765808311,0.2792648314,0.7654177227,-1.675084482,0.5002236565,0.1809647558,0.1066909364,-0.0229910748,0.5021373613,-0.4875576208,0.0079187383,1.0125233095,-0.9164903302,-0.0135623868,0.1588571421,-0.2279624475,0.0365229765,0.135086325,0.1514335772,-0.6144092165,-0.0065001286,0.1681627242,-0.5582203466,0.0373341452,-0.0429988077,-0.563943338,-0.3944506881,0.2118395284,0.1867952288,0.4929865877,1.1915655838,0.1426372844,0.3022028366,0.7584995253,0.0861200084,1.2027199878,-0.1299089972,0.1381870868,-0.0868359542,0.0349195148,1.0408352854,-0.581810202,0.4837466217,0.1587230039,0.5320157642,-0.2207062545,0.0843282459,-0.7566455497,-0.4098938892,0.3330789696,-0.5988306106,-0.1124939058,-0.6452128677,1.0401170575,-0.8560654746,-0.1775773259,-0.6171137571,0.0313754364,0.1212607833,0.5893600887,0.7282931239,-0.1947671855,-0.1813738818,-1.5154946237,-0.3665029247,-0.0995545896,0.0331851862,0.6904545164,0.1834942708,0.0021152403,0.0029751266,0.0104328106,-0.238563739,0.3913495361,1.6512515582,0.1359215447,0.091229105,-1.5704164164,-0.1293815387,-0.9301933726,-0.0423317005,-0.081525867,-0.3589924219,0.9783783272,0.2337560365,-1.2773369622,0.1538810501,1.7506251153,0.6938952935,-1.0592304417,-0.0624042653,-0.1708510626,0.0068724165,-0.1763030891,1.0468944999,1.8211066315,0.5683314875,0.8337037403,0.3544833257,0.079582404,0.4608778286,-0.0905249608,1.2028318106,-1.2256623967,-0.0534103595,-0.3181991087,0.0087349568,-0.2119257636,0.1606772014,-0.0251082396,-0.9577561359,0.166814146,-0.6942593422,-0.0041010717,-0.0871057202,0.0154802749,-0.7390615969,-0.1938190831,1.1565926032,-0.1496369697,-0.386246111,0.7732153401,0.4218136141,-0.1308667162,1.0659923616,0.5460872355,0.008354761,-0.145629506,-0.0955958098,1.0535387482,-0.8204815691,-0.1841396841,0.102682264,-0.5949442445,-0.7964065475,-0.5768210213,1.0267937297,1.1317732013,0.4692299522,-0.8480892742,0.6722687986,0.9494071038,-0.6689346765,-1.1962769758,0.2473076331,0.1081150868,-0.1069416254,0.0776772035,-0.8471750338,0.1495084659,-1.2903275393,-0.501096436,1.2544278457,-0.0071431065,0.4282482212,-0.4819884184,0.3557971054,-0.4833427788,0.9587676341,-0.3241543618,1.1235622277,0.7725773257,-0.538080249,-0.1516747174,-1.01298405,0.2566384426,0.3591865132,1.1103152066,-0.5680061922,-0.1084469558,0.0568902588,0.4130009449,0.2864365241,-0.3626040324,0.6535038364,-1.0083116457,1.2163324502,0.6300957735,0.6177943621,-0.3702158931,0.0098643283,-0.0856395836,0.5684777874,-0.3556124915,0.0254117018,-0.591013335,-0.9795549854,-0.7391595632,-0.3951862409,0.0482764911,0.8232215079,0.0473518552,-0.1916158284,-0.6547658035,1.5893412834,1.4689723121,0.3309377423,-0.2150144031,-0.7432414326,-0.0255494357,-0.659472146,0.0063236407,0.0187537616,-0.1663387512,0.4970998226,-0.2017285183,0.3819260592,-0.013048265,-0.0116182613,1.1998382563,-0.6117180219,-0.6565265783,0.1041914161,0.0160027026,-0.474042187,-0.2919753115,-0.0656070896,1.4247985197,0.4051517448,-0.4206491359,1.1066054875,-0.8958509256,-0.6876328633,-0.8047218573,-0.4176929415,-0.1979912576,-0.3622164511,0.8102771411,0.0361529907,-0.1002027282,-0.6104707698,0.910455391,-0.6633483887,0.8783049875,0.1357990712,-1.4222114656,-0.5988915374,-0.9279099356,0.3547315761,-0.4003755239,-0.6762580078,-0.8971274021,-0.7752810895,1.0067163516,-1.3557854562,0.72890013,-0.1872545307,1.2340814456,-0.6583994815,-0.1082706257,-0.3644466077,-0.512692372,-0.2266051995,0.2209264165,-0.2472669422,0.055916732,-0.7822862009,-0.0625518098,-1.1932852271,-0.0978646311,0.025527059,0.6547851563,-0.8123237695,-0.7970277947,-0.3769481544,0.1296981932,0.1058084073,-1.2298959098,0.2890982484,0.7646029226,0.0976260372,0.3237091276,-1.1433715631,0.7813694102,-0.1699877889,0.5892906139,0.1870620406,0.648374389,-0.6165317321,-0.4343850109,-1.691388764,-0.6586120685,0.7753397034,-0.1924131884,0.2695040728,-0.3239495668,0.3476018383,-0.1822658663,-1.3747464369,-0.1188899665,0.300189656,-0.253766282,-1.0572852753,-0.1497666456,-0.767227523,-0.2701955074,0.1840301394,0.1134731925,0.6908453739,-1.0767467586,-0.5722570819,0.2705409538,0.2096883683,0.9021193769,-0.0756894665,0.0052929181,-0.4883252372,1.0679872891,-0.6684532921,0.6142814079,0.9468673449,0.0470743318,-0.9362019668,0.1333374893,-0.4831144915,1.359512696,-0.819136579,-0.6313649192,0.0718747336,0.3241579819,0.2452253878,-0.770883634,1.5178235827,0.3213870378,0.0512157066,-0.316292577,-0.8226109231,0.0213741855,-0.7648306723,-0.252630429,1.0882270723,-0.9940002163,0.1529841045,0.0141447493,-1.4020947314,1.2528813473,0.7021138875,0.1518911367,-1.0999469488,0.0067759924,0.013942788,-0.1211419441,0.6429744481,0.4134581204,0.7647063867,1.0994674676,-0.7291246844,0.2564136531,0.4818912512,0.2650527846,1.8113332326,-0.2182310826,-0.0378842206,-0.0738332468,0.1624118738,0.1934979649,-0.1558370886,1.2395326189,-0.4470985599,1.0225436465,0.1633308879,-0.7791422559,-0.4781960492,0.0177463972,-0.4857120444,-1.0759303745,0.0999469925,1.3579202787,0.1478004456,-0.0096104785,0.017172216,0.2021700225,0.0966734201,-0.0986569984,-0.2969853622,-0.4561370595,0.0113473047,-1.1856971746,-1.0234676069,0.5153033697,0.8655997245,0.1150894171,-1.0168556317,0.1710816204,0.0919169939,-0.1142171552,0.0919402879,-0.1423161398,-0.2745740156,-0.2742578668,-0.0043679817,-0.7281154204,0.5875540906,0.6932914703,0.8847010031,-1.0737497517,1.0949227874,-0.3086303234,0.7236140787,1.0738733064,0.4876925829,-1.1489416577,0.2911703999,-0.2924987199,0.1711044702,0.864976769,-1.1419368212,-0.7038073228,-0.0830601139,0.0886601995,-0.2504504299,-0.0635047358,0.3215546976,0.5586394751,-0.226972974,0.1095563214,0.175573262,-0.4025442964,1.0302879416,0.7008915347,0.9025764524,-0.0435364929,-1.0010884817,-0.1089319728,-0.1446510344,-1.4492048228,-0.3492857055,1.5625407619,-0.5626225072,-0.1044488363,1.1797895424,0.3758796754,0.003377727,-0.0556556378,0.330747713,0.9732271453,0.152112217,0.1613494089,-0.9226718859,0.1686998282,0.5842641903,-0.4724660499,0.3943555296,0.4094661954,0.6186140842,0.154424323,-0.0234535505,1.2000234245,0.5353558452,-0.1802630686,-0.8938289028,0.3598687625,-0.5356751199,1.554729132,0.6658627998,1.2984292521,1.3425480211,-0.4975041649,0.3220602248,1.2590266981,-0.6002182017,0.9759626273,-1.0143457024,0.0023664505,-0.0311843635,1.2664020401,0.7015418523,0.2985084583,0.6906350298,0.7425066477,0.6273033722,-0.7208490605,-0.2305147295,-0.0073895007,0.0767545173,-0.3019489572,0.4664546555,0.4765210119,0.0179382376,0.6591858308,-0.8191850504,-0.418793331,0.1104646377,1.5035928185,0.9701847228,0.0003976794,0.3228328319,-0.3662329764,0.7426036409,-0.6363370401,0.0657544022,-1.2061829219,-0.0426076316,-1.5516085708,0.1179456124,-1.682853763,1.5224026818,0.4537265473,-0.2787402455,0.6430632173,0.4300589064,0.2940013684,0.0184936136,-0.4621918176,0.2868638096,0.6787404723,0.2746345058,-0.2192806431,0.0403500166,-0.9386276886,-0.1190538019,0.5732036587,-0.0505690487,0.0226619446,-1.2219293531,-1.3304900014,0.0342632285,0.0768172046,0.0393287538,0.2285342688,-1.0189192893,1.2951998966,-0.1205627086,-0.1445944896,-0.9952541715,-0.3761298838,0.2240973601,-0.2865970534,-1.1982278167,-0.3189519343,0.0056379262,0.3265420242,-0.9238395415,-0.4580600333,0.6225738315,-0.4368805151,0.0979032657,0.8216768348,-0.1146524386,-0.0786576272,0.8915771525,-1.5302124941,-0.1203868082,0.7374956882,-0.7997730664,-0.2916962401,-1.048852798,0.8937282116,0.5884955442,-0.6759631242,0.1107915094,0.0518578971,-0.3616469643,0.1335827689,0.1017642954,0.0702386973,-1.4337922398,-0.9522627252,-1.0346745959,-0.5879810002,0.5270449153,-1.3593421381,0.2416452785,0.1989099958,0.6520841607,-0.5040391757,0.5046424964,0.112760087,-1.8716912195,1.6219244008,0.5255337471,0.3441353366,-0.0273975879,0.1412016047,-1.3954346371,1.1840321803,-0.984184532,1.4713906068,-0.0706905692,0.8228919027,-0.4555793645,-1.2414544436,-0.4222444119,-0.361326423,-1.310748094,-0.2768420787,-0.3238172697,0.0337813693,-0.0766060536,-0.0856190487,-0.8016424741,-1.2143933091,1.0747495489,-0.2332514321,0.1780027038,0.341349019,-0.2365826038,0.8673440918,0.2398929245,-0.390763187,0.4371101209,0.5307457548,-0.0535766097,0.1009794178,0.0003307943,-1.1087012248,0.2059573153,-0.1566368285,-0.1444839027,0.206101808,0.0921599952,0.0263739039,0.4517459261,1.3263908567,-0.536419611,-0.6442473243,0.6337902833,-0.9377770064,0.0084270897,0.1524487518,0.2952753551,-0.2245824743,0.2096448993,-0.1480271243,0.5468687771,0.0148053727,-0.2602301853,1.5801418428,0.2441394377,-0.242972765,0.1453885931,0.5918346132,-0.1441072645,0.2538105044,-0.0272309022,0.0084039945,0.3862736903,0.2498900634,-0.3027083986,-0.1109160522,0.4151067181,-1.0849509319,0.8467781609,-0.4075628765,-0.5714584629,0.0915341543,1.5498482204,1.0333230745,0.8541893461,0.1676319592,0.7573762296,0.0305696782,-0.2359670599,0.636790593,-0.550702886,0.1619731097,-0.4797261607,0.5363778577,0.072699064,0.1851891897,0.7078125492,0.6657423607,0.3226729166,0.0009755396,0.3359693275,-0.4009895336,0.0080565883,-0.1149975969,-1.028634279,-1.320594374,-0.5262339047,1.1750711064,0.7974634023,-0.8132468219,0.1109440684,0.0081620383,-1.5708560841,-0.2577463189,0.0763215064,-0.7671559949,0.0880964324,0.7777740017,0.1617755246,0.3731786958,-0.5828851996,0.0554681623,-1.1192822661,-0.934780784,-0.7220203257,-1.1357624178,0.077291634,-1.2229324558,0.6937854535,0.9669656835,-0.1067932225,0.6599132413,0.7162597326,1.0532105452,-0.2881945441,-0.2620886708,0.7086880642,-0.5805116789,0.3476151073,-0.8460822213,0.1063509582,0.0146899801,-0.3559896231,-0.4343410227,-0.0049906601,-0.1043670379,-0.661720087,0.3275707029,-0.804000202,-0.0651218501,-0.0247071576,-1.561501659,-0.0523972194,-0.0899324607,1.2292839941,-1.4147566468,-0.4521229444,-0.5425667441,-0.3417592984,0.0774306623,-0.7511779304,-0.3306036684,0.3990751183,-0.0036913344,0.5955595183,-0.3316718005,0.440543495,0.4286300738,-0.065803021,0.7166989644,-0.0067839463,-0.0219326486,-0.0894241124,0.1637654723,0.2400434752,0.0360318335,0.3125019969,0.2754371192,-0.6722521207,0.1014026481,0.1784569511,1.4757568009,-0.9041164382,0.7087569141,-0.5645583132,-0.0453034456,0.0723571744,0.8069848867,1.0626795733,-0.1424356217,-0.1877154796,0.714033124,-0.3897860203,-1.6589937664,-1.397071172,-0.2569966118,-0.0695960233,0.1242287473,0.5540521072,-0.4523377973,0.3455077511,0.6046416035,1.475076587,1.2040557239,-0.63924813,-0.9297769497,0.2520545005,-0.5744897238,0.5642823551,-0.1201509835,-0.6170184921,-0.9737799337,0.0393837885,0.7731745341,-0.9236660028,0.3080675292,-0.9361343911,-0.3735177626,-0.6962615607,-0.302248763,0.6567110631,0.664430109,0.9660131077,-0.7058678087,0.665064722,-0.3343407277,-0.5547170536,-0.8953008823,-0.2943929742,-0.815480408,-0.3644335579,0.3626134693,0.8446097726,0.6421082926,-0.4951202812,-0.3508153321,0.6029941246,0.5920213006,-0.7592210748,-0.1504068782,0.4847851283,-0.8722980749,-0.9923851652,-0.7013484398,0.3670096127,0.2614217286,-0.9478621042,0.0141477817,-0.9161208305,-0.6721059253,0.9990901758,0.389307395,-0.8891219719,-0.3141258234,0.1451836665,-0.4733953432,-0.8665808835,-0.477624582,0.7127348379,-0.8713828346,0.8100564481,0.8482773306,-0.6000202989,-0.4619927281,-0.0218643132,-0.4663422056,-0.5360921768,0.9249269833,-0.1704314218,-0.3703232544,0.9345233987,0.5349880733,0.793443677,-0.9585412884,0.4084836704,-0.2980399701,-0.3130938945,0.7154469056,-0.4298032136,-0.9731696858,0.0982754879,0.7415386014,-0.5839869418,-0.1183074406,0.4466903527,-0.6533785946,-0.8716005564,-0.1371029208,-0.1185556921,-0.2746076821,0.5735479392,-0.2279883182,-0.243617341,-0.0746013147,-0.9806579409,-0.0923059815,-0.8876350921,0.057420231,0.0407706459,-0.2539509163,-0.2684243192,-0.7817601783,0.8367353935,0.1323383756,-0.0110413594,-0.8747309347,0.5295113207,-0.4392529385,0.0154760115,-0.4493822956,0.1045046907,0.0462552005,-0.9981881359,-0.6357269593,-0.8378544243,0.0752601971,-0.7924878634,-0.5434698937,0.5419937318,0.0616633928,0.6376202246,0.1467595406,0.9426567971,0.2303814101,0.3129815114,0.6909427446,0.9211870994,-0.0165410785,-0.1123700474,-0.8056787914,-0.3143611987,0.0342054895,0.3269770363,0.763091311,-0.9495060288,-0.0282412331,-0.8563060018,-0.4535616543,0.2229081449,-0.8875240971,0.9342274716,0.0251259581,-0.0095009488,0.1985126317,0.1282399252,0.7270791641,-0.6213076547,-0.9703774979,0.8633642341,-0.6160877905,-0.6523707514,-0.6997912217,-0.4226593766,0.5675472562,-0.9001907206,-0.2660652326,0.5703923562,0.385299918,-0.1113370577,0.998321641,0.4445087254,-0.367648825,0.5759414671,0.8793500437,-0.4043317566,-0.4429382757,-0.7037789925,-0.384334609,-0.8173422736,0.048656885,-0.6583510518,-0.7328218239,0.4128942006,-0.3792744447,-0.5934601136,-0.0111968017,0.4203264892,0.7103944581,0.1007844417,0.7084669697,0.124314365,-0.2207764435,-0.8131389578,0.9769347734,0.0545639334,-0.907594918,-0.4095811822,0.2672275551,0.4289589135,0.292916841,-0.4677767079,-0.8242027517,0.5191387007,-0.2541760085,-0.3650987383,-0.8841434864,0.9099186234,0.8326656401,-0.440643603,0.6546759794,-0.2320453843,-0.0126917845,-0.4438943994,-0.4148353737,-0.3818906417,0.6709112336,-0.5377131466,-0.246424486,-0.2254413075,-0.5364931219,0.7535468396,0.7813755417,0.1024152473,-0.0683654601,-0.9350499413,0.6419122071,0.8083496491,-0.5644086672,-0.467089779,0.9664972864,0.9074416887,-0.0019503339,0.8689545421,0.0831875788,-0.9551275443,0.371525413,0.584988566,0.9239501414,-0.6277947044,0.4141057805,-0.499060971,0.0477474927,-0.6642086592,0.2726284977,-0.6148352052,-0.3056657417,-0.1747393275,0.5878644609,-0.6862005975,-0.0298833281,-0.3567186262,-0.1700093043,0.0808428296,0.523880309,0.3508739953,-0.3532887107,-0.2312335859,0.8734996534,-0.9894877593,0.6032074484,-0.5786839266,0.0688818067,-0.1759453854,0.8727864224,0.9462389248,0.2003461708,0.5395700313,0.0267782891,-0.740614696,0.7207277264,0.8068394408,0.2540741305,0.5974920677,0.3238683013,-0.7142120862,0.6240390969,0.6332701997,-0.28411797,0.6523789101,-0.0915138766,-0.143122925,0.7312489839,-0.413286405,-0.5936686426,0.4777803013,0.3971047539,0.6998269283,0.8717645257,-0.1158724088,0.9387477321,-0.093103401,-0.2433381729,0.4719432257,0.2992253104,0.3594051317,-0.0547292022,0.705507985,-0.7901036342,0.0950349554,0.2358440867,-0.216565419,0.7120846875,-0.7933826132,0.4203407804,0.4659449055,-0.0385844142,0.212760769,0.9252258941,0.4897322205,0.1711479579,0.4337764341,-0.5672896104,0.6524967147,0.8538442658,-0.6155768347,0.7114678623,-0.5479288866,-0.0268904402,0.6042200704,0.0457396139,0.9601431072,-0.7609818775,-0.7639921423,-0.37785135,-0.4888750245,-0.7117825804,-0.6147293499,0.1681961474,0.1466661374,-0.2258965507,0.4838810274,0.6253325631,-0.543854976,0.3663074295,0.1297118981,0.8131199999,-0.3152268059,-0.2847561316,0.6855776743,0.8746280328,-0.0865614506,0.6503872139,0.4829801511,0.9538273463,0.905769059,-0.3110781643,0.4775267449,0.248904908,0.4709121603,0.3456741422,-0.9908058618,0.4512109275,-0.7932265198,-0.043543608,-0.9646515764,0.7281232393,0.7032587666,-0.8606696112,-0.7710551955,0.0172266284,0.0924126321,-0.2733912995,-0.9419378801,0.9594299928,-0.1338073304,-0.3926063347,0.6259772001,-0.6998971323,0.8423781898,-0.6762592257,-0.2983944763,0.2468430469,0.3174398098,-0.0009708876,-0.5214095968,-0.4566653871,0.2680281378,-0.7819040723,0.808187648,0.3816567717,-0.0641005378,0.5341520275,-0.872467472,-0.6930636757,0.7870909869,0.5875299142,-0.5891652505,0.4200958241,-0.5502883243,-0.9733609606,-0.3038053654,-0.4052407777,-0.4120225737,0.5477235314,0.4743852503,-0.0915395727,0.7750455099,0.340058222,0.3556913171,-0.5319741183,-0.4791763109,-0.1473365706,-0.6419040412,-0.5143704524,0.5960249731,0.8147242796,-0.2931955137,0.9877226807,0.7841988038,-0.9150094846,0.1031249849,-0.1714670396,-0.4055911257,-0.6933732235,-0.270183014,0.8028482679,0.109962842,0.1153152325,0.5173126807,-0.4181414668,-0.4316775907,0.2779898397,0.6708033462,-0.2880418928,0.13525263,-0.5312460654,-0.1217475338,-0.3254752007,0.3206159834,0.0084896478,-0.2892169244,-0.7969150709,0.0306501436,0.600459652,0.956079458,0.7415907912,-0.0044382617,-0.8675017589,0.8390861092,-0.9883274781,-0.3555261121,0.7381069284,-0.3274161892,-0.6992095098,0.6163725422,0.5669744616,-0.0043077663,-0.4065259309,0.0289856707,0.5456341607,0.7373483604,0.2274052954,0.1996972993,-0.1206984106,-0.4103132725,0.5816649635,0.3872533814,0.9198866068,0.8608562627,-0.6720139531,0.8761874528,-0.6523338192,0.5134242496,-0.9473513165,0.6827133719,-0.9277011792,0.2044609164,0.6019124544,0.8960483226,0.8103424882,0.0894204066,0.6829152666,0.8604106583,0.9055927868,0.8952222423,-0.0970971946,-0.9233018183,-0.6564013791,0.5957922005,0.6726032797,-0.4024522678,-0.2648971888,0.9683533545,-0.4079908762,-0.7465798044,-0.1177604318,0.9790939781,-0.2744062613,0.8364804072,-0.8445744268,-0.5004497144,-0.2164561148,0.4784224259,-0.2301642117,-0.3282882594,-0.9275651044,-0.0114369303,-0.1155737288,-0.6182595159,-0.0421311672,0.3618931126,0.6146089176,0.5470248655,0.6305285719,0.5569916438,0.1758465268,0.0893102303,-0.378281755,-0.1387294533,0.2630221706,0.9245990493,0.5932232224,-0.616344416,0.0551417349,-0.566408393,-0.3277421412,-0.3267212339,0.8771995138,0.0786054832,-0.6003735068,0.5960236687,-0.4234588873,-0.7448979513,0.4574992003,0.9177790112,-0.8198322417,-0.8646024012,0.416868844,0.5316604908,0.8752327451,-0.3276863304,0.8163617253,0.5583337851,0.8878705059,0.646514177,-0.8606538828,0.8251807665,0.1303986586,-0.8660247446,0.7483569019,0.6260361663,0.7004803927,-0.1250402928,0.3871854296,-0.346658177,-0.5827619161,0.6699633041,-0.2030044646,-0.2096915583,-0.1746218286,-0.9495078473,0.7976831573,-0.9773682498,0.277873628,-0.2184859368,0.0189962017,-0.26422331,0.6150360238,0.2112803037,0.1787192257,0.575322798,-0.9926320418,0.439343234,-0.1117210812,0.1903416764,-0.7145420608,0.4077393035,-0.6695327631,0.9318683914,0.4773721756,0.5928119363,-0.1210726191,0.0506397581,-0.3111120741,-0.9935428942,-0.9588731578,-0.2147707559,0.864706555,-0.0396784369,0.6533831755,0.7001751971,0.2448601524,-0.6874396567,0.586032576,-0.9629935396,2.1296161732,-0.2110974243,0.9965752915,1.0355680577,1.3573131966,-0.1835770477,0.0640310756,0.0021362287,0.0104988621,-0.220594779,-0.5468872333,0.2328137445,0.1742629267,-0.1987238785,-0.2178432977,-0.6413514584,0.0647456251,0.3502793051,0.1649923923,-0.1346679569,-0.534919888,-0.7174936273,0.2973748878,0.4703538314,0.3538102146,0.2708241057,0.6020329474,0.161616875,-0.0365349415,-0.3092053737,-0.7739718195,-0.037652575,1.5496147239,1.0581531024,0.0080634527,0.0552834703,1.0232620504,-0.41640812,0.9208971364,-0.0839045683,-0.7839424758,0.9872773318,-0.0074831229,0.1739235307,0.1338925264,1.9702069591,0.412203476,0.2960391682,0.0010564439,0.0773405964,0.0526165862,0.0928341182,0.1333050629,0.7371932589,-0.0008604478,-0.0044452182,0.1152923804,0.1856103617,-0.2216381304,0.2859395444,0.1750289888,2.0386848169,0.0844102841,-0.5228140042,1.4715907959,0.8391374687,-0.379632604,1.5366638429,0.2099133635,-0.0001883987,-0.2120881744,-0.0938875858,1.6723716017,0.2897404687,0.0019157987,-0.0092952765,-0.0076873905,-0.3664251645,0.8552420571,-0.068068073,0.1116954317,0.4006890784,-0.0690527291,-0.0316229211,0.2793053885,-0.1225263535,1.2039639252,0.0155423536,0.0415228773,-0.0569635741,0.3642721597,0.0923010831,-0.3176459102,0.3996804511,0.0880207364,0.1006982727,1.18002823,-0.1674640607,-0.0360069025,-0.0125199532,-0.5936809756,-0.0179912088,-0.4431174227,0.718219036,-0.871913758,-0.8555127694,-0.9928348748,-0.7077360728,-0.2624440013,0.9575251727,-0.4386521447,-0.4369854994,0.710988176,-0.8350195888,0.6600284572,0.9759213395,-0.4215243477,-0.0406113586,0.8854522361,0.298711064,0.11612728,-0.2425499271,-0.1117454612,-0.0681092564,-0.765232341,0.089658397,0.7603444339,0.2994240782,0.4991489659,0.5082595977,0.4664835894,-0.700767667,-0.2661090563,0.4184837127,-0.6867688877,0.4597530361,-0.7000753018,-0.8129545633,0.7912311918,0.8851395279,0.0961677038,-0.9964836806,0.82404596,-0.5904094789,0.2149126091,0.7889223374,0.1678616506,0.5857958301,0.5479741147,-0.9295230176,0.3516803486,0.5896757019,-0.1555040192,0.329018213,0.5453678631,0.94130902,-0.8144812851,0.0781428268,-0.0259965142,-0.9368847835,-0.949882104,0.89324348,-0.8006351898,0.7499565084,0.0667418193,0.0238695332,-0.3942339554,-0.0305017949,0.9678224578,0.2566879624,0.1574875378,-0.0432238995,0.7181266001,-0.2254150764,0.5201531904,-0.7607708054,-0.9807297546,-0.2375698834,-0.2532604447,-0.3478166945,-0.109753635,0.7444575256,-0.3841277482,0.2738338663,-0.7015951295,0.2619223877,-0.2570494682,-0.7118068461,-0.996247272,-0.300625847,-0.4725019389,-0.4415574377,0.3754442265,-0.7558415367,-0.2800271862,-0.9768787628,-0.8329100302,0.848727851,-0.1321562427,0.9406713644,-0.5809318741,0.6210558938,0.0117141306,0.1993009429,0.9807468069,0.950325594,0.9259363896,0.725649526,0.419024768,-0.1668356424,-0.8273848245,-0.7358302624,0.4582317982,0.6640843056,0.3198300364,-0.9557714316,-0.3286409524,0.8260555409,0.4084687302,-0.3116916109,-0.5806903386,-0.0085068025,0.6971259222,0.722227323,0.5554809591,-0.5757751081,-0.8775056384,0.174760561,0.0364569786,-0.0838954339,-0.1067678427,0.834310608,0.8943855398,0.4493404432,0.1128800781,-0.6582973097,0.4115032843,-0.2716464823,0.9189091247,0.1175813727,-0.9911026959,0.1985166516,0.2236887953,-0.7800830942,0.9045603705,-0.1779076759,0.6817891843,0.656392334,0.3942731054,0.7545134772,-0.5223080439,-0.0206560833,-0.2475250165,0.6288061765,-0.041861589,0.8250069108,0.9928440925,0.6989442056,0.9295516429,-0.8420764287,-0.5387163046,0.0896185411,-0.7491751489,-0.7203201529,-0.1026104974,0.8695987344,-0.1662577996,0.2220226948,0.202069811,0.2968164101,-0.1242563876,0.4261910632,0.6630365381,-0.9899350102,0.1835296276,0.8529438401,-0.0073188638,0.6629339151,0.2546172587,-0.1397487772,0.3729454533,-0.2627982505,-0.2135623848,0.7012365585,0.8117057967,0.9153891752,-0.0673725494,0.4043316103,0.6951928718,-0.4926917937,0.2525466908,-0.9481954197,-0.476769765,0.7539280692,-0.6850498687,0.4295793099,-0.9359493606,-0.2703474296,-0.5160004616,0.4909335792,-0.0677704097,0.4695806085,0.1027388067,0.5470424063,-0.1639044346,0.145707676,0.8805750261,0.4036372298,-0.4618481898,-0.3443511081,-0.8595465,-0.936376995,0.1735839127,-0.0873134413,0.4245907977,-0.2394746273,-0.6920958861,0.9216973997,0.9678523575,-0.0479350343,0.2107967358,-0.5169165421,0.7321652578,0.3052868128,0.1377417405,0.656226936,0.6422261373,-0.5487956585,-0.575542245,-0.5239284165,-0.9739180384,0.3244666606,-0.4799954655,-1.3001380333,-0.0088682835,0.7901623495,0.010943936,-0.003660892,-0.6120432089,0.8259611953,0.4306177901,-0.2409542965,0.3263675454,0.2241075385,-1.341305576,0.6750056239,0.0138678842,0.7521061143,0.5207037025,-0.5140021299,-0.2698907373,0.2119519948,0.7774031615,-0.8981296989,0.6623491862,-0.290445457,-0.0183695754,0.8823205653,0.0667312384,1.3212995174,-0.5611237619,-0.0310407673,-0.1030053596,1.5398142616,-0.0155991201,0.0007470503,0.3242684839,0.1390416223,-0.1205201091,-1.1394873412,-0.8885550944,0.0618200464,-0.5863961223,0.4996133215,-0.0976423413,-0.0795652866,-0.4246640353,-1.2212498452,0.6454664953,0.6291543003,-0.2392176796,-0.1053289188,0.354215839,-0.590663551,-0.0119766353,-0.3133488929,1.0093211916,0.0722348014,0.1462960451,-0.3228312927,-0.5358948789,-0.3632346435,0.3544730097,-0.5687485859,0.0010569584,0.4047721185,-0.2947388857,0.6652121529,-0.1161310137,-0.9519262116,0.3762986171,0.021232961,-0.2606022746,0.5509914396,-1.2644492504,0.4093846977,-1.6080987128,0.1843640586,-1.1518320364,0.6463863078,0.0255666022,0.584754953,-1.1013926136,0.0716517268,1.2186946462,-1.0087283274,1.1244436502,0.6489982544,-0.8699002946,0.0057928011,0.8894801224,0.3025407792,0.3410642026,0.8648696762,0.26992223,0.069059717,-0.3472525676,0.444825583,-0.1389039153,1.0288321164,-0.4499860327,0.2725762065,-0.0973047622,-0.0242310654,0.0544320248,0.00533175,-0.3852768832,-1.7663609802,-0.0078440941,0.1547292479,-0.8502784814,0.4270086024,0.2875480071,0.2045857211,-0.7288154435,-0.3125856369,0.7401500373,-1.3754753038,-0.0154901537,0.0366585282,-0.246003541,-0.0883752327,-0.7249613519,-1.6968204718,0.3796467331,1.4340533661,0.4876634074,0.8711620791,-0.7668017815,-0.11962431,-0.6589407271,0.0408258659,-0.4308037614,-0.0716382824,1.638779432,1.1739058397,1.2418283802,-0.3336136492,-0.1452828731,0.2413017428,0.003422289,-0.0258660808,-1.1296731895,-0.3409734213,0.4231574379,0.1414541313,-0.1540306738,-0.8843310769,0.3595582134,0.2923671858,-0.1636311163,0.2249806851,-1.9262518352,-0.1480725407,0.470663043,-0.5713724301,0.3726558511,-0.0402053405,-1.1998504302,-0.2611519748,1.1855179803,-1.0978947205,1.620901453,-0.2541115727,1.2137850724,-0.7082173929,0.1087429147,-0.305236091,-0.868878829,0.0162427443,0.0230287593,-0.335846658,0.3501252117,0.0273844151,-1.2852940233,1.1585421598,1.1198170836,-0.9293197034,-0.4360582371,0.2959122172,-0.1932601968,-0.8357620763,0.7404222119,-1.1793414023,0.1807605254,-0.1087570692,-0.2375109918,0.0388963367,0.9358211818,0.8038901726,-0.1768419585,-1.0337650929,0.1270795187,1.3822158067,-0.064644131,0.7926872364,-0.4876365441,-1.0349878388,-0.3339839556,-0.6313234356,-0.2888454046,0.1139996994,0.1796165302,0.8062991167,-0.2071032029,0.136634065,-0.6469129216,0.6201741368,0.4604037055,0.9149565198,0.2011828744,-0.4071610314,0.1656273621,-1.4725930254,-1.4454633529,0.0187695117,-0.0552878571,1.2043587493,-0.3529625506,0.1929976115,1.7589017365,-0.5687472288,0.0389721716,0.3940788487,-0.0230886178,-0.2036383781,1.3424547294,0.7699611078,0.5080753173,-0.9148760184,-0.1505786134,-0.0070248821,0.5878133687,-0.0561687238,1.1059244297,0.2900183944,-0.2236658523,-0.1771630696,0.3932297431,-1.1481585706,0.6478542408,-0.8352206386,-0.4457818322,0.0659854642,-0.0218233616,1.3377593408,0.0480590553,-0.3174736938,-0.0864512043,0.3532299916,-0.587774441,-0.6008333958,0.5747698524,-0.2350314053,0.1563286208,1.1004979245,-0.8592847306,0.0219511685,-1.9205347289,0.2410450042,-0.1848763387,0.2489629534,1.087987171,0.3467341741,-1.6235575431,-0.3114836016,-0.5320737249,0.1294472996,0.2953205572,-1.2176175993,0.0526712416,-0.6740732676,-0.2149986616,0.2357912433
   -0.8259266301,-0.0000504577,-0.2019620434,0.1548985558,0.1240166546,0.1277263772,0.1496029284,1.2784751081,-0.0262445156,-0.6481321086,0.394179588,0.1942862088,0.299935294,-0.1057117581,0.2638446476,0.2198998868,-0.0699660755,-1.8944097365,-1.1202683877,-1.206071612,-0.2691435812,1.2489317259,-0.0785953289,0.3984671035,-0.4936856677,-0.1670387475,-0.1910727706,-0.4144398413,-0.118827405,-0.4663858614,0.1961372585,-0.847487792,-0.0403472022,-0.1728661207,-0.3219081827,0.7473310651,-0.1630817119,-0.1641946772,-0.2997537676,-0.017197929,-0.8121591792,-0.015118388,-0.0238703631,0.6183678093,0.0306677426,0.2045230873,-0.117817501,-0.0602681699,-0.8676101053,0.0298884631,-0.1319912846,0.037801737,1.0464955292,0.9018185772,-0.2403882815,-0.4470300256,0.6241855348,-0.6364583351,1.2531790049,0.4389305209,1.0132457676,1.2035386252,0.3794109304,0.4252475787,-0.0143740102,0.9958864554,-0.0416446307,1.2103127893,1.186328621,-0.5940154676,-0.3451727005,-0.0178129065,0.0356648627,-0.1045775552,-0.7225871915,0.9606595056,0.3013049455,-0.7991598852,1.6662705289,0.4146240169,-0.644492858,0.9946665672,-0.0236987115,-0.3533524054,-1.4897737893,-0.1202743455,-0.3950361098,-0.2548924853,-0.0706216631,-0.4693903913,0.0333504549,1.0110994837,-0.9476171413,0.1492059499,-0.0044408907,0.1581652741,0.4259075681,-1.723886266,0.6569232308,-0.1109642392,0.9792228883,-0.2633460827,0.0225533354,0.0923704303,1.0233876388,-0.6994786794,-1.6049187586,-0.0322423095,-0.1372914752,-0.150175863,-0.6681220935,-0.396896247,0.0414745437,-0.2846220259,-0.0722184141,-1.5022604978,0.7986592149,0.0346572037,-0.5575786506,0.4139739701,0.2399942772,0.5999690574,-0.2188974465,-0.3498127902,-0.0467919414,0.5337222634,0.0436513825,0.3549826267,0.1520611456,-0.5440690803,-1.7090413052,0.322982608,-0.6972226301,0.5324937391,-0.5888231901,0.2134397889,0.3108549184,-1.8234222258,-0.8372970082,0.000435816,-0.1164088106,0.2951423595,0.2227842367,-0.2584089444,-1.0199914326,-0.0140590479,-0.0098081756,-0.984314665,-0.2960757834,-0.4924800858,-0.3460878118,1.3321957935,-1.0053262554,-0.8226308359,0.4507746641,0.0173828862,-0.1207665255,-0.0465251109,-0.0268765659,0.4864458858,0.9239602859,-0.0116084573,0.5937205653,-0.3706061513,0.9696187484,-0.0913867909,0.1142421077,0.2761289602,-0.4902348735,-0.1548371624,-0.0529597093,0.1473550985,0.4197519312,0.8104177167,0.2105315731,0.5611879699,1.9562427092,-0.7915796721,-1.671699869,0.241206074,0.6135359386,-0.6101422215,-0.7864514695,0.1989025782,0.0510910455,0.355675809,-0.7988456848,-0.6418104085,0.3906975965,-0.8241989026,0.5442962564,0.3424539576,0.8356454984,-1.2749076935,-0.1049678014,0.8512925641,-0.142864642,0.7762920201,0.475173651,-0.6994317491,0.3204875701,-0.4180168655,-0.6571706334,0.7428762406,0.8172068345,0.4165403355,0.0030942628,0.4295518821,-0.3760588293,-1.6158500202,-0.0596675958,0.0170082437,0.2303505133,-0.5172097821,0.6000818169,0.3296165706,0.1764138452,1.7764090521,-0.382606806,1.2496747006,-1.2779443486,-0.8919301435,0.8270467885,0.6299561066,0.0938451404,-1.0221916264,0.5810264927,-0.0600313011,0.974842158,0.6924554834,-0.4503319864,0.8031651113,0.2572644377,0.5642711779,0.3913646918,-0.0760204757,-0.2344278965,-0.4527520746,-0.233094016,-1.1971786681,-0.010919684,0.6602446466,-0.7325328314,-1.0495786164,0.0673403739,0.0600319824,0.2860045443,0.0416267025,-0.992617858,0.1986405129,-0.3392088428,-0.0856051858,0.8387328288,-1.2370598747,0.2839815611,0.0218995002,-0.1631301009,-0.2311930153,0.3010862525,0.0129439501,0.853288798,-0.1302469832,-1.6614175672,0.1565663307,-0.8259312967,-0.0598453151,0.331750719,0.0121310736,-0.3025951146,0.9319522212,-0.0284488054,-0.5822252727,0.9148867751,-1.0500274374,-0.7492257399,0.1180525495,0.5208662969,0.8767056871,0.1460626525,-0.9346215978,0.7305745633,-0.7529930259,-0.8951366401,-0.3416695317,-0.452829261,-0.0923545038,-0.5188631466,0.6083075342,-0.7144671316,-0.5339628818,-0.2530989197,0.2801622449,-0.303118458,0.0773008805,-0.3246083036,-0.95754084,0.2028740621,-0.7937203376,0.8035188054,0.9272412715,0.3658220983,-0.9774475822,-0.3485400708,0.2422477451,0.0974348025,0.1207643531,0.6474704473,-0.8886187551,0.8798460027,0.7082404231,0.4158118615,-0.2986385843,0.0424962503,0.8637829988,0.2061944707,-0.6518088506,0.9825288777,0.7642310802,-0.7896824235,-0.3731239265,-0.3559143093,0.3393974684,-0.7828817322,-0.6190775613,0.1638795078,0.3175634537,-0.5668423698,-0.2095359604,0.3656514342,0.1601163569,-0.2779309906,0.2353604852,0.2830686821,-0.5589238073,-0.2803873407,-0.0602954466,0.117373977,0.8467380187,0.9978427766,0.9773579859,0.9490679766,-0.5106549198,-0.3850328703,-0.9322927326,0.3576129633,-0.9435094269,0.9901987372,0.4926854472,0.6793666669,0.6237427957,0.5797626571,0.904931604,-0.5583496335,-0.0316882761,0.9091426919,-0.5950794673,-0.9807418797,-0.5498321808,-0.8481629993,0.1471780342,-0.4739100272,-0.7227156523,0.4192662796,0.0752266141,-0.0353913582,0.0160279835,-0.0390264978,-0.0458965973,0.3498626428,-1.5999017709,-0.2369784458,0.0528035041,-0.3124793283,-0.9694427586,0.1590483709,-0.3498569858,0.4451225148,0.808418726,0.172891548,-0.1443013049,-0.409007786,-0.0100171096,-0.1733269077,0.5291617941,1.2912832225,-0.4199192531,-0.6116999285,0.079305454,-0.3491094544,-1.0718782294,0.3384687811,0.6867342723,-1.043840521,-0.442403708,-1.0567198839,-0.0849356056,0.1276291368,-0.1379058916,0.0364626355,0.7407239148,1.165517946,0.2290430027,1.4545677098,-0.0992135972,-0.6991625584,-0.3000858841,-0.0917702282,-0.440144787,0.9084595958,0.0275698994,-0.023816073,-0.1141314389,1.0949023517,0.6575694898,1.3324048745,-0.9187057437,0.4014980061,-0.0193497537,-0.0092603343,0.855358591,0.6026995251,-1.0556909108,0.0275857998,-0.3202645295,-0.0037355392,-0.7264745433,0.0156856364,-1.4473665515,-0.0089336719,-1.5081849342,0.4589101677,1.5226868935,0.0583961627,1.7930952437,0.1444883013,-0.0478875831,1.4536485304,0.3172908793,-0.5627095022,0.0127858954,-1.1909862507,1.1691405928,-1.3956688699,0.6700027698,-0.4668747508,-0.7011950656,0.0215457715,0.3649886144,0.0366695517,0.5956097452,0.9951434603,0.009335231,-1.1989570072,-0.3440556499,0.1585404986,-0.9879499005,-0.0339405576,-0.0074744791,0.198171548,0.1199653117,-0.7182675171,0.1957966762,-0.4586557975,0.1041816821,-1.0009319129,-0.5440874026,-0.9830458599,1.3527107412,1.6233132325,1.4416067828,-0.3432631693,0.8665274807,1.534903483,0.0227450141,-0.384364015,1.230650403,-0.5571369954,0.0665034205,-0.19188732,-1.5040795056,0.5815434128,0.1808911797,1.464810589,-0.3845538255,0.005367696,-0.2281410612,0.711334466,-0.0437950055,0.8837581896,-0.7228793453,0.6382861173,0.1314568687,0.0400887891,-0.1262380438,-0.3205034691,-0.4613617047,-1.3461918609,0.2039614661,1.1326263768,-0.9101425559,0.4851392028,0.0848230346,-0.0954104789,-0.9687319014,0.1957025844,0.0331986335,-0.0203360929,0.4678899127,0.3111556993,-1.0599611869,0.3975469653,-1.0444310352,0.4317670214,-0.1370249486,0.0325945505,-0.0773313882,0.2983803411,0.0611001229,-0.4446325446,-0.7387502141,-0.9975349909,-1.2204371276,-0.5069347267,1.2573591793,0.5345427104,0.369078117,-1.1300131697,-0.6603994236,1.0312372025,-0.5720485939,-0.0927286545,-0.3955483454,-0.8220231732,-0.7579871064,-0.9743732029,0.0657806985,0.3227717421,0.3584968256,0.5840517746,0.0738249923,-0.4272700734,0.0370011837,1.4618633725,-1.6793287282,-0.4985701041,-1.1611679107,0.4178985467,-0.1302798926,-1.4680468983,-0.3701880131,0.3016566064,0.0133314328,-1.4935356651,-0.3725619372,-0.0086271863,-0.0776101268,0.95449678,-0.52412696,1.4886528387,-0.1608759397,-1.3058154566,0.0179592846,0.5721454801,0.3086594837,-0.3839855774,-0.5630011179,0.4585152207,-0.4692638791,-0.0836602379,-0.0269553941,-0.3560018334,0.5424249577,-1.4633565161,-0.4997287571,-0.3391886521,0.0811047435,-0.7042171641,0.260083681,-0.2685628844,0.2703502421,0.926738072,-0.0161841175,0.1119061364,0.2555675315,-0.6215950195,0.0248846545,-0.7143248153,-0.0212623611,1.6416554456,0.0652863287,0.0910536623,0.7309456311,-0.8716265406,-0.9489785659,-0.0730885333,0.3873360264,-0.0195803984,1.1968494229,-0.9403438157,-0.4922064236,1.1682468639,-0.1929496135,0.0429797958,-0.2630935177,-0.1424710996,-0.3437924534,1.0530640377,0.5285489106,0.2068631205,-0.1840181592,0.707631217,-0.0209412585,0.4294631527,-0.7787322819,-0.3950035768,0.0169238585,0.3504234511,0.1553572929,-0.6052975556,1.2381278183,-0.9547840968,0.0329074911,0.468726141,-0.8155739516,0.0370905591,-0.1635215305,0.4983747843,-0.2122395477,0.0913988131,0.6017104882,-0.1643043171,-0.3034961663,0.2416415251,0.9046837346,-0.8564378153,0.881912301,-0.3124561544,0.4228594297,0.7893727987,-0.3466463068,-0.1286350417,0.2389591311,0.588983006,0.297204646,-0.2619906856,0.2628601511,0.3200979587,0.8929086785,0.071233112,0.1361534453,0.0390801615,-0.160186817,1.9192530235,0.7833524288,-0.573397788,-0.6177470494,0.492197463,0.9896754136,0.3107223448,0.3558045832,-0.894999327,0.7937460967,1.9082128096,-0.264532388,0.090699223,-0.261683892,0.6377166734,-0.6997920973,0.4445106447,-0.3502780694,0.3161836252,0.4584191788,-0.7720626408,0.3678752669,0.7028543101,0.1267383193,0.1544542188,0.2602065581,0.539475099,0.2460751358,0.1171892676,0.6090073317,-0.4755003087,0.089971696,0.0903044306,0.7154188602,0.2643254834,-0.0086290971,0.6095975425,0.5827065538,-0.93649252,-0.3698285316,0.695121135,-0.4875836925,-0.3609166827,1.215622127,-1.6032653602,-0.3088573957,0.352509363,-1.0272986912,0.0735078733,-1.6537135798,-0.0731738001,-0.3112540641,0.986816671,0.8276560189,0.0280462639,-0.2875338157,-0.0222324672,0.0835191847,-1.7715210646,-0.0844136881,0.576614517,-0.8048152376,-0.3232628474,-0.3028767459,0.1665977407,-0.9169507943,-0.0000774309,0.0451682279,-0.0603276829,1.1034476549,-0.7081869803,-0.0008527177,-0.6427561539,-1.0844197816,1.1128026216,0.9315538635,-0.069423095,0.0044054589,-0.4985923156,-0.0439293389,0.0636849706,0.4493906543,0.1446837904,0.2819691927,0.0205197386,0.1014565624,-0.0073558126,0.1056766727,0.9961757822,0.7848977194,1.2479393677,-0.3503064063,-0.4204211082,0.062182446,0.6820865198,-0.5330072598,-1.1719224341,-0.2201563026,0.9085750962,-0.4369055048,1.2284722388,0.4281147583,-0.3453549011,-0.4754472229,0.8564996885,0.2235112015,0.5105755904,0.384144295,-0.0780128174,-0.2158601507,0.0507387077,-0.0006160588,-1.1121542902,0.20404387,0.0303622081,-0.6650343453,-1.4332030352,-0.7103080481,-0.2346753902,-0.0058534428,0.3274255764,0.1880616922,-0.7605534809,-0.1499747945,-1.3570893995,-0.7324586047,0.0394109634,1.0881535929,-0.477883313,-0.0859663587,0.0159269187,-0.0176820654,0.8812833244,1.733459193,0.6964134741,0.1377643874,0.3778110012,-0.4040979832,-0.5759790129,0.3314401635,1.333989939,0.7549027094,1.2987183886,0.3059949102,-1.2330299981,1.1819192506,1.2013138555,-0.4561104689,-0.3838934441,0.1296373231,-0.1021949304,0.5124418384,0.4479478848,-0.4187651097,-1.033906475,0.7600946737,-1.525634602,0.6115014515,0.7300204139,-0.2240419039,0.1376884598,-0.722773499,0.0076010629,1.0319239764,-1.0084885709,-1.3386274779,-0.1332919751,-0.463960004,0.0078009992,-0.2986914373,0.3767782757,-0.8147059416,0.3939286968,-1.0703839644,0.9082030103,0.2936028255,0.0049512167,0.0910607794,0.5303803984,-0.0455803805,0.1673179446,1.0870662384,-0.0386002363,0.407048719,0.5843858511,-0.042487997,-1.344776436,0.1139977375,0.3459017469,-0.396483794,-0.0305747699,0.0127363669,-0.9049989479,-0.0275783453,-0.0143677696,0.0208762924,-0.8077224526,1.0066004026,-0.3960299426,-0.4073863842,-1.4272178957,0.521704746,0.2056954496,0.0129564828,-0.3111661101,-0.0175359197,0.4152174901,-0.0224859766,0.2198416277,1.2921096365,-0.0018161243,-0.5638788694,-0.0079991709,-0.477737082,0.0288056704,-0.4361973733,0.6306920001,-0.0442927717,-1.0058718025,-1.2950342626,-0.2622715835,1.070598001,1.0960398854,-1.2906798133,0.4526734092,-0.4171306601,-0.3599095045,1.0232309024,0.0500772149,-0.3515905541,0.8295584062,0.1818297182,-0.059125678,0.0739051796,0.6323029886,0.3482387239,-1.2762104732,0.0263802128,-0.0973591119,0.0513906458,-0.5654050063,0.163304605,0.538431667,-0.2964083781,0.0418997235,-0.0415445137,-0.5400980088,-0.069396706,0.1084023617,0.6054128765,-0.7398977902,-0.4371547361,0.1455567727,-0.3897261107,-0.0616058667,1.6401015779,-0.46919871,-0.837069211,-0.1434719276,0.4793259962,-1.0717633754,0.0740440388,-0.7475708616,-0.6590971978,-0.3853780253,-0.0067934825,-0.8281844562,-0.1067931432,-0.6995466948,-0.4842665733,-1.1141968333,-0.3274674516,0.0210372054,-0.0018308046,-0.367333362,-0.423535498,-0.7918393106,0.677899977,-0.0441448918,0.2663394016,-0.4905649392,0.5286011163,-0.520917124,0.8854110525,0.0229834083,-0.6154562903,0.5796153255,-0.5612638371,-0.226363418,0.346648031,-0.4846478043,0.3543114583,0.243373806,0.1316660696,0.7079876083,0.3120015576,0.1461455032,-0.2619848146,0.1583398016,0.9509690455,0.268305794,0.7228002099,0.3859181233,-0.2987857131,-0.1660885555,0.286588013,0.1375063252,-0.0317063215,0.3902226949,0.7414578412,0.8171244682,0.7414280582,-0.402977196,-0.7396967186,0.706463856,-0.4545471114,0.8438737343,-0.2543812708,0.1096551519,-0.5586692156,-0.0187742092,0.8554379318,-0.1459047418,0.5024649501,0.103270484,-0.2727358895,-0.7776167633,0.9720390536,-0.5301456839,0.7519575795,0.4690616267,0.7102551416,-0.3764992845,0.0223781789,0.0687945027,-0.4340119434,0.0267087226,-0.8616063581,-0.8624362874,0.7773089037,-0.7223456543,-0.4769797812,0.7133534886,0.7393933369,-0.6955791122,-0.9275610452,0.2792799059,0.3320391794,-0.0281334206,0.5466949651,-0.9574386502,-0.3227600729,-0.217998655,-0.4220978032,-0.9953107682,0.805976031,-0.2142734868,-0.8946462718,-0.642171638,0.1541006206,0.3069997659,-0.2811607563,-0.4908522109,0.1398070772,-0.0277604296,-0.0868365941,-0.5122786864,-0.5477351288,0.8761465964,-0.222010358,-0.1928675071,-0.3414526426,0.0128149205,-0.6282358691,-0.6228920972,-0.2985582843,-0.4931197486,0.1146822428,-0.9534076299,-0.7095984146,-0.0441913219,-0.9517741766,-0.0411329491,0.9434240403,0.8531726034,0.1056381743,-0.3303417741,0.7046777491,0.7505332281,-0.3366477214,0.2717598628,0.7375026032,0.5593314082,-0.432964607,-0.7520513932,-0.1482188719,-0.215156663,-0.8326507379,-0.0881203505,-0.0094757755,0.294248444,0.9434253058,-0.9969652048,0.7733690892,0.4719007913,-0.893847597,0.5957943961,0.3000839672,0.2051037565,-0.9058029162,0.813982818,-0.0048711996,-0.7199943802,-0.9870116182,-0.589543869,-0.1962368978,0.9637573594,-0.1391278966,-0.5647869898,-0.5139860806,-0.8884098276,-0.7031797845,0.1338480315,-0.9762400849,-0.3862912483,0.9795816923,0.8459023757,0.1814181352,-0.0781762177,0.3065864797,0.6698394809,0.4788265977,-0.693789344,-0.0485006066,-0.3796513626,-0.157353249,0.9655113688,-0.7988243066,-0.4007210384,-0.5083226873,0.4208869641,-0.6273597479,-0.7643870896,-0.5059179272,0.7218772558,-0.4271476935,-0.6886217204,-0.7731424109,-0.0537978939,-0.1326379655,0.7073281393,-0.1382404829,0.9838286013,-0.2265586534,0.2180838926,-0.3964858695,0.7715393091,-0.3786842151,0.4759296576,0.6641277969,-0.9274308091,-0.6305931581,-0.6785961738,-0.9910479648,-0.054579843,-0.971235879,-0.6713622945,-0.8959959394,0.1137631882,-0.7818016757,-0.5503099844,0.9535096869,0.9485935838,0.9603320339,-0.4429480025,0.6987372572,-0.161667584,0.7868915163,-0.9171528625,-0.0869539544,-0.2491586197,0.7013700382,0.526866081,0.8442420923,0.0593152177,0.9993864143,0.6128403406,-0.7414196274,0.837982145,-0.8385605695,-0.1860497635,0.1188931389,0.0373166864,0.733277552,0.1480450929,0.226566898,-0.9948092739,-0.8936082114,-0.2968637515,0.0766575462,-0.9084933153,0.3544324302,-0.6130355783,0.8781083653,-0.5490746411,-0.8570916937,-0.7856290454,0.2875166591,0.3683597935,-0.1570716187,0.3230942795,-0.1931214791,-0.4236726613,0.6421651512,-0.2192352188,0.6562210236,-0.6493015544,0.591447545,0.320705407,-0.3734033708,-0.6388144923,-0.0656801875,-0.4705075406,0.5681491356,-0.4324760329,0.2993099083,-0.9905736707,0.9202631868,-0.9845790403,0.1584897528,0.9523148897,0.031621739,-0.1028568926,-0.7276661626,-0.8878208916,0.1218117131,0.1843693716,-0.8517856231,0.0454080311,0.6343432178,-0.4524142441,0.2886945718,-0.2840252046,0.2123478639,0.4548256823,0.7693344815,0.4543962827,0.2000976632,-0.9216833243,0.5697812325,-0.3846141597,-0.6504049392,0.9654208111,-0.3491235655,-0.4060459322,0.1687335399,0.0150651439,0.5624597794,0.788389184,0.6556047242,0.6549911001,-0.0974750106,-0.9410662317,0.0485693792,-0.7213222253,0.0315864099,-0.24429013,-0.479350972,-0.8328460883,0.2420556047,-0.2877039566,-0.5767142557,-0.9765744569,0.4657356075,0.6494180482,0.3515536763,-0.4509169515,-0.8547868246,0.7147580176,-0.5041793064,0.5708956147,-0.7773734641,0.4022771423,0.0250207617,-0.3726147366,-0.7695912795,-0.917235342,0.6447616703,-0.4911324045,0.865350438,0.401692695,-0.2074965658,-0.5309114184,0.9177434718,0.9798087949,0.9460362712,0.6014938508,-0.0783323183,0.8562449798,0.4889242002,0.7031313587,-0.4213279333,-0.8894769542,-0.3996533162,0.9983928917,0.8048849156,0.309778112,0.4079683457,0.6122355191,-0.7103070749,0.3379325205,0.8279683047,0.2702188224,0.6224914621,-0.2453624882,-0.7344912444,0.0141643362,-0.6853113574,0.6800514982,0.8654980589,0.9211894784,-0.6773498591,0.9463100148,0.0996563439,-0.2903652495,-0.7065620305,-0.5774144691,-0.9483333189,0.8398974795,0.1666958021,0.8214435861,-0.5874873782,0.4723825348,0.7290371506,-0.8706130753,0.5174720849,0.1273390714,-0.3100557885,-0.4610989367,0.9699135774,-0.6275387177,0.0348740969,-0.1200910492,-0.9775594578,-0.5747724331,0.4111090005,0.1071469626,0.4311422141,-0.1814246463,0.2081244909,0.2217688861,-0.1353376372,-0.0805157143,0.0619339207,0.219475062,0.8954518961,0.6095427726,0.8655624024,0.4976281439,-0.4028595686,0.0187707901,-0.0237687588,-0.9536741027,0.5948413525,-0.1067329325,-0.1896003953,0.4641994082,-0.2312277797,-0.5583229444,-0.9239775999,-0.179964007,0.5348425288,0.4809939548,0.0762986821,-0.0875423915,-0.2201964401,-0.3749375193,-0.5937168824,-0.3612341093,0.3868571047,-0.1494382802,0.8817614842,-0.6231194959,-0.7972068098,-0.3294156391,0.5966262969,0.6744058387,0.8674405661,0.1257320849,-0.5320789298,0.7571415905,0.0171260934,-0.1418707658,0.5953090733,0.9192139432,0.4552182674,-0.1845475418,0.9565797505,0.1412122794,-0.9760160182,0.7282684913,0.518619134,0.8410457863,0.2815535447,0.9256429387,-0.7425410256,-0.9062802666,-0.6640214849,0.2274620746,-0.7317598002,0.0369691428,0.9073306054,0.8653709569,0.9382517143,-0.9092149786,0.2792974228,0.1506295361,-0.0059710002,-0.1547550791,0.3394397293,0.4505900996,0.6748183552,0.3616462663,0.3903106625,0.2514740637,0.4184151611,0.6143002455,-0.2429701956,0.0898707482,0.6138494805,0.1469727494,-0.3110550814,-0.0700025902,0.8740223473,-0.7670529351,0.0207689479,-0.3219169195,0.1793787648,0.2222443722,0.3279243141,-0.6105492382,-0.1675131129,-0.9082078472,0.4009282631,0.1621244686,0.8852913206,-0.4608052699,-0.4680546498,-0.7694995229,0.1034740936,0.8995276193,0.3572600746,-0.5427001264,-0.5438230504,-0.5174294517,-0.7232519006,0.3815041252,-0.7687568847,0.9099668674,-0.8411902324,-0.0308080161,-0.7800015947,0.8122904954,0.0884212697,0.4026686855,0.138358579,0.8121561674,-0.8948025211,0.3760018507,-0.1737585729,0.8779329318,0.1285384028,0.0092492422,0.17186957,-0.5408423638,-0.6162397538,0.2112278363,0.5885377301,0.9853339255,0.1911658244,-0.2003949547,-0.1978027501,0.6425068552,-0.1276337382,0.3219601148,-0.4066609126,0.459094288,-0.7323832079,0.0729495934,0.1508043491,0.0010580196,0.8440844463,-0.2877008819,0.6578104437,0.8829520751,-0.119122132,-0.5062291575,0.3053928748,0.6977223314,0.2118119937,0.8242233237,0.1610256533,-0.0600770594,0.7496321217,-0.1032043986,0.7070678511,-0.1178541418,-0.035836984,0.5759322246,0.4968734033,-0.0574367966,0.2869234212,0.190612587,-0.0126187529,0.0239692115,0.5743518379,-0.1639169113,-0.6316308417,0.2189311335,0.5077769302,-0.4677347354,-0.3687473922,0.2749975266,0.562182268,-0.6838486393,-0.5212536497,-0.752050937,-0.0220282972,0.7239764225,0.847889808,0.3405775537,-0.4007479176,0.5279587593,0.7681759723,-0.54752512,0.7505401191,0.7302449205,-0.5242482962,-0.0647746285,0.7575883008,-0.8882745914,-0.1384597284,-0.3182196851,-0.201252935,-0.1077958292,-0.4297675962,-0.2847901469,-0.5110052831,0.5330856808,0.6817590131,-0.1691117871,-0.132907026,-0.0329427496,0.8507111382,0.3505690691,0.6997331789,-0.5397520977,-0.6461325515,-0.5252305115,-0.0393991322,-0.6315287128,-0.7885159342,-0.8056700779,0.1819567924,-0.9273049662,-0.3159809652,-0.7838197951,-0.7830380232,-0.6096015162,-0.815058538,-0.5913358402,0.2704920577,0.1640865023,-0.9755020519,-0.2779825489,-0.3316069169,-0.7114630952,0.2479388898,0.1557605589,-0.026302085,0.2468688717,0.6686426526,-0.6860554773,-0.8066782483,0.6574453272,-0.857703241,-0.7309294623,0.7968949699,-0.4714371728,0.227755139,-0.7231282052,-0.3806573706,0.1403873923,0.510192544,-0.6086142399,0.8689325504,-0.8559110312,0.2364996528,0.4521045888,-0.8757729179,0.9443792173,0.3861146078,-0.5362635253,0.0089043573,0.3859233297,0.5115462541,-0.7074758713,-0.337417445,-0.7428973363,-0.331041185,-0.1586957613,-0.3362953295,0.3632156539,0.68373313,0.478030232,0.8294676275,0.1400254921,0.2639250771,0.1030768614,-0.3570367981,-0.0373776705,-0.9308791669,0.5492183802,-0.3712373035,-0.14316359,0.0284946952,0.9943312238,0.2212664523,-0.5605334148,0.7772074824,0.5592995014,-0.6484139204,0.4731640956,-0.6535705237,0.4403995805,0.0265376865,0.4678690651,0.4537287777,-0.6017328444,0.4017410598,-0.2227251384,-0.8189564715,0.9003771172,-0.3595021069,0.792712379,-0.1846945679,0.4307637051,-0.2935112954,0.2581529733,0.7349344528,-0.9835837197,-0.9379833101,-0.2913684033,-0.8977474214,-0.6773874822,-0.3264061302,0.5439756164,0.462077075,0.9106807984,0.9389284288,0.7638840941,0.5002913192,0.5977938025,-0.5193949575,-0.1944190455,0.8076432893,-0.1404545442,0.9341599935,0.4837771682,0.8054901747,-0.8844653735,0.5335567878,0.5961040232,0.9207359549,0.8183075912,-0.4230866742,-0.9268544017,-0.3495603393,-0.9163670691,-0.9810966469,0.1138589985,0.9633363515,-0.1182294429,-0.624281545,0.5539767789,-0.5433997712,-0.1866760932,-0.8517909649,-0.0815877272,0.3881706962,-0.4232942825,0.1649185728,-0.9794556213,-0.8847162439,0.4433559903,-0.7474588559,-0.9812604129,-0.5466853124,-0.2977957298,-0.1761813172,0.9256244245,-0.5252025129,0.2597204051,0.7936093137,0.1718109968,-0.3568468115,-0.8778652407,0.0974844065,-0.1106578511,0.4559184453,-0.1403965188,0.018718485,-0.4365159702,-0.9167076346,0.311371108,-0.8195414365,-0.1809242591,-0.7355479204,-0.778729525,0.5522142899,-0.877830575,-0.3359963541,-0.6497197238,0.0662000716,-0.3652250394,-0.7806983607,-0.3964555536,-0.160324528,-0.7204518896,-0.2601061004,0.6478418338,-0.6252088174,0.968008697,0.9788048428,-0.2161736544,0.8471354313,-0.2372590484,0.4940633805,-0.7143237352,-0.6801616143,-0.9562982804,0.0574271706,-0.0919060644,-0.2466984789,-0.8089201335,-0.2876221561,0.8003183991,-0.9435729302,-0.4847673965,-0.4414720424,0.6950893009,0.6865402653,-0.2860578159,0.7609915945,-0.4539980338,-0.6108103813,-0.7852259547,-0.3686094014,-0.4530615992,0.3081675192,-0.6097916604,-0.2028920491,0.6684353312,-0.8096852022,-0.1253544644,-0.7106778933,-0.1220334799,-0.7819650071,0.960891123,-0.0354349998,-0.8337702769,0.1418624902,0.6557896094,0.1965052487,-0.0581701865,-0.890561516,-0.6312221522,0.9964536302,-0.977547044,0.8028197531,-0.8282104952,0.7518039749,-0.7923378159,-0.1433320977,0.8373900718,-0.1557377312,-0.9961782097,-0.3855152366,0.2930342905,0.1938970701,0.0974666496,-0.5052775392,-0.0400072962,-0.0081945534,0.7141183673,0.6082091335,0.3664821664,0.0562640549,0.5251984002,-0.9194559181,-0.4788891682,-0.5116435444,0.0851599078,-0.9510351815,0.5292633792,0.2558901621,-0.2170073531,-0.2021921953,0.7243341227,0.563067407,0.9621448291,0.7293003308,-0.5135698674,-0.0596116299,0.0382498718,0.8727479959,-0.541979194,-0.4432753981,0.3262825871,0.7783534352,0.8462723733,-0.3759072331,0.513358145,0.5990508689,-0.369595145,-0.2767960875,-0.8442637807,0.3123716275,0.2771962949,0.4799168314,0.9030950571,-0.2357864722,0.2123691567,0.6290579586,-0.3156985262,-0.0673326225,-0.252271497,0.7798190126,0.8460704311,0.6845829115,0.9513348726,0.4996799681,-0.4277729672,-0.6567657885,-0.7757853678,0.6805975365,0.6211517098,-0.6685581001,0.8694132826,-0.9392325338,0.0949412358,-0.1259723992,-0.3698400916,0.2087230329,0.3557075541,-0.1932361025,0.9740856281,0.3198516909,0.5912354757,0.2318239292,0.5652210842,0.7696929493,-0.3735905763,0.7438408226,0.7683883182,-0.9162271786,-0.9447912594,-0.7125991254,-0.0905684456,0.0960914823,0.4901394353,-0.7864034154,0.4461979109,-0.9623367412,-0.2933061762,0.87955194,0.1946215135,0.7278219369,-0.1456450964,-0.2675767569,0.6635532211,0.8316954977,-0.0824009459,0.5762560472,0.8860952648,0.0986015278,0.3015984678,-0.9215609968,0.7895600528,0.4917816656,-0.6895614099,0.5272379154,0.3414326397,0.646855738,-0.3923325226,-0.4083681118,-0.3169164725,-0.1848559776,-0.4236068096,0.7755921374,-0.1853922751,0.4742630458,-0.0850214799,0.3980256576,-0.7980851206,0.951311512,0.5612710363,0.3455152017,-0.2799352563,0.4391996551,0.5343803365,-0.5605097667,0.0846723411,0.062895803,-0.4866692451,-0.5179578155,-0.8996090743,-0.8736868585,0.8248409747,-0.3323307494,0.5538218844,0.0695438064,-0.9878974172,-0.6772132229,-0.8269199349,0.5328068313,0.9098437228,-0.2757247342,0.3541338745,0.7150725363,-0.6618344766,0.2741254854,0.5476616527,0.7755724426,-0.6282096944,-0.8948928717,0.8649571845,0.923095666,0.8172507545,0.1379641228,0.5557194738,0.4572355775,-0.2989633357,0.1811358408,-0.2197131409,-0.9791933537,0.9066247553,0.1273643292,0.0047336175,0.1851210058,0.4660571019,-0.2858039939,-0.1037399907,-0.8730443048,0.7786741061,-0.9184727566,-0.4950942337,-0.2229471116,0.9733583879,0.7243244671,0.4116225787,0.9397184133,-0.7377414766,0.2045658222,0.2085628194,0.6055747198,0.9395064288,-0.1204337591,-0.085780165,0.4840394944,0.281277958,0.2209023128,-0.3668429487,-0.6779164748,0.5566391411,0.4567429422,-0.9173609519,-0.3515267215,0.1540090852,0.4103517285,-0.7821239939,0.0855863255,-0.9232088857,-0.6722146494,0.9164564731,0.3387969995,0.2016599007,-0.9333052333,0.5545722775,-0.283314973,-0.018940224,0.4497560543,0.6708926787,-0.2316741056,-0.4209933761,-0.2969937135,0.0658585687,0.8645449926,-0.5616396273,0.9279522622,-0.00346482,0.0608469287,0.6927143052,-0.7613738574,-0.0086145123,0.0540292857,-0.8979426474,0.8544001442,0.7521205641,-0.0605436913,-0.0041490492,0.8102994801,0.4678170577,0.917537857,-0.9520352765,0.2294781008,-0.7224938769,0.9674233512,0.056514283,0.1354725898,0.2689910563,0.0961936448,-0.2499460113,-0.8199661674,0.744565183,-0.3042043459,-0.8430729138,0.6691005696,-0.8674863066,-0.5683443522,-0.1886130807,-0.75580446,-0.1844271996,0.6255736677,-0.0034531207,-0.1416154791,0.7671393022,0.1675887838,-0.8985637254,0.9444917421,-0.8843367196,0.5139902665,-0.5360969543,-0.7679531407,-0.412663951,0.7638483447,0.886717144,0.2547346733,0.7686915185,-0.0502490755,-0.0883004945,-0.4810539324,0.6026359666,-0.3865967597,0.6074738977,0.6082165219,0.843751143,-0.2745937618,-0.7987306577,0.3513129834,0.3323961679,0.3123418138,-0.9410458519,-0.0795330644,0.4895397452,0.2809181627,0.5778829549,-0.754690265,0.7392535642,-0.2657716179,0.2926023475,-0.5051484799,0.9965807561,-0.6644566638,-0.8847207985,-0.2033680043,0.5756230473,-0.8774014223,0.2051335797,0.7428956213,-0.4866266118,0.5462471697,-0.4166014237,-0.5348180179,-0.7016307628,-0.0768844889,-0.8266479166,0.435430417,-0.7853765857,0.8154621765,-0.8615635917,-0.2821836773,0.3619114715,0.2398307587,-0.8176645384,-0.0925339761
   -0.8217279173,0.239993999,0.0340677586,-0.0119316219,0.4256360208,0.1085040633,0.6427452267,0.585276053,-0.0637105482,0.2617261885,0.7346416267,-0.2266164741,0.2650524503,-0.7250697588,-0.6523874724,-0.6497614533,-0.7293499383,-0.4711511426,-0.7700973358,-0.6346152669,-0.3647394906,0.0127248068,0.7161743468,0.9380278757,0.9101280518,0.3069656335,-0.748911239,0.8725099996,-0.9559335537,-0.0591711997,-0.2876573974,0.6898150865,0.8723418804,-0.068292113,0.8317741608,0.8792867202,0.2268335344,0.0994400661,0.7117734931,0.5290563576,-0.6314591822,-0.4742426831,0.6650650487,0.4865834607,0.722992406,-0.0472842177,-0.0222091267,-0.5258970267,-0.1311401739,-0.8258658858,0.1323188085,0.4279713438,0.2005618849,-0.8270174841,-0.042666001,-0.1228954895,0.4382761193,-0.2000036481,-0.4932610196,-0.8475869327,0.3230707691,-0.4417108431,-0.0875744656,0.0192500667,0.2192760269,-0.9560946583,0.0995931928,0.3341990535,0.117122117,0.8368146366,-0.5498826054,0.1405626685,-0.2980009416,-0.4972882272,-0.5421389907,0.0130152336,0.5789907614,0.8729590444,-0.2456445802,0.5830728391,0.4875420837,0.3933799531,-0.6399716195,-0.4026395014,0.4586092007,-0.0675773809,-0.5559646945,0.2529405028,-0.912208468,0.7957986124,0.516838944,0.5477185546,-0.4632601672,-0.3518089774,-0.3934593859,-0.5829512751,0.2008273172,0.2837758531,-0.5366636219,0.1268134226,-0.45761355,-0.4001808282,0.4759099382,-0.4305586468,-0.1398868805,-0.3418146814,-0.9261357149,-0.0362864971,0.5331166798,-0.3240287324,0.4427162875,0.4497591409,-0.6471104406,-0.4839798535,0.477194271,-0.4193872816,0.9421255136,-0.5724876671,0.5545508172,-0.5607965974,0.6054462546,-0.5397385238,0.5044812029,-0.6573565161,0.6057950632,0.4505372695,0.5219240862,0.2814898566,0.8993987344,-0.6345371372,-0.2993582056,0.1388020368,0.7779933375,-0.8301153107,0.4943584718,-0.7036625386,0.4742588408,0.1675357434,0.3591773334,0.4172308983,-0.3321304135,-0.4394817246,0.6827984151,0.3052593339,-0.9335656492,-0.2247271472,-0.0603155433,0.6595125774,0.6506922692,0.5105789171,0.9884803044,-0.5916420872,0.4732557086,-0.022306299,0.3027973057,0.4385124161,-0.8187449896,0.8901160726,0.7149242498,-0.5675918238,-0.6694213148,0.8438912339,-0.5606369249,-0.7723684917,-0.0716057864,0.5584028234,0.9944755552,-0.5406602108,0.9873128838,0.3742386213,0.0652165092,-0.10032272,0.4765894033,-0.7535763961,-0.5490971953,0.1570809749,0.1423487123,0.551436695,-0.1787593705,0.0801225693,-0.2572011124,0.735444112,0.3839110012,0.0842370402,-0.8671733193,0.4375813412,-0.7530500731,-0.8136699197,0.5487330513,-0.2211977372,-0.4720727951,-0.346041437,-0.9543355398,0.0020287174,-0.576214743,0.3244949663,0.2434517101,0.4464410566,-0.9361684441,-0.59745342,0.7256160216,0.5996213574,0.6800377774,0.6587866809,0.9461755574,0.1074376188,0.6917088226,0.7321991948,0.5107977772,0.3474248721,-0.109264681,0.8082692989,0.1914008612,-0.4964866543,-0.1682480435,0.0017765647,-0.2582312488,0.056530913,0.1871912818,0.319605148,-0.4661840791,-0.7936169689,-0.5088842753,-0.4227892528,-0.0111282938,0.2333108371,0.5189246667,-0.939666262,0.0146841205,0.923113012,-0.6291649347,-0.5670910986,-0.7216798506
##end
biasActivation=0,1,1,1
[BASIC:ACTIVATION]
"org.encog.engine.network.activation.ActivationSoftMax"
"org.encog.engine.network.activation.ActivationReLU",0,0
"org.encog.engine.network.activation.ActivationReLU",0,0
"org.encog.engine.network.activation.ActivationLinear"
