encog,BasicNetwork,java,3.4.0,1,1532927061367
[BASIC]
[BASIC:PARAMS]
[BASIC:NETWORK]
beginTraining=0
connectionLimit=0
contextTargetOffset=0,0,0,0
contextTargetSize=0,0,0,0
endTraining=3
hasContext=f
inputCount=16
layerCounts=4,26,101,17
layerFeedCounts=4,25,100,16
layerContextCount=0,0,0,0
layerIndex=0,4,30,131
output=0.999893918,0.0001060814,0,0.0000000005,10.0285101036,0,15.1528402264,0,0.8170582851,0,4.6871249692,32.1224939904,0,8.978342474,0,0,13.8661440569,0,0,0,2.5379313419,0,0.5241951622,0,20.9924793266,0,16.4601568323,1.4581052786,7.5750140221,1,0,3.0509752651,0,1.4179834116,0,3.8066579705,1.9545366586,0.3750107465,0.7176577418,2.9415980315,1.9408832613,0,0,0,1.9922139169,2.3187969158,0.3901747882,0,2.9664508101,0,0,1.2962972655,3.9706763917,0.2975994077,0,3.5425420013,5.0448215657,4.5487741595,6.6467873569,0,0,3.6896830289,1.6014525561,5.5175345254,0,0,5.7538002517,0,2.3403650734,0,0,0.3576012853,4.2880838217,0.7448847302,1.1490783987,0,0.8434339486,0,0.0725130425,0,0,8.7909608631,0,0,6.5774055099,0,0.5137261843,3.8754779958,0,0,0,8.591463023,0,0,0.0475770224,0,3.6946733161,1.2160890472,0,3.9025183019,2.5211369203,0,0,2.7732640215,0.989567503,0,1.7580888704,2.5030505315,0,0,0,0,3.4736096719,0,0.7562184602,0,2.3544370169,2.8688446338,3.9199120451,0.6039603299,0,0.7883078289,0,0,0,0,0.3836899683,0,1.6070672548,2.250651718,1,4,0,0,0,0,0,0,0,2,0,0,0,2,4,0,0,1
outputCount=4
weightIndex=0,104,2629,4329
weights=##0
##double#4329
   0.5473256359,0.521588711,0.4295199228,0.0967884894,0.6006325201,-0.1451953819,0.9449409874,-0.1220037079,0.8446346671,0.26658275,0.8011060307,-0.6517093765,0.7696066989,0.2531670952,0.7628170873,0.379142289,-0.2805963308,0.2990204,-0.359254423,0.1921854634,-0.2701912448,-0.2909867747,0.8041004185,0.1153246109,0.6405211705,0.4122183891,-0.125150119,-0.5874006128,0.650902554,0.5481877547,0.0212585779,-0.5469061026,0.1092531704,0.8129820509,-0.2565751322,0.5145432861,0.4680737034,-0.1642397521,0.0143434052,0.497982007,0.2803364862,-0.73512459,0.8013669868,0.3628468324,-0.151994932,-0.2296670149,0.0237634593,0.6779337913,-0.8014484093,0.8043015919,-0.2394718511,0.3164842718,-0.6523368459,-0.0763698273,-0.1039535156,-0.3592925606,-0.9750288482,0.3128125827,-0.426285818,0.2762413894,0.4425832246,-0.3106466087,-0.1087449172,0.0344841279,0.7441716707,0.0039596662,0.523332875,-0.3892551634,0.1898595623,0.1487065234,-0.3243956952,0.7546132176,-0.8545671446,0.959387007,-0.4731981748,-0.7968493297,-0.7297582864,-0.7271888179,0.2123756785,0.6035027124,-0.0141713738,-0.5633720892,0.8496597443,0.6145433926,0.3726129458,0.0411070692,0.9209245008,0.793766357,-0.2213949591,-0.4003363122,0.0812853772,-0.2131845621,-0.2699920558,-0.2477791384,0.7905152746,0.9799928352,-0.4773798757,-0.3368960738,0.6903204769,0.8692046666,-0.4989737869,0.9701817166,-0.8165250037,-0.3810347446,0.2582395203,0.9930308094,0.6996298025,-0.849731769,-0.2205418924,0.8548445944,-0.2650974246,0.1935970763,-0.1765452099,-0.405555431,-0.8311409393,-0.2744151339,-0.0049868338,-0.4700512302,-0.4037415905,-0.5256157688,0.6512689903,-0.5447721243,0.6013212313,-0.9118023885,0.2005660825,-0.9630497057,0.1009475325,-0.3021078971,0.5624231636,0.5746267924,0.4654784097,-0.6247378885,0.0268812506,-0.3780793136,-0.258196274,-0.9236630874,-0.2084025486,-0.2055198837,-0.7314885901,0.1765613933,0.1818390842,0.0344611541,-0.3993800924,-0.9501059599,0.3254811763,-0.1702144787,0.4784277763,0.4616824625,0.5279273335,0.5448849095,0.8331178362,-0.9509576465,-0.3263783105,0.9949913208,0.9553981191,0.0885343911,-0.2998101496,0.2818783133,0.9827360442,-0.2464140063,-0.8077046678,0.1260647547,-0.792847449,-0.2010056391,0.2727301498,-0.9351028321,0.1161913681,-0.1980201776,0.8679279963,0.7877166113,-0.2006597207,0.8466951655,0.1650378219,0.7404999004,0.5075946706,-0.0945819409,0.0888482197,0.181857922,-0.9906206877,-0.3904442278,-0.0399970844,0.882047333,0.0568519655,0.5737448276,-0.0997736634,0.7190997906,-0.1808466893,-0.806496999,0.3600909752,0.5695065249,-0.3389011383,0.9252613693,0.960630271,0.403707049,0.1137481482,0.9459259137,0.4741116436,-0.7870877262,0.8355077894,-0.3052691942,-0.8920639492,0.7270175089,-0.1405234305,-0.726767921,-0.8205799376,0.6811207106,0.7260395895,-0.7977401703,-0.3045479602,0.0292436819,0.7227061852,-0.0204638466,0.5559148512,0.8593837013,0.8067042616,-0.7991508259,0.0027801056,-0.5527684681,-0.5882476503,0.1912213018,0.6895000028,0.279929126,0.705209156,-0.2634124528,-0.7099931755,0.1092026448,-0.2475549564,0.6189221118,-0.2609056527,-0.3342448413,0.2736243047,0.0369114583,-0.4962040316,-0.1348053636,0.8655893364,0.1131177881,-0.4442987525,0.1737901733,0.0871038384,0.3130668681,0.4757859141,-0.095974552,-0.164541972,-0.9157967168,-0.4989055877,0.0625193209,0.0306628048,0.6075545464,0.5361651927,0.8664109791,0.3762112595,-0.5582035643,0.9631246734,0.7636841176,0.2459884122,0.3671951386,-0.4295795231,0.1674945849,-0.8899594256,0.2020918535,0.8037688085,-0.2423732817,-0.9325654749,0.8732139401,0.7621873522,0.886607812,-0.8297920129,0.7055413696,-0.4287623892,0.7788073934,-0.4793361755,0.0354809234,0.5988284893,-0.5862034538,0.2097632564,-0.7943776675,0.4216561833,0.116488687,-0.7811480596,-0.1888626597,-0.9492080041,-0.5284881246,-0.6559273873,-0.5833014993,0.7157128663,0.5891382508,-0.9411689227,-0.1309904317,0.1782919926,0.1184744501,-0.3157482864,0.9863214887,0.404119483,-0.4263440531,0.7565398755,0.7067047322,0.5079634322,-0.6099087595,-0.5013542572,-0.9609317108,0.9861033536,-0.4389695379,0.3253553137,-0.5082131262,0.5850276048,0.0791576864,-0.793910181,0.3002327595,0.649241291,0.0220528468,0.0511222254,0.7177973184,-0.8522445721,-0.7800056018,0.5248865231,-0.8575491868,-0.8942610258,0.3126139613,-0.9621042101,0.0531170096,0.009303486,-0.2437139261,-0.3941869051,-0.1075377738,0.150569891,0.3637901749,0.5935124657,-0.7820585294,-0.4893897472,-0.3313248958,-0.1251631701,0.8976971272,0.6943869855,0.3298906578,0.1629015258,0.7781755889,-0.1843430284,-0.1906594125,0.3942772946,0.0003633359,0.4649786258,-0.5227868313,0.721058931,-0.7028874362,-0.3187987744,0.3326812845,0.0284955526,-0.1912706041,-0.1371011522,-0.5680149981,-0.1405603765,0.6922724166,-0.7824606284,0.8937808258,0.3162981105,0.1370949705,-0.1537920894,0.9817977123,0.8927850396,-0.920944424,-0.9181562962,0.7944455937,-0.5928446212,0.4263723509,-0.523247895,0.0106530057,0.4580898066,0.8275517914,-0.1625678796,0.7377138769,-0.8065540487,-0.6182702552,-0.347172703,0.9424723148,0.5084280579,0.3349269124,0.257699982,-0.1860265633,0.1735158383,0.989174916,-0.1048998661,-0.3392724996,0.490938275,-0.8762396163,-0.1020312681,-0.6037942038,-0.9309527886,-0.299296182,0.0644616251,0.6370032328,-0.5237258301,0.4636686315,0.244538924,0.8767137906,-0.6530573084,-0.5275693484,0.4540147489,-0.9276444654,-0.1273167224,-0.3981493396,0.1447063109,0.5449537801,-0.0941483524,-0.8507208069,-0.8166943063,-0.8054325282,-0.3872904088,0.3045881175,-0.412320902,-0.9743228208,-0.8175257618,-0.4924433931,-0.4809063344,0.642677223,0.6720752087,0.1463616347,-0.6128736617,0.7598580908,-0.4139858904,-0.7601592409,0.1130464971,-0.249952015,0.8610585621,-0.1698065141,-0.9841076404,0.1786961899,-0.5301624774,-0.573794045,-0.7089080546,0.3597202832,0.7484403849,0.9635751335,-0.5434832743,-0.8079355237,0.9087334106,-0.7161993473,0.8985423747,0.370348256,0.4154958274,-0.1660702464,0.8797817799,0.6301358983,-0.5952332138,-0.4973967211,-0.7382485199,-0.2667005842,-0.5853323606,-0.4457344516,-0.0868480222,-0.0394934244,0.0778998061,-0.2020871866,0.9265988658,-0.2959467402,0.7631123879,0.1221520381,-0.2212697662,0.6851907181,-0.4507597435,0.4548475933,-0.315622836,0.1884360295,0.3531334703,-0.0613855655,0.551750939,-0.006444751,-0.004974884,-0.8675968061,-0.9675745686,0.0249911306,0.1534638535,-0.8969223179,-0.3863869682,0.8065894395,0.8563914644,-0.2293400099,0.1466989384,-0.9152741953,0.0127970464,0.441839812,-0.0745346434,-0.8096357174,-0.0738205164,0.2596038393,0.5015093237,0.7017226724,0.328152028,0.3022277278,0.1040874261,-0.0108496121,-0.8515465302,-0.471655378,-0.3355073223,-0.5680120816,-0.148787505,-0.9699492546,0.1632767318,-0.4288672583,0.6475458856,0.3308135725,0.7281218261,0.6324615958,0.3105824092,-0.1755500755,0.4474854102,0.0076918596,-0.1684126076,-0.9688927176,0.2194576076,0.4872296503,0.3230574451,-0.4840444725,-0.0746361006,-0.2526613789,-0.8695364856,0.845878435,0.8979929859,0.403084602,-0.361338138,-0.8775064434,0.3920320548,-0.3442131239,0.6483386585,0.1476243015,0.8635015186,-0.9081350807,-0.635844484,0.7771954613,-0.2059632236,-0.5181060802,-0.9886655847,0.6440769981,-0.7939100433,0.6506759116,0.133147583,0.8269921351,-0.3991777397,-0.791746587,-0.1970198476,-0.5597705883,-0.2831547687,0.8870430701,0.8703000696,0.0002832549,0.2936691746,-0.3096276701,0.7502590079,-0.1665830432,0.896858296,-0.0357105119,-0.566176392,-0.1862593566,0.3249801554,0.1360962906,0.927500147,-0.3141338764,-0.8954679759,-0.8682592043,0.4156539635,0.5045431956,0.6916187109,-0.1637614587,-0.4566040211,-0.9513665743,-0.5837078184,0.6349559816,-0.5413090974,-0.1152666413,-0.4325257124,-0.1644127066,0.7962780333,-0.484235332,-0.7951043976,0.6874329707,0.9676481298,-0.1359737577,0.5495313532,-0.8057483045,0.2821350633,0.9880756738,0.5685617284,0.714490538,-0.9830572227,0.7287528648,-0.7471562527,0.21328564,-0.5625493607,0.8600411665,0.7849574831,0.9701773183,-0.9835926851,0.1107155483,-0.6760428855,0.6201369144,0.5626767092,0.488268013,-0.8646878332,-0.258514683,-0.5155972,0.4681572822,-0.3523315425,0.9056550481,0.1561449137,-0.3107225526,0.3188261563,0.6922961256,-0.5074079002,-0.4765813878,-0.0683437343,0.2366920806,0.3015781218,0.0097994496,-0.2092472619,-0.0952419771,-0.4664815316,-0.044096651,0.5590581143,-0.2682385085,0.1591713719,0.0112672263,0.4893408733,-0.3210671264,0.0249276611,-0.225753717,-0.0635013034,0.3771658633,0.1416237606,-0.4925717112,0.2797877548,-0.1300678059,-0.2994373679,0.3482055792,-0.4193681931,-0.1822716466,0.1349209935,-0.4514223193,-0.2156133019,-0.5063966745,-0.8612859614,0.704049645,0.8555092585,-0.4132309616,-0.8419844958,-0.1055093989,-0.4654587502,0.1207674144,-0.5868005698,-0.8821937743,0.7566417945,-0.9282607561,-0.0121196486,-0.5775194973,-0.1979601503,-0.675152557,-0.4367364654,0.8017407276,0.1766239875,0.1388176043,-0.3555664874,0.3189630143,0.9636699086,0.8276927605,-0.0293666153,0.4227712659,0.4239674834,-0.1948002448,-0.1100521617,-0.7522556183,-0.8369949636,0.6261600305,-0.5270261811,0.5958119995,-0.8901056284,-0.1958520608,-0.4074881253,-0.340263312,0.9868966188,0.5656714696,-0.6973367936,0.3768754903,-0.0260380507,0.6410895748,-0.6448039904,0.0166904325,0.2622109288,-0.9253141875,-0.2545284348,0.4104154786,0.6659013407,-0.0531234123,0.6215711169,0.7336438479,-0.227241976,-0.5521955569,-0.3840771076,-0.7966649917,0.4714557739,0.1263099053,0.7367181513,-0.6619037456,-0.4497905911,-0.7745879569,0.4157720536,0.7648827285,-0.0007102128,0.8522317036,0.9386026026,0.7106182965,0.5556897877,0.2467721981,-0.0194652757,-0.7351955984,-0.0975059598,0.6201659726,-0.5092173869,-0.6632271549,0.6726972073,0.2865965402,0.8306087138,-0.7939509119,-0.0085559413,0.7019613194,-0.9609233634,-0.4539312912,-0.4542147285,0.7583058367,-0.2528184594,-0.4922652803,-0.2893434161,0.6527485495,0.3065983216,0.9471595165,0.498406219,0.8029674701,-0.6858292341,-0.7462493946,0.487398754,0.309980081,-0.8587854905,0.532913862,-0.5339349117,0.2191194461,0.563049854,0.0739774235,-0.5846372513,-0.365563665,-0.4036712308,-0.9045744988,0.2211325896,-0.0910521036,0.1152166218,-0.7294424994,0.9790428819,-0.7812458257,0.3322379647,-0.9220394719,-0.9667326367,-0.7592763252,0.8925834238,0.8027278541,-0.6914684654,-0.3067118523,-0.8345630925,-0.5591193432,0.9580193469,-0.1940254222,-0.4523484469,0.768165329,-0.9275539369,0.360026694,-0.7002870556,0.273452478,0.9012580794,-0.997692054,-0.6501612218,0.8076492601,-0.3644983087,0.2430891288,-0.8903009338,-0.0920208917,-0.2019613375,0.0522670236,-0.0307508044,-0.6334406643,0.4737114829,0.99584193,0.8627432493,0.6976950126,-0.3734875696,0.653887322,0.3943395815,0.7501894597,-0.2155496918,-0.4663237305,0.333916157,0.5229492932,-0.2263857706,0.9965598895,-0.4407785546,0.9818358774,0.6919909277,-0.8038853954,-0.0038957916,-0.1289603895,-0.7821543735,0.8963436102,-0.0412491217,0.8960651681,-0.3557765697,-0.6501246759,0.0157431438,0.4769467312,0.7917790274,0.3283248136,-0.8259834594,0.5767525699,0.7101426992,0.2273055272,-0.5202397638,-0.1430641616,-0.9131152379,0.6766192688,0.4938314481,-0.0463638971,0.6870483751,0.5551009964,0.7855932828,-0.8334187898,0.1217125669,-0.9230545647,0.5360665177,-0.6844035028,-0.0095153448,0.7807787918,0.9656893165,-0.4608297224,-0.3904022241,0.6596089346,0.5509063765,0.6549061458,-0.3002807508,-0.3304090327,-0.7233179613,-0.1885065683,0.0469571628,0.5764710895,0.687860409,0.7951876701,0.7223039513,-0.9897368275,-0.2628132048,-0.5650122202,0.6981370587,0.8994469022,0.7690693853,-0.8478769806,-0.0797612326,0.1898600225,-0.260304911,0.5208374858,-0.0897403578,-0.993391641,0.9725678468,-0.2426262792,-0.4902433791,-0.0627163248,0.5448499208,-0.9425906802,0.6921717287,-0.8968545931,0.682968859,0.3481754785,0.1741619441,0.5576404883,0.9875590182,0.4363369559,-0.5383609747,0.0274046904,0.164313579,0.4270889668,-0.41930889,0.7756189583,-0.9568392921,-0.9065272722,-0.4876262475,0.540442849,-0.829263601,-0.8181501375,-0.7124494069,0.3039793106,-0.2592893792,-0.5583577214,-0.0891793925,0.572879275,-0.3543205468,-0.2908937483,0.2393685893,0.6072737373,0.0942617781,0.4549355006,0.2789150263,-0.3975538848,0.8416129422,-0.8119179301,-0.2408934221,0.8484813915,0.6860943037,0.9495362647,-0.1116345368,0.4625801164,-0.5514095605,-0.4780764531,-0.8400726233,-0.4736857901,-0.7938861524,-0.3198752766,-0.0674432277,0.0734860314,-0.3833218424,0.8928055726,-0.6648763559,0.0005740422,0.9719234285,-0.9321240035,0.2963257364,0.0809603657,-0.575660758,-0.3450977735,0.484036029,-0.4783776259,0.0066432916,0.2625533768,-0.2324411814,0.2170485454,-0.2867363933,-0.1059030333,0.2725668879,-0.8889521236,-0.2865055683,0.3777722503,-0.6769934396,0.9840063016,0.3602335787,0.7994401582,-0.932424842,0.6417241434,-0.7451611497,0.0690026749,-0.0038703892,-0.3384930223,-0.8833186798,0.628391346,-0.4431278952,0.781097776,0.2031401667,0.68114137,-0.3210725142,-0.787818322,-0.1781243891,0.2085702218,-0.7417632678,-0.3840231442,-0.422537633,-0.6303293899,0.5951013138,0.7705604585,-0.7821257019,0.4728647391,0.4900275463,-0.7713789735,0.1349961767,0.4788906592,-0.9920642946,0.9616754766,0.7185789051,0.9694374847,-0.3757142939,0.9555355876,-0.134960871,0.0328380831,-0.3492940868,0.5293587612,-0.27451485,0.0510801845,0.0782898419,-0.4792429837,-0.7700988195,-0.6705248062,0.113284965,0.9829384924,0.554059765,0.2548200098,0.6053090105,0.0902692088,0.4488918462,-0.6997152182,0.1904454411,-0.583509631,-0.6138232837,-0.5732231405,0.5501621679,-0.0713120576,0.9459660597,-0.7875060863,-0.6561756043,-0.3008167491,-0.3487908664,-0.801528672,-0.1652346727,0.8686593037,-0.8028271467,0.3820287799,-0.5951005976,0.4282352173,-0.4596325237,0.3557740253,-0.253298775,0.5162116033,-0.4533765847,0.5251641404,-0.1021159305,-0.6628596004,-0.2213957814,-0.4577093229,-0.9340175656,-0.0914937769,0.3894270596,0.7489745017,0.8743422147,-0.901116013,-0.5802669957,0.528817222,0.7731153926,0.1660868632,-0.1475813339,0.9595699246,0.8149897757,0.8708126696,-0.0273072569,-0.7194323769,0.8406530385,0.8895816843,-0.6645646992,0.5660548387,0.5429122977,-0.7776063205,0.8660316427,-0.3018391177,-0.9650429569,-0.8140309836,0.1300496434,0.5442006199,0.4156707681,-0.2488532848,0.7059426035,0.5934862178,0.3647012023,0.7426016831,-0.0579974852,0.2917739537,0.077446126,0.8355019339,0.5889435987,0.6557265678,-0.8442316044,0.3924124481,-0.1731228324,-0.3300629916,-0.8960354962,0.3639606964,-0.8301517337,0.5700487659,-0.3863650281,0.0861019693,-0.1335937229,0.0274526466,-0.1882199454,0.3570931702,-0.5500305602,0.8095889711,-0.7642009861,-0.7582028296,0.2118158688,0.0370359761,0.3673210751,-0.0328781307,0.9774790697,0.5788616461,0.6001206049,0.2982900644,-0.9406143499,0.1660480866,-0.661700846,-0.696862097,-0.0698345954,0.339390314,0.1341887085,-0.171448716,-0.8258915137,0.8134324747,-0.3371078899,0.1839616634,-0.1763294771,-0.4297383284,0.7944042817,0.7335856108,0.367018486,-0.6194767936,-0.2253230568,-0.2787462187,-0.4233442492,-0.6024612027,0.2268830827,-0.826452498,0.8651997267,-0.6441042024,-0.5464907194,-0.9201396084,0.4576600088,0.2461522321,0.5657681929,0.4948502354,-0.3604920569,0.5887127,-0.2140761896,0.7679297099,-0.6750735743,-0.2743106826,-0.2345150767,-0.7254117194,-0.6817509163,0.2594898692,-0.420640708,0.8150238728,-0.1397270173,-0.2998344785,0.8588805228,0.4512102305,0.1967921406,-0.6529609478,0.1810844018,0.0302495666,0.9935555834,0.9032710959,-0.6114274482,0.1600182262,-0.2464410479,0.367405701,0.063979895,0.5697896288,-0.9403021521,0.4734632364,0.765492125,0.4588836106,0.5952676331,0.828618262,-0.9226321021,0.1235621601,0.3451993563,-0.9048571982,0.8711515299,0.2950706808,-0.7480553367,-0.5136310682,-0.3815633744,-0.5465869283,0.8173289605,0.932763702,0.4217726354,-0.1050529246,-0.6876769351,-0.6490951549,-0.0667670694,0.4471738821,0.8518259728,0.3977493433,0.970187023,0.3488122787,0.5785745613,-0.4563859584,-0.4556494854,-0.6680672795,0.7491747389,-0.3760472112,0.321444164,0.4178367504,0.7920330429,0.8886236244,0.6126368553,0.2797832182,-0.615977491,0.1552449518,0.0467297471,0.0872432202,0.9546106105,0.0528290928,0.3055335311,0.5277543392,0.1372898569,0.863438237,-0.3863370563,-0.5185634581,0.7849289669,-0.0037355179,-0.2875046305,-0.6892474728,-0.4888663334,0.3114430146,-0.4905480726,0.4385608083,-0.0442803422,-0.148998991,-0.5548571835,0.1344378952,-0.696195717,-0.2567932099,-0.9240735779,0.3452113005,-0.4381724454,-0.0587774066,-0.8458411713,0.1746732041,0.3514762108,-0.384044189,-0.7812231474,0.0698217153,-0.2061152972,-0.1885476481,-0.1130561281,-0.8073810312,0.770003793,-0.1658924529,0.3356943585,-0.3910100293,0.6571399134,0.8555237455,0.9194069969,-0.4598855209,-0.5251791113,-0.587305556,-0.5794186969,-0.9756309359,0.9151284211,-0.2214823579,-0.9094501727,-0.1876748538,-0.0019898506,-0.2862332396,0.6041613269,0.2414566143,-0.1509713504,-0.6086708677,0.5089786591,-0.9108215297,-0.14921028,0.5282958231,-0.0851879797,1.6645584989,-0.8049257456,0.1655708222,-0.1119381568,-1.468493064,0.4274179134,-0.0526056778,0.323696023,0.9689009477,0.4670637546,0.0376747185,0.2150279674,0.0737257808,-0.1523878388,0.3806671341,0.1404997264,-0.3838801338,-0.6345926607,0.0008375905,-0.9306670573,-0.158875265,0.6855519282,0.0797792852,-0.1217939769,-1.5104622197,-0.3305033501,-0.0272439704,1.5861715848,0.1743203375,0.1711919913,0.0008209498,0.5608268089,0.2808637147,-0.3005405574,0.4772963985,0.2024643251,0.1999524383,1.5119233631,-0.0892592835,-0.2312429697,-1.349599537,0.6443508171,1.1202988027,0.3604553738,0.3662066429,0.381730391,-0.5423540831,0.5924281529,0.8377656228,-0.0425637086,0.2797840123,0.2758760189,-1.0364928008,-0.2206338521,-0.0035266197,-0.4682949684,0.0082317062,0.5687848274,0.4946399721,-0.3937808627,0.1478101651,1.1092740412,-0.3413752735,1.8426952852,-1.0199800179,-0.1357879508,-0.6750707988,-0.4876407863,-0.2358650591,0.3461468776,0.2799619696,-0.1978648938,1.1999200255,-0.8967549306,-0.0877650696,0.792930284,-0.1137868087,-0.2510081976,1.5241731803,0.3219741566,0.008094798,-0.4347406487,0.2892511415,-0.1840566086,0.193104351,0.8314961999,0.9276212094,0.149972094,-0.2853079242,-0.3782587738,-0.2897606832,-0.2588306562,1.3938693595,-1.2635024503,0.397204265,-0.9206105599,-0.4797484631,-0.1900970135,-0.8031678694,0.0138536765,-0.4468416199,1.5461530414,-0.0017257598,-0.8240416963,-0.699470523,0.2231178416,-0.0642795225,-0.9509273658,-0.2981542778,0.6570770377,0.8395002105,-0.633514312,0.036345861,0.3184657027,0.0035558914,-1.5611187762,-0.2455680448,0.3743049092,-0.4063858825,-0.0366048069,-0.2099574507,0.0814641921,0.7536678161,-0.9973084732,0.1174656431,-0.1144959863,-0.9050717247,-0.2593391718,1.1011780732,1.3526481941,0.2981184651,-1.0008551808,-0.7807152408,0.5407003384,-0.1125106569,-1.6046376546,-0.1748207748,0.0684457301,0.1631564467,0.4200338993,-0.8758030448,0.6147847169,0.6356404184,-0.3966252633,1.1973336503,0.1154798226,-0.1643305975,-0.0236470642,0.0563232517,1.1789661108,-0.8593847735,0.9188191282,1.607247411,-0.291903214,-0.2279740652,-0.73815637,-0.1093373881,-0.9693506433,0.4014089579,-0.6014925478,-0.398028032,0.4482165477,-0.116891313,0.9316453863,-0.2675917046,-0.0844640472,-1.4176013042,-1.7230660547,-0.3007453778,0.543685428,0.5944432591,-0.5787660382,0.2753440056,0.8089521673,-0.6469117585,-0.433821231,1.3673566269,1.2824381158,-0.4094669578,-0.6940250498,0.293030024,0.6485788999,-0.8081379554,0.3019433061,-0.446947875,-0.2618729453,0.8414420256,-0.5655167218,-0.4578004083,-0.298822682,0.3843739745,0.0189131733,0.8585185758,0.3053319823,0.6591777141,0.3097997932,0.4656910838,-0.8145262171,-0.2349441194,0.3896577006,0.4909109532,0.2351811571,0.2301068593,-0.12950833,0.2415309368,-0.0858785881,0.5988421656,-0.7120364546,0.0143464857,0.9859581654,-0.8711019576,-0.2656674109,0.5567968586,0.3364014837,0.4601837561,0.3646725684,-0.124068536,0.7446969172,-0.749317016,0.0045176922,0.7003652162,-0.93288968,0.7006903216,0.5437762435,0.6619209562,0.9401730414,0.4493553655,-0.6590831608,0.4745685316,0.8509523497,-0.9872490622,-0.5737983973,-0.5429709216,0.1055137411,0.4065643721,-0.1514407429,-0.8336868229,-0.3755862658,0.0122988189,0.5560699378,-0.6494549564,0.9210832422,0.2848483458,-0.9748058092,-0.7603408753,0.3267736391,-0.4396650615,-0.9879381482,0.646592139,0.827227342,0.6819008821,0.7379689004,0.5937654859,-0.0199281847,-0.4652076377,0.3134935182,0.8980090177,0.159781878,0.5169306099,-0.7340382518,0.0012253499,-0.5057625134,0.7045900202,-0.2853608602,0.2711241255,-0.2594958342,-0.8534016866,0.3521728143,-0.9588957613,-0.4882784095,-0.902320677,0.9784898028,0.7369611392,-0.8085155401,-0.1792980143,-0.0670548662,-0.6876168449,0.6226782197,0.3866391416,-0.2500564428,-0.4091525677,0.1906281963,0.25929509,-0.1684710703,0.6796419552,0.0282370757,-0.5753218801,0.6801112146,0.8660885963,-0.1562116858,0.6255576792,-0.664534437,0.3872824986,0.2641417213,-0.890637877,-0.0389031752,0.0467448738,0.3266812798,-0.0721505832,-0.3859591127,-0.2945299793,-0.207210161,0.4522738367,0.3430017983,-0.9899952178,0.9564734299,0.0370871334,0.0763101427,0.8232717098,-0.757448189,-0.757899241,-0.9201459008,-0.5608050641,-0.8252451839,0.1668255057,-0.1991214001,-0.6571697591,0.9958586016,-0.7799268872,-0.5330336099,-0.1573046123,0.1641454719,0.2671883955,0.0186469163,-0.7572724336,0.7346500154,0.7479062527,-0.5616439943,-0.0388115258,-0.1343969034,0.9179978724,-0.2023206144,-0.9017946686,-0.5828467313,-0.3990819714,0.3290008236,0.8856630381,0.6044457206,-0.9671983589,0.4490488827,0.5122781883,0.9975237589,-0.1974821539,-0.3028769635,-0.0846359928,-0.4004966091,-0.8565876359,0.400650928,-0.5619466312,0.1573763361,-0.0474098169,0.379705259,-0.9848172859,-0.079037697,-0.6751114638,0.8612820382,0.4409995372,-0.0969755993,0.3145014962,0.9128778895,0.1280014257,-0.3555410108,0.8688020903,0.119063283,-0.4132527866,-0.8530019218,-0.7274661404,0.4998846106,0.9492562259,0.9533160343,0.2772109583,-0.4444959925,0.4620052899,-0.5036341381,-0.7079246941,0.2930793131,-0.5162605221,-0.9868165137,-0.0061023683,0.6618897647,0.1928449547,0.7514439537,0.8503610733,0.1798967432,-0.8019348433,-0.7821171995,-0.6747360536,0.7830662255,-0.8620491954,0.5748607739,-0.0995898189,0.1581010353,0.7625831529,-0.1135635586,-0.5020091213,0.1189389246,0.1947775843,-0.1757064053,-0.4382899468,-0.4410053815,-0.4794399042,0.2870716624,-0.1652920801,-0.5440198626,-0.1901442611,-0.1428425321,0.6168288181,-0.549593466,-0.2806665366,-0.7537281615,-0.3857877166,-0.4660914105,-0.080430126,0.4989918347,0.0426936006,-0.4425359688,0.9717699655,-0.82545446,-0.1920210988,0.3617696845,-0.6569380647,-0.3760780947,0.3379183891,-0.6006419892,0.2097755699,-0.5959678893,0.2891761712,-0.1558301758,0.681082066,-0.7440295151,-0.7257324778,0.34790166,0.4849315463,-0.3230361704,0.1582289289,0.024955458,-0.9073626695,-0.321562393,0.5251906102,-0.9465247649,0.5617140045,0.6339155221,0.0555801745,0.6637807803,0.4943447773,-0.3227970062,0.2600829861,0.2008030749,-0.1528750414,-0.3746284573,-0.4697838187,0.4190016013,0.2112109441,-0.8642961147,-0.1217086181,-0.7671233359,0.7394111464,0.1202369008,-0.8298355587,-0.3764026634,0.9022469698,-0.8090039952,0.0773392232,0.7638089917,-0.1231701724,-0.54051222,0.0851432799,-0.9318825259,0.0171925787,0.571976054,0.3132698573,-0.1054955387,-0.8752666968,-0.9546751526,0.1498715507,0.1560390195,-0.4105509794,0.2699393391,0.1271906428,0.0955678386,-0.6637107541,-0.2706607429,0.384996375,-0.677226046,-0.4521065965,0.6681736662,-0.1102155338,-0.1601598006,0.9347423658,-0.3297122713,0.639405142,-0.625925232,-0.5821839034,0.330935976,-0.92733467,-0.7210198117,0.2104754612,-0.2530457511,-0.6101045007,-0.3667455987,-0.882220307,-0.4747143467,-0.2406095955,-0.4411016702,-0.2074755252,-0.4480244894,0.1241457706,-0.6479256266,-0.8393875469,0.945937859,-0.464163768,-0.5073264415,-0.7049530851,-0.4644799862,0.899348166,-0.6947997274,-0.2925973581,0.9680106647,-0.5758237049,0.833187652,0.7744595378,-0.3588439704,-0.4162749363,0.5381232027,-0.6758403995,-0.9828377198,-0.2415965217,0.693666464,0.2996532759,0.6758919074,-0.9389616021,0.3984653559,0.7293771728,-0.9314245351,-0.1735800529,0.5536121765,0.1573853287,0.6345908616,-0.5786098285,-0.2752517506,-0.2380629047,-0.8971930763,-0.9082924282,-0.1351616663,0.2707505213,-0.6548171188,0.3780358144,-0.0785273437,0.5978988052,-0.9967870477,0.7617247107,0.7303314093,-0.0476526105,-0.2577530751,0.4181870735,-0.632080504,0.0034095689,-0.5246325025,0.6394961999,-0.9497490807,-0.4390521253,-0.5339542887,-0.3620796837,-0.3775388432,0.73467134,-0.3715605081,0.0465208621,-0.9362849636,-0.5406207634,0.8602890612,0.625709808,0.6014161333,0.0304208447,0.9280866718,-0.7108039447,0.7599426551,-0.4158414363,-0.5373797013,0.6799169472,0.2251864725,-0.5168751934,-0.6535129461,-0.6127808232,0.0809840958,0.7961810827,0.8651834075,-0.1491629159,0.1831004794,-0.7305551341,0.7820061476,-0.7745300519,0.1167613709,-0.4393666133,0.2545039362,-0.347661755,-0.1719178261,0.6713795119,0.3317798322,0.8825175633,0.8582234006,-0.1518732056,0.3037142227,0.1857251895,-0.2151856909,0.6372697796,-0.4078355853,0.4267635456,-0.2696515266,-0.4697149504,0.0905913128,-0.997033165,0.7631992409,0.1568237709,-0.4722042732,0.63449379,0.1943250106,-0.207633464,0.9857649691,-0.4218696104,-0.5125133933,-0.0326531407,-0.8810940608,-0.2744515571,-0.9328184434,-0.8364107965,0.1998038938,0.4711962018,0.8249074848,-0.4632724127,-0.0468850133,0.710562506,0.8233354485,0.1691004939,-0.1731389126,0.5855544731,-0.815884559,-0.4261825746,-0.8695532087,0.1387009434,0.3968900628,-0.5620891623,-0.509461743,-0.3851869675,-0.1931546283,-0.6164664341,-0.5764621568,-0.6356317324,-0.114469097,0.878293148,-0.5276433892,-0.9610655935,-0.4891751803,-0.5650000281,-0.7206801699,0.183497753,-0.9884102992,-0.3380334964,0.5873600697,-0.9963243095,0.1466541723,-0.1997567264,0.5039939359,0.4569763692,0.2500016848,-0.2806137531,0.0062628337,0.3034038635,0.9633794936,-0.4149337115,0.1560757493,0.7738697715,-0.8044082973,-0.3274288971,0.4963078969,-0.5544249075,0.597757995,-0.4186745264,0.2712359889,-0.4509708979,-0.6178303874,0.7844230737,-0.1651744913,0.6775467676,0.1305370203,-0.6622537889,-0.7835732628,0.5172790514,-0.0897216815,-0.3326416231,0.8674825349,-0.6257926711,-0.3168714943,0.8288007482,0.6405198772,-0.932145052,0.457838689,0.2255016904,0.4541574859,0.9633876145,0.5809576793,-0.3531716218,0.9790068146,0.5221846637,0.8738628954,-0.3087294017,0.9777634829,0.3085443351,-0.851949514,-0.8636305578,-0.4286689416,0.6822901871,-0.7337190252,0.4339355884,-0.5517971181,-0.6203765547,0.7577869011,0.5627947382,0.2651523137,0.8462226258,-0.7173684372,-0.7983421421,0.1284804048,-0.3696162708,0.5942081835,-0.7530697904,0.8620329975,-0.642259372,0.21354456,-0.5024165354,0.6733267445,0.2277368867,-0.9426147372,0.6216189462,0.6484131051,-0.6022316523,0.9278397852,-0.2666765926,-0.4261567256,0.0282606933,-0.6288108877,0.0671081619,-0.2806045867,0.6758986123,-0.5786079744,0.9651216777,-0.0786628653,0.0638164674,-0.5048592116,-0.9518034825,-0.897178761,0.1630891115,-0.2667314545,0.3712073705,-0.8357865574,-0.7222815085,0.3202958493,0.7625282984,0.2541708049,0.5948167019,-0.3640885561,0.9234816031,0.1309110353,-0.3019284318,-0.4178430054,-0.2078846028,-0.6008482374,-0.1915058682,0.4012811115,-0.6277878122,0.6200200042,-0.2337428228,-0.0585395813,0.0627986916,-0.1110276912,-0.1211546591,-0.3135068798,-0.4188635201,0.9639983593,-0.8409582146,-0.1315964424,0.1583488951,-0.9046810766,-0.0415995303,-0.7932920977,-0.5235760138,0.3790124492,-0.4131370617,0.6551905207,-0.1894464121,-0.3891275296,-0.2934711815
   -0.5086704224,-0.8723741427,0.5638826255,0.7972357288,0.7389957116,0.757867489,-0.7084938423,-0.3316529546,0.9227636326,-0.1713163067,0.3482662039,0.9661920172,-0.0708741445,-0.5094071277,0.0496484519,0.0610274493,-0.6721453637,0.0379646876,-0.8224424034,0.9425176036,0.2599743573,0.7559634317,-0.0994536894,0.4940060859,0.7820845814,0.1823906698,-0.2375759244,0.1520536491,-0.0385090256,-0.9820071523,0.4237909571,0.7731338502,-0.3688852531,-0.0244942362,0.4512638088,0.9612078205,-0.4180282422,-0.8829666761,0.5667863472,0.3188760694,-0.9412215694,0.2412459798,0.9765354168,0.2665610092,-0.2375538569,-0.6168864164,0.0087232974,0.4227802804,-0.8799758921,0.8359534507,0.3340992801,0.0249699118,0.1635105419,-0.5518202329,0.2654064062,0.1118624949,-0.1083696122,0.0201129333,-0.8666955273,0.6417866324,0.0278009756,-0.3990262673,0.7345720903,0.5943129718,0.5818988711,-0.6011046578,-0.104093085,0.160510523,0.5408559729,-0.310848671,0.2745346686,-0.9399760891,-0.6782668897,0.8004691716,-0.8658579154,-0.5945956376,0.4391454992,0.6227264937,0.4810390382,1.1417898646,0.4603838801,0.268714259,-0.6611836214,1.1528312216,-0.1710040175,0.7897440045,0.0398395195,0.5064999583,-0.3409271683,0.5482989147,0.898260188,-0.8715313073,1.6334937715,-0.0133129013,0.263423735,-0.2333705642,-1.4022584641,0.6773359937,-0.5250210938,0.0954803669,0.0046014686,0.4527738976,0.1770193693,0.3947630278,0.3818443671,0.977319523,0.1628217231,1.2331695869,0.5006856387,1.0749037085,-0.786405179,-0.1718192575,1.2352699178,1.1756958208,0.4333635485,0.3870304196,-0.0716049148,0.0215647315,0.3693653559,1.0672178838,-0.3439059696,-0.1012191493,0.0282183688,0.3059882123,-0.011664883,-0.799622035,1.1561137095,0.7663814089,-0.8489647208,0.0627641343,-1.0266812065,-1.2744803647,-0.0154014723,-0.9293423017,1.5443902403,-1.0744638658,-0.2180904988,-0.2649052085,-0.3680905038,-0.1704098972,-0.1118492223,1.8421632122,-0.8790924232,0.0665429623,1.3722989374,-0.3171931934,0.0065560583,-0.2785629478,0.0362866384,-0.3604547833,0.2625921984,-0.4013360622,0.1746815178,0.3024495005,1.4613767847,1.6127843894,0.2293896062,-0.275771034,0.1455362752,0.1936516528,-0.1276189697,0.0161809739,0.0170923478,0.0631910499,-0.5774152802,-1.3012326109,-0.0039448439,0.7036271402,-1.5682263349,0.5950981148,-0.5705176541,-0.1200258996,0.3184385829,0.1467916538,0.1533592201,-0.6432277924,-0.3121035046,-1.2241849424,-1.3181048198,0.0284759566,-0.599953582,0.2571562861,0.183147123,0.0125938335,-0.7829828484,0.1059794342,1.5455611875,-0.4976115234,-0.4527006784,-0.7280380915,0.0847507514,-0.1166108456,-1.4928394933,-0.0210767141,0.0963957216,0.271997841,-0.3702968666,-1.0130376826,-0.3359519293,-0.1563630038,-0.7997776386,0.6640475137,-0.0619161105,-0.0739013443,-0.4242310391,-0.2593475465,0.6002444354,-0.4465332781,0.8578221466,0.4829080098,1.1315316772,0.006530752,0.430181092,0.6746396505,-0.8085755714,0.5798397772,0.2190803007,0.7355510277,-1.4104262311,0.1069613309,0.8116178746,-0.1861610793,0.324643036,0.2199442639,-1.4953947791,-0.974681858,-0.6924055734,0.51486314,-0.9206644677,-0.1895811794,-0.5670665746,-0.0032498196,-0.0355797233,-0.0171031651,0.136961952,0.3843472455,-0.148237203,-0.7964336743,-0.0048048133,0.8577864716,-1.6550136979,1.4161049188,-1.2486366562,-1.2283507199,-0.1093574187,1.1144457612,0.204625528,0.8738061721,0.1793457202,-1.0045785683,-0.3848316339,0.0206402549,-0.0892224366,-0.0203142558,-0.7237825316,-0.0927338288,-0.3861035009,-0.4091053627,0.7735741596,-1.377836047,0.0588360993,0.588219986,1.4694385573,-0.763665442,0.6038908191,0.8300507478,1.1513592477,0.0011055808,-1.4966442717,0.5328637143,0.7367111626,-0.6891035335,-0.3772915721,-0.4918427101,-0.6535968724,0.3070896315,-0.0820536296,0.557092084,0.8219600136,-0.2906135248,0.5782265247,-0.0226556405,-0.0001549269,-0.135262437,-0.7925822638,-0.3220832051,0.5542755484,-0.0784877505,-0.0094930502,-1.3178300567,1.339921101,-0.9102657337,-0.1507489315,-0.0104795687,0.3075957299,1.617603891,0.2224465546,0.1774489248,-0.6492895178,-0.3043459447,0.1488982266,0.0124830406,-1.0659692018,0.2945072042,-1.6161050906,0.3920703056,0.5271864177,-1.3015905716,0.3837040809,0.0676210592,-0.66100885,-0.2043984268,0.0953802298,0.6065037512,0.1745967269,0.4721898027,0.3413701838,-0.4066672842,0.7821092267,-0.0734778378,0.2028094245,-0.622915866,-0.9843364264,0.2024411335,-0.5504954179,0.0470846226,-0.267406199,-1.0353994799,-0.4910078355,1.1922656134,0.0454266644,0.5370465807,0.3944037826,-0.051482341,1.0755675403,-0.0344562396,-0.0900184458,-1.4198168662,-1.1029617212,0.7823610454,0.448805245,-1.075672547,0.8251609508,-0.0759915207,0.1344683341,-0.0627657354,0.0607282311,0.0013532475,0.1788571009,0.7620468882,0.3116766912,-1.1620484572,0.9805676049,-0.1163976184,0.9622732523,0.7216177438,-0.9102127387,0.2145481987,-1.7876601466,0.8215889001,-0.4652642468,-0.5315174826,-0.6434522343,0.1891406076,0.5815299932,-0.4832089922,-0.1499466504,0.8416754762,-0.4231759825,-0.4741113468,0.4961723922,-0.4672904969,-0.0178794523,-0.5926476167,-0.8072799918,0.4658176829,0.4938850114,0.8385279297,-0.2253575219,-0.345017143,-0.1554956879,0.0868700191,0.6465075589,-0.5381380247,-0.7280633971,-0.0422841569,0.7473433407,-0.975568978,0.812958638,0.2021392681,0.5493577827,0.9588230247,-0.145546557,-0.8879542446,0.4077850285,-0.8761498818,0.5412923374,0.1090009971,0.0267105891,-0.102612677,-0.6090830573,0.6199539875,-0.5543854815,0.7737994297,0.0634072738,-0.5503690893,0.8781126208,-0.1697583877,-0.4683756981,-0.2502560071,0.6888059854,0.2278927042,-0.9298101413,0.9545026157,-0.6523919882,-0.9200976769,-0.8563421887,-0.8574128509,0.3558730099,-0.8347836534,0.8827591065,-0.0225728076,-0.1734250615,0.7144419865,0.9339501179,0.2784620653,0.1955461728,-0.3346283427,-0.1219892995,0.334665032,0.6050164042,-0.3820242211,0.5923220656,0.2217133676,0.7208898081,-0.1374868998,0.2674478822,0.87103188,0.7040898801,0.5939993319,-0.3053835658,-0.527638969,0.3142141413,-0.2725112872,0.9358792823,0.8748162423,-0.4805875504,0.5781276202,0.0407695684,0.3601485581,-0.7581576149,0.6064937208,-0.9381191083,-1.8202451389,-0.9273100976,1.4427550854,0.3262156968,-0.0966349978,0.1283180376,-0.6189354747,0.041285768,-0.2146830446,0.7003756903,-0.0425891297,-0.4824592977,0.6148697714,0.0765013091,-0.0911995881,-0.198076623,0.2345895379,0.4830856934,-0.3218485006,-0.1644197906,0.8475998429,0.4528675166,0.1528597941,1.1639077555,0.1852746968,0.0026892956,0.0036153512,-0.4168707043,-0.3514678794,-0.3023792773,-0.0075753923,-1.4886472831,0.1183445797,-0.2708550739,1.4970659468,0.0675485746,-0.2802201483,-0.1247129788,-0.1292865821,0.4242065325,0.1145289221,0.0059193715,0.1544056764,-0.2731353952,-1.2097324857,-0.5781211751,-0.5744197073,-1.5299015129,0.6483475199,-0.082230712,0.5275731819,-0.0686246222,-1.7019864347,0.4106930789,0.0389724354,-1.0390924773,0.6076246691,-0.8389878332,-0.1732121093,1.3450640255,0.12811116,0.6846037253,-0.0425880106,-0.1218145823,-1.0913900033,0.725777231,-0.4940264422,1.7915910271,-0.584081895,0.4643621563,-0.0195623344,1.5030557218,0.8486305861,0.3612431678,0.2111545231,0.6316807625,-1.0165824947,0.5480891247,-0.2373508314,1.0423039118,-0.7624469143,0.1962835762,-1.2914453716,-0.0046508545,-0.374680756,-0.6223969834,0.4172477164,0.3019276533,0.4325907424,0.021621027,0.2208461997,-0.3686882361,1.5273824071,1.4157264229,-0.0771377757,-0.5069899605,0.8036636139,-0.2516999808,-1.4468211606,0.5345693412,1.620088296,-0.0390238887,-0.2116480839,-0.1718749707,-0.569784083,1.1584979024,-0.6552499222,-0.2064008442,-0.0200220175,-1.2995477309,-1.3580912871,0.6242447098,0.7028966028,0.164502244,0.2457129818,0.1591955825,1.1972794021,0.7820242511,0.195028835,-0.4594626869,-1.4376558992,0.0008524614,-0.954793982,-0.3612527301,-0.0304575244,-0.3479389489,1.1015698111,1.4499816827,-0.3218376105,0.6837313075,0.4084234078,-1.5474994322,0.4337536257,-0.0246375833,1.6279051829,-0.0017090598,0.1374762474,0.32515889,0.3401749689,-0.9105425996,-0.8378085003,-0.7591882843,0.1523237815,-0.0223208378,1.0856286566,-0.1425344101,-1.5184864074,0.8128585888,0.8614754545,-0.9613983253,0.2549161208,-0.1861854149,0.3891195515,0.6505338328,-1.0150428038,-0.1046578482,0.2865398933,0.3509909119,0.412339097,1.0406161825,-0.3059284471,-0.0312929718,-0.3768113237,-0.7517677376,0.5436347486,-0.0057839602,0.9196124354,-0.2839773198,0.1674761193,-0.008418355,0.1101983016,0.3695258735,1.1447890968,-0.7266922446,0.3370715718,-1.1864036726,-0.735310353,-0.3746344148,-0.0336262386,-0.2518341858,-0.3133973668,-1.1559231937,-0.774797303,-0.693016678,-0.1770873093,0.1711426138,-0.3382414533,-0.0787964361,1.0529061962,-0.1879864496,0.0645649977,-0.4722657107,0.8325311247,-1.4278936794,0.045377892,0.1973199494,0.0992810498,0.4833071953,0.950018314,-0.4933183826,-0.6234832334,0.6049504591,-0.3764281228,-0.8693774145,0.3466297755,-0.6263398156,0.909917664,-0.6175372976,-0.1075169163,-0.5902183665,-0.5960751859,0.3387184682,-0.2723517304,0.7286125442,0.7875340945,-0.610691426,-0.8155671822,-0.2126141423,-0.5124854436,0.4516806389,-0.3645031431,0.5405871905,-0.3810847469,0.7973093434,0.1321890439,0.3619104212,-0.0690143846,-0.739486867,-0.9983930581,-0.636729891,0.2679797042,-0.6715219861,0.4755279519,-0.9157302811,0.4635679499,-0.5345641395,-0.3630951135,-0.3558063962,0.039775483,-0.403446642,-0.8126798026,0.2570959239,0.2234616585,0.2894156706,-0.4568317332,-0.6724324526,-0.8015191232,0.2295188628,0.7273444008,0.0150818073,-0.9615074823,-0.2464087938,0.1257638934,-0.0766507032,0.3313205602,-0.1327422068,0.1489596977,0.7274979767,0.0093734799,0.5301958611,-0.1770748411,0.6105378027,-0.354939317,-0.6296726488,-0.5044905683,-0.1646533465,-0.3020450135,0.152883775,0.8203051597,0.8261248366,-0.4330396576,0.9089749145,0.5560623945,0.7280175257,0.0767986471,0.2313980656,-0.7552643137,0.7999704831,0.708041028,-0.7228696849,-0.065858079,0.5715331698,0.2011554351,0.272469551,0.7840837862,0.1459746563,0.4678924551,-0.4069177444,-0.7957147045,0.7954964606,0.4034716076,0.6811166345,-0.011516116,-0.6224815861,-0.092932454,0.3377674612,0.2004492681,0.6811654196,0.4368702953,-0.2862259152,0.4927895276,-0.0907362292,0.628272088,-0.7474090542,-0.9746716428,-0.0480820077,0.878493925,-0.3326283677,0.2290623588,-0.1872790683,0.2466216713,-0.2654512672,-0.4517812532,0.3628590886,-0.9950240434,-0.4238733574,0.4272429347,0.5732328332,0.2555683635,-0.5965238717,-0.1972650924,0.2181479846,0.5922520545,0.9539709399,0.1999427255,0.0445270333,0.5411671175,-0.7536413057,-0.1168396333,0.31573081,-0.9871476116,0.5154585631,-0.2333183251,-0.6752025428,-0.4368683337,-0.4301902362,-0.663174587,-0.741553225,0.4981927291,-0.0436094869,0.0308945862,-0.7493894029,-0.346364722,-0.8956593647,-0.6107817978,-0.9813557691,-0.3429146187,0.480410385,-0.1721170811,-0.7269074904,0.561542208,0.965137858,0.8567336923,0.5521482381,0.6126827193,-0.5412804522,-0.6977938328,-0.2820140647,0.0996284444,-0.971937728,-0.8059778307,-0.603510801,-0.6617351839,0.24261093,0.4148916227,0.3485863987,0.6175994638,0.0624297683,0.1084690673,0.119950391,-0.6852230758,0.5490186712,0.4881837228,-0.4236606554,0.265148345,-0.47948192,0.1635713842,-0.4808717526,0.5282030468,-0.2838767693,0.1441823716,0.9955686437,-0.9293796446,-0.322198207,-0.9636904881,0.5333719354,0.7607265037,-0.5150917936,0.2264184632,0.7999656609,-0.6641518235,0.7934647906,0.7999451483,0.0912099955,-0.1298710604,-0.8236624091,0.8925504086,0.4901440589,-0.7198162429,0.0977833463,0.9763867678,0.6345721026,0.6184156651,-0.2319932409,-0.82725857,0.0224538103,-0.8007711056,-0.4816480744,-0.1563889958,-0.4157989916,-0.9399832653,-0.9069931652,-0.0696919277,-0.7684718804,-0.3759238877,-0.6410812689,0.0106770854,-0.3364981047,-0.6427838563,-0.2229161554,0.271874606,-0.6857134798,-0.8749014702,0.3585523835,-0.2860890583,-0.2089964097,-0.1813145396,-0.9883765106,-0.8229930818,0.3336145797,0.2426704581,-0.8950422071,-0.7863413624,-0.5759965943,0.9547557802,0.076511887,0.8419344635,0.9850544442,0.3682407212,0.5663954519,-0.4078934204,-0.5243027494,0.3588138172,0.7229234931,-0.2129629082,-0.6682977388,0.533958878,-0.5024639146,-0.8563656743,-0.0786583649,-0.6282620428,-0.6725469319,0.7455184696,-0.0463732856,-0.858611698,0.0261503823,-0.2394655842,-0.526385081,-0.3527849288,0.8557638847,0.3439304777,0.1824128148,-0.5038066824,0.4950599799,-0.8905231732,0.1425531179,-0.5155315386,0.029168287,-0.4028467951,0.8432520332,0.8819181776,-0.4388071133,-0.1381892239,0.3362326735,0.6734598871,0.9737201049,0.4076700619,-0.2361241851,0.9733911051,-0.2801603536,0.3073193516,-0.1028383665,0.9633142475,-0.6056651615,-0.902992766,-0.2422891282,0.7164127158,-0.3991211951,-0.0017307703,-0.3460713087,0.5113619177,-0.7451706274,0.6950595458,-0.4775638102,0.9350745321,0.8758119646,-0.3779511774,0.3939599335,0.653761579,-0.608916229,-0.6409364076,-0.1823847846,0.4532594167,0.9811324405,-0.0488725905,-0.8620041863,0.4071406994,-0.1921979597,-0.9397618652,0.3944977872,0.6262756437,-0.291777909,-0.6047739081,-0.9180784439,-0.2959315525,0.5131556967,0.0985810946,-0.3756411151,-0.5556722442,-0.2082775397,-0.1576358716,-0.943265241,0.6633293606,0.8555863457,0.6449703979,0.9903039562,-0.3734710141,-0.6028888492,-0.3105322665,-0.5670543004,0.9385608328,0.1771070355,0.6344041378,0.0059635505,-0.9850196465,-0.5553433574,0.358113695,0.0273587683,0.527746636,0.4156900769,-0.5052643781,0.3016723757,0.9817101273,0.3287737729,0.1671778417,0.4132672303,-0.1623954897,0.7376697784,0.0018990711,-0.7629217977,-0.9198227487,0.5716116119,0.2942471978,0.6098741043,-0.9643971071,-0.086414314,0.8254511658,0.8490201093,-0.0716202623,0.1347463318,-0.178287112,-0.2970745803,0.9023999079,-0.6461984322,0.6966653311,0.0483941757,0.2952119965,-0.4614997028,0.6224777218,0.4195584071,0.7476545014,-0.5776718435,0.0659560376,0.4054387196,0.7937035209,0.3598407846,0.5040441748,-0.0036414613,0.3746359888,-0.4900958203,-0.0731488108,-0.3767357437,-0.2928904656,0.3010954164,-0.209252528,-0.5169924705,0.6863308483,0.8763671138,-0.174641194,-0.0994043853,0.0380364136,0.7720101258,-0.5385181497,0.7180831873,0.9722287683,-0.1347724174,0.3979472492,0.187333716,-0.782927619,0.896979803,-0.0163562721,-0.660658929,-0.621466173,-0.4156839782,0.493534538,0.2246309139,-0.663555396,-0.7989523119,0.7992837562,0.5696987179,-0.5276525088,-0.5996809606,0.8560469376,-0.5453668412,0.6451553772,0.4161932635,0.3485260357,0.5507786256,0.3721527767,0.9257075618,0.0603887558,-0.9167332384,-0.3674802077,-0.1175522667,-0.2394285737,0.23561015,-0.1282113153,0.738567393,-0.0144678326,0.8309993935,0.8411072802,0.7524307691,-0.9866774922,-0.6731753758,-0.1818840322,0.2353005264,-0.7413969576,-0.3415922366,0.3470984179,-0.9822633605,-0.7681025953,-0.1421148669,-0.7590778361,-0.678303645,-0.2119653472,0.255102146,-0.6718789892,-0.0247577954,-0.3547861228,0.7041671685,0.5981361437,-0.7553700924,0.7226866693,0.8722225586,-0.8289847156,0.2968846947,0.6541344167,-0.5312706782,0.9336322325,-0.6230138129,0.6209587605,0.2164981193,0.1371899303,0.6583067987,0.2110787701,-0.5593834469,-0.4041437466,0.6403946335,0.0943591481,0.8284693531,0.9682146129,-0.4726952065,0.8503700093,0.4422911438,-0.230081474,-0.6165145417,0.1225736477,0.5262702197,-0.0324103909,0.3881836085,-0.002820131,-0.2592300849,-0.9427318325,0.5104012727,-0.6837680124,0.1369483361,0.1717493329,0.9397299593,-0.9746445391,0.6297660342,-0.4343612333,0.9053932434,0.728811193,0.4087024186,-0.3071352022,-0.0841807317,0.8472563671,-0.6648656889,-0.1739955938,-0.3063370586,0.9892601498,0.3284843203,0.9353339196,0.781971777,-0.9380366695,-0.0701025522,0.3501451185,0.8031046573,-0.7530074153,-0.6682296729,0.9084452454,-0.8175396413,-0.4829085453,0.725339296,-0.1887682392,-0.7982923853,0.167316881,-0.658617241,-0.1780206941,-0.5951084022,0.3090388129,-0.9793635844,-0.5863518267,0.2639466187,0.7820900058,0.3820833075,-0.3372699241,0.0209460514,-0.990024984,0.1016901704,-0.5937593787,-0.7578325054,0.1934701748,0.2304700701,-0.860988375,0.6617872295,-0.9255137282,0.9673258898,0.3565365786,0.6795154625,0.7511758803,0.4280437795,-0.2611324946,0.0726884654,-0.116627214,0.1562624714,-0.5263574139,0.1097641126,0.4027274385,-0.6398594399,0.3124211677,-0.7128796473,-0.8012726867,0.9918573951,0.1382755963,-0.4325488339,-0.4212423538,-0.1669438151,0.7943857519,-0.904267329,-0.3616756947,-0.2358799022,0.4266578859,-0.6942731936,0.0006222976,-0.5960404871,-0.3782697799,-0.2314305037,0.0847338833,0.1039302293,-0.6214678923,0.1707873895,-0.9372413196,0.2853341963,0.1069952478,0.1022500348,-0.4420787052,0.899086235,0.6327790969,-0.7112054198,0.5110206672,0.3162177004,0.0279147933,0.2687671575,-0.9698681881,-0.6409578512,0.0750210202,0.3430221987,-0.1301228845,-0.1551198148,0.3344236603,-0.4999578091,-0.6829565709,-0.7572355785,-0.3345020067,0.2004792951,0.7273158705,0.2763558714,0.4125981784,0.2191035519,-0.4852136775,0.1894917528,-0.780795888,-0.6573308242,-0.0927340384,-0.9412493602,0.8620380884,0.2121973831,0.1015433719,0.8867101681,-0.8554807895,-0.0495240843,-0.8650124582,-0.9254804169,0.0462535255,0.222638401,-0.7779537168,0.9593551782,-0.6961503109,-0.708415869,0.0829760268,0.0079986741,0.4496826944,-0.936923353,0.896292001,0.0693942663,0.8578737311,-0.6878009939,0.3644830849,-0.8945052968,-0.7043161719,0.4881097663,-0.7215642747,0.9553193572,-0.6122847647,0.936854986,0.496683989,-0.3355300164,-0.175974475,-0.3696325509,0.2895712958,-0.4556565613,0.8464835271,0.414861969,0.8378695929,0.7599246389,0.9168779907,0.3771044404,-0.6802367893,-0.9879865573,0.5341064846,0.3707242457,-0.7305827536,0.9572863176,0.7530692603,-0.2515406954,0.7182884413,0.2522260532,-0.666038995,0.52168748,-0.9292296818,0.6248821261,0.1178037554,0.9390075653,-0.458751422,0.4314465639,-0.3642484912,-0.3365556146,0.2544382811,-0.4484168255,-0.7231687513,-0.3424755587,0.0392499455,-0.7628861359,0.7629163249,-0.1408026253,-0.0426603231,-0.4069733193,-0.9237360694,-0.1946677164,0.5834035223,0.019589348,-0.1569667981,0.837287733,-0.0981216729,0.2923236399,-0.7694480036,0.318605107,0.9798231192,0.0433067308,-0.980849374,0.4958273216,-0.6169101247,-0.1345895571,-0.6593675097,-0.9944654903,0.5802466885,-0.5863905795,-0.6476368855,-0.0682685243,-0.234514596,-0.1599467133,-0.21894444,-0.8510261936,0.6337261704,0.043346005,-0.7464715874,-0.5596234548,0.8418409954,-0.3270478004,0.4603380913,-0.0647955702,0.6155912777,-0.6815119189,-0.2629098333,0.5929567904,0.5852809498,0.5074266182,0.0437768902,-0.2046776402,-0.45110168,-0.151417776,-0.1648671635,-0.1700435196,0.4674307968,0.8699026885,-0.0755637917,-0.4602018869,0.2118330866,-0.2458378717,-0.8335989703,0.3900145643,-0.627076884,0.1060511063,0.1532538493,-0.0765198096,-0.488992627,-0.8194974304,-0.862976918,-0.1978880369,0.0160576257,0.2594473438,-0.8517604214,0.9964023215,0.6766120047,0.7338548805,0.1892411225,-0.103936352,-0.9573230346,0.6338981059,0.1075515522,0.587778725,-0.6451845916,0.5376303057,0.6058311148,-0.1419565588,-0.2209767683,-0.128233177,-0.1334791379,-0.8581892601,-0.3886795484,-0.5847530956,0.6014298709,0.0058125474,0.6129522621,-0.252247668,-0.4146925097,0.2651874546,-0.9474767694,0.1716090576,0.6122583323,0.0108564496,0.1333778219,0.7055767506,-0.9626622102,0.3754761619,-0.4130354283,-0.2506121687,0.3507781774,0.4220555401,0.9395634849,-0.947533097,-0.8914792024,0.1805185175,0.7108575837,0.6269736485,-0.5021299528,-0.9994373619,-0.22690108,-0.3223091016,-0.1349764055,-0.5073801471,0.0010997811,0.0747027761,-0.285677657,0.7840029299,-0.9726852654,0.2919176321,-0.4341014473,0.0230547188,-0.4291612645,-0.8919771096,0.3999308977,0.9985535132,0.185500464,-0.0320405711,0.4689912633,0.5675554072,0.7861587536,-0.6945768386,-0.5432395378,-0.6219037117,-0.2780295651,0.9399842041,-0.2434084205,0.2666926855,-0.1961140824,0.113923684,0.0815843199,-0.7221903077,-0.5047587058,0.0931649128,0.2325609091,-0.0228506156,0.7498783548,-0.9068954181,0.3171021121,-0.9559531812,0.7763245092,-0.9907689408,-0.453114383,-0.5357132679,-0.7591871851,-0.9367753386,-0.6502599927,-0.3970951197,0.7292263944,0.5096993118,-0.4565703827,-0.3893077751,-0.5766819555,0.1420707562,-0.8856456629,-0.5219420693,0.0251003463,-0.4246200452,0.5050251064,0.3212751723,0.3306765355,0.9672264715,0.7818911505,0.9603465242,0.7387387727,-0.3086591713,0.1924538184,-0.866380075,0.9353782232,0.0370851525,0.6891610956,0.7874672113,0.2503747754,-0.201163326,-0.3557935888,0.9229787435,0.0341409753,0.6770484292,0.5909391409,-0.7363894563,-0.411568655,0.0584855232,-0.5851287961,-0.8330660439,-0.9594198168,0.0256276224,-0.0305284507,-0.4810342872,-0.6483993458,-0.96186456,-0.2593201334,-0.7631008561,-0.8581186649,0.5304386017,0.7091070413,0.9153940883,-0.3497707613,-0.2937845692,-0.5003632478,0.307821645,0.8943799296,-0.3634062102,0.3960291667,0.401320996,-0.6543868252,0.7386522224,-0.5427835224,0.7043144687,0.5116057454,0.7742918568,-0.2938946511,-0.9354126258,-0.6521101443,0.7411873756,-0.4242272823,0.3785540664,0.5728828298,0.6546602979,-0.5567731502,0.3741815557,-0.0490483414,-0.5499531944,0.3221267999,0.2594782055,0.3128460942,-0.719610838,-0.7607461257,0.1145334419,0.5114277596,-0.5136726327,-0.5533560463,-0.6514520446,-0.8021972043,0.8865802722,-0.6954963826,0.8772950972,-0.9377318351,-0.4942898388,-0.7560272802,0.8397402669,-0.2910929955,0.4050995154,0.5583412764,-0.7135434327,-0.5444667621,-0.8254227621,-0.2511722134,0.6396756554,0.9387437128,-0.6941908601,-0.6133340106,-0.4507154977,0.1394675978,0.720054438,0.8205081665,-0.521621922,-0.963881449,-0.7225515678,-0.4054476992,-0.6102451349,-0.7229819928,0.6153186875,-0.9066563848,-0.0690148085,-0.1480195577,-0.7210623167,-0.9605280629,-0.5462456996,-0.3932959658,-0.0687629891,0.7437858115,-0.4420628875,-0.388785716,0.2528006795,-0.8229290624,0.8465618253,-0.9424398997,0.7919938878,0.8386632001,-0.517831827,-0.1047998059,0.0209464883,-0.6014362766,0.5386592554,0.130422123,0.1917399494,-0.087942634,-0.7449750012,0.161618204,0.6174606472,0.9212939526,-0.4382387208,0.9725625684,0.1199104678,-0.14909217,-0.2446287493,-0.6747208292,0.5800227872,0.9394800047,-0.4542331972,-0.7814586697,0.4010564064,-0.4997822889,-0.0160309052,0.0932648578,0.9903231078,-0.6098267095,0.0746913681,0.4686861981,0.5433261374,0.5328933211,0.1010731176,0.3960267523,0.733079197,0.4632838218,0.3181122798,-0.0063987954,-0.207783727,-0.8179622003,0.1184806587,-0.3069481992,-0.8841137677,0.9876911805,-0.4607382932,-0.5924997893,0.3747230546,-0.2994026311,-0.9334920223,0.541425737,-0.2504374938,-0.0201953462,-0.9421826449,-0.9604727528,0.1972377164,0.8487233306,0.6807087614,-0.009710625,-0.5609353259,-0.107797695,0.1745885835,0.0178415764,-0.2838679368,0.1552181619,0.8887141977,-0.9989160809,-0.2172149515,0.3734821163,0.5310165268,0.6928818509,0.2740172107,-0.9923842394,0.4936952824,-0.7172328642,0.4523636687,-0.8359112831,-0.5390838169,0.3028484058,0.5598840267,-0.9633586358,0.6732995676,-0.3802937464,0.4744049444,-0.2804673584,0.112085739,0.8771243,0.6297275895,0.4407191793,-0.5027441043,0.4589890875,-0.4065606743,-0.0169807591,0.6738142294,-0.0589428299,-0.7571954264,0.5241025447,0.9613234394,0.7666440016,-0.6911233735,-0.0429945791,-0.0276466936,-0.0103467172,0.76399817,0.95867781,0.7985470567,-0.7639455913,-0.7976096171,-0.7154642747,0.2459537557,-0.7184444231,-0.1378950936,0.6853383536,-0.0447388117,0.2001190916,-0.6611988601,0.6508054807,0.1237695673,0.1851285608,0.753380454,-0.5136502258,-0.9166429628,-0.4308244008,-0.0775951025,-0.0148512347,0.0265053651,-0.4583835364,-0.9647146832,-0.350092446,-0.3624187962,0.8497735666,-0.9572171109,-0.0364758864,-0.5869665933,0.1182118734,0.2186533819,0.4514391074,-0.5607935453,0.3854395328,0.0425473987,0.114585843,0.414571959,-0.4658966733,-0.5725363757,-0.7405304495,-0.5919289391,-0.6764160407,0.9516156177,0.5562449313,0.0973818614,-0.1004140263,0.0447665654,0.3348342774,-0.3520357201,-0.7710094638,0.3381075111,0.8927811729,-0.2574900007,-0.2097207139,0.2834546073,-0.5897327007,0.8747292515,-0.3661090516,-0.7087682495,-0.6705634741,0.6915457916,0.8877828248,0.1028236961,0.9362089937,-0.9707424765,0.4865450323,-0.5889646077,-0.7065461246,-0.450690089,-0.2548774742,0.1189363206,0.0795604156,-0.5752939635,-0.9862119549,-0.6873181805,0.1839423226,-0.883583819,-0.5321532457,0.8309673127,-0.9501682288,0.8115169954,-0.8760896419,0.3429280548,-0.3695190183,0.3556655765,-0.2356604301,-0.3466434052,0.7813559839,-0.4202101876,0.1565271652,-0.9867337682,-0.442485932,0.580392679,-0.1866617524,0.3565517056,-0.2390765924,-0.4165114463,0.2495759836,0.4081330871,0.1365274702,0.5875324119,-0.3878182908,0.7955180083,0.6025077354,-0.3635945896,-0.162235978,0.8783296476,-0.8891604114,0.0912441285,0.3435564857,0.5354371345,-0.2497420829,0.9381108387,0.3657908509,-0.6878335591,0.335475953,0.1326111208,-0.0520655193,0.4035636701,0.4201564591,0.4740758344,0.9760278903,0.4920759231,0.7006347732,-0.7701956035,-0.8575057806,-0.1111385221,-0.9059205841,0.0379681433,-0.1832609569,0.7892420564,-0.0936372604,0.0775310308,-0.2045981195,-0.0715172267,-0.7381662823,0.9713788338,-0.1870258845,0.9042943253,0.6404120722,0.9585495359,0.2062367297,0.047866854,0.0290612152,-0.9640530163,0.1126778493,0.0984778502,-0.865914807,-0.8617531768,-0.5452744306,0.1148951798,0.9591841556,0.5071477292,-0.7172024838,0.938228509,-0.516768089,-0.9257481734,0.5926904322,-0.9273254278,0.603956351,-0.3798031787,-0.5326097247,0.7743706606,0.5148603968,-0.5808350406,0.7215425354,0.4892029963,0.1522036903,0.7873003035,0.1917065954,0.844902279,-0.4753035115,-0.2051088625,0.2560970559,0.2139701345,0.0593548438,0.8596652305,0.8501051021,-0.0825031447,-0.1305708097,-0.5373982659,0.0753052435,0.8055878056,-0.5923933591,0.4049665937,-0.061998376,-0.6929504679,0.1241335606,-0.6781296405,-0.6118982527,-0.9299235302,0.4382077411,-0.2034092325,0.065741827,0.3643759186,0.4344149898,-0.2105148672,0.5910763204,-0.1811215512,0.6078974205,-0.2603440265,-0.3116398497,0.694876845,-0.2973708429,0.3041435409,0.6787811149,0.5195723108,-0.545235816,0.238770389,-0.4925930425,0.9218381854,0.6908426786,-0.9507454373,0.2433599846,0.0986862428,0.1963959439,0.6658718692,0.0576698919,0.2910227584,0.4364285131,0.4222903265,0.612228947,0.4296418062,-0.0503048211,0.4717283536,-0.4496415435,-0.7453523469,0.4178570515,0.8535106899,0.3396998895,-0.2648370477,-0.3888055314,0.7290719089,0.6026977694,-0.4786161873,-0.7237301518,-0.8566103522,-0.6612373182,0.8358211205,0.6630282848,0.1354581851,0.5859890337,-0.6067502348,0.5320819146,0.6092523733,0.2766498524,-0.6346690261,0.6523649306,-0.6531610477,-0.2229217033,-0.0692164161,0.1938327638,-0.6829586241,-0.4242461436,0.4744219206,0.6441867739,-0.9387067419,0.0129293163,0.5645127467,0.9995050155,-0.8014803255,-0.5707631078,0.7590466086,-0.3420382749,0.3285936017,0.8501877006,0.9513756735,0.0689707285,0.7040275362,-0.5937287102,-0.9893601383,0.234915575,0.5145179368,0.2951023993,-0.891817267,-0.9060384193,0.6768211476,0.0784462142,-0.1219602287,0.8858585338,-0.5860604784,-0.9085713036,0.987135918,0.4250446908,-0.5918493516,0.6296951512,-0.1588523444,-0.6869621635,-0.6676293985,-0.6763780076,0.68951685,0.5455089673,0.4815164539,-0.4192146566,-0.8073379323,0.6449036753,0.6666721679,-0.877556801,0.2618733765,0.828778213,-0.3758004178,-0.2165127353,0.1803344444,-0.4589538511,-0.4994626178,0.7634982804,0.4082749644,-0.9170488711,-0.0098090076,-0.1461418347,-0.2220791784,0.8431313068,0.6248239623,-0.6999219282,-0.6367066331,-0.6051408307,0.6682993146,-0.2927592329,0.1605031641,-0.4625980985,0.2996490472,0.4255790159,0.4196842106,0.4526876926
   0.7382788735,0.7807472285,0.0430072968,0.8849578359,0.5874416627,0.7956964309,-0.9442674679,0.9575790445,-0.0428769896,-0.2126852354,0.6500269808,0.6912636083,0.0022606024,0.840287993,0.0084658198,-0.4768647925,0.3814551449,0.0464792317,0.4845201042,0.7744035139,-0.4345096493,0.3397753193,0.4205419272,-0.4179650227,0.9602786606,0.2676328229,-0.6581986557,0.7020123569,0.7377329101,0.0414532916,0.0568303625,-0.2624737521,0.1926847588,-0.8811877989,-0.5885121924,0.039018723,0.1037308714,0.6086662075,0.1116225429,-0.7754603109,0.5524098451,0.8824937648,0.34962577,-0.6072679454,-0.1817124814,-0.6267241461,0.6709472569,0.4878808061,-0.8585735493,-0.0244123764,-0.9560927073,-0.5001264742,-0.558428865,0.6097914316,0.2683549941,-0.5542520178,-0.227020344,0.1058053135,-0.0684447885,-0.6754031216,0.9546497402,0.1957884675,0.2219633777,-0.9783057397,0.786580633,-0.267873199,0.0714686588,0.1372455785,0.1114339452,0.9873351248,0.1416509583,0.2956425354,0.268192231,-0.1952344989,-0.7252663748,-0.2222993278,-0.3267160739,-0.0728821479,-0.7304717496,-0.9521707773,0.1581753988,-0.273872399,0.461656737,-0.658826386,0.6620828222,-0.3102689787,0.7274475308,-0.6067097161,-0.7551502016,-0.8779973422,-0.9140279522,0.3604252468,-0.0151167148,0.3215439869,0.5606553241,-0.0980318981,0.4099641188,-0.9902403361,0.9363643727,0.5557712887,-0.2577770448,0.8439383812,0.7142979469,0.4672093573,0.5148563823,0.1365994331,0.8979060211,0.1861526058,0.1810492824,-0.5648578158,-0.9401975838,-0.8538221043,-0.9202812089,-0.9710876614,-0.3464034845,-0.9672169433,-0.383250699,0.401602842,-0.9158406092,0.9573465173,0.2579581486,0.9494169698,-0.4332157495,-0.165844525,0.2554399596,0.2248501262,0.6667200832,-0.8564760427,0.7745650558,-0.3808882565,-0.2579265347,-0.9335211713,-0.1864074185,-0.3751516576,-0.1497073403,-0.1651437742,0.4840510427,0.3665582096,0.9835409887,0.1261494541,-0.5045925312,0.6762559149,0.6110444133,-0.9337930104,-0.6765861934,0.874793624,0.9751864023,-0.0105989192,-0.3556406481,0.3868792542,-0.5134014245,0.3729320026,-0.7737991764,-0.2387889619,0.0479456627,-0.1797890247,0.9687994204,-0.1494882076,0.8521989699,0.5762251059,0.502636818,-0.67304008,-0.1657559388,0.7513217429,0.1169005156,-0.4621969293,0.1560131629,0.1008496725,-0.3941691777,0.9320798754,0.4664774927,-0.860587024,-0.9472628804,-0.6886193419,-0.9096052333,0.7769105241,-0.2608433273,0.3216429055,0.6131380394,0.091435091,0.4579593556,0.5138784008,0.5001899573,0.4930996072,0.3273505955,-0.8810100545,0.8634456363,-0.3050793585,0.2868564096,-0.5019980529,-0.8424253237,0.6954665984,0.4779830747,-0.6362510409,-0.4884376897,-0.6706394294,-0.3299168571,0.7135578097,-0.7105406182,0.649606018,0.9808419918,-0.0326932891,-0.1778514172,-0.10551926,-0.5168396449,-0.6591446555,0.5425293144,0.3835398305,0.0456299356,-0.5196681953,-0.1505923208,-0.8110421964,-0.2512660232,-0.2891947909,-0.3530514203,0.8687120074,0.6457987723,-0.496712985,-0.4742551781,0.6669445579,0.3723601154,-0.4108260134,0.4404256341,-0.2966901012,-0.6559608534,0.9262661435,0.9053047451,0.0411401136,-0.7730393191,0.8195914498,-0.0500674623,-0.7821829663,-0.7529088253
##end
biasActivation=0,1,1,1
[BASIC:ACTIVATION]
"org.encog.engine.network.activation.ActivationSoftMax"
"org.encog.engine.network.activation.ActivationReLU",0,0
"org.encog.engine.network.activation.ActivationReLU",0,0
"org.encog.engine.network.activation.ActivationLinear"
