encog,BasicNetwork,java,3.4.0,1,1532928827964
[BASIC]
[BASIC:PARAMS]
[BASIC:NETWORK]
beginTraining=0
connectionLimit=0
contextTargetOffset=0,0,0,0
contextTargetSize=0,0,0,0
endTraining=3
hasContext=f
inputCount=16
layerCounts=4,26,101,17
layerFeedCounts=4,25,100,16
layerContextCount=0,0,0,0
layerIndex=0,4,30,131
output=0,0,0.0000000006,0.9999999994,0,5.3534691919,4.6816853631,0,0,0,5.1769166997,14.9566550557,0,7.5654182102,0,0,0,0,0,2.5242391734,0,1.4333322391,0,20.7464134415,30.45964206,25.1733094843,25.4321554834,0.2834895569,0,1,1.4527029826,4.5277038311,1.0581257693,3.6660034503,1.2687176837,1.1178249376,0.5579541998,0,0,0,0,4.1265918745,3.4114399338,0.1986527443,0,0,0,0,0,1.1467862165,1.3019639964,0,0,0,4.2159914472,0,0,0,0,0.003178459,6.046312507,0.1929996369,0.3093811453,1.9019402687,2.0928493225,0,0.1611828262,0.8275488482,0.0315455833,1.3852815756,2.7161771123,0.046710622,0,2.4519202261,6.6434888278,0,2.5703579794,3.0405558861,5.0308476931,3.7897224684,1.4924170414,0.4753724211,2.0679945968,1.1853914277,0,0,2.9800707478,0,0.0318058997,0,2.4982877957,2.4165338412,0.8787421106,1.8711205243,0,0,0,0.4756291133,3.3653668997,0,2.3341887202,3.848796167,2.138010955,0,0.3516986041,0,1.5072081949,0,0.9798576978,0.6601902287,0,0.5878359564,0.9930552978,0.2290866975,2.3116328655,1.0551259798,0,0,4.9789918459,3.0672697268,0,0,0.3254873136,0,0.6508037426,4.2045906908,0,0,0,0,1,0,0,0,0,0,0,0,0,0,0,0,0,0,2,2,4,1
outputCount=4
weightIndex=0,104,2629,4329
weights=##0
##double#4329
   0.3193018439,0.59379659,-0.2045894888,-0.03644066,-0.1434760791,-0.3195922224,-0.0970738484,0.4337662484,-0.2665662216,-0.1709632181,-0.9700010955,-0.7190169475,-0.0367296589,0.0880464715,0.9897215272,0.7884284146,-0.3708269529,0.9045220336,0.0730866972,-0.2249986189,0.0856157912,-0.7125544251,0.3388091685,-0.5524317964,-0.2720033988,-0.5334125607,-0.705087671,0.2487046286,0.7011790658,0.570338531,0.4209983124,-0.0453961615,0.1352226309,-0.2187406217,-0.8729039458,-0.2106387814,0.9515599984,0.0644650193,-0.1972875224,-0.1545655462,-0.4165790803,0.9950528549,0.0486515298,-0.8282736683,-0.768276344,-0.4857729221,0.4894217416,-0.4113659445,-0.9549282789,0.220900009,0.5279468277,0.7437318869,0.3304738935,-0.14627792,0.5066446929,0.3764145517,0.3937657401,-0.3296008501,-0.4994101956,0.1507474674,-0.0168151792,-0.7632932546,0.1466229013,0.0342608367,0.5529333966,-0.0471692543,-0.0044916605,-0.0269686553,0.347967097,-0.5269762845,0.8430093061,0.3561513216,0.2072607512,-0.1676005473,0.829241857,0.8605164546,-0.7394341177,-0.6199856359,-0.6432552986,-0.0183076575,0.031887102,-0.8402397897,-0.5360721148,-0.4219468957,-0.5758908302,0.6407847991,0.9203405932,0.3697187859,0.1407117409,-0.1831521276,-0.2823026789,0.673061842,0.5831475684,0.6766957924,-0.6115199406,0.2436048124,0.7352665355,0.2712291675,0.3825249066,0.9970275151,-0.1125576331,-0.7802765054,0.2820075284,0.4220235175,-0.0277303524,-0.9602883767,-0.6785898745,-0.1419633195,0.5902997643,-0.5270583076,0.9029847729,-0.1303427216,0.3058767763,0.6906582179,-0.2548721493,-0.8673412662,0.4251999316,-0.0703891058,0.8697639024,-0.9776141658,0.5814473833,0.8266095113,-0.3547588312,0.6742165819,-0.6855950057,-0.3946034909,0.7314167861,-0.6300809589,0.8188967725,0.5865278708,0.3106583137,-0.0095024976,-0.1660968764,0.8205100706,-0.8491211934,0.2725445715,0.1044016732,-0.8731652585,-0.561159266,-0.1148834973,0.2178645281,-0.2426040081,-0.9256699395,0.6436133622,-0.8171404421,0.9880444601,0.4056824227,-0.2497002529,0.0222842351,0.0292225201,-0.8324372014,-0.5828578338,-0.9450583373,0.61725345,0.9624666383,0.845985846,-0.7259603783,-0.0247581769,0.0734070965,0.5570518723,-0.3781595114,-0.3756760418,0.4227484714,-0.0429883956,0.5222962561,-0.1323807077,0.9320436791,-0.0588690128,0.3593324193,-0.8216751424,0.5125521424,0.2338290775,-0.0494714108,-0.032932644,-0.5249089102,0.7766043227,-0.8906515486,-0.7734948147,-0.336671644,-0.4336072856,0.9080614311,0.0700973973,-0.7393083097,0.7071254388,-0.9341042603,-0.510041595,-0.0047027007,0.1870097078,0.4744484435,-0.2318736193,0.7135071448,-0.4688599946,-0.5719093566,0.9932626637,-0.3905442712,0.8969983546,0.5179923324,0.8754069802,0.8251244206,-0.7917662362,0.1054920239,0.7811772991,-0.7668943417,-0.964388597,-0.1576559433,0.2700632724,-0.9923995931,-0.9323770607,-0.7060157701,-0.2708022479,0.0167800125,-0.8431187541,-0.7712281317,0.9376130336,-0.1147935499,0.2921355862,-0.9807000238,0.3750829892,0.3148321725,-0.18764083,0.9941274572,-0.6233736793,-0.6342269721,0.0508437527,-0.2080084458,-0.2465844945,0.0289001836,-0.0123020478,-0.4785797303,0.7984522789,0.176643025,-0.05351158,-0.7171241679,0.9846239008,-0.8266920155,0.7758431605,0.8915420423,0.6127479473,-0.5463895123,0.6244257855,-0.3227303767,-0.5580556003,0.4637859239,-0.9930452357,-0.6848165589,-0.2878574608,0.1805368612,-0.3924237041,-0.305551897,0.3585890129,0.6472558343,-0.9877577247,0.7153871028,0.5263325699,0.8025835762,-0.2487339898,-0.6260161336,-0.9821416993,0.9247761886,-0.3128394809,0.6785752901,-0.3526642125,-0.7267239741,0.318854664,-0.0824555824,-0.0227837096,0.5968655041,-0.6774323402,0.3593170317,-0.3208870291,0.6535904491,-0.1314126748,0.1704759903,-0.1569801674,-0.8527147451,0.9547137574,0.7847993473,0.2842948648,0.4590918218,-0.1353050685,-0.5880530058,-0.8545291554,0.3748913133,0.6132276275,0.2371288514,-0.044657998,0.6358585735,-0.8867175323,-0.2956248471,-0.1358424831,0.310982718,0.8930628344,0.6049837142,0.1004303224,0.9628223122,-0.0510919966,-0.4661462524,-0.4350225101,0.8883675377,-0.9497864651,-0.7599908083,-0.2729880906,0.7270766506,-0.2205179952,0.842728771,0.3185308284,0.7795304907,-0.9005719033,0.7103505901,-0.6728753537,0.1979124684,-0.2765945628,-0.3054976288,0.4493823778,0.2940037279,-0.9932416026,0.6502146584,0.8178823821,-0.6870328054,-0.3929497737,-0.3882071151,-0.0736688859,0.1308377106,-0.4824700387,-0.7594100374,-0.5422690371,0.087568374,0.5291765509,0.5154632176,0.8396957113,0.9636281447,0.5566426098,-0.7230026688,0.3569344239,0.733255368,-0.7005868441,0.5606647998,0.1205154731,-0.8940757804,0.4174954985,0.9479077159,-0.8063563421,0.7241569956,-0.7997165365,-0.4429676257,-0.8823351364,-0.2925491327,-0.9817238823,0.3414908096,0.1011307215,-0.4061280464,0.6849976211,0.2562019253,0.4358419663,0.6305817808,0.813711844,-0.1597943246,0.2173272048,-0.7067790197,0.4879394649,0.9371411857,-0.5317967874,0.2766877372,-0.832958615,0.1993025661,-0.2387429695,-0.6253274717,-0.0164135333,0.7010082709,-0.0112003801,-0.150765711,0.0825386988,0.3389408559,-0.1685307426,0.4370037201,0.9211820199,-0.5863339494,-0.9341181178,0.7624152606,-0.8187391757,-0.8193110287,-0.3206373614,-0.5331405924,0.1820519889,-0.6236658106,0.7346539767,0.0382929071,0.763023447,0.6349179124,-0.0215623485,0.3121744315,-0.7037074843,0.9629150397,0.6660882,0.0649225438,-0.2813658506,-0.6161839612,0.9543242169,-0.5939756026,-0.8822721726,0.8872882427,-0.3664409721,0.5277611561,-0.717280819,0.0078779309,0.9861291602,0.9808689928,0.3244676483,0.7684882182,-0.8853865844,0.4229341566,-0.6241559468,0.2514431451,-0.3901654378,-0.4645545867,-0.4882381512,0.2097595026,-0.2353247977,0.6481025496,-0.1630203068,-0.4631170149,0.4885318841,0.3083320675,-0.7447126275,0.2821968672,0.3594084861,-0.4682663051,0.6029115105,-0.5847282231,-0.5972178395,-0.9949976416,0.2763998536,-0.2212744435,-0.8093451626,-0.335766239,0.7502278163,-0.5871569591,-0.6616801442,-0.9775053626,-0.8088186563,-0.5480534779,-0.4751300423,-0.5359263178,0.2338512998,0.4664788952,-0.6481113108,0.5687293009,-0.4509005365,0.8265324456,-0.1388221064,-0.7028297006,-0.7581571805,0.9441736961,-0.5770813924,0.0514634298,-0.0703062766,0.2116545908,0.6034254641,0.814474405,0.2929949508,-0.2413871496,0.3735141571,-0.7196733125,-0.745728491,0.0033082821,0.2385467948,-0.8291226324,-0.8129521374,-0.5913464475,0.1004540409,0.9000234444,-0.7897946619,0.8858621923,0.9765409506,-0.7521877889,0.3653762178,-0.9447684965,-0.1163467138,0.6988777671,-0.1089123028,-0.0055331953,-0.6564485702,0.0153496948,-0.9247738147,0.9898959691,-0.6259913971,-0.5909565788,0.6937841998,0.5332244427,0.1815884902,0.5316696443,-0.8629106537,0.9244640481,-0.2784203488,-0.5237206492,-0.8398261551,0.6377519399,-0.875821427,0.8434773704,0.2883374171,-0.3728962459,0.5638199952,-0.1919221957,-0.1366241748,-0.3080473551,0.9396965162,-0.0320820624,0.5202145253,0.321241638,-0.3914164219,0.9308747199,0.5623026759,0.8315886077,0.7187034142,-0.1797164739,-0.1107204787,-0.7432708385,-0.9702119573,-0.5147291073,-0.1573405873,-0.6608955168,0.4339412858,0.4044874209,-0.7141305525,-0.1709917401,0.4121811701,0.9211195029,-0.6144697231,0.4678580327,-0.5147917927,-0.7136280946,-0.6464444312,-0.1747254864,0.775179624,0.1932096455,0.2053255709,-0.0772822857,0.6715629527,-0.9740343592,-0.776051872,-0.4502204124,0.5652896707,-0.6953146113,-0.2279460585,0.1627875837,-0.480758215,-0.1788372912,0.6137330997,0.5420713071,-0.9788181513,0.5388677804,-0.8764277744,-0.6097886201,0.240779323,-0.5390305746,0.9690919827,-0.2053037325,-0.6797140623,-0.345921455,0.5526076061,-0.2434168427,0.2768792127,0.0410245059,-0.4086457426,0.1564066236,-0.8874485046,-0.4584641887,0.4641002426,0.9208817229,0.8597967856,-0.6359537712,0.0671990553,-0.0000691112,-0.4114953905,0.0185997611,-0.1340520507,-0.9575278626,-0.9527670908,0.901909144,-0.2332844512,-0.1224882191,-0.1490761551,0.7841090867,-0.8472868625,-0.5840252025,0.7473177525,0.9686491985,0.5051395943,0.2647609209,-0.7342170919,-0.6145997378,-0.983848936,0.638047649,-0.1294749669,-0.4808114211,0.4001568544,0.9155920596,-0.7188032165,-0.4936201484,0.5233196353,0.4944122838,0.5929874324,0.5997413407,-0.50244482,-0.8305446125,-0.6323833048,-0.6752471631,0.0538039735,0.1558280617,0.9142775723,-0.0534299774,0.7268910821,-0.5968163336,-0.7360616489,0.6441012944,0.9117310693,0.854708636,-0.6953770855,-0.7418245477,0.1983397887,-0.2920987333,0.3237849497,0.4730843584,-0.6237123601,0.856874878,0.2072207771,-0.5582001094,0.3380606916,-0.5196675563,-0.7687800771,0.0524418334,-0.0281858181,-0.4391454177,-0.0667142628,0.3966743758,-0.4696261871,-0.0634393285,0.1259651245,-0.9396538078,0.8726540424,0.1544291234,0.4063931727,-0.4975379712,-0.5882712415,0.4499047104,-0.8407637873,0.3132505317,-0.4076259884,0.150565599,0.4488509378,-0.6773321869,0.710511542,-0.3826187455,-0.1400252254,0.6292582354,-0.7147167165,0.6872652558,0.4543241315,-0.7650945043,0.2112532245,-0.8181962241,-0.5055762345,-0.0356217407,-0.6004965296,0.0768102977,-0.4144395367,0.551212678,-0.1898821921,-0.0022738849,-0.856787118,-0.9386043,-0.8987513513,-0.7945758181,-0.6133357756,-0.0656166536,0.2866389946,-0.5956746525,-0.4986839921,-0.6981368911,0.6867089591,-0.235752932,-0.8682396055,0.4076830709,-0.2362066742,0.0354370649,-0.0550967328,-0.159889324,0.1192049533,-0.3788853199,0.7797691466,0.3282427272,0.6134755562,0.2208919842,-0.4038162416,0.4656207582,-0.9331561102,0.8875003658,-0.3536003631,0.1741403538,0.4569833655,0.8930171473,-0.7506162851,-0.7450027371,-0.9313292055,0.1196814453,0.139774231,0.9272946125,0.7025728819,0.7010939936,0.7497999554,-0.4402678687,-0.1719968186,-0.4364558641,0.8576830819,-0.6657131668,0.733510176,-0.4488162694,-0.2393568588,0.6332463727,0.3880116707,-0.3147818707,0.995044012,-0.0694977138,0.9427689475,0.8157730377,-0.7157764156,-0.8417711496,-0.9149884205,-0.8658346263,0.2279876941,-0.3429296654,0.2358581034,0.8433896031,0.1226173601,-0.1011094095,0.1626692053,-0.6229274399,-0.6798897381,0.6560460202,-0.453084211,-0.9272771802,0.1609544823,-0.3854553427,0.1047745457,-0.4484554303,-0.6386333671,0.807455662,-0.769081372,0.7903865208,-0.5500935728,0.0284641104,0.6633120871,0.2755118908,-0.1693250209,0.7111162667,0.1068547602,0.2064071754,-0.2369102695,0.341885006,0.2559290069,-0.1101859082,0.57967384,0.3073274849,-0.9129470446,0.318764875,-0.1644515427,0.4633213151,-0.9488206897,-0.5456674639,0.8970210141,0.1077892927,-0.1880122594,0.8956606327,0.1031748074,0.2896014208,-0.5037032492,0.8289012479,-0.6500056708,0.6731884583,0.3058833677,0.0119086605,0.9280026947,-0.9685565719,-0.8446172591,0.6284580871,0.6711924407,0.1019799169,0.0571793076,0.8882534432,0.6261798024,-0.0499529224,0.2602025147,-0.024630326,-0.6425485884,0.0916487255,-0.0895808288,0.6579784095,-0.624286607,-0.4973341936,-0.7961709036,-0.291100463,-0.3548902349,-0.7243491858,-0.8651575401,0.6866331542,0.0234295408,-0.4656647702,-0.1429009556,0.758037434,-0.7863322206,-0.952136488,0.6852811292,-0.540114978,-0.0302287494,0.8670466846,-0.7583387243,-0.2866619157,-0.3009659128,0.5418614237,-0.5795152098,0.4214319001,-0.0030915678,0.1268083789,-0.830852272,-0.6434640315,0.8070458334,-0.8341947806,0.3574008411,-0.261403582,-0.142002497,0.425739299,0.2675248761,0.2107075863,0.1257104808,0.5530755403,0.2205210892,-0.9705381954,0.0412924633,-0.5802023549,-0.257866464,0.6566095394,0.0244681365,-0.0441495126,-0.9499650942,-0.7140932402,0.646434495,0.1515832264,0.7752895803,0.421731131,-0.2802808269,-0.5894658383,0.317655051,0.2896298281,0.7627428791,0.4667153484,0.8698272595,0.1986867997,0.760631374,0.0902423659,0.2516241383,0.6957896605,-0.9239197211,-0.9890938635,0.0998187359,-0.3301421283,-0.8754719459,-0.4138212859,0.813785522,-0.8377371308,-0.2075267193,0.2349119579,0.3022808368,-0.2035989249,-0.238437925,0.0293798044,0.3558135534,0.2005666092,-0.0922689204,0.4621165614,0.6116528116,-0.8828343961,0.2488641573,0.5721568473,0.3060573965,-0.6511248442,0.4668584544,0.0384710451,0.6721071924,0.0067616654,0.3192308537,-0.2673565663,0.2466135432,0.1384620669,-0.3746252982,0.3285396106,-0.4427455461,-0.0304837986,-0.2340954651,0.2559290883,-0.2782964346,-0.7246546668,-0.886555721,0.234947159,-0.0187992792,-0.7351758514,0.0512314329,-0.3759715823,-0.0891779948,-0.7402343687,0.4940444451,-0.9829280679,0.8713679924,0.8840434134,0.7102105361,-0.2766367723,-0.3555435992,-0.2201969894,-0.0828926585,-0.0520830109,0.5880921262,-0.2734798457,0.7076005556,0.7752338953,-0.9951288629,-0.2697855461,0.424068663,0.8204489157,0.8382001389,0.3489881752,0.5620262279,-0.0875023894,0.7073508143,0.1007159905,-0.9366179856,-0.913726951,-0.886234245,0.0065429772,0.9778331057,-0.5923110609,-0.7078111258,0.1989388437,-0.1093040103,-0.7253266477,-0.3717406717,-0.1070551838,0.4534605097,0.2221035304,-0.7947868298,0.2854954106,0.4380512181,0.1870743133,0.9322780806,-0.6296467723,0.9100160135,-0.8811236292,0.8254903271,-0.5776529803,0.4467126585,0.0653670402,0.2114899188,0.5787038958,0.3164946159,-0.3460295645,0.8826147638,0.3922378292,-0.0823889965,-0.680977134,-0.3534483768,0.2899995004,0.9407828927,0.2408115657,0.7369801647,-0.2156701856,-0.3125118067,0.8046181262,0.3315235648,0.5830709073,-0.2830071257,0.0994540161,-0.523134077,0.1079353762,-0.0585661039,0.531405942,-0.5676381892,0.3345153795,0.420714527,-0.6523227246,0.8831032156,-0.8919033709,-0.5424856817,-0.7509247746,-0.9642858508,0.658356037,0.0668923667,0.932079932,0.7139874435,-0.3214283286,-0.7727084076,0.2409965308,-0.4860742183,-0.1182518257,-0.4144659368,-0.9249078359,-0.8507202131,-0.3526868581,0.6765402484,0.4776376731,0.4621352721,0.4559809055,-0.4867502253,0.7649626909,-0.2308111591,-0.5034478432,0.941733348,-0.7348564742,-0.8266830691,-0.4237721188,0.5409536452,0.9627230692,0.4309861576,-0.4651645152,0.0333783948,0.8613872959,-0.9590278967,0.3772769017,-0.8914584844,0.3329642154,0.6368059369,-0.5465771488,0.3071463414,-0.0031069311,0.975148842,-0.2637006991,-0.0748332678,0.2833597215,-0.0009126628,-0.5860186814,-0.597463714,-0.0392130721,0.122863765,0.1999718825,-0.5670163943,-0.8510524909,-0.7220702271,-0.8510721407,0.8731317854,-0.476882115,0.7861035383,0.8497113875,0.1000223599,0.2804730748,-0.9776648753,-0.2124692953,0.9841886518,0.4185867067,0.0343849028,-0.5036025323,0.9300649109,-0.7042559153,0.2453252803,0.329625351,0.1547996301,0.6770017243,-0.7234479255,0.1847558772,-0.0327198252,-0.7947549121,0.9396525141,0.9142722819,0.185090948,0.6413970126,0.4361937308,-0.7042097536,-0.4170760262,0.9347967817,-0.2275559831,-0.4404719065,-0.1712251533,-0.3601718364,-0.0467349835,0.2698955657,-0.5722046944,0.0503407029,0.6956026639,-0.3013311313,0.8114559453,0.0952304358,-0.8412288964,0.9660153974,0.5321774772,0.7955536966,0.2273158719,0.328581787,0.3557659682,-0.156668102,-0.1674061235,-0.1903553214,0.0438032877,0.9728569005,0.6375972002,-0.7228855891,0.0828588033,0.517167214,0.116743503,0.4966599347,-0.6420108777,0.8280465708,-0.7171476324,0.7882572346,0.6057029725,0.2739251627,0.4680667504,-0.3527812795,-0.2932158944,-0.6812428889,-0.1128140797,-0.938211914,0.3025191649,-0.5693993288,-0.4314137921,0.246320175,-0.4479321999,-0.1961010107,-0.8452903567,-0.5025831933,-0.4880083146,0.4853227388,0.7768113263,-0.4062036303,-0.4058536786,0.2098594116,-0.2314158589,0.6632515139,0.7985164408,-0.9436032615,-0.5380923416,0.6415342641,-0.8379412363,0.9500856206,0.3227329699,0.9461593889,-0.1666324971,0.7238317461,0.4922148942,0.978274352,0.3316626166,-0.9681712211,-0.4377818335,0.6082285245,0.6625684199,0.0041741186,0.7134723362,-0.2651624042,0.8852186428,0.5899399794,0.007216057,0.2144346949,0.2869922383,-0.9025222617,-0.9433887327,0.392986397,0.1093631045,-0.8444761662,-0.4608022405,0.1088443088,0.3795566752,-0.0600670258,-0.7367073789,-0.0174502143,0.1272608495,-0.1403156196,-0.2815758903,-0.842293616,0.3214292105,-0.5433124529,-0.6628355896,0.8603765961,0.4148574048,-0.4370530627,0.1439120681,0.4836280259,0.140477678,0.301320236,-0.5572508795,0.194946593,-0.6147950768,-0.296553218,-0.8664690596,0.4258693085,0.5913874025,0.8471739147,-0.790294397,0.9216896627,-0.3675850894,-0.1145977574,-0.1534084615,-0.5226134593,-0.2546097482,-0.2600332187,0.0564747717,0.0962098297,0.4457352422,0.8421810201,-0.3842860593,0.303371286,0.1030511311,0.8835113891,0.6825415304,-0.3512924387,-0.2271422868,-0.6035387008,0.9757245911,0.5209644989,0.9218622088,-0.1328093993,0.1131549673,0.867987797,0.221104783,0.2886810072,0.0666639796,0.7985772132,0.6198378314,-0.0382753815,0.4741099149,-0.5968867094,-0.1303916054,-0.8703587887,-0.9852539925,-0.6798043577,-0.474004706,-0.7878066337,0.4685391609,-0.5847628173,0.0451071341,0.0517379344,-0.946136877,0.177927423,0.1655412172,0.9743274712,-0.0911791355,-0.098455527,-0.353325041,-0.0107807705,-0.6936124614,-0.3823467145,-0.2375416271,0.5994342225,0.0045017557,0.1826572529,0.3527553716,-0.4036839435,0.928546559,-0.2874966384,0.468781784,0.4580542611,-0.5173506334,0.8541006312,-0.4006298849,0.1896402422,-0.9634436362,0.6250003459,-0.2534924795,-0.5246890661,-0.1419254181,-0.880573228,0.0798728166,-0.9883902919,0.0949466031,-0.8538817677,-0.090919743,-0.5498576503,-0.9183823061,0.3835583921,-0.0002019004,-0.5532482419,0.9160281464,-0.2896277053,0.4156927195,0.4342818617,0.3321889779,-0.6978742743,-0.4729086411,-0.6797235605,-0.55737121,-0.7037556758,0.0475921105,-0.6887275236,-0.2083649703,-0.3372852051,-0.8704806216,-0.8485525305,0.9763358172,0.7477226683,0.3967994759,-0.0500492122,-0.4789878572,0.6130057061,-0.4691737047,0.1439167388,0.2727227494,0.7544005984,0.2190030675,-0.9471381655,-0.3746920544,0.3079234405,-0.5957289393,-0.3075240613,-0.7296259735,0.9964308518,0.9841584107,-0.0027822674,0.5865847658,0.8070988388,-0.8851230238,0.3005815276,-0.6682117051,-0.4143737198,0.4617508984,-0.5075116162,-0.8508615661,-0.9887822514,0.5924786561,0.4509528677,-0.9629408483,-0.9601374593,0.4796168411,-0.4598643652,-0.4873290152,0.1844819763,0.7616473565,0.6626001544,0.2930346352,0.6636484315,0.7672385694,-0.2820987676,-0.0001071515,0.7777271956,0.6964264538,0.899304229,0.9236103232,0.752914419,-0.3161958371,-0.2297760813,-0.3801636179,0.4453972055,-0.791304955,-0.4258745582,-0.6620139966,-0.4928848919,0.9504015123,0.5944093903,0.7599838224,0.5080590931,0.6619250731,-0.1867584621,-0.5869331686,0.2522019102,-0.7784579181,-0.7145033271,-0.5893962232,0.9217093385,-0.6430743733,0.2799543934,-0.4646044964,0.2231942861,0.365863713,-0.7569116167,0.4390433582,-0.2864229739,-0.7970640607,-0.5999342491,-0.4826122534,0.619942617,-0.5534298714,-0.8709371192,-0.9604075368,-0.1894035795,-0.5275048318,0.0854631557,-0.3442420561,0.8169904631,-0.3985958335,-0.7835153629,-0.8726423128,0.1479900874,-0.304119669,-0.7669649736,-0.7071948743,-0.4412915621,-0.7583285451,0.3531483915,-0.9851243066,-0.4571949334,-0.587600356,0.3388084422,0.4028072411,0.8008349373,-0.5692184302,0.1079819542,-0.4427050936,0.6377475165,0.3527535414,-0.1997564872,-0.8692488789,-0.4740415504,0.6566333093,-0.8129319108,0.9412882917,0.2666475245,-0.8056503231,-0.7966053932,-0.88307357,0.8137386967,-0.9807178284,-0.0873481539,0.1040716392,0.4997256004,-0.7054765828,0.0091968301,-0.3951761802,0.8627810424,0.9836818096,-0.0537528069,0.9505167848,-0.8924332791,0.0732300033,0.8399043109,-0.9262021598,-0.5864383672,-0.9704490107,-0.4201215974,-0.3894645278,0.2268360369,-0.6096946718,-0.5537244653,-0.3975280657,0.31983943,-0.1725961826,0.3499945829,-0.5040438743,-0.8803183159,0.7717753861,-0.052827504,0.8614764432,0.1293586059,-0.2377412079,0.1730995963,0.7546603411,0.0927098203,0.1558617718,0.1512992616,0.4215019734,0.5663742303,-0.9963443173,-0.9407685554,-0.2893043285,0.3133539673,-0.000622737,0.0122437231,0.9421528279,0.5237671159,-0.4707870411,0.4838670034,0.0246846566,0.016551375,-0.2095209906,-0.7396654321,0.8330600541,0.0342951579,0.0354830751,-0.6656680859,-0.5748527289,-0.9675988563,-0.7017971753,-0.128398964,-0.1311408654,0.7927121477,0.5817658116,-0.8756495479,-0.9525767508,-0.5110077626,-0.6718896353,-0.6873536131,-0.1264040362,-0.6121662868,-0.2501376827,0.8827730057,-0.8809354646,0.7505082792,-0.8288120982,0.9555291726,-0.0165688414,0.0160423005,0.7993805216,0.2302793812,-0.6829491153,0.8426762758,0.1202823265,-0.1558324163,-0.4438275164,-0.7064737392,-0.1440504578,0.0716139535,0.7592329456,-0.7744016898,0.8963987682,-0.8679407151,-0.2060988602,0.8404870589,-0.6029342598,0.3766018435,-0.4731522646,-0.3194684989,0.0649752468,0.4112504126,-0.6977066649,0.5469040501,-0.3286060776,-0.4837143777,-0.693142916,0.0752354596,-0.4323695261,-0.0013582646,-0.4790692984,0.2314493702,0.857167952,0.8499445688,-0.6701917524,-0.9405558238,-0.2365513892,0.2162704425,0.8587124919,0.7555144434,-0.998015186,-0.7240284857,-0.5509411587,0.0809825161,-0.5847378099,-0.7355322554,-0.7399287362,-0.2028881052,0.2447138661,0.4576919204,-0.4609589012,0.5571668481,0.4827125879,-0.449250224,-0.7701979411,-0.0596497001,0.2254392216,-0.6554113635,-0.789141891,-0.4603649981,-0.6086561149,0.845533486,0.9721196315,0.4441972337,0.1764454694,0.834985488,-0.3899225412,0.196379519,-0.9146360535,-0.4246855932,0.3319596257,0.6120118379,-0.2055091889,0.0667990481,-0.8596689463,-0.0217755511,0.1818739332,-0.6508657679,0.8094755557,0.1982668759,0.0440748443,-0.6777203694,0.7808172555,-0.7339517845,0.5927611765,0.4349883915,-0.3790459915,-0.9740978959,0.159022763,0.3643170178,-0.6314384047,-0.975547479,0.9655155669,-0.5709131398,-0.4136420809,0.1364260498,0.1562227864,0.6214580493,-0.4942459208,-0.5391569208,-0.767685066,0.8134114569,0.8110873595,0.9502356172,0.6874075154,0.2515998078,0.3662107416,-0.2485694181,-0.1898880531,0.3720729859,0.783499317,-0.158611201,-0.7458833385,0.3594595723,-0.2812645913,0.9027288557,0.5001538475,-0.4412211457,-0.0175415959,-0.5491128645,0.1007267048,-0.386178825,-0.1953187996,-0.7009504007,-0.3283853573,0.9873640609,0.6257328157,0.2600796284,-0.4581851617,-0.918057735,0.6002159062,0.7733098232,-0.5737185494,-0.5581322693,-0.4162512467,0.931057278,0.0283066063,-0.6091426182,-0.3061384535,-0.7206665579,0.8678872471,0.9056357296,0.0190657251,-0.9404426254,0.808328876,-0.0977080804,0.0591869907,0.6479782076,-0.3442613719,-0.621637091,-0.9125560395,-0.2170704941,0.7275432466,0.7989041095,0.2646596534,0.1992887407,-0.5584865707,0.6440094071,0.0386309074,0.8611043902,0.2827164177,0.7910808375,0.2228292306,0.1599943886,-0.6549212707,-0.3720361196,-0.2392407001,-0.7075550145,-0.7625569455,0.4060091425,0.4377869656,-0.2164416223,0.2311143121,0.2582241433,-0.9301295774,0.3874025805,0.3680362714,0.3373648617,0.943009368,0.7322222819,-0.0802307678,-0.7875041559,0.7442808513,-0.3313909436,0.0397775011,0.2851729253,0.7630914353,-0.2629128104,0.3994146784,-0.646035582,-0.6519454065,0.4484060741,0.3655584617,-0.1696230023,0.3107491813,-0.1615343726,-0.3023260239,-0.296409231,0.0370386646,0.8381947301,0.3197544724,0.1680886609,-0.3393093776,0.7240005647,-0.6776108078,-0.5785308287,0.1795542227,-0.2627027737,0.247644973,0.9990072384,0.9751629921,-0.4524314117,0.8126913657,-0.3985228162,0.6893213591,-0.1311667795,0.820601224,-0.0091868593,0.5488169105,-0.5326837072,0.3915149399,0.1130957314,0.2798158623,0.141235309,-0.4707778714,-0.7106073471,0.6057403903,-0.4106984366,0.1523051992,-0.3911695791,-0.0041488254,-0.1949150128,-0.0387734392,-0.6133364675,-0.1071763512,-0.7016301751,0.3208798551,-0.2856782979,0.0320462547,-0.2524806083,0.6877195086,-0.6106125254,-0.8704441975,0.2245662507,-0.7580312288,-0.5457133944,-0.7487600914,0.1545023035,-0.6264339776,-0.0012441473,0.7089705695,0.3081146853,0.6041592103,-0.8566338439,-0.9640102305,0.223409876,0.196967248,-0.655163896,-0.2064571712,-0.5009243018,0.0636899894,-0.2799213458,-0.4692458785,-0.8340921801,0.9822747154,0.599760875,0.7350800168,-0.1213786954,-0.748183207,-0.3265967163,0.8761102175,0.4584446443,-0.7161649037,0.456986235,-0.2472367164,-0.7205081893,-0.4632016008,-0.8840121352,-0.454295337,0.5549560618,-0.1212258741,0.7532079359,0.5881299885,-0.907487661,0.277732616,-0.0473133953,-0.173488025,-0.5674811177,0.0946581408,0.5728222091,-0.0362327983,0.137845246,-0.4995789508,-0.3538737767,0.2758076022,-0.5514971814,-0.1604813403,0.9215178485,0.4777968325,-0.8633349567,0.0191931855,-0.2746325461,0.357739028,0.1076459613,-0.6219010541,-0.6309260079,0.7278204689,-0.47278165,-0.6056015018,-0.8098099803,0.3758005526,0.2830637108,-0.2409976946,-0.3650794852,0.9552555106,-0.6512560578,0.2815489482,0.1215889991,0.6956866562,-0.4262476799,-0.8120505887,0.197739237,-0.5657033129,-0.5559198029,-0.2703186873,0.5190389893,-0.6117546473,-0.0051981142,-0.4385898461,-0.1666529689,0.6820694676,0.0944114665,-0.9522821759,-0.4788886275,0.1744257658,0.9929009915,0.6314547807,0.7577557708,0.8955562529,0.2753887347,0.7092587876,0.3065894718,-0.5720794337,0.0709664066,-0.2256911919,-0.9830099208,-0.4854120061,0.4185240859,0.990922079,0.4002297663,-0.7620712473,0.6638536553,0.5389806458,-0.1806661819,-0.5268319357,-0.2742190264,0.8933239357,-0.360531622,0.6961364554,-0.3633273042,0.9572783245,-0.8914875766,0.9802160523,0.7293891813,-0.8458840819,-0.6253038172,0.9702225491,-0.6835699225,0.4866568088,-0.0093103128,0.280673006,-0.6211372125,-0.8927711186,0.22858105,0.2414113745,0.8265089676,0.350961016,-0.3401380239,0.0929130948,0.9975327107,-0.0577998848,0.5695293999,0.3429488447,-0.7675049652,0.1996027015,-0.5659441511,-0.5102796145,0.7357906559,0.0224622849,-0.0978570677,0.0203505773,-0.9959735122,0.3242963924,-0.3603222544,-0.6264556126,0.538362783,-0.5727149176,-0.9394711137,-0.7507345746,0.1876048469,0.63778858,0.890080058,0.3685349105,0.3598818273,0.1859466683,0.2463078394,-0.7498813086,-0.3386434893,0.8236556166,-0.9876620689,-0.7949859303,0.3554064446,0.1624866716,0.1804027488,0.1328260973,0.7937205024,-0.0165616183,-0.9630327642,0.0607464291,-0.8315916808,-0.047058213,-0.7287066403,0.8924817988,0.2705031841,0.8641016185,-0.9485706286,-0.192681287,0.1785713345,-0.7315000068,-0.5178602999,0.4087912609,-0.6273058481,-0.4951441894,0.3259318391,0.9787968435,0.8014048768,0.7520875119,-0.5050348027,0.1595809632,0.3284921491,0.015365458,0.4997191195,-0.9649157269,-0.7860007219,-0.6860407967,0.386033762,0.4480831432,-0.2058631187,0.2119046622,-0.6350448248,0.4494853961,0.9986589431,-0.6999401325,0.1491970179,-0.8736888116,-0.7595592247,-0.7182882657,0.5192877084,0.0844985701,-0.7425554036,-0.6986172336,-0.7402040395,0.9792416037,-0.7077884533,0.9973502776,-0.2810595345,0.8738799727,0.4395888207,0.7497277759,-0.6080651578,-0.4480612645,0.2211656648,-0.682199273,-0.9071875735,-0.0438799283,0.5609761862,-0.8401400907,0.5379088978,-0.5346673066,0.3298083761,0.3722047044,0.7193414732,-0.1370455158,0.2488175391,0.5340960309,-0.9066217227,0.8422117032,-0.5879634305,0.9322495431,-0.3166717014,-0.6332247046,-0.2834430718,-0.911746633,0.2755346069,-0.2577987843,-0.5963946806,-0.1378078482,0.5592413702,0.9312652863,0.3850925656,-0.3139667976,0.6313805266,-0.9055912938,-0.5925727747,0.5618091938,-0.5903796777,0.2403841809,-0.6320942574,-0.3791120077,-0.7373130114,0.5817284562,-0.0419109771,0.2096831939,0.6739072152,-0.5478202358,0.1647359871,-0.4653437076,-0.1342917567,-0.7303616483,-0.7279689327,0.4454737566,0.8631538717,-0.1447742233,-0.0876830932,0.887353033,-0.6969757471,0.3564917349,0.6076362429,0.5208533909,0.742921288,0.9970339566,0.7944044529,-0.9176618638,-0.8728188559,-0.4645622345,0.384493847,0.3320969536,-0.6960649767,-0.5124851878,-0.0823840831,-0.6869819381,0.4903934222,0.1134208722,-0.205493923,-0.4957252523,-0.1276656368,-0.7905468257,-0.39219288,-0.4292394037,0.5292309132,0.638194042,-0.3130556123,0.594622047,0.2587837908,0.8808102701
   -0.0943006437,0.671820694,-0.5687324259,0.0297116299,-0.7475049637,0.973142284,-0.739076021,0.5140926344,-0.3659776217,-0.7181734762,0.8993244704,-0.6364685365,0.2937550927,-0.5401862892,-0.1914166241,0.4591809567,0.2705051352,0.258197265,-0.1113325415,0.4495506889,0.7802403198,0.4417038228,0.9314904317,0.9036647825,-0.4180957347,-0.563248811,-0.245312938,-0.2343867985,0.0716807628,-0.5919525761,-0.9031091056,0.2019767361,0.4447861431,-0.639666636,-0.9330243784,0.1336172033,-0.0442008801,-0.4265338384,-0.2705491403,0.0420593231,-0.4508082069,-0.4977716511,0.7494132575,-0.7484836013,-0.7681814577,-0.2580849881,0.0327411235,0.4061197522,-0.2114510976,-0.4674615686,-0.1551796679,0.3984002821,0.5090879032,-0.3887376418,0.7737029247,-0.8365810333,-0.099815082,-0.7198173556,0.7519076136,-0.2704917649,0.0664404047,-0.3220636828,0.573216661,-0.4873694572,0.2233946726,-0.3508258549,0.5434471301,-0.9670491071,0.294965214,0.533084855,0.8622048276,-0.3630027561,0.0936379411,0.5815132192,-0.2481724051,-0.2602428445,0.709876889,0.8101914732,-0.0845039376,-0.026873859,-0.7627575836,-0.7093875288,-0.5794877985,0.0175834002,0.41690191,-0.3321152312,-0.3394155813,0.2443714304,0.6435195791,-0.0991978767,-0.1318755316,0.8912836905,0.7648699152,0.1469433475,-0.3828259539,-0.0159256462,0.5217987569,-0.4136696929,-0.8358112903,0.7824971145,0.897088913,-0.0088145102,-0.3678804122,-0.4014218059,-0.5384921772,0.8309452065,0.4983267083,-0.6952433165,0.8664888013,-0.2890173123,0.3854224035,0.725336808,0.1716067436,0.4468419172,0.8713426368,0.2615344716,0.4602700505,0.6776842283,0.6825127708,0.5227577824,0.6840259838,0.147082102,0.5880701405,0.7739972677,0.0471892837,0.5863353504,-0.1075841242,-0.8087223196,-0.8536901894,0.6530157348,0.833180497,-0.4085760043,0.8476670037,0.5194676142,0.5221316892,0.860927255,0.0158029371,-0.6238498872,0.7105516233,0.5933273498,0.2662027552,-0.9812229607,0.3257512726,-0.5167032273,-0.078696072,0.0238221359,0.849414683,0.9977782672,-0.7921321763,0.9372008709,-0.9272550803,-0.1874623394,0.0307600725,-0.5087833316,-0.0840173878,-0.3604669324,0.9849361608,0.0799785,-0.2161294215,-0.0738304744,-0.3303853762,0.8759499827,-0.8314467737,0.3507768936,0.7373245413,-0.9495930085,0.3900139645,-0.7150079476,0.2491092839,0.8175004164,0.2017948846,-0.5295134696,-0.7207036207,-0.3025869405,-0.5676549407,0.562070018,-0.2332856235,0.8561906282,0.3367816902,-0.955985442,-0.0445640651,0.9938959432,0.1008670793,0.1201897573,0.401697747,-0.0420163725,0.7563487402,0.2513101743,0.5472758217,0.1961855864,-0.0571957562,0.3225031652,-0.3198248631,0.1682079554,0.9443771021,0.7535527088,-0.2015763665,-0.8469465558,-0.7088962816,0.4079917866,0.921779629,0.9074267022,0.4014623256,0.3147250888,0.692969002,-0.1423560761,-0.8530346736,-0.9585527143,0.4092524101,0.2397196705,0.9713911141,0.9578983214,-0.4826168642,-0.3917310957,-0.8689901049,0.9970084342,-0.1103654793,0.3525521759,-0.2929729729,-0.4154274007,-0.9571920567,0.9524059157,0.268876938,0.5244582053,0.3235395425,-0.0101216222,0.6564353748,0.9448661716,-0.1638109639,-0.6042801312,0.2837399385,0.2950941308,-0.6460374125,0.872698751,0.9782514861,-0.3396301871,-0.6216518908,-0.6387218203,-0.5090420989,0.1591952123,0.4416106152,-0.249939,0.1840680943,0.1885944222,0.9840646657,0.7108104358,0.1472086258,-0.3442859292,0.8942168168,-0.0859144849,-0.945992686,0.3946608268,-0.3845306848,-0.7139538635,0.7370492451,-0.9797912093,0.6286265299,-0.5972482567,0.0188600639,-0.0844694183,-0.3636725545,0.9122332935,-0.1620497599,0.7593163063,-0.2308416577,0.3794344789,0.7996753266,-0.2197500058,0.689186447,0.6901529122,-0.6901017618,0.857495102,-0.3963728288,-0.5766768926,-0.7560370202,0.3139940971,0.8016118541,-0.4866713063,-0.966429841,0.1472465149,-0.8285266322,0.5838610952,0.0602566113,0.7042863278,0.0527019353,-0.2053959697,0.1946327575,0.3467429288,-0.7079229595,0.4307192632,-0.1971638751,-0.7386838287,-0.2600728521,0.5314014698,0.9823009182,-0.0512063106,-0.3561737859,0.8030833508,0.7035581362,0.291311797,0.1632347092,0.6627914467,-0.1655820634,0.9249701238,0.3293182494,-0.4069227142,0.6050277206,0.220456968,0.6954318587,-0.3909712541,0.0272257818,0.4037610054,-0.9971689699,-0.0416333662,0.5885168187,0.6942947802,-0.9136355989,-0.7542140898,-0.305293852,-0.6410838808,-0.704930104,0.998145523,0.9777387857,0.5330648887,0.5271875668,0.9763603331,0.8931058801,0.1971236119,-0.6345248071,-0.4271426979,-0.3054518816,-0.2719484699,0.3813672005,-0.9858160091,0.8645536869,0.3277301298,-0.3104669291,-0.6890248776,0.487486246,0.0878194372,-0.230844392,-0.0429638907,-0.4985937272,0.6539466453,-0.425549638,-0.0986334067,0.8873655025,-0.5815344688,0.3830013422,-0.7248965372,-0.4670890493,-0.6785440406,-0.3616393856,0.3362867756,0.3042459198,0.9421725981,0.4881311979,-0.2373821927,0.9088180825,-0.8307123232,0.8721399697,0.5753263126,0.172701141,0.8224471147,-0.2131869331,0.9501508781,-0.3296781615,0.0737981036,0.6930880178,0.0959493796,0.9937738904,0.6905950313,-0.9228198106,-0.1818433835,-0.297894424,-0.4800255811,0.3877395828,-0.7325515096,0.2258268588,0.8000789917,0.2493953448,-0.6696840231,-0.4113568034,0.7588979036,-0.3804447299,0.1478154455,0.247310455,0.4206741208,0.2006076977,0.5740985001,0.3639049619,-0.8557895129,0.9715030788,0.0430091088,0.4215073945,0.6504404676,0.0076557714,-0.7898551345,0.0397260915,0.284308639,-0.6838218568,-0.7093902026,-0.6553684176,0.9619398902,-0.6781082165,-0.0107996124,-0.2399056548,0.5966994347,0.9499956713,-0.8566519419,-0.1014391477,-0.9123807351,0.2359855847,-0.9645316938,-0.6904472371,-0.0736418005,0.9471573848,-0.4886293646,0.7902653443,0.1073075571,0.6091136816,-0.9755207924,0.6901947738,0.0867591361,-0.9271423547,0.1419773855,0.6166333178,-0.2961197648,0.0892545848,0.9168550853,-0.8722177661,-0.2466446995,0.6092910294,-0.5235364296,-0.0678516772,0.80422046,-0.1625441182,0.2672794572,0.2975039662,-0.9234225801,-0.587214948,-0.7482591126,-0.7426776121,0.97562933,-0.9973562631,0.8516491023,0.4389333565,-0.0092245438,0.2147459005,0.4774437778,0.6241647779,0.9943308145,0.7430143193,-0.3448892214,-0.2000686148,-0.5232738927,0.0795651993,0.1757096746,0.8659606143,-0.6116318586,-0.4666000475,-0.8626928802,-0.7472191714,-0.6705144575,0.9382056036,0.5289273779,-0.3730378803,-0.8511041799,-0.7900592821,0.1138467869,0.260702059,0.1719735637,-0.9691312596,-0.878057188,0.7659978731,-0.5341310302,-0.3255464874,-0.9266875237,-0.8334792419,0.2280129957,0.5648653197,-0.0883386579,0.3695053091,0.2045600488,0.5949572298,0.1461807275,-0.3839315474,-0.2401168565,-0.6877477106,0.4032261365,-0.6899610273,0.1255812873,0.0724973219,0.768062705,0.9110960027,0.906582826,0.8495512239,-0.6385813791,0.1426620957,0.895300136,0.1762717047,0.4237611085,-0.0486301049,0.2006694484,-0.7081975741,0.628123099,0.2540700016,-0.0457258633,0.1100612872,-0.8742693275,-0.319046771,-0.3473835768,0.0052865124,0.2312886428,-0.033174604,-0.1335983356,0.9035491676,-0.8147217673,0.6124877519,0.6563751038,-0.828211144,0.0643929629,0.2174276577,-0.7428290723,0.3300032599,-0.4102821042,-0.1579611504,-0.5813351849,-0.7700550252,0.4689341667,0.7692913965,0.2847717414,-0.2822947645,-0.766133689,-0.0689629328,-0.5617053732,-0.3319336965,0.0709140971,0.2105445178,0.6156128098,-0.5464474223,-0.3739941089,0.769693692,0.7562207279,-0.9245822239,0.1813211068,-0.8027739673,0.5892199301,-0.8184566973,-0.4061257395,0.7558816539,-0.2328540089,0.7846818095,-0.6956021087,-0.6339070438,0.6262520145,-0.6812007566,-0.8200376379,0.6431660598,-0.641869743,0.9198262846,-0.4988148173,0.8726426585,0.3936440488,0.3088279988,0.5097445961,-0.0714715953,0.4825148975,-0.3075498491,0.404223744,0.9110472717,0.7423793894,-0.8802650717,0.2432186272,0.0710905561,0.2970013811,-0.0301350299,0.113643382,-0.6805847652,-0.2367610521,-0.241476181,-0.4808422566,-0.3460803787,0.4673827944,-0.1211824345,-0.5039933537,-0.0199994796,-0.4369792495,0.9371999544,0.5340725687,-0.3360285318,0.7782641335,-0.775496769,0.7603130845,0.8823172943,-0.2816647699,0.0279742743,0.1395008365,-0.6387648829,0.6577530243,0.6347085677,-0.7171033574,0.1011623397,0.1001038049,-0.848178307,-0.9887699713,0.2446655396,-0.7262071593,-0.6352791692,-0.7431291787,-0.5590665666,-0.394232168,0.455836556,0.9127144184,0.7536373816,0.5997657721,-0.6824458877,-0.4671361968,0.1639710304,0.7902473573,-0.4023049328,-0.2591910974,0.1254646909,-0.5897489041,-0.1714592353,-0.847156773,-0.8905381592,0.6946154076,0.5289545577,-0.7109622915,0.5484630925,-0.7717111333,0.5390997944,-0.276676201,-0.7569709234,0.191285383,-0.3398453454,0.2416855077,-0.3689302036,-0.6273425941,0.6240914928,-0.6718817467,0.5770595712,0.1527372195,0.8620157921,0.707449699,-0.3643198308,0.7184059997,0.1061197152,-0.7189481409,0.6202657241,-0.1523943746,-0.722119972,0.8908800513,-0.7159343236,-0.4274394817,0.4023667445,0.0153858086,-0.8001593773,-0.873218318,0.408215819,-0.0851607719,-0.1482009922,-0.5962766589,0.4667031836,0.8908602512,0.9379673629,0.0996278351,0.6605916473,0.1331509634,0.4132191545,-0.1780308643,-0.0889903993,0.3564509904,-0.1669632426,0.3946372844,0.911742188,-0.4735922842,0.973076244,-0.6213905777,0.9755400121,0.0543188333,0.1922507354,-0.4797193978,0.6835813877,-0.0223778655,0.6045676488,0.4244021794,0.7644369034,0.3415749209,-0.9058137785,-0.6112217812,0.17831064,0.8244868349,-0.8807205293,-0.2929663046,-0.0519896599,0.6573490091,-0.2545483542,0.3654289182,0.9876254601,-0.0282330734,-0.9404971591,0.2743288576,-0.5545723235,0.296865864,0.378752144,-0.8254683187,-0.0354938819,0.4688311788,-0.3211770536,0.7878964143,0.949883908,-0.690402543,0.6498114283,-0.6665201991,0.72624255,0.5692776595,-0.4516994731,-0.8136987854,0.7567395288,0.8278066298,-0.1654564799,0.5987489596,-0.8739863493,-0.8684860981,-0.9767014996,-0.4060230656,-0.4901996766,0.8555001311,0.1312722132,0.7735742995,-0.9786209791,0.8614698824,-0.5330819465,0.3217105963,0.1254016127,-0.6751755822,0.2334203735,-0.2020104875,0.0678719519,0.8769521617,-0.0015157321,-0.2402152163,-0.7892418326,-0.725059456,-0.6135305035,-0.2015728317,-0.1215159424,-0.7868791394,-0.9857289799,0.9868395029,0.2924074467,0.7281481628,-0.2906106302,0.1500991767,0.3478671149,0.471611965,0.7570726328,-0.9482346446,0.8521239204,0.5506579089,0.5949557838,-0.0740785295,-0.8734726788,-0.0709594003,-0.7174037383,0.2921246672,-0.2696728474,0.3705224139,0.7540758191,0.168189282,-0.1435839329,0.4242487915,0.9570980329,-0.4373400514,-0.4877473397,-0.1953452725,0.2419889583,-0.3406045717,0.0856364598,0.1343933512,0.4906169479,0.9653163724,-0.9846942132,-0.8851392533,-0.169365902,0.6692125542,0.1649487874,0.5917571356,0.9867791826,0.9382177467,-0.3167669059,0.7980007075,-0.5043996745,-0.2624346923,-0.2476738092,0.155785824,0.7367421639,0.441308409,0.5111986285,-0.9894557262,0.3502358841,0.3004995584,0.2460534828,0.9443243774,-0.4097213811,0.5137051324,-0.4350668461,-0.8519538756,-0.6164940869,-0.5924024523,-0.0908994707,-0.0099706479,-0.4750666898,0.1376498379,0.9207090622,-0.4397396916,-0.1591062894,0.3413974998,0.1877865315,0.3776550821,0.071721181,0.7740459672,-0.187852228,0.0678557859,-0.5914440084,0.4891756847,0.1544293207,-0.9665655156,-0.9844026048,-0.4148832981,0.2085775767,-0.8088200801,-0.1999112805,-0.1024633184,-0.4347483295,-0.2878606782,0.9516288269,-0.0913850114,-0.543627813,-0.9022785173,0.3911931787,0.743417044,0.8255837807,0.6402782145,0.5905993561,0.819420405,-0.0383665868,-0.7066176395,-0.5614359844,-0.1164104743,0.9043367483,-0.4748070152,0.0575273375,0.9199789351,0.8013097888,0.6127059618,-0.7939424871,-0.2295670796,0.3520854064,-0.1287401349,0.9955342867,0.5685159231,0.5448707614,-0.5101776156,0.1531952727,-0.1171712398,-0.5120266242,0.7559432388,0.5558067794,0.9548643018,-0.8433855077,0.4693941134,0.7227784723,-0.9873331321,-0.6079014034,-0.7929034571,0.4149795513,-0.0563456057,-0.3845729972,-0.0555797355,-0.8746842578,-0.6574775968,-0.0342678971,-0.6848263697,0.4839815234,-0.7208616685,0.2929212345,-0.1507757987,-0.1316229524,-0.9803408319,0.4030174125,-0.3128774541,0.9763656093,-0.0468031521,0.849636908,0.5157883361,-0.6131479046,-0.7170032303,-0.5261449722,0.4221040852,-0.7254919369,-0.7393037454,0.8841643426,0.4341511919,-0.22397251,0.6365206125,-0.1454297801,-0.4116550719,0.4933383974,-0.2609700224,-0.2462450073,0.7395501179,0.6255854432,0.6724396133,0.3355357592,-0.4702193497,0.8156864469,0.1297510899,-0.0631523375,-0.5663211388,0.3724705567,-0.5848316445,0.9544019955,0.9765529894,-0.1969693054,-0.9659447896,0.4776463802,-0.8066470633,0.5300026855,0.1967620377,-0.1064013457,0.4949665565,-0.0199125554,-0.7158350512,0.7633668373,-0.2800081395,-0.6591613407,-0.8625785613,0.8987475016,-0.0425199085,0.0280309787,0.1847138197,-0.8538776344,-0.195833149,0.5174332437,-0.7333621727,-0.4618356095,0.6523314902,0.4653377314,-0.3711047743,0.2378518441,-0.82849909,0.3191551925,0.1193891004,0.4187635838,-0.8235619295,0.4315286968,0.4440881501,0.3243407955,-0.7806268329,0.2267774335,0.6245536077,-0.1652014054,0.975303881,-0.5392471861,-0.8097009947,-0.705332901,-0.4552419417,-0.4256631923,-0.7419800051,-0.6160119676,0.4611672055,0.7417954635,0.7050712337,0.2280512115,0.379602714,-0.1613699024,-0.2695269388,0.2154921871,0.8266245371,-0.9535685718,-0.1852015766,-0.2354033234,0.261873453,-0.721479713,0.076356875,0.2934921312,0.1348937358,0.2967042961,0.6587333257,0.4815643285,0.9244330555,-0.5570058462,0.9636867135,-0.3175560022,-0.0433166289,0.5951628347,0.1530495444,0.0935529351,-0.3004948906,0.7663267967,0.8115767076,0.2699552181,-0.0196364339,0.1036464659,-0.7715385292,0.9942906727,-0.4911994401,-0.8227447277,0.1803092517,0.5949451153,0.6341489554,-0.1966056302,0.0154825605,-0.1023916873,0.5654184687,-0.632630077,-0.6735004703,-0.9622432159,0.9519715741,-0.9608224458,0.6634040012,0.5663809412,-0.2394393633,0.1216744045,0.6774891724,-0.6672271011,-0.8037030165,-0.5536783456,0.1142071004,-0.1273603973,0.1866232746,-0.4441195613,-0.006537145,-0.0436560262,0.9918267573,-0.8327118987,0.4430422395,-0.4046530178,-0.7014925156,-0.6785894741,0.4336193893,-0.725358371,0.5551144381,-0.6435515343,-0.6400291307,0.7248122005,-0.8116629681,-0.3590300647,-0.7893286496,0.1619110544,-0.0928530055,0.0522977162,-0.3464895388,0.7523532207,-0.3801834452,0.5836106581,0.08168738,0.6800070041,0.4474493339,-0.1250501573,-0.5126403837,0.7883158144,-0.9442901838,0.4199835478,-0.1934562606,0.8962133918,-0.0343447008,0.3243355202,-0.9799359952,0.4233151732,-0.4022114061,0.194151114,-0.3447966342,-0.3368521207,0.5448348876,-0.4783501116,-0.3690474971,0.9676345923,0.5464706539,-0.5637610624,-0.6271477067,-0.773071618,0.8338585687,0.3151503265,0.0686465331,0.0663720809,0.1385476713,-0.8210494544,0.0643602892,0.6168958557,0.791942202,0.9931753283,-0.8287203246,-0.4753892799,0.0217488181,-0.6101124186,0.880345428,0.0162085775,0.5790060603,0.3837291364,0.3903478506,0.8076455486,0.4533378019,0.8009976728,0.3203551148,-0.6426607329,-0.3705717964,-0.3808850412,-0.6834853471,-0.8296716257,0.428674402,-0.658676327,0.3102225025,-0.7188380234,-0.8604636591,0.545130069,0.0794601473,-0.848705485,0.7466863462,0.0171518401,-0.2256783468,-0.4319633487,0.3168694856,0.8450755194,0.2413921996,0.1377426705,0.166018539,0.9734406021,-0.9265716984,-0.9274070098,0.6956411576,-0.4008596813,0.8362114162,-0.0988256881,0.6165128237,-0.3617891527,-0.8590867686,0.7736152808,-0.3433281353,0.6013419346,0.3351498698,-0.0107671815,0.0254349982,0.7218713927,0.9777099414,-0.4003981054,-0.9173419045,0.4458571985,0.9893611938,0.8413503483,0.747850079,0.6130884153,0.5490373869,-0.6963235308,0.4058242646,0.5732154979,-0.8064388744,0.9266633701,-0.3398223338,-0.2963563645,-0.5294734217,0.139291066,0.6173933837,-0.8799132358,-0.4262120081,0.8428551508,-0.6314805571,0.7774985052,0.8723078959,-0.5821996703,-0.0682999481,0.7226754978,0.5031465681,0.7033091076,0.1320726197,-0.5638028775,-0.8546571452,-0.3558812156,-0.1123630716,-0.0729728492,-0.8301980851,-0.3807975261,0.8841878165,0.5145793148,0.4852733007,0.5730509285,-0.5846357907,-0.9359415615,0.1057171592,0.1713108154,-0.9527358281,0.4445981834,-0.1580261135,0.2813934369,0.8267011343,-0.2612627987,0.3688908829,0.2061023525,0.8495453068,-0.3328727395,0.1766952663,0.5111724087,0.7283819485,-0.0194086878,-0.2274951961,0.2582760192,-0.3781134825,0.0564294971,0.7364084371,-0.2268041315,0.0066554137,-0.7700537446,0.0764724976,-0.3632127323,-0.8963767642,-0.7480469327,0.093722801,-0.0331185599,0.9730290643,0.3555979435,-0.9222004478,-0.0308508171,0.5832960687,0.4004671032,0.1970977069,-0.3151595786,0.8282232007,0.61451668,-0.3876052219,0.3954220849,-0.7719420849,-0.1290304891,-0.1969620422,-0.2499335458,-0.249980526,-0.4070391947,-0.3187420271,0.2488704191,-0.1973357092,-0.2201665464,0.8091423489,-0.5885526767,0.2086849726,-0.8048958991,-0.5076165458,-0.0612558946,0.2203333758,0.7466897193,0.1814988539,-0.8874712247,-0.7657046102,0.9607456942,-0.781819792,-0.911241896,-0.2703879489,0.1141771596,0.3571988747,0.2689076554,0.0990939801,0.7466961841,-0.1425198861,-0.9820989794,-0.1413818181,0.4776683165,-0.060157739,-0.4944271565,0.3359969425,0.5042804723,-0.9292158069,-0.1556036466,-0.0227591477,-0.3060741364,-0.3306325701,0.8639204933,0.5339085522,-0.9579365821,-0.9934346004,-0.5657995114,0.3955148829,-0.9707673501,-0.4861862879,0.7901612703,-0.2561042286,-0.2303832108,0.8381127548,0.359284546,-0.3866051649,0.2650715341,0.2519566927,0.8709626913,-0.6125507642,0.2510749107,0.2369303355,-0.9239536176,-0.9467357766,0.5630260076,-0.5660137198,-0.3386688164,-0.1949701553,0.1596623469,-0.9743627879,0.64524587,-0.3268002562,0.2114131064,0.6450718898,0.9373915161,-0.7761294474,-0.3405249788,-0.7944629174,0.4089247527,-0.9276478234,0.0953103247,0.6444872778,0.004634311,-0.4244675264,-0.7726832969,0.6082675669,-0.895963568,-0.1639267593,0.1575614337,0.9104173954,0.7593770894,-0.0787425426,0.4508860591,0.447659698,-0.0830055987,0.7964259962,0.0294904309,-0.3682867275,0.9030997761,0.2255039251,0.6267104932,0.6961806437,0.7130554292,0.0606836025,0.7244072132,-0.8488744886,0.5260215058,0.0142277415,0.6207962809,0.947011199,0.8606714447,0.0651880895,-0.9345947247,-0.8909442863,-0.9814144122,0.4084898992,-0.1938343138,-0.4376609657,-0.8899464298,-0.7066453956,-0.8733500914,-0.4629999362,0.1594246038,0.7864386924,-0.1586852634,-0.3368300185,-0.7906828215,-0.4862373585,0.9208643892,0.0940580227,0.413458088,-0.5857239761,0.1054407585,-0.315011097,-0.2021161486,-0.7107850566,-0.6148893088,-0.4895397057,-0.3241903498,0.2643282065,0.3696480543,0.5245424428,0.9621136619,0.4734272189,-0.2817484937,0.8262701925,0.2022766278,-0.7024785502,0.9258678806,0.2604031084,0.695402142,-0.1305150747,0.4693524017,-0.2170791981,-0.817606414,0.9468051083,-0.1098102237,-0.2078974838,-0.509886482,0.2949768698,-0.0902838438,0.6938622842,-0.1442793025,0.7031891859,-0.88960666,-0.9124040387,0.9651677644,0.1172279217,-0.204946466,0.2887742999,0.5431184099,-0.7835587616,-0.3208579489,-0.7114055873,-0.0342038421,0.8261320971,0.5201330564,0.6385908196,0.746112591,-0.271050423,-0.8341503675,0.6561333583,0.1767440277,0.8676590453,0.0078129508,0.4420533391,0.7068826161,-0.8587646267,0.2374895152,0.0311835187,0.0914051065,0.843063994,-0.2619818995,0.4551880072,0.9526533157,0.4702899779,-0.9071200891,-0.0620403144,-0.5571933429,-0.1811065553,-0.659311592,0.3842375449,0.1447045787,-0.2339646232,-0.8018815982,-0.9721201061,0.9393830178,0.9343456913,-0.95636656,-0.6683128273,0.0081034363,0.2536788393,0.2304645317,0.0469943634,-0.6604016753,0.170718299,-0.8624295174,-0.5393276014,-0.7958452534,0.6476418804,-0.5683690791,-0.8354952545,0.5100615446,-0.2483872374,0.8539568049,-0.509844696,0.8657257904,-0.5783073128,-0.7983637535,0.9232008593,-0.4640888837,-0.6191626831,-0.1886657483,-0.6353204334,-0.761074059,0.9601204338,-0.0265009048,0.2662760313,0.284740642,-0.9060936003,-0.9420585029,-0.9759173299,-0.7287535451,-0.6126097793,0.0208918887,0.0012656119,0.4878141656,0.0724229334,-0.5836907804,0.381227255,-0.2045723045,-0.2276196909,0.3256953503,-0.0050064714,0.3912233061,-0.527670135,-0.1722858383,0.151747877,-0.766755,0.6270454283,0.6074063729,0.7013791245,-0.5354578063,0.2141678915,-0.0031227745,-0.4924966615,-0.9385559589,0.2329070162,-0.5591076821,-0.3784268794,-0.0165276536,0.2859279732,-0.9686035864,0.3555887334,0.3786927282,0.0951765413,0.2083195606,-0.2247734094,0.8795589278,-0.4014312811,-0.596683058,0.1404524203,-0.9613324647,0.8477734837,-0.1799207839,0.2135826793,-0.593789322,-0.6452690427,0.5012603902,-0.3613631585,0.7965877322,-0.6371578981,-0.4683699363,-0.7607115445,-0.7270114057,0.0938100289,0.1709224246,-0.9524507111,0.3058847067,0.0684444019,0.5876864226,-0.3245977727,-0.5335496801,0.0630697728,-0.2968819625,0.4262608298,0.1914812565,0.8814679837,-0.2423965109,0.7023481196,-0.0074551721,0.6747645426,0.7787049038,-0.289624517,0.5817933849,-0.3252635652,0.1805414865,0.5015737364,0.3682365918,-0.1125207686,0.0557264343,-0.4725115943,-0.2552095498,-0.2239655871,-0.5024360799,0.8627945859,-0.229650769,0.5495558213,-0.7379675888,-0.6434338779,-0.370401699,-0.9295144792,-0.6740886735,0.9057882133,0.3438962653,0.3557753216,0.3355689204,-0.8220502068,0.4192948074,0.3364775011,0.8634485302,-0.1068214502,0.8934396497,-0.6481697661,0.2361280784,0.1626869774,0.0831770555,0.7267058395,-0.5804120583,0.7336883426,0.0288781033,0.7132690959,0.4298109875,-0.3535472807,-0.0174194385,-0.6266212641,0.9190657199,0.4789918625,0.9683780934,0.6302321211,-0.2834269448,-0.6170947169,-0.2036606476,-0.9466534323,-0.3661202932,0.1863485065,-0.2774108383,0.11939786,0.4192525546,0.1458381675,0.1299362972,-0.1897358762,0.2685301498,-0.8856139403,-0.6444998391,0.6433253434,0.4340284057,0.4686855346,0.3963626963,0.0205942841,0.5246806239,0.9263783837,0.1109550159,-0.8476502831,0.7934584588,0.4148235765,-0.4399477041,-0.9006223817,-0.105225516,-0.8654795458,-0.0633243127,0.7363633378,-0.538564186,0.3511421804,-0.9450049523,0.671139351,-0.7424179992,0.2769009729,-0.6387143435,0.5580605636,0.9079183279,0.795897689,0.3615655804,-0.2391204773,-0.0640644373,0.2263646859,-0.7183448523,0.5420106339,0.8448856829,-0.8473049053,-0.235996832,0.7173004295,0.1121048918,0.4767319066,-0.4269089219,0.2991921572,0.5225846966,-0.9561631466,0.3081606814,-0.7849823358,0.3176324065,-0.5593046853,-0.7285394894,0.6567106253,0.3049489516,0.3843350521,-0.5436624158,0.2238768347,-0.8372996749,0.6266333112,0.6312052593,-0.1728662768,0.4408415912,0.185178753,0.5944548837,-0.6168517773,-0.7474377396,0.0660472101,-0.3916289406,0.8776468405,-0.1584449548,-0.8101752694,0.7435641412,0.2917459746,-0.5955475904,-0.7507683306,-0.0917577836,0.2744645702,0.7838754696,-0.2378696735,-0.7266078887,0.6557535365,0.2688277376,-0.2711597655,0.7324804884,-0.0288302183,-0.8024201486,-0.9451591913,-0.599904638,-0.2265857871,-0.3133279976,-0.2962606896,0.2602810178,-0.7458997787,-0.8091137412,0.36249242,-0.7395360388,-0.0537621622,0.2752869143,-0.0319813168,0.2911796163,0.625431683,0.0706366615,0.9260956273,0.9661127991,-0.3386416709,0.6900954227,0.9520826819,0.2356863901,-0.7197583881,-0.2450892146,-0.5652482779,0.648250448,-0.9998551979,-0.4792496357,-0.0147376691,0.8733112221,0.45905893,-0.1930063226,-0.2435438561,-0.6471871652,-0.5093300917,0.8799319664,-0.6657242831,0.8144858008,0.6466912365,0.689780964,-0.0462528954,-0.6269005507,0.7852198564,0.8286547856,-0.6770094071,-0.0440825422,0.4503747383,-0.7485234983,-0.6767901986,0.5822916685,0.4754432707,0.6511076015,-0.503578228,-0.4539149307,-0.6160519289,-0.4331826325,-0.6976375992,0.8344231255,-0.880878231,0.208594952,0.0160839752,0.4790889697,0.9996531664,0.7397861777,-0.7585753195,0.8803095278,0.498441769,0.4913009544,0.5928978783,0.5589747028,-0.6842342767,-0.7472897924,0.2333181134,-0.7087970996,0.7166202002,0.350941319,-0.817939774,-0.1814894065,-0.2850114371,0.4520072014,-0.142339339,0.0719547373,0.103608735,-0.5676030535,-0.6726847853,0.1189100127,0.5889156062,-0.8218523575,-0.1298562974,0.7236660491,-0.5640887053,-0.0402538422,0.1046145113,0.6491298404,-0.4395488816,0.4079748811,0.2831272781,-0.3705155834,-0.6088479171,0.3000545383,0.2340717142,-0.2827765053,-0.3562789996,0.8051385599,-0.4208833846,0.0878672752,0.6856461749,0.1537461993,0.5634980624,-0.4849716208,0.4306525456,0.0803275296,0.4605427603,0.9846649753,-0.4876331109,0.1106324863,-0.6115636578,-0.1042914951,0.0263141913,0.0482824792,0.2218460488,0.4741060799,0.3821711033,0.9975361057,0.4296261876,-0.0606265503,0.590701488,-0.6352473097,0.1991232155,0.8131522231,-0.242349749,-0.7250787209,-0.0088998804,-0.9362274949,-0.2794490379,-0.4226494732,0.668571421,0.4275287564,-0.946579816,0.3301980461,0.3224670418,0.4725418531,-0.442129842,0.1301980521,0.8801045444,0.3706597154,-0.6159649022,-0.55154968,-0.0117285417,-0.2280601807,0.7743270068,0.9373227052,0.5927919756,-0.6391074455,-0.1210793953,0.9351100701,-0.6012449676,0.306062668,0.643081394,-0.1564035769,-0.2961265136,0.1042292545,-0.1072014906,0.0239627252,0.2617921758,-0.4537257656,-0.5304189825,0.072929845,0.711655588,0.954177906,0.7440327838,0.4713687062,0.2753323018,0.8773844565,0.6059787669,-0.8264210738,0.7102194738,0.0653782725,-0.8427889924,0.5539063567,-0.0823619846,-0.0122564939,-0.5424388097,-0.8333445938,0.9676127361,-0.8753279447,-0.3422685493,-0.729923511,-0.4225673712,-0.9286704179,0.3981656001,-0.0022013198,-0.8435084063,-0.6751922083,0.8682194493,-0.2621467748,0.39607218,0.3351224146,-0.101132274,0.634654362,-0.9055640344,0.1749429525,-0.4196191008,0.3975845638,0.0499194852,0.0610071349,-0.3228288389,-0.2497939763,0.9287063168,-0.767395414,-0.177272936,-0.2128868864,-0.5026497474,-0.1278356269,-0.8693484411,-0.8785092841,0.3850797621,0.0116859991,0.7160682368,-0.3891611162,0.1718551635,-0.9567881542,-0.7791673657,-0.3126788434,0.9724610155,-0.1703081601,-0.6212549422,-0.6700975609,0.8776082102,-0.6800833387,-0.6444700568,0.7271884146,0.7202108304,0.4818043096,-0.4566311586,-0.5695205809,0.0250715603,-0.0143425691,0.3926484262,0.5136356328,0.1713144332,-0.7238692907,-0.1446643354,0.505655243,0.7981481405,0.9509262501,0.2564269991,-0.5653321413,0.3477106122,-0.1128419358,-0.5968435283,0.5316239556,0.3698851537,-0.2279477085,-0.7186614698,0.5960318431,-0.240175077,0.3513399136,0.2602486824,-0.8236577903,-0.2563065375,-0.7530468949,-0.3968284181,0.4116987115,-0.7180301269,-0.9338709688,0.1363297399,0.6280953711,0.3537256725,0.5113249146,-0.0172242651,0.5918728001,0.1577585988,0.6340687864,-0.2466172863,-0.3134387276,-0.6056522699,-0.1985994192,-0.0423608603,0.5403529615,0.2696809173,0.7842112613,-0.5166312889,0.5465767546,-0.8640475223,0.4720258406,0.9807098452,-0.3299036998,0.0965744096,0.910206349,0.2228354203,-0.8954511161,0.1036165809,0.1685188999,-0.2019046777,-0.4041077494,-0.3148777153,-0.8745816794,-0.2105503385,0.8981005202,-0.4290827474,-0.9849518128,0.6240006202,-0.2851263478,0.8645887534,0.1453073668,0.4128344629,0.3049987278,0.7482525642,0.382042856,-0.8654340896,0.566371163,-0.8700503444,-0.3805045272,-0.7823724579,-0.5378788856,0.4737735218,0.9744952973,0.2515202746,-0.6993571919,-0.7232713171,-0.9042383198,-0.5842282729,0.4828005511,-0.495553101,0.1558046716,-0.054825545,0.282810803,0.6231290559,0.8237822897,0.033241704,0.8644256818,-0.712094811,0.4046584536,0.3883373096,-0.7272411935,-0.8760079017,0.4430482535,0.4712167642,0.0341266161,-0.4891629329,0.3158429033,-0.279785247,-0.6577540811,-0.1160820453,0.0175011754,-0.7000646635,-0.0584675427,0.9465688992,-0.8989434615,0.3823053306,-0.5693462181,0.9739369017,-0.0581864893,0.2849463274,-0.0718599248,-0.9295671046
   -0.9008327368,-0.1971258501,0.6492111131,0.6016294313,0.8687278094,-0.6145117947,-0.9183854354,-0.3402915067,-0.1133809076,0.5067987016,-0.7141432827,-0.0845583615,0.8330364316,-0.5372778453,0.2071596405,0.5797848949,0.8447588088,0.376121766,0.3803030712,-0.8133641978,0.4688058385,0.159795095,0.2467041095,-0.9496064456,0.7380445234,-0.5191132425,0.8537873887,-0.9263879347,0.3244994354,-0.9896929797,-0.4660361142,0.7086271474,0.9335129226,0.032433371,0.8539124399,-0.470829916,-0.2491517378,-0.540105253,0.1261818839,0.8493330102,0.8414000573,-0.370405904,0.8935165123,0.2858728587,0.6308101591,0.0969724677,0.1434074702,-0.473161871,0.0708906118,0.6003679329,-0.2283868812,0.3699145651,-0.7674351281,0.570769509,-0.2441114526,-0.880481319,0.4002062615,0.6267409136,0.6729209448,0.1672274893,0.923306691,0.088846434,0.5308156304,-0.3245203798,-0.0814518178,-0.3054596231,-0.7869162284,0.8470278979,-0.1618641665,0.1229921136,0.2908207388,-0.7781895881,0.2000740892,0.700012228,-0.8868614538,-0.8995605455,-0.7234416703,-0.1886471207,0.0760832655,0.3205669797,-0.500866944,0.1121902857,-0.9835387761,0.2345540265,-0.9137056233,-0.949490956,0.6400022194,-0.2201195618,0.0946110281,0.9257572114,-0.3888999496,-0.5070261177,0.5827444715,-0.9199889876,0.6503665209,0.1598667078,-0.4129223394,0.7651748635,0.1658615991,0.6500941072,0.9415236971,0.4481672649,-0.8660153085,-0.4542809792,-0.6251218142,-0.4287214223,0.8888844759,0.5554689371,0.4599539072,0.4904474679,-0.6637572046,-0.4432134321,0.4434025669,0.7658183192,0.6834654803,-0.0701896576,0.6858706199,-0.8138055908,0.383641404,0.7674948592,0.2422924252,0.3342513365,-0.7627799511,0.6811590779,-0.238625972,-0.8245986664,-0.2957053157,-0.2757076603,-0.896185398,-0.1776512273,-0.6185962958,0.6312786664,-0.4339014799,-0.6223285183,0.5893796742,0.7386248188,-0.8980520668,0.5348726493,0.078014465,-0.9197486832,-0.2652427957,0.1549594148,-0.1543659409,0.1596384509,0.9677524159,0.6957796455,-0.7718822155,0.4112684818,0.7865918917,-0.3558953905,0.966113487,-0.7399035295,-0.9358380411,0.1852940158,0.8160478622,0.7179553759,0.5385306306,-0.6861907105,-0.5608709096,0.8095340975,-0.5467134897,0.6654516589,0.6016818456,0.4804901325,-0.2516368482,0.1851138628,0.9228079231,-0.9029022061,0.9888350129,-0.0703964087,-0.8536423124,-0.2380986712,-0.1533918504,0.2206118597,-0.1323544667,0.6107425427,0.3067609215,0.9049395232,0.4202855595,-0.5838168858,0.0624278152,-0.7008301656,-0.8198642633,0.9399605082,0.5811800046,0.6925179345,-0.8643152957,0.9775389732,0.9280997695,0.2084144083,0.0433229247,0.9643172174,0.2606314797,-0.5188567463,0.0008099773,-0.2898687901,-0.3415854376,0.2930894324,-0.3173868027,0.4155585761,0.5470941,0.9673345167,0.1107617556,0.5706297388,0.3138185881,0.0477863057,0.0455511478,0.4832911985,-0.7624427976,0.3498689817,-0.8306905233,-0.7789389911,0.7214110343,0.6163483997,-0.9003212974,0.4756802953,0.3501667255,0.2895983322,-0.8824701311,-0.592908532,0.2062186914,-0.7066929347,0.9782520986,0.211836002,-0.4781063864,-0.4273388362,-0.0731983554,0.0010206738,0.2425374777,-0.7294044084,-0.7537254947,0.077231797,0.6253718105
##end
biasActivation=0,1,1,1
[BASIC:ACTIVATION]
"org.encog.engine.network.activation.ActivationSoftMax"
"org.encog.engine.network.activation.ActivationReLU",0,0
"org.encog.engine.network.activation.ActivationReLU",0,0
"org.encog.engine.network.activation.ActivationLinear"
