encog,BasicNetwork,java,3.4.0,1,1532919735419
[BASIC]
[BASIC:PARAMS]
[BASIC:NETWORK]
beginTraining=0
connectionLimit=0
contextTargetOffset=0,0,0,0
contextTargetSize=0,0,0,0
endTraining=3
hasContext=f
inputCount=16
layerCounts=4,26,101,17
layerFeedCounts=4,25,100,16
layerContextCount=0,0,0,0
layerIndex=0,4,30,131
output=0.5,0.5,0,0,148.7217273322,26.1802832839,83.1452867356,132.1214865356,78.1564629027,0,144.2251651302,3.4563560139,0,0,0,306.5182248417,155.9671191709,88.07038099,0,243.3443165431,79.1800019518,588.457418359,309.1875918052,217.637134982,0,85.2729720409,11.8605426247,15.5115003912,0,1,38.8848044371,21.6987505344,0,0,0,8.7620486225,60.7021780358,34.9473112152,27.8892662276,41.4989790623,0,66.3016575213,0,24.4803497015,21.7110935413,13.5962290774,0,7.7862893588,0,0,7.2687402482,0,0,57.1655768639,0,0,6.983483383,43.8400604983,0,0.3524395035,0,0,84.4237989715,35.5263081385,0,0,0,0,0,0,0,76.2459172864,0,0,15.5019668647,0,0,14.6802210691,24.4769894865,0,14.3215341004,0,35.4434838726,0,0,0,0,34.8364333147,39.3282124604,41.9592727901,0,57.954687929,23.3179160718,0,25.0708135163,0,0,55.1872444107,0,0,0,0,0,0,68.9789155766,0,8.0937873275,52.433177177,7.8959028416,72.3984429065,0,0,0,23.2366711948,0,73.4459895408,94.7466827155,74.5852130806,3.131271643,0,0,55.942316014,0,6.2602699168,0,0,10.6825848996,0,35.6398931515,6.1997191022,1,4,2,32,4,2,64,16,4,2,4,8,4,2,8,2,4,1
outputCount=4
weightIndex=0,104,2629,4329
weights=##0
##double#4329
   0.8168720103,-0.7379792508,0.6069066002,-0.0441854233,-0.2172614968,-0.7437042244,0.1236520715,-0.1846213877,0.0401444043,0.9756762207,0.7415579457,0.8216916765,-0.8690035005,0.5915868812,0.5738570373,-0.3573786068,0.7947972273,0.9743693274,0.336892872,0.1489281023,0.6854212178,-0.7568882862,0.8140912365,0.4732490516,0.9819703667,0.049778798,0.7684574598,0.8976244276,-0.2778867168,0.4329822157,0.3642563302,-0.7899418279,-0.7000917926,0.2695573005,-0.4075429432,-0.3569801071,-0.9306728052,0.6424857818,0.6444770163,-0.8348152353,-0.8504851913,0.9237002464,0.2047619366,0.6155163165,-0.4932917867,0.8101129512,-0.3221784275,0.4204889068,0.9305849301,0.5659631737,0.9380937955,0.7270451164,0.8284003455,-0.1516339686,-0.0086925806,0.3916112223,-0.5143580589,0.3024434178,0.4889636414,0.8981264301,0.1192631359,-0.7096501061,0.4510498791,0.3296404504,0.5981849551,0.6417061842,-0.6989983731,-0.9424721385,0.4195159809,-0.6563632738,-0.2264241496,-0.5249007895,0.3601045812,0.4973063823,0.2728791772,0.1856133333,0.6039469506,0.2991750397,-0.8303926682,0.0076820721,0.0694584375,0.4244004203,0.2052624537,0.6665211574,0.0102887311,-0.4862803015,-0.8042169926,0.4424633413,0.899440159,0.5044087623,-0.8814692085,0.0035573654,0.3158552772,-0.3820861635,-0.8206270953,-0.8798289561,-0.7922484016,-0.5448029087,-0.866234897,-0.4873729588,0.0134273681,0.6261987464,-0.9401115599,0.1201799691,-0.48606781,-0.1450272115,-0.8040408853,0.6045802537,-0.7077485142,0.1586199173,0.6474221101,0.3808911692,0.7548315082,-0.7398402275,0.9766234146,0.5335827204,-0.4246078453,-0.8198730476,0.22934734,-0.4766756291,0.0328615652,0.9569216377,-0.826306009,0.8204596414,-0.9789823132,0.8112395265,-0.6903287922,0.5936016172,-0.5516940511,-0.188383878,-0.2402481076,-0.2819167707,0.7267261311,-0.514620518,0.444928981,-0.1612630144,0.2787542908,0.8784045332,-0.576304704,0.0905191924,0.4327761815,-0.3693491826,0.4720330018,0.4860510976,0.1647792203,-0.7434061711,-0.3075667183,-0.9511568933,-0.6409237907,0.1752511682,0.3095248597,0.9603248115,0.6368314654,-0.5027228298,0.7712445444,-0.7747785776,0.154241456,0.822512522,-0.7872205441,0.4623832073,-0.3067510289,0.6255717952,-0.7245236869,-0.383740512,-0.3245195874,-0.1423602177,0.2654276082,0.609594245,0.819293143,0.6838072278,-0.5464463649,0.0412766782,-0.4409979237,0.1290810314,-0.0878699917,-0.7579664006,-0.8160958215,0.7222245322,-0.8828244196,0.2042414782,-0.2200061082,0.7939566718,-0.0599756196,0.1941545724,-0.1444229549,-0.7769239551,0.8284340746,0.0826192784,0.3213794213,0.4448033087,0.4642833503,-0.5956112026,-0.4910615785,-0.084972084,-0.0545097712,0.1636123917,-0.1186210164,-0.942286967,0.3778337032,0.23661818,0.362274291,-0.2150100492,0.7447344178,0.3710577008,-0.8292793519,0.1581781802,0.1263031931,0.7353782879,0.7518538585,-0.3567573372,-0.9142020011,0.6871635615,0.2436496546,0.5284446439,0.7293619119,0.8554188757,0.5425736245,-0.797090194,-0.8041019362,-0.5086628496,-0.2566398981,0.2528902152,0.9434014268,-0.7505776401,0.1633939601,0.0700627295,-0.2913381284,-0.8823007098,-0.0256413378,0.8415071303,0.8297073295,-0.4482744643,0.6569005783,0.317794243,-0.3346475325,-0.2205288192,-0.3511872287,0.6992627319,0.7448645988,-0.8186202005,0.334763679,-0.7848386568,-0.3029733496,0.2489312281,-0.2857916952,-0.0603292483,0.6409079762,-0.0634423607,0.2353068577,-0.3143869844,-0.9007131451,-0.2497999239,0.5333643049,-0.9683055526,0.4822732242,-0.9861954247,0.841163552,0.5765211522,-0.2325704844,0.0694815929,0.8816788902,0.4546010469,-0.5219241899,0.0946262493,-0.1105644279,0.7399001623,-0.3866713357,0.5099175563,-0.6690534773,-0.4764086552,-0.7010326823,0.7256360244,0.0413352589,0.4239289791,0.7301253391,-0.0883972936,0.7862274007,0.9403388764,-0.6497112498,-0.4933784358,0.487720318,-0.259314587,-0.9492771641,-0.8473541783,-0.3248002217,0.5500809667,0.370630999,0.8383668088,-0.6581572012,-0.4865406173,0.319375074,-0.9167651774,0.4228119697,-0.1892905407,-0.5757990012,0.9124836309,-0.5547691618,-0.6322452112,-0.8379897141,-0.2807640628,0.0500780159,0.2394655711,0.0336544402,0.5392120366,-0.852495615,-0.6197514289,-0.883038077,-0.5299781588,0.5630412344,0.4930695921,-0.7145424772,-0.9640900272,0.6530860464,0.0069149806,0.6661738489,0.3295365137,0.4436993573,0.5402319366,-0.8590523775,0.6746053954,-0.5311806529,-0.0698048021,-0.294257769,-0.3704863332,0.8788297822,0.6291688401,-0.5853056879,-0.8165661346,-0.7495111481,-0.0475210851,-0.7257096174,0.094245506,-0.724913884,-0.7792624404,-0.4275997423,-0.3163853894,0.8463155803,-0.352313405,0.6553483642,-0.3333093112,-0.7262885455,-0.2560150009,0.9140356303,0.9074349044,-0.4780605038,-0.5131195466,-0.0870166317,-0.7290022617,0.2455783048,0.3645924344,-0.7301716966,0.9722011231,-0.417656505,0.9728510884,-0.3606028657,-0.6916617868,-0.5575058646,-0.2806672819,-0.506552102,-0.2980082418,0.9155833427,0.9779227778,-0.7548758285,-0.7057931417,-0.2045819623,-0.5586797738,0.2373406622,0.9615125617,-0.4350245338,0.3616338943,0.8926985421,-0.3833108585,-0.2842824548,0.0088156385,0.2470852764,-0.9393552237,0.3565723519,-0.1809854989,-0.0679872091,-0.1532722777,0.8302092338,-0.2460427966,-0.0801255317,0.8983433203,0.5902479716,-0.9478859048,0.0537890408,-0.783694369,-0.3335232819,-0.659032927,-0.9823625557,-0.0040711065,0.6284224621,-0.4973258525,0.4843495758,0.974680322,0.5145253629,0.9813038427,0.9009271659,-0.1843979506,-0.9046496212,-0.1018008203,-0.0266937397,0.8758255443,0.0169577013,0.6851398577,-0.2590111384,0.5676258586,-0.8900847217,-0.5867767956,-0.4244593622,-0.8556190482,-0.1526441348,0.5986689522,-0.0170325666,-0.7856496289,-0.7616201044,0.9032294697,0.2224253926,0.463670413,0.5876181077,-0.4302327565,-0.125796309,0.9791376872,0.6312285681,0.9857005198,-0.1415754642,0.82149746,0.2141047796,-0.0475191872,0.4283890438,0.8394266495,0.2035099836,0.6622635569,-0.5163077326,0.5531019477,0.5807527121,0.51859376,0.1206218086,-0.8489305381,0.3331093005,0.166169966,0.862780934,0.2997686038,0.3574793951,0.5246289112,-0.6216721337,0.7966317178,-0.7017467276,-0.4685330373,-0.3427357487,-0.5016947508,0.8628639123,-0.4306029564,0.0394980679,-0.6102326549,0.6539432054,0.4209002602,0.2466190512,-0.8465421289,0.625687054,-0.4421749248,-0.5385621839,0.4414786616,0.495329773,-0.6633597716,0.6979693215,-0.9326827936,0.9380063125,-0.3408255387,0.7554776229,-0.2293485599,-0.2856599942,-0.9662203885,0.481590321,0.3230817787,0.2382847636,-0.2343670334,-0.7862388467,0.2385324025,-0.3030808547,0.4870352984,-0.7275110328,-0.0834471723,0.5813737535,0.6205474256,0.1576816719,-0.9773361898,-0.3423213261,0.4487831906,-0.7705167736,-0.9771852639,-0.1018823924,0.3981753334,0.8180654971,-0.0472850466,-0.8803663107,-0.1149695458,0.2789517369,-0.6175762098,-0.1356903089,0.2556300511,-0.1955372926,-0.0906931986,0.6272165788,0.3998879357,0.6774536754,-0.5853998062,-0.22519744,-0.0070474391,0.6347818375,0.5798985835,-0.5359480374,0.9932474814,-0.3133953777,0.5268637458,0.0345274279,-0.9005163501,0.2639139062,0.5534093105,-0.7251445175,-0.6696423656,0.2156152891,0.7996300496,0.2905970052,0.9011370358,-0.870736381,-0.4679090497,-0.4805986117,0.6331247612,-0.4520988842,-0.5339296137,0.7126090666,-0.4293355465,-0.0470615565,-0.5725169866,-0.4891467414,-0.610753717,0.1885444924,0.7356519862,-0.7577429564,0.183813921,-0.2404195007,0.7637948773,-0.1842761697,0.8234424114,-0.6221931337,0.972588055,0.4758028242,-0.1758507215,-0.3486954867,0.7352993144,0.7652722163,0.7237710474,0.436923756,-0.6822825679,0.8082785931,-0.5066280183,0.9834763943,0.9752914959,-0.066532208,-0.5568199447,-0.2987053541,-0.7837138198,-0.0001159673,0.6199607595,0.432774537,-0.0641329099,0.8124126832,-0.5229237216,-0.6266049514,0.0316338604,0.030791139,0.0286000334,0.3849355654,0.875123081,0.7476409309,0.3922205604,-0.8495810122,0.0205398602,-0.1045779048,0.4013863838,-0.4761043995,-0.5411049769,-0.3047230807,0.2682435109,-0.6223018583,0.2135977382,0.5809981571,-0.1617290606,0.7035365006,0.632500222,-0.0770460996,-0.0153750209,0.7879161269,0.6020343201,-0.5967669397,-0.5225152894,0.8245992925,0.4381634688,-0.7324505551,-0.7807721851,-0.0952600633,-0.7667519526,0.6993230379,-0.0626508033,-0.3655112943,-0.9294726723,0.7185244042,0.0528725846,-0.239507258,-0.2685069486,0.2221499556,-0.4490620881,-0.3455760634,0.1044307461,-0.0312259825,-0.5384697569,0.7175989567,0.2364041863,-0.867447975,-0.9172349172,0.6772753623,-0.8088522802,0.8364190152,-0.1699054944,0.680909247,-0.2213361401,0.3961024038,0.3364328429,-0.2233035637,-0.8380877369,-0.6643535322,-0.487500436,0.6719104163,-0.4851304956,-0.8367977887,0.3276775749,0.1155984014,0.500140206,-0.0943530438,-0.193470291,0.5034288151,0.6790082367,-0.7480418803,-0.0545987899,-0.9827117254,0.572587682,0.3316445703,-0.7002463014,-0.604923929,-0.6113323728,-0.0520588716,-0.0358838761,-0.690427682,0.6837541594,0.910813595,-0.2563521551,0.0697142772,-0.2266886142,-0.0262339882,0.7874345214,-0.0739845395,0.593958936,-0.3339463292,0.0502239002,-0.9786633113,0.2824137697,-0.7354807558,0.6697173262,-0.8933679283,-0.3185919273,-0.4262523694,-0.8395582506,0.1116171625,0.1000052124,0.0563145138,-0.8643592466,-0.342053883,0.0623854431,-0.6406871602,0.5965297761,0.0135298626,0.8282245535,-0.0371059358,0.4831448931,0.7871404473,-0.0578440001,-0.8489882961,0.1220820468,0.5410556785,-0.9678318204,-0.2614034895,0.8551348302,-0.3878690067,0.8771726758,0.2333383682,0.510485846,-0.0022336377,-0.1957909359,0.4325335433,-0.2093083726,0.7897473217,0.0379511908,-0.7718087659,0.6579504543,0.2358885501,-0.7725616678,-0.8235932031,-0.0100102412,-0.5996941217,0.9080872044,-0.8556725905,0.1905642147,0.613585391,-0.4113106317,-0.2565739118,0.6341336635,0.8523853578,-0.530090606,-0.1937640526,-0.3153070401,-0.4596516645,0.4766866759,0.6545230229,-0.1335135538,-0.4471201535,-0.9648155082,0.662699643,0.3323874355,0.6490872679,0.583012663,-0.0317978757,0.4067823496,0.1292299604,0.6746805714,-0.7277989938,-0.3574459801,-0.8184962973,0.3204033805,-0.9126115444,-0.5980336973,0.8374598114,0.792262094,0.8642615829,-0.5937740232,0.9576127047,-0.5654368197,-0.6774822671,-0.3569397382,-0.0219177641,-0.8694557097,0.7994903721,-0.8657938571,0.0532725168,0.7027347602,0.0975935015,-0.8505727002,-0.9708766571,-0.648810879,0.0141564334,0.0100355237,0.0601364986,0.8552602363,0.8675858145,-0.4827999112,-0.6030566327,-0.4722537839,-0.8090151719,-0.3344215814,-0.0988239601,-0.8550161785,-0.2758550363,-0.6523600227,-0.3194224268,0.0322050443,0.7589421376,-0.4591850605,0.1516098131,0.0281950006,-0.225042399,-0.8877013499,0.2363138409,0.2300645228,-0.182301648,-0.02823055,0.0108830341,0.2974705735,-0.0951859957,0.1669618373,0.0537036989,-0.7372463105,0.0668457574,0.7318464928,-0.4279493277,1.3880911264,0.4190920807,-0.0005083936,0.3733643117,-0.5430561987,-0.0789463476,1.5860827199,-0.8291815954,0.5119894094,-0.1569818085,0.2490482009,-0.2062759766,0.1608889254,0.748036889,0.1297429049,0.8384102438,-0.5962298975,0.0957216372,0.0057076171,-0.2404415141,-0.3976367489,-0.3403184377,0.0722942573,-0.044565919,-0.584868436,0.1619269432,0.2970937692,0.0409332395,-1.3581135157,0.7494388564,-0.2686120136,-0.245776578,-0.1643268173,0.4390872289,0.5119429915,-1.0956610173,-0.5190389797,0.0045420245,0.5079371906,-0.4295573027,-0.2535404084,0.7976251289,0.1833977483,0.4616121584,-0.394856533,0.6289165171,0.1153844289,0.5717531821,0.908945299,-0.3128208606,0.5076652642,-1.7150020538,0.026468357,-0.1857237431,0.0027351257,0.2890091406,-0.9047212731,1.0214971855,-0.032428935,0.4038448057,-0.9778005917,0.4861028923,0.6003108852,-0.3861684177,0.6904113516,-0.2325704624,1.1894171512,-1.4546118257,0.7719099298,0.4212699506,-1.1570706453,0.118598397,-0.059801098,-1.033308197,-0.1956053881,-0.5050927335,-0.0644402567,0.7925399155,-1.2318933455,-1.8462305193,-0.0665383463,-0.2106813654,-0.1109031671,-0.3775468692,-0.4503156156,-0.495188169,-0.5104913537,-0.663639864,-0.1233994705,0.2567003036,-0.9125948084,-0.2496369209,-1.0021347118,-0.0858874789,-0.0560731815,0.1640819455,-0.5667957418,-0.0399068023,-0.3498420471,0.2835407737,-0.0050207736,0.2053990895,-0.0211092182,-0.7588155894,0.0032830912,-0.3372044883,-0.1523892681,0.0006501938,-0.8696120237,-0.5608973088,0.9591746448,-0.104095738,0.1581751409,-0.196294825,0.4611422832,-0.2184286938,-0.4598152478,-0.0091371615,0.8926555229,-0.236858845,-0.2318683239,-0.5103703547,0.0115009627,0.0503191225,0.0156674104,-1.4085994606,-0.4757100052,-1.1657695057,1.4065220955,-0.0687989907,0.2157607874,-0.7690997183,0.0295440765,0.0972039257,0.0484396826,0.4169953818,0.9432146637,-1.2428002894,0.2101764716,0.2984757168,0.0619990994,0.1202534558,-0.3578978432,-0.0723347924,0.1134471002,0.999328956,-0.8548612561,-0.4778839683,-0.6724358203,0.2172329862,0.3751459088,-0.1203127575,-1.2094622323,0.5490066828,-0.8976588898,1.3706601666,-0.325026434,0.2435786323,-0.5784960601,1.5805619344,-0.0058870149,0.0235922072,-0.0990587335,0.1767944192,-0.180344072,0.0706417315,-0.849367076,0.5139447536,-0.5507374447,0.5683037619,-1.2205436556,0.4848835343,-0.6932017333,-0.0559641795,0.9378203125,-0.99208944,-0.3915084167,0.161831521,-0.8818649188,-0.8006954893,0.1306108014,-0.3821685859,-0.2661275031,0.5793235611,0.3888971885,-0.2513029517,0.3375621499,-0.2785953706,0.3044609693,0.9098617818,-0.6095136324,0.2489019619,0.0191860808,-0.119616546,0.1207653644,-0.5591787081,0.6353562148,-0.2984286551,0.236840129,-0.2780345743,-0.7103861039,-0.7176956622,0.8640525679,-0.6901803023,-0.7011861899,-0.3416924168,0.8992485971,0.5285305836,-0.7060685355,0.883141779,-0.3951595703,-0.107241782,-0.7599214036,0.4691592451,0.6170167564,-0.9615246662,-0.5645403672,0.3157581924,0.1667939964,-0.305373076,0.6367664561,0.3092499712,0.6385013563,-0.763331837,0.131192885,0.1471933047,-0.2221642862,0.2486811391,0.9852029728,-0.0891905556,-0.3950112282,-0.029308244,-0.9464392899,0.0224590644,0.6783725502,-0.2655056985,-0.5659865185,-0.1423957297,-0.5390663089,-0.352821212,0.8856242749,0.0228811165,-0.9735718118,-0.0127437133,-0.8105065931,-0.8978690078,-0.0730231421,0.6217841136,0.5505300318,-0.9055046418,0.278322937,0.5372452022,0.915933284,0.1948800834,0.3134801319,0.6405348913,0.6223088073,-0.6699412918,0.4814435417,-0.3064857107,0.458744178,-0.889650151,-0.2753698806,0.0565736784,-0.4637810908,-0.5842450122,0.2055562705,0.1857997424,-0.7619943858,-0.2888283093,0.2937944068,0.5314509215,-0.6561045823,-0.9360235483,-0.719284124,-0.5424600374,-0.2798390026,0.350206637,-0.0628924404,0.6265506541,-0.7882160723,0.178333255,-0.4141430031,-0.8705045394,0.3041265971,-0.4101378245,-0.0594471203,0.0840794556,0.0389167668,-0.9142468693,0.6547642293,-0.8133245724,0.0666012153,-0.4729780217,-0.5946438848,0.5210406817,0.8236010926,-0.4766486205,0.4497801035,0.0974784221,0.5892436251,-0.1479309834,0.692919025,0.0734163287,-0.4980665812,0.5899615691,-0.4772640803,0.8361684926,0.2896673824,-0.4474685953,-0.1469475952,-0.6698592839,-0.2065808693,0.3183216512,0.8696589355,0.7399886097,0.4391019139,-0.5227903844,0.3402087873,-0.4415787795,0.3018759409,-0.1544591979,-0.4801599761,0.8889014911,-0.4485677453,-0.6025288121,-0.0665312878,-0.3792287805,-0.9103422046,-0.8685823878,0.1185778171,-0.7151415172,0.3404591581,-0.7904022911,0.1867396176,0.4794208488,-0.4637768696,-0.9748278275,-0.4456392624,0.7638471902,-0.7599977257,0.5846208118,-0.8010298503,-0.0752608912,0.6389358255,-0.5743982411,0.2344511142,0.4651727355,-0.751504681,-0.4226236549,-0.6916797432,-0.9702280048,-0.1146741229,-0.628407016,0.8842323734,0.2267086195,0.0347000015,0.4669606986,0.5039379139,-0.707994253,-0.4006490317,0.7851645054,0.90144775,0.8866990555,0.3925591047,0.9092833897,-0.0751515635,-0.6806639362,-0.0442734895,-0.4384261343,-0.1691376412,-0.4269270805,-0.0287746147,-0.3568294943,-0.725663139,-0.7885155904,-0.7184276243,0.3745588926,-0.467036957,-0.1006083344,0.6161663306,-0.3571234049,0.2805616156,-0.2523697019,0.7843869442,-0.7498152655,0.0342274599,0.1200226628,-0.3839168321,-0.5614175066,0.1239617365,0.244849275,0.8281344647,0.0656245381,-0.1678372806,-0.9262988911,-0.6955662934,-0.9060467353,-0.5704101163,-0.9157232769,0.7186165038,-0.4585243312,-0.1593811627,-0.6339498849,0.631061749,0.8883391468,-0.32636885,-0.1373193265,0.3080119962,-0.0936222507,-0.1232125899,0.3303487307,0.262059637,-0.1582873077,-0.0317421029,0.3887416669,0.0541367134,0.9334049387,0.2471494226,0.2349132584,0.8071275269,0.4839744602,0.8216430126,0.0258722795,0.2005090592,-0.4171904932,-0.6616646667,-0.0404794424,-0.2358251927,-0.7319584134,0.0846775761,-0.3502984302,0.4258141928,-0.8167905715,0.3097168315,0.5030169589,-0.2339891435,-0.139712143,0.8786619923,0.4412900718,0.9438793791,-0.5942484577,0.2100604496,0.6239890903,0.9811030141,0.1009034326,0.016896245,0.5949966472,0.335493446,-0.0684784934,0.6603024083,0.0276001856,-0.2667496059,-0.077202128,0.2794363358,-1.1157416305,-1.1195624507,0.3041533386,-0.6874200891,-0.6923959909,1.1999417933,0.5092654817,0.8211082125,0.537529863,0.8885689791,-0.2486805074,0.5031362364,-0.3039143205,-0.4138392788,0.0198641343,-0.461686899,1.2336748469,1.5954916164,-0.3692481142,0.1184713805,0.8118314481,0.4406004733,-0.0901552453,0.0343615812,0.0477587538,-0.9044245393,0.8831790951,-0.7495630291,0.3980304402,-0.650683366,0.94032012,-0.5098612644,0.0329939446,0.2737508401,-0.9176710426,0.798873335,0.8838569679,0.6288109555,-0.1949091161,0.9500582007,-0.1471976151,0.2996224441,-0.0931831112,-0.4435290488,0.6401700423,-0.9285937515,0.561785197,-0.2170316076,-0.4252462343,-0.5641026278,0.446845902,0.3496068408,0.5624601413,-0.4976009378,0.7779404738,0.1838751754,0.2870559956,0.9911449066,0.0901832768,0.3916891019,-0.2959610398,-0.1069117191,-0.1992856737,0.3015730483,-0.3277631803,0.1670138608,-0.4126596892,0.1196224215,-0.21158011,0.7786433102,0.0068996135,0.0298105018,-0.8815018421,0.2202298016,0.1121181225,-0.308671721,-0.1126356319,-0.0167290289,-0.3670377868,0.9630203357,-0.5845706409,0.0191479298,0.1293119273,-0.1068793495,-0.8006715854,1.2072573821,-0.3279068413,-2.1935375646,1.4984856262,0.2214839585,0.0899484122,0.1236858996,1.1391846834,-0.0334335926,0.4567232373,-1.6547536285,0.1811144107,0.6545612745,0.5510896282,0.0586158998,0.0106235251,0.0016280169,-0.0003315148,0.0266530631,0.0028895149,0.2737644108,-0.3424209258,2.1064905149,0.0673358521,-0.0226776644,-0.0682028031,3.3124581737,-0.02225916,0.2520394915,-1.35986226,1.6605010749,-0.0639147824,-0.8947572962,0.0513996202,0.7687922377,-0.015193594,-1.6026663762,0.1013516184,0.1086327945,0.2606638209,-0.0868614059,-0.1261655425,-0.4058537973,0.1786174784,-0.7645358548,0.4361347944,0.8672204113,0.0998035231,0.0295071818,-0.3898200787,-0.4269209541,0.1449868869,0.6771909661,0.0158203051,-0.4370684569,-0.0083961243,1.3141342936,-3.3325411303,0.0024818868,0.6850830678,0.1477952568,-0.4606437167,0.5411825412,-0.114495943,-0.0463869953,0.2606451863,-0.0423617137,-0.0273994558,-0.015395748,0.0047676947,0.0006005244,-0.0218852352,1.1967940266,1.3476205254,0.1441841018,-0.0094057764,0.6804752083,-0.0162170844,1.4018446558,-0.9018148646,-0.0720894375,0.3223877678,0.230839712,0.3905783768,0.295437295,-2.1878498603,0.5536876688,-0.2213553874,-0.0023903851,-0.4282289534,-0.5163737257,0.0155042445,1.4083480663,0.6687559481,-0.1250291858,0.8898153414,-0.9973758915,-0.0733186661,-0.4182688826,0.244739583,-0.1247180378,0.8648615231,0.0511045534,0.0002789895,-0.0330795438,-0.2030347306,-0.1515763084,0.0509850301,-0.0844242415,0.0656639795,-0.59264328,2.1154372531,0.8037096745,0.710790437,0.0035318423,0.0088973412,0.3895270043,0.1223049041,1.8478726466,-1.3600327128,-0.0099213806,0.0172687515,0.1667807271,0.1565986411,-0.3652557153,-1.0578344225,0.020965089,1.0505464159,-0.2130952632,-0.5724492396,-0.2337002702,0.6710472858,-0.0221827807,0.1292319851,-0.4650047412,-1.0591395514,-0.3761465779,-1.2476832467,0.4197700063,0.1167914101,-0.6004869791,1.9240725534,-1.3043829423,0.4651889218,0.0299865386,0.6407317153,-0.8322297553,-0.3314510045,0.4338003989,0.2478936388,-0.0479746642,1.2777238346,-0.342636542,0.7485637555,-0.029235682,-0.1694214002,0.5016517207,0.3047098242,-0.8247748085,-0.0636758092,0.5794811172,0.2491703461,-0.0532282635,1.3543377694,0.1349144639,0.1610280333,-0.0661616309,0.0027342668,0.1705500601,-0.0140166534,0.4235617122,0.2483273588,-0.5085647735,-0.6635913525,0.3016411255,0.0917841446,-1.0355701212,-0.0602574347,0.8757834778,0.014987835,-1.3086191921,1.2616926388,-0.9432776121,-1.4191275613,-0.8610023024,0.0273550108,0.3021015121,0.6541881994,-0.4187698711,1.2924893632,0.3207386263,0.1865885614,0.3339639038,-0.1123065529,-0.9847524904,0.8731870915,-0.0349704625,0.1567199739,-0.0657085294,-0.5571595639,1.0914260849,-0.15337237,-0.2332708754,0.1104177538,0.7028515918,-0.6378950882,0.0385185976,0.872059711,1.0411957448,0.2822827609,0.0310709387,-0.1573637375,-1.3584200095,-1.2170498258,0.7391538819,-0.6409061254,-0.3101891208,-0.4840944509,-1.1224464817,-0.2067127207,-0.0331357727,-0.0899736393,0.3575484285,0.4892240274,0.0034188593,-1.4427797026,0.1877850709,-0.7360160993,0.3931755464,-1.1717248924,-0.2484083412,-0.6000800523,1.0893954268,-0.4211864191,-0.1475180566,0.3965943649,0.5053175166,-0.147618138,0.1641112639,0.2033901821,-1.0904842358,0.7221576278,-0.8475551672,-0.4822176055,-0.0024414555,0.6465094839,-0.893932306,0.4016819289,-0.9871524393,-0.6465543234,0.5138194078,-0.0281305706,0.0166016195,0.2687664523,-0.5736177389,-0.3467636568,-0.9034122295,0.0515203794,-0.4776036595,-0.1146985064,-0.2696987345,-0.2956124401,0.3774337711,-0.8430856676,0.2282394442,-0.9474730126,-0.2257654243,-0.8628514967,0.0456925454,0.8814786811,-0.3611149154,-0.2940114883,0.7964795265,0.0662351092,-0.4338276352,-0.8571453193,-0.5431779506,0.7924717393,0.0543798338,-0.9029960835,-0.5026326434,-0.8144199644,-0.5810574312,0.0366614772,0.8069964644,0.505253241,0.2610192947,0.8319845951,-0.1938352496,0.3499832508,-0.6022629784,-0.2243483447,0.3704842645,-0.7153327763,-0.0564729819,0.6011696526,0.4897619311,0.6839672866,-0.8252983727,-0.5953935621,-0.6395497864,0.9047213518,0.133366882,0.9498990039,0.1187735516,0.4395268097,-0.4557641024,0.6204507466,0.952002683,0.2518118689,0.2317040358,-0.3266069143,-0.0883383697,-0.0548994164,-0.4110844271,-0.0046102736,0.2825065502,0.2044433541,0.2324839229,0.2232904794,-0.4740384471,-0.2856294583,0.4138284563,-0.4460453402,0.0679124924,0.7078228219,0.3277482943,0.0243015634,-0.191304472,0.3394811242,-0.3577970133,-0.7225342564,0.1964525283,0.3313025631,-0.030789645,0.7231362654,0.630856139,-0.0920884548,0.669613926,-0.077667494,-0.9361741054,-0.260140087,0.115997161,-0.471947493,-0.4674693693,-0.6877527664,0.2604445086,0.0681911131,-0.3811646953,-0.0054607964,-0.6230911923,0.1816168303,0.9058257152,0.3220183152,0.3777290337,-0.7042700728,0.9733742895,-0.1647725996,0.8706764589,0.8270635504,-0.0391269505,0.1960587963,0.0066596692,0.7141739365,-0.4373198604,0.3912010316,0.4494714831,-0.0075235195,-0.2553066098,0.5100459353,0.954650852,0.1445805871,-0.4418595306,-0.4259191317,0.0092428963,-1.7232621096,0.644168777,-1.666920072,0.6109199051,0.2771185249,0.0220855301,-0.0004287931,-0.1054305595,1.6267917186,1.1851822216,-0.6782204003,-0.2125314524,-0.138896658,-0.0721707391,-0.192505326,0.1192212568,0.2580381613,-0.2137443599,0.013364566,-0.1654104766,0.1248679846,0.504218499,-1.1860412648,1.4730667603,-0.4262028552,-0.6240176318,0.4752229376,0.4925380832,-0.2867308597,0.6889612766,0.8250358601,0.4194878916,-0.71967232,0.3542671349,-0.1977087557,-0.1135534389,-0.2534405883,0.0645199091,0.5710748061,-0.4984672965,0.523741214,0.0912224086,0.0230192397,0.0064766181,-0.4623319246,-0.8494233818,0.5154100095,0.9786630996,0.7735195636,0.6313907625,-0.7304343221,0.2778721982,-0.8298083198,-0.826452401,-0.085896649,0.1328070097,0.0766879358,-0.0649289439,0.3116799784,0.7126206934,0.2579153359,-0.1126791568,0.0493347331,-0.1511562745,0.6215935888,0.5216468593,-0.6076242226,-0.1910615813,0.4272788802,-0.019507339,-0.283234367,-0.2161982646,0.0787265086,0.8474012628,0.6152845343,0.2102747667,-0.0941401079,-0.2199867866,-0.6480473315,-0.1332356667,0.2992889744,0.6196863779,0.0690243911,0.4339123483,-0.0105733622,0.5538595208,0.4829743524,0.5405026344,0.1518443963,-0.83579427,-0.1130526237,0.7347192274,-0.0063344815,0.7974917533,0.7534173178,0.3831590704,0.4648545186,-0.8310821273,-0.2996797107,-0.0086018702,0.3718138317,0.0990563319,0.2696965505,0.9266797657,-0.3276502981,-0.3510863464,-0.0011659102,0.0512002583,-0.6560936886,0.2171620523,-0.664543372,0.793381723,0.8317406048,0.2477048537,-0.0727616029,-0.1309332926,-0.8106212909,0.3642902662,1.6886167541,1.3093093354,0.7021707133,-0.1166735861,0.6281238762,0.0587257157,0.8333713088,-0.1565823168,-1.4597809846,0.0238981188,0.1167822453,-0.0264262777,0.0534545282,-0.0007479219,0.7593908229,1.6293234984,0.2271663797,1.2583486912,-0.7088619409,-0.9681108208,0.1233147423,-0.1335302916,-0.0559541246,0.9710797044,0.2081934328,1.6709966089,0.0279864942,0.9099073263,0.1014745297,-0.9243262402,-0.4238934179,-1.317660152,-0.4587128479,0.6705579692,0.8479428817,-0.1763406284,-0.0519383379,0.1028879071,0.0835115429,-0.3015517796,0.1260901199,-0.0145254726,-1.0212184053,0.0839725818,-0.5752623391,0.0750797934,0.3438667438,0.0738097588,0.3501291563,-0.6814819269,0.7631737465,0.4499858319,0.5013473895,0.4787064879,0.3228467351,0.6177464619,-0.2514149927,0.3705006154,0.1052187065,-0.182531624,0.2017573468,0.6032912161,0.2075987612,-0.2368638085,-0.0701129249,-0.3148376481,0.4695370972,-1.2268648721,0.6896332933,-1.3010451202,-0.253836665,-0.1349932308,1.163210053,0.1888971946,0.4993072216,-0.8792470297,-0.6536008611,0.67242171,0.7160623129,0.0023563071,-0.0052001869,-0.918763512,1.036766958,-0.1565349654,0.0272632288,-1.3436470726,-0.0362002585,-0.1291755169,-0.1293751458,0.4226929747,0.0378863262,-0.0198681123,0.1117947451,1.1924478606,-0.5709673378,1.2269084679,-0.0541910305,-0.1442210439,1.3915615406,0.374754747,0.626702702,-0.151205548,-0.0007279381,1.1286240157,-0.0764292064,0.1724854166,-0.142685224,0.5888639542,0.2424881919,-0.0700282343,-1.0994583596,-0.1140474165,0.0143137002,-1.4168461644,1.243395415,0.1399242342,0.4847069296,-0.0339530803,0.5652576766,-0.649835498,1.1030679572,-0.2817078284,0.2934346857,0.0563123835,0.0862817778,0.0207328482,-1.183408392,0.3594931749,1.3333150051,0.2753039825,1.7978504848,-0.306307473,-0.1714846114,0.0085731933,-0.3369785612,0.4645594484,-0.4961041318,0.0328588439,1.0535075207,-0.2700023542,0.7344100398,-0.1056489927,-0.0031256179,-0.9099077931,1.3381355457,-1.3606893228,1.6761418184,0.2035923686,-0.5485357582,-0.5645269175,-0.5521197583,1.2284348695,0.0923473076,0.924724968,-0.1542061509,0.1332998758,0.0214955412,0.691747598,0.6179732933,-0.1433904272,-0.9772097763,1.4659674192,0.7436397155,0.5196320176,-0.008942381,0.0451632822,0.1994698144,0.4269782791,-0.3442142471,-0.9699058131,-0.1027072041,1.1192254593,1.341844135,-0.0203008025,-0.0023217313,-0.5820942922,0.5687325537,-1.2055233779,-1.1278197761,-0.1422567587,-0.4850619094,-0.923485904,-0.7583235542,0.2678541748,-0.6436386668,0.817728253,0.270030623,0.0623123943,-0.7379689745,-0.2165941621,-0.0155235006,-1.4746500442,0.6930095097,0.0927000216,-0.0542169618,-0.0000239976,0.0174048566,-0.6109166583,0.1062705072,-0.0936934336,-0.6298033754,0.3580699006,0.8826829459,-0.2396740627,0.3047984733,0.0057241682,0.220928512,-0.2445988696,0.6478964336,-1.0980032957,0.1865521334,-0.825984862,-0.105019245,-0.4116164061,0.103052588,-0.2120119571,0.7978054987,-0.0615116656,-0.0772233176,-0.2734857621
   0.5982283252,-0.6968610609,-0.2003311947,-0.5956308833,-1.6949369884,0.3697260969,0.4411285042,-0.7908545369,1.783831261,1.0649684501,-0.0049603274,-1.3175937793,0.7432966154,-0.8748839615,-1.4250052632,-1.2824407642,1.3678146314,-1.5842487653,-0.8511362497,0.7630262659,1.0011893285,0.3790729768,-0.5505081134,-0.030633234,0.1994848893,-0.1542511884,0.1579618632,-0.5726864817,-0.6885194507,1.7310035357,0.3127460666,-0.0073648101,0.2454519529,-1.3110299135,1.1417370773,0.077014798,-1.0571858813,0.2308906987,0.0012897551,1.4014482871,-0.4411591062,-1.6746335675,0.3981376425,0.0679966456,0.2524676757,-1.8776469309,0.0126042203,-0.0975246355,-0.0275079731,0.6898322075,-1.714721213,-0.651324656,0.0090975093,-0.5453969629,0.3384412224,0.4423488311,0.78699901,-0.7187433,-1.3204967317,-0.1638588692,-0.8398755921,1.3473177925,0.2378287603,0.4698419323,0.5414358611,1.8347027392,-0.1571394077,-0.6465537097,0.0568555757,-0.7371047643,0.0955987403,-1.1781146111,-0.1721223698,-0.4304616472,1.2296231845,-0.2018454758,0.0559512083,-0.4387712281,-0.8873219439,0.0272329292,-0.0219494654,-0.7806012083,0.2263674339,0.5817420027,-0.2864417498,0.331867809,-0.0255266844,0.0063077157,-0.301183181,0.2325099342,1.912998359,-0.2448616782,-0.0987478772,0.9113599463,-0.8287595476,1.8266802268,0.8320500835,-0.2044713739,-0.1983944544,0.9546042552,0.5829896743,-0.0351205829,-0.0425543963,-0.6324809736,-0.8208753801,0.5853302634,0.0925399465,0.2845020125,0.1985214087,0.2967575135,0.1036944445,-0.2275903669,-0.0818367183,-0.0779573017,-0.7460806611,-0.1084327655,-0.6069431208,-0.4639705992,0.2149845484,0.5250404222,-0.0066186036,-0.1545510355,-0.0048953316,-0.5630999856,0.6035988096,0.0021854242,0.3698943789,-0.3333251239,-1.7113647418,-1.2276091107,0.4331399964,0.1624588783,0.0083612714,-0.0299560568,-0.3394437842,0.2905000318,0.0024161865,0.8543239825,0.7913784397,0.0701266916,0.7233665673,0.3794786447,-0.1921489869,0.4940827148,0.4941223268,0.1247470938,-0.7695294167,0.7548613557,0.6120038272,-0.7999244386,-0.0234268391,0.5063841594,-0.540237507,-0.2592939519,0.1844655871,-0.466324228,0.2326316889,0.2108428041,-0.0900427405,-0.9109999969,-0.7829525049,-0.5665809317,-0.3499798241,-0.9236610668,-0.2338626482,0.2340980466,-0.2825010034,0.4731087333,0.1484676197,0.1320281055,0.3649987455,-0.1572897245,-0.1253277958,-0.5459690039,-0.1100243743,0.3796616676,0.4997293419,0.9585146152,0.4352588831,0.2082264586,0.475526303,-0.0105135505,0.8182344936,-0.9343148643,0.6606165942,0.3911494777,0.2469672207,-0.7439583861,0.3960357334,-0.1489033078,-0.5546555576,-0.1404861711,0.2979406841,0.1148244027,0.6236111185,-0.2508506161,0.2825716023,-0.4138432447,-0.0195825228,-0.3315761032,-0.425838558,0.1468348649,0.2741106685,0.8654420374,0.991584336,0.4853268786,0.395160187,-0.7402270398,0.8646792535,-0.8514325875,0.7338342589,0.8935741716,0.012969649,-0.678624797,-0.5913023881,0.8478363714,0.3420699681,-0.1804447024,-0.0040700369,0.5187455891,-0.3687788809,-0.764714776,-0.5530356122,-0.7705440043,-0.5329971284,-0.9778654432,0.2960597667,-0.4187797434,-0.8719644114,-0.7018281204,0.1445673605,0.7140006571,-0.6835054037,-0.3724098478,-0.7527482702,-0.8520069752,-0.2534560906,0.1577991126,-0.7900229139,0.0214866084,-0.0062482035,-0.5098480648,-0.4119536232,-0.0379338964,0.6810471041,0.6336188307,-0.418518721,0.9147224508,0.1493406968,-0.002671474,0.7343513337,0.7725124462,0.031076944,0.2730638461,0.6623139588,0.3366300007,-0.7835006569,0.8175876398,-0.4511778071,-0.9422661166,0.3568171004,-0.659582462,0.2905346887,0.7849423192,0.5720980969,0.7285980178,0.6037879692,-0.0555377254,-0.0550592143,0.4520045469,0.3673533773,-0.0883074112,-0.8028978418,0.538600067,-0.6359512442,0.5884464937,0.4166876907,0.8356714788,-0.8412557437,-0.8376433797,0.7439302948,0.4127440782,-0.4639235021,-0.1339792059,0.4965404038,-0.4842187814,0.224996847,0.0979803316,-0.4866738423,-0.5708146821,-0.0834322478,0.3245140484,0.9472147276,0.9224657373,-0.5562124992,-0.3261782228,0.6361328163,-0.842661863,-0.9453740505,-0.1475552213,-0.8447562338,0.6594918186,0.4906429715,0.2618406536,-0.7011759066,-0.4507034019,0.5706842017,0.8687813265,0.7535140725,-0.3835577608,-0.0769781072,-0.1332788303,0.6473339318,0.6705549953,0.7211784537,0.6407781882,-0.5367451493,0.6390418809,-0.2234726696,0.3665009135,0.6882327304,-0.8887822374,-0.5598177769,-0.5013380147,-0.480648955,0.0091065546,0.2125181263,0.1722647264,-0.2038973698,0.1834798397,0.9499009165,-0.9667560737,0.7102979571,0.1249347243,0.0857272772,0.4192188372,-0.8500590548,0.1942364935,-0.4033950147,0.4392919853,-0.1864578765,-0.6663686316,-0.2613749448,-0.0418155406,0.4508262667,0.7539264797,0.4144087338,-0.9826696935,-0.3631288217,-0.0103608382,0.1156835959,-0.4437935196,-0.8083746588,0.7103602202,0.1745012116,-0.8740479639,-0.8005176612,-0.604026997,-0.9990123635,0.9769677144,0.7669651601,0.8110989409,0.8412096156,-0.1200628168,0.5994544782,0.9567644438,0.3648521004,-0.3150488859,0.7318058562,-0.9930054221,0.5365328588,-0.0200457549,0.1428325013,-0.2389691176,0.5962971959,0.6818875363,-0.0697029256,0.9699683536,0.2915719299,-0.1174871337,0.39252457,-0.6380971889,0.8217225271,0.1165314633,-0.6908289996,-0.815059419,0.1223306539,-0.5083762903,-0.5275829552,0.7182673889,0.1425185944,-0.8383026374,-0.636518859,0.6290587508,-0.4096098623,-0.2775956338,-0.2528193114,-0.7949805304,0.4006468171,0.0605874186,-0.6837709276,-0.2542748753,0.1827961945,0.5509355764,0.2426348665,-0.1101900005,-0.8537356729,-0.9678459058,-0.2798533253,0.919315092,0.1086516969,0.9993106747,0.4437897708,-0.8760525109,0.7210807456,-0.6737124918,-0.524886224,0.8007676535,0.1439549198,-0.5436764708,0.2682184277,0.0377420168,-0.0601765965,0.5089745885,-0.1882055034,0.3688228655,-0.0171322647,0.9624076423,0.4862012709,-0.0233908097,-0.8160116081,0.4858590581,0.6957554578,0.2462640077,0.5697735146,-0.1389289659,-0.6032048557,0.4532056577,0.6746762702,-0.4127611975,0.209597009,-0.6541227568,-0.7185585744,0.296703063,0.5653433709,0.0223289395,-0.7625597272,0.5254423967,-0.4642395864,-0.486824714,-0.1975379387,-0.4337194674,0.550523746,0.4329824337,-0.5957670085,0.7244967246,0.3927349727,0.5695649329,-0.9411543841,0.1194460718,-0.4129395156,-0.098650105,-0.9086611061,-0.96402061,-0.316988976,0.649410122,-0.3355155703,-0.2915198118,0.5717254365,-0.2293076716,-0.1469663349,0.7886468791,0.0936998396,0.8660609955,0.9746280281,0.9556971209,0.7516287312,-0.5310917133,0.4942470607,-0.3127390424,0.8482935318,-0.5755902445,-0.5302090111,-0.5684686863,-0.0881732798,0.8098947606,-0.6992284712,0.339536188,0.7268883549,0.7188360273,-0.3450083858,-0.8500034786,-0.8666472358,-0.7478276746,-0.9575078347,0.330771106,-0.3655294521,-0.7621411037,0.0191078727,0.2030686927,-0.1885108828,-0.915099143,0.8086565764,-0.278711551,0.3147521027,-0.5862386621,-0.3138528971,-0.6638999313,-0.2428355333,0.6628191051,0.3462952121,-0.5645548191,-0.5894991447,0.1415731185,0.2250643182,0.2013549727,0.5549048594,0.1411202901,-0.5746133735,0.8741343987,0.1563831675,-0.0279462423,0.6495780548,0.2246482462,0.6147321682,0.0595033158,0.8689235554,0.2912657993,0.4214383331,0.5017233162,0.8797965974,0.921272934,0.2566791494,-0.6061404822,-0.0301948725,0.2625342793,-0.117687478,-0.2650651181,0.100215628,-0.7749169627,-0.3575172257,0.982042794,-0.63326595,-0.4716819517,0.4544841691,-0.6390483392,0.998205595,0.4324495844,0.2124404295,0.9887910183,-0.6383678923,0.7656126942,0.8346548761,0.2705272777,0.3508069866,0.0881539873,0.8241935093,0.4295898722,-0.8786901222,-0.3373859096,0.5180298198,-0.4154914601,0.5814926442,-0.4861169534,-0.4523317045,0.2160462385,-0.8014190843,0.4527373703,-0.9450693576,0.3756804153,0.1433069568,0.1674334626,0.2597818468,0.9465313456,0.1107252689,0.4603556843,0.3846839111,-0.9668408587,0.0815544315,0.5061025591,0.7175733065,-0.2495610027,0.9936424674,0.6573862495,0.6973909288,-0.8221687813,0.1485610092,-0.5103956702,0.3898410611,0.5059770711,0.6350873314,0.7639538885,0.6011473905,-0.2122248235,0.1701415639,0.4685462758,-0.278461667,-0.0152136234,-0.6941409926,-0.7512616025,-0.9383022758,-0.7690788851,0.2843285682,0.9313335638,0.3135899348,-0.3692300807,-0.3126338185,0.815112649,-0.2838821927,-0.8267592059,0.0492532696,-0.1630303498,0.0925609331,-0.032436837,-0.5414246288,0.961908754,0.9272316695,-0.4607782656,-0.1695157261,-0.8952587992,-0.5386131212,-0.9713029975,-0.3874919773,0.3864220641,-0.5980282191,-0.6950058505,-0.3940337287,0.9267865455,-0.5159581424,0.3276610556,-0.6617551808,-0.9128163762,-0.6547825367,0.0076488736,-0.7537229795,-0.6093734347,-0.5270106267,-0.8133893866,-0.355362716,-0.8453668033,0.8890530688,0.7079547229,0.0877249834,0.0259506729,-0.1217431085,0.9604601332,0.9172441017,0.9188011755,-0.2075042328,-0.5507509199,0.2804415928,0.7366821167,-0.032110814,-0.5098606749,-0.2461797249,-0.0208266901,-0.7062898491,-0.998138482,-0.1774235232,-0.487729229,-0.728462152,-0.2746255735,-0.5030881987,-0.5282431596,0.0066982636,0.658130729,0.805161089,0.8366899232,0.0266643085,0.855141336,-0.3586864084,-0.0954432421,0.906887113,-0.063953211,-0.0990394024,-0.3850948837,-0.6612195143,0.5858927286,0.5645985185,-0.9537078176,-0.0412341544,0.6087771506,0.9980293047,0.6367458245,-0.4468328175,0.59587678,-0.0099639925,-0.5740552816,0.5348462789,0.6188256733,-0.3297881533,-0.4065908975,0.9672462341,-0.0911208568,-0.540280985,-0.3468305803,-0.8550453976,0.9350496827,0.9424878196,0.0848112889,-0.135943996,-0.5182275174,0.4099905577,-0.9918240095,-0.376653431,0.2621369463,0.726217803,-0.9105569937,0.8318211288,-0.3329093507,-0.8893026208,0.1357330569,0.2594524268,0.8582426128,0.1185651291,0.4922725366,0.0228435708,-0.142487919,0.467008801,0.7807066473,-0.4106577042,0.5921552339,-0.4428466386,0.9633447034,-0.3785943564,0.2661433984,0.5259180425,0.5455735222,0.5695588776,0.4979764545,0.8460838598,-0.4443390658,0.2236303248,0.3947053684,0.0296928869,-0.9638175513,0.2848665724,0.8408197413,0.5549620683,0.4212011929,0.9746362402,-0.2265368199,-0.1272161679,-0.6863891659,-0.6584227961,-0.9972821173,0.9063819785,-0.3743610735,-0.6504682218,0.5627003313,0.5627598728,0.6492941113,-0.8913832636,-0.3754870596,-0.2768361219,0.587476105,-0.3322528107,-0.0189652965,0.7205584634,0.0168750984,0.9823053603,0.4089516525,-0.0596305683,0.8989883176,-0.64846475,-0.8010730196,-0.8972602045,-0.6328130863,-0.299844928,0.4671504135,0.455661581,0.9527620284,-0.5983843684,0.7951659842,-0.7085885461,0.2107983271,-0.9369177501,-0.1660978648,0.2077964379,-0.0647586443,0.8365563699,0.7191414399,0.3784739918,0.3209615085,0.6427386325,0.2015526597,-0.7957274309,-0.674870645,-0.7387735923,-0.5054480395,-0.2805667549,-0.7069915622,-0.305112971,0.7234718759,0.5625825781,-0.70088983,-0.0611035244,0.5564539302,0.0399870997,0.6541619957,0.358889919,-0.6407103936,-0.3157275332,-0.3418789402,0.5826913432,-0.7241354571,-0.6222499488,0.3900368419,-0.6753342306,0.3136037815,-0.3817264857,0.1624768006,0.1028229033,0.5102772766,0.5863593669,-0.4560074489,-0.1325956729,-0.7857804071,-0.3559815919,0.4496273871,-0.5300422338,0.7115479835,-0.3740666629,-0.6252195569,0.0390270605,0.0811433303,0.4925793163,-0.4814027706,-0.0391295512,-0.1119786065,0.5317210434,0.8057247355,-0.4187388509,0.5716420896,-0.9560515293,-0.5088519673,0.8573197695,0.7985476029,-0.3265715642,0.9000867886,0.5615064997,0.5263434828,-0.4486937949,0.0686903412,-0.1223379046,-0.4216226341,-0.248266406,-0.4245302534,0.2478820131,-0.7173227658,0.842116227,-0.6204877718,-0.8289035114,-0.7626622765,-0.8232425033,-0.8312771789,-0.1631689459,0.0914587396,-0.375329381,-0.0279671122,-0.3189674921,-0.6422319629,0.01360861,-0.6671625904,0.215535372,0.741511637,0.213424366,-0.4099251739,0.1636211897,0.8757418834,-0.1633850313,0.1456607203,-0.457901345,0.0000604439,0.3545644289,0.3179324665,0.6420923546,-0.0563156501,0.2222696672,-0.1391341635,0.326241451,-0.6560868024,-0.4478807977,-0.643232028,-0.4706156197,-0.389935206,0.3650903266,0.5776297209,0.6513713671,-0.6819697098,-0.0290543836,-0.2401803337,-0.5767983033,0.2398100664,-0.392210362,-0.4537729913,-0.8598721202,0.0940360513,0.598136946,-0.4202114359,-0.0638747881,-0.797673375,0.6861579547,-0.006627882,0.9001393511,0.3603677073,-0.846920834,-0.6092824561,0.264363217,0.6052088772,-0.8007558338,-0.8610085253,-0.3779354186,-0.0570449926,-0.4921227605,0.4704538156,-0.857899509,-0.3455754317,0.878427198,-0.0151789715,0.6699680265,-0.3714584626,0.8713864951,-0.1490038382,-0.650320551,0.1505270939,0.3655254799,-0.1381208843,0.7059431668,0.2871994563,-0.9470220643,-0.1803172901,0.0331767812,0.513389495,-0.4936316696,-0.8401731327,-0.2441731049,0.1755163076,-0.1479088722,0.5457703107,-0.4507983831,0.3904709311,-0.3096500794,-0.9784202397,-0.1777338228,-0.4976954861,0.8329410882,0.9047171141,-0.0739621251,0.4187266818,-0.2146859206,0.3813488602,0.6947058916,0.1470823897,0.3876676199,0.0305413516,-0.1569863688,-0.8259608024,-0.0668661164,0.5006885349,0.5862740473,-0.4861353744,0.3951521306,-0.0182348584,-0.1739272413,-0.6925110911,0.300455946,-0.2951698362,-0.9232240825,0.5940351438,-0.6104455209,-0.6673940509,-0.826702762,0.9963673277,0.47980028,-0.7179898378,0.0213016126,0.6551936153,0.9973826327,-0.6602140058,-0.5737050457,-0.6821633922,0.5260344351,-0.0578256744,-0.9897943994,-0.951660986,-0.734486077,0.5266976599,-0.4401079788,-0.5840091617,-0.0381655427,0.0892465741,0.2659053487,0.2688645295,-0.6942772025,0.2221351769,-0.1431115629,0.7077642576,-0.1497954321,-0.780291441,-0.5505071575,-0.2806156797,-0.6099254866,0.7380751811,0.4010310409,-0.9438892029,0.4872637007,0.1402461367,0.1422865161,-0.285340833,-0.3373590618,-0.7239274496,-0.0865094843,0.1777414215,-0.6050518416,0.5378216881,-0.1730758194,0.0557910431,-0.7167336831,0.0403618614,0.3766560549,-0.4527519817,-0.9935986432,0.8058108223,0.5320780458,-0.8058302971,0.9792121498,-0.4044806847,0.6360027993,-0.6500742137,-0.3182394068,-0.6109141454,0.9403237209,-0.3134585447,0.605821162,-0.2485067984,-0.6973832955,-0.1540902048,0.1813667061,-0.4515571642,-0.6622733562,0.6067527978,0.2794437871,-0.2043884347,-0.9634579163,0.3784157398,0.7535876793,0.5648754847,-0.2151558889,-0.3173222223,-0.6751913131,0.479877928,0.7716231656,0.466923726,-0.7235354279,0.3397043739,0.5336412409,0.5092431628,-0.7020256386,-0.0289533688,-0.9030944956,-0.772173771,-0.6725094278,0.5552947875,-0.6545174625,-0.9320098595,0.0017128696,-0.3262975387,0.2692316664,0.9570205629,0.2221231985,-0.9284086569,-0.9925042136,-0.5840498319,0.3794801475,0.6894059732,0.6105592691,0.1249924495,0.8598790149,-0.2350156681,-0.519444089,0.8751398373,0.0275412797,-0.2978054715,0.6618308956,-0.2534413389,-0.7241228,-0.3709378858,-0.9060155909,-0.3975758445,0.2229721263,-0.3188107391,0.7333690621,-0.8392162692,0.8091998108,0.9484530989,-0.6907755993,0.1153843976,0.0302920277,0.3714453041,-0.3343986223,0.4628790907,-0.5785843839,0.6157616188,0.0791503625,-0.5505606415,-0.844954562,0.6706495062,-0.4687108338,0.3958894285,-0.3006540177,-0.015963734,0.6141443391,-0.313447888,0.3840004661,-0.6169237292,0.3506743405,-0.9410346099,0.8174682236,-0.765869209,-0.1455680556,-0.8890666475,-0.2913069268,-0.6901743832,-0.7278510106,0.2072432886,-0.4864815254,0.5044141549,0.7895430428,-0.3797023198,0.8890914609,0.7155024657,0.9211829648,0.9428282862,-0.1161419615,-0.4186743715,0.4009883119,0.0159547943,-0.7740303853,0.6427398689,-0.0965149422,-0.4215899032,-0.4016449581,0.0644621442,0.1242244145,0.6003179303,-0.2356435247,0.3877681059,-0.0912118582,0.7752817951,-0.9209313529,-0.144919085,0.6782321004,0.015223436,-0.5460965854,0.2062040913,0.5840459974,0.1520520668,-0.7590498015,-0.0580288172,0.0926059172,0.1714592282,0.0370449072,0.0818052588,-0.5299284243,-0.8784807839,0.4747359182,0.1539060093,0.2003468552,0.2535304097,-0.9448667054,0.4428496096,0.5949642455,-0.2248003815,0.5191100312,0.6706881783,0.6647352131,0.4018327044,-0.9424223272,0.0173064718,0.3019467725,-0.4126093374,0.4142887812,-0.95045905,-0.8661219602,-0.3156217923,-0.9042995697,0.0060060486,0.4346675871,0.7638637887,-0.5760255707,-0.4987294587,0.2335045912,-0.8048686731,-0.2392015903,-0.0495615001,0.7154607036,0.2281849836,-0.1891215433,0.6578451065,-0.4044018651,0.3049070409,0.7783346673,-0.0508132307,0.6964532483,0.0100611777,-0.9645797383,0.3047304332,-0.2294022961,0.5502289502,0.4368132965,0.1294204536,-0.5041510686,0.3812877305,-0.0136759683,0.4034328591,-0.528385159,-0.2515153289,-0.5241034459,0.0455443675,-0.6793994534,-0.2600208804,-0.6433297545,0.5618308188,-0.3872177739,-0.4455021754,0.417502358,-0.2707570552,0.8700648843,-0.4029103104,-0.0645211311,-0.3339099302,-0.6232198894,0.1375118227,0.2442788161,0.3668441652,-0.5278686262,0.2241343175,0.9222153143,-0.2697236139,0.0513355352,-0.8476718396,0.9078675143,-0.7096076707,-0.7551360149,0.4002473472,-0.5345876385,0.2084233848,0.4685668082,-0.0195116966,0.4396370883,-0.6012793046,0.1674379832,-0.1705778379,-0.9336271907,-0.8787916643,-0.6908250405,0.0594682955,0.2196800611,-0.9038521395,-0.3357170502,0.9832247569,0.1355518305,-0.3518856186,0.4390974004,-0.4603675702,-0.3890642817,-0.6612816773,0.7417143709,-0.1172589563,0.8981969461,-0.1901073604,0.7928580571,0.2023637179,-0.5708440779,-0.0243922576,-0.1176708286,0.9858448972,0.5752839441,0.4830981299,0.7919414341,-0.5346744482,0.3503142774,0.631339759,0.2589960841,0.0340065316,-0.8116273659,0.353475907,-0.8440622159,0.9858220051,0.6713345916,0.8326026896,0.3344957953,-0.5115066112,0.7809255138,0.8142787631,0.3329636164,-0.5952551715,0.7752745958,0.3298251533,-0.4424146017,-0.7627193691,-0.5856956603,-0.6863795895,-0.4299344443,-0.0277302066,-0.4445547712,0.5756082042,-0.0562840251,-0.3649880792,0.2897595716,-0.9195299583,0.1540501888,-0.7687498588,0.5544120084,0.198321508,0.8816159978,-0.7496708098,-0.2667157679,-0.6326055113,-0.4898363899,0.8982285671,-0.2132558253,-0.9695999156,0.191575758,-0.3725940409,-0.3208440447,-0.2533587403,-0.7607725938,-0.9019011539,0.2745173823,-0.2157657129,0.7924133084,-0.1540399717,0.6134162301,0.0440680091,-0.8579463408,-0.2730806514,-0.942319281,-0.3237552745,-0.2486261243,-0.5680267043,-0.9396140912,-0.0756386635,0.7646950503,-0.2830268866,0.7049347167,0.4393898709,-0.7398500698,-0.6711767436,0.3034207458,-0.9722101435,0.6225922961,-0.2899618792,-0.3542086218,0.5661092769,-0.9950955637,0.7629492138,0.1414877928,-0.7589891881,0.6947016845,-0.0478882993,0.6611359097,-0.8089901829,0.7605818543,0.0021588568,0.5158750894,-0.3784584223,-0.5958088359,0.4533934506,0.9834084745,0.8629117044,0.5766288062,-0.7982089277,-0.2871283886,0.3419264916,0.84900249,-0.0799648052,-0.5833707578,-0.4156215383,-0.1485522949,-0.1113964241,-0.4345948806,-0.1733340782,-0.2819687515,0.8719262897,-0.5998897376,0.459595982,-0.2862845517,-0.4777069487,-0.9417401692,-0.0812897759,0.6113363188,-0.9586200059,-0.2416730246,0.1788683482,-0.8252601541,-0.1138511493,-0.0618667342,-0.1088051205,0.9482714412,-0.3601936913,0.1361889917,0.6678887942,0.8316692382,-0.0467891699,-0.3108935327,0.7075831305,0.7749052905,-0.0419188421,-0.5123399576,0.1166207098,0.012429662,-0.7873365608,-0.7094185103,0.1550857822,-0.9389550966,0.4692466967,0.8876513013,-0.4916578316,-0.4960002386,-0.57328297,-0.3698142047,0.6253496605,-0.9059367084,0.7570056184,0.9597926967,0.6087693528,0.4235615458,0.4443906712,-0.9795747443,-0.7542633067,0.0842558683,-0.1803260403,-0.4763522844,0.0333724075,0.4596345287,-0.1722786615,0.1596978332,-0.1809702592,-0.1362686638,-0.9465864416,0.1061282498,-0.310835791,0.7028872427,-0.4129393713,0.5700195556,-0.9202015175,0.3046984926,0.66341376,-0.1415557867,-0.8385044846,0.7913786803,-0.4049478011,0.0634629189,0.8457804786,-0.9442438496,0.0688448603,0.2165912171,-0.4570985835,0.802176527,0.6469619816,-0.5936000277,-0.5068839324,0.7666096483,-0.0398220136,0.6199524084,0.0237110637,-0.1545841862,-0.740365122,0.8000368873,-0.4664045386,-0.9323104932,-0.4075259576,-0.5837051117,-0.4864779542,0.7027764911,0.3114771423,-0.2634593221,0.5787338268,-0.0964648131,0.6362357849,0.6488983844,-0.2015667024,0.2629915484,0.9351273904,-0.142454874,-0.1658540491,-0.9979106922,0.1642626877,-0.9689265297,0.3721694073,0.4405384376,-0.6191613278,0.4852546,-0.6194678023,0.1938848403,-0.1103755435,0.933688336,0.8975160022,-0.9847561492,0.2326089787,-0.9228501408,-0.1044172057,-0.8021139618,-0.6515981439,-0.7817618041,-0.1009521508,0.8514550368,-0.0487740071,0.4546813212,0.2889410874,-0.8493061301,-0.4312803043,0.8412232527,0.0534347884,-0.2426661194,-0.3999270939,0.294513693,0.7915933818,-0.0895184851,-0.2029801089,0.2404479015,-0.9116864101,-0.4730236454,-0.9648449529,-0.4975884793,-0.927986887,-0.3175723047,0.786580351,0.5941241333,0.0708543461,0.7249720053,-0.4354393932,-0.0310228286,-0.4130266763,-0.7674801642,0.8212201737,-0.6764538145,-0.8523480418,-0.6798546105,0.4342135101,-0.6642784778,-0.4050724969,-0.8580611465,-0.9510681766,-0.7028732381,0.0245479287,-0.2772886725,0.6264973339,-0.9575017093,-0.7621509043,-0.1425114752,0.229408847,0.3901939342,0.6391327163,0.4271491913,0.1569405935,-0.2525021048,-0.7436568351,-0.044857394,-0.3710345601,0.1130213243,0.4074664206,-0.2128617911,-0.7740619702,0.0452690235,-0.6678760764,-0.8771569688,-0.083398296,-0.5099358398,0.1677305869,0.9236617267,-0.471430624,-0.0893118717,-0.4675004572,0.862824426,-0.7736256929,0.8491811003,-0.635928688,0.1865484239,-0.1950097275,-0.5747384252,-0.342727186,-0.6825045572,-0.7510020032,0.2508758354,0.0930385336,0.8374600166,0.4859081619,0.4370280897,-0.3129605812,-0.7554616575,0.1723258422,0.1016042492,-0.0144809677,-0.5046562707,0.3489677431,-0.5881057637,-0.5228718793,0.8294441216,-0.9447191759,-0.769821066,0.0356963461,0.799634572,0.7529640634,0.0407011096,-0.140054968,-0.0266760386,-0.774633628,0.976446985,-0.4388711489,-0.4041749156,-0.8153422651,-0.5726346598,0.764225878,-0.9335074453,0.208552611,0.6318270524,-0.9257921215,0.676188543,0.6312305222,0.329012006,0.4550205696,-0.9477976084,0.9998385926,0.8824255367,0.9784791914,0.4924507624,0.4891342163,-0.1706261971,0.5604798999,-0.4523855087,-0.2855939309,0.8317245324,-0.7710403122,-0.4087435069,0.6802160407,-1.050463278,0.3158976957,-0.0598319592,0.9017888614,0.9869053375,0.573195688,-0.7762980511,-0.6149068951,0.4141604108,-0.1096829235,-0.1289420318,0.1356432817,0.1347158145,0.1378776301,0.2622121491,0.1077624093,-0.2403772617,1.0261812343,-0.4322929761,-0.1456313559,-0.4373592182,0.0549775945,-0.1022497812,0.4226718502,-1.040441438,1.2308925282,0.0804624238,-0.0086839197,0.0290054177,-0.0008910812,-0.685829442,0.2721915472,-0.4180821342,0.0000877324,0.6797778433,-1.2355610442,0.175642594,0.5267678275,0.9114344679,-0.2375913012,-0.0542192725,-0.1443596088,0.1893618058,0.0207593041,-0.0194274634,0.7432796953,0.0595188198,0.7310215153,1.3134404872,0.4021192426,-0.1604216795,0.2487547392,0.2123816631,-0.6963537855,0.286196422,-0.9199137127,-1.4938945703,-0.2213423064,-0.3687110068,-0.943170623,-0.0117491678,0.0836906002,1.4785273011,1.5177274315,-1.2694176478,-0.1518772603,0.0717405616,0.1157919142,-0.3107351315,-0.4213075671,-0.4794628094,-0.3460212323,0.3396880439,0.1573030244,-0.0738066252,0.1632221922,-0.4001094102,0.6440325333,-0.5283725748,-0.4835788684,0.005984746,0.8329322795,-0.3313394073,-1.2665015054,0.2451016369,0.5808792074,-0.1530015703,0.6366187032,0.476915876,-0.3100597516,-0.7087685944,-0.3200694589,0.0966902738,0.7218496418,-0.1921997829,0.6121981928,-0.1624295452,-0.792165908,0.0680579771,-0.0124911359,0.2161145199,-1.3542605691,-1.3576900903,1.0794221496,0.0947936325,0.1157939629,1.0341837984,-0.2132572005,-0.5986195147,0.4264269295,0.6355129,-0.0435600838,1.0189982228,-0.0009721817,-0.01949402,0.5770567302,0.4813276975,0.8919434667,-0.7113499514,-0.3474029442,-1.538365037,0.0002972118,0.3477850539,-0.3833652547,0.0106470461,0.6753524386,-0.3507850228,-0.2288314046,-0.1319572992,-0.0092768715,0.235226,0.2187652265,-0.1389618498,0.4238894072,-1.0581794785,0.1393390327,-0.9408276817,-0.1850242566,-0.2229934091,-0.6765765405,0.0638697248,0.187681084,0.4390568992,-1.411982933,-0.9278295444,1.7853122746,0.0577689593,0.9308040481,-1.0654761753,0.3381749553,-0.3304074278,1.1057823004,0.954733359,0.2351909166,0.8963563518,-0.6738672702,0.8121654357,-0.2976972007,-0.9019828091,0.6202980059,-0.9847725105,-1.4207244194,-0.6789253877,0.3662606176,0.2053792234,-0.2299110826,-0.0758937325,-0.16954617,0.0284416672,-0.2444199674,0.9988968893,-1.4288396088,-1.3203737134,-0.2842015401,0.5507156463,-0.5176393133,0.0977567685,0.1370677733,0.0647641237,-0.0192647429,1.720158399,0.5008484337,-0.1161462308,-0.1207711137,1.591483418,-0.8745269154,-0.3566939932,-0.9625945881,0.1497133062,-1.2809415835,-0.3606786734,-0.0016114193,-0.1312301947,-0.3232194623,-0.1987968987,0.0265810586,-0.4140395621,0.1020300686,0.0688465832,-1.1169122293,-0.3713222828,0.3243251559,-0.1952485812,0.6240023264,0.1087430954,-0.3237852506,0.5727580799,0.216343845,0.986832775,-0.0037596958,-0.0114797987,0.0745365569,0.311610127,-0.2348138391,0.4900644177,0.3724632574,-0.0158847918,-1.6702833333,0.2384225147,0.1972338734,0.4621412092,1.0208261111,-0.3188921128,-0.2975096645,-0.8892933305,-0.1951491657,0.3204621873,1.246239436,-0.2281039453,-0.4040365123,0.0251447495,-0.762448462,0.8658567532,0.0786089295,0.4800708153,0.1177271782,-0.8230300138,-0.7550404671,-0.4269155915,-0.4019819818,0.6585936815,-0.0515831148,0.9000730141,0.7334502218,0.8242471373,-0.5441566776,-0.8543024991,-0.6037314624,-0.5088508939,0.3058476719,-0.2228197215,-0.4186698733,-0.0755480083,-0.405816855,0.4247880209,0.7425881581,0.5317158863,0.784889305,-0.9022721641,0.7740183799,0.7921184384,0.651087152,-0.547250062,0.0225518146,0.7993312683,-0.0732877142,-0.6709264862,-0.6010583242,-0.139699369,-0.0758316397,-0.9262501642,0.3816580142,-0.7104514314,0.3825363626,-0.406768166,0.894230786,-0.4948864011,-0.2687737495,0.0897298162,0.4809371905,-0.2723465983,0.865655135,0.9403622448,0.071074577,0.3315074708,0.3185517646,-0.6041932346,-0.2617054484,0.6015031494,-0.6965965963,-0.4056563213,0.7290441281,0.9160478469,0.8701368871,-0.6032006631,0.8399900332,-0.4296486922,0.5109149349,-0.9765312156,-0.2200611579,-0.3046342405,-0.5275593429,0.5651162311,0.3778194844,-0.8658472136,0.3046938,-0.097010842,-0.4173932577,-0.725349092,-0.3827580994,-0.3553746498,-0.8395312104,0.7931123879,-0.7340218741,0.6349968693,0.025549346,0.3179589474,0.7629472259,0.056406377,0.4792316457,0.3740432731,-0.9573592884,-0.3959415434,0.1095562646,0.1253461372,-0.0463326906,-0.9501090267,-0.7276567841,0.6452432625,0.629763617,0.1746491581,-0.8617419665,-0.3815858246,0.5578275436,-0.5980514202,-0.5909968117,0.348483568,-0.4800794023,-0.8495601816,-0.6714848273,-0.2989547034,0.6017088992,-0.141165827,0.3648993869,0.8690770735,0.2277801093,0.6288684268,0.7245353853,0.8783993583,-0.0987731409,-0.1741929818,0.782090993,-0.2819791687,0.1475467067,-0.9426392936,0.2179187577,0.9219882944,-0.3035111883,-0.3593600716,-0.3217501051,0.7651791379,0.2494327034,-0.0786617675,-0.034975472,-0.2878905212,0.342983206,0.0522882095,0.6331820884,0.8726113425,0.0684269794,0.391393074,0.7007575092,0.0225521077,-0.5809345581,0.3657371096,0.9112709339,-0.1329629679,-0.321096379,-0.1563167776,0.380359533,-0.2796707033,-0.0755836224,-0.7511487997,0.1412705941,-0.9828534443,-0.799026296,0.609026306,0.4656029492,-0.5669751682,0.2750592513,0.8460587055,0.2367967675,0.6530534051,0.9613028216,-0.4957839915,0.5189935982,-0.1051457102,-0.760558593,-0.8283841862,-0.7124724873,-0.424955616,0.934118356,-0.240436492,-0.7497777031,-0.2437744475,0.8250018098,-0.0867348131,0.9726939121,-0.9500022635,-0.411973101
   0.84201206,0.4060061585,0.1971972679,0.7071913876,-0.0463977398,-0.6245033206,0.4782696559,-0.6257060964,0.6656151513,0.6721931264,-0.0617758109,0.627599822,0.661900738,0.4903231873,0.9912505032,0.1303268908,0.1686937912,0.5283923676,-0.6206104328,0.0321435093,0.0850263453,0.6100479421,0.8551518556,0.9217365584,-0.5239217962,0.4746857815,-0.8267001829,-0.0785211146,0.4417704974,-0.7841425562,-0.5130091055,0.2558004235,0.6836946079,-0.9993218846,-0.2923873738,0.5716245885,0.0645992634,-0.0122724613,-0.698915633,0.6574335335,0.5967298691,-0.9012683108,0.7821487902,-0.2676344152,-0.4535443465,0.7491255452,0.8847536641,-0.3022437723,-0.8079378062,-0.9825131502,-0.4135173383,-0.4783894922,0.0076742215,0.9851899172,0.996117263,0.9299935948,0.07520386,0.3963117713,-0.2030839938,-0.4727706333,-0.9853693445,0.1336953524,0.7741800371,0.2490170126,-0.7426100851,0.1423166518,0.8861257162,0.7106420676,-0.7442861973,0.6548925952,0.6606786949,0.0865395512,0.0035039903,0.9311385638,-0.9287484795,-0.1804271166,0.017323343,-0.2384158617,0.5454863604,-0.5126369392,-0.2111152946,0.9936623772,0.8639928756,-0.990985494,-0.5017295152,0.2543367603,-0.124774534,0.6534565792,-0.0399411689,0.0249885658,0.9078134492,0.9578415648,-0.4685945399,0.9822781184,-0.0572821501,-0.6677847003,-0.0251835528,0.4842071775,-0.9661820686,-0.1727357449,-0.2844998767,0.5391836479,-0.5441491814,0.2579756206,0.5597652102,0.1474200625,0.7753601674,-0.4969450972,0.1372085796,0.2132120173,-0.6572367273,0.0295651241,0.9401224721,0.502547911,-0.0365093111,-0.1645749425,-0.6217960476,0.1014993497,-0.070345509,0.5603499792,-0.2399242842,-0.3743256745,0.2399615176,-0.2161625925,-0.3038762023,-0.9003559676,0.9009750074,-0.3625650501,-0.1574267272,0.9032568755,0.058873927,0.0772196244,-0.190390567,0.097602592,-0.1833785792,-0.8412894812,-0.3418631158,-0.0806412575,-0.4922862131,0.4661935486,0.5036392044,-0.2187483975,-0.2446033464,0.1349221507,-0.6094089436,-0.9982520106,0.5774805988,0.9491708455,0.0863327367,0.5524064452,-0.4966176206,-0.2225780754,0.4276770628,0.5213788352,-0.4947207367,-0.5291272646,0.6127633592,-0.0451750372,-0.2570119644,-0.5360311174,0.8367152712,-0.4260221401,-0.8863182368,-0.6082638636,-0.8650487905,-0.5106657445,-0.7291679536,0.7362419914,-0.2004352177,-0.6569443663,-0.3910539759,0.8098772301,-0.5370541913,-0.1029036869,-0.9526644072,0.0349672418,0.1311109652,0.1780548968,0.9014487805,-0.4188313624,0.9812764896,-0.4857548589,-0.6901966527,-0.450809079,-0.5305657395,-0.5861860041,-0.9351536256,-0.3646706245,-0.9490185994,-0.4612618976,0.5457345694,-0.0527846367,0.699782757,-0.307506938,-0.3961726892,-0.0344613691,-0.3746950683,0.6146076892,-0.7096877087,-0.5543808485,-0.6725182291,-0.9555858436,-0.8257674159,0.5076252844,0.7482239728,0.7784380503,0.6752105502,0.8518121939,-0.3931693821,0.9197651732,0.0379305549,-0.5015480114,0.799826332,-0.5134610444,-0.5368275616,-0.8352389371,0.9242311802,-0.8779279497,0.3877881317,-0.3200333056,0.9817277274,-0.0180451355,-0.4390712707,-0.6730838176,0.7742644475,-0.2690125491,0.1978337598,-0.6874917114,0.2976084026,0.552870855,-0.1467736625,-0.7022524798,0.8176637756
##end
biasActivation=0,1,1,1
[BASIC:ACTIVATION]
"org.encog.engine.network.activation.ActivationSoftMax"
"org.encog.engine.network.activation.ActivationReLU",0,0
"org.encog.engine.network.activation.ActivationReLU",0,0
"org.encog.engine.network.activation.ActivationLinear"
