encog,BasicNetwork,java,3.4.0,1,1532881662418
[BASIC]
[BASIC:PARAMS]
[BASIC:NETWORK]
beginTraining=0
connectionLimit=0
contextTargetOffset=0,0,0,0
contextTargetSize=0,0,0,0
endTraining=3
hasContext=f
inputCount=16
layerCounts=4,26,101,17
layerFeedCounts=4,25,100,16
layerContextCount=0,0,0,0
layerIndex=0,4,30,131
output=0,0.3333333333,0.3333333333,0.3333333333,27.5468044986,71.2478505062,79.0850202271,0,0,0,0,47.7195613404,0,0,4.7129098188,21.7900547898,0,58.8358475295,0,0,0,57.6049964612,11.336101838,10.6494617289,4.6422371491,0,8.9845404342,86.4637734326,0,1,0,16.0352503907,0,0,32.4330972765,0,0,0,19.4771450521,0,0,17.5565794306,2.9967943179,28.9948849971,20.7960225577,29.8716497409,24.2454799194,0,32.8281518276,0,6.9390309074,0,10.1629700744,0,0,0,0,0,4.4568679408,0,0,12.1851777829,4.691106767,0,0,7.9440392942,29.4313476283,9.8447684388,0,0,0,0,0,2.9723563073,29.7865345841,0,0,0,0,0,0,0,42.7113345346,0,20.3579269994,0,0,0,0,0,0,8.425160143,10.0327217797,0.7212478008,3.8675954788,0,0,0,0,0,25.4700921432,8.7753917128,8.7739910448,0,6.0212534976,0,0,37.3974731336,0,0,13.7161473156,28.9674640321,0,47.4130212169,27.5205054151,0,0,0,20.1584517124,0,8.1704928705,41.365765478,4.1820784766,0,0,0,3.9648579776,0,0,36.2777239254,1,0,0,0,4,0,4,8,2,2,8,32,2,0,0,8,2,1
outputCount=4
weightIndex=0,104,2629,4329
weights=##0
##double#4329
   0.0069402801,0.4787179898,0.6234609271,-0.8723193279,-0.8813076383,-0.0143606683,-0.3874849541,-0.2025164861,0.1032381076,-0.6239216255,0.1659079749,0.337428174,0.6524592661,-0.667585321,-0.3919957371,0.7577365484,0.5473201331,0.0067199721,0.7356195344,0.4842299551,-0.1107884311,-0.3347134192,0.7132124762,-0.9457607512,0.6589587262,-0.3516326247,0.5929659994,-0.0305090551,0.879166205,-0.6902770013,-0.6863949643,0.1619570567,0.5267189693,0.8451936517,-0.1160318016,0.7743490733,-0.7440093568,-0.1327046797,-0.4209745264,0.6239100741,0.1285451734,0.6600057197,0.8400588112,0.0107066946,0.4630794869,-0.6036672914,0.4144502768,0.3431183678,-0.9331274235,0.640914425,0.3514944514,0.8855414876,0.246844826,0.3844747294,0.3631306117,-0.4431045698,-0.0613875928,-0.3193800425,-0.1156425034,-0.5236214518,0.9123063405,0.711180362,0.6991109344,0.3860174141,-0.5506731083,0.5516651196,0.3942226751,0.1073048902,-0.4526890364,0.6075429105,0.0610537396,0.2102698794,-0.92030816,-0.3936818391,-0.119471877,0.3597494658,-0.4799349997,-0.6215344513,-0.2362451884,0.0743713958,-0.5029983425,-0.6409286302,-0.1603271607,-0.2930535818,0.7526585523,0.6263319752,0.8298110787,-0.1760139225,0.3138939335,-0.8535851896,0.9278336527,0.556056937,0.2967799455,-0.9188528953,0.515878132,0.5218638962,-0.6006346876,-0.5386814266,-0.7602304171,0.446737689,-0.7254927998,0.5422371792,-0.4657583371,-0.7550652876,-0.8105576917,0.8341168218,0.7318331076,-0.9675354097,-0.4367844401,-0.0836410343,0.0814881487,0.4786993313,-0.9479230518,0.8920110813,0.5499767259,0.2224040438,0.0905024983,0.0380694253,-0.105258165,0.1426102185,-0.9335712832,-0.8792192129,0.4832011336,0.893497833,-0.7052963627,0.9078064072,0.3290854325,-0.6996598318,-0.0895855217,-0.6456434721,0.5250680664,0.1631291635,-0.7172833617,0.6039318677,-0.7961869548,-0.5649966007,-0.2824011756,-0.380104306,-0.9456716792,0.8289331829,0.3451753439,-0.6231103477,0.6255919615,-0.2353446234,0.5542110101,-0.7094894653,0.9102589921,-0.070784451,-0.9292647018,0.1873525812,0.0984281341,-0.5275997547,0.7463003983,-0.6660414654,0.1064256989,-0.1006580697,0.311944433,-0.9097326774,-0.5551683295,-0.4422399429,-0.3557641857,-0.9012860699,0.6963390562,-0.3808633841,-0.4502757125,-0.5657059186,-0.9524868671,0.1952458672,0.634124105,-0.9258821349,-0.5102857258,-0.1732634362,-0.4061771079,0.1739585567,-0.2133714092,-0.2763917887,0.9034355953,-0.1228970451,0.590484425,-0.16032209,0.7149002041,0.8157788787,-0.7612015862,0.7614759853,-0.0294286987,-0.4070320089,-0.2190363798,0.7403455882,0.6719737972,0.8410510039,0.1196990163,0.2628275587,0.2093033242,0.4686643005,-0.6696998421,0.8751634872,-0.6687804221,0.4097599472,-0.8775211078,-0.7848352935,-0.6921730796,0.956770818,-0.3088318594,-0.4989620938,-0.6721468994,0.1677514704,-0.7848013791,-0.9377774286,-0.1335932296,0.3259047954,0.370475414,0.1489267655,-0.2881886713,0.1593069406,-0.5042458508,-0.128280756,-0.9674220095,-0.9676061516,0.9658262956,0.0154247941,-0.454739129,0.2124630285,-0.9638945112,0.6241865042,0.0837739176,-0.9086104375,0.0304398722,0.935021486,0.2957139329,0.3842171332,-0.1342379203,0.5901252897,0.8164387475,0.6544313715,0.1529981081,0.1677556723,-0.2643396989,0.6306075442,0.8977860346,-0.938673293,0.8635778903,0.8379511211,0.8992184023,-0.9505486863,0.1588242574,-0.1723496821,0.8696257283,-0.4200761961,-0.6633080033,0.3291187562,0.3226332876,0.4479267444,0.3244491315,-0.2638676244,-0.6692837268,0.4038016512,-0.3031173487,-0.8309081503,-0.4287041478,-0.3733823492,0.4052366754,-0.0656091205,0.4342737057,0.3257223027,-0.6093360081,-0.7530145524,0.4595396218,-0.4021588988,0.6868170637,0.8195542503,-0.8745140918,-0.5121320477,-0.8112031476,0.3918098306,-0.7233068233,0.947499466,0.9209284754,0.6791789562,0.780630583,-0.6340087795,0.26629233,-0.7898122555,-0.6610416095,0.422533775,0.5449797803,0.5131063332,0.2240954558,-0.1951400689,0.701307025,0.6541160801,0.1394802039,-0.2450994647,0.8448577957,0.3671180697,-0.9359700391,0.1154295092,-0.5720184936,-0.5300839049,0.6729673038,0.7985263964,0.3636654791,-0.7947872621,0.7656922751,0.4794444626,-0.4841386567,-0.9761035533,-0.314512438,0.2400051625,0.3138470481,-0.1820182761,-0.5706703734,0.1933049729,0.8918422131,-0.9461182339,-0.2563659261,-0.739751057,-0.7331849054,0.6984976768,-0.9982215878,0.3712240166,0.2981834859,0.8669399458,-0.2035725073,0.6915444734,0.0688896056,0.6552626231,0.9223951785,-0.1998842373,0.989732947,0.3594598464,-0.1236768136,0.8919447269,-0.3034252354,0.8044727422,-0.6921416895,0.3806925467,0.3035355613,-0.5015735852,-0.7113405659,0.4579546338,0.5032181887,-0.0606671359,-0.9740480103,0.8509335611,0.1561334846,-0.6326837467,-0.4170480283,0.1040554307,0.5110392487,-0.0399027363,-0.3284939378,-0.2552107646,0.3348636866,0.714076198,-0.0808616126,-0.3417289076,0.5364821206,0.9746184692,-0.5601675417,0.4091921934,0.018447623,-0.4438858494,-0.6890851293,-0.617230751,-0.2830357737,-0.6037681722,0.3854827312,-0.3389507699,-0.2394262126,-0.5368333694,0.1246625862,0.4944251886,0.5574810269,-0.6538646737,-0.0868356119,-0.37424021,0.5395694883,-0.452789759,-0.2238798841,0.1748893921,-0.7093473374,-0.5541347301,-0.3820115485,0.5010892645,-0.7299680376,0.3977217307,-0.450718395,0.7466627919,0.2195196369,0.793757989,-0.6114268387,-0.9462075566,0.9822236848,0.6595785348,0.5268554025,0.3169700222,0.3047452681,0.3360667081,0.5803472331,-0.0265131971,-0.7194198638,0.6162141367,0.978417256,-0.3242890827,-0.7096022466,0.3709350577,-0.5612003616,0.28172859,-0.0837471399,-0.5286409199,0.0800402569,0.8926670773,-0.9664163513,-0.5537575895,0.2736585908,-0.2090760963,-0.2094746172,0.9958502728,-0.97878764,-0.8156047096,-0.9826488639,-0.7228467153,0.9093626521,-0.876532347,-0.3856729639,0.2210940566,0.6914235335,0.5809681745,0.2082463891,0.5542952697,-0.4509595269,0.2486323446,0.7300355597,-0.6017445169,0.3626420672,0.6068802881,-0.5118581435,0.1638064175,-0.3551402499,0.5978511632,0.9093681244,0.0757038956,0.2466978281,-0.2044923074,-0.112364779,0.8643654818,0.4288592281,-0.7943390815,-0.6780235452,0.0927518342,-0.5433886379,0.5653974482,0.5849469998,0.2640945569,0.049656381,0.7879025729,-0.3852270951,-0.7425421231,0.1037695239,-0.3286212385,0.7332655734,0.4423398754,0.7399387867,-0.4102605816,0.8745660327,0.3070533669,0.8576118773,0.7992334321,0.5936930628,0.8118071269,0.52640647,0.8834226072,0.1918098192,0.7639852305,0.3311032942,-0.7955896473,-0.4501852282,0.3287245496,0.4111454751,0.0866652353,0.9984662524,0.417486963,-0.9178545955,0.9591616511,-0.2690625907,0.7900737891,0.7548889589,0.0397624292,-0.4125613586,0.9458384802,-0.8916271031,0.5701024954,0.1049021416,0.6605783308,0.8023537952,0.7369598328,-0.5733591651,0.0983163549,-0.3018481665,-0.2212134555,0.6772787632,0.8923277355,-0.8711186805,-0.3012761024,-0.6269663858,0.1029896317,-0.9523825305,0.9894737127,-0.6453073166,-0.0241154017,0.8471253556,0.2610631264,-0.3553530324,-0.8080323315,-0.0775180101,0.0625038712,-0.8111742889,0.2021230874,0.765117422,-0.1027876513,0.2468619487,0.535503508,0.764668943,-0.8560943612,-0.7841476646,0.6859618691,0.1614384125,0.3582319409,-0.553159455,0.4066281297,0.0232797476,0.2331536494,0.3560342071,-0.8595357545,-0.5818733594,-0.2821116556,-0.1227606851,0.2169294183,0.2409800299,-0.2986665642,-0.9276195754,-0.083889117,0.3574671336,0.2476093826,0.4746282509,0.0394316305,-0.2213150593,-0.9068752088,0.6973247141,0.6668849062,-0.7950491227,-0.759998738,0.5932790784,-0.4609621806,0.9010956463,-0.1419359392,-0.3838518138,0.8051915564,0.3008986153,0.2019249268,-0.2132601981,-0.5716783961,-0.0985053706,0.7063290655,0.2389499326,0.0772013486,-0.508399802,0.8742449295,-0.0690179063,-0.5098957798,-0.4443230987,-0.6960522615,0.0558099549,0.9942808976,-0.7960757708,0.7452330158,0.0488181577,0.4604656963,0.3065303562,0.6361124838,-0.9000982203,-0.9852471542,-0.2490561995,-0.7192508606,0.8582278579,0.8415433494,0.2455849526,0.7823479498,-0.1839864105,-0.6770275032,0.2250863276,0.6095241699,-0.8609921207,-0.7582800014,-0.0782077787,0.2088625265,0.7063873639,0.9567872981,0.3979836045,-0.8195897639,-0.7669256876,-0.6699530119,-0.2993219883,0.6926504119,-0.8237052496,-0.212106219,-0.9190638023,0.5612017835,0.9588400986,0.2436150119,0.0982785951,-0.387925836,0.8280122016,-0.2986650239,-0.0118554622,0.6056189183,0.6814331835,0.7291521439,-0.3318137301,-0.57645696,-0.2885402053,0.7572350306,0.0782391577,-0.5526623213,-0.2491304508,0.9897502223,-0.4076289203,0.7507811412,-0.0719869055,0.9861716604,0.8181274105,-0.9005492504,-0.3399732741,0.073763776,0.2361087289,-0.0642573782,-0.2704633005,-0.6010238706,0.9585932892,-0.4836121879,-0.1830200697,-0.4752645891,-0.443570614,-0.5060123971,0.5168275253,-0.7898551535,0.8274952101,-0.019174873,-0.2986285886,0.0287796233,-0.5194630873,-0.0491510201,0.8272172808,0.6591658195,-0.4089660263,-0.5277391865,-0.9412752259,0.5723305497,-0.2061801583,0.9745562952,0.5542444467,0.7531942633,-0.8361020567,-0.6199619508,0.3979911079,0.5970882012,-0.837118701,0.7123387838,-0.6939635231,0.1888041719,0.3892553777,-0.7618376619,0.074870245,-0.5215801753,0.8697206604,0.1156197578,-0.6878637025,0.0856715496,-0.4440614897,0.2597202092,-0.9857792805,0.5079492914,0.7722474566,0.1284556073,0.9339817409,0.3522835585,-0.6229430515,-0.0134387558,-0.2133782283,0.3140569614,0.3949752576,0.828725569,-0.2757351974,-0.6005914497,0.4506449979,-0.8034265894,-0.313152627,0.6461161461,0.5148321231,0.745548012,-0.8629971109,-0.348708628,-0.2846101093,-0.6170220552,-0.306579064,0.8319250781,0.8198001993,0.5518346921,-0.0953826516,0.6205202193,-0.9453242095,-0.5734713849,-0.6618420434,-0.1117015254,-0.7970751056,-0.7892599594,-0.470461977,0.5919355747,-0.7622334339,0.8266446018,-0.5865426173,-0.4765366419,0.1218308604,0.8488770494,-0.8011878159,0.0253839263,0.1866473099,0.7148022686,0.6300194742,-0.8179022562,-0.7885037283,0.6070830875,0.8229984429,0.8474569563,0.2879649589,0.7389506702,0.025312743,0.0127975099,0.2328215532,-0.9307863411,-0.6916935374,-0.5490759994,0.7522891421,0.4352347324,0.251056047,-0.0140576988,0.8396685447,-0.7840094959,0.9747076651,-0.9425627055,0.9350228297,-0.5258832652,-0.9241557768,0.2122677644,0.937374115,-0.250298784,0.35564439,0.231752094,0.5700536619,-0.8669287943,0.8142591475,0.3039719996,-0.8007473133,-0.3217764109,-0.5760284901,-0.9861640132,0.4693718625,-0.6529363756,-0.4644112059,0.1090238173,-0.3249395651,0.9576729943,0.2550113243,0.4589217764,-0.2697235965,-0.0876155328,-0.2393294711,-0.2314431296,-0.6260483311,0.2919306343,-0.0544295151,0.8666373088,0.9225987683,0.6951669978,0.3286562197,0.4735990381,0.8698158482,-0.4024585784,0.6987675845,0.4405821419,0.3496609232,-0.1262201115,-0.3290328676,-0.6907740515,0.8672866408,0.256585639,0.7434816671,0.48734178,-0.1940698259,-0.4420085287,-0.5510240749,-0.7904260534,0.8159416867,0.5363285502,0.6418491377,-0.5278425395,0.7194422589,0.994194204,0.4834826711,-0.5268836046,-0.4749747717,0.7894502784,-0.6539995498,0.2341631139,-0.2917394514,-0.3517142991,-0.913869533,-0.0981673215,-0.4982748615,-0.0011488917,0.0919815462,0.8972244541,0.6831547853,-0.3568283382,0.9479118167,0.6909441988,-0.4951279326,-0.2877275604,-0.3179770109,-0.5599168041,-0.6691556425,0.5764719666,-0.6364703849,-0.5343097569,-0.2280936728,0.382589556,0.6054256727,-0.019324542,0.6540172367,0.3612424124,0.214629806,0.9579177685,0.5191380422,0.0883917097,-0.5937528311,0.4250574598,0.0870014763,0.4915801414,-0.9274798795,-0.3529619289,-0.3014013059,0.1473054451,-0.7084117087,0.2526150757,-0.2109725403,0.1420725418,0.4520248338,-0.6726928894,-0.7650275899,-0.4763243145,0.0150498504,0.044029453,-0.0935687893,-0.178655363,0.8995279816,0.4872242009,0.6020411748,0.6221022443,-0.6173281956,0.3261892179,0.1769345168,0.0002430494,-0.2913671971,-0.2949108871,0.9001607995,0.8262294452,0.4078475464,0.6159398477,0.7855809852,-0.8180790044,0.8435237483,0.8191821186,-0.7168177562,-0.0894461641,0.8960610331,-0.866532377,-0.1833658264,-0.4968746356,-0.5878892537,0.9580382068,0.282450179,-0.7828639762,0.1785004265,0.4676964846,0.2988686599,-0.187160912,-0.1890835166,-0.866818527,0.3623387671,0.2729549956,-0.4584574364,0.8240455804,0.655794602,-0.4476728999,-0.6744589285,0.3642718241,-0.5643194955,0.3333203172,-0.8611105103,0.5831980124,0.3120262756,-0.4375138349,0.7994123708,-0.0780782412,0.0408756372,-0.1173340613,0.5945988109,-0.6439478262,-0.5684391626,-0.9321362575,-0.7316249054,0.921083271,-0.2854080987,-0.5322304142,-0.203646301,-0.8602133695,0.2742720129,-0.6832649122,-0.3009244448,0.1396878311,-0.4765431689,0.7914455997,-0.5636555513,0.4108995992,-0.7376577809,0.8050442345,0.4504663637,0.9776059217,-0.7634620656,-0.0963094689,0.3178044072,-0.24889481,-0.0964905151,0.6324184451,-0.7129836145,0.3894084837,-0.8053636168,0.1604478841,-0.746698125,0.4827564113,-0.3105873098,0.7840120022,-0.9457916194,0.7306996669,0.7629179067,-0.2096463644,0.4687752326,-0.2147736476,0.9827135938,-0.20402641,-0.7832047255,0.8030640722,-0.3145474449,-0.0334925541,-0.0447401846,0.5062441899,0.0887470327,-0.232633196,-0.23399652,0.0701217552,0.5449307347,0.7512310938,-0.051061784,0.3815967906,0.7204748777,0.6848119696,-0.8502520417,0.1889819548,-0.3460028894,0.4506536895,0.4599260814,-0.5996003854,-0.5300849648,0.1357410712,-0.5341075754,-0.0241691279,0.2033742193,0.6479617234,0.4017164669,0.0283496265,0.2528031503,0.8981653199,0.6449239073,0.6533173736,0.7129228641,0.6614523974,-0.8429006142,-0.4658011758,0.4931983432,0.4836244312,0.6335331107,0.4441996985,-0.587783057,-0.9598785963,0.2015799265,-0.4636097628,-0.8962027129,0.9270588715,0.1241563472,0.5942134147,0.4168409808,-0.9515167064,-0.796463973,-0.3017728058,-0.8931043072,0.3146379324,-0.5396034429,0.8410675756,-0.9988016338,0.483946374,-0.2159094326,0.3372558155,0.4742261752,-0.527447959,0.7868667678,0.7025806297,-0.6317638556,-0.6148222803,0.4771174269,0.948279082,0.6238746319,0.9378327544,0.4727535247,-0.2118813167,0.1545569359,-0.6029937541,0.4052308073,-0.5160200029,-0.8103957289,-0.4654761949,0.6697176175,-0.0191429005,0.993207521,0.9234106616,0.6252133,0.2333019439,0.9430296801,-0.3504469421,-0.4976967327,0.156657277,-0.2379315365,-0.872254932,0.1442887515,-0.366321329,-0.8359808091,0.5186024978,0.3620602826,-0.0252814999,-0.3003071833,-0.9545837989,-0.280616481,-0.1438034707,0.3752133628,-0.6614096394,-0.7364954543,-0.1684211372,-0.8348494384,0.8150269767,-0.8192133096,0.1360111913,-0.6017967459,-0.4087905026,-0.5131029029,-0.7241505821,-0.9143292592,-0.7486147104,0.4189543715,0.9729317998,0.5244280547,0.4095869177,-0.6235369308,0.467565556,0.0651496602,-0.9313358182,-0.0778569757,0.1392962625,-0.2449062998,-0.6034529754,0.1138735888,-0.3834308492,-0.6877759516,0.3024640165,-0.511837382,-0.8054050796,-0.6774335109,-0.4081470337,-0.4527139147,0.375990936,0.1295184018,-0.1928072616,-0.9818524829,0.4828752492,0.253486639,-0.9871749853,-0.2731461797,-0.5869722209,-0.435140801,0.8738188041,-0.2055607642,0.5924839655,0.2910922241,-0.3332213465,-0.5350767283,-0.9932137727,0.5584947248,-0.4041668874,-0.0803970955,0.0241876893,0.3293086007,0.5924246991,0.2887366335,-0.581678569,0.4015745338,-0.5031992549,-0.5418866132,0.816722553,0.9992789812,0.9854012761,-0.6286498126,0.0848894642,-0.9758549864,0.502203137,0.9018996256,-0.0639610999,0.5021058603,0.181423606,-0.1418563286,0.2172389607,-0.2153052633,-0.5987451973,-0.1160593211,-0.613792777,0.1026402745,0.5626688954,0.6042248201,-0.6371956188,0.9705855682,0.944978294,-0.3277164444,-0.6195541961,0.6707521777,-0.8696147603,0.8413804018,-0.0351685587,-0.1914736306,-0.7891902563,0.2819996477,0.3317788689,-0.9752264297,0.0337203275,0.5696082733,-0.5884922024,0.9361169076,0.0441853267,0.2802684964,0.4686019574,0.0707939792,0.6664318334,0.5535646591,0.3930876399,0.6775685454,0.7481062327,-0.5051137921,0.3314610015,-0.112356746,-0.8068710612,-0.5156221577,-0.4206828009,-0.0185322128,0.2313091985,0.4439365999,0.0778968889,0.8483577033,-0.459617058,0.5313457811,0.2771500557,0.4697942105,0.1020250038,-0.5251138625,0.7473858159,-0.570392067,-0.1054311077,0.131430157,-0.3431093666,-0.2717735755,0.4079871026,0.337376948,0.1397101571,-0.5274361679,-0.6582666987,0.3565486439,-0.0900656167,-0.5900031562,0.1460716423,-0.4904517258,-0.9509233913,-0.4040196254,0.3585535849,0.564176437,0.4953340765,-0.3363088262,0.187787198,-0.5501684007,0.4650027114,0.1533830043,0.8232931474,0.7062946349,0.4200378356,0.1748122806,0.1944102652,0.3815865748,-0.9363094818,0.4226710903,-0.5579511639,-0.5250005057,-0.2005638412,0.4433820109,-0.7337691335,0.0728829694,-0.5122292573,0.5655491447,-0.1475565147,0.0633495529,-0.0198208281,0.3239740094,-0.3472138809,-0.4224157526,-0.4866325619,0.5435628386,-0.2795865326,-0.3363085407,0.0241063513,0.8383270116,0.0901545251,-0.2644402469,-0.2793829023,-0.7379028333,-0.6223666244,0.9435931823,-0.6066031718,0.813852766,0.2665802552,-0.1765221668,-0.9839169601,0.2146362528,0.1280776623,0.1671631211,-0.6392396798,0.7018254383,0.6989023305,0.2694921111,-0.7731476939,0.8873339239,-0.3566401828,-0.3436993778,0.2392466458,0.9749392269,0.4734229161,-0.1374251696,-0.6326904924,0.8587401319,-0.9855568032,-0.9070394533,0.9014457512,0.9737141814,-0.0194811727,0.7491892614,-0.6871731633,-0.4381850117,0.8461646668,-0.629568026,0.9379135612,-0.686494718,0.4532067376,0.4529501317,-0.7941103153,0.9929355032,-0.9922085194,-0.7337714481,0.3336256111,0.9637021165,-0.9502948981,0.8213037469,-0.3522198222,0.4674407023,0.2971985632,-0.7114294667,-0.5462131327,0.7970899805,-0.7882047482,-0.3864120038,0.4580632181,0.1033937229,0.5658271426,0.3928294804,0.0668856011,-0.4321682909,-0.1985453696,0.2038969378,-0.566537637,-0.1123098253,-0.2107309169,0.6775977002,-0.5518698129,-0.7086022959,0.2095102118,0.3654490098,-0.9294931046,-0.5791367608,-0.293022348,-0.6109949509,-0.9432590706,-0.7650185465,0.3550324015,0.6703190961,-0.796183709,-0.0465505924,0.2315547444,0.2448821644,0.0933852842,0.8721818957,-0.0306382812,-0.6178907442,0.5363392825,-0.0040756445,-0.781055586,0.2736948951,0.562923807,-0.7899026434,-0.9569597603,-0.7287340952,-0.7268060592,-0.2075932856,0.2308288356,0.6160321646,0.6494261089,0.5893753219,0.0076548936,-0.6652933331,0.8814926197,0.0520703789,-0.2687769506,0.2762074642,-0.6737486514,-0.3631130805,-0.9902800418,-0.5768366785,0.2157539898,0.4608770446,0.7702765944,0.9085757385,-0.4772384715,-0.6745885656,-0.8448610922,-0.5149735358,-0.0895182365,0.7417068129,0.5456046344,-0.8128946681,0.8685915655,-0.9994977385,0.4180998856,0.1120689386,-0.8736161134,0.9569615842,0.9268735809,-0.332435862,0.9250323398,0.5268964407,-0.3677167735,0.4976069331,0.1895991029,-0.0561404395,0.8367443893,0.2408743916,0.7135582867,0.1799733499,0.1643075624,-0.2813144022,-0.9295717742,0.7516921883,0.0929009968,-0.2316138128,-0.4382701804,0.6504575853,0.3694576994,-0.0494967427,0.2943382645,0.03408457,0.5413575557,-0.4051287862,-0.8097263993,0.9025184231,-0.3476275944,0.1480615483,0.3891411297,0.951427567,0.1819481361,0.1797208548,-0.6198869148,0.9604590207,-0.0986881509,0.6519391083,0.4985772723,0.3752826192,-0.538152031,0.1984366566,0.0898257275,-0.0184100108,-0.9712364121,-0.4281578352,-0.5706678479,0.0646150163,-0.1746033627,-0.9388841046,0.8461060125,-0.4789475018,-0.7260754427,0.1324559273,0.2220474559,0.3344841336,-0.7434471845,0.0234267195,-0.9707521268,0.4299918356,-0.8554972589,-0.9354925658,0.9626430169,-0.0866355184,0.5252842205,0.2230220749,-0.1813845739,0.8893750723,-0.6446200522,-0.3199554546,0.5794795612,-0.8411062021,-0.2961847476,-0.6818184313,0.8364539102,-0.9553535883,0.409200976,-0.46836033,0.7521220591,0.9485494045,-0.7678227252,-0.0697461539,0.9197859081,0.1063781004,0.7272263631,0.2724527434,0.5337512666,-0.9452771483,-0.4472041939,-0.7286196954,0.0168354303,-0.8187724607,-0.901694407,0.4240140133,0.8504485762,-0.9201523642,0.2895825707,0.5892027247,0.99465524,0.5286627484,-0.4169336316,-0.4989280167,-0.911024013,0.7229627402,-0.1509468206,0.9272703183,0.2951619823,0.0822761141,-0.3522712483,-0.5394007425,-0.4694633184,0.5844237949,-0.2728478226,0.4722494952,0.183447356,0.3456996943,0.6942142043,0.7785155531,-0.5966422522,-0.6595629601,-0.5519103625,0.8595168654,0.831299391,-0.8721285532,0.4164217959,0.5627599403,0.7614235508,-0.4835378018,-0.3394788645,0.2363406854,-0.6730769556,0.9695886815,0.4361134955,-0.042306845,-0.5985643509,-0.7991413728,0.032777119,0.5798976946,-0.9706925907,0.561895464,-0.8324563789,0.4842176237,0.0139416099,-0.280117756,0.4156299765,-0.7851151514,-0.027321077,0.9894139126,0.841901873,0.3338760066,0.8249236804,-0.2879524046,-0.7574279764,-0.2020071861,-0.2168541014,0.6269346823,-0.9965638927,-0.2405327776,0.1952849897,-0.8665387261,-0.0604013542,0.7309808242,0.3808277427,0.2329587459,-0.9027449362,-0.0450162129,-0.9074321411,-0.5473174291,-0.1776089867,0.9716433237,-0.1361819767,0.6835859065,0.5870790152,-0.0309598347,0.1881401884,-0.0973726364,-0.180767248,0.083318976,0.8061212025,-0.3864337411,-0.7146867777,0.2082572927,0.0583230538,0.8737208649,0.2531722238,0.0862257787,0.6149563909,-0.7768763174,-0.1382678561,0.9996799821,-0.6822059239,0.8898803621,0.4929406726,-0.1920942905,-0.0617250632,-0.3431251733,0.391454905,-0.4386524762,-0.4712730675,0.0812965088,0.8758599579,0.751798123,0.5080201802,-0.8527690089,0.8393364091,0.8807105389,0.8367076958,-0.1636492907,0.1714270373,-0.5184869288,-0.1642637187,-0.5431097441,-0.0002368911,0.6505701645,0.7919222191,0.7370913126,-0.6503400763,-0.7107928784,0.4132914434,0.4419825343,-0.5683192163,0.5694433559,-0.5670971816,0.7734961091,0.1403392626,-0.4808795124,-0.1613581944,0.304064328,-0.8246405889,-0.2759135687,-0.0481175263,-0.1886689511,-0.6453000427,-0.8306524187,0.4209861344,0.7015009594,-0.9840206374,0.6816529345,-0.6510961241,-0.8286992213,-0.2016872286,-0.3117393987,-0.6908099681,-0.985666948,0.0193407768,-0.9306213182,-0.1622760143,0.4170130357,0.2209222436,0.4185941087,0.9470903263,-0.0448274556,-0.9265949833,0.1449958071,0.0403154514,0.9292882534,0.2534353477,0.9955567222,0.7988873225,-0.8869981394,0.6535471017,0.8650465228,0.8224719786,-0.9177760956,0.6757963284,0.3569311963,0.6028175333,-0.4684646545,0.3726900772,0.5648395665,0.5077976843,0.3652257426,-0.3649772867,-0.6656163333,-0.4603494931,-0.545271501,-0.4156729907,-0.2112813629,0.5545218573,0.8935776666,-0.8685892617,0.6807908088,-0.6614503427,0.1855705954,-0.9568607384,-0.1203005968,0.7539421649,0.3677627341,0.3146962261,-0.7870237448,0.0547926405,0.4274944787,0.4908876037,0.3206720566,0.8294136247,-0.3388055944,-0.3607384379,0.2155946962,0.1755966587,-0.1142370514,-0.1915620787,0.3296645443,-0.4273466987,-0.6496687502,-0.2384706581,0.0180350224,0.259368856,-0.2192698265,0.077914066,0.9170319359,-0.3565733157,-0.056298153,0.77394669,-0.9204755581,-0.0000900234,-0.6697814434,-0.1915277668,-0.5731026036,-0.0663280939,-0.2965268714,-0.0068047368,-0.9697811299,-0.8684836295,-0.0339170738,-0.9583002964,0.1968847755,0.691053418,-0.9529386575,-0.899270935,-0.1745943551,-0.3717622646,-0.1077018619,0.6164153614,0.7842766562,0.1960882836,-0.1500835705,-0.3655274298,-0.4542842214,-0.8728056901,-0.0155691918,-0.6936954891,-0.0767796881,0.8578140786,-0.9041274363,-0.1630267294,-0.6327987745,0.9373571378,-0.3216532264,0.0012861704,-0.8738788439,0.0397033081,-0.5850148568,0.3073609281,-0.9416320519,-0.5888470099,-0.4715799278,-0.9309225633,-0.4542741397,0.9953119949,0.1098827126,0.4369638409,-0.8556882855,0.0515712252,-0.8561754664,0.6229907874,-0.0028328025,0.2020981292,0.6881184663,-0.8160934407,0.8407265516,-0.9864142877,0.4028783654,0.6232054699,0.9166859299,0.3243624203,0.4440144062,-0.9363265676,0.0269260592,-0.6612741797,0.0269495432,0.0664897216,-0.4487598599,-0.1414676956,-0.1487947555,0.318320704,-0.2825082466,-0.2341911493,-0.4799669054,0.863515587,-0.1404532257,-0.6570065636,-0.8434274465,-0.3876474295,-0.296524287,0.0497198468,-0.741302827,0.1014236375,0.3803126758,-0.1043598974,-0.9722880657,0.9525645812,0.6634865993,0.5739316354,-0.1493049396,-0.3813177164,0.4442784525,-0.052077753,-0.9485036305,0.8305165892,-0.152054785,-0.5349502618,-0.6402788679,0.400521327,-0.4916839066,-0.0222684117,0.4232191591,-0.2444219214,-0.3255667064,0.6193851767,0.9392419704,-0.2437870759,-0.1616360952,0.8005720888,-0.23062619,-0.3237803462,-0.2127495325,0.6571172758,-0.172590194,-0.3250090045,-0.7545502378,-0.2670914482,0.7448578424,-0.0559920689,-0.6392603348,-0.4608023499,-0.2106292952,0.0360687307,-0.844473759,-0.1410567145,-0.323073226,-0.5723208011,-0.4218330439,0.2052426561,0.7415738095,0.2193029119,0.6924634161,-0.3687824166,-0.3235389845,0.2642217571,-0.5129285704,-0.6264439452,-0.5725137389,0.8489426502,0.2014994077,0.3062430993,0.9732593056,0.4870596463,0.217621107,0.5926132997,0.8644206499,0.646660778,-0.0621508209,-0.0988169264,-0.1857827333,0.9233229267,-0.9143906616,-0.2871602293,-0.5875100582,-0.7242883751,0.5642950408,-0.2793437424,0.369023715,-0.6383688491,-0.9119426033,-0.4171327984,0.4841342138,-0.0344477078,0.5875191452,0.0149341107,0.4502191559,-0.7443482455,0.6438594715,-0.9480877426,0.364994189,-0.5068019922,0.1256060041,0.8005806794,-0.6502375406,-0.2677384627,0.5676144464,-0.5482014953,-0.5868294921,-0.9453553324,-0.476670264,-0.4930104224,0.3933850007,-0.9295847516,-0.7680947439,0.615372701,-0.7965654541,-0.1140556621,0.507744633,0.7050952905,-0.0346779306,0.3822809606,-0.8325955633,0.8221819965,0.9670297885,0.3920482404,0.9479736052,0.5595783397,-0.3826390231,0.6093153834,-0.291714631,-0.2873219795,-0.2110478613,-0.3273364431,0.6014309366,-0.6847552499,-0.5533648442,0.1401005626,-0.6116237308,-0.4867958037,-0.0686779141,-0.2444602898,-0.3884105621,-0.9663230488,-0.9278114658,-0.3211530471,-0.4667404921,0.6191234095,-0.5239815555,-0.4781709331,0.4302056234,0.5737463426,0.3386823074,-0.4002228777,0.9809395919,-0.2960276796,-0.9605250704,-0.3347666588,0.1117995378,-0.2348790692,-0.6617845987,-0.5013118854,0.4403394201,-0.7549154788,-0.9597581962,0.4790035412,0.3520416441,0.1229055054,0.2260205177,0.2095528928,-0.4619305904,0.9338188021,-0.6624379614,-0.7429412958,-0.2999231448,0.48069299,-0.6470410304,-0.2143867818,-0.9988971079,0.1343642745,0.1574592142,0.4906455602,0.9926323276,-0.0716706221,0.0152994201,-0.8255294244,0.3632803168,-0.1548994057,-0.7316322387,-0.5255671876,0.2495097907,-0.1607877334,0.4908015673,0.44372479,-0.532657208,0.700436457,-0.0072769955,0.8709950427,0.6329137167,-0.7307663004,0.1565081255,0.0862513776,-0.7359196209,-0.6875277599,-0.3417288237,-0.8815110063,0.1917830094,-0.5104014565,-0.4427584978,0.5927780454,0.4876406725,-0.6495680551,0.1214730747,0.7128358297,-0.1481625726,0.3920803084,-0.796949759,0.7363616483,0.2086654888,0.1889117109,-0.6607011977,-0.0804437121,-0.2241748203,-0.1455081434,0.7283478708,-0.8510907101,0.6438890925,-0.1377878883,0.6543116456,0.5398817808,0.6799399395,-0.2470480588,-0.0515604846,-0.7180737455,-0.4575610785,0.65341169,-0.8757340917,0.8746162633,0.3590562784,-0.2793510604,-0.8604704281,-0.7262619739,0.9939729499,0.8701354109,-0.4859141247,-0.405828072,0.2674282444,0.6564929603,0.3665341048,0.0619690267,-0.1800940443,-0.9232202086,0.8291689114,-0.9162259912,-0.0360777274,0.322851658,0.7665401239,-0.4750256339,0.8976619973,-0.7942209876,-0.3231104558,-0.5403856601,0.7210657612,0.0646529779,-0.2984174381,-0.1752503333,-0.6841950065,0.1407596732,0.7656868549,-0.1402485637,0.2114115702,0.994367761,0.9019651951,0.6665163442,-0.1405485867,0.3396203151,0.3103768054,-0.7834172813,0.3892271924,-0.5264890981,0.9897719782,0.7434350828,0.501733633,-0.080788801,0.4779280188,-0.9143227885,-0.1489631224,0.628716564,0.9669880145,-0.4578355685
   0.0230493413,-0.3724721651,0.7362943023,-0.4111716231,0.3486651487,-0.3028551686,-0.7826609089,0.7800736343,-0.7809938029,-0.434346776,-0.4488847624,-0.4007058524,-0.4348831125,-0.4466928781,0.4821225174,-0.9261881261,-0.5561051694,-0.2619025582,-0.6554072143,-0.2110931564,-0.7079900736,-0.7344758307,0.4634144158,-0.2480678254,0.4171225855,-0.2361406478,0.6400023794,0.1338621049,0.7084605657,-0.0202784946,0.4675573515,0.8201306172,0.5324766401,-0.365959486,0.0283040117,-0.3891569151,0.4636412483,0.8998218342,-0.2938155701,0.9733964495,0.7243665751,0.6173273031,0.5980379856,0.1005879088,-0.3463575372,-0.3480226822,-0.2018091317,-0.9202461247,-0.1731990238,-0.3805529714,-0.3241200964,0.8885007879,-0.8733973343,0.8662930186,-0.0837689697,0.4614740922,-0.0833231359,-0.6495425219,0.7299876159,0.1429552734,0.2745619341,-0.5219729612,0.0502536969,0.4802794144,-0.4901669445,-0.8340408818,-0.6790271434,-0.4305123256,-0.8727568902,-0.0963062349,0.572026797,0.4562535458,-0.2767456196,0.2676880377,0.3926436437,0.731576186,-0.0289060729,0.0293255377,-0.2705296113,0.0291626565,0.6708820273,0.7923015649,-0.1747983208,0.2805396192,-0.6869646461,0.5939104468,0.7097514363,-0.0911304384,0.1714245712,0.0280094887,-0.518452039,-0.1068531104,-0.7940304901,-0.9805982048,0.8447011854,0.4562504639,0.8144978198,0.0304925047,-0.4743460887,0.6209132099,-0.3725591964,-0.0558325215,0.647418707,-0.9730460725,0.6783610967,0.0700320366,-0.8887996151,0.9197850595,0.580247079,-0.204933966,0.5944095975,0.4755617681,-0.4658611391,-0.7323655565,-0.8230556927,0.2749256354,0.2401323912,-0.5834933118,-0.8618695891,-0.7855704012,0.6339794099,-0.5681378284,0.0653324349,-0.6534289653,-0.6403268993,0.2400851197,-0.2597227288,-0.0477137166,0.441659963,0.2406768165,0.318801205,-0.9983981049,0.1724321819,0.8178458171,-0.0967653571,-0.3251007631,-0.5657712865,0.6621044872,0.2035917158,0.5510986605,-0.1947367563,-0.1279722106,-0.532376051,0.7965048356,0.8556999446,-0.0575890038,-0.4652142755,0.4092188998,-0.8323088805,0.2675518798,0.0027760713,0.2119958648,-0.1308907309,0.6945747219,-0.7258536765,0.96224282,0.6183879559,0.1000679086,0.6688628066,-0.4396562269,-0.0063721021,-0.1041272423,-0.0017501915,-0.5347361484,-0.0597490613,0.6231159559,0.6985993562,-0.8629159877,0.3085435415,0.4086623192,-0.0848277311,0.9298788181,0.3280479908,0.7894805303,-0.0976423381,-0.561097579,-0.0819266273,-0.6267699825,-0.8499445702,-0.5144407481,-0.1324449882,-0.7129141131,-0.561576402,0.4674109611,0.6161683618,0.1658246143,-0.4465359094,-0.212268329,0.7003361876,-0.3748493373,-0.3134217214,0.6517788923,-0.7388905391,0.1430210898,-0.4405654327,-0.5730145379,-0.1190061677,0.5738205671,-0.3314561556,-0.226774215,-0.788546503,-0.6713986056,0.5039149099,-0.4451163525,0.0808176722,-0.9171506356,-0.9782947411,0.8668422956,-0.4464067168,0.7620145163,0.039420153,-0.1040565706,0.7001079877,-0.345348639,-0.8172773933,0.6650293629,-0.4804598542,0.2041136488,-0.6596588528,0.2137251959,-0.6374729775,0.3097905448,0.9278653377,0.2166407515,0.6324816248,-0.1760691571,0.7298762344,-0.7290730303,0.5431353887,-0.4324486371,0.6238082684,-0.8793321577,0.2449329186,0.9119149827,0.6981170669,-0.1147002463,0.9700733294,0.3997979021,-0.6440193075,0.697670755,0.3006316856,0.4992075107,-0.1400125724,-0.3532838878,0.6629032378,-0.2614060698,-0.7090941379,-0.5793299984,-0.1751898652,0.8937905785,0.9409112438,0.8263896229,-0.9022092406,0.4228345233,0.8498994974,-0.8665469553,-0.0020749264,-0.8085319215,-0.3488336201,-0.7013481215,-0.8321426929,-0.2275228499,-0.3545546122,0.2555821627,-0.973444946,0.4397052757,0.5215265677,-0.4855698942,0.0781771795,0.5247234264,-0.9259049966,-0.6367331998,0.5566132296,0.9470476996,-0.5025034358,-0.9428208295,0.1922901357,0.9711745067,-0.2245046489,0.6102718328,-0.4648850183,-0.5828836949,0.5307797512,-0.7173342804,0.8073254937,-0.6881341481,0.8252484569,-0.6904477849,-0.6339457593,-0.5573722786,-0.7342731406,0.5439504383,0.7231449664,0.0640112748,-0.0885734517,0.1749508433,-0.7220590574,0.5690959092,0.8672034729,0.5371052127,0.9287486846,0.0476791163,0.512858808,-0.8728691571,-0.45496888,0.7851694868,0.5340180409,0.1196318958,0.6031151914,-0.8244909213,-0.622628666,-0.015239298,0.1848835123,-0.3902391097,0.5522360277,-0.3892864054,0.2554513271,-0.1561219282,0.5301525416,0.6274510328,-0.5978968367,-0.1710041829,0.4241582117,-0.8505852831,-0.4968549042,0.1231139991,-0.5205292097,-0.3371513973,0.5048678355,-0.4242457189,0.3893628026,0.1407742832,-0.352528366,0.1845663967,-0.3010350405,0.130298212,0.3030625318,-0.7039419895,0.9341906454,0.0240676598,0.9302672464,0.6549955009,0.999192401,-0.1400009955,0.5802259371,-0.109731989,0.0698004088,0.2751945559,0.7284886262,0.0635823194,0.4023483145,-0.5091872825,-0.1321280997,-0.8953736836,-0.5118327433,0.9216030294,-0.3492370909,0.734479012,-0.5122202495,-0.6397913419,-0.1873479887,-0.6767706623,-0.2130598816,0.4322036841,0.8634833185,-0.379335919,-0.8646343324,0.5420154011,-0.994162975,-0.9841640179,-0.5779039459,-0.8742582389,-0.780911881,0.0029470044,0.4417861194,0.5325117696,-0.4983499271,-0.1508447861,0.9814727816,-0.7798022895,-0.5510976337,0.3779200048,0.5767787433,-0.6922581152,0.2001435959,-0.7177888351,-0.2751088245,0.4743677018,-0.1699527595,0.9414924499,0.089513364,-0.4546279524,0.5747064162,0.966918486,-0.0575308475,0.4668744572,-0.0960427297,0.7297114195,-0.1204518905,0.6008705341,0.0384179278,-0.3899417663,0.5222929985,0.8050525044,-0.6581292165,-0.3306265995,-0.1370572824,-0.5855458954,0.644521237,-0.6964445182,0.0176768996,-0.5859164551,0.3462511672,-0.6461365557,-0.6698279093,-0.0242918462,-0.2469490182,-0.4580774133,0.5599015179,-0.9249838023,0.584087826,0.0327259358,-0.6969510109,-0.3873556088,-0.8688924427,0.6445615647,-0.5434798179,-0.3094125989,0.7557249199,0.6135200901,0.1660729512,0.2992880848,-0.3807565488,0.604142669,-0.3034884722,-0.0988306048,-0.6814832188,0.290258507,0.7361469762,-0.779399654,0.4137424907,0.3041725703,-0.3112228246,0.2948883815,0.9391839113,-0.8660606871,-0.3921638411,-0.2747784449,-0.6324121217,-0.6663693183,0.2928564291,-0.0758841176,0.3718991615,-0.3261588907,-0.6098574953,0.0285970335,0.9218005929,-0.0410742166,0.2022824999,-0.7209154948,0.141437948,0.1525563175,0.1592679321,-0.0442012137,0.1265115525,-0.7853607334,0.0959962456,0.7139642519,-0.9883455165,0.499513942,0.671231751,-0.077334919,-0.4438726289,0.5546435964,-0.1641326464,-0.6386477833,0.4238446305,-0.4904378625,-0.8106722753,0.4948084075,-0.6863206107,-0.1263958576,-0.2989189448,-0.9956947175,-0.9287864083,-0.92686391,-0.5528060026,-0.0512294347,0.3971980834,0.1465480434,0.3710143911,-0.7635746573,-0.6093884529,-0.6023830083,0.1960792557,-0.7571897919,-0.435082362,0.434929021,0.8645690887,-0.149369224,0.4656333523,0.3623490497,-0.8562058024,-0.011446742,-0.6455629576,-0.32439959,0.9164993477,0.1336302904,-0.4524227165,-0.2254280783,-0.7110594012,0.3547466268,-0.224968412,0.3099822033,0.2709673766,0.7854518774,-0.1063814046,-0.4632332448,-0.5816191257,-0.5680046659,-0.7259531238,0.1912627539,-0.6635812913,-0.8151252733,-0.8003264882,-0.0005989169,-0.0199742214,0.9517403145,-0.8290457908,0.4098732909,0.9898322501,0.5424271398,0.9821685032,-0.9836236513,0.8218664145,-0.3077689483,-0.6101124168,-0.727370495,-0.1636979175,-0.8764214573,-0.1520772493,0.1614312491,-0.5757014818,0.325931913,-0.8919663912,0.3333682826,-0.3378523648,0.041303183,0.0212548964,0.519533014,-0.5698163741,0.3005494361,0.1572591864,0.490804412,-0.238377837,0.4467337126,0.2371933002,0.9522708397,-0.9036819472,0.3620201055,-0.2487403442,-0.3931993247,0.3504059428,-0.6824401105,-0.7014115212,0.2520022888,0.9021772525,0.6009054618,0.7022404435,0.8614320356,-0.0034357806,0.9532624356,0.1265509286,0.5911312408,0.3381526857,0.2174531508,0.1518396796,0.2737470183,0.7292425666,-0.1347892664,-0.8482978107,0.2976916182,0.1955179941,-0.4997931052,-0.4807832188,-0.51297354,0.8349903492,-0.2588405535,-0.4986488555,-0.0791175231,0.336572049,-0.7470867332,0.3612291401,-0.1790080795,-0.9196879847,-0.5437983033,0.7631860325,0.5900967994,0.4702105313,-0.6369256857,-0.5142653849,0.495191034,0.9173626891,-0.0915788268,-0.028002804,0.9794813368,-0.3158015978,-0.4186257274,0.775263432,-0.997346542,-0.303436438,-0.8612260728,-0.6042617107,-0.6595776926,0.0059826669,-0.8780889273,0.293423963,0.1109245958,-0.2263156513,-0.1475882159,0.0226506709,-0.3638292021,-0.9658238565,0.9963851745,-0.5830155574,-0.3821879002,-0.8143567962,0.7342579829,0.7149181553,0.5928593932,-0.2410578574,-0.9875551482,-0.9663646978,0.8800777183,-0.5427402612,-0.1734093713,0.535679289,-0.5106978407,-0.0756012444,0.0784984059,0.1938971046,-0.7495177756,0.3528340472,0.1645366087,0.8231483946,-0.8378814144,-0.9777583015,0.4681305821,-0.3316394649,0.9780610475,0.9331616684,-0.7150891778,0.1474024159,0.9684421017,0.6139933649,0.9565256814,-0.438086485,0.6676541357,-0.0794166627,0.4822259431,-0.983219995,0.9140416688,0.3944005742,0.9104519271,0.8587187315,-0.5543363667,0.3244923404,0.5266591418,-0.706402174,0.9432323376,-0.1830441235,-0.228135696,-0.3192087143,-0.2011636505,-0.9294775471,-0.2444515019,-0.8877644131,0.5270642602,0.1063610543,-0.5761372309,-0.2122412936,0.6492418463,0.4498129033,0.2291282317,0.1058079499,-0.741337734,-0.8244399286,-0.8548295835,-0.5134797192,-0.6859907821,-0.5329095578,0.8104881686,-0.0107055234,-0.8095533394,0.8239374051,0.9615020073,-0.0224220602,0.3248723167,0.2590190822,-0.0163950732,0.5692873215,-0.4791403215,-0.4893918649,-0.7558634204,0.9425643014,-0.8890498439,-0.5193307997,0.6748174354,-0.8555622781,-0.2952798263,-0.5027961431,-0.0111667893,-0.9513156587,-0.9189516705,0.0235017635,-0.5476971774,0.8792222819,-0.258934768,-0.3567615648,0.941180277,-0.1047939679,0.5069481165,0.2081938972,0.3157546557,-0.4800701259,0.0801411343,0.5388430148,0.5894287381,0.6891957538,0.3003913104,0.3472421679,-0.7536975493,-0.7134057478,0.2429027186,0.0635622788,-0.6854914831,-0.7750562241,0.8494890692,0.8389234389,-0.3558340282,-0.3566928968,0.0256193704,-0.8100554238,-0.9243177177,0.0242318661,0.4056819027,-0.2034565571,-0.7279369479,-0.1684806084,-0.8812211528,0.7179631138,-0.8735618108,-0.087819493,-0.3664705998,0.574222441,0.2828741249,0.2919507356,-0.1316784124,0.4132435102,0.5192951212,0.5589896877,-0.9196683227,0.343353129,-0.1405573236,-0.4480033109,0.7587865841,-0.4427453711,0.5083746447,-0.1551370043,-0.7225082349,0.9342222148,-0.5162903235,0.5194868147,-0.3157438549,0.1757358803,0.4785751349,-0.967342592,0.7648510945,0.4501261576,-0.0035554318,-0.7330109473,0.8332207526,0.1726891728,-0.6447709062,-0.1513424885,0.8862373556,-0.3263838164,0.8317647954,0.6175603295,0.8167871595,0.7590664429,0.3292610513,-0.8466784342,-0.3152555683,0.7090774559,-0.3234409845,-0.8554508195,-0.4490489363,0.8457701054,0.219323639,0.7499324495,0.3140063076,-0.318827462,0.0540594142,0.5991628847,0.7534131124,0.720415452,-0.4058430877,0.3944507684,0.5998878359,0.9652154919,-0.3619768339,0.7906018141,0.5015379749,-0.3813639938,-0.0918347278,-0.4068271939,0.2080649222,0.7507604702,0.390194048,-0.6149339875,0.2560715862,-0.9787943141,0.0935914754,0.8077302495,0.75791953,-0.1627857714,-0.8897977497,-0.1031876213,0.4124039524,0.5923356225,-0.0685116307,-0.6428968876,0.3371524562,0.7458245208,-0.222875824,0.9687964256,-0.6635389661,0.301735444,0.9119631862,0.3305525437,0.9178195313,0.846911,0.8296972949,-0.6413960373,0.0878958129,0.6226619321,-0.9619545561,-0.0232146208,0.9836184305,-0.6298451859,0.4495427317,0.8358651612,0.0784587458,-0.6554037008,-0.9948488618,0.1679638827,0.1413852594,0.2655991648,-0.7063539621,-0.6759352711,-0.7276561928,0.9813115076,0.8038831301,0.075358621,0.9157175793,-0.1183855507,-0.3737940226,0.4808949492,-0.7276648311,-0.9947679072,0.5752761241,0.9869065073,-0.8422315648,-0.4880366628,-0.9159561365,-0.5585527935,-0.5123503461,0.6115135606,-0.3783263615,-0.7515400299,-0.2605567917,0.5517367158,0.5285918821,-0.5124127061,0.852416425,-0.7818070363,0.3564592334,-0.5270973772,0.0982185388,0.451986513,-0.3457959377,-0.6532760566,0.250134282,-0.0721280429,0.9759989044,-0.2043793943,0.9979321805,0.1953232494,0.7678470705,0.4338110429,-0.3256768095,0.540847715,0.6587719497,-0.7050526113,0.4167870645,-0.3091037331,-0.8045891988,-0.7315218809,-0.3560946423,0.0337767204,0.6853276237,0.1714694269,-0.7870387773,-0.492450676,-0.6089222086,0.3836819501,-0.2630769478,-0.7733054611,-0.2950199683,-0.9414261703,0.2266455917,0.3102902368,-0.4223897149,-0.6646210171,0.0625270945,-0.0309712588,-0.1533790892,0.2405982729,0.0611843695,-0.4439337401,0.6736397111,-0.6424753011,-0.7409089965,0.3813001549,-0.8918893641,0.2174718629,0.3249883957,0.8172955494,0.4013882153,0.9792023367,0.4457026406,0.806395292,0.6876425899,0.7361892206,-0.251078415,0.9718416819,0.3994313957,-0.294039907,0.2532877006,-0.5281729033,0.2270511114,-0.8519595639,-0.5278233548,0.4899484769,-0.4211096889,0.814677321,-0.7604898074,-0.560566318,0.2550277412,-0.1739705533,0.0912065986,0.2035971098,0.1844524454,-0.8509903671,0.5954888732,-0.4745683417,0.5179751917,0.9432703346,-0.164976385,0.9343308076,-0.252069196,0.5987965603,-0.7259921892,0.9144911684,-0.501000056,0.711890062,-0.599221808,-0.1317149491,-0.3752241834,0.3080336108,0.0683713929,-0.3846402464,-0.3008695324,0.3950710994,0.4270991057,0.7247671063,0.4725677335,-0.4396788992,0.6732733178,-0.6993538756,0.0136832177,0.1314495503,-0.112214764,-0.5007360784,0.1694709587,0.5148358855,-0.5710707233,0.5543151613,-0.7777046485,0.223481228,-0.5333339227,0.5496190853,0.8441103414,-0.1489819008,-0.1420801852,-0.5574778008,0.3563945002,0.5853858422,-0.5471580361,0.634532806,-0.4814642436,-0.3120391488,-0.4621600736,0.8481723522,0.1504903258,-0.1745817172,0.2963811622,0.6369175031,-0.8802704231,-0.7713742431,0.0524740509,0.4765622652,0.1563071807,0.7755004503,0.1725793877,-0.914857642,-0.0243979145,0.1267989698,-0.4336529196,-0.2834879267,0.1870211749,-0.3552843787,-0.553721426,0.5898301005,-0.0716529865,-0.4949714655,0.2321393488,-0.7446403884,-0.8478236851,-0.054238813,0.8969550207,0.0319962062,0.3973799177,-0.7011029524,-0.3464580101,0.45048743,0.8479653941,-0.0218627315,-0.690439685,0.040805991,-0.0843439777,0.9178140864,-0.166211297,-0.7633332159,-0.7265458477,-0.0904996912,0.0400619989,-0.6925781559,-0.138882693,-0.9108588174,0.554114501,-0.9121075606,-0.6114958079,0.8125650749,0.2354397301,-0.2080452095,0.3923855835,-0.3958503096,0.462290918,-0.3575683695,0.4520612725,0.0569926061,0.7139385361,0.883484937,0.5855553496,0.8973879179,-0.5388393386,-0.0183593034,-0.1985363361,0.9046104304,-0.0901489675,-0.0757369609,-0.2236518313,-0.9877035947,-0.4892528686,-0.9623932484,-0.932044925,0.060679478,0.4178273603,0.0894905488,0.2358886252,-0.7742249249,0.1905846691,-0.4097225226,0.7700474556,0.2091512659,0.0960077372,-0.0892305668,-0.9644040248,-0.2898088715,0.1773752905,-0.8927691901,-0.1981743289,0.4549617359,-0.9843161905,0.2101981514,0.0947310052,0.2536280308,-0.1717927802,-0.8056680243,-0.7615754363,-0.7408802953,0.3628156981,-0.8318619304,-0.2971554661,0.6166185764,0.8281589411,0.5750440644,-0.2777871473,0.0986306828,0.868757942,-0.5165040534,0.1374465016,-0.817781913,0.5273008947,-0.2518559032,-0.4258135565,-0.5812247793,-0.0874679529,0.2444775766,0.8137697637,-0.24461108,0.8639998951,0.5754703658,-0.3273553661,-0.3919003546,-0.5256300149,-0.4675157008,0.4141917967,0.9796089961,-0.3281830301,-0.9915752808,0.6669480272,-0.4494940082,-0.3555348959,-0.7443801986,-0.488317192,-0.7067154622,-0.3686163582,-0.0523417989,-0.955032783,0.5251970439,-0.6200498705,-0.7231181677,-0.5658311358,-0.7039204154,-0.4637342028,0.5924469394,0.8125322646,0.2603909686,0.5285649039,-0.1805619846,0.7904075091,-0.0567714116,0.8965580603,-0.9030307679,-0.2726234905,-0.7295353394,-0.2564205557,-0.7784348128,-0.3913394962,0.0961312436,-0.1452301296,0.2596226993,-0.5997445273,-0.2848292611,-0.1858354828,0.257952599,-0.9754184587,0.2541500634,-0.7853175185,-0.3421623863,-0.6108193228,-0.9391474681,0.8434953803,0.3677101016,-0.0797983275,0.5920390849,-0.3472626024,0.2987988493,0.5229257722,-0.9671161024,-0.1833848305,0.6628847074,-0.6514996082,0.845670112,-0.6702201249,-0.8102169828,-0.7653416263,-0.0308818352,0.3904826365,-0.6464239641,0.9576422931,0.5330002944,0.9677438875,0.1167281174,0.9839263058,-0.1441878563,0.570869529,0.5195070806,0.1964036946,-0.8081736876,0.9959232206,0.8270603033,-0.3084678022,-0.1160154165,-0.6092108351,-0.8327315596,-0.2932896377,0.4828245076,-0.7140818003,-0.0453751919,-0.378525656,0.2003736556,-0.8321540779,-0.7076297424,-0.2054565391,-0.3790348473,-0.1458947405,0.7112782616,-0.1470133388,0.4725469179,0.390676497,-0.4153447673,-0.3747126215,-0.2411945393,-0.4737323055,0.733786233,0.1648574404,0.406279286,-0.3354154235,0.9072036266,-0.5200416809,-0.2265074621,0.082101684,0.0616180765,0.0698621298,-0.9676004234,-0.9028212889,0.6230653687,0.5273282259,0.5184499564,-0.929774163,-0.6680651636,0.983150136,-0.9946320237,0.73971882,0.8586779781,0.6989991392,-0.628844017,0.3481386955,-0.9167306207,-0.0655145731,0.3459161117,-0.7822218852,-0.2815480074,0.1642035013,0.9799751538,0.1042380983,0.1834861298,-0.3015195659,-0.9715101713,0.2203282308,-0.2796139369,-0.9150319186,0.0988811764,0.8567542055,0.9811990041,-0.4067579718,-0.7277990137,-0.97663442,0.3156669716,0.9802475078,-0.0948514473,0.2363930932,0.6536579265,-0.3957989196,-0.4967221911,-0.1306025191,0.4759425225,0.8072444865,-0.4154294629,0.7445924927,0.7320210183,-0.3025215243,-0.737966582,-0.4674421743,0.6187265917,-0.6227667371,0.0741582712,0.3081663778,0.8745933318,-0.2015746542,-0.4577629266,-0.4833225682,0.8053608025,0.5377480541,-0.8619335115,-0.5213297939,0.6501069465,0.8476650222,0.4535750942,0.7024516571,-0.2072202525,0.8634465035,-0.918558878,0.3546576991,0.2468004632,0.9942428618,-0.3801368738,0.4711455475,-0.4283741549,0.7212864988,0.3669264895,0.2170047761,0.5923426203,-0.5961625807,-0.1528564055,0.9576950214,-0.0672392872,0.3578354646,0.7852622682,-0.4715721014,-0.2348909546,-0.3597923553,-0.1510920038,-0.720539695,0.2991009206,0.9473886311,0.1341752575,-0.2814795871,-0.9063848443,-0.2297640688,0.1755068243,0.7161563959,-0.2839677283,0.8871562986,-0.4857771735,-0.1615505797,-0.2323761657,0.2800355957,0.4909733934,-0.4418687793,-0.1888751606,0.1273979131,-0.5304145213,-0.0913434754,-0.8073654429,0.7912943035,0.3189054688,-0.9048065141,0.3947494635,0.1583653596,0.4611319017,-0.3503126533,0.219396827,-0.0302225635,-0.733578709,0.0750129362,-0.792563593,-0.3573439505,0.3925919663,-0.7497981847,-0.0087456662,0.3970561626,-0.252745076,0.6789328679,-0.1821190879,0.660199669,-0.9423691416,0.9338703333,-0.5433807803,-0.2330642359,-0.2161290392,0.0491052552,-0.1813562096,-0.2713582631,0.4433124089,-0.0752735415,0.0976413404,0.0817904768,-0.1624134044,-0.5690651262,-0.8132318353,0.9186319028,-0.9490184374,0.9832374483,0.589415081,0.3000848174,-0.2993608144,-0.7739073713,-0.3667904167,0.5877962166,-0.038358642,0.8314241358,-0.2745930559,-0.0792603866,-0.7996310097,0.3801823107,-0.7315560851,-0.2947504734,0.6329086279,-0.3625448085,-0.8997631498,-0.2597395213,-0.0931994839,0.3255018191,0.0756182774,-0.6822155708,-0.9345095055,0.8727114708,-0.9302943857,-0.8400738057,-0.487228935,0.2097109268,0.4233541213,0.2808017476,0.3899098013,0.8977778356,0.0846902067,0.5695419444,0.1533327445,-0.3652266267,0.9270108248,0.0490194818,-0.7986765622,0.4203327103,0.818665656,0.6974170135,0.940631543,-0.5996382895,-0.5992037237,-0.3595764723,-0.9062257948,-0.980422359,-0.8941153765,0.6856056133,0.719046639,-0.3261053671,-0.1139415197,0.667793664,0.7362705837,-0.4463931847,-0.1421645493,0.9766086302,-0.2720352925,-0.2924726032,-0.8293992473,0.7372635415,0.3998910628,0.8450260077,0.1196355465,0.6023120958,0.0542018007,-0.2222092424,-0.1217757718,0.3550772694,0.979284766,0.0928741757,0.8282872587,-0.4713232507,0.0093867783,0.8447035103,0.9073269043,0.9019302932,0.5351672126,-0.3925996069,-0.9359358296,-0.0706945181,0.2597031051,0.3988827585,-0.079679051,0.1321738027,0.9210636904,0.9733138302,0.8622449575,0.8653556924,0.5291797789,-0.0542086743,-0.4931163646,0.6658206287,-0.7325514077,-0.6498450262,-0.6574735823,0.6944325203,0.7949497025,-0.9965366319,-0.8660245278,0.5922780118,0.487525588,0.7275174844,-0.3840780924,-0.0754983997,-0.7246295765,0.5618633054,-0.6883686615,0.8495182369,0.2249454781,0.7077657777,-0.9223294122,-0.8328910704,-0.7718432654,-0.1546094525,-0.4320333657,-0.5269154537,0.1970791028,-0.5830543,0.0913499366,0.7538491224,-0.6221601346,-0.9408382484,0.6407543509,0.6133385202,0.17669411,0.5972666186,-0.9111660539,0.304615421,-0.5509739385,0.6518257129,0.1446147306,0.8698474513,-0.1217241068,-0.030679526,0.6165794963,0.6381420923,0.9448250797,0.7641798328,-0.821977169,0.7179682606,-0.0957672186,0.1777293252,-0.0618092892,-0.9611741962,-0.4009643453,0.52502608,0.1916830545,0.3057909093,0.001042683,0.2150524227,-0.8694819981,0.3655639772,0.7213041673,0.4207923906,0.6841098066,0.2170232351,-0.7818594415,0.8734435964,-0.0281918521,0.5744645222,-0.2923260284,-0.6180845229,0.6035478119,0.8689093521,-0.2910852368,0.5465074166,-0.0077480652,0.5526132864,-0.1193339284,0.8314928119,-0.9992098292,-0.8313922986,-0.6186860497,-0.4141914632,0.3712075063,0.4442453379,-0.9492230558,-0.7925231018,0.7382944768,0.6974684735,-0.7365174982,0.8424277483,0.1804416628,-0.8957708464,-0.3079849067,-0.8740424972,0.9059756576,0.8875298952,0.272721466,-0.4914756875,0.3957601708,0.4594104902,-0.9031376114,-0.0387614277,-0.1547950956,-0.3531348772,0.9039358316,-0.8919572162,-0.366576844,0.9093497384,-0.6302629392,0.1376553205,-0.0713732145,0.8580750204,0.669614516,-0.5204407853,0.6670806341,-0.8377831306,-0.0003555902,0.8752192481,-0.7565821176,-0.2559153372,-0.6439919094,-0.1777042719,-0.0667752728,0.6920236496,-0.999118851,-0.6562990741,-0.8054984794,-0.4299447931,-0.3328276621,0.8225839751,-0.9729344961,-0.8793672138,-0.9937784955,0.2581497097,0.0875997901,-0.4606151704,0.7013886845,0.1789634462,0.141697755,-0.66529904,-0.6436014708,0.8705538898,0.2012826155,-0.7197179751,-0.0291188817,-0.3839637477,-0.2447466212,-0.2523409465,0.3986706983,0.3677506304,-0.0066120348,0.0141919998,-0.795719187,0.448734903,0.0963084471,-0.335093096,0.5274033732,-0.3448258866,0.5297713411,-0.0274553854,-0.2470881719,-0.9210176789,-0.1683381183,-0.3756056538,0.552388739,0.8902358714,-0.0364947172,0.9602017978,-0.5206866323,0.4282611566,-0.0074803464,-0.3532232258,-0.6733750738,-0.4282017626,-0.5628566612,-0.3305228121,0.7592815351,0.5823148374,-0.4098802291,0.3090961419,-0.1529717607,-0.5697479504,-0.4334816406,0.4919613051,0.7717007517,-0.2787041473,-0.1000297191,0.1805497903,-0.1718516548,-0.860695035,-0.2821452603,-0.101747286,-0.8976490844,-0.7326503346,0.6733220851,-0.3981233525,-0.061298593,-0.8858800844,0.7972160105,0.0633564006,0.4600223924,0.4264086162,0.3824488658,0.9234489076,-0.4347140551,-0.55484824,-0.8455583904,-0.5746445457,-0.4113668809,-0.4712256342,-0.2834349418,-0.5502061699,0.6171481566,0.4039811021,-0.8764768104,-0.7364384686,-0.5419004251,0.8999176207,-0.3979182777,0.464499797,0.5086173963,-0.3186670246,0.2630615768,-0.8302954921,0.5574411071,0.4811440559,-0.9974571283,-0.352819399,0.762066587,0.5167441699,-0.8529411815,0.5481769377,0.8344390849,-0.1856627367,0.4620890883,0.8819866615,-0.0106745791,-0.6536325669,-0.6166995366,-0.0814650314,0.8124141176,-0.0109306178,0.7076327349,-0.3024064021,-0.7332579792,0.7449746405,-0.9453988051,-0.9184891693,0.1802923845,-0.8302190543,-0.03239197,-0.8913444229,0.2704678501,-0.964428972,-0.7264793358,0.0579693398,0.9738592285,0.5086546712,0.6945803406,0.7339219609,0.9571707995,-0.4137888266,0.4680488744,-0.8186257283,-0.429745993,-0.3291256487,0.4172589553,0.9169570165,0.3441411109,-0.3646123966,0.696635255,-0.8009255126,-0.9056757731,-0.1953044017,0.0770822087,0.9551241053,-0.924149691,0.9173921389,0.4765409422,0.7630901654,0.3304358833,-0.2305430632,0.5970108357,-0.6390673034,-0.249262414,0.0409564925,0.0691109173,0.7366811273,0.5185221746,0.7501593434,0.3152181686,0.1939642224,0.5223724613,-0.980520908,0.1371911741,0.9259346199,-0.3071862731,0.0730593484,-0.2517241515,-0.4546579266,0.6061211879,0.2946801507,-0.5637289933,-0.4125796612,-0.4802310216,-0.493192805,0.5325662014,-0.5669674062,0.2662713644,-0.0054987128,0.473488938,-0.3067463401,0.5736961122,-0.6891023119,-0.438576479,0.4520283232,0.2414856423,0.7822861728,-0.6545401123,-0.4811094647,0.6921856805,0.7071556202,0.69926236,0.4927815416,-0.7540997466,0.7044192804,-0.5495509543,-0.7655452796,-0.7166100613,-0.8209243163,-0.5087779889,0.3836152312,0.6407664503,-0.2203042469,0.536715949,-0.0093619526,0.4821314582,-0.7085931666,0.2391732791,-0.4803011733,-0.0359300881,-0.094239312,-0.4500638787,-0.2838191334,-0.6955261868,-0.8115311185,0.0185737661,0.6647022219,0.551759866,-0.1788383506,0.5034420986,0.4573158087,0.2617968065,-0.935093384,-0.9232831305,0.6735094418,-0.8020007403,0.2589087821,0.8032206279,-0.6204825962,0.4040281317,0.7714030921,0.160047509,0.9737562118,-0.1786791469,-0.143616229,0.4774287747,-0.8216570011,0.0080835735,0.774622945,0.9350981882,0.6402123772,-0.6643751007,-0.1099084807,-0.6754768717,0.82670635,-0.5488841496,0.1467267551,0.7013788983,-0.7675593232,-0.9066955049,-0.5471402004,0.302649454,0.4793121824,-0.1228346014,-0.7209131193,0.4267450396,-0.7601460965,-0.783735802,-0.0098255141,-0.0467423007,0.1671490514,-0.7422311143,0.3271234122,-0.7502418401,-0.6411914976,0.5646999555,-0.5181052487,-0.0694796154,0.7750568899,-0.2449841981,-0.7088077023,-0.5351831715,-0.0242127827,0.2638362325,-0.4380252642,0.4611134212,-0.0351866128,0.9907331405,0.6967871511,-0.2734663895,-0.563298322,0.5576838934,0.870225881,-0.8447759043,0.5373523533,0.5051539461,0.2045340865,0.1738543311,-0.9102389899,0.2030603394,-0.8580196565,0.4108700652,0.3615587818,0.4581658084,-0.5053312327,0.5521244277,-0.4654033522,0.6133090647,-0.5568608446,0.4750623597,0.5561100039,-0.5543995801,-0.4070873299,-0.6820318743,0.0368036952,0.6211271926,-0.4286873256,-0.4382443299,0.3396077068,-0.1371941773,0.6654422358,-0.9429826028,0.1067275587,0.3640121351,-0.5035246525,-0.445299235,-0.8353120102,-0.5299163405,0.6813055365,0.1872433241,-0.0314331165,0.7489952788,0.6822080663,0.6947426853,0.4493074877,-0.9252613084,-0.9127605993,-0.8627515673,0.5458323071,0.9033968658,-0.7301571309,0.8010784033,-0.3153965814,-0.5721713509,-0.6811202947,-0.1631400408,-0.3884595238,0.3343033309,0.7169464353,0.6195984826,0.023665698,0.8804157584,0.9956719819,-0.5767206836,-0.7586706988,0.842239938,-0.3650158466,-0.0499447538,-0.0507670312,-0.1101705839,-0.2565521867,-0.6340248532,0.1175928618,-0.4877805107,0.1638278334,-0.7663372837,0.1642365901,0.4943437777,0.2190806002,0.6161471735,0.3432965075,-0.884715165,-0.8248839306,-0.1004296294,0.8560250462,0.4709601645,-0.5090702222,-0.6540351448,0.2354846042,0.9250503662,-0.5386821856,-0.9058343959,0.6548007612,0.8271800216,0.137746023,0.8774579601,-0.9335357928,0.2677586537,0.6499232324,0.714508677,0.9715868306,-0.7868779784,0.4947674855,0.838740705,0.6774538738,0.4830541051,-0.7842948093,0.4922912394,-0.1181421009,-0.1603613402,-0.2400457399,0.4345087441,0.2791818719,0.2908040273,-0.0949741421,-0.3728249032,0.9033026861,-0.3004890491,-0.6693196023,-0.4179581638,-0.2936263304,0.2755437562,0.2746155539,0.6569324638,-0.2233878786,0.5691260641,-0.7394645702,-0.6484443807,-0.2514207761,-0.1801181152,-0.3530096246,-0.9358647265,-0.619895365,0.5973147858,-0.6858979532,-0.6475880239,0.5550058663,-0.6037418057,-0.5564892491,-0.00755083,0.91584066,-0.1174825643,-0.0262697567,0.1134163071,0.5990314373
   -0.6011331073,0.9071046479,-0.3369511401,0.6914268903,-0.719000741,-0.9217452245,-0.9859968408,-0.885011821,0.4275354046,0.0041867555,-0.8759078012,-0.2688234483,-0.0739850614,0.244060163,-0.3562532607,-0.9647710748,-0.3734833571,-0.5513065358,-0.9682564131,0.1291318625,0.3262911351,0.9630035499,-0.2065121235,0.6026318331,0.1294472886,0.6094151441,0.9894040835,0.5267563487,-0.9278149708,-0.4646164464,0.354946805,-0.2770801688,0.1622569258,0.8850572409,0.9619844426,-0.209293213,-0.2008699292,0.2517071491,-0.7765429126,0.7268035616,-0.0048874019,0.7358641417,0.107740506,-0.2229305834,0.9088179187,0.1643704666,0.3781083977,-0.0310923037,-0.331910852,-0.6944124552,0.2233555673,-0.9202268363,0.6509510348,0.6308842751,0.5506472639,0.3380980168,-0.2627872651,0.3610608367,-0.7445075428,0.913095102,-0.2532166788,-0.6720326698,0.9748900427,0.7743406009,-0.7963070045,0.3050921062,0.2712307411,0.4715336701,0.8593894052,-0.8152746689,-0.7210014872,0.6291695245,0.1452945158,0.52591557,0.156557633,-0.6408135476,0.9424926254,-0.8725870048,-0.5068255117,0.0434509914,0.1071429078,0.8977036055,-0.6756794111,-0.6792056152,0.6541522638,0.463814269,0.8944490802,0.9078710631,0.4258618526,0.4307844748,0.7716858022,-0.8850822585,-0.6805967989,0.4889561332,0.8614026947,-0.142722206,-0.5715617071,0.1743188669,-0.8959403792,0.1594192218,0.3446643367,-0.9772539572,0.0511937447,-0.6275602105,0.5848173231,-0.9689581372,-0.6639799452,0.3188681979,-0.565136987,-0.3843250607,-0.7503904191,0.4537431482,0.9729579669,-0.9501204538,0.9334891892,0.4776619464,0.8897142075,-0.5422324932,-0.8394532648,-0.8261057328,-0.2783417412,-0.3774205323,0.343405924,0.0859241581,-0.2710249678,-0.1227892751,-0.692582725,0.8153593084,-0.8224543302,0.3604431188,0.314727715,-0.2727980491,-0.110745352,-0.937120394,0.46630944,0.9003409875,0.8706895069,-0.0418524462,-0.0092176188,0.5919212726,-0.36605958,-0.2377498218,0.5193609637,0.630454614,0.3853947877,0.2646107898,0.4842300165,-0.1171236133,-0.2729763361,-0.4925270202,-0.296702979,0.4974903096,0.7259820128,-0.3344394177,0.8404565791,-0.4941053082,-0.5293135554,-0.9993655102,0.022965689,-0.9506392743,0.9775042935,0.1075596625,-0.7944521751,-0.2200326665,-0.5476815202,-0.6634201647,0.2223641494,0.4068627347,0.0167089843,0.0315415267,-0.8332589501,0.8912773398,0.060944171,0.4295042114,0.9469930877,-0.1737842508,-0.9408939904,0.5240473204,-0.0464874909,-0.1801554686,0.1699170327,0.0882913456,0.1523485229,0.8364178374,0.8708825381,0.2265077818,-0.1850937771,-0.639558603,0.7747198253,-0.6871514896,0.7026419082,0.7979237529,-0.7804138435,-0.0518598936,0.2479946695,0.7677680177,0.6338387458,0.6108170849,-0.0442307673,0.5519474344,0.7337454253,0.8291864122,-0.8217436977,0.7392194545,0.7062401383,0.2169620271,0.1142324247,0.9693631241,0.493751711,-0.8378483734,-0.7496205838,0.0941915677,-0.338446002,-0.3561132175,0.2204391902,0.5292253518,0.028663491,-0.7910575475,-0.2112497477,0.8931727708,-0.2101578783,-0.5025728623,0.5435542122,-0.6843540195,-0.1873301387,0.3380427342,0.8926630899,0.3061330507,-0.2231482455,0.3514143782,-0.0779947557,0.78323754,-0.7140849747
##end
biasActivation=0,1,1,1
[BASIC:ACTIVATION]
"org.encog.engine.network.activation.ActivationSoftMax"
"org.encog.engine.network.activation.ActivationReLU",0,0
"org.encog.engine.network.activation.ActivationReLU",0,0
"org.encog.engine.network.activation.ActivationLinear"
