encog,BasicNetwork,java,3.4.0,1,1532928029017
[BASIC]
[BASIC:PARAMS]
[BASIC:NETWORK]
beginTraining=0
connectionLimit=0
contextTargetOffset=0,0,0,0
contextTargetSize=0,0,0,0
endTraining=3
hasContext=f
inputCount=16
layerCounts=4,26,101,17
layerFeedCounts=4,25,100,16
layerContextCount=0,0,0,0
layerIndex=0,4,30,131
output=0.0000000733,0.0000523418,0.999947585,0,0,0,0,0,6.3027642776,1.9358366886,0,0,0,6.1957468053,15.8665776727,12.1889636972,0,0.0846740069,2.6125552444,19.4915825091,0,5.2174070347,8.4919884594,0,3.1885701615,5.2917148807,0,13.1312628777,2.8319616478,1,1.2916447543,1.4613995473,0.5475330514,0,0,3.2534585476,1.3247311467,2.0955782316,0.9398416982,0.5369771132,0.6804826162,3.656154616,0.6656845026,0,0.3702664085,2.5278532394,0.8589584231,0,1.0645723362,1.88234408,0,0.7144235394,0.4496734412,0,3.160746862,0,0.2674445315,2.9986384129,0,0.0697218505,0,0,0,2.2496393237,1.8651985155,2.0412862121,0,0,0,1.0217953378,0.0923620914,0,0,0.000554727,0,0,0,0,0,0,0.3169449292,0,0,2.9806342488,0,1.0058210589,0,0.7434710838,2.6533438953,0,0,1.1695867182,0,2.0933635786,0,0.8378097339,3.1022622407,0.8916421057,0,0,0.0304311632,2.4405794441,1.5814177728,2.0079724174,2.7893336372,0,2.87903151,0.6210102994,0,0.2432176436,0.3549486872,1.0589843129,0,2.0257413465,0,2.4067024908,2.7857686828,0,0,0,0,0,0,0,2.4517819713,0,1.7259218065,0,0.4589105853,0,1,0,2,0,2,0,0,0,0,0,0,0,0,0,0,0,0,1
outputCount=4
weightIndex=0,104,2629,4329
weights=##0
##double#4329
   0.1546298776,0.5694089727,-0.3630295679,0.7065877302,0.2950383089,0.4995912336,0.9525800691,-0.3482828882,0.3529175192,-0.6277614087,-0.7257243675,0.2790705649,-0.673765494,0.6537294108,0.6286729909,0.6094082655,-0.4094490994,0.291089928,0.3264567827,0.5085805399,0.5423520014,-0.4639560117,-0.6034073058,-0.829062143,0.0136015237,0.9356448621,-0.7384698514,0.4361700362,0.8213276584,0.4922660081,-0.8261401699,0.2262192837,0.4166163693,-0.3661193827,-0.3371628179,0.8096780556,-0.918747342,0.2354064166,0.072106323,0.08370413,0.7835707084,0.659660075,0.8271520334,0.3731762149,0.6324601336,0.6837286977,-0.5241143113,0.3356553088,-0.7057233384,-0.3912318518,-0.2014515294,-0.5419735203,0.4002614516,-0.0252866047,0.1484046921,-0.0128445794,0.7096009049,0.5007910696,0.8669137094,0.4597317455,-0.5962094517,0.6844676595,0.3124385997,-0.761560181,0.1616831879,0.2659933126,-0.4150696298,0.4790277286,-0.7976893178,0.3634391686,0.4443089542,-0.5653478763,-0.2550178275,0.9545111951,0.2361452506,-0.9194799619,0.8824832975,0.5173335728,-0.6504561881,0.341906315,-0.3485169425,-0.8896503592,-0.6286519441,-0.702544719,-0.3989756308,-0.9991212785,-0.4209465391,0.1903362556,-0.3448649321,-0.0608383978,-0.1564901754,-0.4885040214,0.174248215,-0.9037651082,0.1047876282,0.5136211345,-0.1660737893,0.1653448777,0.3257408086,0.7111319296,-0.8992540632,-0.0394248642,-0.5271820051,-0.4513319173,-0.6827904478,-0.3662431845,-0.1777942468,-0.0292686016,-0.6597069425,-0.0363670373,-0.6108372177,-0.9082068832,0.4811679377,-0.8744979033,0.584281969,0.3127873827,0.2909916236,-0.7916699407,0.6778110007,0.6415464152,-0.3809131507,-0.9818648288,-0.9995117291,-0.2314719902,-0.1774976161,0.4383089497,-0.8377767417,-0.6020015408,0.5084352618,0.9102087951,0.9921963841,-0.4637997516,0.3012560011,0.7945017854,-0.3832777825,-0.7717498848,0.8679350184,0.4307240568,-0.5009574017,-0.2339311322,-0.364529819,0.4886244353,0.939657577,-0.9494597915,-0.0443204253,-0.1510460103,-0.9342353441,-0.5781268316,-0.7806113478,0.697675943,-0.4514018733,-0.7324681828,0.5776506934,0.8800125723,0.097701904,-0.6797838022,-0.7006703662,-0.7982421958,0.4640922258,0.1986998303,0.9241517977,0.6351503142,0.0421292752,-0.4532516309,-0.1651257467,0.9651773573,0.3159783058,-0.5141323132,0.2859023453,0.8753991969,-0.7289581387,0.7401333789,0.2687313286,0.9281398788,0.0158077857,0.3190666844,-0.5577523098,-0.515463885,-0.5969424684,-0.3646145888,0.4346994789,-0.8709028366,-0.3194180476,-0.3383871335,-0.2055222382,-0.0794683934,0.8025325785,0.1136180228,-0.7726997808,0.800640758,-0.2406337962,-0.7435356555,0.4045810913,0.5362319989,0.8990043034,-0.0598051461,-0.3470578728,0.8958998901,0.559074545,0.8245053646,0.5530671205,-0.311278317,-0.2910374549,0.873721482,-0.0581635091,-0.2271351529,0.369563701,-0.1255181951,-0.2998732497,-0.3323445442,-0.9741247369,-0.7091714285,0.7999302856,0.3604072785,0.2809362698,0.9527692465,-0.5022461456,0.9875031871,-0.9817035315,0.7027411739,-0.6665275598,-0.5359519876,0.1692747461,-0.6781056032,-0.6072755948,-0.0741091414,-0.8602103623,0.1560492603,0.015894247,-0.1736727716,-0.1443837329,0.9047377751,0.9575411043,0.0192622477,0.6099908879,-0.588739953,-0.7376297805,0.6382120851,-0.2318349859,0.2260087442,0.0589588884,0.7513740618,-0.3691148036,-0.6814924335,0.7569384811,0.5649438063,0.9391892835,-0.5452804199,-0.4633835703,0.3479040491,-0.3421733162,-0.3820717824,-0.1800808132,-0.1373380247,-0.3779403031,0.7928816934,0.8571647486,0.5437709869,0.0413983969,0.7388452985,0.1976395303,0.932959353,0.7981413113,0.1659127285,0.2393695581,0.9599149561,0.1833085222,0.4557232063,-0.0498445091,0.4678829382,0.0144851425,0.3015290825,-0.513014888,0.641961332,0.4814170771,-0.4767100572,-0.4205537987,-0.9592585813,0.1604427551,-0.1087414541,0.880348149,0.9021253892,-0.139692098,-0.3520519094,-0.6105319608,-0.9175292685,-0.264670207,0.4170405314,-0.9264091255,0.7481303464,-0.2103173134,-0.3796129626,-0.4724452802,0.9216257213,-0.0319276657,-0.8420081564,-0.3061547563,0.6508788968,-0.3330477193,-0.6533162117,-0.5009031014,-0.4144378326,-0.943988458,0.6978295891,-0.7562448057,-0.6598197252,-0.4819614023,0.0826149362,0.8212967775,-0.4225115742,-0.874797102,0.0514897396,0.2157611289,-0.7486041233,-0.2566769801,0.4942326934,-0.0983447233,-0.9242059517,-0.3396247199,0.0832110405,0.3094600904,0.5295735578,0.9602075137,-0.5382052807,-0.3029101319,0.0752985854,-0.5462348017,-0.4367043071,0.2089799203,0.7939555638,0.6353030575,-0.6254858262,-0.6413803215,-0.81604117,0.002363819,-0.0437281141,-0.4344775377,-0.5624810627,0.2293127313,-0.6376603566,-0.6417625103,0.4030399934,-0.9374931081,0.9927847158,-0.6240556444,-0.3747517561,-0.0512865162,-0.0737267144,-0.895742253,-0.5874590987,0.3720231346,-0.213924638,0.1738799119,0.7715416109,0.1459405232,-0.8664436475,-0.8021197759,-0.6340153274,-0.6614692263,-0.9264982763,-0.4264721655,0.7395333134,-0.5114462573,-0.4983384575,0.4767316803,-0.6499418995,-0.9899175689,-0.2372742775,0.1020649613,0.4987836872,-0.7373018423,-0.0333640097,-0.9474778449,0.4307948553,0.7258922075,-0.0409899372,-0.1540435162,-0.3296986917,0.9212068805,-0.8111918744,0.0077487383,0.1256887534,0.5340071609,-0.0931393628,-0.960797345,-0.4234432336,0.3213058658,0.5881098346,0.8558159357,0.7239176691,0.7875943641,-0.9937979086,-0.8645263517,-0.0846197327,-0.118018928,-0.2906252562,0.9259232459,-0.3447480002,-0.6993003236,0.6398415264,0.8741104142,0.8734572441,-0.7836337956,-0.4128526231,-0.5771888946,-0.2286867378,-0.7566233903,-0.1926824381,0.0089150423,0.9430094252,-0.5229583924,-0.9971911378,-0.5508315237,-0.2150486562,-0.0572330825,-0.9269403772,-0.8777837873,0.8064157136,0.4765836559,-0.6460481384,-0.4986660958,-0.9355996062,-0.3659639525,-0.5569800297,0.9403074879,0.2742789353,-0.0081190917,-0.3971648631,-0.4960422657,-0.6393950636,-0.69029276,-0.0495042308,0.5457754514,-0.9120579247,0.6195382338,0.9495713217,0.6916972523,-0.8901082118,-0.4411368817,-0.3456827235,0.1783731344,-0.0888890072,-0.6740735724,-0.3468398771,0.8290206143,-0.7192204656,-0.5718855176,-0.8429399117,-0.5084710545,0.1673702628,0.9527518457,-0.5032366231,-0.7530042704,-0.0034543587,-0.3407206842,0.2279053958,0.2143693727,-0.4518776719,0.1488510798,0.7808724608,-0.5580840104,-0.9971260942,0.32014569,-0.7148467845,-0.2023778874,-0.3603561855,0.7968829117,0.8975618648,-0.2350211681,-0.2496204232,-0.7617478881,-0.70148824,-0.1734079016,-0.258349099,-0.276009708,-0.3957755086,-0.6716787839,0.0613990462,0.2148590456,-0.75453318,-0.0267606787,0.7345285253,0.7684778238,0.6996816379,0.6330716777,0.8099612653,0.4869968536,-0.378189789,0.01466162,-0.1063499808,0.7089034092,0.5287451425,-0.9774466207,0.1115055815,0.1566896912,-0.0040105091,0.5887150185,0.6645251971,-0.1639814858,0.8625754276,-0.1715356056,-0.3827185623,-0.6289207251,0.6185564648,-0.0170101962,0.5829732745,-0.5185442136,0.9092105256,0.6256341548,0.2173093903,-0.4974919926,0.3079725647,-0.4298324087,-0.0922950951,-0.6048918909,0.2659244614,0.1714965172,-0.9764492004,-0.9431708376,0.9392174585,-0.2557560807,0.6245977205,-0.9409280413,-0.1129174637,-0.0566583325,-0.3704736362,-0.1671369862,-0.4194607367,-0.8329137564,0.811293926,-0.1872472708,0.8598373573,0.9562859575,0.7845723967,-0.7159437723,0.7866533056,-0.1741115096,-0.4874755494,-0.4857028829,-0.3908278734,0.3633890524,-0.0013089822,0.084924028,-0.2988331531,-0.2315225754,-0.3527944667,0.470510122,-0.0488223803,0.1982157729,0.7506646819,-0.8280985035,-0.9577106029,-0.5911337165,0.5487720396,-0.4205166389,0.1827225902,-0.4671887919,0.3153581988,-0.9691948581,-0.0415722634,-0.0755750094,0.2029400214,-0.690639167,-0.246919112,0.4718111018,-0.4640123453,-0.4451461282,0.4618636909,-0.8798307156,0.9637938422,0.324824959,0.62266766,0.6315770429,-0.0694907766,0.62753334,-0.4762017518,0.2365468109,0.6390272721,0.1960742485,0.7780665013,-0.6135232023,0.4115963161,0.0340344064,0.8046530278,0.0042682004,0.3647435669,-0.9511809232,-0.0062796964,-0.5880666681,-0.1276664974,-0.3489239705,-0.675785221,0.3430107753,-0.5214947162,0.5140343982,-0.4485216454,-0.6215026301,-0.8244422992,0.2490973129,-0.9238674209,0.529344781,0.0803419999,-0.8897706571,-0.6376889315,-0.7565724989,0.9462922855,0.8114421076,0.9538210293,0.3600320854,-0.9919136732,-0.0120491308,-0.6603827216,0.4788201488,0.9604164542,-0.8644011955,0.3203189475,0.5162421467,0.5021195331,0.6062122351,-0.2520276326,0.4041876966,0.4300518769,0.4012779996,-0.3932798904,-0.8722145169,0.1970980669,0.3032751867,-0.5655744557,0.7280170294,0.0511684365,-0.6025039197,0.375854553,0.7682514099,0.5232403474,0.2371430751,-0.7552301064,0.8801046972,0.763897093,0.6260213869,0.709409375,-0.0919222024,0.0033893671,-0.1619263726,0.3866538237,-0.8401055104,-0.6313784421,-0.4999254436,0.5236005511,-0.880267706,0.4702493719,0.9090556221,0.0714395346,-0.6241158835,0.4127972084,-0.3698979568,-0.1800924131,-0.1346929554,-0.5093500748,0.1165042899,0.7482838083,0.7534794102,-0.8716156367,-0.2920212132,0.487503625,-0.7430531418,-0.687437888,-0.7748318778,-0.212203361,0.0405657824,-0.6583081148,0.4160965035,-0.2823798028,0.2915653777,-0.0241250017,-0.9588550832,0.9837120269,-0.886044369,0.0883258531,0.0200638153,-0.0431411644,0.4834996933,0.4652318142,0.3758534524,-0.3931124096,-0.0604474105,0.2474459518,-0.7348300109,0.3279138224,-0.0648433584,0.7534686777,0.6805224458,0.5086427756,0.7583805648,0.303602626,-0.7315005184,0.6998454197,-0.7103664784,-0.6381249834,-0.7719310144,0.1108471838,0.9343721368,-0.8299251208,0.7328791223,-0.7024405596,0.4688613782,-0.2678356449,-0.3651852522,-0.4711099498,0.7443513449,0.1050616084,0.9741883173,-0.0215802528,0.4114453129,0.2876818806,-0.5098163968,-0.506294416,-0.9392850986,-0.665270477,0.4391992777,-0.757027279,0.9639835544,0.9752554926,0.8866232893,-0.5595688703,-0.8897748429,-0.1497746198,0.2633182924,-0.240246183,0.1778896736,0.1392633639,0.5729231571,0.3916242612,0.3285505063,-0.2364785247,-0.0956222176,-0.8835774058,0.4336324859,-0.1898345365,0.5441989519,-0.9325034289,0.087542658,0.9402938047,0.8044640666,-0.6147806658,0.6261649772,0.3999844396,0.69404265,-0.6406603663,-0.2221693373,-0.4289505071,-0.8125465749,-0.3410005245,-0.2397550967,0.6214780362,-0.4271900979,-0.7961470748,-0.061610872,0.3891385145,0.2435644989,-0.683352779,0.0945120038,-0.27455813,0.6859115002,0.0866303457,-0.217624509,0.8569352164,-0.1394356607,-0.2992629729,-0.5074980119,-0.4562963571,0.4009447743,0.9537370249,-0.5352645958,0.1603133255,-0.9848262679,-0.9653838978,0.8699812438,0.4047088424,-0.570360628,-0.405120753,-0.4546198941,-0.5740655341,-0.2348401301,-0.3379358766,-0.794287213,0.9760954187,0.6980350637,-0.877936659,-0.1024439179,-0.5141315322,-0.0287602622,-0.8878821299,-0.7732264926,0.2132047709,0.9595884651,-0.6984368978,0.8382411618,-0.9417402147,-0.4917960971,0.3808830224,-0.335992618,0.8250495165,0.5169326828,-0.3826982105,-0.2810229225,-0.9962185402,-0.6314686833,0.7628902274,-0.1859571386,0.2771080743,-0.0097640891,0.1791239427,0.215712812,-0.7449267523,0.5642325983,-0.1182382708,0.4334057765,0.6311645328,0.2046524443,0.7493237672,0.0700886021,-0.9434790348,-0.9447879694,0.9436738903,-0.6734801552,-0.4950818662,0.0133505794,0.3027228431,-0.3098998202,-0.4271864138,0.3818086525,-0.0897537173,-0.7687013174,-0.9271865856,0.3665691527,-0.3100122759,0.6377289862,-0.1555010252,0.6254341247,-0.3811679182,0.4856554977,0.9065828234,0.8333547144,0.4173145349,-0.247830024,0.362816962,0.1273059862,0.2710080438,-0.3509137636,-0.867856059,0.3719584241,-0.7454804797,0.6175605317,0.8808110962,-0.5753687945,0.4840584183,0.2002104036,0.2818684479,0.3002776999,-0.8518138926,0.5912409229,-0.3031117987,0.5573871606,-0.2447580032,0.3803539635,0.2046774068,0.2004992594,-0.3400526296,0.8667409881,-0.9634587726,0.7182433461,-0.781902575,-0.77533164,0.3559939004,0.7326953687,-0.3810570869,-0.2866404446,-0.5951291199,0.5041132011,-0.0561077174,-0.6541793816,-0.9140157096,-0.4475573496,0.7495735149,-0.0990172672,0.2858906054,0.2653486952,-0.9599134954,-0.701231769,-0.2687724568,-0.8966518215,-0.0884651593,0.7876500086,-0.8256843736,-0.9908729825,-0.5196651442,-0.6131765179,-0.2976949772,0.6615800335,-0.7604725308,-0.9261359085,0.8772456304,0.6469762021,0.0690495719,-0.052606944,0.2408320922,-0.3087728808,0.3296058005,0.7620178158,0.2844572636,0.4230557382,-0.5929444112,-0.2407747008,-0.5634293324,0.9814244633,0.976622951,-0.0028211816,-0.6294298576,-0.511825115,0.6420125033,-0.5154570479,0.0612034639,-0.2837334879,0.868037532,0.7177609646,-0.6352429753,-0.5881245464,-0.1802164847,-0.3873054297,-0.2691733897,0.3826943444,0.665292623,0.9371546258,-0.0324580676,0.0501316695,-0.9446616279,-0.1845785163,-0.6753635417,-0.3030078392,0.2126039324,0.3113954439,0.7744095574,0.2624434108,0.2815212098,0.3858829675,-0.0827252237,-0.3137897991,-0.9025877385,0.8763375605,0.0838541129,-0.707825789,-0.6964357787,-0.1411456563,-0.5059468252,-0.2510760772,0.2858931828,-0.8723449861,0.21226719,0.1243208093,-0.0722144213,-0.906619518,0.4967610386,0.4120160247,0.0349204931,-0.5034655663,0.0313795303,-0.3948485482,0.2743933046,-0.6799117966,0.3849146079,0.0079268644,0.3740611986,0.9227899524,-0.8606831731,0.6270657456,-0.4487704527,0.3555911829,0.0389333129,-0.7486355429,0.0537686715,-0.8674826584,0.8506482587,-0.6747797602,0.1054443693,0.7623081341,0.4983165611,-0.7952107868,0.382620982,-0.1295693604,-0.4841779992,0.2721255343,-0.8437287035,0.9877652417,0.7457531866,0.097569547,0.6945663168,-0.728772498,0.5875983443,-0.626171045,0.044100092,0.5511994655,0.6560975425,-0.1172829897,0.3569364266,-0.4189842148,0.3056285492,-0.0885572852,0.5918323626,-0.1558117408,0.7124467608,0.9230829537,-0.8153180595,-0.2132073772,-0.7542067085,-0.0896867751,-0.0670076142,0.4099918908,0.971375172,-0.9715095252,0.1907164111,-0.6896317827,-0.5877773079,0.0912423567,-0.8207755443,0.2939957938,0.9908505943,-0.3040758133,0.8855465294,0.2257954131,-0.6839074588,-0.3316368841,-0.8848287524,0.4210111647,-0.9979268231,0.9288673233,0.7070520388,0.9957814691,0.2635369135,0.3749960733,0.0970159917,0.2965609989,0.4477227645,-0.2905183533,0.7876170554,-0.2543017506,0.9894328927,-0.1528507874,-0.9311932054,0.669642412,-0.5294710362,0.2469599305,0.7448366791,-0.4938432118,0.5438862265,0.3702210368,0.979451117,-0.22337793,0.2510425054,-0.5231015626,0.8909002268,0.32569766,-0.9734715002,0.7713953903,-0.4579791601,-0.3719950927,-0.4993046412,0.8232522978,-0.9526216129,0.8679507644,-0.401535572,-0.5331548595,-0.2330474105,-0.1057894123,0.4600950563,-0.268343408,-0.8962854515,0.6327174381,0.8798116375,-0.596334358,-0.382844377,-0.6272467456,0.0338710814,0.8633810652,0.6669701477,-0.0856805082,-0.8333371817,0.5130293974,0.5089524698,-0.2711745766,0.3528956181,0.1565334822,0.3289535041,-0.0175076525,0.3279953719,0.7891400132,0.8567584986,0.844562858,0.1452792463,0.788716742,-0.0442556544,-0.3356214898,0.0128058377,0.9981009679,-0.9056180131,0.9012373697,-0.8566038732,0.3471697294,0.8592796388,-0.2371695967,0.2001149241,-0.1802107514,0.7270301565,0.6520362974,-0.8912792086,0.0884954814,0.3633864298,0.7380386412,0.646817444,0.4094998862,0.9531326712,-0.2120912641,0.9605661184,0.588062775,0.0601619138,-0.3340229282,0.9699703168,0.666768229,-0.1562402363,-0.0656356261,0.3325889454,0.9168673845,-0.4207276823,-0.6557514071,-0.3433577293,-0.2130249973,0.4070214905,0.1052649794,-0.4633074939,0.9305223357,-0.2515549044,0.9026939965,-0.8142274093,-0.4347082367,-0.9930294315,0.4308788,0.7143694105,0.9067543782,0.3444192435,-0.659575874,-0.1492867591,-0.0254930086,0.0755620837,0.2146441525,0.8372329131,0.1312273554,-0.8709790877,0.2800714956,-0.9799674359,0.2439766823,0.4028791326,-0.863040576,-0.2116435629,0.6468877828,0.0080292341,-0.6739610636,-0.7348199847,0.2879034132,0.6222143731,-0.8915208445,-0.663210174,-0.0011390727,0.3072542935,-0.0216071198,-0.0099163705,0.0679030001,0.6080905081,-0.3368375117,0.5882239514,0.3076076838,0.9054541215,-0.0280339119,0.8461330535,0.2755259539,0.8207983601,-0.2860921841,-0.3394350912,0.1337320319,0.5050060591,0.9137298002,0.8871238486,-0.9164024591,0.5336160641,0.3700057305,-0.5704868091,-0.3110603166,0.6125964638,0.5104943078,0.9317579678,0.6286868467,-0.1940189128,-0.5558926761,-0.7134130742,0.2395420056,-0.1397613357,-0.5793846488,-0.9912136455,-0.4069045263,-0.7885198446,-0.6081909251,-0.5403067604,0.508206791,-0.1631729476,0.3254865237,0.8214432522,-0.6907777552,0.4552454856,-0.6578913782,-0.5449552747,-0.8266070191,-0.3287501553,0.3902175801,0.6841408943,0.0782516464,-0.6402288712,0.9765106175,-0.6389837654,0.0892430986,0.6581954941,0.3778265155,-0.7905616101,0.7247354201,0.7715659061,-0.8120932038,0.6463182832,-0.8434494399,0.1380645317,0.2616811978,0.6494760953,0.0792139324,-0.7909068762,-0.5681763129,0.4544268736,0.0598884201,0.8680060281,0.1641092325,-0.0068546403,0.604607467,0.087891739,0.840104858,-0.7387994059,0.7038285898,-0.6083802199,-0.5986827939,0.7760775151,0.5464311564,0.7862500189,0.0380691589,-0.317290412,0.1718260475,0.2279518792,-0.9540085258,0.063248258,0.5090619256,0.1096531621,0.4113449541,-0.939677352,0.4671289541,-0.3000363668,0.3828865432,-0.7810053639,-0.6530716471,0.5350438537,-0.9830521652,-0.6695634543,-0.2721283178,-0.6054938782,0.9022295085,-0.9321517488,0.5871879623,-0.1715016404,0.9645910593,0.3101349804,-0.627003811,0.5904083867,0.511623463,-0.0307831029,0.5750617441,-0.8758760219,-0.5888890992,0.3688010725,-0.8342728927,0.7644076175,0.3055455174,0.6659001208,0.2617961705,-0.0913280182,0.240441199,0.682287095,-0.4384533397,0.2520939243,0.8055714132,0.8010151429,0.9927929911,-0.469202014,0.5477933256,-0.3029443173,0.1625082056,-0.9903440379,-0.3714691297,0.6644413536,-0.3496045226,-0.3740467147,-0.0821031641,-0.0904495188,-0.8282246301,0.1560490935,-0.9613024745,0.4952242477,-0.212962059,0.1484495455,-0.7028557166,-0.3390190024,-0.2661053743,-0.8242007169,-0.4921111992,-0.6617544048,-0.2024653251,0.0712289568,-0.8791737372,0.2989467652,-0.404504179,-0.8302655567,0.1278586811,-0.7305197935,0.2197025152,-0.819179148,-0.0189375476,0.6694028379,-0.9580730149,0.76879666,0.2512223991,-0.4634352075,0.2666697783,0.1316205281,-0.8212102604,0.1047976923,-0.6832636313,-0.4750014792,0.4385425616,-0.7768757232,0.9825138613,0.9099229836,-0.1738358306,0.2097172904,-0.0809177875,0.0071299947,0.638870419,0.2870398491,0.3564663923,-0.5388342015,-0.766863276,-0.8290197084,0.0040877121,-0.0677624976,0.9817248416,0.1424699202,0.6684045844,-0.3342860407,0.884235807,0.4201989,-0.4798270131,-0.5332439979,0.0533276346,0.6435415339,-0.26581641,-0.3715881657,0.7580766678,-0.2743002176,0.8912760571,-0.0461062924,0.7601205303,0.3961029036,-0.1590068196,-0.9808168017,-0.0814812238,-0.4114071213,-0.8629319667,-0.7935194028,-0.8190345242,-0.2842685042,-0.2534801081,-0.0668102234,0.3959238347,0.4931087428,-0.5827542478,-0.0308673346,-0.261650454,0.2132538999,-0.332653733,-0.0392010131,0.9035853619,0.3192128696,-0.5884899064,0.0631480878,-0.2196890892,-0.1182834875,-0.482114289,0.8038378082,-0.9200847706,-0.5592836308,0.891189852,0.2406159076,-0.2971791797,0.5459367363,0.166677605,0.410962861,-0.0126596959,0.7031624579,0.2628643205,0.0815122472,-0.8139084634,0.5221372611,0.1325498398,0.7232609537,-0.7088882597,0.0331751834,0.2295470815,-0.6484033134,-0.1554553055,-0.434072381,-0.7325500037,0.2216813632,0.7083110855,-0.7759039956,-0.736999886,-0.2626789433,-0.8025443584,-0.3519880243,-0.9947292117,0.5620989642,-0.1015193308,-0.617620848,-0.2575713983,0.8276774438,-0.4294584188,0.6175842739,0.5084324728,-0.6178885356,-0.2050317948,0.2280587471,-0.2902084693,0.85926662,-0.6185911485,0.7487359822,0.6641203275,0.1091791733,-0.0460179484,0.7155365216,0.0136884823,0.5412681559,0.2751829856,-0.9397569318,-0.3300527501,0.7509695488,0.1769419838,-0.8723605823,-0.7685953427,-0.6578172305,-0.1638379156,0.2490173215,0.1207428373,0.8584951997,-0.3123295542,-0.2524619886,0.8796805947,0.1326836093,0.8467855982,0.0367742677,-0.3794385946,0.6187380051,0.558828229,-0.0481124797,0.0235801123,0.4055009183,-0.2417392145,-0.4427649652,-0.0658421901,0.5897065037,0.7562803235,0.2933730535,-0.6988413943,0.3178495811,-0.3123146525,-0.5056337984,-0.103644695,-0.4097782591,0.8276862294,0.3015493082,0.9981521419,0.9904942858,-0.9261193279,-0.4055195967,0.7722129441,0.0138605163,-0.8043349766,0.3694679292,-0.1635553698,-0.7824041389,0.7487341779,0.2220491236,-0.2411241022,0.7715765774,-0.94006716,-0.625745253,0.6577109976,-0.896560206,0.1195722609,-0.4023348791,-0.1332407209,-0.6502328882,0.8642414727,0.5489029521,0.1074696567,-0.35191306,-0.2084027705,0.0381826656,-0.8130516695,-0.8446407498,0.9692857674,0.6284525608,-0.8808876251,0.1107281727,-0.3319443991,0.1503595306,0.6445918947,0.4206359271,0.4696290394,-0.0978339665,-0.4550112124,0.3718752706,0.9647287219,-0.3473136177,-0.1190863894,-0.8502028569,0.0436450679,0.9798455568,-0.4785166517,-0.8568847344,0.1008661172,0.3702835507,-0.6192322465,-0.424496409,-0.3733532108,0.3651408106,-0.9633721925,0.21254732,-0.6312218213,0.1541364665,-0.6800569346,0.5984902334,0.2763581461,0.2983527066,0.2400379189,-0.8815747885,-0.6205146071,0.2767532056,-0.1425696452,0.3897996679,-0.3157162294,-0.1812750206,-0.3855188328,-0.6266144854,-0.3297395495,0.4140106237,-0.7873490267,0.705948293,-0.2445323127,-0.9774601872,0.2118610301,-0.9054084975,0.6834077166,0.8603406231,-0.3905660099,-0.0418760336,-0.6485827159,0.7450878277,0.2229379739,-0.1047267171,0.9144220536,-0.8479949063,0.9474850625,-0.6605457651,0.6821549859,-0.4472842164,-0.0364064032,-0.3324112979,0.03328581,-0.6567246964,0.5653111067,-0.8669407456,0.6557457667,0.7180466772,0.7358065899,0.0583065553,-0.3144114727,0.6599840012,0.4548749893,0.5107589637,0.0139789262,0.0442890411,0.3586156135,0.0971197963,0.4584377226,-0.7790501756,0.6246009486,-0.8198690636,-0.4078776837,-0.3643327417,0.6583782797,0.3108451483,0.270198941,0.686726096,-0.0386450479,0.4207466341,0.949025778,0.0090818208,0.7725474231,-0.2253773041,0.50340399,0.1800023253,-0.3404953387,0.6886541811,0.6268133061,-0.8896869459,-0.6308398645,0.8371696182,0.9510008824,-0.0172672921,0.4919586287,0.6150000198,-0.8919096858,0.8503425354,0.1405615974,0.7353283738,-0.810735935,0.3560499371,-0.6098091001,0.7772279419,-0.2367751869,-0.1885738087,0.9195945636,-0.7956100503,0.3785568365,0.6359252682,0.0732061545,-0.1688051352,0.5336608438,-0.1258225254,-0.1988803918,-0.6291948296,0.6809484917,-0.2331750035,0.1664762381,-0.3631782413,-0.5041398497,0.2500892992,0.8949312189,-0.2052929994,0.7867319152,-0.3293531893,-0.2012026842,-0.1524712356,0.7397380241,0.2832631171,0.9716744801,0.0538133852,-0.499464447,0.0790528315,0.4934032383,0.1353224,0.4061473469,0.7070702945,-0.1800687022,0.1797604405,-0.0071644281,0.3897374359,0.9863192124,0.2198111902,0.2782552171,0.6821835693,-0.0239571858,0.8423855556,0.9477167776,0.8628645252,0.3437694279,0.0301648152,-0.9296990367,0.6155591585,0.5999020784,0.0919293798,0.3615258579,-0.0115281818,-0.8785780665,0.8974270329,0.1963596404,0.25007291,0.2072426515,0.6007484884,0.5214450155,-0.096250681,0.4289972714,0.4705603533,-0.481970231,0.4771178067,0.5538080661,-0.1161837661,-0.6413875818,0.5890622839,-0.0208031342,0.8570231925,-0.1143962085,-0.9461023999,-0.7258991337,0.257337807,0.3050729286,0.899031807,0.0611070161,-0.5108440451,0.2634176631,0.259811328,0.0570194678,-0.9078094028,-0.9549947385,0.9268102479,-0.9268728641,-0.7046738531,-0.1187169288,0.0895476376,-0.9773020466,-0.1614557953,-0.0063323259,-0.6303400111,-0.8790737857,-0.7060105479,-0.2878733778,0.5981237925,-0.8667334172,0.7141629195,0.7534405208,-0.4731580869,0.9456672833,0.8722733443,0.3315023992,0.039427633,0.6992128403,-0.1148799439,0.5344974258,0.8462169777,-0.2162355103,0.324313778,0.5299189387,0.2972182509,-0.391198412,0.4422980592,0.8122645183,0.2902278079,0.139562871,-0.5907938966,-0.3013408176,0.1075096418,-0.4333733289,-0.2280122175,0.1418834652,-0.4472553338,0.075422386,-0.5348970598,0.0168688749,0.1860068805,0.2331125366,0.5058306928,-0.642672714,0.0664122682,-0.1664839843,0.3362006053,0.4034170378,0.9249532132,-0.987308419,-0.2088260013,0.9396735336,0.8644949764,-0.0837563651,-0.8081954229,0.6299040597,-0.371645108,-0.6836134591,0.1476768984,0.518021745,0.8841754013,-0.6510506968,0.9516456808,-0.3993909333,0.232828983,0.3502506172,-0.7600029534,0.4070432295,-0.4662682609,-0.3609533787,0.9177891667,0.8280028117,0.1517671993,0.0299539673,0.9008681604,0.438827722,0.1504731768,-0.1823738259,-0.7814654205,0.2982347119,-0.2798192107,-0.2215859452,0.298414353,-0.5037646275,-0.6742700438,0.1724294132,-0.9219235242,0.1095742348,0.5198059609,0.372122407,-0.8349152059,0.9029554383,-0.2901018646,0.2918332529,-0.9496411502,-0.3118187467,0.930774213,0.6823084338,-0.9832115123,0.7343481724,-0.4214361713,0.7198094267,0.6014045735,0.2692249009,0.7127230781,0.0643157303,0.7313012026,-0.1179240723,0.3032332867,-0.7310306302,0.8436636022,-0.1965266184,-0.8445307074,0.1343391545,-0.5068556201,-0.4639757231,-0.9191112265,-0.791363687,0.1776812082,0.0859221444,-0.5795089675,-0.5560826973,0.4541082139,0.9789171934,0.3064741945,0.9215995694,0.9060856267,0.5085297263,-0.4912611028,-0.3776661688,-0.5868734219,-0.8267299929,-0.2434303782,-0.4425165253,-0.1410086926,0.8758803093,-0.6316615734,0.6976870295,-0.6085400559,0.8651447564,-0.2270744015,-0.2416802765,-0.8736018317,0.2311121317,-0.3434682011,-0.0066460253,0.6484338809,-0.5334029826,0.0027591051,0.934667307,-0.1612014408,-0.907976674,-0.4830391802,-0.0014449366,0.5286959968,-0.0073253921,0.5631838707,0.9019246683,0.209070684,-0.8118651358,0.4234733779,-0.7404299291,0.4375381738,-0.8153954642,0.8251827411,-0.7476417366,-0.2243512615,0.4772981396,0.5189973478,-0.3763688748,-0.2457342952,-0.8775082411,0.0222812433,-0.5603019256,-0.5441845204,-0.4597954171,0.7899734554,-0.8014155839,0.106566879,-0.7287209421,0.4873295213,0.1504791608,-0.783249886,0.254054887,0.3941786203,-0.0617202704,-0.60913908,0.7513300257,-0.3664608879,-0.9912231893,0.9824137694,0.3246492216,0.9848786319,0.5998329007,0.1677828088,-0.6198031027,0.947020939,-0.0473837193,0.1565130411,0.7373212229,0.6244278093,0.3701693501,-0.897531472,0.3688038406,0.934318434,0.8854059599,-0.6560780791,-0.3189024089,-0.7600819069,-0.2342030474,0.9174895062,0.7238445085,-0.6062612726,0.1029010269,0.7389362353,-0.3508602356,0.7387300979,-0.2315157348,0.2266242573,0.5060068371,-0.5511720143,-0.3518907898,-0.1627316709,-0.0975132658,-0.5708725243,0.630224293,-0.2311680825,0.3479451032,-0.6326812937,-0.1490090391,-0.8302761083,0.6785036931,-0.4982468293,0.8122039327,-0.6861248296,-0.8834705646,0.5244181696,-0.2109300747,0.6123733314,-0.54982434,-0.7816900793,-0.3078335309,-0.4879050362,-0.6388762498,0.103750906,-0.2361731208,-0.513335681,0.4624810535,-0.9026294602,-0.9242215849,-0.6244646674,0.1187157393,0.0736574978,0.2508022657,-0.9846690744,-0.9051276224,-0.0952748889,0.4342486997,0.5171374016,-0.6177087403,-0.1287478441,-0.2077583287,-0.8966520366,0.0541013349,-0.4318909194,0.1146569282,-0.5692485304,0.1851356961,0.1096116863,-0.8418912039,0.9411141016,0.3927193352,0.6262675744,0.3615709823,0.4855144156,-0.7449757774,-0.2412861096,0.121881464,0.459262312,0.613597495,-0.7423970581,-0.4182458198,-0.0454209967,0.7883108658,0.5031935563,-0.268512809,-0.0503906187,0.2306221804,-0.3143809872,-0.7809657668,0.2949550569,-0.321598847,0.4433725385,0.3047813712,0.6461891212,-0.5321139799,-0.3597243299,0.0396728032,0.3460091208,0.6286387838,0.2104510564,0.0520053018,0.6514529377,0.0513690218,-0.1593756147,0.8483798615,0.0937455271,0.0247342214,0.4547673011,-0.2094041654,-0.7280520143
   0.243164094,0.8223423077,-0.212061103,-0.1267367666,-0.7338779719,0.6714749517,-0.8821386357,-0.3985072952,0.9401257439,0.2855140109,0.3782146995,0.8282331575,-0.4951365769,-0.481915525,0.3385544209,-0.4538655414,-0.6660718579,-0.0336106899,0.8399301933,-0.6867426707,0.807182933,0.0081530181,-0.4847012629,-0.2037796714,-0.7257359367,-0.4060226281,0.482158225,-0.2975239977,-0.8689511111,-0.1554715896,-0.6478835543,0.7021353867,0.8202629217,-0.9255003743,0.4963612127,-0.6908063796,-0.2719088848,0.6164069978,-0.8663021521,-0.4695816376,-0.1785716993,0.816593314,0.686905309,-0.305860206,-0.3485203928,-0.7057751183,-0.8121065397,-0.5173491772,-0.1281795825,0.2141988672,-0.5771406659,0.0290184382,0.4095169322,-0.1652153058,-0.9540993804,-0.5402260918,-0.5565354107,0.0275906814,-0.1217685959,0.2888571433,-0.2304240484,0.4989535006,0.8590213276,-0.4934702106,0.6451214207,0.4552554419,-0.6042723494,-0.1786522043,-0.740517257,0.290634221,0.394774029,-0.7652472824,-0.1097584631,0.4450932151,0.5099712814,-0.128536194,-0.6542820054,-0.0363168198,-0.8833919831,0.7987680821,0.2064825975,-0.5612379648,0.7764388016,-0.6564301872,-0.4311140364,0.2501897862,-0.2848158032,0.6021888101,-0.8719694684,-0.4261543978,0.4524405802,-0.1229778435,-0.2089148845,0.7988015595,-0.1861906622,-0.0764975531,0.4944878986,0.3191736016,0.6806989383,0.0772449042,0.1938858916,-0.56625561,0.4229663995,0.748432932,0.6559751509,0.0271373306,-0.1188896583,0.1177351922,-0.7094177042,0.277660909,-0.7612123634,0.8795964369,0.9141381128,0.5790041791,-0.1766686457,-0.5688609263,-0.0829518115,0.0780098439,0.3039508614,0.733491901,0.3658415597,0.2440216022,0.2411766857,0.224629123,-0.2492482571,-0.2749514734,0.2139104197,-0.2994287453,0.4589293336,0.2638275392,0.7261006072,0.5494020082,0.2375215758,-0.7281734937,-0.6889960501,-0.6223637588,0.1884419124,0.1723044228,0.7911861823,0.6979658784,0.5647263388,-0.1400125263,-0.5768262619,0.6479879408,0.1163239039,-0.9144015961,0.8863376075,0.8712538302,0.2855080942,-0.9075858596,0.9007133722,0.3304269466,-0.1137841276,-0.0632402227,-0.2475921457,0.3875631777,0.4274225681,-0.8996427031,-0.2894107934,-0.1487331014,0.4914757707,0.4019617346,-0.9397275521,0.2668777925,0.1352116867,-0.579893724,-0.4839490981,-0.5002564826,-0.7163981087,0.2280997972,0.7209787015,-0.3297988597,0.2470462905,-0.117806108,-0.3076988802,-0.6869908968,0.6405672968,0.5806100745,0.1543173079,-0.5041087305,0.2290474723,-0.6513085773,-0.6486435171,0.0940500595,-0.2581928174,-0.5261088436,-0.7516993915,0.177671232,0.7058500648,-0.2183907796,0.1878926832,0.6622242415,-0.6143648725,0.7452937096,0.0538586803,0.0266739865,0.1092036993,-0.8091013766,-0.9945557892,-0.3680965104,-0.6512645851,0.5214415056,-0.8086061249,-0.1646058381,0.6535417242,0.439685073,0.4574747583,0.0923456751,0.6438961199,-0.5475387224,-0.4643255533,0.9603676369,0.5376625901,0.7992123531,0.680535872,0.0005626935,0.726698558,0.4244048737,-0.8622100626,-0.8931408866,0.6931425693,-0.2979398776,0.80362847,-0.4691570255,-0.1069118328,0.2730203898,-0.5709608659,0.691326904,0.0621562346,0.0516241408,0.5749880122,0.6212132877,0.374776575,0.8707519355,-0.6383656215,0.8404613749,0.4048121994,0.9288899371,0.3558146301,-0.5457837668,0.8931774906,-0.5793969633,-0.5390070756,-0.9229358658,0.7573362091,-0.1127587881,-0.7087964998,0.6450249664,-0.3378926845,-0.3514874674,0.9035612873,-0.8700999783,0.934798995,-0.2517424923,0.0503881625,0.0348234071,-0.4639290547,0.2433914913,-0.4400967396,0.9085255777,-0.9622744091,-0.0954733846,0.8306570787,-0.4947449589,-0.8185667005,-0.4319942735,-0.424479676,0.3587939346,0.0309653928,-0.8033196037,-0.0706237308,0.7277684676,-0.0227705559,-0.0331920505,0.3605053172,0.1366313768,0.63807874,-0.4649174974,-0.075353176,-0.418699393,-0.0327058398,0.1298318536,0.0324427657,0.7863164542,0.1089448951,0.8794198276,0.2128472212,-0.2454358127,-0.9541364945,-0.9927243924,-0.1777899108,0.8859139465,-0.1428153888,0.4287476052,0.9852495289,-0.1567360334,-0.1705578061,-0.9265817701,-0.2243267137,0.938552309,0.3955293982,0.9567309785,0.9498900306,-0.7257594658,-0.4497646053,-0.1745817274,0.7897592613,0.3424556703,0.745075981,0.1942570124,-0.5304827788,0.4055077827,-0.866203492,-0.3913017254,-0.4370958572,0.3761173469,0.0640375873,-0.1169000354,0.1509883436,-0.8116990463,-0.6575675868,0.6095629604,-0.8766527496,0.5583047413,0.3524124059,-0.394676184,0.6192540513,-0.6423435859,0.3784409246,0.9393233355,-0.6585281369,0.9782967247,-0.8969925605,0.7811470288,0.3437881555,0.2952185535,-0.8896319024,0.5170287801,-0.1067209503,-0.1555083352,-0.310633494,-0.3202959978,-0.0200280496,-0.2555673636,-0.7005040984,-0.6012360892,-0.7162766336,0.4521665392,0.2049713581,0.5397805632,0.8425764655,0.3984659821,-0.3486909404,0.7473016106,-0.9049308821,0.6975858659,0.0595009915,-0.5976127007,-0.6970704805,0.031000639,-0.0702321098,0.3388023501,-0.8783402675,-0.8929231596,0.8441894079,-0.4137461626,0.0730089536,0.4308061239,0.4999014025,0.4358833753,-0.1654760835,-0.6584086512,-0.9521660457,-0.1105565891,-0.1703651403,0.3567960762,0.6841792519,0.3278368815,0.1123746933,0.229477848,-0.8202162681,0.5626497641,0.7902441762,-0.7024796377,-0.8749674744,-0.3561102375,0.2017981119,-0.094500653,-0.4000115332,0.1397564731,0.2707055343,0.1623831334,-0.8122207973,-0.8343064463,-0.0728439578,0.1964606052,-0.5997707869,0.674875684,-0.8324916877,0.6122792847,-0.4744684941,0.5613051628,-0.5673425997,0.7450444547,0.6558835713,0.7711052039,0.7110644133,0.033966307,-0.8821529781,0.0719698765,-0.5274175348,-0.7478202345,-0.0175122716,0.6642715193,0.1081039837,-0.7888648337,-0.5611086658,-0.0977156062,0.7640982351,0.3170150577,-0.9227360227,0.5627335393,0.2109004403,0.9488237571,-0.5563345132,0.2031460291,-0.5364493888,-0.3409243381,0.8471765128,0.9904859563,-0.5378335448,-0.2051702555,0.4477068462,0.4070808978,-0.7889490454,-0.5147726496,0.675289791,0.7110934439,-0.8508483055,-0.7325941186,0.1533292275,0.7576687746,0.241384993,0.3254647194,0.2384942965,-0.0638218831,0.9078298479,0.2315936614,0.3609332113,-0.9099578951,0.2598639699,0.1570205572,0.5849302595,-0.5792504777,0.9293405861,0.8219130905,-0.4398486569,0.1776508444,0.4893814467,-0.4703199372,0.3880371313,0.8151388454,0.0179705836,-0.6763819159,0.2638918873,0.8202816883,-0.4453103494,0.6912773216,-0.910292976,-0.3950674064,0.6654169181,0.2610850209,0.9049674546,-0.5537819528,-0.4992539181,0.1498473808,-0.4767566623,0.8018584998,-0.030784567,0.2939584336,0.4365037326,0.8851332008,-0.7926949173,0.5839232637,0.3986666699,0.694367866,0.5828573503,0.7730101499,-0.781781594,0.0271041965,-0.05764845,0.1188817339,-0.0100813485,0.821537885,0.1328437389,-0.6128386066,0.7620737995,0.226938019,-0.0186082692,0.2077537414,0.3311935136,0.149662427,0.8851261528,-0.5602654832,-0.7346334254,0.9885819207,-0.9892935484,0.3235772074,-0.3826907957,-0.2245566425,-0.0390800042,0.5250740534,-0.182558963,-0.8206183845,0.2862898654,-0.7635552052,-0.4712399927,0.1154230001,-0.4841316236,0.5814886908,-0.4188034736,0.2736342205,-0.8215817803,-0.4719982996,-0.5528432473,0.20453546,-0.5208622115,0.0598996938,0.3111044535,-0.6001858919,-0.0192051033,0.6840846604,-0.2683081058,-0.2309022258,0.2639161108,0.9601367253,0.3781776265,0.2409436134,0.5406185787,0.4827327137,0.7051902372,-0.5323278248,0.8827194976,0.926961143,0.9983128801,0.0547748167,-0.4649800522,-0.2664222085,-0.5377473004,-0.9650919014,0.189976468,-0.8312948588,0.2770628481,0.4486463142,-0.4976414788,0.997578265,0.7717996791,0.0133150401,-0.4730999743,-0.020882135,0.3261191328,-0.6885783212,-0.4742588744,0.5624944499,-0.9008333394,-0.0093881553,-0.0382384312,0.5481599732,0.161741308,-0.3218969169,-0.5050650343,0.3312747712,-0.4628235105,0.568432015,-0.4181159892,-0.2276129748,-0.4640953317,0.1929271681,0.969225884,0.9175446171,0.2682853831,-0.0389741185,0.0464911756,0.7186962054,0.2632463072,0.0595704272,0.6325773412,-0.3813916421,-0.7159017665,-0.6861980656,-0.6399223404,0.1087132681,0.4568334828,-0.1202838691,0.0427708611,-0.2752236202,0.8820796761,0.6721697887,0.257840014,0.249047602,0.4690803597,0.2941024843,-0.2877773045,0.535963285,-0.2313398619,0.2212622954,-0.0015936512,0.1781832752,0.6513857698,-0.2293884365,0.5889521746,0.0112890019,-0.0047199335,0.9230525766,0.3750993748,-0.2734759716,0.4536086179,0.5781421221,-0.5372891387,-0.3224057726,-0.931572848,-0.4683468171,-0.9764633267,0.4318553972,0.136201694,0.1286620741,0.4071135402,-0.6179738023,-0.7300662074,0.7640156916,-0.7429246757,0.714894093,-0.1159168253,-0.4142273101,0.7503773465,-0.8624859375,0.7098562572,0.6487040474,-0.9270692108,-0.9688708887,-0.7663983151,-0.2555057316,0.3015715439,-0.7491842521,0.0433131557,-0.3862119854,0.8887990521,0.360163751,-0.8623944799,0.5503267476,-0.349342519,0.0481139066,-0.4709906125,-0.967390457,-0.7379558432,-0.7422041602,-0.0843222938,-0.5668409471,0.0312506815,0.3482297393,0.197982664,0.9683858992,0.8199057483,-0.849766713,-0.2557556167,0.8866117461,-0.7296077765,0.7692583389,-0.0930269828,0.8584006462,0.6292018584,-0.501981233,-0.5212511533,-0.384387199,-0.9791889991,0.6903472752,-0.7393203161,0.6625604935,0.6795007158,-0.5729508872,0.491221204,0.3149599876,-0.0018594226,0.447720141,0.5610727862,0.7903360145,-0.350639895,0.4986084557,-0.0561781059,-0.4473208326,0.9479099197,-0.8212821291,-0.5157312636,0.1075143764,-0.8455266704,0.2535333447,0.5013725904,0.2299583489,-0.308547022,0.9038653643,-0.6403002519,0.8609308307,0.757129847,0.0037297953,-0.1057987795,0.2862922101,0.9404789098,0.0151474387,0.2520680462,0.9251695576,0.1201302399,0.7264509896,0.5728523682,-0.5961780797,0.6451581364,0.8486126177,0.3662569795,0.3849890956,-0.8086291084,0.7965852254,0.8947486025,0.3544987471,-0.00705836,0.7025052904,-0.967710797,-0.8949291674,0.6817704566,0.6090981689,-0.1046813367,-0.1001926068,0.4864522407,-0.519120642,-0.3356330288,0.7676027101,-0.1545917086,0.7647281898,0.0684705655,-0.3135285625,-0.1089865339,-0.3238842875,-0.9407387648,-0.6047451727,0.1825200765,0.5917998717,0.7789602704,-0.9975365938,0.567744788,-0.8882752167,-0.2941035042,0.1312822549,-0.3654221416,0.9587823512,0.1263796695,0.7164182958,0.3066790144,0.6386685823,0.0000981483,0.8856357134,0.7895548777,-0.8151191516,-0.0580000428,0.7234296505,0.3514210104,-0.7927624018,-0.5889980418,-0.8479899411,0.9825351207,-0.1856347515,-0.4729219687,0.9511611557,-0.4716068813,0.6427039586,0.4602118441,-0.8928846789,-0.5701893727,-0.9817406858,-0.690870846,0.1350434659,-0.1929388713,0.0797566566,0.4902518512,0.3793978334,0.7832673517,0.8989982098,0.4684243875,0.8948673693,0.5542154258,0.6857607768,-0.1065544159,0.1311508769,-0.8574354685,-0.9176264748,0.0571466779,-0.6720674847,0.3343719272,-0.1662930468,-0.2054511141,0.4954323586,-0.1186449089,0.0169813939,-0.7932907204,-0.2296375172,0.8719193462,0.0526724513,-0.5263073205,-0.3873458027,-0.5930557948,-0.9740813459,-0.585915046,0.2641805045,0.5720797381,0.1848215046,-0.8370470918,-0.0081129377,0.0768846883,0.0220643493,-0.5437779768,0.2740133078,-0.7155508659,-0.2551010275,0.106615905,0.150219947,-0.1444146071,-0.8697574784,0.4312017234,-0.1605757382,-0.7709125805,0.382798339,-0.3871080194,-0.2712710243,0.594872126,-0.542287721,0.7863225762,0.2266595371,0.6031917234,0.4458638128,-0.2053246207,0.9986058439,0.4008842467,-0.1153038015,0.6348558368,-0.3578486294,0.5114058851,-0.0795922865,-0.2102104388,-0.3126549249,-0.5002923025,0.3948202098,-0.5466945347,-0.3284324482,0.8683613978,0.3829653089,0.7612491546,-0.7503574387,0.9143456037,0.7440002063,-0.0210458818,-0.3563618881,-0.8709273362,-0.1784155291,0.9391924609,-0.5663056555,0.0512564705,-0.4372188467,-0.0799730043,-0.2867151968,0.2550992259,0.405393616,-0.0440336632,-0.9276410206,-0.9480879406,-0.740457306,-0.3109115241,-0.3537546859,-0.3642637436,-0.6952604866,-0.9521753124,-0.5483858197,0.5318286298,-0.0211283544,-0.584254652,0.9350727204,-0.4870264501,0.4956098602,0.5223180254,0.3504061924,0.877874536,-0.4874013612,-0.5335310436,-0.2552203391,0.7788138445,-0.5093394359,-0.023415295,0.0377706653,0.8560051318,-0.9107117853,-0.4231018028,0.5835686684,0.3151211679,-0.2480442389,0.5218849914,0.4474276624,-0.8374286278,0.5740067345,-0.0469912422,0.1958140238,0.5727067977,0.8209754158,-0.3511908535,-0.2797169158,0.8801271642,0.2692723932,0.9642126575,-0.1211212871,-0.7018348583,0.4401284211,0.7318714491,0.7159231121,-0.4972047236,0.9931403897,-0.1512347993,-0.5324567814,-0.3183979418,-0.2878873826,-0.2200615647,0.8460695595,-0.7902040046,-0.2785376868,0.6437767525,0.4687175886,-0.3613175211,-0.9665750944,0.7704997003,-0.8029459991,0.4900809023,-0.4002278777,0.8505916725,0.4096656369,0.0598538439,0.4689826594,0.0306345464,-0.3988190688,0.8090024696,-0.3754263493,-0.1889940089,0.2403993001,-0.1957277486,0.5433504657,0.2520362635,0.4588916987,-0.3002077977,-0.94252848,0.752565223,0.6845294634,0.5740963582,0.233744145,0.5143847626,0.8204829809,0.1810656264,0.2637050745,-0.9395009142,-0.2044967501,-0.6808221791,0.4554669929,0.9602778264,0.6696810843,-0.2662437059,0.7446192642,0.4736900546,-0.9139498957,0.6044766098,-0.9412273368,0.9128636361,0.0475752135,-0.9733377756,-0.2421283981,0.3912744814,0.1831374117,0.622529136,0.5020104804,-0.5158418788,0.7776737631,0.5813203999,-0.3123489361,0.3710268033,0.3393820213,0.7573861511,0.997326328,0.0003524839,-0.232665303,0.5540133923,0.5301598313,0.9348615224,-0.2600350256,-0.8454745912,0.8657252853,-0.338062352,0.7882810903,-0.2544522215,-0.7336574326,0.4245291488,0.5525072064,-0.5690700223,0.2127086102,-0.8110687819,0.1829970325,-0.1318985471,0.8684963632,0.0866818748,-0.8006371377,-0.769173886,0.0250178978,-0.1523779847,0.0307484652,0.054233813,0.6329669634,-0.7482462063,0.9694295606,-0.5234892622,-0.102981053,0.2960838602,-0.1218927622,-0.2318900296,0.1975565068,-0.1858721057,-0.3035398485,0.3133586019,0.2279182834,0.890884637,0.7266758809,0.0036543627,0.1195545103,0.7794668704,0.1363026901,-0.2756575725,-0.4111390227,-0.6276707149,-0.6023002832,0.2653502682,0.0124715391,0.7349890272,0.88921748,0.9572186345,0.3742688944,-0.2298842085,0.0586547391,0.2928264216,0.860840479,0.6094905326,-0.9171310254,-0.5816138189,-0.8823497287,0.6732188968,-0.6146718966,0.9977629815,0.1574660976,0.471665664,-0.6014692589,-0.2929925829,0.9577597472,-0.1900023193,-0.8591197971,-0.875133119,0.4877926994,-0.6111226259,0.8832457455,-0.9512829637,-0.6847763647,-0.0650954729,0.9495465594,0.7081428698,0.5674719899,-0.0526502881,0.3703466514,0.1946493999,0.103660421,-0.080445055,0.0272329567,0.5179791977,-0.939291954,0.2030360747,0.1850498991,-0.2125153812,0.8850619263,-0.8590128921,-0.885288874,0.9661890662,-0.9977277672,0.78947503,-0.2132352327,-0.1920649049,0.0184416292,-0.8743001414,0.4717384249,-0.0265713252,0.6661745672,0.3705885379,0.2175315676,-0.2798232047,0.9737401692,0.7075065658,0.6351649476,0.8135907397,0.2672075858,0.9037352197,0.6925619048,-0.9662060357,0.6171195221,-0.6040317632,-0.8938378724,0.1733437325,0.8765153678,-0.2631199744,0.9867259703,-0.5147724752,-0.8493688761,0.5107387777,-0.5826665207,-0.2365594402,-0.01931472,-0.9709066175,0.0287258912,0.3024560625,-0.0606092767,-0.4839537507,0.4611540902,-0.3603102876,-0.6313896255,-0.124382597,0.539807717,-0.8518440097,-0.0435658683,-0.5750781379,-0.7075084183,0.8995923488,0.8867190887,0.3795861373,0.1966503255,0.9472718973,-0.1787351543,-0.6152872888,0.0177219836,0.1407481492,0.9953035807,0.8508945026,0.2387064483,0.6275588944,0.2273227604,-0.104850649,-0.8169914614,-0.7750304687,-0.4608177194,-0.5751443865,0.322645564,0.9494889668,0.4058717462,0.0922608704,-0.3234462272,-0.2183807344,-0.0894151892,0.9920147784,-0.9551929937,-0.241971632,0.3246597667,0.0654888745,0.6230021319,0.4339951261,-0.7323067917,0.2413897462,0.3257166827,0.9301888928,0.323270992,0.6737898098,0.0684762874,0.831126408,0.3651122227,0.1763929644,0.3118855284,0.0918891889,0.8800174308,0.1902359391,-0.1858452841,0.3303038571,-0.0968742607,0.4411750561,-0.8896533959,-0.889812486,-0.1643076874,0.6078031399,0.5790084663,-0.6300030273,0.3032437293,-0.3425197062,0.9103867749,0.0563604292,-0.9727519526,-0.880252393,-0.2092769133,0.3731875109,-0.0939854909,0.0609808521,-0.6540459448,-0.8638814465,-0.99029854,-0.9324441945,-0.8415665469,0.604575661,0.9462293759,-0.3916193211,0.7256513698,0.8708653076,-0.7910712326,0.4915234763,-0.796757464,-0.7192453469,-0.9121368498,0.813679306,0.5869293366,0.5009363087,-0.5157512573,-0.9220815251,0.1728540516,0.3856400334,-0.3808984025,-0.2918796315,0.3615963043,0.7709681806,0.6696142394,-0.8822825189,-0.0841928808,-0.6181482607,-0.8633325782,0.3885376243,0.4312820785,-0.9703103921,-0.6453537304,0.5367541002,-0.2250052307,-0.7934191737,-0.8366035406,0.2260405783,0.9001179035,-0.1301040084,-0.048815143,-0.0550144164,0.9243899534,-0.6921403125,-0.5498390988,0.162182911,-0.3513659073,-0.5264576188,-0.4376951391,-0.09714807,0.0015390463,-0.0552138784,-0.398283621,0.3694499587,-0.3406997827,0.24019061,0.5706763719,0.2726936288,0.4319711932,0.8400877184,0.0351179012,-0.5544740692,-0.4789958605,0.4136991893,0.3851479969,-0.5492111881,-0.6714563049,0.8688171161,-0.3235834649,0.5105901546,0.9423009411,0.1401840653,-0.983824432,-0.9204391382,-0.4788652069,0.0611051825,0.2995991847,-0.0188731395,-0.9866798172,0.1491909452,0.1016545893,-0.4288978711,-0.8002769285,0.0150176251,-0.8350606973,0.2089420563,0.3438426311,-0.301620911,0.6698064424,-0.4625577432,-0.534490231,-0.9807803593,-0.7313467593,-0.1643937228,-0.7626381282,-0.325941765,0.8712025854,0.0531289823,0.3778124534,-0.6440941278,0.079677065,0.3006354207,-0.6951204098,-0.9651247088,0.959585049,-0.9924836282,-0.297198895,-0.0969111902,-0.2416553464,-0.6902086312,0.2908326594,-0.1459166627,0.2072740217,0.3545856074,0.0574053385,-0.2149037642,0.542488033,-0.1165597714,-0.07274197,-0.9950567907,-0.6211280466,0.2883815801,-0.7665362065,0.8462501735,0.7625786598,-0.9956586351,-0.4800274439,0.0732469054,-0.3064252919,0.1834034132,-0.6201930894,0.9455147426,-0.5328908356,0.0121089687,-0.3135551861,0.6577385636,-0.445912789,0.3758702475,0.057971442,0.538046206,0.6028046688,-0.9870394571,-0.5569115065,0.1127967018,0.5052102702,0.2750803379,-0.2899379981,-0.2477440881,-0.0087103748,-0.8862561647,-0.8461568136,-0.8736514977,-0.5277178767,-0.7098966153,-0.8505320808,-0.1185215482,-0.8302191798,-0.0046864471,-0.8569090208,-0.8321493042,0.8906392623,-0.8646640104,-0.8205775373,-0.0708786084,0.2357103132,-0.3783983172,0.2956820021,-0.16038458,0.1799665527,-0.5741342706,-0.2805211649,-0.7535389288,-0.9141068304,0.4888687667,0.5333808593,0.4184315937,0.3665041351,-0.6330968069,0.5103820208,0.619568206,-0.9214891293,-0.6491697792,0.785259316,-0.2299884647,0.4063667718,-0.3872030962,0.7075017714,-0.3115670309,-0.3802475148,0.2012453579,-0.0331799104,-0.6928293481,-0.0569666342,0.6664361823,-0.5394402974,-0.6244699496,0.0964606321,-0.8703388371,0.0239054803,-0.8638772634,-0.2386568977,-0.2385339572,0.1332916067,0.4107470105,0.1460842333,-0.0808457174,0.2712879559,0.0720138676,0.9917338384,0.6705957709,0.6416478202,-0.5269821693,0.5692252832,0.0054541004,-0.8609758024,0.4479744623,0.6353140892,-0.4887980534,0.2689159106,0.9321453766,0.7159005358,0.4698093836,-0.232012383,0.8185089866,0.3568714164,-0.2516579931,-0.7931147422,-0.6974503062,0.2341905827,0.2516084449,-0.8459321959,-0.4514383954,-0.913546263,-0.2804219581,0.9227306441,-0.6040798459,-0.8309182976,-0.7851097307,-0.4177105929,0.2786995326,0.7687977982,0.4287653855,-0.7531573142,0.5268402394,0.7166048301,0.1310164386,0.1307029421,-0.1005128705,-0.3110482844,-0.8452153767,0.3888639156,0.5395922824,-0.0618472179,-0.1665403343,-0.5847596205,-0.4863280393,0.2527855965,-0.3832098686,-0.66429393,0.0412926221,-0.3247693537,-0.7199723098,0.580604384,-0.8521768331,-0.9292894494,0.3407223002,0.1879962781,-0.6109758566,0.0320544466,0.0331866853,0.4953056713,0.6829774442,-0.8255535117,-0.5865663723,0.5621287008,-0.8790110983,-0.9098815011,0.8388370719,-0.9556031222,0.2140754996,0.1352342691,0.8543058109,0.9304540842,-0.4843052683,-0.2828354523,-0.4516186881,-0.355307812,-0.4358769637,-0.2608468514,-0.5677344771,-0.5142469881,-0.916606892,0.1939795042,0.1087521958,0.9904315577,0.8492575424,-0.5872121541,-0.9648942313,0.5870942335,-0.934148284,0.5401241132,-0.0905591081,-0.5758756523,0.0730597498,0.073694576,-0.4789164342,-0.5773023782,-0.3815693911,0.5123580092,-0.088371014,-0.1741769967,0.068155314,-0.3451451205,0.2247335854,-0.3257192056,-0.6231532287,0.9882550897,-0.616617285,0.9022426637,-0.0622383187,-0.4488228184,0.2362451466,0.9906494881,-0.6882920601,0.4360760135,-0.2298993452,-0.0714686096,-0.7579716465,0.9518375705,-0.3192507093,-0.2091464504,-0.292593812,0.5608821578,-0.7455669964,-0.4700913989,0.597293507,0.2619467236,0.9178665086,-0.0812555212,-0.5039786248,-0.3247636578,0.8524402384,-0.4944601622,0.4738404133,-0.1215052344,-0.5294457171,0.3006182597,-0.3480135389,-0.0049506672,0.1035668844,-0.0943236224,-0.7951437493,0.5417046069,0.0164309177,-0.524632065,0.7746444727,-0.4360315159,0.7540159743,0.2431757098,0.6390372627,-0.9977867551,-0.11106639,0.3047330318,0.9420196631,-0.9769755699,0.5945367988,0.5958640543,0.4094917704,-0.0489550736,-0.2591553919,-0.9858989633,0.8182294755,0.3452866307,-0.6707036973,0.637332884,0.4681340027,0.678767044,-0.0955691387,-0.4132596835,-0.1273413467,0.6452867567,0.6521376527,0.3113117403,0.1413975842,-0.7322038656,0.6481250832,-0.7540296609,-0.3728139361,-0.2964125817,0.0184768563,-0.8328653895,0.8437167083,0.0850344008,-0.0743345926,-0.6656512299,-0.6909573048,-0.0038893289,-0.6901923456,0.7305133039,-0.0372892528,0.3307613911,-0.3435134435,0.7857306347,-0.4187429739,0.1158740857,0.9791634565,-0.7490135219,0.6710078382,-0.0490496653,-0.370019362,-0.3312360613,-0.4505644593,0.7595052331,-0.6357486936,-0.6647166715,0.5806367065,0.8673999245,-0.6458632243,0.1336992396,-0.5953895172,-0.1493571027,0.0341675387,-0.5667261273,-0.5685524838,0.790581372,0.5277451097,-0.3916930805,0.9574846211,-0.6805119596,0.8188682357,0.5164250497,-0.83261161,-0.3894929395,-0.9793358536,-0.1241838371,-0.2399604489,0.9890610586,0.430874143,0.7567736582,-0.6165258192,0.7261745295,-0.6319201324,0.0159758114,0.5588424878,0.1792033556,0.1912893347,0.0634019481,0.3494455791,0.5203645001,-0.4126407434,0.0601575335,-0.9825211159,0.7085363607,0.9004752499,-0.0527249977,-0.9400297419,-0.6319772081,0.7772757982,-0.0613363553,-0.933397134,0.323719044,-0.6767724232,0.2973579242,-0.3003849631,0.3515075487,0.5559757902,0.7438146135,-0.8393185068,-0.7785501228,-0.7314378179,-0.6831586732,0.700703431,-0.0825709873,0.1222750694,-0.0749455297,-0.5106291226,0.5464484274,-0.4772554653,0.6284100557,0.4556960873,0.2606874698,-0.3109718743,0.0312017899,0.346217705,-0.0145999734,-0.3695468797,0.610194869,-0.0344924958,0.1815068825,-0.5877658635,0.9959650044,-0.3490571772,-0.3238699712,0.2734764573,-0.0805352909,-0.1074126344,0.0505173923,-0.6360386118,0.3618992346,-0.3533800573,0.6087286843,0.8353664725,0.3510536931,0.801739943,0.6975093861,0.7874290452,-0.8803922733,0.9494269622,-0.4266217388,0.7396200325,-0.061974764,-0.2169098902,0.0673120441,0.077635631,-0.9381333699,0.0604888813,-0.1719505903,0.0735537157,0.3120213261,-0.9844389561,-0.3188050065,-0.3640292221,0.4092671288,0.0704850435,0.7996764901,-0.214732683,0.388694561,0.1148805487,0.8262969235,-0.3299065137,-0.9137620663,-0.8871706995,-0.3330660454,0.9052094665,0.8429933389,-0.1991766178,0.7568794969,-0.374209356,0.171090138,-0.7761435804,0.9301099303,-0.6975160037,0.7251627773,-0.3028137973,-0.1974980698,0.4186372198,0.7386325615,-0.2239218488,0.8659003779,-0.9907461524,-0.9213891994,0.830244696,0.9549642213,-0.1109494179,-0.929892371,-0.8219325408,-0.6120438191,-0.8758055834,0.1165975415,-0.652299432,-0.1155788275,-0.8246776809,-0.5712064581,0.7400042199,0.5544554891,0.7424648978,0.9011430852,-0.84149854,0.5449075431,0.8473844283,0.8341072347,-0.4195169519,0.0268010852,0.8195801853,-0.8611299969,0.766310633,-0.5701189641,-0.9387140769,0.3756666268,-0.2982179809,0.9077619092,0.3964211636,0.5631735219,-0.1726869765,-0.8253037895,-0.3880018913,0.950831722,-0.5497515185,0.3790886305,0.1340426782,0.0855949499,0.498484744,-0.086768266,0.3519862874,0.4950394302,0.6809471678,-0.9357546243,0.2272161327,-0.0190863991,0.0934144881,0.4535477014,-0.2192612608,-0.5408193825,0.5164913678,-0.6829689019,0.2543565693,0.6777121477,-0.4934755856,-0.1528574918,-0.8487986334,0.833732239,0.2414610498,-0.8645082454,-0.7149883033,-0.679903732,-0.3988498266,0.4634390377,-0.6787296069,0.0397218986,-0.3024415552,-0.0550946232,-0.8393476126,0.8857573923,0.3468821072,0.8568877826,-0.3264269831,-0.3330506625,-0.0742728667,0.4633592013,0.3700815382,0.8392722003,-0.9039467159,-0.898598758,0.1111416956,0.3257231932,0.3466468792,0.8533249067,0.2098778883,0.5865368459,0.9869473058,0.1308616178,0.574709106,-0.0072665459,-0.9065583008,0.924473118,0.4455988555,-0.056326122,-0.2596288783,-0.4322690739,0.8540840304,0.0501021626,0.585416375,0.3956832491,0.2841012467,-0.4004604264,0.5216417795,-0.9723673652,0.6918175118,0.3628681445,0.438680527,0.6313253905,0.5538834497,-0.9506423238,0.5766087527,-0.6558893575,-0.4394819161,0.0230249199,0.9910882608,-0.4318632403,-0.7941111417,-0.9300305487,0.4325549986,-0.7469122206,0.5715754361,0.175803277,-0.8368274164,-0.1954526426,-0.1113869149,0.5706642767,-0.7801748718,0.8694639767,0.6121700808,0.0716475749,0.209775598,0.0895187446,0.2752692295,0.8707706405,0.1915667388,0.2345446482,-0.106910644,-0.2614497389,-0.5603810258,0.1180901512,-0.0701807601,-0.2741905563,0.804471564,-0.4810635881,0.5268911365,-0.5576956123,-0.8207298772,0.61625485,-0.3105624915,0.2687556794,0.6748204808,-0.4938204079,-0.6835475072,-0.3103642688,0.7279446387,0.9886635376,0.1145618924,0.6534825846,0.0261396061,0.9671973,0.0612086513,-0.8999690858,-0.2780205761,0.3027513208,-0.900108689,0.3802264811,0.0264175426,-0.7232451281,0.4319106031,0.5372833135,-0.6809793847,-0.1862519467,-0.6778572331,0.4886758395,-0.0496794899,-0.6189698069,0.262761175,0.0473458786,-0.7833123181,0.0901300682,0.8800019694,0.3493669206,0.9279814741,0.4651788653,-0.45884509,-0.1792768106,0.9146417315,-0.3854521543,-0.7890620243,-0.3458490798,0.4881322588,-0.1039868734,-0.4447061838,0.7684798845,-0.2388834613,-0.6785150071,0.1511177288,-0.4920514832,-0.1495616173,-0.8337874568,0.4587768924,0.1037892729,-0.8994712477,-0.1077618146,0.7237225779,0.8928775399,0.9229843758,-0.4794967381,-0.6937825747,0.4880235187,0.5603937562,-0.7625426476,0.4928628985,-0.29777132,-0.1919830619,-0.3501227839,-0.4606898121,0.6086840371,-0.5112471378,0.6985269852,-0.5443564378,-0.9415250031,-0.9179608993,0.9504780854,-0.2589687914,-0.1105289687,-0.4006426706,-0.9522944137,-0.4313141373,0.2356051418,0.8773923858,0.1871601536,-0.2161076428,0.8740459874,0.2673151334,-0.5059286552,-0.8185692523,0.9787786519,0.2807660625,0.2806059171,-0.8640930169,0.4946884207,-0.7919963917,-0.7766201535,0.3992070509,0.7709181547,-0.2548296647,0.8158362796,-0.9984674246,0.3643797021,-0.0657159741,0.5510960614,-0.4930277914,-0.4034339808,-0.2886538019,0.4717138614,0.1742643797,-0.098100418,0.604624217,-0.3587198047,-0.3011365051,-0.3250629026,0.4900960394,0.2196689543,0.9007921888,0.7186529391,0.6628591012,0.2341825875,0.8976090116,-0.6271280253,-0.4713271772,0.91686364,0.4507821311,0.0246864877,0.5651040785,-0.5337313305,0.3320869954,0.5010987632,-0.9278092496,-0.3591228781,0.7465539364,-0.9313688845,-0.9993125238,-0.6853545107,0.9673437695,0.372140021,0.5236022354,-0.7509640611,0.7720828949,-0.2696446523,0.8148968999,-0.3409074755
   0.5684615822,0.6787538679,-0.3209168512,0.9938377846,0.5147209083,-0.5444406052,-0.075086622,-0.3441726537,-0.8273344501,0.5111199619,-0.1293271452,-0.3881909069,-0.5985740911,0.1564634736,0.6965809363,-0.9147805045,0.9580022194,0.8662221089,0.0416268399,0.5980150286,-0.885965534,-0.672388403,-0.5942486199,0.5190325834,-0.7000236847,0.6089550803,-0.0060093549,0.3635455998,0.1515851538,0.5012446811,-0.8017622435,-0.5758525915,-0.9254666824,0.730133442,0.2938199601,0.3427787591,-0.7816502219,-0.0917357466,-0.04959008,0.4595480431,0.6554812156,0.4254614251,-0.4123844145,0.3161884839,0.2228302767,-0.7725851662,-0.1756519722,-0.6795318678,-0.3306893941,-0.497061649,-0.2060703528,-0.6704103408,-0.352137445,0.2556636409,0.9034656526,0.1357325399,0.807350762,0.3655696751,0.141846085,0.0194992071,-0.5796282255,0.3353489917,0.7478068924,-0.9807865995,-0.5267088699,-0.2882967062,-0.081316741,0.1316881203,-0.4930669762,-0.8275160184,0.4005037659,-0.4718870938,-0.5147770889,0.954817178,0.8692596753,0.6348557442,0.9164599295,0.5173503973,-0.7538466593,-0.3298865078,-0.2785011299,-0.8581778365,-0.2038571812,-0.2989355058,-0.5167162719,0.9932515685,-0.88358565,0.3827629873,-0.7708348547,0.0150727916,-0.3573144358,-0.9829716264,0.5495544281,0.0325025044,0.5892349258,-0.4412518477,-0.5930085048,0.5843936549,-0.3983054516,0.2440704444,0.0287520851,-0.991573568,-0.4189479372,0.4240043111,-0.0475901013,-0.5061551379,-0.7436692424,0.5940652501,-0.8138832707,-0.8456802161,0.6151897644,-0.1989311667,0.1799239512,0.3941397029,-0.2093942731,-0.0661714227,0.5981753175,0.0255793036,-0.8732244411,-0.4945778929,-0.7091365151,0.878371793,0.6693633792,0.5043474598,0.3049394444,0.9460572311,-0.1472416655,0.0669136043,-0.3482435556,-0.1665548664,-0.8746152436,-0.1688164392,0.6773778257,0.8055118617,0.4744604605,0.2372373924,0.4025978327,0.0025439763,-0.9766452792,-0.0186827259,0.3318839698,0.3828669707,-0.5849268238,-0.9876748343,0.3256283578,0.8578634625,-0.9135908498,0.1481053989,0.4322031432,-0.5066603682,-0.7550865908,0.4518437447,0.4633119455,0.1199453864,-0.5234271092,-0.7615043342,-0.9058718826,-0.6866380241,-0.2039608081,0.3609443358,0.541408338,0.6704196899,-0.7253258221,-0.2964600304,-0.4536418792,0.6087333013,0.029117938,0.3182574828,0.476540596,0.6473964542,0.8287366232,0.0541984855,0.6813684597,-0.1297571897,0.7983313988,-0.5888135608,-0.3482755626,-0.9204461533,-0.9546476209,0.8427807564,-0.252233485,0.7146047385,-0.0987587874,-0.6956462339,-0.2891116598,0.2192559582,-0.4202848153,-0.7498023406,0.9614044417,-0.4313219009,0.2078762017,-0.8598858852,0.2690121814,-0.3517167763,0.5498482908,0.287578835,0.181109069,0.7805220227,0.8775642409,-0.076862628,0.1659754051,0.1297321076,-0.1126228458,-0.7941340158,0.5246820321,-0.2062697254,0.409246213,-0.2574797646,0.9420767915,0.4253299004,-0.4078900716,0.7491209017,0.3871155099,0.9278030422,-0.8662938775,0.3522054666,-0.7228534236,-0.1159638359,-0.060200343,-0.3407326929,-0.8247470797,0.9869139871,0.7900293038,0.6604020992,0.933748542,0.4543524773,0.4997348545,0.368585063,0.1238302126,0.2734798288,-0.3117353526,-0.3919678308,-0.7526493343
##end
biasActivation=0,1,1,1
[BASIC:ACTIVATION]
"org.encog.engine.network.activation.ActivationSoftMax"
"org.encog.engine.network.activation.ActivationReLU",0,0
"org.encog.engine.network.activation.ActivationReLU",0,0
"org.encog.engine.network.activation.ActivationLinear"
