encog,BasicNetwork,java,3.4.0,1,1532881906121
[BASIC]
[BASIC:PARAMS]
[BASIC:NETWORK]
beginTraining=0
connectionLimit=0
contextTargetOffset=0,0,0,0
contextTargetSize=0,0,0,0
endTraining=3
hasContext=f
inputCount=16
layerCounts=4,26,101,17
layerFeedCounts=4,25,100,16
layerContextCount=0,0,0,0
layerIndex=0,4,30,131
output=0,0,0,1,0,0,0,0,0,51.3908306337,0,0,0,9.182268855,0,0,0,0,58.5348647308,31.8264392409,85.0209274007,16.9255687337,0,0,0,0,0,0,0,1,0,0,0,0,6.5511017354,0,5.62063979,0,2.2603271981,11.3523665596,17.4502688692,0,42.9710853234,0,0,20.7541113941,0,0,14.5363304889,0,1.4522865666,0,0,16.875808251,5.9284610078,18.1607411164,6.4446660518,0,20.3831311343,0,0,0,3.8213338129,0,0,2.5703123271,0,0,6.5778696747,7.5889650893,0,0,16.1950570577,37.4086207744,0,19.1384203055,0,0,0,0,0,0,4.088093542,0,11.6889889313,0,0,3.6995988366,0,0,0,13.0211373084,0,13.5867172338,0,0,1.8461183706,0,21.039702806,10.5538862832,0,0,0,3.1102366608,0,28.4898758405,0,1.3648505868,0,0,33.6457988211,0,29.9807290171,0,0,0,3.7070240997,0,0,1.1752299645,0,0,0,0,15.6369347541,1.6083583278,0,3.1435961009,0.3848770709,0,1,2,0,0,0,4,2,16,0,16,8,8,0,4,4,2,4,1
outputCount=4
weightIndex=0,104,2629,4329
weights=##0
##double#4329
   -0.0548232178,-0.9515428145,0.6080259257,0.1318662979,-0.504756936,-0.4231264902,0.4260974371,-0.8635459849,0.1325756994,0.2281467536,0.0493457098,-0.5920868684,0.8510371264,-0.8833365432,-0.8654414153,0.8245136659,0.6271762396,0.7127041223,0.9288976983,0.2400071148,-0.0113281228,-0.8137819424,-0.9704407428,-0.9873591591,0.8563310256,-0.6080314767,0.1528074953,-0.2736234592,-0.7712613097,0.3288821612,-0.625347241,-0.0204024558,0.4181353644,0.9386275217,0.3481684764,-0.4949499622,-0.4021961646,0.8208515007,0.9848999147,0.5777912126,-0.9011658141,0.9191259563,-0.5453904277,0.830285116,0.7494597394,-0.4695641871,0.4944756514,0.3914781644,0.0106280915,-0.3004148535,-0.9939717285,0.8401362943,-0.2208197669,0.3633042632,0.9163283773,-0.2029931487,0.9016895489,0.262742025,0.3196551798,0.9254043168,-0.8862982176,0.5386920479,-0.6941550553,-0.1708583972,0.6328511424,-0.0832139355,-0.8190502387,0.0090614948,0.1637435496,0.2543465191,-0.3837038102,0.1075464651,-0.8700085776,0.4150956714,0.2081238703,-0.7136138305,0.4768961801,-0.2090058066,0.363034526,0.4465643487,-0.0615472762,-0.3375000974,-0.6814513753,0.8645442793,0.2257743773,0.0083351755,-0.80694296,-0.7888772332,-0.1850130872,0.0520023509,0.8258568187,-0.0956913609,0.6285550261,-0.2091087716,-0.1249750416,-0.0110393998,0.0207518629,0.4040419889,0.1393853583,-0.9632444109,0.5621923296,0.0885228137,-0.2794665996,0.3778206337,0.6736176504,-0.1221700627,0.7420675004,-0.2487081756,-0.6378328148,0.4911383578,0.6902101695,-0.6764668941,0.0234329148,0.4270028812,0.4894217694,-0.0311019145,-0.4824792455,-0.7783553233,-0.6765419532,0.9234622939,-0.1647965579,0.0586994254,0.3998214514,-0.3405482735,0.4400115095,-0.9242821185,-0.0411301891,-0.0983483205,0.3418291449,0.2787650128,-0.6306634702,0.0844639887,-0.5945478163,0.873043453,0.1294833149,-0.6293477124,0.7784355725,0.2765084314,0.743297971,0.8652908487,0.5974345503,-0.5697829976,0.760854089,0.5546042026,0.415006199,0.926771941,-0.1195120176,-0.7575993826,0.4001534535,0.7975852231,0.278788844,0.5624357431,0.3066550546,-0.8263253889,-0.2895466523,0.1982915864,-0.1167524373,-0.4643197663,-0.851316392,0.352328081,-0.6070644261,0.5678846165,-0.3101260532,0.1161278197,0.5641883583,-0.523285139,0.3160524152,0.2296839151,-0.2515462686,-0.3249567096,-0.4638196525,0.6979594166,-0.7386897238,-0.7801248828,-0.7322965341,-0.0029473925,0.4777391655,0.7433585568,0.3077600723,0.7003541701,-0.2373731082,0.898992795,0.3409704148,-0.9634792328,-0.9320115043,-0.9384345971,-0.8074582413,0.9097247112,0.5984816109,-0.2640127193,-0.1560635827,0.0005770871,0.8946643888,-0.7362157779,-0.735180538,-0.8662298599,-0.1976405534,0.3411251231,0.777747573,0.4351914116,0.9398599386,0.3449588495,-0.7839249902,0.6122457315,0.8896481773,0.9831633793,0.6734152599,0.6064317644,-0.8775540834,0.048440464,0.3202950184,0.4580806899,0.2401883216,-0.0724724678,0.8559621584,0.5495652424,-0.1732040246,0.0513925054,-0.6760001874,0.9876576877,0.12734885,0.2915744682,0.2315770711,-0.9845818555,-0.4536787574,-0.1185973005,-0.359429247,-0.9656485543,-0.7175945735,0.3487952085,-0.2601813774,0.3448230232,-0.7834969612,-0.8862628213,0.7593874823,0.5142758881,0.8089358979,0.8453523811,-0.5380148543,0.6268760426,-0.016515636,0.1729721811,0.3995585285,-0.2554339524,-0.5133782405,0.9934945013,-0.916504176,-0.4482099923,0.4803801152,-0.7418523418,0.1081309906,-0.6819134284,0.6647363466,-0.8872335953,0.1220464751,0.6874225674,-0.3307983915,0.1937940088,0.7999791558,-0.5194983522,-0.3817421349,-0.4147071753,0.9553261375,0.5703686482,0.1547621421,0.3463224257,-0.5781671637,0.010850438,0.1775933199,0.0732272714,-0.0178602776,0.3811314185,0.6149223441,0.1627745615,0.0975981772,0.3033217861,-0.9821290411,0.2688270315,0.5474784154,0.6757917496,0.7168704653,-0.5427557234,-0.8285428439,0.730389592,-0.0588040637,-0.6216307209,-0.770736808,-0.5827522385,-0.1729926525,0.2096892785,-0.2212300395,0.5249204683,0.0545608902,-0.2779376847,0.1868021593,-0.1011528805,-0.8579597172,0.6119515998,-0.2275340191,-0.6292132998,-0.278937837,-0.0913000579,-0.7468792286,-0.0770613399,0.7473608348,-0.3752694765,-0.7281354488,0.8823006726,0.4548596386,-0.42567852,-0.7760963841,-0.5835143589,-0.9487971468,0.9402899764,0.1266653799,0.7604202374,-0.3377934243,0.6526503414,-0.2534877788,0.9941361342,-0.2848127287,0.2377248628,0.3226701421,-0.277407036,0.0112844474,0.4507679519,-0.4647552654,0.3630509195,0.5050072583,-0.0935444518,-0.8639000697,-0.6094038729,-0.3782196324,-0.5383215886,0.4875512332,-0.8584678011,-0.2933094419,-0.7028030227,0.0371992571,-0.7010696692,0.6576992929,0.6705189365,0.6403008897,0.1397190973,0.1701161016,-0.9050998128,-0.1149546611,-0.2138587602,-0.4750531249,0.2993564069,0.1755451214,-0.4297094196,0.6734758012,0.6226060847,-0.1672188791,-0.7767455191,0.7910944074,0.3179857392,0.8735326483,0.0272885565,0.6301891053,-0.6851997047,-0.3078078464,-0.5750057338,0.311475668,0.5125169314,0.5784147258,0.3208116289,-0.7464163118,-0.0953065241,-0.5156293914,0.3397752753,0.4056604403,-0.952073159,0.0377425115,0.7641570697,-0.7855090081,-0.4511239352,0.3272203354,0.878894053,0.6224100955,0.0463902497,-0.7301204702,-0.6317976991,-0.386228912,0.1860867572,0.1319788749,0.7330519655,-0.6501070224,-0.4413359514,-0.6258642507,0.9724757585,-0.4814277856,-0.882343258,-0.808770992,-0.8880583586,0.1461263547,0.8413804111,0.4434069263,-0.6046866992,0.0609845077,0.0348658018,-0.0445333863,0.648374168,-0.281234757,0.7487494663,0.5567160177,0.8507691984,0.8763795958,-0.0200532814,-0.2977212065,-0.9635404592,0.2717151055,-0.3530039212,0.3058313013,-0.8594111632,0.8293532718,0.3967312235,-0.9972402083,-0.609713889,0.52922975,0.2113133727,-0.6416695023,-0.2754663633,0.1334198091,0.5657110929,0.5063942325,-0.7401726868,0.8158430464,0.6538552228,0.5426310856,0.7707326121,-0.3347696386,0.0960426661,-0.4841781839,-0.7920204541,-0.5852554823,0.0261467349,0.9118305918,-0.8102088091,-0.7810454532,0.2513740666,-0.4446777166,0.6192464291,0.1104782093,0.2730714567,-0.2458902858,-0.4631542296,0.1656178512,-0.0314094658,0.2877752418,0.8820173703,-0.4680836318,-0.2995970926,0.5580762892,-0.9911502893,-0.5036974278,0.9096703071,0.1594971143,-0.1130109208,-0.9879643796,0.9997138796,-0.9766310534,-0.237952988,-0.7075151837,0.8184186508,-0.973246838,0.1793866147,0.5680001212,0.7310938282,0.173100444,-0.054521553,-0.1186272907,-0.2116599956,-0.072197075,0.8898097149,-0.0647304384,0.6909661234,-0.4872482723,-0.6118114903,-0.5519825141,-0.5425754031,0.1496103857,0.2729354789,0.9032353063,-0.7257604573,0.5099001552,-0.2467059439,0.0510040348,-0.7017324789,0.67543748,-0.610934935,-0.6045137519,0.8671216961,0.1815289526,0.5005125072,0.6542172285,-0.9399275376,0.0100484194,0.1531165923,0.4736993834,-0.9383087391,-0.9378964432,-0.8851850763,0.1414401629,0.1008313385,-0.1018106776,0.5201776619,0.4637301741,-0.5436843164,0.2478718385,-0.0263839017,-0.269498995,-0.6862802517,0.8261670085,0.5093095431,0.3302793069,-0.6487947974,0.2008555335,-0.3427585674,-0.2808572247,-0.8893663556,0.487010442,-0.5027577833,0.2452229256,-0.5414359974,0.4386096512,-0.676639045,-0.741550546,-0.6282773047,-0.849672984,-0.9517146535,-0.6471553143,0.299468284,0.8464051794,0.6658681281,0.6740594116,-0.1274426078,0.9319005221,0.2499742724,-0.8466668585,0.9912727946,-0.0552409379,0.1489521143,-0.0697277248,-0.7898285615,-0.5178647395,0.9203392588,0.479676521,-0.1348882181,-0.498481219,-0.0894346539,-0.3726539941,0.8230349804,-0.2809157018,-0.7543770199,0.858026566,-0.3509728352,-0.7913407125,0.1902119954,-0.925915305,-0.4438444522,0.2525503261,-0.8950983393,0.7229278073,-0.597137279,0.3714579315,0.4220313474,-0.0089258952,-0.1790482746,0.8346360401,-0.789438571,0.9909147789,-0.1344044971,-0.02319297,0.1821573736,0.0350964495,0.6181107643,-0.1192708092,0.3060608967,-0.8089310056,0.6018243449,-0.4629499086,0.3611196026,-0.3904313066,0.4254174398,0.5207526486,-0.4829901791,-0.2042086246,0.9920215792,-0.0345858818,-0.3602130004,0.4763122458,0.6971855925,0.4961962126,-0.7953521002,0.1696962982,-0.0591100794,0.8304120534,-0.0173818623,-0.2498592384,0.0996850834,0.0581190339,0.9394327723,0.8638572344,0.9108768507,-0.74908423,-0.4794200108,-0.051716938,-0.4008139793,0.8862519587,0.1006103492,0.865324403,0.263845673,0.5621294484,-0.3264011624,0.8411258615,0.9822889239,0.3315765623,0.0297419728,-0.9249932405,0.2844142696,-0.0802869595,-0.8047513567,-0.4783992915,-0.7095951622,-0.4477457729,-0.2910604091,0.0288676177,-0.5677478611,0.4735808712,-0.2626256614,-0.0288964949,-0.8271624328,0.605301847,0.0197066531,-0.7728078118,0.4294401821,0.148977837,-0.7028767625,-0.618408505,-0.4811120991,-0.8602778678,0.5246120154,-0.9103417632,0.8972170362,-0.9592435282,-0.9662132496,-0.7342236491,0.1081832183,0.304167659,-0.5032588527,0.4585614919,-0.733851659,0.5343206016,0.1455532657,-0.0019636187,-0.1549959773,0.0601611811,-0.4190372919,0.1302010336,-0.0429230955,-0.5455173346,-0.0654095502,-0.1815352994,-0.9621633609,0.2532667322,-0.3404858384,0.5651316562,-0.3585304767,-0.1313006391,0.9498135638,-0.6073301785,0.3356779199,-0.360676704,0.6929050679,-0.0396774828,-0.412286932,0.6651448591,-0.8263471147,-0.1150095911,0.0518911662,0.2628594725,-0.1461646246,0.365775967,0.5650118454,0.1226655381,0.8083715756,0.1736844872,0.8133722855,-0.3580478501,0.3954837694,0.5790886044,0.557656201,0.1028691533,0.5632069472,0.0765097043,0.157416758,-0.5740711618,0.4407088124,0.8838115313,-0.2066902954,-0.1354616433,-0.6747557636,-0.6379644893,-0.9125932494,-0.0889728389,0.2667150375,-0.9892549156,0.2020077145,0.4267836963,-0.0744025543,-0.2246720203,-0.2007453602,0.1378982052,-0.9905789664,-0.1849613048,0.5342020733,0.6895641409,-0.7306757498,-0.2591078841,-0.7724772039,-0.4741351849,0.1450902131,-0.9093736175,-0.0271310031,0.4413338607,-0.1827877185,0.7476708972,0.0966904083,-0.4946834451,-0.9222672974,-0.5070915197,-0.204330455,0.4571326368,-0.3349091646,0.7219742124,0.6169333283,-0.7348172513,-0.0236935715,0.6205355835,0.0196184744,-0.7053724592,0.6950734848,-0.9367599924,0.5785899189,0.8129165788,-0.3606161124,-0.8581363551,0.0454344721,0.3815105824,-0.1548121375,-0.5433134823,0.6895049784,-0.8590622809,-0.4522002589,0.1384794341,0.3714576413,0.7536211462,-0.8104266995,-0.9900013531,0.2288632615,0.8875862627,-0.863700439,0.0527987447,0.5416467779,0.7249792145,-0.7898787166,-0.7761681227,-0.1080903398,0.4844666502,-0.9360454735,0.1331155208,-0.3771789982,0.959005797,0.4634849529,-0.5095589211,0.9420740438,-0.1450519506,0.571219056,-0.6077152991,0.2838092646,-0.7987816092,0.7217588994,-0.132034927,-0.2095590012,0.2498045337,0.2586540453,0.3300824978,0.5899139914,0.7255301527,-0.8750390053,-0.054704968,-0.0658538497,0.0893960903,-0.4775935527,0.4246517119,-0.1159075015,0.5835940471,-0.6198575583,-0.4965656923,0.2239853324,-0.4527802973,0.8723536679,0.9578662272,0.2573827133,0.6841509558,0.1930412218,-0.6733314676,-0.3828549533,-0.4529705539,-0.5197360887,0.8806518207,-0.3138190622,0.5435285273,-0.7412827608,0.1795754082,0.8229908109,0.3527412849,0.1048958576,-0.9074390574,0.7366115585,-0.5911501421,-0.2481864004,0.4391933686,-0.9100393913,0.7936725219,0.1081813174,0.445130662,-0.7382402007,0.4858680363,-0.7376939396,-0.1404682334,-0.203234701,-0.8833409028,-0.0857842731,-0.9635894871,-0.8462344538,-0.1706373467,0.5824856369,-0.1551875247,0.3801804273,0.4714248992,0.02276345,0.262367096,0.4917381701,0.7848435125,0.1355655438,0.2892054406,-0.85657994,0.9252618669,0.0406509665,-0.6128945544,-0.6846696595,0.6136897673,-0.6326418938,-0.3012246944,0.192208579,0.8147380985,0.1665473233,-0.4893511067,0.2380192368,-0.6999693003,0.6643301511,0.277156244,0.7669872424,-0.339867453,-0.9242975343,-0.391214572,0.4646752695,-0.7505745117,0.8636799487,-0.991481189,0.6434063917,-0.459486652,-0.2723921509,-0.0847649587,-0.266221768,0.4623745872,-0.5110481099,-0.4270482737,0.6114960735,-0.7653161601,0.1924924797,-0.2315516018,-0.7524871894,0.8494133727,-0.4218709658,-0.825345623,-0.9107781784,-0.2673269321,-0.1367300616,0.0946456725,0.4547759306,0.8059572408,0.9968958619,0.5688371351,0.8453460035,0.787229549,-0.9069145741,-0.5222824391,-0.0720161678,-0.8810936014,-0.2305595403,0.8337258142,0.2234720917,-0.7684876988,0.6739973022,0.6733240193,-0.4441901196,-0.3848313695,0.0834954499,-0.7982799305,0.0859168598,-0.5145034832,0.6501689759,-0.3245289501,0.8541902864,-0.7577954997,-0.0652910672,-0.3236871229,-0.2961021523,-0.620985926,0.6315508947,0.7517223541,-0.8697794231,-0.1892542539,-0.995488451,0.9604330405,0.8491609869,-0.4282803889,-0.384062377,-0.7910408245,0.523309239,0.1820320991,-0.6103712497,-0.7817889405,-0.2584316783,-0.4385533438,-0.5065768167,0.1890122392,0.7889709523,0.2352691168,0.0157277217,0.6391111749,-0.5797733431,0.4040934733,0.3317978449,0.4230742333,-0.325774752,0.8933519508,-0.577473231,0.6732364642,-0.1036727803,0.3287499865,-0.5048689307,-0.634432137,0.1726475168,-0.9314938211,0.8666847241,-0.8599550145,-0.346439958,-0.8719305118,-0.1053383395,0.412668898,0.3957672135,0.5195179024,-0.8672609699,0.3603008201,0.5758137108,-0.1651362683,-0.6222687328,0.682005072,-0.4072857217,-0.6219629779,-0.9549071828,0.5059502007,0.8875206928,0.938159963,-0.2319110359,-0.7196880242,0.4100220556,0.2556794609,0.3704874482,-0.6276190731,-0.3060444159,0.4480375458,-0.2094325573,0.00145376,0.4815080698,-0.0372388909,0.5679890716,0.624650402,-0.7735249358,-0.4559519283,-0.925308318,0.8938737451,-0.794816781,-0.5343577144,-0.2973503448,-0.0647768568,-0.6716280211,0.7631215631,-0.2995380747,-0.6081642613,-0.81019125,0.0465753118,-0.996080001,-0.7418507738,0.3398244603,-0.1260356773,-0.2634269045,-0.3645950326,-0.0487419719,0.5798628213,0.6267164381,-0.4220704183,-0.6352631381,-0.1292720204,-0.4325371066,-0.3110577386,-0.0140615566,0.477497633,-0.4523297667,0.3922960924,0.3757797562,0.7631663125,0.5400736271,0.5196151559,0.8330622795,-0.5836716945,-0.677789081,-0.3108512432,0.4390371677,-0.8512359679,0.4799492717,0.4688878768,-0.9415553235,0.8078140773,-0.3800359378,0.4905239499,0.9716900919,0.964405715,-0.4466431562,0.522799403,0.8752735435,0.9396300903,0.9706682022,-0.4038669547,-0.244464189,-0.3800214424,-0.3334690899,-0.0473009611,-0.4375331353,-0.5590557783,-0.9193012464,0.8271650825,-0.6357946508,0.5789998677,-0.7428820867,-0.4333632621,-0.4845979113,0.6052821621,0.6455726984,-0.6381985148,0.7857929215,0.8404834194,0.3920505739,-0.8514529906,0.326276417,0.7807688008,-0.8533036959,0.9368925571,-0.3934623621,-0.7227363065,0.455928098,-0.6465616698,0.0524083161,-0.8701117344,-0.7877844658,-0.4858865722,-0.9306589641,0.3802517175,0.5486150963,-0.302211002,0.1599244777,-0.0240767066,-0.4786232813,-0.9111104525,-0.093855606,-0.5301848657,-0.2548549264,-0.9207126614,-0.4782541915,-0.5668651352,0.6725405317,0.1874799684,0.7600838261,0.7534429031,-0.8544075263,-0.5990062793,0.28091704,-0.8499379458,0.3234659395,-0.4899548838,-0.160998318,-0.0589847653,-0.6866413764,0.554677577,-0.2441184198,0.0474926492,0.0300087745,0.109816215,0.3819990366,-0.2442246479,-0.6090592087,-0.5544000498,0.1602345603,0.925655654,-0.0339570862,0.2635407033,-0.2227462372,-0.9419903412,-0.2974195921,0.0749637308,0.2814679346,0.8549361767,0.823247457,0.6338265669,0.2967884322,0.5136333411,-0.2387838823,-0.5085696741,0.5653940387,-0.4656229755,-0.4469747953,-0.6809465321,0.4494577597,-0.3739793189,0.665834827,0.2957928433,-0.8291398162,-0.8998064904,-0.7304015351,0.2891483893,0.916399573,0.5999430585,0.7355430712,0.5207140424,-0.0122625153,0.6842800975,-0.9415147319,-0.4289371682,-0.8348914599,-0.4993718752,-0.0583317776,-0.4596397323,-0.8100690185,-0.8720916564,0.4681537019,-0.2584196481,-0.1413910895,0.0722463062,0.7701175928,-0.8786660881,0.0468294329,0.9737885765,-0.2873610056,0.5626053547,0.8861410169,-0.9198409001,0.0943740418,0.9428538866,0.5750398103,0.0405003663,-0.6377779053,-0.4113077769,0.8252823174,0.8068914957,-0.9322079955,-0.6875542775,0.3527665277,0.4109899422,0.1960541181,0.194142595,-0.886152338,0.1921533841,-0.4421859643,-0.1956748311,-0.9956671347,0.4304717321,-0.4780569777,-0.0083753624,-0.8914595738,0.2045413012,-0.7803498387,-0.6351775578,0.1263130477,-0.1724029304,-0.7157585391,0.0344403997,-0.3082046776,-0.798284834,0.9838665712,0.4269936616,-0.1933355132,-0.171144514,0.5489475078,0.7493673276,0.4362188107,0.4709457255,0.1354974184,-0.3750717384,0.2095536724,-0.7895219841,0.8876133724,0.1144898288,-0.1744826557,-0.6064217514,0.8988423758,0.7916966829,0.6701114079,-0.5287510608,-0.6418451565,-0.9984897112,-0.9671681348,-0.9633978481,-0.3840563971,0.2309953583,0.1993669379,0.0481102737,0.960958062,0.961721022,0.9381960302,0.4832630604,0.4472725175,0.3968069782,0.3146748597,0.8089077541,-0.6612627852,-0.2802131337,0.2689851986,0.0331806305,0.6082315638,-0.3527636484,-0.346048941,-0.7785561293,-0.3312935002,0.3700085418,0.3127522914,-0.6106754927,-0.0408224432,-0.376606433,-0.3538099981,-0.7455035629,-0.714377163,0.232941019,-0.48555239,0.9093978095,-0.7398978882,-0.3072090472,-0.6065348259,0.8663999661,0.7451302463,0.6827218601,0.4788563429,0.0523440632,-0.3613693446,-0.228760419,-0.9748301298,-0.052911565,0.0047869118,-0.4610035,-0.7846505222,0.7492575162,-0.048698578,0.6037367873,-0.5111594144,0.5157958855,-0.0435725655,0.687700203,-0.8801563935,0.4169624323,-0.2053482699,-0.1937432403,0.8955836372,-0.2051322369,-0.0064459117,-0.3170860818,-0.2660721795,0.0667318909,0.6371463367,0.3413306698,0.244514086,0.5396987816,-0.6030003929,-0.2177253131,-0.4351062938,0.5379722379,0.5309686528,-0.7744938646,0.52390073,0.6128464092,-0.4064545091,0.7000485448,-0.2400627773,-0.027447673,0.2722930897,-0.9483029601,-0.2027437923,-0.1953317372,0.4986577652,-0.7045364747,-0.2006060356,0.4410421902,0.5334607962,0.1804092458,-0.6474181961,0.6975339419,0.7217302051,-0.2795336536,0.9787991391,0.7197311119,-0.7552396119,-0.3978091118,0.3076799101,-0.2631382956,0.0863338353,-0.7179565026,0.4391736348,0.7260616358,-0.5654333448,-0.0999095264,-0.3347012733,0.0504791573,-0.7359399565,-0.0242997131,0.3347820243,-0.4821112942,-0.0418757407,0.3281710017,-0.4034398371,0.3424939989,-0.3521054224,-0.706732439,0.2116589306,-0.0863711739,-0.9151604852,-0.3138260253,0.8447098146,-0.2810916488,0.5728948515,-0.6974021544,-0.3025888758,0.1167632342,0.9922322545,0.250613037,0.408674976,-0.7012258763,0.1432888257,-0.3510742219,0.5611096006,0.1880500873,0.1466780421,0.6572774087,0.1456937141,-0.8277397904,0.5028841868,-0.8998581745,-0.8012182062,0.1336411705,-0.4179269707,0.7777739657,-0.4792041394,0.0866451479,-0.4564004793,0.6825332634,-0.1848684669,-0.7242149825,-0.889197799,-0.1753165944,0.5925805758,0.214601266,0.446350452,-0.2532276501,0.1335575189,0.8155279747,-0.6171689101,0.0238623842,0.2871264251,-0.9155269814,0.9512985209,0.1428353494,-0.5344867627,0.9206999848,-0.0337028029,0.4569438484,-0.8188650336,-0.4550361047,-0.6656140865,-0.9052962989,-0.8965609994,-0.2292771517,-0.076134663,-0.7777391012,0.3677840783,-0.0107458813,-0.1665788372,0.3134964768,0.0748689522,-0.0073720249,0.3088419339,-0.0170672784,-0.012631279,-0.0847114709,0.4850343958,0.1201543453,0.9731317929,0.6080407939,0.1918996346,-0.4970027058,-0.7616079857,0.833951553,0.1511040006,0.4457353827,0.5548179451,-0.6541075113,-0.5715550999,-0.9975297969,0.9165247741,0.6434715147,0.5381818575,0.4345899596,-0.6644509895,0.8153528248,0.7416185354,-0.735459197,-0.3422934295,0.7900140646,-0.8309765168,-0.4657264452,-0.6576575023,-0.2190429823,-0.0471874391,0.2595356985,-0.5563128395,-0.378600055,-0.0377711879,-0.4239640956,0.7291332806,0.2881273396,-0.9134068115,0.8938393498,0.0957524071,0.8328861437,-0.2875705812,-0.5092012046,-0.7724940668,-0.0297913852,-0.4750432555,-0.5474542697,0.3100103991,-0.1179399745,-0.368123273,0.6670829654,-0.2079569444,0.932214018,0.3956315804,-0.2303930098,0.6629778382,0.2764714273,0.6155310514,-0.5316611503,0.1253991126,0.2326668347,-0.2435932334,-0.3660164281,-0.0479091674,0.0226429265,0.3030952608,0.1677255836,-0.7823416983,-0.7688421553,0.3958720453,0.1192736047,0.0025847572,0.422803474,0.5885981096,-0.6558804133,0.9575485895,0.2461535038,-0.5273434668,-0.132864332,0.4941524391,-0.6624344047,0.6919897723,0.9370970757,-0.7006085948,-0.2005845324,0.3053911233,-0.5218510554,0.18416164,-0.3802136427,-0.0064911156,0.425158241,-0.019478764,-0.3852946838,-0.1743566423,-0.3297671,0.7340418833,-0.8077144403,-0.7931235789,0.0063637022,-0.8107618418,-0.5154862979,0.2578543614,-0.7425604059,-0.2137804013,0.5833440694,-0.3909560729,-0.8682763926,-0.0769549973,0.6392925903,0.6902365668,0.1500317981,0.5668323642,0.0333234744,-0.7891544598,0.513375537,0.8766657511,0.2542193058,0.6815297394,0.3075360057,0.5313794397,-0.0127812314,-0.6140422602,0.4365749124,-0.2630684236,-0.8568737821,-0.9390338338,-0.7986202018,0.9172798896,0.413410032,0.5683034978,-0.2857668456,0.512059684,0.516505794,-0.4266743282,0.9176777093,0.8475443256,0.2692222345,0.2272663188,0.9324644842,-0.516356089,-0.0448338362,-0.4625407534,-0.0770229374,0.4227711993,0.901716234,0.9615810661,0.7890436296,0.0419957996,0.3365942911,0.9904455168,-0.9508352756,-0.898082565,0.1362406695,0.9742772171,-0.4007399134,0.2505384518,-0.8295341046,0.3264812333,-0.8266679064,-0.7463896265,-0.8194801075,0.7568069191,-0.573353735,-0.3633368918,-0.2904905112,-0.1492405122,0.820796619,0.1116530308,0.3804033488,-0.3785314552,0.4047111936,-0.3963014232,-0.334105791,-0.9604206701,0.2348252564,-0.7051924431,-0.788118412,-0.9759146812,0.3283283256,-0.6091247703,-0.1241173988,0.065866688,-0.2295062968,0.7067673745,-0.5907860518,-0.9142575095,0.7775856875,0.1147305853,-0.1694675299,-0.8459543194,-0.3038832408,-0.3455599328,0.0261607273,0.0696000308,0.1203689456,0.7233962346,-0.4558757546,-0.7852562814,-0.1465142965,0.3010849081,0.6516341359,-0.2111160769,0.742424605,0.4992120415,0.920530401,-0.8530442207,0.214234728,0.2918731318,-0.2073639418,-0.0612072015,-0.1901665748,-0.1163229899,-0.4807399569,-0.3615123721,-0.6321675413,0.226755053,-0.9157370522,0.3061071337,0.9968152274,-0.3831469979,0.3675127827,0.4582975464,-0.9905733129,0.3362525681,0.423389347,0.5977219867,-0.9005317351,-0.5118178993,-0.1302924932,0.1326471734,0.1441675818,0.8808331539,0.3521803601,-0.124631693,-0.0405476931,-0.058940645,-0.4117040371,0.5252771689,-0.0373971072,0.1739386024,0.611193438,-0.9378464579,-0.5753483585,0.7417084181,-0.2635497021,-0.0706358972,0.7123508438,0.3548542544,0.6035045558,-0.4468310605,0.4892345067,-0.2790787594,0.7379678211,0.0858744611,0.6465154842,0.0369418451,0.5028114399,-0.8508421876,-0.4816485675,0.5564881258,0.7703515748,-0.2713358317,-0.2212114431,0.7092743897,-0.0327991365,0.5713780164,-0.7057854431,-0.6805112953,0.6186922254,0.4248059247,0.0111705626,-0.5173544763,0.1286872953,-0.7762403815,-0.8516403615,-0.5114797834,0.8633815841,0.8543826901,-0.262511465,-0.1856646108,-0.1806001716,-0.9951296289,-0.9804171289,0.0581246118,-0.1090157779,0.1824198372,-0.3204010719,-0.7450367311,-0.3683973884,-0.5793635232,0.436348864,-0.4148543194,-0.136729947,-0.7395181732,-0.884668267,0.6913515827,-0.4092964912,0.1755931105,-0.7479201559,0.8088707952,0.5619013501,-0.7113674843,-0.0131340715,0.1023807485,-0.8369951501,-0.7269551187,0.7307385866,-0.908397737,0.1972969925,0.6365720579,0.8552532123,0.5150194845,-0.7304735496,0.4736860325,0.8695312554,0.6101709439,0.5281708783,-0.5749557631,-0.8551481881,-0.7429224937,-0.4312212562,-0.4911924963,-0.2140737731,0.2102255919,-0.0035458144,-0.3513361135,0.8268420213,-0.0567228144,0.3485809934,0.6324397302,0.4860270172,0.8086511369,-0.2121253703,-0.3668099154,0.3386434502,0.0492772063,-0.7681462905,0.7981057347,0.0202191671,-0.2145118868,-0.9480135291,-0.2456817099,-0.7911447686,0.6106719815,0.2422940792,0.2583430735,0.273205579,-0.5350716799,0.4713299709,-0.1662115544,-0.5050817119,0.4615923375,0.1240861826,-0.5344266264,0.8434208992,0.1738372175,-0.7980386629,0.2441987862,-0.5668478574,0.8196523048,0.8052615273,0.8312254008,-0.479536214,0.0403746754,-0.3757273248,-0.9406819457,0.0469578667,0.8805127393,-0.83724651,-0.1124948563,0.7632326999,0.2932789081,-0.8545464952,-0.7009061766,-0.2807495003,0.2507752574,-0.4498628943,-0.39299058,-0.1712583872,0.0111727519,0.5879724826,0.501904948,-0.4614311639,0.0694473671,-0.1987471921,-0.2589643132,0.7914534358,0.6617181403,0.3151662329,-0.8022467472,0.7127345054,0.0052536888,0.7331898558,0.1942392349,-0.6145170219,-0.2449240639,0.1882213716,-0.513206249,0.2817388456,-0.2228305779,-0.318968016,0.987962992,0.8266934431,0.8391947261,-0.2595310315,0.3343821722,-0.2390120826,-0.8537750251,0.3068431526,0.1758724326,-0.6294097029,0.586411728,0.7345609965,0.8798033613,-0.5708848975,0.2714252809,0.3181911845,0.122888006,0.0581751048,-0.1463806315,-0.9808780387,0.6619252387,0.796449383,-0.3535226643,0.6300379408,-0.2329371107,0.8843163533,0.2978808337,-0.4487731745,-0.1692288345,-0.4931357094,0.423208911,0.3060002671,0.520982904,-0.7945359526,-0.8844329752,0.5908842631,-0.2642878498,-0.9091371328,0.9195129669,-0.4624823812,-0.25769466,-0.3156480915,-0.2980270532,-0.2598054002,0.5052241036,0.3418137802,-0.8532317272,0.6111828745,-0.1592223337,0.2841366378,0.1796815473,0.8602928026,-0.3034212228,0.4696327972,0.8080208186,-0.821859914,0.7932854021,0.8945503605,-0.6153544219,-0.3392953449,-0.5813758661,-0.2026628287,-0.2535724551,0.1847802158,-0.1685362645,0.4960063662,-0.0374355073,-0.6971470518,0.7861572616,-0.9565002261,0.6391804513,-0.4502384867,-0.8079537803,0.9699028149,0.6832422729,-0.2064892752,0.5639422904,-0.851133723,0.1920136651,0.8512793246,0.1455379229,-0.632177198,-0.2833818661,-0.8280818072,0.0450023833,-0.8371225136,-0.1976343456,0.6166038775,0.6627258217,0.3937190149,0.213121279,0.3356280549,-0.0419939199,0.8324818184,-0.4891017295,0.0504572419,0.429055617,-0.504001348,0.6743315132,-0.7609871095,0.1335769333,-0.3215564861,0.423844728,-0.698960757,-0.7055260762,-0.4037657254,0.5376106343,0.9305337246,-0.4921607542,0.9604447418,0.4136004905,0.465512183,0.0945752804,0.6963011884,0.6499054415,0.0395010887,0.8197272127,-0.7366676277,0.4733462308,0.2483499501,-0.6621177679,-0.5469146679,0.0146819515,-0.6787242108,0.6202936789,0.0632056829,0.0645129553,-0.9259229235,-0.3005742861,-0.1135803828,0.3873950099,0.4200589173,-0.153167102,-0.4398127857,-0.2908491103,-0.7887490606,-0.2884870821,-0.3718621491,0.5510096955,-0.6369872212,0.067041408,0.4728200832,0.5406370829,-0.9877997371,-0.2688178968,0.2948658234,-0.3830046714,0.5773041865,0.1079671524,-0.1217057121,-0.8056996167,0.8773634266,-0.467528567,0.9675351417,0.6819297306,0.4372618524,-0.4710882747,-0.1700730157,0.309044004,0.8068074083,0.2958330086,-0.1641056455,-0.9670648971,0.2248040112,-0.9669050465,0.7432554652,0.0822827226,-0.515474468,-0.8548713287,0.1676035938,0.5619124566,-0.5165015926,0.6986275429,-0.2403882492,0.458992806,-0.6261605649,-0.8544836912,0.3196549986,-0.7985522238,-0.1082864511,0.5777552388,0.7561184535,0.9787459667,-0.9554303176,0.5759186451,-0.846696657,-0.2796578159,0.0751379947,0.6189743117,0.6741918511,0.4667673568,-0.4674110728,0.9582884975,-0.740960288,-0.8180011631,0.3506624822,-0.7268352616,0.6294803586,0.7405515345,-0.6518082564,-0.9813038124,-0.614126857,-0.2896404256,-0.2684467597,0.1195602614,0.5661135643,-0.7627841025,-0.5995994729,0.3411207009,0.1413480051,0.542656528,-0.5004060517,-0.8301230164,0.4677761974,0.1033600031,0.5996080363,-0.3293833091,-0.3014775179,0.1046492981,0.4070611763,-0.9858569983,0.6490923841,0.0524735166,-0.2489548484,0.4170470242,0.4090488428,0.2848266476,-0.6845188094,-0.5778196822,-0.2677242076,-0.1505885085,0.7263982525,0.5648908806
   -0.4502372461,0.1092929326,0.6781096096,-0.9514326514,-0.9839032398,-0.4078486749,0.5369697403,-0.0332337878,0.3493045852,-0.1228647526,0.1531742635,0.1575948973,-0.3811591744,-0.6458690429,0.4118318283,-0.514038671,0.2478083147,-0.2208955278,-0.7635017817,0.3309511279,-0.7833750288,0.9393767712,-0.4551667596,0.0860381236,0.6762748725,0.4467849556,0.9322138869,0.9101685224,0.7827514991,0.5717514261,-0.7944469774,-0.6561918351,-0.715193939,-0.2044619207,0.0661790357,-0.3663996348,0.011078076,0.3349613156,-0.6720860382,-0.3303831664,0.8685291976,-0.5648555405,-0.4160257765,-0.1390877477,0.037982521,0.5710019272,0.5999969562,-0.4847615851,-0.9757334725,0.175299784,0.8477590573,0.9059063393,-0.4572610656,0.451951532,0.0497136242,-0.425031234,-0.4622473816,0.1676902174,-0.6564342196,0.2534751768,0.5192617217,0.2650843741,0.0834540928,-0.0510730444,-0.4363390753,0.0273554812,0.4555104081,0.6346147171,0.3916351615,0.4451764191,-0.9583375557,0.6361238366,0.9508767601,-0.1727345944,0.5549979189,-0.603503468,0.8058074644,0.5832199179,0.035867415,0.8390865797,-0.9721796129,-0.4865330689,-0.3630817119,0.6884827312,-0.895855041,0.5000827675,0.6314942204,0.7177528466,-0.9426200711,-0.6013210215,0.659201696,0.2769521801,0.1152405321,0.5282074643,-0.050449666,-0.1416011742,0.981403503,0.9606464169,0.9998151107,0.6178034377,0.5061403266,0.5239520156,-0.4776031662,-0.7565068951,-0.2131526397,0.1328409932,-0.2473155211,-0.815784158,-0.8226536407,-0.5688554589,-0.8835549245,0.4365265382,0.6478528125,-0.4737382405,-0.4137673691,0.424776302,0.6078448199,0.7804436592,0.6952252548,-0.1374669815,-0.8133315127,-0.3702888599,-0.4806606643,0.956976848,0.6848812676,-0.4034946683,0.3318367112,0.8585544306,0.1673590253,0.5452794737,0.9785760667,0.0397459199,0.4458837834,0.335333841,-0.3204545887,0.0084038786,-0.4634456218,0.7024725417,-0.9803854507,-0.7835223053,-0.7285958172,-0.34663591,0.1791272365,0.6957305063,0.0327412015,-0.6045296111,-0.3670143691,-0.7791951915,0.3698204583,-0.6634808203,0.9229591663,0.2547027795,-0.512973236,-0.3594223454,-0.3176262341,0.4989729188,0.1377612303,-0.5257979155,-0.6929929769,0.24922695,0.2398880858,0.7990939333,0.2555183933,-0.2803681926,0.467652748,0.4164794235,0.1635192232,0.1990082863,0.9188594662,0.7540384883,0.3662177915,0.8466965301,-0.0182501479,-0.2480122305,-0.2192829927,-0.5366749023,0.459785853,0.1702372603,-0.4406358697,0.349459274,0.9803846067,-0.4701684317,0.617166283,0.3511476416,0.9206153413,0.6571709628,-0.0699378722,0.5089597528,0.4545282072,-0.3388709201,-0.3087610551,0.7646329451,0.3556048451,-0.5677986675,-0.9576770737,-0.7719861471,0.9924941065,0.3835399387,0.4060956544,-0.4312146245,-0.0933854486,-0.9508017766,-0.8294974446,-0.1106804098,-0.0465079503,-0.8542536501,0.9815181402,-0.7386717145,0.2816930736,0.3528272759,0.8106982777,0.680598361,-0.5001107013,-0.0048858146,0.0203037564,-0.7040504242,0.4100205137,0.7370171757,-0.5349618791,0.3372017934,0.5644583084,0.9740893013,0.5051981295,-0.5918724598,-0.7763113316,0.6637131633,-0.401240131,-0.0756478037,-0.3334475428,0.6443113247,0.7931732427,0.0799948741,0.5845723481,-0.6537348405,-0.0007123236,0.5388058263,-0.6107227131,0.2866777972,0.6767684725,-0.1314730723,-0.0214448951,0.5734251012,0.9936000417,0.5605779106,-0.546267667,-0.6508333451,-0.4169809942,0.253642311,-0.555907343,0.0254741583,0.5528321418,0.1230412581,-0.7597573832,-0.2515800355,0.2680764418,0.2543237379,-0.3362614012,-0.3969345281,0.3757641851,-0.157074754,0.1980364941,-0.5797118193,0.0618591428,-0.4659415589,-0.3901535383,-0.269260181,0.3838321501,-0.4448601649,0.5113279322,0.1460251828,-0.6356134211,0.6954790885,-0.7891115315,0.7198428844,-0.0698880237,-0.058540531,-0.6402231881,0.805795912,-0.1244272697,-0.8367213748,-0.0036710323,-0.9783948863,-0.4803398406,0.0801040197,0.5602259386,0.6041914298,-0.8356111249,0.0615214257,-0.7327234081,0.3987787403,-0.8470051763,0.3686147471,-0.1181444047,0.3034323477,0.1411847837,-0.8013659677,-0.4226618314,-0.5393090047,0.8108950625,0.3424782265,-0.097711307,-0.952027631,0.8083689356,-0.9453209194,-0.6633830435,0.123014124,-0.8875580422,-0.5307538428,-0.136187139,0.2164641038,-0.4211375261,-0.4630175839,0.7505206308,-0.3893526058,-0.6865346541,-0.0687753929,-0.8039229749,-0.8264912956,0.4333754025,0.2924695728,-0.4402429498,0.6410191002,0.5858952928,-0.7441491269,-0.7940993462,-0.4909178554,-0.5287662041,0.2595700387,0.7033226822,-0.2465468839,0.465164023,-0.6769630732,0.4301413243,-0.5630373487,0.1712152805,0.7280040686,0.2964496312,0.2946021196,-0.2411299573,-0.6765789478,-0.6673185628,0.1563547569,-0.3476068428,-0.8102826886,-0.8897743545,0.4081900328,-0.7978540704,-0.777183233,-0.6572243535,0.3722935745,0.9653454983,-0.6549567966,0.6340685444,0.2864606239,-0.5641728725,0.5489611611,0.4970436632,0.4644909238,-0.737506295,0.3392831649,-0.782146106,-0.7978116331,-0.8734190373,-0.7290965703,0.8965664717,0.5905084805,-0.6755641155,-0.895239165,0.2960241201,0.9655860209,-0.760177771,0.3132754462,0.2341408934,0.0033306925,0.9983863794,-0.3380916928,-0.697900009,0.1210637042,0.5530295916,0.4975789891,-0.4402188537,0.0807531005,0.9613504027,-0.698420185,0.7641353044,-0.8108279963,-0.5778306244,-0.6072765937,-0.3338499374,0.7470698466,0.1795062052,-0.4810978162,0.5938861788,-0.8346700294,0.7912897363,-0.1001360062,0.2784933944,0.3728497836,0.6902788701,-0.8655978596,0.4374263468,0.9483872648,0.0935831098,0.2954248218,-0.5365749559,-0.9711413962,0.2014383925,0.5531481617,0.1993690563,0.6131233978,0.27955652,0.1150605184,0.1989914418,0.7688013862,-0.7509125251,-0.7823619846,0.6686092208,-0.9753606842,-0.8920509514,0.717813883,-0.6711510456,0.4200170573,0.6582435209,0.0469436632,-0.6836468715,0.7765665566,0.1602498523,-0.6988986835,0.9485954945,-0.3970230792,-0.6508078599,-0.1102297723,-0.1010872778,0.3568824254,0.8906517081,-0.9990594662,0.5623564954,0.8880163285,0.4145480597,0.2628726411,-0.9035760736,0.965333557,-0.9271405964,-0.9612378088,-0.131948503,0.5078696366,0.3880185389,0.5463593977,0.0418439348,-0.810473993,-0.3631793322,-0.4041423297,0.7167876371,0.4623907205,0.2637629326,0.327194805,-0.0263980165,0.121316558,-0.1565199536,-0.8828520601,-0.5507594143,0.3401136967,-0.2054123104,0.5615101081,-0.1869868505,-0.9582910489,0.1474867459,-0.9651530291,0.5835098868,-0.7987492041,-0.225398384,0.8111930736,0.5213774204,0.0547061598,-0.9932120932,0.5093659863,-0.7216776626,0.26991303,0.3689089274,0.4891210597,0.5851112444,0.9533738402,-0.045906721,-0.9750742708,-0.5506158403,-0.3253748261,-0.51255172,-0.7259012679,0.8776294253,-0.374010864,0.1839117275,0.8947897141,-0.5137561636,0.0636220276,-0.1095482793,0.3102182115,0.5677786959,0.6234178524,-0.5967226772,-0.3681557169,-0.1190241871,0.8074082886,0.2412173985,-0.815580314,0.8003300336,-0.7620944773,-0.2335326175,0.5809207965,-0.4927435145,-0.4626373973,-0.4168037729,-0.6008306903,0.2146920376,-0.9781961637,0.7586941805,-0.1798094231,0.5771212896,0.076379187,-0.091946859,-0.8320883421,-0.9267026983,-0.3594055749,-0.8430651296,0.0993071047,-0.274873055,0.5617781032,-0.5154539618,-0.7017691026,-0.5351580867,0.2249937712,0.4929761561,-0.3721781984,0.6516085245,0.5686367406,-0.7508070107,0.3351188763,-0.9410031894,0.2068804651,-0.2663697892,0.1487249001,-0.6890161791,-0.8926802847,0.3841307088,-0.066103701,0.0186846376,0.0643702359,0.6128871042,0.5387063953,0.2271098007,0.9301204007,-0.444052559,0.5878075358,0.0340830805,-0.6825083255,0.4857542527,-0.8926492606,-0.5880268087,-0.5320943096,-0.1652464092,0.1772118717,-0.3271759986,0.110814422,-0.6483651877,-0.6645812146,0.061403735,-0.6466190652,-0.9057430091,-0.55407491,0.3676400332,0.2827954524,0.4902460331,0.0649173992,0.6610698026,-0.4066648406,-0.8758357922,0.0969819412,0.0709071791,0.5436467557,0.4460408125,0.4512538745,0.6635735313,0.4881906439,0.6287155047,0.3705874984,-0.8215611996,0.8295925132,-0.790260142,-0.0518955025,-0.5941747401,-0.6208780135,-0.66137775,-0.262132877,-0.7715557762,0.7852947963,0.6798569393,0.6497687745,-0.0648181907,-0.3347962469,0.9677430502,-0.6465767939,-0.021317288,-0.4846227603,0.9884252436,0.1156196068,-0.4105683425,0.275061408,-0.6515263102,0.2502110523,-0.3885037309,-0.5856216991,-0.2117845819,0.5908887678,0.2417306132,-0.8367723361,0.8405078551,0.638449656,-0.8465196696,0.7753235531,-0.4595343928,0.6523645296,0.1245712247,-0.6400357183,-0.2676594473,-0.7004637902,0.7463302511,0.1081812998,-0.2502300482,-0.6825072354,-0.8205375079,0.5739210249,-0.0595602571,0.4686809848,-0.4257387484,-0.0808515179,-0.9761637665,-0.1615560266,-0.5292325377,-0.3260820309,-0.8638458382,0.8569495739,-0.00852972,0.9865759517,0.069971355,-0.7664270115,0.8801767877,0.1513033303,0.3785863344,0.3154919705,-0.407839698,-0.4908244281,0.7964517374,0.217670756,-0.4635853598,0.6198024686,-0.7461330957,0.9861601307,0.379263436,-0.9444853112,0.6259109895,0.8178800739,0.5747983615,-0.2310687011,-0.4839622001,0.3905410957,-0.981358983,0.333158635,0.0577737709,-0.393210044,0.0748351009,-0.7106148483,0.1588204371,-0.2516949546,-0.0900529555,0.7629400262,-0.6671252177,0.5566951109,-0.4271789081,0.8369017476,-0.8547101181,-0.1776153837,-0.9668588598,0.0604344507,-0.6577589385,-0.5537434841,-0.1484168953,0.2253703502,0.0994072593,-0.1923522312,-0.1067292351,0.3090640076,0.1633266177,-0.3443857543,0.8993143511,0.5772261142,0.3519061714,0.1707898816,-0.1195091138,-0.3619430703,-0.6396896826,-0.4586598229,-0.2035219729,0.5045581529,-0.3200675396,-0.8576335382,-0.8765703645,0.890744327,-0.7350407687,-0.6261292287,0.375884797,0.4176865104,0.9116998932,-0.5118387585,-0.0782995285,0.1097886279,-0.7235487332,-0.7803711909,-0.5119597664,-0.9509155939,0.1429884739,-0.1677706437,0.3712775102,-0.1568947177,0.5543686786,0.1723064528,-0.4967104521,0.2922173187,-0.6954040303,0.0961505847,-0.4495169028,0.6321361766,-0.5010290806,0.3659148438,-0.1050550803,0.2066093704,-0.1335073848,0.0447525348,-0.6011728462,0.7406175061,-0.6800560176,-0.066230637,0.1841603634,-0.1513565888,0.8128533344,-0.1967597608,0.1667840157,1.7852635298,-0.4396765078,-0.5430069031,0.5226149228,0.5318991194,-0.4824392106,-0.4083967784,-0.6358415016,-0.5450124011,0.0005738142,0.2222385828,-0.0788860269,-0.2294575296,-0.4546418084,0.7592766284,0.0217142882,0.4440587492,1.2785987594,0.3312860547,0.8568896911,1.087785075,-0.426958774,0.1121522326,0.153422514,0.2529463843,-0.3572402477,1.0133651762,-0.1384660735,0.3329099626,-0.6098149194,0.1961640669,-0.5171469084,-1.1731666929,-0.6379015109,-0.7589266957,1.2543367039,-0.1443501269,0.486774967,-1.7833766035,0.1252167648,1.4471176461,-1.0437752086,-1.3439108649,-0.8850526019,1.3010393332,0.3005545705,0.6055790341,0.9200127006,1.2807591546,-0.6417055785,0.8012642726,-0.6074119808,0.3540360723,0.3712249284,-0.8681545451,0.391755038,0.081947919,-0.503573819,-0.1686408288,-0.3561053399,0.4101037446,-0.2973846808,-0.2463837001,0.3201930021,0.2941526457,-0.9033055751,-0.3573133839,-1.4177972913,0.1076875011,-0.4299985691,-1.5041042012,1.518423056,-0.8913108935,-0.8956056492,0.2974712106,-0.0126956412,-0.1429122569,0.0476994412,-1.0351105413,0.5117685376,0.1683435976,-0.4427095589,-0.5983989537,-0.9149666825,0.5893295943,0.3983774985,0.0172536676,-0.4094863584,0.6243474694,0.6121118031,-0.9321475808,-0.6498060376,0.3554072568,-0.2695456461,-0.4217017404,0.9046473058,-1.2322134023,1.8153679376,-0.1222073358,0.0010817934,-0.1021063149,-0.8860683861,0.029868786,0.7440165797,-1.1035134445,0.0126727412,0.0638492865,0.8990077933,0.3644678882,0.9959967146,0.8917713199,0.5805269061,-0.3060724865,-0.5395312969,-0.073604594,0.0351046092,0.7539375471,-0.697172006,-0.2524483778,-0.0303707764,-0.0134911013,-0.23731658,0.0036421623,-0.3795938775,0.0603091317,0.050753923,0.1217522516,0.4256450677,0.0986759864,-0.7537248821,0.0749575765,0.7728131765,0.8914588284,-0.9457448783,0.4360417636,-0.0942526626,-0.1033368823,-0.2986826061,-0.5096083188,0.5152538877,-0.5666443446,0.2561605863,0.1436182472,0.1876185983,-0.2675987951,-0.2887162368,-0.3127806386,-0.6162994492,0.5500691134,-0.4148924959,0.2883709031,0.5047802565,0.0213867327,-0.075862928,0.3839504583,-0.524436181,-0.1694598804,-0.137283901,0.5584375253,0.1147520439,0.6276001832,-0.3156640574,0.6528695348,-0.3645370331,-0.4178248875,-0.8861205144,-0.1291015464,0.8359107354,-0.8931118165,0.6707338606,-0.020619507,0.5369743371,0.1100347802,0.1826833553,-0.577386542,-0.8440952587,0.4475267651,-0.5868203585,0.5492415,-0.7233681462,-0.2462969189,0.3581412073,-0.3435993119,0.0826667066,0.5267931633,-0.2788017692,-0.5249458805,-0.6613249824,0.8433491968,-0.2576876491,0.9430199241,-0.0430415667,0.2684981,-0.8390419907,0.6818551236,-0.9321718467,-0.4777988964,-0.1109805311,0.7269653984,0.9487094598,0.4198140301,-0.6615423078,0.4271258876,-0.8318448102,-0.0094169176,-0.8714758134,-0.637601752,0.8791852741,0.3181492924,0.5294899074,0.1146271673,0.4561581634,0.4923053736,-0.4036336363,0.2769790962,0.4669577118,-0.463182391,0.4218170233,-0.8944945713,-0.3130511103,0.4876807974,0.1746475109,-0.8307287587,0.772379926,0.8908921029,-0.7587010408,-0.2527826517,-0.6498851542,0.4927144812,-0.9994292179,0.912654269,-0.3099290553,-0.8131225118,0.900090572,0.82202203,-0.1028840768,0.986771723,-0.2340763358,0.3620825859,-0.5986138683,0.5620341536,-0.4187055541,0.8579384142,-0.1833509068,0.1083500264,0.8737652386,0.2348827148,0.4985388582,-0.338736746,-0.8991615644,-0.0986676457,0.0262197199,0.7901435363,0.7641329612,-0.1831297268,-0.9557513466,-0.5379028616,-0.0676626419,-0.7336441132,-0.9781512399,0.9555461431,-0.6373582382,0.6300856485,0.6280327242,0.2229747132,0.9289191815,-0.2986177188,0.8574317833,0.9442244986,0.8876335396,-0.597244193,-0.6760357076,0.5845753949,-0.6538180944,-0.0782435597,-0.9315160144,0.6095361516,0.9353443817,-0.7346539081,0.7116892174,-0.1901293239,-0.5696316043,-0.0879017516,-0.4410430739,0.6138090401,-0.2505593433,-0.0644555682,-0.5015733256,0.7397769883,-0.2704856052,-0.2827306405,-0.6883050695,0.9129286636,0.0519776529,0.3027570712,0.6851272983,-0.3275550657,-0.0570074204,-0.3003370892,0.9800551252,0.5418702931,-0.9144513809,-0.7257683828,-0.8738626707,-0.811154345,-0.9810890732,0.7830018878,-0.891154407,-0.6295595414,0.6042808062,0.0673488299,-0.3788151665,-0.4527273207,0.743864434,0.4882840006,0.0446268982,-0.2693533938,-0.5352906618,0.8960027513,-0.3588130696,-0.2836256051,0.9423545681,0.9299279187,0.8748971503,0.8067144958,-0.6108379496,-0.960989403,-0.1127784256,0.2498727657,0.911717699,0.6760435008,0.4072423191,-0.9260886347,-0.042683851,-0.0879473128,-0.7704952489,-0.7712257672,-0.9202129456,-0.5837826686,-0.4420178893,0.6274210815,0.7152836222,-0.4154965129,0.9532066374,0.9223382259,0.5924311526,0.9238532068,0.3063551581,0.9297174524,0.3880077985,0.3946687069,0.3704266703,-0.4733660929,-0.227259251,0.5878452319,-0.2667242995,-0.497351462,0.3543607621,0.3262415169,-0.8748847989,-0.41981876,0.1250546188,0.1109764713,0.3043943757,0.7694320899,0.3095890205,-0.8867804159,0.6450020199,-0.5604481575,-0.0217641835,0.515312647,-0.2481611187,0.2246163262,-0.013786877,-0.1215571773,0.7392208465,-0.8977392556,-0.7614440196,0.097951521,0.5503690574,-0.4436365527,0.1801785532,0.8790193093,0.2290452382,-0.0696359648,-0.1324887102,0.2637093533,0.176052691,0.2390109977,0.6402496959,-0.9993261284,-0.5715544527,-0.0374637879,-0.3383218671,-0.6467941048,0.8303282748,-0.4433682273,0.0712277312,0.7399028151,0.3087424636,-0.0505593534,-0.6177606863,0.3392394435,0.2531102723,0.9095313084,-0.0266762708,-0.2088832655,-0.5684405012,-0.1636217099,-0.6725098439,-0.9812716783,-0.1252489707,-0.9178509559,-0.4921350613,0.6160590351,0.8502109476,0.7107692408,0.7463133906,-0.7677878376,-0.3878845817,0.5113406961,-0.5547680528,-0.62794705,-0.2176571764,0.5819384205,0.2134701053,-0.8776940843,-0.7317077058,0.5338043428,0.4175919746,0.8543099131,0.7501964353,-0.3265570912,-0.0633177936,-0.2678242078,-0.8089899606,-0.4976473226,0.549088259,-0.771206689,-0.2236513699,-0.201063807,0.0265355846,0.396113276,-0.4593114167,0.8398826191,0.5872218685,-0.255182607,-0.1855886223,-0.4277516079,0.8003182302,0.8838099049,0.4230852505,0.0450136315,0.3406738558,-0.0907726212,0.5959913265,-0.9950654625,0.4791495871,-0.930341592,0.4692923434,0.3792856864,-0.5658507541,-0.6798258276,-0.4604213956,-0.6828749923,-0.8882176658,0.687799233,0.0454525309,0.4344145599,0.005787997,-0.9013105342,-0.9568762327,-0.4165515468,-0.2324143819,0.2007148718,-0.4312936491,-0.6858337371,0.9549860187,0.806620487,-0.0327512659,-0.9597933234,0.3487663667,0.9882509531,-0.5077994017,0.5546104517,0.7769991705,-0.9093992506,0.3683176651,-0.7250456434,-0.0508916687,0.896273434,0.5755267253,-0.0373110042,-0.6391509588,-0.8048284645,0.7200916758,0.1846918969,-0.0758972574,0.7301114127,-0.3348866237,0.9691382226,-0.0710435459,0.2231155967,0.241526475,-0.8370870041,-0.4170126013,-0.1559682562,-0.086893639,0.9373221455,0.7248970224,-0.5482872309,0.7698719828,0.7820737078,-0.6037450024,-0.4846144764,0.6697180937,-0.6682393223,0.9126046402,0.675622417,0.8105409818,0.9097805671,0.6511619394,-0.6119933615,0.3046834662,0.1395505499,-0.4369127503,-0.3260067092,-0.9974869004,0.1073978248,0.230718477,0.2841760983,-0.1208373071,0.0222594758,0.9573096198,0.3220708144,0.2695232416,-0.7100870764,-0.9404289502,-0.1467698329,-0.2772069339,0.4949619126,-0.3559515761,0.6088150421,-0.0855235699,-0.2959677683,-0.3176313399,-0.2061782542,0.7621810443,-0.34667043,0.2663634728,0.0703796408,0.4746358806,0.4245597834,0.1377959381,0.4352175804,0.7392830633,0.3443534824,0.9325269354,0.8911218002,0.0056493808,-0.9369550758,0.72880603,0.7046329791,0.5058961813,-0.8877734582,-0.6294209879,-0.031183407,0.2038596438,0.1035448162,0.8835334331,0.2620691949,0.4100094296,0.3973577909,0.9718571081,-0.7441504377,0.9875737962,0.9773906968,-0.3846742048,-0.851061512,0.0821773437,-0.5587115983,0.4167395515,-0.0610493241,-0.2096230078,-0.297059892,-0.153214665,-0.7501001387,0.7139676309,-0.7875036476,0.9790842602,-0.7392055499,0.5207238084,-0.2723815318,0.2736537647,0.4034006166,-0.7724144199,0.2294984867,0.8510783283,-0.7433144597,-0.8436671637,0.157066896,-0.8243548124,-0.1802664873,-0.1583937094,0.8827746928,0.1150197842,0.7256709617,-0.1045847681,0.1263391939,0.7247351708,0.2243200539,0.3444577116,-0.8986323051,0.7305299041,-0.1811375243,-0.1766295831,0.6799489145,-0.1610257084,-0.9613243241,0.3015272991,-0.2016403939,0.9421666793,0.9274403062,0.4093468834,0.9795345713,0.1399992477,-0.9896072107,-0.1664260127,0.0305132931,-0.5017065973,0.1215096185,-0.2306463765,-0.0420762322,-0.0882054512,-0.5240992093,-0.3832478363,0.1627294557,0.5526051174,-0.1741412189,-0.8060648091,0.7295397372,-0.5024057613,-0.1956466052,0.5550651407,-0.4117062116,0.7340230343,-0.8330434859,-0.0718814167,0.1509212585,-0.6419160872,-0.5484728754,0.888974207,-0.6701126705,0.7579440866,-0.1980515131,-0.1560009447,0.3871615582,-0.0280634644,0.555104318,0.569468712,-0.3219546029,-0.2913121959,-0.2523608924,0.5274380994,-0.30207924,-0.2894866106,0.1045065962,-0.7466296541,0.5487341525,-0.7552852984,0.5218984345,0.3487775554,0.5067908461,0.1436104603,-0.3238217668,-0.6974222721,-0.9266704951,-0.3129985536,0.1099267019,-0.005635257,-0.0578299765,0.1196860735,-0.4260693791,0.5553010973,-0.2791270715,0.4609725355,0.2862789363,0.7121540435,0.3980052722,0.3644531444,0.6832890513,-0.2861695034,0.6444965254,-0.0012956997,-0.9312818112,-0.5057304616,0.90440065,-0.8842341863,0.4361579501,-0.3804757996,-0.1607166115,-0.146340506,-0.8909640867,-0.14835582,0.7061996394,0.5483063115,0.9390615828,-0.5817353497,0.278528764,0.6945363148,0.4148967366,-0.9681442967,-0.6051129178,0.6616180444,0.5257058765,-0.970316276,0.7555520502,0.8989625597,0.3832276027,-0.3736928558,-0.8838107849,-0.1089637459,0.6399310278,0.3325279995,0.9397714218,-0.3445385477,-0.7978869278,-0.2692779407,0.7164337138,0.9853804212,-0.0922031992,-0.2854993267,-0.984586804,-0.3057043919,0.3073814777,0.3203473982,0.208552403,0.716468218,-0.0653514351,0.9032558149,-0.5256421336,-0.2801976241,0.3500006673,-0.4742078202,0.2813007803,-0.8755724244,0.5139151154,-0.5053145003,0.7082242604,0.8298665664,0.5401651705,0.5808735563,-0.6780394751,0.1018461916,-0.0266754806,-0.8604256985,0.0261485019,-0.2829343856,-0.6565844315,0.6359192002,0.8878063835,0.6941602907,0.0067863319,-0.0867666965,-0.2931849552,0.0994767352,0.1737012896,-0.4314485093,0.9424534896,0.2811651117,-0.1556095631,0.6739075645,-0.1739411106,-0.133635185,0.4883362658,0.0155583709,0.0025749475,-0.5804276085,-0.3063332316,-0.0719084277,0.7678549662,0.3775024261,-0.5432740012,-0.4689575168,-0.2124569666,-0.0994792762,0.1902754336,0.2084826793,-0.7459844632,0.7586872842,-0.1682387445,-0.5134069982,0.2280873771,0.3174327059,0.277266022,-0.0600607649,-0.4247238643,0.0984139116,-0.8258769928,-0.8305812391,-0.5136815477,0.3906554233,0.7414035185,0.6742621319,-0.6608090755,-0.2009847325,-0.7874013665,-0.9856446148,-0.8209059566,0.6074007422,-0.8683509955,0.5696184026,-0.9675896068,-0.1845392158,-0.8380390264,0.2901844908,-0.2033452852,0.6835571873,0.6975471884,-0.9345967962,-0.7235792666,0.8693297753,-0.5371944129,0.3200624761,0.3020322862,-0.2259477634,0.7788109894,-0.3162458523,0.096949826,-0.2877286386,0.4757551647,-0.1787459502,-0.9151567697,-0.7812186903,-0.508232748,0.1097230751,0.0444169907,-0.1124390783,-0.684549081,0.835185949,-0.5808703898,0.699828878,0.07649456,-0.0497256405,-0.9847937394,-0.1529326528,-0.2234923974,-0.1697005603,-0.7891782162,-0.6646281852,-0.5238118064,-0.6167002895,-0.5183574253,-0.5438175791,0.35397366,-0.0827066501,-0.8191344263,0.2623072619,0.9735606057,0.7723595795,-0.651868758,0.0185943936,-0.745579655,0.0195669037,0.6311004314,-0.5106546002,-0.9916980649,-0.3082194603,-0.3345869952,0.5053456886,-0.5276358192,0.5967756307,-0.7608511187,-0.5704950283,0.4782687173,-0.7829913032,-0.087404734,-0.1114889859,-0.6349362743,0.4220842381,-0.7965310423,-0.2479595998,0.5916669755,0.1274006838,-0.0055339517,0.6503541117,0.5200277889,0.832413028,0.3672522214,-0.4759421758,0.8128569473,0.973202334,-0.2156631718,-0.8184070708,-0.7261718464,-0.799420424,0.4558818449,-0.3698864911,-0.2069425193,-0.0833301924,-0.6598486418,-0.2870668048,-0.9309150466,0.9791797066,-0.1466872643,-0.0475623801,-0.0419268981,-0.865256923,0.5951998476,0.1090285669,0.5020781822,-0.4112475708,0.9082153386,0.9243775796,0.3225259681,-0.0754833131,-0.3309219592,0.2300753655,0.3530479292,0.2260398771,-0.8559609997,0.7924457038,0.8741189511,-0.1914275491,-0.331141938,0.4173113269,0.0273528642,-0.9160129924,0.6796964099,0.6485932954,-0.4558172386,-0.6490501476,0.8806128122,-0.9419393665,-0.9105403862,0.4466667488,0.7685953934,0.6039673626,-0.5031028725,-0.2117484122,-0.7794696543,-0.3999126884,-0.5874885722,-0.375768841,-0.2181459469,0.6519599925,0.7031987054,-0.8539045699,0.8016933304,-0.759085278,-0.9453121385,-0.3227840683,0.6617507107,-0.1845944305,0.6658743179,-0.7500171339,-0.3954028793,0.3670625762,0.8916423863,-0.5716857016,0.5923723584,0.6255168536,-0.4364419676,-0.5509432086,-0.6012963481,-0.2841110337,0.1586671741,0.5709797233,0.2742310938,-0.5885340302,0.127153809,0.8856561791,0.8992464492,-0.7303307148,0.3024581418,0.8247002279,-0.2756117811,-0.3571337015,-0.2860010728,-0.7616780432,0.1223786116,-0.724694829,0.6583973106,-0.4762242547,0.9757479888,0.8845394175,0.0515485262,0.0562878094,-0.4079116731,-0.4947457501,0.2715416179,-0.3020783846,0.0853513553,0.7364213916,-0.5004150735,0.0934261222,-0.1271162149,-0.9830651892,0.9232041648,-0.2614157333,0.4488971483,-0.2535512017,0.8559001986,0.933221491,-0.1028698243,-0.5721949221,-0.7240214866,0.2702100495,-0.3613558905,-0.4839616621,-0.2211930442,-0.4081562866,0.6873842117,-0.0808119017,-0.8865520314,0.3186034164,0.7726017611,-0.4804906683,0.5547382878,0.6633249398,0.0520282306,0.5948690486,0.1773470533,0.5935287861,0.5153898752,0.1263700064,-0.7293229204,0.1725812543,0.5949098082,-0.3566237346,-0.3988667762,-0.0677445975,0.0921249431,0.2178761552,0.1630622477,0.4909810689,-0.6046040674,0.8328716625,-0.7040441493,0.2330873029,0.0340661931,0.1513904668,0.6908707414,-0.2056243794,0.8398217307,0.4890131461,0.0981865644,-0.4832234984,-0.3088014144,-0.2506207429,0.2319000858,0.005433854,0.5554450209,-0.3107248507,0.3176890203,-0.9528670923,0.8891805788,-0.5532896284,-0.2476779235,0.5223399984,0.0686341835,-0.4454261959,-0.3819725243,0.3389946884,0.7859720869,-0.17755033,-0.8201529583,0.2791424017,-0.8522484847,0.6523979382,-0.6655337223,0.2495972409,-0.9405757579,-0.8976091708,-0.2367675043,-0.3290558043,0.771845969,-0.7720397754,0.7451937676,0.5021514618,0.0397220621,-0.25570344,-0.4211225541,-0.321049822,-0.6218199701,0.6534603263,-0.764227117,0.7239115626,-0.8641220017,0.890684815,-0.9654717717,0.306276228,0.4310455669,-0.51425545,-0.3256677727,-0.884749772,-0.4649375854,-0.0908136016,0.5188213209,0.3364528257,0.3973421442,-0.2976379245,-0.834820287,-0.7992856849,0.7366694971,-0.0177742001,0.3345109444,-0.5808700492,0.0070685694,-0.0000256684,0.6080520936,0.0565774685,-0.5648432124,0.6935732332,-0.364783441,0.2803499842,-0.0596967465,0.6838720776,0.109871376,0.5246941906,0.0952629741,-0.0370567992,0.1624670337,0.5549442754,0.4520984914,0.5632356691,0.8135259692,-0.8367415124,0.8472833287,0.4098254976,0.946313266,0.463830753,-0.4202609154,-0.5312422254,-0.6576083945,0.572710391,-0.5266280114,0.3747339298,-0.431878422,0.2675379369,-0.3664377714,-0.6068045014,-0.899683742,0.4066420051,-0.9754097951,0.7573704508,0.4382935555,0.0827483743,0.1526816412,0.7884834283,-0.1769651747,0.448943059,-0.3822258943,-0.2306669371,-0.8444305981,-0.7784341645,0.0115504895,0.6766457286,0.1273044431,-0.111673147,0.9073715959,-0.081334303,-0.3399505136,-0.812961686,-0.7352553656,-0.3718371896,-0.0164602214,0.3055403466,0.5051161852,-0.9068619285,-0.3613238657,-0.9927656281,-0.7606388588,-0.7264581017,0.8303093035,-0.2921298411,-0.6097301596,-0.054890446,0.2331193467,-0.6124616239,-0.9488512627,-0.4345757438,-0.1682993163,-0.6398957406,0.094796379,-0.5198016608,-0.797680007,-0.0883376897,-0.3678155493,-0.9813533814,-0.8080766887,0.3050259692,0.4622672453,0.6264879386,-0.1709037177,-0.0400053434,0.1369057593,0.120947251,0.9900746847,0.5991570739,-0.4448794083,-0.1856299911,0.6081705659,0.1558161975,0.7597839436,0.3916732239,0.9315878804,0.6447851127,-0.0119323402,0.629478771,0.1648572813,0.1791302617,-0.4670174011,0.0812076055,0.3997340576,0.5174642467,-0.0464450344,0.3801675963,-0.4629142512,-0.2015061246,-0.5527164832,-0.7820745082,0.438801294,0.5577858923,-0.614095643,-0.6109371311,-0.0692382609,0.7735635973,-0.7601428432,0.7168587356,0.5162251037,0.8339485698,0.8186163229,0.4541456802,-0.5081700198,-0.3634528294,0.4366947467,0.8208460508,0.7841435395,0.5396680141,0.0563780044,-0.3946013804,0.7440595532,-0.088004923,0.6142064963,0.7124969082,0.7034646737,-0.9274345704,0.9279411514,-0.649037198,-0.9442879112,0.5665037489,-0.8383900721,0.169167702,-0.0024016595,-0.6565114255,-0.8327125565,0.0436710985,-0.09480788,-0.4283405681,-0.574426746,0.5929236579,-0.978640395,-0.9005999596,-0.377620033,0.168222914,0.2788379028,-0.5678181891,0.6132719803,-0.7879631265,-0.1152661252,-0.1338911165,-0.4418100376,0.8075884291,-0.7523066553,-0.1691460851,-0.421805254,0.710440188,-0.3998083939,-0.9926539211,0.3839635839,-0.8028080677,0.2581971433,0.2546269734,-0.5135293702,0.1003241856,0.4465164182,-0.9221318546,-0.1503844003,-0.3945649163,-0.0220216234,0.4733195119,0.2943880198,-0.9726825904,0.5554763146,0.1421946062,-0.1572934852,-0.9001610203,0.2994089338,0.9966718689,0.6957463176,-0.3604654167,0.2873166609
   -0.3309550753,-0.3499044247,0.9355340827,0.1864922003,0.8406811456,-0.6164985762,0.2926255208,0.8840579104,-0.42645972,-0.635266839,0.7334602126,-0.0517151593,0.9521294388,-0.5398490686,0.4332032286,-0.770759689,-0.4938150849,-0.3235721201,-0.2575272498,-0.4720626218,-0.7299633379,0.6614449908,-0.5856063975,-0.3856408824,0.2025757914,-0.0520173577,-0.9264698599,0.4497544538,-0.5009927214,-0.1380278459,0.7361528235,-0.6127610447,-0.3430695994,0.5108036807,0.8664465943,0.3626445431,0.4688362803,-0.9093447402,-0.3308673866,-0.0393356465,0.6387165967,-0.2823846324,-0.3984744011,-0.8120888443,0.3759173242,0.9894029453,-0.5231125296,-0.3000627195,-0.7020173079,-0.2798518147,0.9392939406,0.9468096366,-0.8914861239,-0.2040780134,0.5750702377,-0.8764595714,0.5670512872,-0.1321168546,0.4007605839,-0.0970781992,0.9452711599,0.4268919348,-0.7042591569,-0.295683011,-0.4509200024,0.1692817414,-0.9130508684,0.3019439364,0.9352675518,-0.3095515382,0.4840499258,0.5960545019,-0.1637346381,-0.8468463835,-0.7382730651,-0.5820868363,-0.5768931298,-0.1628354735,-0.1597957239,-0.1278508554,0.2972271673,-0.1000569743,0.235739898,-0.3998001207,-0.3970282405,-0.1313630449,-0.7560483934,-0.8642045275,-0.3989373504,-0.1831153645,0.1477988503,-0.0917827253,-0.8025333489,0.1124441915,0.2700217129,0.2788993985,0.5844313919,0.4946332249,-0.719219912,-0.4619741409,0.2624612261,-0.1380650269,-0.6765339273,0.3846521082,-0.1128487251,-0.1085145054,-0.5496429939,-0.5034750871,-0.260143717,0.0054430733,0.2687110675,-0.5127431333,-0.3245985585,0.5138141824,0.4789451667,-0.8240893856,-0.6317701734,0.7510170848,0.6621745603,0.9930514354,-0.6148578063,0.9772585324,-0.513817442,0.725998886,-0.6612270381,0.1461596626,-0.2935847369,0.0423917409,-0.8659980654,0.2895421353,0.6358346785,0.9306479335,-0.8289560144,-0.9783899667,-0.8248616284,-0.6742703115,0.1787612382,0.5061852297,-0.5597334803,0.6660601152,-0.9696144184,0.5060740717,0.5572136592,0.5367957845,0.0262909004,0.1196114534,-0.2199496429,-0.5441761624,0.6630805175,-0.5841361256,-0.2129494923,-0.578240738,0.2751492926,0.751687993,0.7489804577,0.8858112608,-0.3830103124,-0.3998431854,-0.8644510549,0.6290699384,0.6163226285,-0.3899151752,0.0889117079,0.2324154165,-0.0760591614,-0.8148543486,-0.0518906211,0.1848910293,-0.0044749403,0.3169224041,0.6757668311,-0.5342619334,0.2288025472,0.1442936705,0.4033873231,-0.5424848438,-0.9347846482,-0.2979881195,0.2801285816,-0.4756174757,-0.0223075939,0.553956507,0.1295999945,-0.3655528984,-0.8983183506,-0.0621963475,-0.2880519127,0.3686973515,-0.5708447809,-0.175521682,0.4456607311,0.9616870813,-0.2012201246,0.942652787,0.3109792105,-0.2049277349,0.551062046,-0.3887886538,-0.752757176,-0.2147788288,0.9947536456,0.2770109912,-0.9501068742,0.1280264085,0.3879143001,0.9014417562,0.2237730301,-0.17848392,-0.4838663286,-0.5721173188,-0.3540157885,-0.6498033023,0.8578978787,-0.9713231854,-0.676576336,0.2236177013,0.7961148884,0.2850332692,-0.2386483738,0.2016735254,-0.977009722,0.2104265706,0.1438768361,-0.8779671679,-0.5628401788,0.5423362175,0.4509236234,0.5554589559,0.5342981527,-0.4811852834,-0.0788761915,-0.2625811353,0.3363778349
##end
biasActivation=0,1,1,1
[BASIC:ACTIVATION]
"org.encog.engine.network.activation.ActivationSoftMax"
"org.encog.engine.network.activation.ActivationReLU",0,0
"org.encog.engine.network.activation.ActivationReLU",0,0
"org.encog.engine.network.activation.ActivationLinear"
